\data\
ngram 1=20
ngram 2=322
ngram 3=4295
ngram 4=34419

\1-grams:
-2.3552456	<unk>	0
0	<s>	-3.6284478
-1.2794285	</s>	0
-1.2544924	PROPN	-1.0128373
-1.2544924	ADP	-0.968483
-1.2544924	NOUN	-1.0100172
-1.2544924	VERB	-1.0057523
-1.2544924	DET	-0.9428345
-1.2544924	CCONJ	-0.9378521
-1.2544924	ADV	-0.98227125
-1.2544924	ADJ	-0.9777236
-1.2544924	PUNCT	-1.0170333
-1.2544924	PART	-0.87608194
-1.2544924	AUX	-0.93281186
-1.2544924	PRON	-0.93281186
-1.2544924	SCONJ	-0.89579076
-1.2544924	SYM	-0.75332767
-1.2544924	NUM	-0.9395192
-1.2544924	X	-0.7558749
-1.2794285	INTJ	-0.7187784

\2-grams:
-1.2368671	PROPN </s>	0
-1.449538	ADP </s>	0
-1.2589992	NOUN </s>	0
-1.281208	VERB </s>	0
-1.3821379	DET </s>	0
-1.6433984	CCONJ </s>	0
-1.3160707	ADV </s>	0
-1.2267057	ADJ </s>	0
-1.2410631	PUNCT </s>	0
-1.563289	PART </s>	0
-1.413867	AUX </s>	0
-1.4600638	PRON </s>	0
-1.5334448	SCONJ </s>	0
-1.8484627	SYM </s>	0
-1.3057201	NUM </s>	0
-1.1570907	X </s>	0
-1.7320322	INTJ </s>	0
-0.76408523	<s> PROPN	-2.8840835
-1.2346137	PROPN PROPN	-1.0145794
-1.1902593	ADP PROPN	-0.9825484
-1.2317935	NOUN PROPN	-0.8984756
-1.2275287	VERB PROPN	-0.9593567
-1.164611	DET PROPN	-0.92106813
-1.1596285	CCONJ PROPN	-0.75192577
-1.228867	ADV PROPN	-0.7999719
-1.1995001	ADJ PROPN	-0.9109443
-1.2388098	PUNCT PROPN	-0.9512367
-1.2524592	PART PROPN	-0.50592554
-1.2337551	AUX PROPN	-0.7841738
-1.2057319	PRON PROPN	-0.66239303
-1.196734	SCONJ PROPN	-0.81358725
-0.9384959	SYM PROPN	-0.8166291
-1.186115	NUM PROPN	-0.85156995
-1.0287948	X PROPN	-0.5624067
-1.11661	INTJ PROPN	-0.46805176
-1.040305	<s> ADP	-2.642948
-1.2346137	PROPN ADP	-0.87907463
-1.2694262	ADP ADP	-0.7822631
-1.2317935	NOUN ADP	-0.96536136
-1.2275287	VERB ADP	-0.9873771
-1.2437778	DET ADP	-0.7820994
-1.1844479	CCONJ ADP	-0.77693635
-1.228867	ADV ADP	-0.8633985
-1.1995001	ADJ ADP	-0.8812574
-1.2388098	PUNCT ADP	-0.8942386
-1.1548951	PART ADP	-0.68639636
-1.1794077	AUX ADP	-0.798897
-1.1794077	PRON ADP	-0.7672623
-1.1687107	SCONJ ADP	-0.85420215
-1.1955668	SYM ADP	-0.414386
-1.2124392	NUM ADP	-0.83362454
-1.278609	X ADP	-0.47165546
-1.1957695	INTJ ADP	-0.5366609
-1.1073909	<s> NOUN	-2.5656037
-1.259433	PROPN NOUN	-0.96362066
-1.1902593	ADP NOUN	-0.98428214
-1.2317935	NOUN NOUN	-0.99230295
-1.2275287	VERB NOUN	-0.9823947
-1.164611	DET NOUN	-0.9955561
-1.2387954	CCONJ NOUN	-0.78941685
-1.228867	ADV NOUN	-0.86584383
-1.1995001	ADJ NOUN	-1.0003906
-1.2388098	PUNCT NOUN	-0.9496509
-1.1002299	PART NOUN	-0.6974939
-1.2057319	AUX NOUN	-0.8584378
-1.2337551	PRON NOUN	-0.6617755
-1.1687107	SCONJ NOUN	-0.82794845
-0.9384959	SYM NOUN	-0.65254134
-1.1612957	NUM NOUN	-0.97998357
-1.1914852	X NOUN	-0.59385026
-1.11661	INTJ NOUN	-0.468496
-1.3499705	<s> VERB	-2.353588
-1.2346137	PROPN VERB	-0.9823947
-1.1902593	ADP VERB	-0.90353376
-1.2317935	NOUN VERB	-0.97735447
-1.2275287	VERB VERB	-0.92535615
-1.1894302	DET VERB	-0.94492644
-1.1844479	CCONJ VERB	-0.87524825
-1.2040477	ADV VERB	-0.95149505
-1.2786669	ADJ VERB	-0.89879704
-1.2636291	PUNCT VERB	-0.95481116
-1.0752783	PART VERB	-0.9496509
-1.1794077	AUX VERB	-0.9439983
-1.1545883	PRON VERB	-0.99230295
-1.1687107	SCONJ VERB	-0.808459
-1.0665029	SYM VERB	-0.42719698
-1.2124392	NUM VERB	-0.8668975
-1.1537064	X VERB	-0.43367857
-1.0197216	INTJ VERB	-0.54134166
-0.7047728	<s> DET	-2.9864388
-1.2346137	PROPN DET	-0.8210028
-1.1902593	ADP DET	-0.9326865
-1.2566129	NOUN DET	-0.8588856
-1.2275287	VERB DET	-0.9463362
-1.1894302	DET DET	-0.8194113
-1.1844479	CCONJ DET	-0.7943546
-1.2551912	ADV DET	-0.8642144
-1.3086239	ADJ DET	-0.73069113
-1.2388098	PUNCT DET	-0.8987293
-1.1267029	PART DET	-0.71236104
-1.1545883	AUX DET	-0.86101747
-1.2337551	PRON DET	-0.7450228
-1.1175672	SCONJ DET	-0.8520455
-1.3800275	SYM DET	-0.36144
-1.2404625	NUM DET	-0.6753883
-1.232866	X DET	-0.4744088
-1.292647	INTJ DET	-0.38199812
-1.4659631	<s> CCONJ	-2.2252562
-1.2346137	PROPN CCONJ	-0.90353376
-1.2150787	ADP CCONJ	-0.68279433
-1.2317935	NOUN CCONJ	-0.9403333
-1.2275287	VERB CCONJ	-0.8625752
-1.2737348	DET CCONJ	-0.5802797
-1.5117207	CCONJ CCONJ	-0.3566526
-1.2551912	ADV CCONJ	-0.75458926
-1.1995001	ADJ CCONJ	-0.86889005
-1.2388098	PUNCT CCONJ	-0.93477726
-1.4301901	PART CCONJ	-0.37813997
-1.2958897	AUX CCONJ	-0.59557825
-1.2337551	PRON CCONJ	-0.6806476
-1.2936224	SCONJ CCONJ	-0.47513452
-1.5689837	SYM CCONJ	-0.36541232
-1.2124392	NUM CCONJ	-0.79764396
-1.454628	X CCONJ	-0.36458552
-1.2415125	INTJ CCONJ	-0.36864668
-1.0883286	<s> ADV	-2.6028855
-1.259433	PROPN ADV	-0.8682358
-1.2150787	ADP ADV	-0.8780783
-1.2317935	NOUN ADV	-0.90786546
-1.2275287	VERB ADV	-0.9558569
-1.1894302	DET ADV	-0.81668794
-1.1844479	CCONJ ADV	-0.8506925
-1.2040477	ADV ADV	-0.91906214
-1.2786669	ADJ ADV	-0.82813907
-1.2388098	PUNCT ADV	-0.9630063
-1.1548951	PART ADV	-0.82578486
-1.1794077	AUX ADV	-0.8910691
-1.1545883	PRON ADV	-0.77320737
-1.226691	SCONJ ADV	-0.78609115
-1.2487966	SYM ADV	-0.35299504
-1.2124392	NUM ADV	-0.7014312
-1.3877122	X ADV	-0.35791942
-1.11661	INTJ ADV	-0.4325466
-1.3251823	<s> ADJ	-2.3596423
-1.2346137	PROPN ADJ	-0.7475944
-1.1902593	ADP ADJ	-0.8910691
-1.2317935	NOUN ADJ	-0.87763625
-1.2275287	VERB ADJ	-0.8966463
-1.164611	DET ADJ	-0.9088909
-1.1844479	CCONJ ADJ	-0.7584529
-1.2551912	ADV ADJ	-0.9326838
-1.2243195	ADJ ADJ	-0.81228447
-1.2636291	PUNCT ADJ	-0.8727727
-1.1850451	PART ADJ	-0.76506007
-1.2057319	AUX ADJ	-0.895441
-1.2057319	PRON ADJ	-0.72421503
-1.196734	SCONJ ADJ	-0.75825596
-1.0665029	SYM ADJ	-0.52261364
-1.2124392	NUM ADJ	-0.7729183
-1.1537064	X ADJ	-0.48991406
-1.2415125	INTJ ADJ	-0.44670278
-1.4396771	<s> PUNCT	-2.2084987
-1.2346137	PROPN PUNCT	-1.0445426
-1.2150787	ADP PUNCT	-0.8484547
-1.2317935	NOUN PUNCT	-1.0430925
-1.2275287	VERB PUNCT	-0.9971736
-1.2437778	DET PUNCT	-0.8640865
-1.2387954	CCONJ PUNCT	-0.62330174
-1.2040477	ADV PUNCT	-0.97735447
-1.1995001	ADJ PUNCT	-0.98406184
-1.2388098	PUNCT PUNCT	-1.0003906
-1.1548951	PART PUNCT	-0.7497695
-1.2337551	AUX PUNCT	-0.8330772
-1.1545883	PRON PUNCT	-0.87705153
-1.226691	SCONJ PUNCT	-0.76941305
-1.1054126	SYM PUNCT	-0.5221934
-1.186115	NUM PUNCT	-0.9439983
-1.0024706	X PUNCT	-0.7104361
-0.9916984	INTJ PUNCT	-0.65578747
-2.2457464	<s> PART	-1.5954207
-1.259433	PROPN PART	-0.8466795
-1.2694262	ADP PART	-0.55238706
-1.2317935	NOUN PART	-0.83932835
-1.2523481	VERB PART	-0.8375719
-1.340666	DET PART	-0.5249864
-1.2687523	CCONJ PART	-0.6794371
-1.2551912	ADV PART	-0.72808135
-1.2243195	ADJ PART	-0.71614474
-1.2388098	PUNCT PART	-0.8019796
-1.2174454	PART PART	-0.70370835
-1.1794077	AUX PART	-0.81448495
-1.2637122	PRON PART	-0.6913178
-1.2588686	SCONJ PART	-0.64235765
-1.610348	SYM PART	-0.34331065
-1.2404625	NUM PART	-0.578511
-1.454628	X PART	-0.39407033
-1.5935144	INTJ PART	-0.31028745
-2.0558863	<s> AUX	-1.7014618
-1.2346137	PROPN AUX	-0.946198
-1.2694262	ADP AUX	-0.6403667
-1.2317935	NOUN AUX	-0.94254327
-1.2523481	VERB AUX	-0.881567
-1.1894302	DET AUX	-0.88233507
-1.2387954	CCONJ AUX	-0.7550792
-1.2040477	ADV AUX	-0.89146566
-1.2243195	ADJ AUX	-0.81936496
-1.2636291	PUNCT AUX	-0.9118217
-1.1267029	PART AUX	-0.85457164
-1.1794077	AUX AUX	-0.7788217
-1.1545883	PRON AUX	-0.9717764
-1.226691	SCONJ AUX	-0.66345453
-1.5689837	SYM AUX	-0.36541232
-1.2404625	NUM AUX	-0.7683445
-1.3877122	X AUX	-0.32789624
-1.292647	INTJ AUX	-0.37529293
-0.8600123	<s> PRON	-2.8435414
-1.2346137	PROPN PRON	-0.6775254
-1.2150787	ADP PRON	-0.9094236
-1.2317935	NOUN PRON	-0.7968897
-1.2275287	VERB PRON	-0.95698094
-1.2157545	DET PRON	-0.677765
-1.1844479	CCONJ PRON	-0.7619526
-1.2040477	ADV PRON	-0.79417473
-1.2506436	ADJ PRON	-0.688492
-1.2636291	PUNCT PRON	-0.87011737
-1.2905453	PART PRON	-0.5610706
-1.1794077	AUX PRON	-0.8414498
-1.1794077	PRON PRON	-0.6542398
-1.1423866	SCONJ PRON	-0.790709
-1.4643091	SYM PRON	-0.34683946
-1.2404625	NUM PRON	-0.56548923
-1.278609	X PRON	-0.41489416
-1.0818563	INTJ PRON	-0.5565205
-1.4307382	<s> SCONJ	-2.2711842
-1.2346137	PROPN SCONJ	-0.8019796
-1.2694262	ADP SCONJ	-0.58806854
-1.2566129	NOUN SCONJ	-0.85867786
-1.2523481	VERB SCONJ	-0.92852783
-1.3784448	DET SCONJ	-0.5385503
-1.2387954	CCONJ SCONJ	-0.6644569
-1.228867	ADV SCONJ	-0.82137984
-1.1995001	ADJ SCONJ	-0.8770689
-1.2636291	PUNCT SCONJ	-0.9216239
-1.2905453	PART SCONJ	-0.54634005
-1.2637122	AUX SCONJ	-0.78377575
-1.2337551	PRON SCONJ	-0.59334606
-1.226691	SCONJ SCONJ	-0.74508893
-1.8319887	SYM SCONJ	-0.34331065
-1.2404625	NUM SCONJ	-0.5635062
-1.454628	X SCONJ	-0.3881284
-1.4175315	INTJ SCONJ	-0.4018314
-2.9911575	<s> SYM	-1.0461533
-1.2857572	PROPN SYM	-0.750758
-1.2993833	ADP SYM	-0.6722859
-1.3109604	NOUN SYM	-0.69034475
-1.3066956	VERB SYM	-0.7130527
-1.2737348	DET SYM	-0.6642799
-1.2387954	CCONJ SYM	-0.6025508
-1.3453491	ADV SYM	-0.61802596
-1.2786669	ADJ SYM	-0.6893891
-1.3479337	PUNCT SYM	-0.6669618
-1.4888866	PART SYM	-0.43438348
-1.3684222	AUX SYM	-0.5039875
-1.2958897	PRON SYM	-0.54744387
-1.5276281	SCONJ SYM	-0.48006505
-1.4643091	SYM SYM	-0.3768998
-1.2124392	NUM SYM	-0.6573118
-1.7554413	X SYM	-0.37303677
-1.7183448	INTJ SYM	-0.36541232
-1.8492988	<s> NUM	-1.8419341
-1.259433	PROPN NUM	-0.8593447
-1.2414029	ADP NUM	-0.9179394
-1.2566129	NOUN NUM	-0.7871771
-1.2786722	VERB NUM	-0.8199795
-1.2437778	DET NUM	-0.7563274
-1.3009299	CCONJ NUM	-0.63108885
-1.228867	ADV NUM	-0.7596553
-1.2243195	ADJ NUM	-0.6689318
-1.2636291	PUNCT NUM	-0.8226938
-1.2524592	PART NUM	-0.5330419
-1.2337551	AUX NUM	-0.7041965
-1.5066805	PRON NUM	-0.3945619
-1.1687107	SCONJ NUM	-0.696694
-0.9116277	SYM NUM	-0.77169204
-1.2404625	NUM NUM	-0.8135575
-1.454628	X NUM	-0.45982334
-1.4966694	INTJ NUM	-0.40719748
-2.2599463	<s> X	-1.5591037
-1.3137805	PROPN X	-0.65004194
-1.3315607	ADP X	-0.54508567
-1.2566129	NOUN X	-0.6207693
-1.3688301	VERB X	-0.44616035
-1.3059123	DET X	-0.60497224
-1.2687523	CCONJ X	-0.4869187
-1.3801029	ADV X	-0.40003604
-1.4133339	ADJ X	-0.4434409
-1.2636291	PUNCT X	-0.5955623
-1.7748723	PART X	-0.34331068
-1.5646492	AUX X	-0.33869436
-1.631565	PRON X	-0.32487795
-1.5945439	SCONJ X	-0.4018314
-1.309474	SYM X	-0.4306376
-1.6382724	NUM X	-0.33697587
-1.0024706	X X	-0.64256203
-1.7183448	INTJ X	-0.3768998
-2.1612375	<s> INTJ	-1.561985
-1.414053	PROPN INTJ	-0.41995212
-1.5474371	ADP INTJ	-0.36124742
-1.537269	NOUN INTJ	-0.4552117
-1.3719531	VERB INTJ	-0.5019395
-1.7288893	DET INTJ	-0.35580212
-1.4189072	CCONJ INTJ	-0.43761685
-1.4633263	ADV INTJ	-0.3757514
-1.6832699	ADJ INTJ	-0.34683946
-1.2660154	PUNCT INTJ	-0.732156
-1.6451303	PART INTJ	-0.37303677
-1.7188667	AUX INTJ	-0.3738393
-1.4600638	PRON INTJ	-0.38492107
-1.6013371	SCONJ INTJ	-0.37408036
-1.8244828	NUM INTJ	-0.3792342
-1.5419297	X INTJ	-0.32413393
-1.2460302	INTJ INTJ	-0.39348137

\3-grams:
-2.1703322	<s> PROPN </s>	0
-1.2150487	PROPN PROPN </s>	0
-1.2217264	ADP PROPN </s>	0
-1.1997827	NOUN PROPN </s>	0
-1.3745649	VERB PROPN </s>	0
-1.4910996	DET PROPN </s>	0
-1.6895847	CCONJ PROPN </s>	0
-1.6006112	ADV PROPN </s>	0
-1.3718895	ADJ PROPN </s>	0
-1.3398592	PUNCT PROPN </s>	0
-1.462079	PART PROPN </s>	0
-1.7023945	AUX PROPN </s>	0
-1.5891739	PRON PROPN </s>	0
-1.4358664	SCONJ PROPN </s>	0
-1.03324	SYM PROPN </s>	0
-1.5436207	NUM PROPN </s>	0
-1.4426259	X PROPN </s>	0
-1.3071724	INTJ PROPN </s>	0
-3.8840604	<s> ADP </s>	0
-1.9106178	PROPN ADP </s>	0
-1.6609462	NOUN ADP </s>	0
-1.4927137	VERB ADP </s>	0
-1.9485282	ADV ADP </s>	0
-2.12237	ADJ ADP </s>	0
-1.9257817	PUNCT ADP </s>	0
-2.0321589	AUX ADP </s>	0
-1.968992	PRON ADP </s>	0
-2.0416725	NUM ADP </s>	0
-2.2259135	<s> NOUN </s>	0
-1.2204803	PROPN NOUN </s>	0
-1.1974776	ADP NOUN </s>	0
-1.2211107	NOUN NOUN </s>	0
-1.2112024	VERB NOUN </s>	0
-1.2824056	DET NOUN </s>	0
-1.5901446	CCONJ NOUN </s>	0
-1.8458657	ADV NOUN </s>	0
-1.2028488	ADJ NOUN </s>	0
-1.4192785	PUNCT NOUN </s>	0
-1.406209	PART NOUN </s>	0
-1.4810827	AUX NOUN </s>	0
-1.6250306	PRON NOUN </s>	0
-1.4505934	SCONJ NOUN </s>	0
-1.0271056	SYM NOUN </s>	0
-1.2568479	NUM NOUN </s>	0
-1.6267446	X NOUN </s>	0
-3.292534	<s> VERB </s>	0
-1.5166432	PROPN VERB </s>	0
-1.8534323	ADP VERB </s>	0
-1.3719969	NOUN VERB </s>	0
-1.5182809	VERB VERB </s>	0
-1.894825	DET VERB </s>	0
-1.4592758	CCONJ VERB </s>	0
-1.4765596	ADV VERB </s>	0
-2.0111296	ADJ VERB </s>	0
-1.9230791	PUNCT VERB </s>	0
-1.3764496	PART VERB </s>	0
-1.3803806	AUX VERB </s>	0
-1.4286853	PRON VERB </s>	0
-1.9298524	SCONJ VERB </s>	0
-1.264751	SYM VERB </s>	0
-1.3357154	X VERB </s>	0
-4.181859	<s> DET </s>	0
-1.9760755	PROPN DET </s>	0
-1.9874009	ADP DET </s>	0
-2.0403106	NOUN DET </s>	0
-1.5438073	VERB DET </s>	0
-1.9860044	CCONJ DET </s>	0
-2.0456393	ADV DET </s>	0
-1.9067698	PUNCT DET </s>	0
-1.9093702	AUX DET </s>	0
-1.9160795	PRON DET </s>	0
-1.9025882	SCONJ DET </s>	0
-2.911229	<s> CCONJ </s>	0
-2.2541232	PROPN CCONJ </s>	0
-1.8799798	NOUN CCONJ </s>	0
-2.2131646	VERB CCONJ </s>	0
-2.1082458	ADV CCONJ </s>	0
-1.8744237	PUNCT CCONJ </s>	0
-3.4265606	<s> ADV </s>	0
-1.5052344	PROPN ADV </s>	0
-1.8871859	ADP ADV </s>	0
-1.4481548	NOUN ADV </s>	0
-1.3754613	VERB ADV </s>	0
-1.9553405	DET ADV </s>	0
-1.8598001	CCONJ ADV </s>	0
-1.3923088	ADV ADV </s>	0
-1.7788062	ADJ ADV </s>	0
-1.9386301	PUNCT ADV </s>	0
-1.7284911	AUX ADV </s>	0
-1.919209	PRON ADV </s>	0
-1.9247438	SCONJ ADV </s>	0
-1.4755981	INTJ ADV </s>	0
-2.7567763	<s> ADJ </s>	0
-1.6348987	PROPN ADJ </s>	0
-1.8209157	ADP ADJ </s>	0
-1.366767	NOUN ADJ </s>	0
-1.4116471	VERB ADJ </s>	0
-1.5432502	DET ADJ </s>	0
-1.5461752	CCONJ ADJ </s>	0
-1.4218146	ADV ADJ </s>	0
-1.7816269	ADJ ADJ </s>	0
-1.597588	PUNCT ADJ </s>	0
-1.7082167	PART ADJ </s>	0
-1.3993998	AUX ADJ </s>	0
-1.6140819	PRON ADJ </s>	0
-1.5379361	SCONJ ADJ </s>	0
-1.5020996	SYM ADJ </s>	0
-1.698268	NUM ADJ </s>	0
-1.3955771	X ADJ </s>	0
-1.7657264	<s> PUNCT </s>	0
-1.2206434	PROPN PUNCT </s>	0
-1.1333562	ADP PUNCT </s>	0
-1.2191933	NOUN PUNCT </s>	0
-1.1732744	VERB PUNCT </s>	0
-1.1191279	DET PUNCT </s>	0
-1.1737757	CCONJ PUNCT </s>	0
-1.2044573	ADV PUNCT </s>	0
-1.1601626	ADJ PUNCT </s>	0
-1.1764914	PUNCT PUNCT </s>	0
-1.0234609	PART PUNCT </s>	0
-1.0978056	AUX PUNCT </s>	0
-1.077905	PRON PUNCT </s>	0
-1.2213494	SCONJ PUNCT </s>	0
-0.46451288	SYM PUNCT </s>	0
-1.1990396	NUM PUNCT </s>	0
-0.9953376	X PUNCT </s>	0
-0.9022027	INTJ PUNCT </s>	0
-1.896554	PROPN PART </s>	0
-2.129873	NOUN PART </s>	0
-2.11549	VERB PART </s>	0
-1.9616963	CCONJ PART </s>	0
-1.8770278	PUNCT PART </s>	0
-2.1074297	AUX PART </s>	0
-2.012489	PROPN AUX </s>	0
-1.7047884	NOUN AUX </s>	0
-2.0820296	VERB AUX </s>	0
-1.8724965	DET AUX </s>	0
-1.9442888	CCONJ AUX </s>	0
-1.9542428	ADV AUX </s>	0
-2.1129618	PUNCT AUX </s>	0
-2.058404	PART AUX </s>	0
-1.9765023	AUX AUX </s>	0
-2.0345535	PRON AUX </s>	0
-3.917738	<s> PRON </s>	0
-1.5763077	ADP PRON </s>	0
-1.5085413	VERB PRON </s>	0
-1.9813069	CCONJ PRON </s>	0
-1.84764	ADV PRON </s>	0
-1.941793	PUNCT PRON </s>	0
-1.7432282	PART PRON </s>	0
-2.0335782	SCONJ PRON </s>	0
-1.383041	NUM PRON </s>	0
-3.554202	<s> SCONJ </s>	0
-1.8367103	ADP SCONJ </s>	0
-2.1524494	NOUN SCONJ </s>	0
-1.9729363	VERB SCONJ </s>	0
-2.162945	ADJ SCONJ </s>	0
-2.1990514	PUNCT SCONJ </s>	0
-1.8498181	PRON SCONJ </s>	0
-1.8085964	NUM SYM </s>	0
-2.6622512	<s> NUM </s>	0
-1.2248081	PROPN NUM </s>	0
-1.5559661	ADP NUM </s>	0
-1.327426	NOUN NUM </s>	0
-1.4529799	VERB NUM </s>	0
-1.8903668	DET NUM </s>	0
-1.8936948	ADV NUM </s>	0
-1.6117032	ADJ NUM </s>	0
-1.533296	PUNCT NUM </s>	0
-1.6270504	PART NUM </s>	0
-1.8353647	AUX NUM </s>	0
-1.5642366	SYM NUM </s>	0
-1.479973	NUM NUM </s>	0
-2.059809	<s> X </s>	0
-1.1372788	PROPN X </s>	0
-0.9867059	ADP X </s>	0
-1.036388	NOUN X </s>	0
-0.8877806	VERB X </s>	0
-1.1490494	CCONJ X </s>	0
-1.0611557	ADV X </s>	0
-1.1148136	PUNCT X </s>	0
-0.5305516	SYM X </s>	0
-0.7449513	NUM X </s>	0
-1.4326302	X X </s>	0
-1.010817	INTJ X </s>	0
-2.4545064	<s> INTJ </s>	0
-1.5729352	NOUN INTJ </s>	0
-1.4904617	PUNCT INTJ </s>	0
-0.42090416	<s> PROPN PROPN	-2.4839058
-1.190121	PROPN PROPN PROPN	-3.0098052
-1.1423763	ADP PROPN PROPN	-2.7382226
-1.0583036	NOUN PROPN PROPN	-2.2293725
-1.1191846	VERB PROPN PROPN	-2.0247636
-1.1057025	DET PROPN PROPN	-2.6975517
-1.0208149	CCONJ PROPN PROPN	-2.033537
-0.96684223	ADV PROPN PROPN	-1.3310138
-1.0955787	ADJ PROPN PROPN	-1.9905853
-1.1267784	PUNCT PROPN PROPN	-2.5826452
-0.9649954	PART PROPN PROPN	-1.7384263
-0.98863643	AUX PROPN PROPN	-1.3059057
-0.81953424	PRON PROPN PROPN	-0.87269956
-1.0350012	SCONJ PROPN PROPN	-1.741457
-1.1229932	SYM PROPN PROPN	-0.9654767
-1.059868	NUM PROPN PROPN	-1.4640485
-0.7332506	X PROPN PROPN	-1.0205587
-0.73939085	INTJ PROPN PROPN	-0.7438068
-0.71903056	<s> ADP PROPN	-1.9682508
-1.0349891	PROPN ADP PROPN	-2.6169097
-0.9647754	ADP ADP PROPN	-1.4052452
-1.1368461	NOUN ADP PROPN	-3.01485
-1.1588618	VERB ADP PROPN	-2.576291
-0.98042464	DET ADP PROPN	-1.074741
-1.0647544	CCONJ ADP PROPN	-1.1052898
-1.0595163	ADV ADP PROPN	-1.7857934
-1.0717303	ADJ ADP PROPN	-1.696291
-1.0747305	PUNCT ADP PROPN	-1.8697486
-0.84356016	PART ADP PROPN	-0.7275666
-1.0289184	AUX ADP PROPN	-1.405173
-0.9614505	PRON ADP PROPN	-1.2227415
-0.9542469	SCONJ ADP PROPN	-1.183373
-1.2441877	SYM ADP PROPN	-0.28614002
-0.97806776	NUM ADP PROPN	-1.4452909
-0.7524959	X ADP PROPN	-0.3312941
-0.85605466	INTJ ADP PROPN	-0.5101646
-1.5967903	<s> NOUN PROPN	-1.197549
-1.163621	PROPN NOUN PROPN	-1.7527102
-1.2229474	ADP NOUN PROPN	-1.3337655
-1.2184995	NOUN NOUN PROPN	-1.7599616
-1.2364695	VERB NOUN PROPN	-1.0940806
-1.2217526	DET NOUN PROPN	-1.7400804
-1.2747476	CCONJ NOUN PROPN	-1.3438
-1.2476901	ADV NOUN PROPN	-0.6186341
-1.2003909	ADJ NOUN PROPN	-1.9447823
-1.2235996	PUNCT NOUN PROPN	-1.425977
-1.4962682	PART NOUN PROPN	-0.9462199
-1.4070055	AUX NOUN PROPN	-0.5102671
-1.3243232	PRON NOUN PROPN	-0.50995976
-1.3765162	SCONJ NOUN PROPN	-0.66611123
-1.2496423	SYM NOUN PROPN	-0.474238
-1.1961076	NUM NOUN PROPN	-0.9325444
-0.88974184	X NOUN PROPN	-0.4563403
-1.2112007	INTJ NOUN PROPN	-0.28614002
-1.2700238	<s> VERB PROPN	-1.1847442
-1.1819968	PROPN VERB PROPN	-1.6851746
-1.0975947	ADP VERB PROPN	-1.4067224
-1.2031281	NOUN VERB PROPN	-1.7181449
-1.1789801	VERB VERB PROPN	-1.3039154
-1.1970772	DET VERB PROPN	-1.3774128
-1.2529672	CCONJ VERB PROPN	-1.1195134
-1.195129	ADV VERB PROPN	-1.4521948
-1.168791	ADJ VERB PROPN	-0.61861116
-1.1544133	PUNCT VERB PROPN	-1.8024992
-1.139126	PART VERB PROPN	-1.7641113
-1.1976222	AUX VERB PROPN	-1.4221027
-1.2180766	PRON VERB PROPN	-1.5450194
-1.2302845	SCONJ VERB PROPN	-0.5218697
-1.0958974	SYM VERB PROPN	-0.28614002
-1.201643	NUM VERB PROPN	-0.57331884
-1.3124834	X VERB PROPN	-0.28614002
-1.0591176	INTJ VERB PROPN	-0.34161243
-0.96130604	<s> DET PROPN	-2.069256
-0.93329054	PROPN DET PROPN	-1.1176558
-1.1261345	ADP DET PROPN	-2.7913768
-1.0945547	NOUN DET PROPN	-1.3987882
-1.0998163	VERB DET PROPN	-2.1385531
-1.0283641	DET DET PROPN	-1.092351
-0.9932484	CCONJ DET PROPN	-1.74337
-1.0098974	ADV DET PROPN	-1.4089028
-1.0134584	ADJ DET PROPN	-0.39738
-1.0820458	PUNCT DET PROPN	-2.134489
-0.8864083	PART DET PROPN	-0.70714086
-1.043788	AUX DET PROPN	-1.4817866
-1.0293105	PRON DET PROPN	-0.92389464
-1.0661526	SCONJ DET PROPN	-1.846774
-1.0433952	SYM DET PROPN	-0.28614002
-1.0519688	NUM DET PROPN	-0.4703625
-0.8554661	X DET PROPN	-0.28540656
-0.9340736	INTJ DET PROPN	-0.28540656
-1.1231588	<s> CCONJ PROPN	-1.2625748
-1.0403603	PROPN CCONJ PROPN	-2.4917402
-1.0313361	ADP CCONJ PROPN	-0.97484654
-1.1330978	NOUN CCONJ PROPN	-1.7306788
-1.1728194	VERB CCONJ PROPN	-1.0573885
-0.9747682	DET CCONJ PROPN	-0.36969474
-1.0662134	CCONJ CCONJ PROPN	-0.28516236
-1.1922084	ADV CCONJ PROPN	-0.70946974
-1.0824358	ADJ CCONJ PROPN	-1.0853713
-1.1275417	PUNCT CCONJ PROPN	-1.7955943
-1.1897465	PART CCONJ PROPN	-0.86347127
-1.4162817	AUX CCONJ PROPN	-0.28540656
-1.0099394	PRON CCONJ PROPN	-0.6329392
-0.95631737	SCONJ CCONJ PROPN	-0.5105747
-0.7787247	SYM CCONJ PROPN	-0.28614002
-1.0516824	NUM CCONJ PROPN	-0.99984115
-1.1934345	X CCONJ PROPN	-0.28614002
-1.0034631	INTJ CCONJ PROPN	-0.28614002
-1.6177762	<s> ADV PROPN	-1.146051
-1.1826617	PROPN ADV PROPN	-0.7883763
-1.2177303	ADP ADV PROPN	-0.83449507
-1.223362	NOUN ADV PROPN	-1.0582262
-1.2842321	VERB ADV PROPN	-1.0423496
-1.4024379	DET ADV PROPN	-0.41589698
-1.1903445	CCONJ ADV PROPN	-0.9274568
-1.2541062	ADV ADV PROPN	-0.6949401
-1.4291735	ADJ ADV PROPN	-0.39525726
-1.23127	PUNCT ADV PROPN	-1.210836
-1.1182523	PART ADV PROPN	-0.5562688
-1.3004581	AUX ADV PROPN	-0.8341811
-1.6853614	PRON ADV PROPN	-0.4274325
-1.2435462	SCONJ ADV PROPN	-0.5848415
-1.2695593	NUM ADV PROPN	-0.5245967
-1.146139	X ADV PROPN	-0.28614002
-1.1901468	INTJ ADV PROPN	-0.28516236
-0.995851	<s> ADJ PROPN	-1.4629315
-0.934412	PROPN ADJ PROPN	-0.9622621
-1.0675433	ADP ADJ PROPN	-1.7048013
-1.061839	NOUN ADJ PROPN	-1.0036777
-1.1669165	VERB ADJ PROPN	-1.1923673
-1.1163853	DET ADJ PROPN	-2.0418403
-1.2937841	CCONJ ADJ PROPN	-1.1285313
-1.1747055	ADV ADJ PROPN	-1.1017138
-0.9985647	ADJ ADJ PROPN	-1.439746
-1.1233329	PUNCT ADJ PROPN	-2.3876472
-1.263861	PART ADJ PROPN	-1.0851009
-1.1855568	AUX ADJ PROPN	-0.75489175
-1.0212868	PRON ADJ PROPN	-0.42593333
-1.0867916	SCONJ ADJ PROPN	-0.9448213
-1.0896049	SYM ADJ PROPN	-0.30249378
-0.90299666	NUM ADJ PROPN	-0.76039267
-0.93390834	X ADJ PROPN	-0.30645472
-0.84945434	INTJ ADJ PROPN	-0.30300224
-0.8936204	<s> PUNCT PROPN	-1.3844184
-1.2204489	PROPN PUNCT PROPN	-2.7584724
-1.1331064	ADP PUNCT PROPN	-1.4289945
-1.2189988	NOUN PUNCT PROPN	-2.425822
-1.2240578	VERB PUNCT PROPN	-1.618891
-1.1487381	DET PUNCT PROPN	-1.5433283
-1.1146225	CCONJ PUNCT PROPN	-0.9976383
-1.2321626	ADV PUNCT PROPN	-1.632189
-1.210946	ADJ PUNCT PROPN	-1.4189917
-1.2272748	PUNCT PUNCT PROPN	-1.8822298
-1.2951913	PART PUNCT PROPN	-0.9113374
-1.1298025	AUX PUNCT PROPN	-0.82277733
-1.2283508	PRON PUNCT PROPN	-0.9460254
-1.0606532	SCONJ PUNCT PROPN	-1.066058
-0.7712683	SYM PUNCT PROPN	-0.4085954
-1.1708823	NUM PUNCT PROPN	-1.5678413
-1.0617354	X PUNCT PROPN	-0.9559942
-1.0954112	INTJ PUNCT PROPN	-0.8453996
-1.003879	PROPN PART PROPN	-1.9688722
-1.5820234	ADP PART PROPN	-0.28614002
-1.0923032	NOUN PART PROPN	-1.2219864
-1.4982839	VERB PART PROPN	-0.29834723
-1.3468734	CCONJ PART PROPN	-0.5687156
-1.6609204	ADV PART PROPN	-0.3205457
-1.6107785	ADJ PART PROPN	-0.28614002
-1.5570588	PUNCT PART PROPN	-0.5245967
-1.3471013	AUX PART PROPN	-0.5364028
-1.533084	PRON PART PROPN	-0.28614002
-1.6872754	SCONJ PART PROPN	-0.28614002
-1.4346823	NUM PART PROPN	-0.28516236
-1.2788447	<s> AUX PROPN	-0.572675
-1.1695743	PROPN AUX PROPN	-0.93006
-1.2675176	ADP AUX PROPN	-0.43296173
-1.2782085	NOUN AUX PROPN	-1.2310901
-1.2392519	VERB AUX PROPN	-0.5465202
-1.3051287	DET AUX PROPN	-0.829944
-1.505379	CCONJ AUX PROPN	-0.28540656
-1.1715394	ADV AUX PROPN	-0.8654972
-1.4518315	ADJ AUX PROPN	-0.4274325
-1.1224272	PUNCT AUX PROPN	-0.7755285
-1.2664322	PART AUX PROPN	-0.7484279
-1.4413168	AUX AUX PROPN	-0.39940378
-1.2867945	PRON AUX PROPN	-1.1830206
-1.089547	SCONJ AUX PROPN	-0.40926394
-1.5021409	NUM AUX PROPN	-0.5611122
-2.6895134	<s> PRON PROPN	-0.63884974
-1.1415911	PROPN PRON PROPN	-0.73508936
-1.3033879	ADP PRON PROPN	-0.76039267
-1.3488096	NOUN PRON PROPN	-0.45502144
-1.2598363	VERB PRON PROPN	-0.902239
-1.5739411	DET PRON PROPN	-0.28614002
-1.3249215	CCONJ PRON PROPN	-0.43664995
-1.3683716	ADV PRON PROPN	-0.38663468
-1.5279037	ADJ PRON PROPN	-0.28614002
-1.3418325	PUNCT PRON PROPN	-0.5678507
-1.4486828	PART PRON PROPN	-0.28614002
-1.2934622	AUX PRON PROPN	-0.63858557
-1.4972124	PRON PRON PROPN	-0.28540656
-1.3973511	SCONJ PRON PROPN	-0.46812898
-1.2191119	X PRON PROPN	-0.28467432
-1.4421451	INTJ PRON PROPN	-0.28614002
-0.9760586	<s> SCONJ PROPN	-1.435124
-1.1284751	PROPN SCONJ PROPN	-1.000186
-1.0013361	ADP SCONJ PROPN	-0.782473
-1.0832846	NOUN SCONJ PROPN	-1.7129555
-1.1124629	VERB SCONJ PROPN	-1.8129358
-0.9928875	DET SCONJ PROPN	-0.32533678
-1.0777245	CCONJ SCONJ PROPN	-0.8606337
-1.026768	ADV SCONJ PROPN	-1.1438354
-1.085209	ADJ SCONJ PROPN	-1.4606539
-1.0580428	PUNCT SCONJ PROPN	-1.4577538
-1.3007164	PART SCONJ PROPN	-0.28614002
-1.072399	AUX SCONJ PROPN	-0.9007779
-1.0203053	PRON SCONJ PROPN	-0.7070395
-0.9012933	SCONJ SCONJ PROPN	-0.850361
-1.3649385	NUM SCONJ PROPN	-0.34207827
-0.2400556	<s> SYM PROPN	-0.6433507
-0.56802535	PROPN SYM PROPN	-1.3262237
-0.59911805	ADP SYM PROPN	-1.160753
-0.740482	NOUN SYM PROPN	-0.8598764
-0.66323704	VERB SYM PROPN	-0.7027119
-0.55136496	DET SYM PROPN	-0.68335885
-0.8491252	CCONJ SYM PROPN	-0.52687585
-0.52516913	ADV SYM PROPN	-0.3553
-0.6119179	ADJ SYM PROPN	-0.5416983
-0.61933666	PUNCT SYM PROPN	-1.0930622
-0.8241898	PART SYM PROPN	-0.28555316
-0.40123308	AUX SYM PROPN	-0.36068842
-0.835324	PRON SYM PROPN	-0.29697382
-0.4712568	SCONJ SYM PROPN	-0.39560524
-0.7619682	NUM SYM PROPN	-0.3040115
-0.35352704	X SYM PROPN	-0.31129628
-1.2579113	<s> NUM PROPN	-0.93958306
-1.0479908	PROPN NUM PROPN	-1.2193906
-1.1641276	ADP NUM PROPN	-1.3010361
-1.1952068	NOUN NUM PROPN	-0.59974784
-1.1644573	VERB NUM PROPN	-0.76058334
-0.9684353	DET NUM PROPN	-1.3212224
-1.2704405	CCONJ NUM PROPN	-0.63311094
-1.1181395	ADV NUM PROPN	-0.7481072
-1.0332625	ADJ NUM PROPN	-0.66386795
-0.99827516	PUNCT NUM PROPN	-1.1967636
-1.2168952	PART NUM PROPN	-0.5245967
-1.3584315	AUX NUM PROPN	-0.5843058
-1.291602	PRON NUM PROPN	-0.28614002
-1.1907085	SCONJ NUM PROPN	-0.5989519
-1.1687278	SYM NUM PROPN	-0.65290254
-0.9947433	NUM NUM PROPN	-0.979823
-0.76841056	X NUM PROPN	-0.28614002
-1.5606517	<s> X PROPN	-0.44254282
-0.6462796	PROPN X PROPN	-1.1196628
-1.1373057	ADP X PROPN	-0.28530183
-1.0101295	NOUN X PROPN	-0.54954374
-1.0383805	VERB X PROPN	-0.28516236
-0.55177575	DET X PROPN	-0.45227516
-1.1633356	CCONJ X PROPN	-0.28467432
-1.0159523	ADV X PROPN	-0.28614002
-1.2405875	ADJ X PROPN	-0.28614002
-0.98151237	PUNCT X PROPN	-0.74729997
-0.64863026	PART X PROPN	-0.28614002
-1.0334994	AUX X PROPN	-0.28614002
-0.71248496	PRON X PROPN	-0.28614002
-0.953219	NUM X PROPN	-0.28614002
-0.77175087	X X PROPN	-0.83917546
-0.7278297	INTJ X PROPN	-0.30583978
-1.2837392	<s> INTJ PROPN	-0.7408393
-1.0835941	PROPN INTJ PROPN	-0.39525726
-0.85350114	ADP INTJ PROPN	-0.30583978
-0.9235793	NOUN INTJ PROPN	-0.28614002
-1.1829735	VERB INTJ PROPN	-0.28614002
-0.9517468	DET INTJ PROPN	-0.28614002
-1.1352631	CCONJ INTJ PROPN	-0.28516236
-1.1282718	ADV INTJ PROPN	-0.28614002
-1.0737667	PUNCT INTJ PROPN	-0.64396816
-1.060749	SCONJ INTJ PROPN	-0.28614002
-0.94195235	X INTJ PROPN	-0.28614002
-1.0959361	INTJ INTJ PROPN	-0.28516236
-1.5063803	<s> PROPN ADP	-1.5250736
-1.190121	PROPN PROPN ADP	-2.5098839
-1.1671828	ADP PROPN ADP	-2.2646759
-1.1673648	NOUN PROPN ADP	-1.413197
-1.1703007	VERB PROPN ADP	-1.6704919
-1.1320121	DET PROPN ADP	-2.1114423
-1.2124926	CCONJ PROPN ADP	-1.5667355
-1.1982679	ADV PROPN ADP	-0.71324587
-1.1498952	ADJ PROPN ADP	-1.5215845
-1.1514983	PUNCT PROPN ADP	-1.7925235
-1.1756972	PART PROPN ADP	-1.393466
-1.0513035	AUX PROPN ADP	-0.72275215
-1.2880366	PRON PROPN ADP	-0.467017
-1.0973922	SCONJ PROPN ADP	-1.0479262
-1.2822018	SYM PROPN ADP	-0.8198788
-1.059868	NUM PROPN ADP	-1.0649407
-1.0446703	X PROPN ADP	-0.6257062
-1.2424105	INTJ PROPN ADP	-0.38563597
-1.9918517	<s> ADP ADP	-0.96613234
-1.2572281	PROPN ADP ADP	-1.0873972
-1.4658498	ADP ADP ADP	-0.584492
-1.1951312	NOUN ADP ADP	-1.6308931
-1.2171469	VERB ADP ADP	-2.1181052
-1.2992699	DET ADP ADP	-0.43664995
-1.2179474	CCONJ ADP ADP	-0.6801082
-1.2314086	ADV ADP ADP	-0.8588055
-1.2858124	ADJ ADP ADP	-0.66069794
-1.1365817	PUNCT ADP ADP	-1.2460465
-1.3442876	PART ADP ADP	-0.30055287
-1.1858659	AUX ADP ADP	-0.7992717
-1.1890316	PRON ADP ADP	-0.94765776
-1.2196108	SCONJ ADP ADP	-0.5941821
-1.4857103	NUM ADP ADP	-0.2958782
-0.5115609	<s> NOUN ADP	-2.1765609
-1.1898172	PROPN NOUN ADP	-2.0777907
-1.1438719	ADP NOUN ADP	-2.6734924
-1.1923033	NOUN NOUN ADP	-2.6702278
-1.1576895	VERB NOUN ADP	-2.6484153
-1.1708509	DET NOUN ADP	-3.2867997
-0.9995695	CCONJ NOUN ADP	-2.2706268
-1.0700426	ADV NOUN ADP	-1.4481238
-1.2003909	ADJ NOUN ADP	-3.0815687
-1.1395149	PUNCT NOUN ADP	-2.2120883
-1.0158699	PART NOUN ADP	-1.9719143
-1.0738046	AUX NOUN ADP	-1.9941646
-1.0605162	PRON NOUN ADP	-0.93776214
-1.0433153	SCONJ NOUN ADP	-1.8002334
-1.0234574	SYM NOUN ADP	-0.71178627
-1.1450852	NUM NOUN ADP	-2.2999568
-0.88974184	X NOUN ADP	-0.4507569
-0.83916366	INTJ NOUN ADP	-0.3491224
-0.39154807	<s> VERB ADP	-1.983841
-1.1819968	PROPN VERB ADP	-2.1989508
-1.0975947	ADP VERB ADP	-1.7860583
-1.1769567	NOUN VERB ADP	-2.668724
-1.1249584	VERB VERB ADP	-2.1305141
-1.1389873	DET VERB ADP	-1.8397553
-1.0909591	CCONJ VERB ADP	-2.0694706
-1.1672058	ADV VERB ADP	-2.3410857
-1.0703863	ADJ VERB ADP	-1.1096696
-1.1544133	PUNCT VERB ADP	-2.293132
-1.139126	PART VERB ADP	-2.4188883
-1.1436005	AUX VERB ADP	-2.7704916
-1.1672215	PRON VERB ADP	-2.3200824
-1.0062072	SCONJ VERB ADP	-1.4635347
-0.89722896	SYM VERB ADP	-0.45502144
-1.0217484	NUM VERB ADP	-1.0130694
-0.99453276	X VERB ADP	-0.3959219
-0.9261955	INTJ VERB ADP	-0.5716696
-2.0182402	<s> DET ADP	-1.2938166
-1.3564065	PROPN DET ADP	-0.38378966
-1.1620736	ADP DET ADP	-1.577241
-1.177108	NOUN DET ADP	-0.84633327
-1.2162079	VERB DET ADP	-1.4976661
-1.1536031	DET DET ADP	-0.6474775
-1.2257255	CCONJ DET ADP	-1.1091942
-1.1438924	ADV DET ADP	-0.9843562
-1.213816	ADJ DET ADP	-0.43871006
-1.1739825	PUNCT DET ADP	-1.344312
-1.2145561	PART DET ADP	-0.68635833
-1.1421949	AUX DET ADP	-1.2199849
-1.3125883	PRON DET ADP	-0.5796047
-1.1718665	SCONJ DET ADP	-1.2173678
-1.4913459	NUM DET ADP	-0.6215757
-1.0870339	<s> CCONJ ADP	-1.3674885
-1.2954621	PROPN CCONJ ADP	-1.269703
-0.85843533	ADP CCONJ ADP	-1.0498251
-1.1891742	NOUN CCONJ ADP	-1.6035179
-1.213614	VERB CCONJ ADP	-0.8224328
-1.2931384	DET CCONJ ADP	-0.30583978
-1.1392155	CCONJ CCONJ ADP	-0.28516236
-1.1109782	ADV CCONJ ADP	-0.8618682
-1.1812025	ADJ CCONJ ADP	-0.93194586
-1.1836182	PUNCT CCONJ ADP	-1.6698995
-1.2007084	PART CCONJ ADP	-0.28614002
-1.1021723	AUX CCONJ ADP	-0.43371046
-1.1116681	PRON CCONJ ADP	-0.6477107
-1.2269921	SCONJ CCONJ ADP	-0.28516236
-1.2325622	NUM CCONJ ADP	-0.46830067
-1.2048463	X CCONJ ADP	-0.28614002
-1.2209529	INTJ CCONJ ADP	-0.28614002
-1.1979723	<s> ADV ADP	-1.5211426
-1.0572793	PROPN ADV ADP	-1.1902975
-1.112167	ADP ADV ADP	-1.2467004
-1.1337721	NOUN ADV ADP	-1.8520665
-1.1330229	VERB ADV ADP	-2.116275
-1.1331135	DET ADV ADP	-0.7546498
-1.2321241	CCONJ ADV ADP	-1.451311
-1.1873258	ADV ADV ADP	-1.5450892
-1.0562226	ADJ ADV ADP	-1.07943
-1.1471254	PUNCT ADV ADP	-1.7132267
-1.0795853	PART ADV ADP	-1.1779326
-1.1245574	AUX ADV ADP	-1.6527305
-1.1091349	PRON ADV ADP	-1.20465
-1.2435462	SCONJ ADV ADP	-0.7230943
-1.0872728	NUM ADV ADP	-0.4507569
-1.146139	X ADV ADP	-0.28614002
-1.1901468	INTJ ADV ADP	-0.28555316
-1.1908238	<s> ADJ ADP	-1.428971
-1.0021967	PROPN ADJ ADP	-0.8333777
-1.1214974	ADP ADJ ADP	-1.3942837
-1.061839	NOUN ADJ ADP	-1.6156627
-1.1372861	VERB ADJ ADP	-1.7602509
-1.1738404	DET ADJ ADP	-1.522623
-1.0978518	CCONJ ADJ ADP	-1.3912078
-1.1448346	ADV ADJ ADP	-1.9670831
-1.1606412	ADJ ADJ ADP	-0.832627
-1.0956722	PUNCT ADJ ADP	-1.4481517
-1.0644236	PART ADJ ADP	-1.2561827
-1.0960708	AUX ADJ ADP	-2.104057
-1.0212868	PRON ADJ ADP	-1.2699357
-0.98182476	SCONJ ADJ ADP	-1.2388331
-1.3139719	SYM ADJ ADP	-0.28467432
-1.0827363	NUM ADJ ADP	-0.54527783
-1.3823742	X ADJ ADP	-0.28614002
-1.1028821	INTJ ADJ ADP	-0.28614002
-1.2589556	<s> PUNCT ADP	-1.2338188
-1.2204489	PROPN PUNCT ADP	-2.0596428
-1.2373523	ADP PUNCT ADP	-0.83299863
-1.2437402	NOUN PUNCT ADP	-2.3256273
-1.2519817	VERB PUNCT ADP	-1.6024584
-1.2153858	DET PUNCT ADP	-0.8071054
-0.9369	CCONJ PUNCT ADP	-0.9381616
-1.2321626	ADV PUNCT ADP	-1.6280054
-1.210946	ADJ PUNCT ADP	-1.376185
-1.2551987	PUNCT PUNCT ADP	-1.416725
-1.2951913	PART PUNCT ADP	-0.4453307
-1.1646236	AUX PUNCT ADP	-1.0385643
-1.2283508	PRON PUNCT ADP	-1.1306177
-1.0606532	SCONJ PUNCT ADP	-0.884948
-1.3862249	SYM PUNCT ADP	-0.28614002
-1.1988063	NUM PUNCT ADP	-1.4007182
-1.2367814	X PUNCT ADP	-0.5953013
-1.3541797	INTJ PUNCT ADP	-0.799709
-1.7664526	<s> PART ADP	-0.4215782
-1.3171837	PROPN PART ADP	-0.68684614
-1.5210265	ADP PART ADP	-0.28614002
-1.2397611	NOUN PART ADP	-0.61934364
-1.1701882	VERB PART ADP	-0.5781763
-1.3262143	DET PART ADP	-0.28614002
-1.1162874	CCONJ PART ADP	-0.8710494
-1.1217533	ADV PART ADP	-0.51789135
-1.3718331	ADJ PART ADP	-0.35854483
-1.0810169	PUNCT PART ADP	-0.8593356
-1.5307784	PART PART ADP	-0.28614002
-1.2191677	AUX PART ADP	-1.14572
-1.4925457	PRON PART ADP	-0.28614002
-1.2873186	SCONJ PART ADP	-0.686051
-1.2582315	NUM PART ADP	-0.28540656
-2.1278718	<s> AUX ADP	-0.3581114
-1.1361995	PROPN AUX ADP	-1.4518528
-1.2534258	ADP AUX ADP	-0.54165065
-1.1479481	NOUN AUX ADP	-1.7662596
-1.0851556	VERB AUX ADP	-1.2176217
-1.1052206	DET AUX ADP	-1.1205032
-1.1271557	CCONJ AUX ADP	-0.7334544
-1.1995586	ADV AUX ADP	-0.9723757
-1.227393	ADJ AUX ADP	-0.6215201
-1.1169727	PUNCT AUX ADP	-1.0724602
-1.0981398	PART AUX ADP	-1.4381797
-1.081197	AUX AUX ADP	-1.2735113
-1.1299382	PRON AUX ADP	-1.716142
-1.0806241	SCONJ AUX ADP	-0.5225388
-1.0308697	NUM AUX ADP	-0.7090068
-1.1156164	X AUX ADP	-0.28614002
-1.2580643	INTJ AUX ADP	-0.28467432
-2.3012776	<s> PRON ADP	-0.9532325
-1.2882695	PROPN PRON ADP	-0.40969735
-1.1548362	ADP PRON ADP	-1.5024526
-1.1632462	NOUN PRON ADP	-0.6412564
-1.1418189	VERB PRON ADP	-2.0802166
-1.3707807	DET PRON ADP	-0.3116854
-1.1920795	CCONJ PRON ADP	-0.6546855
-1.1388224	ADV PRON ADP	-0.5108727
-1.5163827	ADJ PRON ADP	-0.2856509
-1.1617918	PUNCT PRON ADP	-0.8175758
-1.0534307	PART PRON ADP	-0.39487994
-1.0450385	AUX PRON ADP	-1.1129373
-1.4855978	PRON PRON ADP	-0.39487994
-1.1716561	SCONJ PRON ADP	-0.6732575
-1.073624	SYM PRON ADP	-0.28614002
-1.0683032	NUM PRON ADP	-0.28540656
-1.2084768	X PRON ADP	-0.28614002
-1.1874412	<s> SCONJ ADP	-1.3143078
-0.97731054	PROPN SCONJ ADP	-0.95655006
-1.2053357	ADP SCONJ ADP	-0.6058035
-1.080209	NOUN SCONJ ADP	-1.5246977
-1.1096612	VERB SCONJ ADP	-1.6813068
-1.0738696	DET SCONJ ADP	-0.29730847
-1.0209819	CCONJ SCONJ ADP	-0.9017263
-1.0559859	ADV SCONJ ADP	-1.2347794
-1.1781353	ADJ SCONJ ADP	-1.005679
-1.081746	PUNCT SCONJ ADP	-1.327581
-0.77518713	PART SCONJ ADP	-0.7539805
-1.0307959	AUX SCONJ ADP	-1.070557
-1.2223731	PRON SCONJ ADP	-0.90458566
-1.1430751	SCONJ SCONJ ADP	-0.51562685
-0.782502	NUM SCONJ ADP	-0.9956727
-1.0532889	X SCONJ ADP	-0.28614002
-1.8139516	<s> SYM ADP	-0.28467432
-1.1128529	ADP SYM ADP	-0.29834723
-1.6553969	NOUN SYM ADP	-0.28614002
-1.6654942	VERB SYM ADP	-0.28614002
-1.4187727	ADV SYM ADP	-0.28614002
-1.4032564	PUNCT SYM ADP	-0.28540656
-1.367473	PRON SYM ADP	-0.28614002
-1.0219986	SYM SYM ADP	-0.28614002
-1.3881303	NUM SYM ADP	-0.28516236
-0.6715638	<s> NUM ADP	-1.5998183
-1.0785573	PROPN NUM ADP	-1.3924159
-1.137152	ADP NUM ADP	-1.6549642
-1.0059843	NOUN NUM ADP	-1.0896809
-1.095596	VERB NUM ADP	-1.5090574
-1.0768064	DET NUM ADP	-1.0191532
-0.9677929	CCONJ NUM ADP	-1.1329708
-1.0801343	ADV NUM ADP	-1.083503
-1.0833011	ADJ NUM ADP	-0.7347756
-1.0588782	PUNCT NUM ADP	-1.5588678
-1.3675553	PART NUM ADP	-0.38532835
-0.911161	AUX NUM ADP	-1.6365855
-1.0328828	PRON NUM ADP	-0.6382859
-0.9953646	SCONJ NUM ADP	-1.3239508
-1.0111668	SYM NUM ADP	-1.0452878
-0.99727607	NUM NUM ADP	-1.1596944
-2.2820666	<s> X ADP	-0.28540656
-1.0982999	ADP X ADP	-0.39965796
-1.1296338	NOUN X ADP	-0.39487994
-1.3339186	VERB X ADP	-0.28614002
-1.5282483	DET X ADP	-0.28614002
-1.2571734	CCONJ X ADP	-0.28614002
-1.3162562	ADV X ADP	-0.28614002
-1.2928566	PUNCT X ADP	-0.40926394
-1.213058	X X ADP	-0.30011946
-1.6197149	<s> INTJ ADP	-0.4965144
-1.177384	PROPN INTJ ADP	-0.3116854
-1.3708647	NOUN INTJ ADP	-0.28614002
-0.6978921	VERB INTJ ADP	-0.37837273
-0.70541734	DET INTJ ADP	-0.28614002
-1.2283942	CCONJ INTJ ADP	-0.28540656
-1.095595	ADV INTJ ADP	-0.28516236
-0.83283883	ADJ INTJ ADP	-0.28467432
-1.0860885	PUNCT INTJ ADP	-0.6876647
-1.1613457	AUX INTJ ADP	-0.28614002
-1.4279292	<s> PROPN NOUN	-1.5332623
-1.1922317	PROPN PROPN NOUN	-2.2069259
-1.1693382	ADP PROPN NOUN	-2.0413573
-1.13987	NOUN PROPN NOUN	-1.2975277
-1.2007511	VERB PROPN NOUN	-1.4795774
-1.1343026	DET PROPN NOUN	-2.309086
-1.1704621	CCONJ PROPN NOUN	-1.3782016
-1.1598665	ADV PROPN NOUN	-0.65982115
-1.0977341	ADJ PROPN NOUN	-1.7374703
-1.1800848	PUNCT PROPN NOUN	-1.765388
-1.0990512	PART PROPN NOUN	-1.2331597
-1.0892183	AUX PROPN NOUN	-0.6648232
-1.2081305	PRON PROPN NOUN	-0.40307516
-1.1352441	SCONJ PROPN NOUN	-1.0959649
-1.0634671	SYM PROPN NOUN	-1.1520332
-1.0071671	NUM PROPN NOUN	-1.2074078
-1.2054273	X PROPN NOUN	-0.43139344
-0.8640323	<s> ADP NOUN	-1.8517773
-1.0595666	PROPN ADP NOUN	-1.7060442
-0.9647754	ADP ADP NOUN	-1.4638683
-1.1368461	NOUN ADP NOUN	-3.0258386
-1.1833453	VERB ADP NOUN	-2.574871
-0.98042464	DET ADP NOUN	-1.0674961
-0.95877475	CCONJ ADP NOUN	-1.3282149
-1.0595163	ADV ADP NOUN	-1.7632011
-1.0717303	ADJ ADP NOUN	-1.7992482
-1.0747305	PUNCT ADP NOUN	-1.9428662
-0.7676109	PART ADP NOUN	-0.88182485
-0.9710569	AUX ADP NOUN	-1.6734645
-0.928747	PRON ADP NOUN	-1.4102333
-0.98268396	SCONJ ADP NOUN	-1.3886759
-0.6373539	SYM ADP NOUN	-0.427941
-0.97806776	NUM ADP NOUN	-1.2150915
-0.96720654	X ADP NOUN	-0.30011946
-0.6813865	INTJ ADP NOUN	-0.42391047
-0.91683686	<s> NOUN NOUN	-1.6958282
-1.163621	PROPN NOUN NOUN	-1.8852012
-1.1949583	ADP NOUN NOUN	-2.374927
-1.1675978	NOUN NOUN NOUN	-2.26812
-1.2085912	VERB NOUN NOUN	-2.1561294
-1.1708509	DET NOUN NOUN	-2.7338126
-1.02971	CCONJ NOUN NOUN	-2.0825202
-1.0700426	ADV NOUN NOUN	-1.1732552
-1.2003909	ADJ NOUN NOUN	-2.6667337
-1.1147525	PUNCT NOUN NOUN	-2.2623103
-1.0953777	PART NOUN NOUN	-1.6685807
-1.0738046	AUX NOUN NOUN	-1.1373825
-1.0137037	PRON NOUN NOUN	-0.5373351
-1.0151662	SCONJ NOUN NOUN	-1.4693695
-0.9814768	SYM NOUN NOUN	-0.8705753
-1.1961076	NUM NOUN NOUN	-1.7380658
-0.74104404	X NOUN NOUN	-0.63599396
-0.83916366	INTJ NOUN NOUN	-0.30011946
-1.1511047	<s> VERB NOUN	-1.2719201
-1.1573133	PROPN VERB NOUN	-1.6918253
-1.0975947	ADP VERB NOUN	-2.0125368
-1.1769567	NOUN VERB NOUN	-2.1014028
-1.1511298	VERB VERB NOUN	-1.8838677
-1.1670618	DET VERB NOUN	-2.1763573
-1.1487249	CCONJ VERB NOUN	-1.8945539
-1.1672058	ADV VERB NOUN	-1.9692153
-1.0703863	ADJ VERB NOUN	-1.409233
-1.1544133	PUNCT VERB NOUN	-2.1764088
-1.139126	PART VERB NOUN	-2.304297
-1.1697719	AUX VERB NOUN	-1.9387397
-1.2180766	PRON VERB NOUN	-1.8444158
-1.1039516	SCONJ VERB NOUN	-1.229095
-0.9853008	SYM VERB NOUN	-0.28516236
-1.0217484	NUM VERB NOUN	-0.9467657
-1.2532701	X VERB NOUN	-0.28516236
-1.1447928	INTJ VERB NOUN	-0.43296173
-0.26139092	<s> DET NOUN	-2.7275531
-0.8531746	PROPN DET NOUN	-1.4336783
-1.075667	ADP DET NOUN	-3.3936257
-1.0045685	NOUN DET NOUN	-1.9916157
-1.0998163	VERB DET NOUN	-3.1424758
-0.9658916	DET DET NOUN	-1.8950758
-0.93934155	CCONJ DET NOUN	-2.4030402
-1.0098974	ADV DET NOUN	-2.2149675
-0.8480407	ADJ DET NOUN	-1.2740926
-1.0576438	PUNCT DET NOUN	-2.637279
-0.78720504	PART DET NOUN	-1.4274119
-0.9931821	AUX DET NOUN	-2.5562706
-0.9240344	PRON DET NOUN	-1.6828568
-1.012465	SCONJ DET NOUN	-2.5783243
-0.51273066	SYM DET NOUN	-0.5418055
-0.70590854	NUM DET NOUN	-0.9971639
-0.620718	X DET NOUN	-0.3220197
-0.63071007	INTJ DET NOUN	-0.43274504
-1.3670375	<s> CCONJ NOUN	-1.0122164
-1.0721955	PROPN CCONJ NOUN	-1.6094893
-1.201586	ADP CCONJ NOUN	-0.6452405
-1.1162384	NOUN CCONJ NOUN	-2.7444305
-1.0858103	VERB CCONJ NOUN	-1.2391944
-1.3107365	DET CCONJ NOUN	-0.2849671
-1.1599517	CCONJ CCONJ NOUN	-0.28614002
-1.257564	ADV CCONJ NOUN	-0.68343735
-1.0625551	ADJ CCONJ NOUN	-1.3133205
-1.16166	PUNCT CCONJ NOUN	-1.8138621
-1.223499	PART CCONJ NOUN	-0.3606073
-1.1130328	AUX CCONJ NOUN	-0.39525726
-1.1207758	PRON CCONJ NOUN	-0.5387524
-1.0252616	NUM CCONJ NOUN	-0.63069475
-1.0050285	X CCONJ NOUN	-0.30583978
-1.6560744	<s> ADV NOUN	-1.1077625
-1.2206116	PROPN ADV NOUN	-0.7758391
-1.3057408	ADP ADV NOUN	-0.9007927
-1.1914008	NOUN ADV NOUN	-1.3540889
-1.1873618	VERB ADV NOUN	-1.1776472
-1.2218776	DET ADV NOUN	-0.6491826
-1.1522337	CCONJ ADV NOUN	-1.1168513
-1.1873258	ADV ADV NOUN	-0.81843704
-1.1619707	ADJ ADV NOUN	-0.6164906
-1.2013733	PUNCT ADV NOUN	-1.3079258
-1.1182523	PART ADV NOUN	-0.7094957
-1.1866467	AUX ADV NOUN	-1.1717677
-1.6853614	PRON ADV NOUN	-0.41853473
-1.2435462	SCONJ ADV NOUN	-0.5578012
-0.802411	SYM ADV NOUN	-0.28516236
-1.2695593	NUM ADV NOUN	-0.29663944
-1.2549199	INTJ ADV NOUN	-0.28467432
-0.23547076	<s> ADJ NOUN	-2.1402361
-0.9041141	PROPN ADJ NOUN	-1.557868
-1.0675433	ADP ADJ NOUN	-2.85922
-1.0355814	NOUN ADJ NOUN	-1.7510725
-1.0588822	VERB ADJ NOUN	-2.555936
-1.0656509	DET ADJ NOUN	-3.2673163
-0.93532264	CCONJ ADJ NOUN	-2.4302628
-1.1168866	ADV ADJ NOUN	-2.2668915
-0.9985647	ADJ ADJ NOUN	-2.672195
-1.0696684	PUNCT ADJ NOUN	-2.3724923
-0.95851547	PART ADJ NOUN	-2.0140042
-1.0960708	AUX ADJ NOUN	-1.922561
-0.9830141	PRON ADJ NOUN	-1.0748167
-0.95180494	SCONJ ADJ NOUN	-1.950392
-0.5507422	SYM ADJ NOUN	-0.7816774
-0.87451404	NUM ADJ NOUN	-1.9209812
-0.4594123	X ADJ NOUN	-0.529693
-0.7234224	INTJ ADJ NOUN	-0.29872492
-1.1159573	<s> PUNCT NOUN	-1.258087
-1.2204489	PROPN PUNCT NOUN	-2.1369393
-1.1032628	ADP PUNCT NOUN	-1.5844835
-1.2189988	NOUN PUNCT NOUN	-2.5947702
-1.1978213	VERB PUNCT NOUN	-1.6376708
-1.1188946	DET PUNCT NOUN	-1.6777583
-1.1733153	CCONJ PUNCT NOUN	-1.1470646
-1.2042385	ADV PUNCT NOUN	-1.489179
-1.210946	ADJ PUNCT NOUN	-2.0199556
-1.2272748	PUNCT PUNCT NOUN	-1.4367445
-1.2363498	PART PUNCT NOUN	-0.913434
-1.2024819	AUX PUNCT NOUN	-0.787507
-1.1937497	PRON PUNCT NOUN	-0.9235308
-1.0955331	SCONJ PUNCT NOUN	-1.090235
-1.3862249	SYM PUNCT NOUN	-0.28614002
-1.1708823	NUM PUNCT NOUN	-1.5451003
-1.185977	X PUNCT NOUN	-0.69296294
-1.5813259	INTJ PUNCT NOUN	-0.70407045
-2.426597	<s> PART NOUN	-0.28614002
-0.98947924	PROPN PART NOUN	-2.3625124
-1.3467991	ADP PART NOUN	-0.28614002
-1.042965	NOUN PART NOUN	-2.2423558
-1.0837706	VERB PART NOUN	-0.6732575
-1.2445681	DET PART NOUN	-0.28614002
-1.393854	CCONJ PART NOUN	-0.39090073
-1.410645	ADV PART NOUN	-0.40922135
-0.98960274	ADJ PART NOUN	-0.6719252
-1.4088386	PUNCT PART NOUN	-0.7536127
-1.1647319	AUX PART NOUN	-0.8896108
-0.8869492	PRON PART NOUN	-0.8458038
-1.4038709	SCONJ PART NOUN	-0.4499881
-0.5097542	SYM PART NOUN	-0.28614002
-1.0601399	NUM PART NOUN	-0.3459243
-0.744993	X PART NOUN	-0.28467432
-0.7558369	INTJ PART NOUN	-0.28614002
-1.5807403	<s> AUX NOUN	-0.48131245
-1.1388247	PROPN AUX NOUN	-1.1406083
-1.1070296	ADP AUX NOUN	-0.64139444
-1.1784883	NOUN AUX NOUN	-1.7085818
-1.1554048	VERB AUX NOUN	-1.1552157
-1.0780011	DET AUX NOUN	-0.963249
-1.2431548	CCONJ AUX NOUN	-0.77324915
-1.1362194	ADV AUX NOUN	-1.083274
-1.1789789	ADJ AUX NOUN	-0.5180304
-1.1872021	PUNCT AUX NOUN	-0.8675452
-1.1011108	PART AUX NOUN	-1.2699356
-1.1265389	AUX AUX NOUN	-0.8119546
-1.1586573	PRON AUX NOUN	-1.7534213
-1.15669	SCONJ AUX NOUN	-0.34207827
-1.0339737	NUM AUX NOUN	-0.5245967
-1.1261072	X AUX NOUN	-0.28614002
-2.8247602	<s> PRON NOUN	-0.55953425
-1.5474421	PROPN PRON NOUN	-0.6035238
-1.1931324	ADP PRON NOUN	-0.8815406
-1.3548741	NOUN PRON NOUN	-0.474238
-1.2311453	VERB PRON NOUN	-1.17748
-1.2803266	DET PRON NOUN	-0.28516236
-1.2613732	CCONJ PRON NOUN	-0.40926394
-1.245715	ADV PRON NOUN	-0.32986617
-1.7040797	ADJ PRON NOUN	-0.28467432
-1.2485656	PUNCT PRON NOUN	-0.6827533
-1.2593553	PART PRON NOUN	-0.3087717
-1.2458813	AUX PRON NOUN	-0.53526646
-1.5655483	PRON PRON NOUN	-0.28614002
-1.3363847	SCONJ PRON NOUN	-0.55472344
-1.4553293	INTJ PRON NOUN	-0.28614002
-1.1326643	<s> SCONJ NOUN	-1.2560776
-1.0097164	PROPN SCONJ NOUN	-0.9413743
-1.1240953	ADP SCONJ NOUN	-0.73494697
-1.1097362	NOUN SCONJ NOUN	-1.5840307
-1.1096612	VERB SCONJ NOUN	-1.7604022
-1.324939	DET SCONJ NOUN	-0.34949976
-1.0209819	CCONJ SCONJ NOUN	-0.9424817
-1.0907203	ADV SCONJ NOUN	-1.2396595
-1.0822474	ADJ SCONJ NOUN	-1.4356575
-1.081746	PUNCT SCONJ NOUN	-1.3997365
-1.2240258	PART SCONJ NOUN	-0.28555316
-1.1105328	AUX SCONJ NOUN	-0.879732
-0.9637382	PRON SCONJ NOUN	-0.86333734
-0.9807127	SCONJ SCONJ NOUN	-0.9701924
-1.1034824	NUM SCONJ NOUN	-0.2947115
-0.7080707	INTJ SCONJ NOUN	-0.28614002
-0.7325411	<s> SYM NOUN	-0.409288
-0.7347737	PROPN SYM NOUN	-0.52901363
-0.79374045	ADP SYM NOUN	-0.5287857
-0.60478735	NOUN SYM NOUN	-1.1267257
-0.7369483	VERB SYM NOUN	-0.4295901
-0.63418746	DET SYM NOUN	-0.66194093
-0.96145725	CCONJ SYM NOUN	-0.7772407
-1.0453298	ADV SYM NOUN	-0.28516236
-0.65534556	ADJ SYM NOUN	-0.4944823
-0.7662821	PUNCT SYM NOUN	-0.80546093
-0.8241898	PART SYM NOUN	-0.28467432
-1.1774697	AUX SYM NOUN	-0.28614002
-1.2403404	PRON SYM NOUN	-0.28614002
-0.86054593	SCONJ SYM NOUN	-0.29697382
-0.7619682	NUM SYM NOUN	-0.43898827
-0.46171704	INTJ SYM NOUN	-0.28467432
-0.35920423	<s> NUM NOUN	-1.5584016
-1.1026096	PROPN NUM NOUN	-1.2608573
-1.1316737	ADP NUM NOUN	-2.169521
-0.9166444	NOUN NUM NOUN	-1.2106907
-1.000344	VERB NUM NOUN	-1.8330852
-0.965732	DET NUM NOUN	-1.9378839
-0.8811808	CCONJ NUM NOUN	-1.4244555
-0.88510597	ADV NUM NOUN	-1.8056129
-0.8844388	ADJ NUM NOUN	-1.6155741
-0.9697069	PUNCT NUM NOUN	-1.7074903
-0.7484159	PART NUM NOUN	-1.1772333
-0.87594527	AUX NUM NOUN	-1.4618164
-0.63421124	PRON NUM NOUN	-0.6704242
-0.91612035	SCONJ NUM NOUN	-1.7280345
-0.94344074	SYM NUM NOUN	-1.114232
-0.96215296	NUM NUM NOUN	-1.5179468
-0.336392	X NUM NOUN	-0.28614002
-0.27887514	INTJ NUM NOUN	-0.28555316
-1.8827676	<s> X NOUN	-0.34949976
-0.862375	PROPN X NOUN	-0.37684038
-0.80367917	ADP X NOUN	-0.5704232
-1.1986264	NOUN X NOUN	-0.2939907
-1.0911129	VERB X NOUN	-0.28516236
-1.038062	DET X NOUN	-0.28555316
-0.99824905	ADV X NOUN	-0.28516236
-0.8804444	ADJ X NOUN	-0.2856509
-0.96785927	PUNCT X NOUN	-0.631372
-1.1811092	SYM X NOUN	-0.28614002
-0.78919464	X X NOUN	-0.5922069
-1.6831235	<s> INTJ NOUN	-0.3606073
-0.9273635	PROPN INTJ NOUN	-0.28614002
-1.1408362	ADP INTJ NOUN	-0.28614002
-1.1511341	NOUN INTJ NOUN	-0.28467432
-1.1829735	VERB INTJ NOUN	-0.28516236
-0.9517468	DET INTJ NOUN	-0.28614002
-1.3519531	CCONJ INTJ NOUN	-0.28614002
-1.1282718	ADV INTJ NOUN	-0.28614002
-1.1684511	PUNCT INTJ NOUN	-0.4291379
-0.6391826	PART INTJ NOUN	-0.28614002
-0.78816086	PRON INTJ NOUN	-0.28614002
-1.0304846	INTJ INTJ NOUN	-0.28614002
-0.90167654	<s> PROPN VERB	-2.0445929
-1.214841	PROPN PROPN VERB	-2.5162354
-1.1671828	ADP PROPN VERB	-2.0268722
-1.1094197	NOUN PROPN VERB	-1.5136147
-1.1983076	VERB PROPN VERB	-1.3058245
-1.1320121	DET PROPN VERB	-1.7927787
-1.1667933	CCONJ PROPN VERB	-1.4177692
-1.0837768	ADV PROPN VERB	-1.1948639
-1.1218883	ADJ PROPN VERB	-1.3971342
-1.1514983	PUNCT PROPN VERB	-1.9902887
-1.1756972	PART PROPN VERB	-0.84792525
-1.2127395	AUX PROPN VERB	-0.8200043
-0.85260993	PRON PROPN VERB	-0.7210697
-1.0350012	SCONJ PROPN VERB	-1.5435249
-1.1229932	SYM PROPN VERB	-0.71916246
-1.0900437	NUM PROPN VERB	-0.7782893
-1.3037744	X PROPN VERB	-0.3581114
-1.0849935	INTJ PROPN VERB	-0.35085237
-1.5574173	<s> ADP VERB	-1.2066394
-1.1133343	PROPN ADP VERB	-1.3822416
-1.1872836	ADP ADP VERB	-0.7188993
-1.1613296	NOUN ADP VERB	-2.3195493
-1.209292	VERB ADP VERB	-1.9439142
-1.173818	DET ADP VERB	-0.5463794
-1.1531987	CCONJ ADP VERB	-0.899184
-1.1170055	ADV ADP VERB	-1.4074142
-1.129309	ADJ ADP VERB	-1.4847474
-1.1007829	PUNCT ADP VERB	-1.332282
-1.1256878	PART ADP VERB	-0.53106034
-1.1746292	AUX ADP VERB	-0.8969615
-1.1243937	PRON ADP VERB	-1.1493174
-1.1620553	SCONJ ADP VERB	-0.694095
-1.2441877	SYM ADP VERB	-0.28614002
-1.1145767	NUM ADP VERB	-0.57000136
-1.1345371	X ADP VERB	-0.28614002
-1.1528432	INTJ ADP VERB	-0.28614002
-0.7892367	<s> NOUN VERB	-1.8211299
-1.163621	PROPN NOUN VERB	-1.921654
-1.1949583	ADP NOUN VERB	-2.0606458
-1.1675978	NOUN NOUN VERB	-2.3331687
-1.2085912	VERB NOUN VERB	-1.8072122
-1.1955565	DET NOUN VERB	-2.8013608
-1.0971004	CCONJ NOUN VERB	-1.7655976
-1.0700426	ADV NOUN VERB	-1.4014642
-1.1756854	ADJ NOUN VERB	-2.5884254
-1.1395149	PUNCT NOUN VERB	-1.8578988
-1.0953777	PART NOUN VERB	-1.6195027
-1.0738046	AUX NOUN VERB	-1.0826805
-0.9329446	PRON NOUN VERB	-0.7475643
-1.0433153	SCONJ NOUN VERB	-1.5581677
-1.0699346	SYM NOUN VERB	-0.395596
-1.1698476	NUM NOUN VERB	-1.7367647
-1.3852898	X NOUN VERB	-0.28540656
-1.4544872	INTJ NOUN VERB	-0.28614002
-1.6937255	<s> VERB VERB	-0.74945617
-1.1819968	PROPN VERB VERB	-1.76844
-1.302126	ADP VERB VERB	-0.9510879
-1.2031281	NOUN VERB VERB	-2.2224622
-1.2087395	VERB VERB VERB	-1.4248375
-1.1389873	DET VERB VERB	-1.6739116
-1.1807704	CCONJ VERB VERB	-1.3101676
-1.195129	ADV VERB VERB	-1.2916889
-1.1007761	ADJ VERB VERB	-0.6961315
-1.1544133	PUNCT VERB VERB	-1.4621481
-1.1932849	PART VERB VERB	-1.5136877
-1.2273816	AUX VERB VERB	-1.3507371
-1.1919051	PRON VERB VERB	-2.329812
-1.2821358	SCONJ VERB VERB	-0.56324315
-1.3040649	SYM VERB VERB	-0.28614002
-1.201643	NUM VERB VERB	-0.6155924
-1.3124834	X VERB VERB	-0.28467432
-1.1447928	INTJ VERB VERB	-0.33250004
-1.4226588	<s> DET VERB	-1.6708678
-0.9659544	PROPN DET VERB	-1.2215395
-1.1287202	ADP DET VERB	-1.9217772
-1.0068841	NOUN DET VERB	-2.212705
-1.1527944	VERB DET VERB	-1.5952166
-1.031044	DET DET VERB	-0.8128632
-1.0924703	CCONJ DET VERB	-1.3414253
-1.070418	ADV DET VERB	-0.9895525
-0.9686817	ADJ DET VERB	-0.53315103
-1.0845717	PUNCT DET VERB	-2.003891
-1.0185254	PART DET VERB	-0.4292739
-1.1039577	AUX DET VERB	-1.2628986
-0.8962721	PRON DET VERB	-1.2425001
-1.098613	SCONJ DET VERB	-1.3141886
-0.8477938	NUM DET VERB	-0.5202646
-0.97931415	X DET VERB	-0.2849671
-1.2293899	INTJ DET VERB	-0.28516236
-1.3201065	<s> CCONJ VERB	-1.0557358
-1.1212188	PROPN CCONJ VERB	-1.6481341
-1.0810208	ADP CCONJ VERB	-1.1831516
-1.1357092	NOUN CCONJ VERB	-2.3392286
-1.052463	VERB CCONJ VERB	-2.0537953
-0.92633873	DET CCONJ VERB	-0.4754125
-0.916482	CCONJ CCONJ VERB	-0.2856509
-1.0736858	ADV CCONJ VERB	-1.2806185
-1.0573682	ADJ CCONJ VERB	-1.423011
-1.1560634	PUNCT CCONJ VERB	-2.0150068
-0.956198	PART CCONJ VERB	-0.44123682
-0.82832927	AUX CCONJ VERB	-0.48755425
-1.1116681	PRON CCONJ VERB	-1.22358
-1.2269921	SCONJ CCONJ VERB	-0.28614002
-0.48959997	SYM CCONJ VERB	-0.28614002
-1.0196556	NUM CCONJ VERB	-0.7571001
-0.7346302	X CCONJ VERB	-0.28516236
-1.2357631	<s> ADV VERB	-1.440322
-1.0286847	PROPN ADV VERB	-1.8381814
-1.0795966	ADP ADV VERB	-1.2613838
-1.1312426	NOUN ADV VERB	-2.0692182
-1.1569405	VERB ADV VERB	-1.9270412
-0.965995	DET ADV VERB	-1.6722684
-1.0522108	CCONJ ADV VERB	-1.7943943
-1.1270177	ADV ADV VERB	-1.6471915
-1.0536804	ADJ ADV VERB	-0.9470686
-1.1448274	PUNCT ADV VERB	-1.796454
-0.9785997	PART ADV VERB	-1.7739277
-1.0679725	AUX ADV VERB	-2.3681622
-0.891554	PRON ADV VERB	-2.0909054
-1.0994031	SCONJ ADV VERB	-0.8958961
-1.0533527	SYM ADV VERB	-0.28614002
-0.92129385	NUM ADV VERB	-0.5844628
-1.1369762	X ADV VERB	-0.28467432
-0.91020447	INTJ ADV VERB	-0.3581114
-1.6770923	<s> ADJ VERB	-0.84342444
-1.1402427	PROPN ADJ VERB	-0.41589698
-1.101034	ADP ADJ VERB	-0.97143924
-1.2342861	NOUN ADJ VERB	-0.58797014
-1.2079805	VERB ADJ VERB	-0.78883225
-1.249985	DET ADJ VERB	-1.286848
-1.2498636	CCONJ ADJ VERB	-0.73465747
-1.1827613	ADV ADJ VERB	-0.8717717
-1.0340496	ADJ ADJ VERB	-0.9035606
-1.1616774	PUNCT ADJ VERB	-0.80409664
-1.0736284	PART ADJ VERB	-0.58852077
-1.2680894	AUX ADJ VERB	-0.90557235
-0.99139017	PRON ADJ VERB	-0.55450106
-1.1391445	SCONJ ADJ VERB	-0.5229692
-1.1943009	NUM ADJ VERB	-0.5085913
-1.2555223	<s> PUNCT VERB	-1.1244047
-1.222541	PROPN PUNCT VERB	-2.3356183
-1.1057729	ADP PUNCT VERB	-1.1230023
-1.2210909	NOUN PUNCT VERB	-2.560551
-1.2544918	VERB PUNCT VERB	-1.7442915
-1.1514274	DET PUNCT VERB	-0.9637975
-1.0667729	CCONJ PUNCT VERB	-0.8312509
-1.1802171	ADV PUNCT VERB	-1.8675345
-1.2132994	ADJ PUNCT VERB	-1.4367537
-1.178389	PUNCT PUNCT VERB	-1.7566909
-1.0258379	PART PUNCT VERB	-1.1418705
-1.1676205	AUX PUNCT VERB	-1.0131378
-1.1343697	PRON PUNCT VERB	-1.2105451
-1.1785771	SCONJ PUNCT VERB	-0.7603949
-1.2313391	NUM PUNCT VERB	-1.4081616
-1.1027553	X PUNCT VERB	-0.8281179
-1.0992587	INTJ PUNCT VERB	-0.63723963
-0.27281582	<s> PART VERB	-1.3106129
-0.9866558	PROPN PART VERB	-1.9061317
-0.64702505	ADP PART VERB	-1.2869654
-0.93338835	NOUN PART VERB	-2.631008
-0.932098	VERB PART VERB	-2.671819
-0.6268648	DET PART VERB	-0.71090025
-0.8645545	CCONJ PART VERB	-1.3852855
-0.80936164	ADV PART VERB	-1.8022366
-0.7069719	ADJ PART VERB	-2.145702
-0.85938436	PUNCT PART VERB	-1.6597974
-0.46207264	PART PART VERB	-1.3341413
-0.99027014	AUX PART VERB	-2.4148068
-0.71829677	PRON PART VERB	-1.7151641
-0.8522397	SCONJ PART VERB	-0.9595393
-0.50677323	SYM PART VERB	-0.28614002
-0.6862288	NUM PART VERB	-0.9031605
-0.46103683	X PART VERB	-0.285488
-0.3818414	INTJ PART VERB	-0.28516236
-1.4027956	<s> AUX VERB	-0.58016324
-1.1101091	PROPN AUX VERB	-2.2945435
-0.8273517	ADP AUX VERB	-1.1793264
-1.1479481	NOUN AUX VERB	-2.6991823
-1.0270592	VERB AUX VERB	-2.1691236
-1.0753576	DET AUX VERB	-1.9197491
-0.965646	CCONJ AUX VERB	-1.5752505
-1.103557	ADV AUX VERB	-1.6991097
-0.98008054	ADJ AUX VERB	-1.0793258
-1.0588995	PUNCT AUX VERB	-1.9132067
-1.0079827	PART AUX VERB	-1.9886895
-0.89142823	AUX AUX VERB	-2.219334
-1.1052933	PRON AUX VERB	-2.4442222
-0.9663474	SCONJ AUX VERB	-0.81298625
-0.89407617	NUM AUX VERB	-1.0270859
-0.80758524	X AUX VERB	-0.28614002
-0.9885551	INTJ AUX VERB	-0.29834723
-0.32238528	<s> PRON VERB	-2.5021956
-0.7415046	PROPN PRON VERB	-1.4819137
-1.094793	ADP PRON VERB	-1.6905667
-0.8568088	NOUN PRON VERB	-2.2343855
-1.1392403	VERB PRON VERB	-2.0521026
-0.7415315	DET PRON VERB	-1.7536882
-0.8861542	CCONJ PRON VERB	-2.0248284
-0.90531856	ADV PRON VERB	-2.1214156
-0.78438306	ADJ PRON VERB	-1.0769836
-1.0087986	PUNCT PRON VERB	-2.494499
-0.8181768	PART PRON VERB	-0.85050625
-1.0423464	AUX PRON VERB	-1.6493739
-0.7208393	PRON PRON VERB	-1.723688
-0.94063485	SCONJ PRON VERB	-2.253753
-0.7420845	SYM PRON VERB	-0.37405634
-0.6043812	NUM PRON VERB	-0.6562346
-0.9755123	X PRON VERB	-0.28614002
-0.41865027	INTJ PRON VERB	-0.45575276
-1.3896629	<s> SCONJ VERB	-1.077457
-1.1245898	PROPN SCONJ VERB	-0.7261641
-1.4355203	ADP SCONJ VERB	-0.43898827
-1.1097362	NOUN SCONJ VERB	-1.3016561
-1.1670449	VERB SCONJ VERB	-1.1936684
-1.1815083	DET SCONJ VERB	-0.28572077
-1.2004836	CCONJ SCONJ VERB	-0.53646755
-1.1698296	ADV SCONJ VERB	-1.0710468
-1.143766	ADJ SCONJ VERB	-0.91068673
-1.109646	PUNCT SCONJ VERB	-1.2493435
-1.4680091	PART SCONJ VERB	-0.28614002
-0.99582034	AUX SCONJ VERB	-0.8198788
-1.2223731	PRON SCONJ VERB	-0.5599514
-1.081959	SCONJ SCONJ VERB	-0.28496704
-1.4098374	NUM SCONJ VERB	-0.28555316
-1.0532889	X SCONJ VERB	-0.28614002
-1.9151636	<s> SYM VERB	-0.28614002
-1.1220315	PROPN SYM VERB	-0.28572077
-1.1963656	ADP SYM VERB	-0.28614002
-1.1205148	NOUN SYM VERB	-0.2849671
-0.7942289	VERB SYM VERB	-0.3882777
-1.4960221	DET SYM VERB	-0.28614002
-1.1551541	ADV SYM VERB	-0.28614002
-1.2812562	ADJ SYM VERB	-0.28614002
-1.3539637	PUNCT SYM VERB	-0.2856509
-1.0902864	PART SYM VERB	-0.28467432
-1.5043757	NUM SYM VERB	-0.28614002
-0.7604859	INTJ SYM VERB	-0.28614002
-1.8001175	<s> NUM VERB	-0.4194309
-1.1753114	PROPN NUM VERB	-0.82515824
-1.1670706	ADP NUM VERB	-0.8820328
-1.111512	NOUN NUM VERB	-0.5925376
-1.13036	VERB NUM VERB	-0.57421666
-1.164908	DET NUM VERB	-0.74953693
-1.0145338	CCONJ NUM VERB	-0.5372343
-1.1682359	ADV NUM VERB	-0.57408094
-1.4406888	ADJ NUM VERB	-0.46751508
-1.3025821	PUNCT NUM VERB	-0.6466864
-1.3675553	PART NUM VERB	-0.28555316
-1.2164428	AUX NUM VERB	-0.5659894
-1.3049321	PRON NUM VERB	-0.28614002
-1.2648479	SCONJ NUM VERB	-0.45992908
-1.2248795	SYM NUM VERB	-0.4744764
-1.0653468	NUM NUM VERB	-0.64361686
-1.7143859	<s> X VERB	-0.3372559
-1.2469729	PROPN X VERB	-0.28555316
-1.3776635	ADP X VERB	-0.30614707
-1.0357723	NOUN X VERB	-0.3533294
-1.2224821	VERB X VERB	-0.28540656
-1.2144536	CCONJ X VERB	-0.28467432
-1.3094479	ADJ X VERB	-0.28614002
-1.2564746	PUNCT X VERB	-0.29937512
-0.6696504	PART X VERB	-0.28614002
-0.73802143	PRON X VERB	-0.28516236
-0.97518015	SCONJ X VERB	-0.28614002
-1.486186	X X VERB	-0.28614002
-0.9081449	<s> INTJ VERB	-0.7830366
-1.1047002	PROPN INTJ VERB	-0.28540656
-0.89984095	NOUN INTJ VERB	-0.30011946
-1.2010756	VERB INTJ VERB	-0.28614002
-1.1504017	CCONJ INTJ VERB	-0.28555316
-0.7823114	ADV INTJ VERB	-0.35452917
-1.0103928	ADJ INTJ VERB	-0.28614002
-0.9172967	PUNCT INTJ VERB	-0.88904643
-0.6241303	PART INTJ VERB	-0.28614002
-1.0838892	AUX INTJ VERB	-0.28467432
-0.650962	PRON INTJ VERB	-0.34753978
-1.0221792	SCONJ INTJ VERB	-0.28614002
-0.5583587	NUM INTJ VERB	-0.28614002
-0.9088273	X INTJ VERB	-0.28614002
-0.99592143	INTJ INTJ VERB	-0.28614002
-2.5757213	<s> PROPN DET	-0.8545564
-1.2410535	PROPN PROPN DET	-1.4631846
-1.2214993	ADP PROPN DET	-1.5315495
-1.3133432	NOUN PROPN DET	-0.6954895
-1.228246	VERB PROPN DET	-1.0833119
-1.2568418	DET PROPN DET	-1.0659378
-1.4672999	CCONJ PROPN DET	-0.8567567
-1.3541888	ADV PROPN DET	-0.28467432
-1.3258119	ADJ PROPN DET	-0.9007798
-1.339539	PUNCT PROPN DET	-0.9521331
-1.4094992	PART PROPN DET	-0.30011946
-1.2645988	AUX PROPN DET	-0.41686678
-1.5880691	PRON PROPN DET	-0.28614002
-1.367804	SCONJ PROPN DET	-0.44230905
-1.3331544	SYM PROPN DET	-0.5511507
-1.3354787	NUM PROPN DET	-0.30223975
-1.4416332	X PROPN DET	-0.427941
-1.2424105	INTJ PROPN DET	-0.3116854
-0.3402505	<s> ADP DET	-2.4332266
-1.0595666	PROPN ADP DET	-2.4463317
-0.9647754	ADP ADP DET	-2.070679
-1.1368461	NOUN ADP DET	-3.320542
-1.1588618	VERB ADP DET	-3.032386
-0.9502808	DET ADP DET	-1.8939123
-0.92850786	CCONJ ADP DET	-1.8936913
-1.0595163	ADV ADP DET	-2.3374276
-1.0717303	ADJ ADP DET	-2.3388147
-1.0747305	PUNCT ADP DET	-2.337158
-0.7676109	PART ADP DET	-1.2848133
-0.99902475	AUX ADP DET	-2.0240026
-0.8699132	PRON ADP DET	-2.0022328
-0.98268396	SCONJ ADP DET	-1.9713577
-0.7653226	SYM ADP DET	-0.48777664
-0.9497286	NUM ADP DET	-2.0916805
-0.60946333	X ADP DET	-0.67448246
-0.55716103	INTJ ADP DET	-0.55721223
-2.1610334	<s> NOUN DET	-0.8988181
-1.2202423	PROPN NOUN DET	-1.3254292
-1.2254051	ADP NOUN DET	-1.7603081
-1.2208875	NOUN NOUN DET	-1.8212312
-1.2390163	VERB NOUN DET	-1.5024526
-1.1978043	DET NOUN DET	-2.2495236
-1.2269326	CCONJ NOUN DET	-1.3658319
-1.2511114	ADV NOUN DET	-0.47237605
-1.2289752	ADJ NOUN DET	-2.195876
-1.1962142	PUNCT NOUN DET	-1.1184162
-1.2562118	PART NOUN DET	-0.93772393
-1.174113	AUX NOUN DET	-0.93423337
-1.3308766	PRON NOUN DET	-0.42593333
-1.3224003	SCONJ NOUN DET	-0.54451734
-1.4397976	SYM NOUN DET	-0.30645472
-1.1984407	NUM NOUN DET	-1.376063
-1.6253252	X NOUN DET	-0.28614002
-0.736506	<s> VERB DET	-1.7823322
-1.1573133	PROPN VERB DET	-2.3561225
-1.0712254	ADP VERB DET	-2.1728554
-1.2031281	NOUN VERB DET	-2.4481392
-1.1002748	VERB VERB DET	-2.2467308
-1.1389873	DET VERB DET	-1.9604545
-1.0909591	CCONJ VERB DET	-2.2150776
-1.1672058	ADV VERB DET	-2.3032274
-1.0703863	ADJ VERB DET	-1.1868521
-1.1544133	PUNCT VERB DET	-2.2759361
-1.1653616	PART VERB DET	-2.730582
-1.1697719	AUX VERB DET	-2.351696
-1.1672215	PRON VERB DET	-2.3889852
-1.0364087	SCONJ VERB DET	-1.4851767
-1.0958974	SYM VERB DET	-0.4703625
-1.0217484	NUM VERB DET	-1.1387585
-0.99453276	X VERB DET	-0.6464538
-0.8724142	INTJ VERB DET	-1.0483055
-2.0924897	<s> DET DET	-1.1818013
-1.3452209	PROPN DET DET	-0.41686678
-1.1565087	ADP DET DET	-1.7684084
-1.0974051	NOUN DET DET	-1.4171937
-1.1805041	VERB DET DET	-1.5082377
-1.3043162	DET DET DET	-0.5505505
-1.2168987	CCONJ DET DET	-0.93192387
-1.102734	ADV DET DET	-0.92244077
-1.2038847	ADJ DET DET	-0.6743885
-1.2337214	PUNCT DET DET	-1.1932069
-1.2041843	PART DET DET	-0.66818255
-1.1359302	AUX DET DET	-1.2125177
-1.1209284	PRON DET DET	-0.8111946
-1.1650234	SCONJ DET DET	-1.170462
-1.5281912	NUM DET DET	-0.28614002
-1.2138764	X DET DET	-0.28614002
-1.2293899	INTJ DET DET	-0.28614002
-0.6951388	<s> CCONJ DET	-1.6808707
-1.0672972	PROPN CCONJ DET	-1.993262
-0.9556215	ADP CCONJ DET	-1.1499805
-1.1357092	NOUN CCONJ DET	-2.3120036
-1.1418387	VERB CCONJ DET	-1.3945047
-0.7985347	DET CCONJ DET	-0.93316245
-0.916482	CCONJ CCONJ DET	-0.30249378
-1.1109782	ADV CCONJ DET	-1.0031487
-1.0851758	ADJ CCONJ DET	-1.3059409
-1.1560634	PUNCT CCONJ DET	-2.1877825
-1.2007084	PART CCONJ DET	-0.48852497
-0.97137064	AUX CCONJ DET	-0.92710936
-0.9335145	PRON CCONJ DET	-1.3806717
-0.7978017	SCONJ CCONJ DET	-0.55472344
-1.0196556	NUM CCONJ DET	-0.8624496
-0.9906708	X CCONJ DET	-0.28516236
-0.9356475	INTJ CCONJ DET	-0.28614002
-1.0202837	<s> ADV DET	-1.7742347
-1.2240194	PROPN ADV DET	-1.2343841
-1.08442	ADP ADV DET	-1.4878631
-1.1643447	NOUN ADV DET	-1.5778936
-1.161759	VERB ADV DET	-1.7890321
-1.0975912	DET ADV DET	-0.8935864
-1.1199937	CCONJ ADV DET	-1.5521911
-1.1901317	ADV ADV DET	-1.3415188
-1.2074335	ADJ ADV DET	-0.86030406
-1.1494356	PUNCT ADV DET	-1.7364329
-1.0465813	PART ADV DET	-1.1909467
-1.1271466	AUX ADV DET	-1.8572232
-1.2012911	PRON ADV DET	-0.76093274
-1.0669944	SCONJ ADV DET	-1.0941179
-1.144125	NUM ADV DET	-0.62172514
-1.2650548	INTJ ADV DET	-0.28614002
-2.6866996	<s> ADJ DET	-0.5342027
-1.8736328	PROPN ADJ DET	-0.28614002
-1.269274	ADP ADJ DET	-0.8419174
-1.511252	NOUN ADJ DET	-0.51583946
-1.2464626	VERB ADJ DET	-0.9943897
-1.4336102	DET ADJ DET	-0.6833611
-1.3856606	CCONJ ADJ DET	-0.5418055
-1.2183955	ADV ADJ DET	-1.1315073
-1.5313771	ADJ ADJ DET	-0.38445866
-1.5399724	PUNCT ADJ DET	-0.7214281
-1.1199502	PART ADJ DET	-0.5449267
-1.3140931	AUX ADJ DET	-0.8966217
-1.3986286	PRON ADJ DET	-0.61649054
-1.7047536	SCONJ ADJ DET	-0.4085954
-0.7495075	<s> PUNCT DET	-1.6658835
-1.2204489	PROPN PUNCT DET	-2.4886558
-1.1032628	ADP PUNCT DET	-1.3425783
-1.2189988	NOUN PUNCT DET	-2.6301866
-1.2240578	VERB PUNCT DET	-1.7964638
-1.1487381	DET PUNCT DET	-1.0750163
-1.2411984	CCONJ PUNCT DET	-0.86081916
-1.2042385	ADV PUNCT DET	-2.04846
-1.2388699	ADJ PUNCT DET	-1.498672
-1.2272748	PUNCT PUNCT DET	-1.8764608
-1.0964298	PART PUNCT DET	-0.86141926
-1.1646236	AUX PUNCT DET	-1.0343242
-1.2283508	PRON PUNCT DET	-1.3105767
-1.0955331	SCONJ PUNCT DET	-1.2125549
-1.1626401	SYM PUNCT DET	-0.28614002
-1.1988063	NUM PUNCT DET	-1.767146
-1.2367814	X PUNCT DET	-0.9494461
-1.1471082	INTJ PUNCT DET	-0.98486
-1.0731826	<s> PART DET	-0.79774684
-1.3112009	PROPN PART DET	-0.54158515
-1.303625	ADP PART DET	-0.28614002
-1.2846134	NOUN PART DET	-0.58430284
-1.1658247	VERB PART DET	-0.81190276
-1.2553921	DET PART DET	-0.3205457
-1.0152981	CCONJ PART DET	-0.9600454
-1.0652714	ADV PART DET	-0.91585934
-1.6837524	ADJ PART DET	-0.28614002
-1.1183485	PUNCT PART DET	-0.91931456
-1.5172975	PART PART DET	-0.28614002
-1.0259316	AUX PART DET	-1.6657653
-1.4798323	PRON PART DET	-0.28614002
-0.9062211	SCONJ PART DET	-0.5906213
-1.4305258	NUM PART DET	-0.28614002
-1.0068122	X PART DET	-0.28614002
-0.7485008	<s> AUX DET	-1.1088619
-1.083175	PROPN AUX DET	-2.034596
-0.8980799	ADP AUX DET	-1.1127238
-1.0950361	NOUN AUX DET	-2.1542897
-0.9984698	VERB AUX DET	-1.8297524
-1.07273	DET AUX DET	-1.8862505
-0.9977817	CCONJ AUX DET	-1.2593943
-1.1008118	ADV AUX DET	-1.9778454
-1.0451224	ADJ AUX DET	-1.0715412
-1.0303115	PUNCT AUX DET	-1.7222074
-1.0334471	PART AUX DET	-1.9194976
-1.0054785	AUX AUX DET	-1.5300711
-1.1030012	PRON AUX DET	-2.3630404
-0.8344546	SCONJ AUX DET	-1.083503
-0.7778164	SYM AUX DET	-0.28614002
-0.9896036	NUM AUX DET	-1.0307075
-0.8025153	X AUX DET	-0.28540656
-0.98167384	INTJ AUX DET	-0.28540656
-2.160464	<s> PRON DET	-1.0118009
-1.6023259	PROPN PRON DET	-0.28516236
-1.1608243	ADP PRON DET	-1.3172072
-1.1711748	NOUN PRON DET	-0.78170323
-1.1732937	VERB PRON DET	-1.7011372
-1.2803266	DET PRON DET	-0.5225388
-1.0589811	CCONJ PRON DET	-0.87382257
-1.1040831	ADV PRON DET	-0.8061463
-0.9242946	ADJ PRON DET	-0.39940378
-1.1008509	PUNCT PRON DET	-1.0773427
-1.1508218	PART PRON DET	-0.53873456
-1.1184738	AUX PRON DET	-1.1896284
-1.3664107	PRON PRON DET	-0.5369037
-1.1381217	SCONJ PRON DET	-0.8512422
-1.4553293	INTJ PRON DET	-0.28614002
-0.47094673	<s> SCONJ DET	-1.9669919
-0.9141679	PROPN SCONJ DET	-1.6358864
-0.8117555	ADP SCONJ DET	-1.3257961
-1.0468483	NOUN SCONJ DET	-2.1202202
-1.078355	VERB SCONJ DET	-2.3496418
-0.79348403	DET SCONJ DET	-0.9941645
-0.8881438	CCONJ SCONJ DET	-1.4065503
-0.9884412	ADV SCONJ DET	-1.7722595
-1.0763841	ADJ SCONJ DET	-1.8254796
-1.0505497	PUNCT SCONJ DET	-1.949368
-0.7049967	PART SCONJ DET	-0.9315605
-0.9579216	AUX SCONJ DET	-1.3670467
-0.868831	PRON SCONJ DET	-1.4040011
-0.8934541	SCONJ SCONJ DET	-1.2976354
-0.23583387	SYM SCONJ DET	-0.28614002
-0.7764504	NUM SCONJ DET	-1.017834
-0.5107143	X SCONJ DET	-0.30583978
-0.9653873	INTJ SCONJ DET	-0.28614002
-2.0866997	<s> SYM DET	-0.28614002
-1.7741714	PROPN SYM DET	-0.28614002
-1.5175475	ADP SYM DET	-0.28467432
-0.9256089	DET SYM DET	-0.9895525
-1.0979514	PRON SYM DET	-0.28614002
-1.665668	NUM SYM DET	-0.28614002
-2.540802	<s> NUM DET	-0.30645472
-1.3046048	PROPN NUM DET	-0.83520144
-1.2023956	ADP NUM DET	-0.8725117
-1.3155074	NOUN NUM DET	-0.4274325
-1.3703309	VERB NUM DET	-0.536596
-1.665942	DET NUM DET	-0.28540656
-1.5246358	CCONJ NUM DET	-0.30249378
-1.5368661	ADV NUM DET	-0.38502103
-1.4506398	ADJ NUM DET	-0.29557797
-1.3665789	PUNCT NUM DET	-0.62152904
-1.373708	AUX NUM DET	-0.34949976
-1.3186842	PRON NUM DET	-0.28614002
-1.354303	SCONJ NUM DET	-0.3694406
-1.049452	SYM NUM DET	-0.83917546
-1.5678664	NUM NUM DET	-0.62608385
-1.8401922	<s> X DET	-0.45502144
-1.4136609	ADP X DET	-0.28555316
-1.3169832	NOUN X DET	-0.38563597
-1.2539433	VERB X DET	-0.28516236
-1.1718843	CCONJ X DET	-0.44548446
-0.8874475	ADJ X DET	-0.28614002
-1.3800592	PUNCT X DET	-0.40874684
-1.1163954	AUX X DET	-0.28614002
-1.1956472	SYM X DET	-0.28614002
-1.3144897	X X DET	-0.2856509
-1.6726801	<s> INTJ DET	-0.4166464
-1.3106631	VERB INTJ DET	-0.28467432
-1.2639873	CCONJ INTJ DET	-0.28614002
-1.3875098	ADV INTJ DET	-0.28614002
-1.2607069	PUNCT INTJ DET	-0.6074847
-1.1966606	AUX INTJ DET	-0.28614002
-1.1181611	SCONJ INTJ DET	-0.28614002
-0.8841772	NUM INTJ DET	-0.28614002
-1.8280082	<s> PROPN CCONJ	-1.4244324
-1.190121	PROPN PROPN CCONJ	-2.3056338
-1.1671828	ADP PROPN CCONJ	-2.2244542
-1.2342492	NOUN PROPN CCONJ	-1.1478672
-1.1703007	VERB PROPN CCONJ	-1.4523913
-1.160019	DET PROPN CCONJ	-1.690337
-1.0529709	CCONJ PROPN CCONJ	-1.2977318
-1.0213858	ADV PROPN CCONJ	-0.8982537
-1.1798335	ADJ PROPN CCONJ	-1.209303
-1.1777108	PUNCT PROPN CCONJ	-1.8563445
-1.1756972	PART PROPN CCONJ	-1.0447484
-1.1664172	AUX PROPN CCONJ	-0.8399592
-1.1322925	PRON PROPN CCONJ	-0.5709712
-1.1702747	SCONJ PROPN CCONJ	-1.2928014
-1.1576629	SYM PROPN CCONJ	-0.7331844
-1.157522	NUM PROPN CCONJ	-0.73112935
-1.3037744	X PROPN CCONJ	-0.3116854
-1.2424105	INTJ PROPN CCONJ	-0.28555316
-3.5607526	<s> ADP CCONJ	-0.28516236
-1.2498546	PROPN ADP CCONJ	-0.4762107
-1.5505697	ADP ADP CCONJ	-0.33339834
-1.2473106	NOUN ADP CCONJ	-1.1790001
-1.2396618	VERB ADP CCONJ	-1.3258182
-1.2891469	DET ADP CCONJ	-0.34306595
-1.5229731	CCONJ ADP CCONJ	-0.54100794
-1.4861373	ADV ADP CCONJ	-0.29557797
-1.3746979	ADJ ADP CCONJ	-0.45212144
-1.3514566	PUNCT ADP CCONJ	-0.5674816
-1.6982917	PART ADP CCONJ	-0.28614002
-1.4016987	AUX ADP CCONJ	-0.2989717
-1.6345197	PRON ADP CCONJ	-0.5527102
-1.5833341	SCONJ ADP CCONJ	-0.28614002
-1.2548364	SYM ADP CCONJ	-0.28614002
-1.892308	NUM ADP CCONJ	-0.28614002
-1.4043684	X ADP CCONJ	-0.28614002
-1.4016553	<s> NOUN CCONJ	-1.4398992
-1.1898172	PROPN NOUN CCONJ	-1.5988756
-1.1686643	ADP NOUN CCONJ	-2.3378441
-1.2184995	NOUN NOUN CCONJ	-2.226939
-1.2085912	VERB NOUN CCONJ	-2.0524502
-1.2496309	DET NOUN CCONJ	-2.5212684
-1.1769034	CCONJ NOUN CCONJ	-1.3499463
-1.16773	ADV NOUN CCONJ	-1.1153202
-1.226587	ADJ NOUN CCONJ	-2.4584813
-1.165775	PUNCT NOUN CCONJ	-2.0598977
-1.141353	PART NOUN CCONJ	-1.479728
-1.1711966	AUX NOUN CCONJ	-1.0974338
-1.3243232	PRON NOUN CCONJ	-0.71305996
-1.1057597	SCONJ NOUN CCONJ	-1.218142
-1.1219884	SYM NOUN CCONJ	-0.60531974
-1.1961076	NUM NOUN CCONJ	-1.5744249
-1.1176463	X NOUN CCONJ	-0.30300224
-1.2774092	INTJ NOUN CCONJ	-0.28614002
-2.3344564	<s> VERB CCONJ	-1.0054247
-1.2081683	PROPN VERB CCONJ	-1.0946628
-1.125669	ADP VERB CCONJ	-1.1371434
-1.2309784	NOUN VERB CCONJ	-1.392655
-1.2406892	VERB VERB CCONJ	-1.2337008
-1.2293222	DET VERB CCONJ	-0.9258219
-1.2153703	CCONJ VERB CCONJ	-0.8613525
-1.195129	ADV VERB CCONJ	-1.3506467
-1.4082552	ADJ VERB CCONJ	-0.5094896
-1.208435	PUNCT VERB CCONJ	-1.3879983
-1.1932849	PART VERB CCONJ	-1.7020153
-1.2273816	AUX VERB CCONJ	-1.7210248
-1.2756863	PRON VERB CCONJ	-1.2990935
-1.1839688	SCONJ VERB CCONJ	-0.5615221
-1.3040649	SYM VERB CCONJ	-0.28614002
-1.3614844	NUM VERB CCONJ	-0.32700047
-1.4655337	X VERB CCONJ	-0.28614002
-1.4496756	INTJ VERB CCONJ	-0.3116854
-3.4314241	<s> DET CCONJ	-0.47909352
-1.9086022	PROPN DET CCONJ	-0.28614002
-1.2629291	ADP DET CCONJ	-0.7716281
-1.779844	NOUN DET CCONJ	-0.28614002
-1.3250407	VERB DET CCONJ	-0.5492767
-1.7233372	DET DET CCONJ	-0.28614002
-1.5968927	CCONJ DET CCONJ	-0.30300224
-1.7851728	ADV DET CCONJ	-0.28614002
-1.6298778	PUNCT DET CCONJ	-0.28516236
-1.7852553	PART DET CCONJ	-0.28614002
-1.6721216	AUX DET CCONJ	-0.31831363
-1.6504916	PRON DET CCONJ	-0.29834723
-1.5648606	SCONJ DET CCONJ	-0.28540656
-1.5022917	NUM DET CCONJ	-0.28555316
-3.5004632	<s> CCONJ CCONJ	-0.28614002
-2.182066	PROPN CCONJ CCONJ	-0.28614002
-1.9412374	ADP CCONJ CCONJ	-0.28614002
-1.6462494	NOUN CCONJ CCONJ	-0.2852375
-2.1411073	VERB CCONJ CCONJ	-0.28614002
-1.8655041	ADV CCONJ CCONJ	-0.28614002
-1.97506	ADJ CCONJ CCONJ	-0.28614002
-1.6406933	PUNCT CCONJ CCONJ	-0.30011946
-2.563342	<s> ADV CCONJ	-0.9557063
-1.3123653	PROPN ADV CCONJ	-0.55931395
-1.3620574	ADP ADV CCONJ	-0.70183855
-1.2612526	NOUN ADV CCONJ	-1.2363256
-1.1899393	VERB ADV CCONJ	-1.4359057
-1.2257279	DET ADV CCONJ	-0.77767414
-1.2824107	CCONJ ADV CCONJ	-0.7245149
-1.1901317	ADV ADV CCONJ	-0.8711134
-1.4352331	ADJ ADV CCONJ	-0.56172717
-1.2663997	PUNCT ADV CCONJ	-0.8904437
-1.3959463	PART ADV CCONJ	-0.52434254
-1.3043461	AUX ADV CCONJ	-0.86509305
-1.2536339	PRON ADV CCONJ	-0.78865093
-1.5636668	SCONJ ADV CCONJ	-0.4085954
-1.6555183	NUM ADV CCONJ	-0.28614002
-1.4420725	INTJ ADV CCONJ	-0.28614002
-1.7596378	<s> ADJ CCONJ	-1.0355469
-1.0825535	PROPN ADJ CCONJ	-0.50117576
-1.1214974	ADP ADJ CCONJ	-1.5969912
-1.1517363	NOUN ADJ CCONJ	-1.0310531
-1.1372861	VERB ADJ CCONJ	-1.4077957
-1.1738404	DET ADJ CCONJ	-1.795594
-1.0978518	CCONJ ADJ CCONJ	-1.0974338
-1.1448346	ADV ADJ CCONJ	-1.6276575
-1.026498	ADJ ADJ CCONJ	-1.365615
-1.0956722	PUNCT ADJ CCONJ	-1.582268
-1.2047862	PART ADJ CCONJ	-0.95421004
-1.0960708	AUX ADJ CCONJ	-1.5844175
-1.2893999	PRON ADJ CCONJ	-0.7069779
-1.0140747	SCONJ ADJ CCONJ	-0.8761157
-1.4864938	SYM ADJ CCONJ	-0.28614002
-0.96626383	NUM ADJ CCONJ	-0.81139964
-1.3823742	X ADJ CCONJ	-0.28614002
-1.3133454	INTJ ADJ CCONJ	-0.28614002
-1.814626	<s> PUNCT CCONJ	-0.6667456
-1.2451903	PROPN PUNCT CCONJ	-2.0659528
-1.2785168	ADP PUNCT CCONJ	-0.9997457
-1.2189988	NOUN PUNCT CCONJ	-2.5315971
-1.2818252	VERB PUNCT CCONJ	-1.7440814
-1.2941486	DET PUNCT CCONJ	-0.71455324
-1.4205829	CCONJ PUNCT CCONJ	-0.28488338
-1.2042385	ADV PUNCT CCONJ	-1.5599037
-1.1847094	ADJ PUNCT CCONJ	-1.6960096
-1.2551987	PUNCT PUNCT CCONJ	-1.509112
-1.3632735	PART PUNCT CCONJ	-0.49941647
-1.2024819	AUX PUNCT CCONJ	-0.77517545
-1.1617031	PRON PUNCT CCONJ	-1.2411398
-1.4778926	SCONJ PUNCT CCONJ	-0.285488
-1.3862249	SYM PUNCT CCONJ	-0.28614002
-1.1988063	NUM PUNCT CCONJ	-1.3019998
-1.2367814	X PUNCT CCONJ	-0.49978355
-1.0074705	INTJ PUNCT CCONJ	-0.5455462
-1.2136484	PROPN PART CCONJ	-0.8311919
-1.2772177	NOUN PART CCONJ	-0.49466482
-1.2514604	VERB PART CCONJ	-0.5184882
-1.501157	CCONJ PART CCONJ	-0.28540656
-1.7370996	ADV PART CCONJ	-0.28614002
-1.6800014	ADJ PART CCONJ	-0.44548446
-1.539948	AUX PART CCONJ	-0.36698997
-1.497591	NUM PART CCONJ	-0.29697382
-1.454451	PROPN AUX CCONJ	-0.3609375
-1.5962899	ADP AUX CCONJ	-0.28614002
-1.3661532	NOUN AUX CCONJ	-0.60241705
-1.8112247	VERB AUX CCONJ	-0.28533995
-1.8241864	DET AUX CCONJ	-0.28614002
-1.870178	CCONJ AUX CCONJ	-0.28614002
-1.5241604	ADV AUX CCONJ	-0.34239694
-1.9278096	ADJ AUX CCONJ	-0.28614002
-1.8424741	PUNCT AUX CCONJ	-0.47909352
-1.6500703	PART AUX CCONJ	-0.37684038
-1.3718296	AUX AUX CCONJ	-0.39487994
-1.293832	PRON AUX CCONJ	-0.6930074
-1.7253424	NUM AUX CCONJ	-0.28614002
-2.9008563	<s> PRON CCONJ	-0.5851163
-1.2174673	PROPN PRON CCONJ	-0.29872492
-1.1307541	ADP PRON CCONJ	-1.3163819
-1.2846504	NOUN PRON CCONJ	-0.3449231
-1.2311453	VERB PRON CCONJ	-1.317413
-1.3877776	DET PRON CCONJ	-0.30645472
-1.2613732	CCONJ PRON CCONJ	-0.5342027
-1.1463611	ADV PRON CCONJ	-0.5254023
-1.7040797	ADJ PRON CCONJ	-0.28614002
-1.2485656	PUNCT PRON CCONJ	-0.68666595
-1.4619284	PART PRON CCONJ	-0.28614002
-1.2458813	AUX PRON CCONJ	-0.3578949
-1.5091461	PRON PRON CCONJ	-0.28614002
-1.1798582	SCONJ PRON CCONJ	-0.6637382
-1.3201727	NUM PRON CCONJ	-0.28614002
-2.823127	<s> SCONJ CCONJ	-0.68852246
-1.9149451	PROPN SCONJ CCONJ	-0.28614002
-1.0158743	ADP SCONJ CCONJ	-0.8102306
-1.6844431	NOUN SCONJ CCONJ	-0.42460504
-1.2869406	VERB SCONJ CCONJ	-0.63845533
-1.6246727	CCONJ SCONJ CCONJ	-0.28614002
-1.8050574	ADV SCONJ CCONJ	-0.28614002
-1.6906185	ADJ SCONJ CCONJ	-0.35854483
-1.7222338	PUNCT SCONJ CCONJ	-0.50995976
-1.697809	AUX SCONJ CCONJ	-0.28540656
-1.7069483	PRON SCONJ CCONJ	-0.28614002
-1.6323495	NUM SCONJ CCONJ	-0.28614002
-2.1631708	<s> SYM CCONJ	-0.28614002
-1.835341	NOUN SYM CCONJ	-0.28614002
-1.8391039	VERB SYM CCONJ	-0.28614002
-1.7362059	NUM SYM CCONJ	-0.28614002
-2.231501	<s> NUM CCONJ	-0.34306595
-1.254337	PROPN NUM CCONJ	-0.97866595
-1.137152	ADP NUM CCONJ	-1.2715405
-1.0734152	NOUN NUM CCONJ	-0.58447653
-1.13036	VERB NUM CCONJ	-0.600851
-1.2755518	DET NUM CCONJ	-0.5101646
-1.3792	CCONJ NUM CCONJ	-0.34239694
-1.3469543	ADV NUM CCONJ	-0.5746318
-1.1349713	ADJ NUM CCONJ	-0.46625784
-1.2053612	PUNCT NUM CCONJ	-0.5846505
-1.3675553	PART NUM CCONJ	-0.28540656
-1.1054035	AUX NUM CCONJ	-0.5013218
-1.3049321	PRON NUM CCONJ	-0.28614002
-1.1959296	SCONJ NUM CCONJ	-0.39391008
-1.172899	SYM NUM CCONJ	-0.41296837
-1.1461066	NUM NUM CCONJ	-0.5018614
-1.6962684	ADP X CCONJ	-0.30249378
-1.7988499	NOUN X CCONJ	-0.28467432
-1.3246578	VERB X CCONJ	-0.28540656
-1.446783	PUNCT X CCONJ	-0.28516236
-1.1820006	AUX X CCONJ	-0.28614002
-1.3650501	X X CCONJ	-0.28555316
-2.2381535	<s> INTJ CCONJ	-0.2849671
-1.0585846	VERB INTJ CCONJ	-0.28540656
-1.2458262	CCONJ INTJ CCONJ	-0.28614002
-1.3599799	ADV INTJ CCONJ	-0.28614002
-1.0945281	ADJ INTJ CCONJ	-0.28614002
-1.6385171	PUNCT INTJ CCONJ	-0.28614002
-1.1786443	AUX INTJ CCONJ	-0.28614002
-1.2807301	PRON INTJ CCONJ	-0.28614002
-1.103081	SCONJ INTJ CCONJ	-0.28614002
-1.7426475	<s> PROPN ADV	-1.500757
-1.2170756	PROPN PROPN ADV	-1.6265222
-1.2239428	ADP PROPN ADV	-1.5064865
-1.3170121	NOUN PROPN ADV	-0.82708406
-1.2308643	VERB PROPN ADV	-0.9893017
-1.2598976	DET PROPN ADV	-1.1583383
-1.268162	CCONJ PROPN ADV	-0.92014337
-1.1598665	ADV PROPN ADV	-0.5453368
-1.2497737	ADJ PROPN ADV	-0.7856076
-1.2703514	PUNCT PROPN ADV	-1.1350302
-1.1823179	PART PROPN ADV	-0.529693
-1.1698196	AUX PROPN ADV	-0.49669793
-1.4011736	PRON PROPN ADV	-0.36994904
-1.1734818	SCONJ PROPN ADV	-0.833313
-1.3377961	SYM PROPN ADV	-0.5393044
-1.2875217	NUM PROPN ADV	-0.46550483
-1.4896078	INTJ PROPN ADV	-0.28614002
-1.7481486	<s> ADP ADV	-1.1283695
-1.2498546	PROPN ADP ADV	-0.75690484
-1.1449345	ADP ADP ADV	-0.7509069
-1.1898788	NOUN ADP ADV	-1.7859175
-1.2693264	VERB ADP ADV	-1.7130473
-1.2298422	DET ADP ADV	-0.42657474
-1.1100681	CCONJ ADP ADV	-0.74286366
-1.1198057	ADV ADP ADV	-0.9561785
-1.1642157	ADJ ADP ADV	-0.773711
-1.131176	PUNCT ADP ADV	-1.0026
-1.6982917	PART ADP ADV	-0.28614002
-1.0987853	AUX ADP ADV	-0.65125036
-1.2411817	PRON ADP ADV	-0.73478585
-1.0482652	SCONJ ADP ADV	-0.69273424
-1.259569	NUM ADP ADV	-0.44034788
-1.4043684	X ADP ADV	-0.28614002
-1.437083	INTJ ADP ADV	-0.28614002
-1.692336	<s> NOUN ADV	-1.1620994
-1.2176955	PROPN NOUN ADV	-1.2591169
-1.1949583	ADP NOUN ADV	-1.6292123
-1.2463778	NOUN NOUN ADV	-1.7130473
-1.182395	VERB NOUN ADV	-1.4834095
-1.1708509	DET NOUN ADV	-2.2731986
-1.1769034	CCONJ NOUN ADV	-1.2806185
-1.16773	ADV NOUN ADV	-0.75178504
-1.2544655	ADJ NOUN ADV	-2.0590575
-1.165775	PUNCT NOUN ADV	-1.1633785
-1.2511206	PART NOUN ADV	-1.0313424
-1.1362491	AUX NOUN ADV	-0.79233634
-1.2419218	PRON NOUN ADV	-0.32429883
-1.220371	SCONJ NOUN ADV	-0.8538225
-1.561706	SYM NOUN ADV	-0.28516236
-1.1961076	NUM NOUN ADV	-1.6513274
-1.6103758	X NOUN ADV	-0.28614002
-1.4544872	INTJ NOUN ADV	-0.28614002
-1.521516	<s> VERB ADV	-0.9215447
-1.1819968	PROPN VERB ADV	-1.6133554
-1.1879295	ADP VERB ADV	-1.1510372
-1.2031281	NOUN VERB ADV	-2.030416
-1.2087395	VERB VERB ADV	-1.517799
-1.1670618	DET VERB ADV	-1.4116262
-1.1487249	CCONJ VERB ADV	-1.46508
-1.195129	ADV VERB ADV	-1.539578
-1.168791	ADJ VERB ADV	-0.5808219
-1.1544133	PUNCT VERB ADV	-1.5349572
-1.1932849	PART VERB ADV	-1.910123
-1.1697719	AUX VERB ADV	-2.036549
-1.2180766	PRON VERB ADV	-2.0501385
-1.1839688	SCONJ VERB ADV	-0.66010946
-1.2446517	SYM VERB ADV	-0.28614002
-1.201643	NUM VERB ADV	-0.4628807
-1.4655337	X VERB ADV	-0.28614002
-1.3936347	INTJ VERB ADV	-0.34987745
-1.8639827	<s> DET ADV	-1.3215241
-1.0342965	PROPN DET ADV	-0.702522
-1.1287202	ADP DET ADV	-1.8719956
-1.0650892	NOUN DET ADV	-1.287423
-1.1805041	VERB DET ADV	-1.6008878
-1.0662345	DET DET ADV	-0.8320903
-1.1713452	CCONJ DET ADV	-0.9943717
-1.070418	ADV DET ADV	-1.2612034
-1.0166366	ADJ DET ADV	-0.41881934
-1.0845717	PUNCT DET ADV	-1.4492975
-1.1331112	PART DET ADV	-0.66360843
-1.0741783	AUX DET ADV	-1.6057379
-1.0744673	PRON DET ADV	-0.7906007
-1.098613	SCONJ DET ADV	-1.2045151
-1.0514079	SYM DET ADV	-0.28614002
-1.3244183	NUM DET ADV	-0.38563597
-0.9400011	INTJ DET ADV	-0.28516236
-0.85203874	<s> CCONJ ADV	-1.4686973
-1.1509176	PROPN CCONJ ADV	-1.2152213
-1.1324039	ADP CCONJ ADV	-0.64496374
-1.1616194	NOUN CCONJ ADV	-1.8181846
-1.052463	VERB CCONJ ADV	-1.1140444
-1.4270896	DET CCONJ ADV	-0.28572077
-1.0748569	CCONJ CCONJ ADV	-0.28516236
-1.0075198	ADV CCONJ ADV	-1.4376075
-1.1148864	ADJ CCONJ ADV	-1.4498277
-1.1301531	PUNCT CCONJ ADV	-1.9357791
-1.2007084	PART CCONJ ADV	-0.28614002
-0.9182813	AUX CCONJ ADV	-0.43636468
-1.0135195	PRON CCONJ ADV	-0.68701583
-1.0742053	SCONJ CCONJ ADV	-0.28555316
-0.9872368	NUM CCONJ ADV	-0.5774222
-1.2048463	X CCONJ ADV	-0.28614002
-1.2209529	INTJ CCONJ ADV	-0.28614002
-1.0489123	<s> ADV ADV	-1.627107
-1.0829176	PROPN ADV ADV	-1.0912827
-1.1095895	ADP ADV ADV	-1.1967636
-1.105211	NOUN ADV ADV	-1.7269117
-1.1847996	VERB ADV ADV	-1.7754722
-1.0243881	DET ADV ADV	-1.129272
-1.1492246	CCONJ ADV ADV	-1.3611572
-1.1548263	ADV ADV ADV	-1.3364466
-1.0859538	ADJ ADV ADV	-0.9322322
-1.1448274	PUNCT ADV ADV	-1.7096127
-1.0768886	PART ADV ADV	-1.0092996
-1.1517364	AUX ADV ADV	-1.7768561
-1.0331521	PRON ADV ADV	-1.2672946
-1.0612736	SCONJ ADV ADV	-0.7932579
-1.0533527	SYM ADV ADV	-0.28614002
-1.0836217	NUM ADV ADV	-0.49641412
-1.1369762	X ADV ADV	-0.28614002
-1.0250393	INTJ ADV ADV	-0.30645472
-2.213919	<s> ADJ ADV	-0.51558703
-1.6579138	PROPN ADJ ADV	-0.28516236
-1.2273561	ADP ADJ ADV	-0.58779204
-1.2342861	NOUN ADJ ADV	-0.61153996
-1.2079805	VERB ADJ ADV	-0.89077777
-1.249985	DET ADJ ADV	-1.0247818
-1.3097559	CCONJ ADJ ADV	-0.69506556
-1.2893336	ADV ADJ ADV	-1.0329044
-1.2131829	ADJ ADJ ADV	-0.5501476
-1.2290344	PUNCT ADJ ADV	-0.55446404
-1.1641026	PART ADJ ADV	-0.79761934
-1.1619993	AUX ADJ ADV	-1.1706282
-1.3914872	PRON ADJ ADV	-0.49878517
-1.3692093	SCONJ ADJ ADV	-0.33008268
-1.3280867	NUM ADJ ADV	-0.30011946
-1.1938292	<s> PUNCT ADV	-1.1530997
-1.2204489	PROPN PUNCT ADV	-1.9438114
-1.1651529	ADP PUNCT ADV	-0.852968
-1.2189988	NOUN PUNCT ADV	-2.2447236
-1.1978213	VERB PUNCT ADV	-1.5161299
-1.2153858	DET PUNCT ADV	-0.83113515
-1.1146225	CCONJ PUNCT ADV	-0.93862027
-1.2321626	ADV PUNCT ADV	-1.5641923
-1.2388699	ADJ PUNCT ADV	-1.3713399
-1.2272748	PUNCT PUNCT ADV	-1.3656824
-1.0232174	PART PUNCT ADV	-0.67048496
-1.2024819	AUX PUNCT ADV	-1.0136151
-1.1617031	PRON PUNCT ADV	-1.0317502
-1.1750206	SCONJ PUNCT ADV	-0.5943947
-1.3862249	SYM PUNCT ADV	-0.28614002
-1.1708823	NUM PUNCT ADV	-1.1481531
-1.2367814	X PUNCT ADV	-0.46687788
-1.2058011	INTJ PUNCT ADV	-0.6386053
-0.8406894	<s> PART ADV	-0.83905965
-1.0489013	PROPN PART ADV	-1.2771021
-1.0612415	ADP PART ADV	-0.48086476
-1.0495318	NOUN PART ADV	-1.4337559
-0.99412143	VERB PART ADV	-1.4063509
-0.8445804	DET PART ADV	-0.5157193
-1.0197392	CCONJ PART ADV	-0.8086765
-0.8753509	ADV PART ADV	-0.78434736
-0.9973251	ADJ PART ADV	-1.0128525
-0.91771513	PUNCT PART ADV	-0.9967104
-0.9441317	PART PART ADV	-0.5617272
-0.9995371	AUX PART ADV	-1.7262741
-0.84474504	PRON PART ADV	-0.8470703
-0.8622724	SCONJ PART ADV	-0.6869599
-1.2582315	NUM PART ADV	-0.2850403
-1.772309	<s> AUX ADV	-0.4507569
-1.1361995	PROPN AUX ADV	-1.9571116
-0.9901077	ADP AUX ADV	-0.68283767
-1.0974436	NOUN AUX ADV	-2.3375301
-1.0851556	VERB AUX ADV	-1.5081611
-1.0211648	DET AUX ADV	-1.7545779
-1.0007467	CCONJ AUX ADV	-1.3559659
-1.103557	ADV AUX ADV	-1.092907
-1.0127016	ADJ AUX ADV	-0.77731633
-1.0869662	PUNCT AUX ADV	-1.5501004
-1.0659626	PART AUX ADV	-1.4495286
-0.94596	AUX AUX ADV	-1.3808311
-1.1299382	PRON AUX ADV	-2.2990267
-0.9188078	SCONJ AUX ADV	-0.5849007
-0.95710915	NUM AUX ADV	-0.75563794
-0.88718826	X AUX ADV	-0.28614002
-0.9885551	INTJ AUX ADV	-0.30645472
-1.1626264	<s> PRON ADV	-2.0297074
-1.0728014	PROPN PRON ADV	-0.98869467
-1.1518729	ADP PRON ADV	-1.2583978
-0.936289	NOUN PRON ADV	-1.5087714
-1.1392403	VERB PRON ADV	-1.658766
-0.9493728	DET PRON ADV	-1.1046346
-0.97641605	CCONJ PRON ADV	-1.4548026
-1.0215313	ADV PRON ADV	-1.3097755
-1.1046994	ADJ PRON ADV	-0.3491224
-1.0087986	PUNCT PRON ADV	-1.7380261
-1.2347572	PART PRON ADV	-0.62115055
-1.1089844	AUX PRON ADV	-1.1510134
-0.84775627	PRON PRON ADV	-0.8725466
-0.99432915	SCONJ PRON ADV	-1.3574299
-0.8244924	SYM PRON ADV	-0.28467432
-1.2256423	NUM PRON ADV	-0.4085954
-1.1980959	X PRON ADV	-0.28614002
-1.1485707	INTJ PRON ADV	-0.30583978
-1.5363556	<s> SCONJ ADV	-0.91263664
-1.292464	PROPN SCONJ ADV	-0.37089518
-1.4622282	ADP SCONJ ADV	-0.42768666
-1.1832979	NOUN SCONJ ADV	-0.96159816
-1.1734662	VERB SCONJ ADV	-1.1737441
-1.1979928	DET SCONJ ADV	-0.28555316
-1.1430109	CCONJ SCONJ ADV	-0.40853423
-1.1360055	ADV SCONJ ADV	-0.77573687
-1.1182853	ADJ SCONJ ADV	-0.88204587
-1.1455828	PUNCT SCONJ ADV	-0.89319605
-1.1184139	AUX SCONJ ADV	-0.39810032
-1.4765688	PRON SCONJ ADV	-0.40891197
-1.312746	SCONJ SCONJ ADV	-0.45227516
-1.5912322	NUM SCONJ ADV	-0.28614002
-2.0216994	<s> SYM ADV	-0.28614002
-1.4749799	ADP SYM ADV	-0.28614002
-1.5056015	NOUN SYM ADV	-0.28467432
-1.6951021	VERB SYM ADV	-0.28614002
-1.4988465	CCONJ SYM ADV	-0.28614002
-1.6663303	PUNCT SYM ADV	-0.28614002
-1.3185438	AUX SYM ADV	-0.28614002
-1.2588856	SCONJ SYM ADV	-0.28614002
-2.1175506	<s> NUM ADV	-0.46847254
-1.254337	PROPN NUM ADV	-0.6061906
-1.199204	ADP NUM ADV	-0.8472634
-1.251205	NOUN NUM ADV	-0.42009044
-1.2553076	VERB NUM ADV	-0.3898134
-1.2167158	DET NUM ADV	-0.7236064
-1.3792	CCONJ NUM ADV	-0.34949976
-1.3469543	ADV NUM ADV	-0.35063943
-1.4406888	ADJ NUM ADV	-0.53376967
-1.4280394	PUNCT NUM ADV	-0.536596
-1.3675553	PART NUM ADV	-0.28516236
-1.157384	AUX NUM ADV	-0.44123682
-1.346804	SCONJ NUM ADV	-0.3750595
-1.5334332	SYM NUM ADV	-0.29697382
-1.3050941	NUM NUM ADV	-0.3372559
-0.87521875	INTJ NUM ADV	-0.28614002
-2.4698274	<s> X ADV	-0.28614002
-1.5442799	PROPN X ADV	-0.28614002
-1.5848716	NOUN X ADV	-0.28614002
-1.3750309	VERB X ADV	-0.28467432
-1.414453	ADJ X ADV	-0.28614002
-1.7886734	PUNCT X ADV	-0.28614002
-1.1646471	AUX X ADV	-0.28614002
-1.5725125	<s> INTJ ADV	-0.47258106
-1.146836	PROPN INTJ ADV	-0.28614002
-0.92899376	ADP INTJ ADV	-0.28614002
-0.9235793	NOUN INTJ ADV	-0.28540656
-1.4062059	VERB INTJ ADV	-0.28614002
-0.9517468	DET INTJ ADV	-0.28614002
-1.3519531	CCONJ INTJ ADV	-0.28614002
-1.2248602	PUNCT INTJ ADV	-0.29264748
-0.909001	AUX INTJ ADV	-0.28614002
-0.95766985	PRON INTJ ADV	-0.28540656
-1.060749	SCONJ INTJ ADV	-0.28614002
-1.2703298	INTJ INTJ ADV	-0.28467432
-2.4649558	<s> PROPN ADJ	-0.8797309
-1.2410535	PROPN PROPN ADJ	-1.2700255
-1.3560709	ADP PROPN ADJ	-1.3042828
-1.3133432	NOUN PROPN ADJ	-0.49859354
-1.2604018	VERB PROPN ADJ	-0.9050742
-1.3359357	DET PROPN ADJ	-1.3216225
-1.4672999	CCONJ PROPN ADJ	-0.68141985
-1.7267232	ADV PROPN ADJ	-0.28540656
-1.2844667	ADJ PROPN ADJ	-0.86114365
-1.2674308	PUNCT PROPN ADJ	-0.9134974
-1.4094992	PART PROPN ADJ	-0.6638679
-1.2127395	AUX PROPN ADJ	-0.5155536
-1.5880691	PRON PROPN ADJ	-0.28614002
-1.7403386	SCONJ PROPN ADJ	-0.48777664
-1.4574944	SYM PROPN ADJ	-0.43664995
-1.2837034	NUM PROPN ADJ	-0.6301847
-1.495641	X PROPN ADJ	-0.28467432
-1.4750834	INTJ PROPN ADJ	-0.28614002
-1.1411122	<s> ADP ADJ	-1.6380717
-1.0595666	PROPN ADP ADJ	-1.6765716
-1.0619326	ADP ADP ADJ	-1.4363492
-1.1613296	NOUN ADP ADJ	-2.7659848
-1.1833453	VERB ADP ADJ	-2.3615906
-1.0478232	DET ADP ADJ	-1.0221105
-1.0647544	CCONJ ADP ADJ	-1.2186507
-1.0873103	ADV ADP ADJ	-1.5943562
-1.129309	ADJ ADP ADJ	-1.6825782
-1.0747305	PUNCT ADP ADJ	-1.6556174
-0.935667	PART ADP ADJ	-0.87595683
-0.99902475	AUX ADP ADJ	-1.3216232
-0.9614505	PRON ADP ADJ	-1.2675366
-1.0131142	SCONJ ADP ADJ	-1.131227
-1.2441877	SYM ADP ADJ	-0.28614002
-1.0409807	NUM ADP ADJ	-0.9657451
-1.1345371	X ADP ADJ	-0.28516236
-1.1528432	INTJ ADP ADJ	-0.2856509
-2.233033	<s> NOUN ADJ	-0.6216599
-1.2794734	PROPN NOUN ADJ	-0.8927743
-1.2229474	ADP NOUN ADJ	-1.3985735
-1.3081558	NOUN NOUN ADJ	-1.3080118
-1.2364695	VERB NOUN ADJ	-1.2760473
-1.2217526	DET NOUN ADJ	-1.7381086
-1.2230757	CCONJ NOUN ADJ	-0.9189348
-1.2939675	ADV NOUN ADJ	-0.3794071
-1.226587	ADJ NOUN ADJ	-1.6497784
-1.2903234	PUNCT NOUN ADJ	-1.3589264
-1.3983724	PART NOUN ADJ	-0.70918053
-1.1711966	AUX NOUN ADJ	-0.6528084
-1.4261085	PRON NOUN ADJ	-0.28555316
-1.3180059	SCONJ NOUN ADJ	-0.6425018
-1.4312153	SYM NOUN ADJ	-0.28572077
-1.2240582	NUM NOUN ADJ	-1.3533071
-1.6103758	X NOUN ADJ	-0.28614002
-1.4544872	INTJ NOUN ADJ	-0.28614002
-1.419225	<s> VERB ADJ	-1.1327258
-1.1573133	PROPN VERB ADJ	-1.5741131
-1.0975947	ADP VERB ADJ	-1.7288677
-1.2031281	NOUN VERB ADJ	-1.8966459
-1.1789801	VERB VERB ADJ	-1.7239071
-1.1670618	DET VERB ADJ	-1.6789945
-1.2529672	CCONJ VERB ADJ	-1.6473806
-1.195129	ADV VERB ADJ	-1.8072867
-1.1334534	ADJ VERB ADJ	-0.9885911
-1.1544133	PUNCT VERB ADJ	-1.7379158
-1.1653616	PART VERB ADJ	-2.0486495
-1.1697719	AUX VERB ADJ	-1.9475082
-1.1919051	PRON VERB ADJ	-1.8165791
-1.0688684	SCONJ VERB ADJ	-1.0749577
-1.2446517	SYM VERB ADJ	-0.4085954
-1.052253	NUM VERB ADJ	-0.93992317
-0.99453276	X VERB ADJ	-0.48777664
-1.3936347	INTJ VERB ADJ	-0.37475923
-0.7269148	<s> DET ADJ	-2.306053
-0.9049111	PROPN DET ADJ	-1.2137357
-1.075667	ADP DET ADJ	-3.0304682
-1.0045685	NOUN DET ADJ	-1.5916401
-1.0998163	VERB DET ADJ	-2.7182162
-0.9658916	DET DET ADJ	-1.674972
-0.9654591	CCONJ DET ADJ	-2.02117
-1.037871	ADV DET ADJ	-1.9623777
-0.8480407	ADJ DET ADJ	-0.9971285
-1.0576438	PUNCT DET ADJ	-2.3624437
-0.8864083	PART DET ADJ	-1.465066
-1.0177484	AUX DET ADJ	-2.4487429
-0.99131155	PRON DET ADJ	-1.36526
-1.0384797	SCONJ DET ADJ	-2.224367
-0.70778507	SYM DET ADJ	-0.7096254
-0.88852745	NUM DET ADJ	-0.81129706
-1.137747	X DET ADJ	-0.6127154
-1.0088583	INTJ DET ADJ	-0.28516236
-1.5425442	<s> CCONJ ADJ	-0.9079954
-1.0934217	PROPN CCONJ ADJ	-1.5487295
-1.035079	ADP CCONJ ADJ	-0.939966
-1.1616194	NOUN CCONJ ADJ	-2.1931214
-1.109959	VERB CCONJ ADJ	-1.0846802
-0.978931	DET CCONJ ADJ	-0.61447304
-1.0748569	CCONJ CCONJ ADJ	-0.28540656
-1.2470553	ADV CCONJ ADJ	-0.7607258
-1.0851758	ADJ CCONJ ADJ	-2.2015743
-1.2446015	PUNCT CCONJ ADJ	-1.7200859
-1.2007084	PART CCONJ ADJ	-0.54100794
-1.0318656	AUX CCONJ ADJ	-0.7284625
-1.1116681	PRON CCONJ ADJ	-0.5566302
-1.0742053	SCONJ CCONJ ADJ	-0.28540656
-1.0546908	NUM CCONJ ADJ	-0.89526194
-1.2048463	X CCONJ ADJ	-0.28614002
-1.2209529	INTJ CCONJ ADJ	-0.28614002
-1.3840466	<s> ADV ADJ	-1.2947713
-1.118134	PROPN ADV ADJ	-0.74495465
-1.1147598	ADP ADV ADJ	-1.4455403
-1.1943073	NOUN ADV ADJ	-1.4268614
-1.161759	VERB ADV ADJ	-1.7949122
-1.029281	DET ADV ADJ	-2.0286477
-1.1552638	CCONJ ADV ADJ	-1.514823
-1.1600478	ADV ADV ADJ	-1.6491518
-1.0914489	ADJ ADV ADJ	-0.9212098
-1.1245294	PUNCT ADV ADJ	-1.550772
-1.0465813	PART ADV ADJ	-1.4356536
-1.0725287	AUX ADV ADJ	-2.2471883
-1.1124157	PRON ADV ADJ	-1.1403031
-1.0314977	SCONJ ADV ADJ	-0.8356273
-1.0008861	NUM ADV ADJ	-0.953986
-1.1554991	X ADV ADJ	-0.28614002
-1.0280447	<s> ADJ ADJ	-1.7207825
-0.9695159	PROPN ADJ ADJ	-1.171764
-1.0961195	ADP ADJ ADJ	-2.160884
-1.0922778	NOUN ADJ ADJ	-1.0841062
-1.0858264	VERB ADJ ADJ	-1.8424854
-1.0925977	DET ADJ ADJ	-2.4110463
-0.96577156	CCONJ ADJ ADJ	-1.7965815
-1.1473254	ADV ADJ ADJ	-1.606914
-1.000911	ADJ ADJ ADJ	-2.084214
-1.0720729	PUNCT ADJ ADJ	-1.8176985
-1.2090008	PART ADJ ADJ	-1.5420457
-1.1264862	AUX ADJ ADJ	-1.335058
-1.1134487	PRON ADJ ADJ	-0.6649506
-1.0518991	SCONJ ADJ ADJ	-1.4473137
-0.97755605	SYM ADJ ADJ	-0.5843058
-0.90505755	NUM ADJ ADJ	-1.4183432
-1.1884153	X ADJ ADJ	-0.28614002
-1.4031031	<s> PUNCT ADJ	-1.0899559
-1.222541	PROPN PUNCT ADJ	-2.3715303
-1.1057729	ADP PUNCT ADJ	-1.4419029
-1.3004107	NOUN PUNCT ADJ	-2.290774
-1.2000363	VERB PUNCT ADJ	-1.4465067
-1.1214048	DET PUNCT ADJ	-1.7258446
-1.1782827	CCONJ PUNCT ADJ	-1.0537784
-1.206592	ADV PUNCT ADJ	-1.6215149
-1.1869246	ADJ PUNCT ADJ	-1.9944944
-1.2577088	PUNCT PUNCT ADJ	-1.2381704
-1.1883422	PART PUNCT ADJ	-0.9678313
-1.1325678	AUX PUNCT ADJ	-1.1506786
-1.2314876	PRON PUNCT ADJ	-0.77339697
-1.0309019	SCONJ PUNCT ADJ	-1.2194436
-1.2013165	NUM PUNCT ADJ	-1.3553724
-1.3669435	X PUNCT ADJ	-0.8272184
-1.4618856	INTJ PUNCT ADJ	-0.60962987
-1.5648494	<s> PART ADJ	-0.32028767
-1.0242697	PROPN PART ADJ	-2.04318
-1.0678723	ADP PART ADJ	-0.3116854
-1.0528527	NOUN PART ADJ	-1.7970407
-1.174596	VERB PART ADJ	-0.666835
-1.2778846	DET PART ADJ	-0.28614002
-1.1218987	CCONJ PART ADJ	-0.86327624
-1.074227	ADV PART ADJ	-0.7546811
-0.9533365	ADJ PART ADJ	-0.5852083
-1.0114738	PUNCT PART ADJ	-0.6758737
-1.0647854	AUX PART ADJ	-1.7175939
-1.1787481	PRON PART ADJ	-0.58533
-0.9137732	SCONJ PART ADJ	-0.6533495
-1.4605432	NUM PART ADJ	-0.3205457
-1.3639631	<s> AUX ADJ	-0.6455657
-1.1125808	PROPN AUX ADJ	-1.686845
-0.9939051	ADP AUX ADJ	-0.89539206
-1.124524	NOUN AUX ADJ	-2.127109
-1.0878645	VERB AUX ADJ	-1.7320976
-1.0234975	DET AUX ADJ	-1.5568782
-1.0037322	CCONJ AUX ADJ	-1.1614162
-1.1362194	ADV AUX ADJ	-1.3345705
-1.0153472	ADJ AUX ADJ	-0.8854572
-1.1196914	PUNCT AUX ADJ	-1.3202163
-1.0385796	PART AUX ADJ	-1.7530212
-1.0463578	AUX AUX ADJ	-1.4145684
-1.1075975	PRON AUX ADJ	-2.2154796
-0.9218609	SCONJ AUX ADJ	-0.5334044
-1.0339737	NUM AUX ADJ	-0.67546856
-0.6967378	INTJ AUX ADJ	-0.28577313
-2.6411817	<s> PRON ADJ	-0.61410236
-1.5350946	PROPN PRON ADJ	-0.28540656
-1.1898968	ADP PRON ADJ	-0.9322322
-1.4313405	NOUN PRON ADJ	-0.28555316
-1.144413	VERB PRON ADJ	-1.4781903
-1.2736115	DET PRON ADJ	-0.30645472
-1.1966532	CCONJ PRON ADJ	-0.4274325
-1.3683716	ADV PRON ADJ	-0.3344834
-1.5279037	ADJ PRON ADJ	-0.28467432
-1.2445449	PUNCT PRON ADJ	-0.599483
-1.2510002	PART PRON ADJ	-0.5048868
-1.1534542	AUX PRON ADJ	-1.2209059
-1.5519851	PRON PRON ADJ	-0.30645472
-1.221456	SCONJ PRON ADJ	-0.34193915
-1.2191119	X PRON ADJ	-0.28614002
-1.4421451	INTJ PRON ADJ	-0.28614002
-1.1327981	<s> SCONJ ADJ	-1.3533093
-1.1751194	PROPN SCONJ ADJ	-0.73112935
-1.315058	ADP SCONJ ADJ	-0.7201547
-1.1449614	NOUN SCONJ ADJ	-1.5238882
-1.0862209	VERB SCONJ ADJ	-1.6179038
-1.1896722	DET SCONJ ADJ	-0.4274325
-1.0777245	CCONJ SCONJ ADJ	-0.78347623
-1.026768	ADV SCONJ ADJ	-1.2821696
-1.085209	ADJ SCONJ ADJ	-1.2676557
-1.1124926	PUNCT SCONJ ADJ	-1.3853284
-1.0679188	PART SCONJ ADJ	-0.30645472
-1.1144555	AUX SCONJ ADJ	-1.0091509
-1.1484853	PRON SCONJ ADJ	-0.91746914
-1.0859747	SCONJ SCONJ ADJ	-0.786549
-1.1099101	NUM SCONJ ADJ	-0.5617272
-1.4420568	<s> SYM ADJ	-0.2849671
-0.8402245	PROPN SYM ADJ	-0.62115055
-1.5500273	ADP SYM ADJ	-0.3205457
-0.9004302	NOUN SYM ADJ	-0.67674845
-1.2297776	VERB SYM ADJ	-0.38502103
-1.2590833	DET SYM ADJ	-0.38563597
-1.1569055	CCONJ SYM ADJ	-0.30645472
-0.62273806	ADJ SYM ADJ	-0.76360303
-1.0177891	PUNCT SYM ADJ	-0.40902504
-1.0902864	PART SYM ADJ	-0.28614002
-1.5043757	NUM SYM ADJ	-0.28614002
-0.7604859	INTJ SYM ADJ	-0.28614002
-1.0192839	<s> NUM ADJ	-1.3195584
-1.2130291	PROPN NUM ADJ	-0.9166788
-1.1670706	ADP NUM ADJ	-1.6817496
-1.251205	NOUN NUM ADJ	-0.8163163
-1.13036	VERB NUM ADJ	-1.3238087
-1.0035983	DET NUM ADJ	-1.5224649
-0.9677929	CCONJ NUM ADJ	-0.9594318
-1.0801343	ADV NUM ADJ	-1.2300541
-0.9953989	ADJ NUM ADJ	-0.8415481
-1.1259729	PUNCT NUM ADJ	-1.3222147
-0.9603265	PART NUM ADJ	-0.89457697
-1.1054035	AUX NUM ADJ	-1.2601808
-1.1052376	PRON NUM ADJ	-0.3116854
-1.0375016	SCONJ NUM ADJ	-1.1312277
-1.2839383	SYM NUM ADJ	-0.59295803
-0.9668641	NUM NUM ADJ	-1.0612775
-2.243565	<s> X ADJ	-0.28540656
-1.4546579	PROPN X ADJ	-0.28614002
-1.3214073	ADP X ADJ	-0.4085954
-1.4813414	NOUN X ADJ	-0.28614002
-1.2787381	VERB X ADJ	-0.28614002
-1.4686741	DET X ADJ	-0.28614002
-1.3094479	ADJ X ADJ	-0.28614002
-1.114032	PUNCT X ADJ	-0.39487994
-0.8195851	PRON X ADJ	-0.28614002
-0.99737424	NUM X ADJ	-0.28614002
-1.185604	X X ADJ	-0.45258278
-1.0097997	INTJ X ADJ	-0.28614002
-2.0869465	<s> INTJ ADJ	-0.29968646
-1.1935035	PROPN INTJ ADJ	-0.28614002
-1.1944247	NOUN INTJ ADJ	-0.28614002
-0.9857762	DET INTJ ADJ	-0.28614002
-1.426062	CCONJ INTJ ADJ	-0.28614002
-1.110355	ADV INTJ ADJ	-0.28614002
-1.3207501	PUNCT INTJ ADJ	-0.29872492
-1.2807301	PRON INTJ ADJ	-0.28614002
-1.3378068	INTJ INTJ ADJ	-0.28614002
-0.6197754	<s> PROPN PUNCT	-2.2850323
-1.190121	PROPN PROPN PUNCT	-2.9570336
-1.1671828	ADP PROPN PUNCT	-2.8074744
-1.1094197	NOUN PROPN PUNCT	-1.7225782
-1.1191846	VERB PROPN PUNCT	-1.8511276
-1.1057025	DET PROPN PUNCT	-2.164703
-0.9365601	CCONJ PROPN PUNCT	-2.3669827
-1.0514618	ADV PROPN PUNCT	-0.94680053
-1.0707722	ADJ PROPN PUNCT	-1.7760259
-1.1267784	PUNCT PROPN PUNCT	-2.5014358
-0.91263485	PART PROPN PUNCT	-1.2413194
-1.0188407	AUX PROPN PUNCT	-1.1206515
-1.0178963	PRON PROPN PUNCT	-0.64403087
-1.0650773	SCONJ PROPN PUNCT	-1.5136158
-1.0609931	SYM PROPN PUNCT	-1.201747
-1.0316534	NUM PROPN PUNCT	-1.3067188
-0.80191183	X PROPN PUNCT	-0.8745267
-0.68355685	INTJ PROPN PUNCT	-0.40870696
-2.2694612	<s> ADP PUNCT	-0.59182405
-1.1160121	PROPN ADP PUNCT	-0.9088646
-1.0649065	ADP ADP PUNCT	-0.7385141
-1.1637808	NOUN ADP PUNCT	-1.6946828
-1.2118946	VERB ADP PUNCT	-1.8612324
-1.1776712	DET ADP PUNCT	-0.8407963
-1.0677849	CCONJ ADP PUNCT	-0.6669707
-1.2242041	ADV ADP PUNCT	-0.70530057
-1.102147	ADJ ADP PUNCT	-0.88237345
-1.131176	PUNCT ADP PUNCT	-1.3517004
-1.4810001	PART ADP PUNCT	-0.28555316
-1.0987853	AUX ADP PUNCT	-0.7777464
-1.1279508	PRON ADP PUNCT	-0.9939178
-1.1652294	SCONJ ADP PUNCT	-0.45217267
-1.2548364	SYM ADP PUNCT	-0.28614002
-1.1599375	NUM ADP PUNCT	-0.34842068
-1.4043684	X ADP PUNCT	-0.28614002
-0.85114443	<s> NOUN PUNCT	-1.7103678
-1.163621	PROPN NOUN PUNCT	-2.3345525
-1.1686643	ADP NOUN PUNCT	-2.7491605
-1.1675978	NOUN NOUN PUNCT	-2.8086784
-1.1576895	VERB NOUN PUNCT	-2.3742642
-1.1708509	DET NOUN PUNCT	-3.1239903
-0.9995695	CCONJ NOUN PUNCT	-2.322356
-1.1002278	ADV NOUN PUNCT	-1.3030522
-1.1756854	ADJ NOUN PUNCT	-3.1117423
-1.1395149	PUNCT NOUN PUNCT	-2.383893
-0.9486899	PART NOUN PUNCT	-2.06069
-1.0738046	AUX NOUN PUNCT	-1.4442804
-0.9714496	PRON NOUN PUNCT	-0.98140126
-1.0734162	SCONJ NOUN PUNCT	-1.5117207
-0.9080231	SYM NOUN PUNCT	-0.9169863
-1.1450852	NUM NOUN PUNCT	-2.2139788
-0.8343242	X NOUN PUNCT	-0.59306765
-0.7629582	INTJ NOUN PUNCT	-0.33962184
-1.4733263	<s> VERB PUNCT	-0.9936721
-1.1573133	PROPN VERB PUNCT	-1.953816
-1.1879295	ADP VERB PUNCT	-1.2133381
-1.1769567	NOUN VERB PUNCT	-2.0453923
-1.1249584	VERB VERB PUNCT	-1.6037722
-1.1670618	DET VERB PUNCT	-1.3561848
-1.1487249	CCONJ VERB PUNCT	-1.4988512
-1.1672058	ADV VERB PUNCT	-1.8219093
-1.0703863	ADJ VERB PUNCT	-0.7516357
-1.1544133	PUNCT VERB PUNCT	-1.8309855
-1.1932849	PART VERB PUNCT	-2.0049589
-1.1697719	AUX VERB PUNCT	-2.2159274
-1.1919051	PRON VERB PUNCT	-2.0425394
-1.0364087	SCONJ VERB PUNCT	-0.92919856
-0.89722896	SYM VERB PUNCT	-0.30011946
-1.0850631	NUM VERB PUNCT	-0.671956
-0.99453276	X VERB PUNCT	-0.49684754
-1.1447928	INTJ VERB PUNCT	-0.3553
-2.0259306	<s> DET PUNCT	-1.0561897
-1.3564065	PROPN DET PUNCT	-0.4965524
-1.1339381	ADP DET PUNCT	-1.7721804
-1.177108	NOUN DET PUNCT	-0.76791954
-1.1862041	VERB DET PUNCT	-1.5835412
-1.1109447	DET DET PUNCT	-0.75344664
-1.1792852	CCONJ DET PUNCT	-0.8033397
-1.045324	ADV DET PUNCT	-0.776081
-1.3020376	ADJ DET PUNCT	-0.42191255
-1.1440216	PUNCT DET PUNCT	-1.2019795
-1.2145561	PART DET PUNCT	-0.5304486
-1.0796076	AUX DET PUNCT	-1.1581854
-1.1288483	PRON DET PUNCT	-0.80122817
-1.07434	SCONJ DET PUNCT	-1.3369803
-0.94561553	NUM DET PUNCT	-0.5791664
-1.2647169	<s> CCONJ PUNCT	-1.042235
-1.4013779	PROPN CCONJ PUNCT	-0.5350834
-1.4548419	ADP CCONJ PUNCT	-0.2856509
-1.2570298	NOUN CCONJ PUNCT	-0.9306722
-1.3088834	VERB CCONJ PUNCT	-0.4232575
-1.5065196	DET CCONJ PUNCT	-0.28614002
-1.3408453	CCONJ CCONJ PUNCT	-0.28614002
-1.4630647	ADV CCONJ PUNCT	-0.2947115
-1.2677932	ADJ CCONJ PUNCT	-0.48777664
-1.2194272	PUNCT CCONJ PUNCT	-1.3596548
-1.2813321	PART CCONJ PUNCT	-0.28614002
-1.6530306	AUX CCONJ PUNCT	-0.28614002
-1.6264607	PRON CCONJ PUNCT	-0.28614002
-1.4817181	SCONJ CCONJ PUNCT	-0.28614002
-1.5577934	NUM CCONJ PUNCT	-0.30645472
-0.44822526	<s> ADV PUNCT	-2.1550045
-1.0549551	PROPN ADV PUNCT	-1.2571425
-1.0795966	ADP ADV PUNCT	-1.3832026
-1.1589347	NOUN ADV PUNCT	-2.0778294
-1.1307611	VERB ADV PUNCT	-1.9487454
-0.9942109	DET ADV PUNCT	-1.5101985
-1.1144226	CCONJ ADV PUNCT	-1.4703338
-1.1008831	ADV ADV PUNCT	-1.9647286
-1.0236404	ADJ ADV PUNCT	-1.2106203
-1.1448274	PUNCT ADV PUNCT	-1.831182
-1.1153053	PART ADV PUNCT	-0.84482783
-1.1219835	AUX ADV PUNCT	-1.3203143
-1.067995	PRON ADV PUNCT	-1.3691236
-1.0262231	SCONJ ADV PUNCT	-0.9981423
-1.0533527	SYM ADV PUNCT	-0.28614002
-0.88868845	NUM ADV PUNCT	-0.7092423
-0.89968413	X ADV PUNCT	-0.28614002
-1.0250393	INTJ ADV PUNCT	-0.36726213
-1.2754657	<s> ADJ PUNCT	-1.1529785
-0.96698314	PROPN ADJ PUNCT	-0.79017335
-1.1214974	ADP ADJ PUNCT	-1.6742765
-1.089787	NOUN ADJ PUNCT	-1.4133397
-1.1095487	VERB ADJ PUNCT	-1.7422419
-1.1441635	DET ADJ PUNCT	-1.9939094
-1.060116	CCONJ ADJ PUNCT	-1.5960479
-1.1448346	ADV ADJ PUNCT	-2.0319705
-1.026498	ADJ ADJ PUNCT	-1.4212265
-1.0696684	PUNCT ADJ PUNCT	-1.831741
-1.0644236	PART ADJ PUNCT	-1.381727
-1.0960708	AUX ADJ PUNCT	-2.0195158
-0.9830141	PRON ADJ PUNCT	-1.1028858
-1.0140747	SCONJ ADJ PUNCT	-1.1954478
-0.97323376	SYM ADJ PUNCT	-0.33792573
-0.9334792	NUM ADJ PUNCT	-0.87136775
-1.108041	X ADJ PUNCT	-0.28540656
-0.7234224	INTJ ADJ PUNCT	-0.30300224
-1.2754805	<s> PUNCT PUNCT	-0.9951075
-1.2204489	PROPN PUNCT PUNCT	-2.2531698
-1.1651529	ADP PUNCT PUNCT	-0.9263945
-1.2189988	NOUN PUNCT PUNCT	-2.4446392
-1.1730798	VERB PUNCT PUNCT	-1.8227477
-1.1807847	DET PUNCT PUNCT	-0.81883997
-1.2411984	CCONJ PUNCT PUNCT	-0.3372559
-1.2042385	ADV PUNCT PUNCT	-1.5110042
-1.210946	ADJ PUNCT PUNCT	-1.5719689
-1.2010382	PUNCT PUNCT PUNCT	-1.8555584
-1.2951913	PART PUNCT PUNCT	-0.6169218
-1.2024819	AUX PUNCT PUNCT	-0.7804398
-1.1039356	PRON PUNCT PUNCT	-1.4205433
-1.2723904	SCONJ PUNCT PUNCT	-0.5265758
-1.1626401	SYM PUNCT PUNCT	-0.28516236
-1.1988063	NUM PUNCT PUNCT	-1.3817202
-0.96524423	X PUNCT PUNCT	-0.76024526
-1.0492188	INTJ PUNCT PUNCT	-0.6444573
-2.0082521	<s> PART PUNCT	-0.28488338
-1.0784774	PROPN PART PUNCT	-1.1629301
-1.3152785	ADP PART PUNCT	-0.28555316
-1.1159811	NOUN PART PUNCT	-0.9479394
-1.0910192	VERB PART PUNCT	-0.91268593
-1.0061977	DET PART PUNCT	-0.39525726
-1.0653359	CCONJ PART PUNCT	-0.8673096
-1.02327	ADV PART PUNCT	-0.7560514
-1.1114722	ADJ PART PUNCT	-0.4509953
-1.22001	PUNCT PART PUNCT	-0.65538734
-0.9441317	PART PART PUNCT	-0.3694406
-1.095614	AUX PART PUNCT	-0.9388422
-1.1725291	PRON PART PUNCT	-0.47858503
-0.9635842	SCONJ PART PUNCT	-0.41488343
-1.0030684	NUM PART PUNCT	-0.41708726
-2.5895042	<s> AUX PUNCT	-0.28516236
-1.1414659	PROPN AUX PUNCT	-0.894356
-1.1120069	ADP AUX PUNCT	-0.5260269
-1.1271011	NOUN AUX PUNCT	-1.3775517
-1.0905905	VERB AUX PUNCT	-1.0259752
-1.2587149	DET AUX PUNCT	-0.5084652
-1.4019004	CCONJ AUX PUNCT	-0.34180006
-1.2064838	ADV AUX PUNCT	-0.7443136
-1.2968502	ADJ AUX PUNCT	-0.29338175
-1.3177414	PUNCT AUX PUNCT	-0.5877355
-1.2198185	PART AUX PUNCT	-1.0332549
-1.2296993	AUX AUX PUNCT	-0.46432516
-1.1894107	PRON AUX PUNCT	-1.3723825
-1.2489684	SCONJ AUX PUNCT	-0.40969735
-1.241623	NUM AUX PUNCT	-0.28614002
-2.2287772	<s> PRON PUNCT	-0.68910724
-0.9324656	PROPN PRON PUNCT	-0.68554896
-1.1223959	ADP PRON PUNCT	-1.9774953
-0.9663804	NOUN PRON PUNCT	-1.0447179
-1.1392403	VERB PRON PUNCT	-1.9489347
-0.99623907	DET PRON PUNCT	-0.34556973
-1.1363189	CCONJ PRON PUNCT	-0.67119247
-1.0215313	ADV PRON PUNCT	-0.6292828
-0.82389	ADJ PRON PUNCT	-0.5926728
