\data\
ngram 1=21
ngram 2=324
ngram 3=4284

\1-grams:
-2.3722422	<unk>	0
0	<s>	-4.0721455
-1.2833012	</s>	0
-1.258299	DET	-1.3865321
-1.258299	NOUN	-1.4379205
-1.258299	AUX	-1.3765094
-1.258299	VERB	-1.4480189
-1.258299	ADP	-1.4074854
-1.234658	PROPN	-1.455127
-1.258299	CCONJ	-1.3848776
-1.258299	ADV	-1.4259688
-1.258299	ADJ	-1.4183627
-1.258299	PUNCT	-1.4593366
-1.258299	PRON	-1.3748163
-1.258299	PART	-1.30103
-1.258299	SCONJ	-1.3413247
-1.258299	NUM	-1.3832169
-1.258299	SYM	-1.1408155
-1.258299	X	-1.1995724
-1.2833012	INTJ	-1.1652334
-2.2375438	SPACE	-0.39794004

\2-grams:
-1.3800461	DET </s>	0
-1.2571155	NOUN </s>	0
-1.4115648	AUX </s>	0
-1.2519528	VERB </s>	0
-1.4884799	ADP </s>	0
-1.2341839	PROPN </s>	0
-1.6428729	CCONJ </s>	0
-1.2843883	ADV </s>	0
-1.2222966	ADJ </s>	0
-1.2383937	PUNCT </s>	0
-1.4558108	PRON </s>	0
-1.5516669	PART </s>	0
-1.5319831	SCONJ </s>	0
-1.2716774	NUM </s>	0
-2.076683	SYM </s>	0
-1.088033	X </s>	0
-1.5029565	INTJ </s>	0
-0.7032578	<s> DET	-2.981068
-1.1896133	DET DET	-2.130419
-1.2562324	NOUN DET	-2.6576724
-1.1547612	AUX DET	-2.8253727
-1.2262707	VERB DET	-3.3286843
-1.1857371	ADP DET	-3.6134825
-1.2333788	PROPN DET	-1.9082425
-1.1879588	CCONJ DET	-2.6430695
-1.2042205	ADV DET	-2.4434092
-1.3379823	ADJ DET	-1.5337083
-1.2375884	PUNCT DET	-2.9577703
-1.2322694	PRON DET	-1.9643762
-1.1226287	PART DET	-1.8332636
-1.1195763	SCONJ DET	-2.7732491
-1.2406698	NUM DET	-1.2701554
-1.4221022	SYM DET	-0.8675847
-1.2789547	X DET	-0.6725567
-1.3538176	INTJ DET	-0.57752746
-1.1073884	<s> NOUN	-2.5582983
-1.1647838	DET NOUN	-3.7545693
-1.2314342	NOUN NOUN	-3.2745464
-1.2059263	AUX NOUN	-2.181301
-1.2262707	VERB NOUN	-3.0372574
-1.1857371	ADP NOUN	-3.2530098
-1.2582083	PROPN NOUN	-2.8043435
-1.2142944	CCONJ NOUN	-2.7897801
-1.22905	ADV NOUN	-1.9756444
-1.1966145	ADJ NOUN	-3.6186216
-1.2375884	PUNCT NOUN	-2.8842967
-1.2322694	PRON NOUN	-1.4553099
-1.150685	PART NOUN	-2.5495315
-1.1707414	SCONJ NOUN	-2.229772
-1.1614685	NUM NOUN	-2.772127
-0.9120386	SYM NOUN	-1.3960234
-1.1539657	X NOUN	-0.9585919
-1.1196266	INTJ NOUN	-0.5431742
-2.0497563	<s> AUX	-1.7056748
-1.2159489	DET AUX	-2.444831
-1.2314342	NOUN AUX	-3.0735066
-1.2059263	AUX AUX	-2.385385
-1.2511002	VERB AUX	-2.5157096
-1.2949103	ADP AUX	-1.5007453
-1.2333788	PROPN AUX	-2.6820495
-1.2423307	CCONJ AUX	-2.0258896
-1.2553856	ADV AUX	-2.2656736
-1.2758158	ADJ AUX	-1.5845385
-1.2624179	PUNCT AUX	-2.3646793
-1.1530681	PRON AUX	-3.0448778
-1.150685	PART AUX	-2.4831316
-1.1987778	SCONJ AUX	-1.1256589
-1.2406698	NUM AUX	-1.3809526
-1.7878953	SYM AUX	-0.3593338
-1.4551466	X AUX	-0.3208566
-1.2446157	INTJ AUX	-0.7449336
-1.3526384	<s> VERB	-2.3265402
-1.1896133	DET VERB	-2.662338
-1.2314342	NOUN VERB	-3.1935844
-1.1795907	AUX VERB	-3.148735
-1.2262707	VERB VERB	-2.7410443
-1.1857371	ADP VERB	-2.5896368
-1.2098924	PROPN VERB	-2.8760862
-1.1879588	CCONJ VERB	-2.674827
-1.2042205	ADV VERB	-2.8985484
-1.2477796	ADJ VERB	-1.8277832
-1.2624179	PUNCT VERB	-2.8947706
-1.1530681	PRON VERB	-3.1353846
-1.0714303	PART VERB	-3.144809
-1.1987778	SCONJ VERB	-1.9023052
-1.2126336	NUM VERB	-1.5539005
-1.0757766	SYM VERB	-0.52014995
-1.119192	X VERB	-0.62419665
-0.99465024	INTJ VERB	-1.1510221
-1.0399469	<s> ADP	-2.6413903
-1.2159489	DET ADP	-2.0758903
-1.2314342	NOUN ADP	-3.6862116
-1.2059263	AUX ADP	-2.217435
-1.2262707	VERB ADP	-3.3590426
-1.2649385	ADP ADP	-2.2772512
-1.2333788	PROPN ADP	-2.8526878
-1.1879588	CCONJ ADP	-2.097149
-1.2553856	ADV ADP	-2.5206988
-1.1966145	ADJ ADP	-2.5730357
-1.2624179	PUNCT ADP	-2.623784
-1.2042332	PRON ADP	-2.2101903
-1.150685	PART ADP	-1.4767553
-1.1707414	SCONJ ADP	-2.1185114
-1.2126336	NUM ADP	-2.295515
-1.2152952	SYM ADP	-0.4169807
-1.1917679	X ADP	-0.68848795
-1.157429	INTJ ADP	-0.9386411
-0.7659097	<s> PROPN	-2.8749518
-1.1639801	DET PROPN	-3.0441964
-1.2306018	NOUN PROPN	-2.4781847
-1.2050222	AUX PROPN	-1.7225034
-1.225467	VERB PROPN	-2.5559368
-1.1849334	ADP PROPN	-3.3007782
-1.232575	PROPN PROPN	-3.489402
-1.1623256	CCONJ PROPN	-2.6170118
-1.2281991	ADV PROPN	-1.7655461
-1.1958108	ADJ PROPN	-2.6278853
-1.2367847	PUNCT PROPN	-3.0171344
-1.203329	PRON PROPN	-1.3372133
-1.2118077	PART PROPN	-1.9906273
-1.1978135	SCONJ PROPN	-2.2485452
-1.1854471	NUM PROPN	-1.9384352
-0.9112478	SYM PROPN	-1.7626743
-1.0018027	X PROPN	-1.3130876
-1.1561145	INTJ PROPN	-0.85765064
-0.20530112	SPACE PROPN	-0.3593338
-1.4660631	<s> CCONJ	-2.2182658
-1.3061516	DET CCONJ	-0.96340793
-1.2314342	NOUN CCONJ	-3.067729
-1.296129	AUX CCONJ	-1.0294933
-1.2262707	VERB CCONJ	-2.2731571
-1.2649385	ADP CCONJ	-1.5913696
-1.2333788	PROPN CCONJ	-2.682715
-1.4642599	CCONJ CCONJ	-0.39251727
-1.2553856	ADV CCONJ	-1.7729445
-1.1966145	ADJ CCONJ	-2.3409772
-1.2375884	PUNCT CCONJ	-2.788465
-1.2622412	PRON CCONJ	-1.6420907
-1.4240718	PART CCONJ	-0.906768
-1.295718	SCONJ CCONJ	-1.0245273
-1.2126336	NUM CCONJ	-1.5875145
-1.6487694	SYM CCONJ	-0.3593338
-1.3881567	X CCONJ	-0.36461338
-1.2957933	INTJ CCONJ	-0.32228228
-1.0896984	<s> ADV	-2.5804386
-1.1896133	DET ADV	-2.2974868
-1.2314342	NOUN ADV	-2.665893
-1.1795907	AUX ADV	-2.7708793
-1.2262707	VERB ADV	-2.723672
-1.1857371	ADP ADV	-2.1560504
-1.2582083	PROPN ADV	-2.1206052
-1.1879588	CCONJ ADV	-2.3367295
-1.2042205	ADV ADV	-2.4822524
-1.2758158	ADJ ADV	-1.742363
-1.2375884	PUNCT ADV	-2.588804
-1.1530681	PRON ADV	-2.2790432
-1.150685	PART ADV	-2.0934534
-1.2287496	SCONJ ADV	-1.6679317
-1.2126336	NUM ADV	-1.21059
-1.1636469	SYM ADV	-0.32122058
-1.4551466	X ADV	-0.28366062
-1.1196266	INTJ ADV	-0.5508044
-1.3260943	<s> ADJ	-2.344044
-1.1647838	DET ADJ	-3.373141
-1.2314342	NOUN ADJ	-2.2191052
-1.1795907	AUX ADJ	-2.6820726
-1.2262707	VERB ADJ	-2.7364995
-1.1857371	ADP ADJ	-2.941533
-1.2582083	PROPN ADJ	-1.7759072
-1.1879588	CCONJ ADJ	-2.572791
-1.2834219	ADV ADJ	-2.712077
-1.221444	ADJ ADJ	-2.7967432
-1.2624179	PUNCT ADJ	-2.7447505
-1.2042332	PRON ADJ	-1.7147517
-1.150685	PART ADJ	-2.2525883
-1.1987778	SCONJ ADJ	-2.095434
-1.2126336	NUM ADJ	-2.043791
-1.0377183	SYM ADJ	-0.9421609
-1.1539657	X ADJ	-0.551302
-1.3538176	INTJ ADJ	-0.51150787
-1.4357201	<s> PUNCT	-2.2051451
-1.2159489	DET PUNCT	-2.1879938
-1.2314342	NOUN PUNCT	-3.6839807
-1.2339625	AUX PUNCT	-1.86158
-1.2262707	VERB PUNCT	-2.8883936
-1.2105666	ADP PUNCT	-2.1966038
-1.2333788	PROPN PUNCT	-3.4035542
-1.2142944	CCONJ PUNCT	-1.6360921
-1.2042205	ADV PUNCT	-2.7832744
-1.1966145	ADJ PUNCT	-2.7440403
-1.2375884	PUNCT PUNCT	-2.8396688
-1.1530681	PRON PUNCT	-2.3363085
-1.150685	PART PUNCT	-1.6349324
-1.1987778	SCONJ PUNCT	-1.665033
-1.2126336	NUM PUNCT	-2.5821729
-1.1174932	SYM PUNCT	-0.5386656
-1.0026537	X PUNCT	-1.6810187
-0.96831465	INTJ PUNCT	-1.6627641
-0.8590715	<s> PRON	-2.8299012
-1.2159489	DET PRON	-1.9718956
-1.2562324	NOUN PRON	-2.4901867
-1.2059263	AUX PRON	-2.0659566
-1.2262707	VERB PRON	-2.7406406
-1.2369022	ADP PRON	-2.4482448
-1.2333788	PROPN PRON	-1.7613271
-1.1879588	CCONJ PRON	-2.3545544
-1.2042205	ADV PRON	-2.3885207
-1.2477796	ADJ PRON	-1.4835842
-1.2375884	PUNCT PRON	-2.778869
-1.1778976	PRON PRON	-1.9972868
-1.2129006	PART PRON	-1.3187393
-1.1444058	SCONJ PRON	-2.572725
-1.2706418	NUM PRON	-1.1824389
-1.3417246	SYM PRON	-0.7807016
-1.3301324	X PRON	-0.4382789
-1.0848529	INTJ PRON	-1.0403048
-2.238784	<s> PART	-1.5741403
-1.3409253	DET PART	-1.0064305
-1.2314342	NOUN PART	-2.872886
-1.1795907	AUX PART	-2.6389291
-1.2511002	VERB PART	-2.842066
-1.2649385	ADP PART	-1.5928319
-1.2582083	PROPN PART	-2.6691778
-1.2423307	CCONJ PART	-1.697882
-1.22905	ADV PART	-1.9359981
-1.221444	ADJ PART	-2.298217
-1.2624179	PUNCT PART	-1.8999797
-1.2622412	PRON PART	-2.0058415
-1.2129006	PART PART	-1.8645911
-1.2287496	SCONJ PART	-1.336604
-1.2406698	NUM PART	-1.2576103
-1.7878953	SYM PART	-0.3593338
-1.6313887	X PART	-0.6190492
-1.7221394	INTJ PART	-0.24621868
-1.4288899	<s> SCONJ	-2.2797756
-1.3787277	DET SCONJ	-0.8917447
-1.2562324	NOUN SCONJ	-2.5481076
-1.2339625	AUX SCONJ	-1.7605755
-1.2511002	VERB SCONJ	-2.7005737
-1.2649385	ADP SCONJ	-1.5028816
-1.2333788	PROPN SCONJ	-1.8904743
-1.3044971	CCONJ SCONJ	-1.7653124
-1.22905	ADV SCONJ	-2.1601455
-1.1966145	ADJ SCONJ	-2.2904115
-1.2624179	PUNCT SCONJ	-2.307252
-1.2042332	PRON SCONJ	-1.7308913
-1.2855438	PART SCONJ	-1.0385709
-1.2287496	SCONJ SCONJ	-1.716616
-1.2406698	NUM SCONJ	-1.0565617
-2.0652702	SYM SCONJ	-0.3593338
-1.5343882	X SCONJ	-0.25025538
-1.4208075	INTJ SCONJ	-0.6045398
-1.8492854	<s> NUM	-1.8396957
-1.2159489	DET NUM	-2.165974
-1.2825328	NOUN NUM	-1.6912414
-1.2339625	AUX NUM	-1.806901
-1.2774358	VERB NUM	-2.0480669
-1.1857371	ADP NUM	-2.522675
-1.2845439	PROPN NUM	-2.3807888
-1.2723025	CCONJ NUM	-1.6985433
-1.2042205	ADV NUM	-1.9423698
-1.221444	ADJ NUM	-1.7478423
-1.2624179	PUNCT NUM	-2.2784412
-1.4541986	PRON NUM	-0.7747035
-1.2477051	PART NUM	-1.3984073
-1.1707414	SCONJ NUM	-1.91823
-1.2406698	NUM NUM	-1.8111124
-0.88557905	SYM NUM	-1.9284232
-1.5343882	X NUM	-0.39882353
-1.5000491	INTJ NUM	-0.48436794
-3.0474715	<s> SYM	-1.005588
-1.3061516	DET SYM	-1.3615519
-1.3105291	NOUN SYM	-1.5124032
-1.3309027	AUX SYM	-0.74809194
-1.305472	VERB SYM	-1.3752728
-1.2949103	ADP SYM	-1.6087452
-1.2845439	PROPN SYM	-1.7178457
-1.2423307	CCONJ SYM	-1.9398764
-1.380362	ADV SYM	-1.1337988
-1.2758158	ADJ SYM	-1.1497451
-1.3467617	PUNCT SYM	-1.5606724
-1.3292096	PRON SYM	-0.78468025
-1.6286882	PART SYM	-0.8861903
-1.5968988	SCONJ SYM	-1.135656
-1.2126336	NUM SYM	-1.6830417
-1.5208129	SYM SYM	-0.24621868
-1.6313887	X SYM	-0.6904497
-1.7221394	INTJ SYM	-0.24621868
-2.2821207	<s> X	-1.5370654
-1.273957	DET X	-0.8028521
-1.2825328	NOUN X	-1.0007535
-1.7113252	AUX X	-0.33305538
-1.4024123	VERB X	-0.5220624
-1.3618786	ADP X	-1.0884552
-1.2582083	PROPN X	-1.3495351
-1.3044971	CCONJ X	-0.8629565
-1.380362	ADV X	-0.36490893
-1.4519675	ADJ X	-0.41418758
-1.2624179	PUNCT X	-1.3952901
-1.5634005	PRON X	-0.27508315
-1.9869243	PART X	-0.27185678
-1.5968988	SCONJ X	-0.39882353
-1.5137768	NUM X	-0.3180192
-1.2739254	SYM X	-0.79312897
-1.0026537	X X	-1.2400063
-1.5970497	INTJ X	-0.32228228
-2.1617033	<s> INTJ	-1.5625242
-1.8219864	DET INTJ	-0.26068318
-1.4464042	NOUN INTJ	-0.5032699
-1.6345047	AUX INTJ	-0.5324
-1.4036207	VERB INTJ	-0.6663983
-1.5398597	ADP INTJ	-0.3397737
-1.4901824	PROPN INTJ	-0.49482557
-1.419933	CCONJ INTJ	-0.72740555
-1.4610242	ADV INTJ	-0.58964646
-1.6090212	ADJ INTJ	-0.38393202
-1.2632705	PUNCT INTJ	-1.5381393
-1.5071905	PRON INTJ	-0.48915118
-1.6315479	PART INTJ	-0.21865928
-1.5993199	SCONJ INTJ	-0.3027498
-1.9449822	NUM INTJ	-0.22674504
-1.6350268	X INTJ	-0.3136622
-1.246228	INTJ INTJ	-0.8404328
-2.6644378	NOUN SPACE	-0.3593338

\3-grams:
-4.1730328	<s> DET </s>
-3.835204	NOUN DET </s>
-3.6865878	AUX DET </s>
-3.3196108	VERB DET </s>
-4.0702815	ADP DET </s>
-3.0756109	PROPN DET </s>
-3.8344624	CCONJ DET </s>
-3.6337352	ADV DET </s>
-3.9773188	PUNCT DET </s>
-3.1016283	PRON DET </s>
-3.7810473	SCONJ DET </s>
-2.1746469	<s> NOUN </s>
-2.5168521	DET NOUN </s>
-2.0850275	NOUN NOUN </s>
-2.6829371	AUX NOUN </s>
-2.3458385	VERB NOUN </s>
-2.1166825	ADP NOUN </s>
-1.800193	PROPN NOUN </s>
-2.3612323	CCONJ NOUN </s>
-3.0426834	ADV NOUN </s>
-2.3630297	ADJ NOUN </s>
-2.3914146	PUNCT NOUN </s>
-2.5525012	PRON NOUN </s>
-2.1209834	PART NOUN </s>
-2.6912737	SCONJ NOUN </s>
-2.2362027	NUM NOUN </s>
-1.2364713	SYM NOUN </s>
-1.5320084	X NOUN </s>
-3.2911072	DET AUX </s>
-3.451273	NOUN AUX </s>
-3.5824196	AUX AUX </s>
-3.675978	VERB AUX </s>
-3.855033	PROPN AUX </s>
-3.2108765	CCONJ AUX </s>
-3.2908502	ADV AUX </s>
-3.561714	PUNCT AUX </s>
-3.9205954	PRON AUX </s>
-3.6344752	PART AUX </s>
-3.3963385	<s> VERB </s>
-3.301268	DET VERB </s>
-2.8008845	NOUN VERB </s>
-2.8725176	AUX VERB </s>
-2.8584664	VERB VERB </s>
-3.0965679	ADP VERB </s>
-2.6823833	PROPN VERB </s>
-2.8591554	CCONJ VERB </s>
-2.9323592	ADV VERB </s>
-2.8843224	ADJ VERB </s>
-3.1582239	PUNCT VERB </s>
-3.0188246	PRON VERB </s>
-2.821177	PART VERB </s>
-2.999892	SCONJ VERB </s>
-2.607417	NUM VERB </s>
-1.2145807	SYM VERB </s>
-1.6312658	X VERB </s>
-3.9017441	<s> ADP </s>
-3.3114576	DET ADP </s>
-3.8172235	NOUN ADP </s>
-3.5119224	VERB ADP </s>
-3.1187747	PROPN ADP </s>
-3.3296711	CCONJ ADP </s>
-3.5758412	ADV ADP </s>
-3.8408597	ADJ ADP </s>
-3.8415534	PUNCT ADP </s>
-2.162315	<s> PROPN </s>
-2.6020033	DET PROPN </s>
-1.6214764	NOUN PROPN </s>
-2.5223536	AUX PROPN </s>
-2.3376613	VERB PROPN </s>
-1.959715	ADP PROPN </s>
-1.9649905	PROPN PROPN </s>
-2.5467217	CCONJ PROPN </s>
-2.3216608	ADV PROPN </s>
-0.42302412	ADJ PROPN </s>
-2.0606863	PUNCT PROPN </s>
-2.3587856	PRON PROPN </s>
-2.2921822	PART PROPN </s>
-2.8158329	SCONJ PROPN </s>
-2.2965064	NUM PROPN </s>
-1.0205855	SYM PROPN </s>
-1.7354252	X PROPN </s>
-1.8454559	INTJ PROPN </s>
-2.9124942	<s> CCONJ </s>
-3.8003058	NOUN CCONJ </s>
-3.627168	VERB CCONJ </s>
-3.9861355	PROPN CCONJ </s>
-3.6971087	ADJ CCONJ </s>
-3.3200297	PUNCT CCONJ </s>
-3.5427198	<s> ADV </s>
-3.374427	DET ADV </s>
-2.6408722	NOUN ADV </s>
-3.29864	AUX ADV </s>
-2.5348442	VERB ADV </s>
-3.1148446	ADP ADV </s>
-2.5165794	PROPN ADV </s>
-3.433387	CCONJ ADV </s>
-2.733001	ADV ADV </s>
-2.5448134	ADJ ADV </s>
-3.175792	PUNCT ADV </s>
-2.8625295	PRON ADV </s>
-2.7830427	SCONJ ADV </s>
-2.3229601	NUM ADV </s>
-1.5793748	INTJ ADV </s>
-2.7127447	<s> ADJ </s>
-3.8385444	DET ADJ </s>
-2.5500605	NOUN ADJ </s>
-2.717455	AUX ADJ </s>
-2.7919548	VERB ADJ </s>
-3.8851838	ADP ADJ </s>
-2.6771588	PROPN ADJ </s>
-2.7034204	CCONJ ADJ </s>
-2.6619058	ADV ADJ </s>
-3.8769333	ADJ ADJ </s>
-3.2246077	PUNCT ADJ </s>
-2.4872406	PRON ADJ </s>
-2.9337971	PART ADJ </s>
-2.8829749	SCONJ ADJ </s>
-2.4690313	NUM ADJ </s>
-1.9579501	SYM ADJ </s>
-1.4941247	X ADJ </s>
-1.7873311	<s> PUNCT </s>
-0.76333064	DET PUNCT </s>
-0.37773624	NOUN PUNCT </s>
-0.5470694	AUX PUNCT </s>
-0.32403964	VERB PUNCT </s>
-0.55439913	ADP PUNCT </s>
-0.64568764	PROPN PUNCT </s>
-1.7965496	CCONJ PUNCT </s>
-0.510167	ADV PUNCT </s>
-0.48269665	ADJ PUNCT </s>
-0.3836852	PUNCT PUNCT </s>
-0.3070983	PRON PUNCT </s>
-0.65210104	PART PUNCT </s>
-1.202839	SCONJ PUNCT </s>
-0.54434836	NUM PUNCT </s>
-0.42578936	SYM PUNCT </s>
-0.44051236	X PUNCT </s>
-0.7738317	INTJ PUNCT </s>
-4.018013	<s> PRON </s>
-3.089781	AUX PRON </s>
-2.8454022	VERB PRON </s>
-2.4790154	ADP PRON </s>
-3.360637	CCONJ PRON </s>
-3.6120143	ADV PRON </s>
-3.9768438	PUNCT PRON </s>
-3.7726738	SCONJ PRON </s>
-2.1197107	NUM PRON </s>
-4.157138	NOUN PART </s>
-3.9342012	AUX PART </s>
-4.060308	VERB PART </s>
-3.9137316	PROPN PART </s>
-2.9205482	CCONJ PART </s>
-3.101706	PUNCT PART </s>
-3.553283	<s> SCONJ </s>
-3.7864916	NOUN SCONJ </s>
-3.9389577	VERB SCONJ </s>
-2.711878	ADP SCONJ </s>
-3.5838838	ADJ SCONJ </s>
-3.600724	PUNCT SCONJ </s>
-2.9894884	PRON SCONJ </s>
-2.9188778	<s> NUM </s>
-3.245156	DET NUM </s>
-1.5804175	NOUN NUM </s>
-2.9156892	AUX NUM </s>
-2.6748986	VERB NUM </s>
-2.344168	ADP NUM </s>
-1.6672832	PROPN NUM </s>
-3.0551813	ADV NUM </s>
-2.6966374	ADJ NUM </s>
-0.9246207	PUNCT NUM </s>
-2.4433956	PART NUM </s>
-3.028561	SCONJ NUM </s>
-2.0847785	NUM NUM </s>
-1.9408919	SYM NUM </s>
-2.9157054	NUM SYM </s>
-1.9559455	<s> X </s>
-0.9013478	NOUN X </s>
-1.3057308	VERB X </s>
-0.7934399	ADP X </s>
-1.4421818	PROPN X </s>
-1.6856488	CCONJ X </s>
-1.1652709	ADV X </s>
-1.2437903	ADJ X </s>
-1.0567168	PUNCT X </s>
-1.0623171	PRON X </s>
-0.7298153	NUM X </s>
-0.26690733	SYM X </s>
-1.8937638	X X </s>
-1.021556	INTJ X </s>
-2.4160893	<s> INTJ </s>
-1.3138174	NOUN INTJ </s>
-1.6519623	PROPN INTJ </s>
-1.6921871	ADV INTJ </s>
-2.1820734	PUNCT INTJ </s>
-2.0489452	<s> DET DET
-2.0436916	DET DET DET
-1.4543928	NOUN DET DET
-1.89726	AUX DET DET
-2.0326543	VERB DET DET
-2.0732496	ADP DET DET
-2.0114133	PROPN DET DET
-2.0375423	CCONJ DET DET
-1.8392712	ADV DET DET
-1.6709664	ADJ DET DET
-2.1006813	PUNCT DET DET
-1.7132883	PRON DET DET
-1.6457553	PART DET DET
-1.923136	SCONJ DET DET
-2.1061234	NUM DET DET
-1.5547458	X DET DET
-1.4907194	INTJ DET DET
-2.161035	<s> NOUN DET
-1.6437362	DET NOUN DET
-1.6529791	NOUN NOUN DET
-1.6920705	AUX NOUN DET
-1.747805	VERB NOUN DET
-1.682344	ADP NOUN DET
-1.8193516	PROPN NOUN DET
-1.6510559	CCONJ NOUN DET
-1.9828439	ADV NOUN DET
-1.6342782	ADJ NOUN DET
-2.0545125	PUNCT NOUN DET
-1.6763533	PRON NOUN DET
-2.0857024	PART NOUN DET
-2.123224	SCONJ NOUN DET
-1.6448417	NUM NOUN DET
-1.7328497	SYM NOUN DET
-2.005458	X NOUN DET
-0.73008	<s> AUX DET
-0.73394495	DET AUX DET
-1.0495876	NOUN AUX DET
-1.1238264	AUX AUX DET
-0.8168663	VERB AUX DET
-0.67088664	ADP AUX DET
-0.8050097	PROPN AUX DET
-0.9543214	CCONJ AUX DET
-0.5502023	ADV AUX DET
-0.75320125	ADJ AUX DET
-0.7777083	PUNCT AUX DET
-0.7772124	PRON AUX DET
-0.6680763	PART AUX DET
-0.60878175	SCONJ AUX DET
-0.7024063	NUM AUX DET
-0.5058176	SYM AUX DET
-0.881181	X AUX DET
-1.6009728	INTJ AUX DET
-0.7225146	<s> VERB DET
-0.8977265	DET VERB DET
-0.8397405	NOUN VERB DET
-0.8814658	AUX VERB DET
-0.6235287	VERB VERB DET
-0.5399922	ADP VERB DET
-0.6330039	PROPN VERB DET
-0.61735207	CCONJ VERB DET
-0.6599203	ADV VERB DET
-0.934428	ADJ VERB DET
-0.71555036	PUNCT VERB DET
-0.8202247	PRON VERB DET
-0.50917864	PART VERB DET
-0.6890756	SCONJ VERB DET
-0.9060208	NUM VERB DET
-0.8200811	SYM VERB DET
-0.67298204	X VERB DET
-0.58022106	INTJ VERB DET
-0.33853278	<s> ADP DET
-0.25653458	DET ADP DET
-0.41035745	NOUN ADP DET
-0.39104024	AUX ADP DET
-0.38163334	VERB ADP DET
-0.32115796	ADP ADP DET
-0.57426816	PROPN ADP DET
-0.36359462	CCONJ ADP DET
-0.34320444	ADV ADP DET
-0.3222782	ADJ ADP DET
-0.41279078	PUNCT ADP DET
-0.34844545	PRON ADP DET
-0.41474244	PART ADP DET
-0.31841236	SCONJ ADP DET
-0.2221559	NUM ADP DET
-1.0223882	SYM ADP DET
-0.67642504	X ADP DET
-0.52629614	INTJ ADP DET
-2.558359	<s> PROPN DET
-2.2861004	DET PROPN DET
-2.260041	NOUN PROPN DET
-2.0033379	AUX PROPN DET
-1.7779014	VERB PROPN DET
-2.0088673	ADP PROPN DET
-2.2216485	PROPN PROPN DET
-2.259857	CCONJ PROPN DET
-2.1235101	ADV PROPN DET
-2.2941952	ADJ PROPN DET
-2.5481095	PUNCT PROPN DET
-2.3582919	PRON PROPN DET
-2.6282816	PART PROPN DET
-2.483811	SCONJ PROPN DET
-2.296399	NUM PROPN DET
-2.038374	SYM PROPN DET
-2.056526	X PROPN DET
-1.6890017	INTJ PROPN DET
-0.6955631	<s> CCONJ DET
-0.47367722	DET CCONJ DET
-0.907702	NOUN CCONJ DET
-0.7690271	AUX CCONJ DET
-1.1658185	VERB CCONJ DET
-0.95694304	ADP CCONJ DET
-0.87853736	PROPN CCONJ DET
-0.92058265	CCONJ CCONJ DET
-1.1536027	ADV CCONJ DET
-1.3158325	ADJ CCONJ DET
-0.7413159	PUNCT CCONJ DET
-0.6276947	PRON CCONJ DET
-0.99523973	PART CCONJ DET
-0.783003	SCONJ CCONJ DET
-1.0224174	NUM CCONJ DET
-0.9225983	X CCONJ DET
-0.6895194	INTJ CCONJ DET
-1.0253398	<s> ADV DET
-1.9062088	DET ADV DET
-1.3083619	NOUN ADV DET
-1.0835603	AUX ADV DET
-1.1663687	VERB ADV DET
-0.8981622	ADP ADV DET
-1.3493221	PROPN ADV DET
-0.99114674	CCONJ ADV DET
-1.3553997	ADV ADV DET
-1.2988079	ADJ ADV DET
-1.0287783	PUNCT ADV DET
-2.0238917	PRON ADV DET
-1.1236889	PART ADV DET
-0.8574922	SCONJ ADV DET
-1.0163424	NUM ADV DET
-1.1547499	SYM ADV DET
-1.1000767	X ADV DET
-1.316871	INTJ ADV DET
-2.688242	<s> ADJ DET
-2.9914079	DET ADJ DET
-2.3829138	NOUN ADJ DET
-2.1409035	AUX ADJ DET
-2.281264	VERB ADJ DET
-2.4100296	ADP ADJ DET
-2.737154	CCONJ ADJ DET
-1.9000176	ADV ADJ DET
-3.3016756	ADJ ADJ DET
-3.1151614	PUNCT ADJ DET
-2.0487297	PRON ADJ DET
-2.2315414	PART ADJ DET
-2.728807	SCONJ ADJ DET
-0.76704556	<s> PUNCT DET
-1.448718	DET PUNCT DET
-1.147466	NOUN PUNCT DET
-1.1551389	AUX PUNCT DET
-1.2443941	VERB PUNCT DET
-1.1218557	ADP PUNCT DET
-1.0091407	PROPN PUNCT DET
-1.1939704	CCONJ PUNCT DET
-0.91543484	ADV PUNCT DET
-1.4506761	ADJ PUNCT DET
-1.1122168	PUNCT PUNCT DET
-1.2589127	PRON PUNCT DET
-1.3098272	PART PUNCT DET
-0.7581972	SCONJ PUNCT DET
-1.0540116	NUM PUNCT DET
-1.400978	SYM PUNCT DET
-1.1761065	X PUNCT DET
-0.9767158	INTJ PUNCT DET
-2.157539	<s> PRON DET
-2.1780536	DET PRON DET
-2.1582162	NOUN PRON DET
-1.0704937	AUX PRON DET
-1.1706843	VERB PRON DET
-1.3437201	ADP PRON DET
-2.5255451	PROPN PRON DET
-1.8562244	CCONJ PRON DET
-2.0142796	ADV PRON DET
-1.5700059	ADJ PRON DET
-2.046281	PUNCT PRON DET
-2.0729194	PRON PRON DET
-1.0700914	PART PRON DET
-2.1710815	SCONJ PRON DET
-1.9706684	INTJ PRON DET
-1.0795512	<s> PART DET
-1.5296942	DET PART DET
-2.629584	NOUN PART DET
-1.1925229	AUX PART DET
-2.5427713	VERB PART DET
-2.3744	ADP PART DET
-2.6070757	PROPN PART DET
-1.0831314	CCONJ PART DET
-1.6357555	ADV PART DET
-3.2749817	ADJ PART DET
-1.1956615	PUNCT PART DET
-2.367163	PRON PART DET
-2.6718018	PART PART DET
-0.9463491	SCONJ PART DET
-2.2081466	NUM PART DET
-1.1283789	X PART DET
-0.47022748	<s> SCONJ DET
-0.41009	DET SCONJ DET
-0.49453026	NOUN SCONJ DET
-0.5324909	AUX SCONJ DET
-0.44129238	VERB SCONJ DET
-0.49456355	ADP SCONJ DET
-0.40302193	PROPN SCONJ DET
-0.5294908	CCONJ SCONJ DET
-0.5293728	ADV SCONJ DET
-0.5919081	ADJ SCONJ DET
-0.5574284	PUNCT SCONJ DET
-0.4682066	PRON SCONJ DET
-0.44116324	PART SCONJ DET
-0.49620906	SCONJ SCONJ DET
-0.5101746	NUM SCONJ DET
-0.22474617	SYM SCONJ DET
-0.64500916	X SCONJ DET
-1.2064313	INTJ SCONJ DET
-2.771111	<s> NUM DET
-2.8687575	DET NUM DET
-2.2332013	NOUN NUM DET
-2.0636883	AUX NUM DET
-2.138458	VERB NUM DET
-1.9537963	ADP NUM DET
-1.9925803	PROPN NUM DET
-2.3849587	CCONJ NUM DET
-2.4250605	ADV NUM DET
-2.1947923	ADJ NUM DET
-2.0556986	PUNCT NUM DET
-1.7864192	PRON NUM DET
-2.3942697	SCONJ NUM DET
-1.9904103	NUM NUM DET
-1.6760036	SYM NUM DET
-0.9557554	DET SYM DET
-2.7196836	ADP SYM DET
-2.7755108	PROPN SYM DET
-1.7237389	PRON SYM DET
-2.7386663	NUM SYM DET
-2.1521416	<s> X DET
-1.3705597	NOUN X DET
-1.3900656	VERB X DET
-1.6928594	ADP X DET
-1.778824	CCONJ X DET
-1.3386357	ADJ X DET
-1.5270046	PUNCT X DET
-1.60993	SYM X DET
-1.6797723	X X DET
-1.6766211	<s> INTJ DET
-1.6732886	VERB INTJ DET
-1.4070158	CCONJ INTJ DET
-1.6266207	ADV INTJ DET
-1.9201705	PUNCT INTJ DET
-1.1060573	SCONJ INTJ DET
-0.8575122	NUM INTJ DET
-0.26011184	<s> DET NOUN
-0.23655756	DET DET NOUN
-0.6829965	NOUN DET NOUN
-0.30839515	AUX DET NOUN
-0.19663197	VERB DET NOUN
-0.24892485	ADP DET NOUN
-0.45205286	PROPN DET NOUN
-0.26707378	CCONJ DET NOUN
-0.24723019	ADV DET NOUN
-0.25676724	ADJ DET NOUN
-0.35303453	PUNCT DET NOUN
-0.36191028	PRON DET NOUN
-0.35973868	PART DET NOUN
-0.24857827	SCONJ DET NOUN
-0.34093288	NUM DET NOUN
-0.23865668	SYM DET NOUN
-0.45529944	X DET NOUN
-0.38807595	INTJ DET NOUN
-0.92453	<s> NOUN NOUN
-1.0744362	DET NOUN NOUN
-1.051004	NOUN NOUN NOUN
-1.1416664	AUX NOUN NOUN
-0.95062184	VERB NOUN NOUN
-0.9008652	ADP NOUN NOUN
-0.9728307	PROPN NOUN NOUN
-0.79911304	CCONJ NOUN NOUN
-1.0000167	ADV NOUN NOUN
-1.0078907	ADJ NOUN NOUN
-0.68070376	PUNCT NOUN NOUN
-1.1347151	PRON NOUN NOUN
-0.9594075	PART NOUN NOUN
-0.8814845	SCONJ NOUN NOUN
-1.092098	NUM NOUN NOUN
-0.70481986	SYM NOUN NOUN
-0.6117003	X NOUN NOUN
-0.9511095	INTJ NOUN NOUN
-1.4653131	<s> AUX NOUN
-1.6150768	DET AUX NOUN
-1.4946136	NOUN AUX NOUN
-1.7556832	AUX AUX NOUN
-1.5593123	VERB AUX NOUN
-1.2487355	ADP AUX NOUN
-1.722488	PROPN AUX NOUN
-1.534025	CCONJ AUX NOUN
-1.3355682	ADV AUX NOUN
-1.3684391	ADJ AUX NOUN
-1.6842659	PUNCT AUX NOUN
-1.4170492	PRON AUX NOUN
-1.2731528	PART AUX NOUN
-1.463159	SCONJ AUX NOUN
-1.3968132	NUM AUX NOUN
-1.1722919	X AUX NOUN
-1.1449482	<s> VERB NOUN
-0.5331196	DET VERB NOUN
-1.1649579	NOUN VERB NOUN
-1.2934686	AUX VERB NOUN
-0.9535287	VERB VERB NOUN
-0.6072963	ADP VERB NOUN
-1.2597878	PROPN VERB NOUN
-0.87915593	CCONJ VERB NOUN
-1.0032269	ADV VERB NOUN
-0.48344266	ADJ VERB NOUN
-0.78785235	PUNCT VERB NOUN
-1.3692242	PRON VERB NOUN
-0.9031709	PART VERB NOUN
-0.822803	SCONJ VERB NOUN
-0.64753866	NUM VERB NOUN
-0.8200811	SYM VERB NOUN
-1.0503877	X VERB NOUN
-1.1381545	INTJ VERB NOUN
-0.8667094	<s> ADP NOUN
-1.0787153	DET ADP NOUN
-0.69200176	NOUN ADP NOUN
-0.63162416	AUX ADP NOUN
-0.8382531	VERB ADP NOUN
-0.833753	ADP ADP NOUN
-1.2203012	PROPN ADP NOUN
-0.80004394	CCONJ ADP NOUN
-0.8439427	ADV ADP NOUN
-0.86153543	ADJ ADP NOUN
-0.7389064	PUNCT ADP NOUN
-0.8313473	PRON ADP NOUN
-0.623966	PART ADP NOUN
-0.7563956	SCONJ ADP NOUN
-1.0430418	NUM ADP NOUN
-0.47746342	SYM ADP NOUN
-0.8292791	X ADP NOUN
-0.6644066	INTJ ADP NOUN
-1.4334571	<s> PROPN NOUN
-0.78202355	DET PROPN NOUN
-1.3064386	NOUN PROPN NOUN
-1.3446758	AUX PROPN NOUN
-1.1284473	VERB PROPN NOUN
-1.3127271	ADP PROPN NOUN
-1.331592	PROPN PROPN NOUN
-1.3928015	CCONJ PROPN NOUN
-1.2995669	ADV PROPN NOUN
-0.9805443	ADJ PROPN NOUN
-1.3302412	PUNCT PROPN NOUN
-1.2839198	PRON PROPN NOUN
-0.8979597	PART PROPN NOUN
-1.418879	SCONJ PROPN NOUN
-0.77513456	NUM PROPN NOUN
-0.6909189	SYM PROPN NOUN
-1.3055083	X PROPN NOUN
-1.3919926	<s> CCONJ NOUN
-1.5309215	DET CCONJ NOUN
-0.39453405	NOUN CCONJ NOUN
-1.4375252	AUX CCONJ NOUN
-1.2109761	VERB CCONJ NOUN
-1.2771411	ADP CCONJ NOUN
-1.1798097	PROPN CCONJ NOUN
-1.1906741	CCONJ CCONJ NOUN
-1.4929882	ADV CCONJ NOUN
-1.2020758	ADJ CCONJ NOUN
-1.0775461	PUNCT CCONJ NOUN
-1.6465498	PRON CCONJ NOUN
-0.9372135	PART CCONJ NOUN
-1.2486521	NUM CCONJ NOUN
-0.8561916	SYM CCONJ NOUN
-1.0924609	X CCONJ NOUN
-1.6526136	<s> ADV NOUN
-1.9068217	DET ADV NOUN
-1.5391877	NOUN ADV NOUN
-1.7917267	AUX ADV NOUN
-1.6702571	VERB ADV NOUN
-1.5187668	ADP ADV NOUN
-1.6923686	PROPN ADV NOUN
-1.360176	CCONJ ADV NOUN
-1.8915864	ADV ADV NOUN
-1.4313788	ADJ ADV NOUN
-1.4004122	PUNCT ADV NOUN
-2.7419975	PRON ADV NOUN
-1.6713427	PART ADV NOUN
-1.5357727	SCONJ ADV NOUN
-1.4519836	NUM ADV NOUN
-0.68906265	SYM ADV NOUN
-1.5478036	INTJ ADV NOUN
-0.23573145	<s> ADJ NOUN
-0.11343103	DET ADJ NOUN
-0.5286191	NOUN ADJ NOUN
-0.8136624	AUX ADJ NOUN
-0.20865339	VERB ADJ NOUN
-0.13946526	ADP ADJ NOUN
-0.21802706	PROPN ADJ NOUN
-0.1760426	CCONJ ADJ NOUN
-0.4913864	ADV ADJ NOUN
-0.14567602	ADJ ADJ NOUN
-0.42036724	PUNCT ADJ NOUN
-0.7805675	PRON ADJ NOUN
-0.25469947	PART ADJ NOUN
-0.2220446	SCONJ ADJ NOUN
-0.11421055	NUM ADJ NOUN
-0.2357351	SYM ADJ NOUN
-0.33440864	X ADJ NOUN
-0.6521286	INTJ ADJ NOUN
-1.1330608	<s> PUNCT NOUN
-0.64422274	DET PUNCT NOUN
-1.129985	NOUN PUNCT NOUN
-1.4260348	AUX PUNCT NOUN
-1.3922348	VERB PUNCT NOUN
-0.72476393	ADP PUNCT NOUN
-1.2962714	PROPN PUNCT NOUN
-0.88096404	CCONJ PUNCT NOUN
-1.4321252	ADV PUNCT NOUN
-0.81376976	ADJ PUNCT NOUN
-1.4991897	PUNCT PUNCT NOUN
-1.7190455	PRON PUNCT NOUN
-1.1156204	PART PUNCT NOUN
-0.8778732	SCONJ PUNCT NOUN
-1.1162268	NUM PUNCT NOUN
-1.4643569	SYM PUNCT NOUN
-1.2816538	X PUNCT NOUN
-1.3879021	INTJ PUNCT NOUN
-2.880952	<s> PRON NOUN
-2.611945	DET PRON NOUN
-2.4691145	NOUN PRON NOUN
-1.6659412	AUX PRON NOUN
-1.7168282	VERB PRON NOUN
-1.8130765	ADP PRON NOUN
-1.8751061	PROPN PRON NOUN
-2.4674852	CCONJ PRON NOUN
-2.519724	ADV PRON NOUN
-2.3324037	ADJ PRON NOUN
-2.460074	PUNCT PRON NOUN
-2.733931	PRON PRON NOUN
-1.6673176	PART PRON NOUN
-2.8144517	SCONJ PRON NOUN
-1.9706684	INTJ PRON NOUN
-2.5312762	<s> PART NOUN
-1.6439992	DET PART NOUN
-0.6537785	NOUN PART NOUN
-2.0343468	AUX PART NOUN
-2.563512	VERB PART NOUN
-2.3869684	ADP PART NOUN
-0.36778334	PROPN PART NOUN
-1.8287235	CCONJ PART NOUN
-2.124203	ADV PART NOUN
-2.0412605	ADJ PART NOUN
-1.6575152	PUNCT PART NOUN
-1.2455715	PRON PART NOUN
-1.6289161	SCONJ PART NOUN
-1.261314	NUM PART NOUN
-0.505416	SYM PART NOUN
-1.1398957	<s> SCONJ NOUN
-1.3237066	DET SCONJ NOUN
-1.0155424	NOUN SCONJ NOUN
-1.162327	AUX SCONJ NOUN
-1.0308542	VERB SCONJ NOUN
-1.0456167	ADP SCONJ NOUN
-1.1192642	PROPN SCONJ NOUN
-1.1273553	CCONJ SCONJ NOUN
-0.97998244	ADV SCONJ NOUN
-0.9904682	ADJ SCONJ NOUN
-1.0428172	PUNCT SCONJ NOUN
-1.0372039	PRON SCONJ NOUN
-1.2744262	PART SCONJ NOUN
-1.0211059	SCONJ SCONJ NOUN
-1.3347963	NUM SCONJ NOUN
-1.134617	INTJ SCONJ NOUN
-0.3698338	<s> NUM NOUN
-0.26060688	DET NUM NOUN
-0.5391244	NOUN NUM NOUN
-0.40438762	AUX NUM NOUN
-0.2783884	VERB NUM NOUN
-0.3934901	ADP NUM NOUN
-1.1631688	PROPN NUM NOUN
-0.32780522	CCONJ NUM NOUN
-0.1790852	ADV NUM NOUN
-0.19673693	ADJ NUM NOUN
-0.5926642	PUNCT NUM NOUN
-0.2301721	PRON NUM NOUN
-0.21947145	PART NUM NOUN
-0.25327078	SCONJ NUM NOUN
-0.3305204	NUM NUM NOUN
-0.85471356	SYM NUM NOUN
-0.28126732	X NUM NOUN
-0.22113775	INTJ NUM NOUN
-0.8087394	<s> SYM NOUN
-0.66484934	DET SYM NOUN
-0.26324123	NOUN SYM NOUN
-1.3615035	AUX SYM NOUN
-1.1107341	VERB SYM NOUN
-1.1461769	ADP SYM NOUN
-1.2549716	PROPN SYM NOUN
-1.5240483	CCONJ SYM NOUN
-1.7455305	ADV SYM NOUN
-0.74738157	ADJ SYM NOUN
-0.77661324	PUNCT SYM NOUN
-1.4843459	PRON SYM NOUN
-1.4647194	PART SYM NOUN
-0.9899611	SCONJ SYM NOUN
-1.5616261	NUM SYM NOUN
-0.50224453	INTJ SYM NOUN
-1.8565687	<s> X NOUN
-1.0549293	DET X NOUN
-1.1914221	NOUN X NOUN
-1.200976	VERB X NOUN
-1.1993575	ADP X NOUN
-1.4813886	PROPN X NOUN
-1.1334927	ADV X NOUN
-0.85600036	ADJ X NOUN
-1.126934	PUNCT X NOUN
-1.0940511	PRON X NOUN
-1.4907008	SYM X NOUN
-0.95802045	X X NOUN
-1.9106555	<s> INTJ NOUN
-0.8335235	DET INTJ NOUN
-1.3646998	NOUN INTJ NOUN
-1.552216	VERB INTJ NOUN
-1.1685891	ADP INTJ NOUN
-1.2498052	PROPN INTJ NOUN
-1.6724896	CCONJ INTJ NOUN
-1.4980347	ADV INTJ NOUN
-1.6368785	PUNCT INTJ NOUN
-1.0906283	PRON INTJ NOUN
-0.8211726	PART INTJ NOUN
-1.6741295	INTJ INTJ NOUN
-1.2487708	<s> DET AUX
-1.5936152	DET DET AUX
-0.7391795	NOUN DET AUX
-2.7730486	AUX DET AUX
-2.5675032	VERB DET AUX
-2.809969	ADP DET AUX
-0.924664	PROPN DET AUX
-1.4490554	CCONJ DET AUX
-1.8485485	ADV DET AUX
-1.2862632	ADJ DET AUX
-1.1376665	PUNCT DET AUX
-1.2723653	PRON DET AUX
-2.0917568	PART DET AUX
-1.7096682	SCONJ DET AUX
-1.335324	NUM DET AUX
-0.7190547	INTJ DET AUX
-0.9391329	<s> NOUN AUX
-1.1037338	DET NOUN AUX
-1.1352087	NOUN NOUN AUX
-2.1163368	AUX NOUN AUX
-1.6076752	VERB NOUN AUX
-1.5208801	ADP NOUN AUX
-1.1514767	PROPN NOUN AUX
-1.2017716	CCONJ NOUN AUX
-0.87835914	ADV NOUN AUX
-1.219966	ADJ NOUN AUX
-1.2733134	PUNCT NOUN AUX
-0.98294413	PRON NOUN AUX
-1.02097	PART NOUN AUX
-0.8104475	SCONJ NOUN AUX
-1.2014896	NUM NOUN AUX
-1.4256179	SYM NOUN AUX
-1.4382067	X NOUN AUX
-1.0426852	INTJ NOUN AUX
-2.087177	<s> AUX AUX
-1.2679496	DET AUX AUX
-1.1660248	NOUN AUX AUX
-2.845145	AUX AUX AUX
-1.4358523	VERB AUX AUX
-2.2478106	ADP AUX AUX
-1.221023	PROPN AUX AUX
-1.357471	CCONJ AUX AUX
-1.9162691	ADV AUX AUX
-1.2952924	ADJ AUX AUX
-1.1899016	PUNCT AUX AUX
-1.3905157	PRON AUX AUX
-1.8100145	PART AUX AUX
-1.33372	SCONJ AUX AUX
-1.1611153	NUM AUX AUX
-0.5105791	SYM AUX AUX
-2.1383355	<s> VERB AUX
-1.3036342	DET VERB AUX
-1.1728691	NOUN VERB AUX
-2.338163	AUX VERB AUX
-2.070289	VERB VERB AUX
-2.5481298	ADP VERB AUX
-1.4879458	PROPN VERB AUX
-1.8667016	CCONJ VERB AUX
-2.2296684	ADV VERB AUX
-1.5217909	ADJ VERB AUX
-1.8418738	PUNCT VERB AUX
-1.1671959	PRON VERB AUX
-2.426286	PART VERB AUX
-2.1674664	SCONJ VERB AUX
-1.3686953	NUM VERB AUX
-1.6307805	X VERB AUX
-2.2259645	INTJ VERB AUX
-2.7454019	<s> ADP AUX
-3.1929615	DET ADP AUX
-2.6901453	NOUN ADP AUX
-3.172969	AUX ADP AUX
-2.5463977	VERB ADP AUX
-2.6641445	ADP ADP AUX
-2.7589672	PROPN ADP AUX
-2.4986362	CCONJ ADP AUX
-2.2916133	ADV ADP AUX
-2.3803241	ADJ ADP AUX
-2.6136105	PUNCT ADP AUX
-2.2563128	PRON ADP AUX
-3.1946964	SCONJ ADP AUX
-2.8514788	NUM ADP AUX
-1.086672	<s> PROPN AUX
-1.4689224	DET PROPN AUX
-1.3660139	NOUN PROPN AUX
-1.7178968	AUX PROPN AUX
-1.5269686	VERB PROPN AUX
-1.4678674	ADP PROPN AUX
-1.3528204	PROPN PROPN AUX
-1.313863	CCONJ PROPN AUX
-0.8138062	ADV PROPN AUX
-1.5290283	ADJ PROPN AUX
-1.3460656	PUNCT PROPN AUX
-0.8137755	PRON PROPN AUX
-1.6575795	PART PROPN AUX
-0.7442971	SCONJ PROPN AUX
-1.443174	NUM PROPN AUX
-1.2872642	SYM PROPN AUX
-1.796121	X PROPN AUX
-1.3403267	INTJ PROPN AUX
-1.7287816	<s> CCONJ AUX
-1.5370885	DET CCONJ AUX
-1.5900832	NOUN CCONJ AUX
-1.0084928	AUX CCONJ AUX
-1.4431853	VERB CCONJ AUX
-1.5043303	ADP CCONJ AUX
-1.8151338	PROPN CCONJ AUX
-1.3659463	CCONJ CCONJ AUX
-1.3265626	ADV CCONJ AUX
-1.839083	ADJ CCONJ AUX
-1.4054972	PUNCT CCONJ AUX
-1.3746606	PRON CCONJ AUX
-1.5929644	PART CCONJ AUX
-2.0100071	SCONJ CCONJ AUX
-1.3255017	NUM CCONJ AUX
-1.0471094	<s> ADV AUX
-1.8178632	DET ADV AUX
-1.4248955	NOUN ADV AUX
-1.395263	AUX ADV AUX
-1.2375206	VERB ADV AUX
-2.056532	ADP ADV AUX
-1.2149845	PROPN ADV AUX
-1.3638529	CCONJ ADV AUX
-1.5049852	ADV ADV AUX
-1.8152779	ADJ ADV AUX
-1.3409159	PUNCT ADV AUX
-0.9167049	PRON ADV AUX
-1.2033284	PART ADV AUX
-1.6678367	SCONJ ADV AUX
-1.9895319	NUM ADV AUX
-1.5630438	INTJ ADV AUX
-1.7916495	<s> ADJ AUX
-2.6285048	DET ADJ AUX
-2.2711291	NOUN ADJ AUX
-2.3991528	AUX ADJ AUX
-2.6121292	VERB ADJ AUX
-2.7446032	ADP ADJ AUX
-2.8424358	PROPN ADJ AUX
-2.1195	CCONJ ADJ AUX
-1.9215683	ADV ADJ AUX
-2.957425	ADJ ADJ AUX
-2.3217325	PUNCT ADJ AUX
-1.8231192	PRON ADJ AUX
-2.6342993	PART ADJ AUX
-2.0475063	SCONJ ADJ AUX
-2.6106644	NUM ADJ AUX
-1.7420746	<s> PUNCT AUX
-2.1658537	DET PUNCT AUX
-1.8193796	NOUN PUNCT AUX
-1.6996752	AUX PUNCT AUX
-1.9761434	VERB PUNCT AUX
-2.2389817	ADP PUNCT AUX
-1.6344665	PROPN PUNCT AUX
-1.9408511	CCONJ PUNCT AUX
-1.7417516	ADV PUNCT AUX
-2.013736	ADJ PUNCT AUX
-1.7868273	PUNCT PUNCT AUX
-1.72321	PRON PUNCT AUX
-1.369735	PART PUNCT AUX
-2.4051855	SCONJ PUNCT AUX
-1.6329353	NUM PUNCT AUX
-1.6899407	X PUNCT AUX
-1.8330557	INTJ PUNCT AUX
-0.37880358	<s> PRON AUX
-0.5068642	DET PRON AUX
-0.46022686	NOUN PRON AUX
-1.1947982	AUX PRON AUX
-0.96164125	VERB PRON AUX
-0.92699426	ADP PRON AUX
-0.4390735	PROPN PRON AUX
-0.3814229	CCONJ PRON AUX
-0.4912359	ADV PRON AUX
-0.40175453	ADJ PRON AUX
-0.39835212	PUNCT PRON AUX
-0.46976864	PRON PRON AUX
-0.7563326	PART PRON AUX
-0.33251315	SCONJ PRON AUX
-0.48872042	NUM PRON AUX
-0.6027408	SYM PRON AUX
-0.60355926	X PRON AUX
-0.46316543	INTJ PRON AUX
-1.0955067	<s> PART AUX
-1.0635216	DET PART AUX
-1.2262127	NOUN PART AUX
-0.9887643	AUX PART AUX
-0.6753982	VERB PART AUX
-0.79492474	ADP PART AUX
-1.8441509	PROPN PART AUX
-1.3796452	CCONJ PART AUX
-0.9983801	ADV PART AUX
-0.9368173	ADJ PART AUX
-1.2168568	PUNCT PART AUX
-0.68056095	PRON PART AUX
-0.8118376	PART PART AUX
-1.2958397	SCONJ PART AUX
-1.3870683	NUM PART AUX
-2.2546027	<s> SCONJ AUX
-1.7317483	DET SCONJ AUX
-2.2978175	NOUN SCONJ AUX
-1.6627697	AUX SCONJ AUX
-2.6353686	VERB SCONJ AUX
-2.2668753	ADP SCONJ AUX
-2.3261456	PROPN SCONJ AUX
-2.3374488	CCONJ SCONJ AUX
-2.3544097	ADV SCONJ AUX
-2.5901833	ADJ SCONJ AUX
-1.918138	PUNCT SCONJ AUX
-2.3030276	PRON SCONJ AUX
-2.0301487	PART SCONJ AUX
-2.734916	SCONJ SCONJ AUX
-2.0430326	NUM SCONJ AUX
-1.6646031	<s> NUM AUX
-1.9792643	DET NUM AUX
-1.4571121	NOUN NUM AUX
-2.7486877	VERB NUM AUX
-2.0105302	ADP NUM AUX
-1.716883	PROPN NUM AUX
-1.5648279	CCONJ NUM AUX
-2.0217972	ADV NUM AUX
-1.8913698	ADJ NUM AUX
-1.8618314	PUNCT NUM AUX
-1.5661412	PRON NUM AUX
-2.035804	PART NUM AUX
-1.8924371	SCONJ NUM AUX
-1.9387892	NUM NUM AUX
-2.2249346	SYM NUM AUX
-1.7107644	AUX SYM AUX
-2.5725877	VERB SYM AUX
-1.7399224	DET X AUX
-1.9645036	NOUN X AUX
-2.2632987	ADP X AUX
-1.9199938	CCONJ X AUX
-2.0719538	PUNCT X AUX
-2.354484	X X AUX
-1.561824	<s> INTJ AUX
-1.4857116	NOUN INTJ AUX
-1.4064606	AUX INTJ AUX
-1.4484061	VERB INTJ AUX
-1.5163339	PROPN INTJ AUX
-1.3814921	CCONJ INTJ AUX
-1.5137993	ADV INTJ AUX
-1.5396869	PUNCT INTJ AUX
-1.044858	X INTJ AUX
-1.4334599	<s> DET VERB
-1.3981824	DET DET VERB
-0.43217003	NOUN DET VERB
-1.6617967	AUX DET VERB
-1.8101813	VERB DET VERB
-1.7697828	ADP DET VERB
-0.71710265	PROPN DET VERB
-1.4093999	CCONJ DET VERB
-1.5211829	ADV DET VERB
-1.1120211	ADJ DET VERB
-1.086763	PUNCT DET VERB
-0.8062697	PRON DET VERB
-1.6142548	PART DET VERB
-1.5926472	SCONJ DET VERB
-0.8146487	NUM DET VERB
-1.0943594	X DET VERB
-1.2454075	INTJ DET VERB
-0.7889523	<s> NOUN VERB
-1.0307826	DET NOUN VERB
-1.013114	NOUN NOUN VERB
-1.2256695	AUX NOUN VERB
-1.2808627	VERB NOUN VERB
-1.2646985	ADP NOUN VERB
-0.9535062	PROPN NOUN VERB
-1.1038468	CCONJ NOUN VERB
-0.66777676	ADV NOUN VERB
-1.0930177	ADJ NOUN VERB
-1.1054255	PUNCT NOUN VERB
-0.75426215	PRON NOUN VERB
-1.0671047	PART NOUN VERB
-0.7544665	SCONJ NOUN VERB
-1.1148671	NUM NOUN VERB
-1.2757715	SYM NOUN VERB
-1.4382067	X NOUN VERB
-1.5409402	INTJ NOUN VERB
-1.3509498	<s> AUX VERB
-0.58447164	DET AUX VERB
-0.43401805	NOUN AUX VERB
-0.17093252	AUX AUX VERB
-0.37504613	VERB AUX VERB
-0.44249454	ADP AUX VERB
-0.43117574	PROPN AUX VERB
-0.46295246	CCONJ AUX VERB
-0.6621696	ADV AUX VERB
-0.5782036	ADJ AUX VERB
-0.50692654	PUNCT AUX VERB
-0.61974376	PRON AUX VERB
-0.5074289	PART AUX VERB
-0.5886812	SCONJ AUX VERB
-0.50861686	NUM AUX VERB
-0.7071336	X AUX VERB
-0.7227107	INTJ AUX VERB
-1.7196481	<s> VERB VERB
-1.083054	DET VERB VERB
-1.0318315	NOUN VERB VERB
-1.882665	AUX VERB VERB
-1.4242119	VERB VERB VERB
-1.8764213	ADP VERB VERB
-1.19734	PROPN VERB VERB
-1.4882623	CCONJ VERB VERB
-1.6954354	ADV VERB VERB
-1.2949656	ADJ VERB VERB
-1.5492498	PUNCT VERB VERB
-0.85410917	PRON VERB VERB
-1.7611499	PART VERB VERB
-1.731946	SCONJ VERB VERB
-1.2391493	NUM VERB VERB
-1.5077668	SYM VERB VERB
-1.6164668	X VERB VERB
-1.3865604	INTJ VERB VERB
-1.5620809	<s> ADP VERB
-1.7947559	DET ADP VERB
-1.4416753	NOUN ADP VERB
-1.632733	AUX ADP VERB
-1.5033013	VERB ADP VERB
-1.7859756	ADP ADP VERB
-1.5899689	PROPN ADP VERB
-1.3599315	CCONJ ADP VERB
-1.2361159	ADV ADP VERB
-1.2119577	ADJ ADP VERB
-1.4172436	PUNCT ADP VERB
-1.1661168	PRON ADP VERB
-1.4101008	PART ADP VERB
-1.6383725	SCONJ ADP VERB
-1.8838202	NUM ADP VERB
-1.285982	SYM ADP VERB
-1.1882694	X ADP VERB
-1.388363	INTJ ADP VERB
-0.8986668	<s> PROPN VERB
-1.3370166	DET PROPN VERB
-1.1055532	NOUN PROPN VERB
-1.1849073	AUX PROPN VERB
-1.3177133	VERB PROPN VERB
-1.3515422	ADP PROPN VERB
-1.011142	PROPN PROPN VERB
-1.3020682	CCONJ PROPN VERB
-0.7101698	ADV PROPN VERB
-1.3433822	ADJ PROPN VERB
-1.0901906	PUNCT PROPN VERB
-0.6565704	PRON PROPN VERB
-1.2687322	PART PROPN VERB
-0.79878265	SCONJ PROPN VERB
-1.3177941	NUM PROPN VERB
-1.147146	SYM PROPN VERB
-1.5146748	X PROPN VERB
-0.9145121	INTJ PROPN VERB
-0.22931187	SPACE PROPN VERB
-1.3311899	<s> CCONJ VERB
-0.7626526	DET CCONJ VERB
-0.80036175	NOUN CCONJ VERB
-0.67149323	AUX CCONJ VERB
-0.2312115	VERB CCONJ VERB
-0.48113808	ADP CCONJ VERB
-1.1540246	PROPN CCONJ VERB
-0.75915307	CCONJ CCONJ VERB
-0.62587893	ADV CCONJ VERB
-1.0650162	ADJ CCONJ VERB
-0.8722741	PUNCT CCONJ VERB
-0.5542977	PRON CCONJ VERB
-0.8143419	PART CCONJ VERB
-1.9269565	SCONJ CCONJ VERB
-0.9132186	NUM CCONJ VERB
-0.8510185	SYM CCONJ VERB
-0.63710225	X CCONJ VERB
-1.238172	<s> ADV VERB
-0.7081989	DET ADV VERB
-0.6711496	NOUN ADV VERB
-0.45454857	AUX ADV VERB
-0.85791993	VERB ADV VERB
-1.0310398	ADP ADV VERB
-0.33200875	PROPN ADV VERB
-0.6220403	CCONJ ADV VERB
-0.9507344	ADV ADV VERB
-1.014591	ADJ ADV VERB
-0.8411009	PUNCT ADV VERB
-0.25619927	PRON ADV VERB
-0.36782452	PART ADV VERB
-0.94209373	SCONJ ADV VERB
-0.7534585	NUM ADV VERB
-1.1547499	SYM ADV VERB
-0.80955327	X ADV VERB
-0.9558167	INTJ ADV VERB
-1.686746	<s> ADJ VERB
-2.1858852	DET ADJ VERB
-1.9491516	NOUN ADJ VERB
-1.9327424	AUX ADJ VERB
-2.1769295	VERB ADJ VERB
-2.1623404	ADP ADJ VERB
-1.9027717	PROPN ADJ VERB
-2.060053	CCONJ ADJ VERB
-2.0370631	ADV ADJ VERB
-2.209192	ADJ ADJ VERB
-2.0841725	PUNCT ADJ VERB
-1.3914136	PRON ADJ VERB
-1.9421332	PART ADJ VERB
-1.8637407	SCONJ ADJ VERB
-2.3289697	NUM ADJ VERB
-1.9242742	SYM ADJ VERB
-1.2317711	<s> PUNCT VERB
-1.4131	DET PUNCT VERB
-1.16216	NOUN PUNCT VERB
-1.0227675	AUX PUNCT VERB
-1.2627072	VERB PUNCT VERB
-1.2067759	ADP PUNCT VERB
-1.1037098	PROPN PUNCT VERB
-0.9760019	CCONJ PUNCT VERB
-1.0166091	ADV PUNCT VERB
-1.4459568	ADJ PUNCT VERB
-1.1788464	PUNCT PUNCT VERB
-1.2577114	PRON PUNCT VERB
-0.65224147	PART PUNCT VERB
-1.1766398	SCONJ PUNCT VERB
-1.2953502	NUM PUNCT VERB
-1.0491127	X PUNCT VERB
-1.2407494	INTJ PUNCT VERB
-0.3227194	<s> PRON VERB
-0.21094683	DET PRON VERB
-0.2566722	NOUN PRON VERB
-0.48682472	AUX PRON VERB
-0.77193606	VERB PRON VERB
-0.86085546	ADP PRON VERB
-0.33706188	PROPN PRON VERB
-0.3533704	CCONJ PRON VERB
-0.2282661	ADV PRON VERB
-0.3647651	ADJ PRON VERB
-0.30132058	PUNCT PRON VERB
-0.2427052	PRON PRON VERB
-0.4399557	PART PRON VERB
-0.35103258	SCONJ PRON VERB
-0.25029573	NUM PRON VERB
-0.26355332	SYM PRON VERB
-0.5241277	X PRON VERB
-0.32097924	INTJ PRON VERB
-0.27256155	<s> PART VERB
-0.27274582	DET PART VERB
-0.22413316	NOUN PART VERB
-0.24375841	AUX PART VERB
-0.1356891	VERB PART VERB
-0.22201076	ADP PART VERB
-0.83433515	PROPN PART VERB
-0.38657218	CCONJ PART VERB
-0.12523356	ADV PART VERB
-0.0806718	ADJ PART VERB
-0.23841912	PUNCT PART VERB
-0.18703891	PRON PART VERB
-0.097479194	PART PART VERB
-0.35507232	SCONJ PART VERB
-0.45551538	NUM PART VERB
-0.49689704	SYM PART VERB
-0.17559883	X PART VERB
-0.53274834	INTJ PART VERB
-1.3942751	<s> SCONJ VERB
-1.3998698	DET SCONJ VERB
-1.3594317	NOUN SCONJ VERB
-1.2290325	AUX SCONJ VERB
-1.6183803	VERB SCONJ VERB
-1.7827945	ADP SCONJ VERB
-1.322689	PROPN SCONJ VERB
-1.6923172	CCONJ SCONJ VERB
-1.1808381	ADV SCONJ VERB
-1.4931569	ADJ SCONJ VERB
-1.1871979	PUNCT SCONJ VERB
-1.5672568	PRON SCONJ VERB
-1.9823469	PART SCONJ VERB
-1.7346301	SCONJ SCONJ VERB
-1.4393097	NUM SCONJ VERB
-1.7265795	<s> NUM VERB
-1.6945388	DET NUM VERB
-1.3698231	NOUN NUM VERB
-1.774874	AUX NUM VERB
-1.8036301	VERB NUM VERB
-1.737905	ADP NUM VERB
-1.6768486	PROPN NUM VERB
-1.3693132	CCONJ NUM VERB
-1.7290283	ADV NUM VERB
-1.7293379	ADJ NUM VERB
-1.7228365	PUNCT NUM VERB
-1.5559675	PRON NUM VERB
-2.0286434	PART NUM VERB
-1.7971241	SCONJ NUM VERB
-1.5574919	NUM NUM VERB
-2.06935	SYM NUM VERB
-1.8695766	<s> SYM VERB
-2.1948192	DET SYM VERB
-1.7934686	NOUN SYM VERB
-1.0128964	VERB SYM VERB
-2.1973011	ADP SYM VERB
-2.1260855	PROPN SYM VERB
-1.8198631	ADV SYM VERB
-1.9385192	ADJ SYM VERB
-2.2753851	PUNCT SYM VERB
-1.6023104	PART SYM VERB
-0.6284735	INTJ SYM VERB
-1.6894673	<s> X VERB
-1.6641434	DET X VERB
-1.1252971	NOUN X VERB
-0.93719536	VERB X VERB
-1.3912097	ADP X VERB
-1.905334	PROPN X VERB
-1.7022847	CCONJ X VERB
-1.1810578	ADV X VERB
-1.2606984	ADJ X VERB
-1.674093	PUNCT X VERB
-0.8140684	PRON X VERB
-0.74149853	PART X VERB
-2.1689932	X X VERB
-0.88256407	<s> INTJ VERB
-0.8666215	DET INTJ VERB
-1.0142055	NOUN INTJ VERB
-1.2281952	AUX INTJ VERB
-1.4749808	VERB INTJ VERB
-0.8201105	PROPN INTJ VERB
-1.2052113	CCONJ INTJ VERB
-0.59575045	ADV INTJ VERB
-1.0699855	ADJ INTJ VERB
-0.8223195	PUNCT INTJ VERB
-0.32423154	PRON INTJ VERB
-0.7792387	PART INTJ VERB
-0.9718312	SCONJ INTJ VERB
-0.6837266	NUM INTJ VERB
-0.9519333	X INTJ VERB
-1.2019205	INTJ INTJ VERB
-1.988348	<s> DET ADP
-2.029142	DET DET ADP
-2.134256	NOUN DET ADP
-1.9054962	AUX DET ADP
-2.0057163	VERB DET ADP
-2.2787437	ADP DET ADP
-2.167269	PROPN DET ADP
-1.8917991	CCONJ DET ADP
-1.8440927	ADV DET ADP
-1.5528342	ADJ DET ADP
-1.8854227	PUNCT DET ADP
-1.7247055	PRON DET ADP
-1.646829	PART DET ADP
-1.8171458	SCONJ DET ADP
-1.3950303	NUM DET ADP
-1.6243318	X DET ADP
-0.51111114	<s> NOUN ADP
-0.5042387	DET NOUN ADP
-0.681929	NOUN NOUN ADP
-0.3268303	AUX NOUN ADP
-0.44764876	VERB NOUN ADP
-0.6286977	ADP NOUN ADP
-0.80932575	PROPN NOUN ADP
-0.62876636	CCONJ NOUN ADP
-0.6932297	ADV NOUN ADP
-0.58115166	ADJ NOUN ADP
-0.79520774	PUNCT NOUN ADP
-0.76189417	PRON NOUN ADP
-0.67472374	PART NOUN ADP
-0.64300394	SCONJ NOUN ADP
-0.5688744	NUM NOUN ADP
-1.0258048	SYM NOUN ADP
-0.8628701	X NOUN ADP
-0.9511095	INTJ NOUN ADP
-1.9981146	<s> AUX ADP
-1.5739179	DET AUX ADP
-1.4790896	NOUN AUX ADP
-1.3710841	AUX AUX ADP
-1.473237	VERB AUX ADP
-1.5082886	ADP AUX ADP
-1.4763728	PROPN AUX ADP
-1.6728487	CCONJ AUX ADP
-1.567019	ADV AUX ADP
-1.4730247	ADJ AUX ADP
-1.5201509	PUNCT AUX ADP
-1.4786803	PRON AUX ADP
-1.1853522	PART AUX ADP
-1.297926	SCONJ AUX ADP
-1.3204716	NUM AUX ADP
-1.4422761	INTJ AUX ADP
-0.39770302	<s> VERB ADP
-0.9200487	DET VERB ADP
-0.57371175	NOUN VERB ADP
-0.42435226	AUX VERB ADP
-0.69095504	VERB VERB ADP
-0.89428556	ADP VERB ADP
-0.73777765	PROPN VERB ADP
-0.71191585	CCONJ VERB ADP
-0.59944135	ADV VERB ADP
-0.85759187	ADJ VERB ADP
-0.6728321	PUNCT VERB ADP
-0.8624418	PRON VERB ADP
-0.7696398	PART VERB ADP
-0.5247535	SCONJ VERB ADP
-0.7487355	NUM VERB ADP
-0.874614	SYM VERB ADP
-0.8026127	X VERB ADP
-0.844134	INTJ VERB ADP
-2.0161781	<s> ADP ADP
-2.350203	DET ADP ADP
-2.2340198	NOUN ADP ADP
-1.8151771	AUX ADP ADP
-1.3544188	VERB ADP ADP
-2.14759	ADP ADP ADP
-2.2071483	PROPN ADP ADP
-1.9044662	CCONJ ADP ADP
-2.0350137	ADV ADP ADP
-2.3198562	ADJ ADP ADP
-1.6252468	PUNCT ADP ADP
-1.5765011	PRON ADP ADP
-1.8966093	PART ADP ADP
-2.0544033	SCONJ ADP ADP
-2.4910195	NUM ADP ADP
-1.5025383	<s> PROPN ADP
-1.0224599	DET PROPN ADP
-1.3784921	NOUN PROPN ADP
-1.3440855	AUX PROPN ADP
-0.98963654	VERB PROPN ADP
-1.1429456	ADP PROPN ADP
-1.0626987	PROPN PROPN ADP
-1.3741177	CCONJ PROPN ADP
-1.5292474	ADV PROPN ADP
-1.3383663	ADJ PROPN ADP
-1.3940309	PUNCT PROPN ADP
-1.5358521	PRON PROPN ADP
-0.9554545	PART PROPN ADP
-1.6464268	SCONJ PROPN ADP
-1.2347407	NUM PROPN ADP
-1.2927957	SYM PROPN ADP
-1.3976189	X PROPN ADP
-1.3403267	INTJ PROPN ADP
-1.084376	<s> CCONJ ADP
-1.8368789	DET CCONJ ADP
-1.631247	NOUN CCONJ ADP
-1.2169441	AUX CCONJ ADP
-1.721813	VERB CCONJ ADP
-0.80508196	ADP CCONJ ADP
-1.7432104	PROPN CCONJ ADP
-1.1803825	CCONJ CCONJ ADP
-1.2286369	ADV CCONJ ADP
-1.8591819	ADJ CCONJ ADP
-1.2847277	PUNCT CCONJ ADP
-1.4381894	PRON CCONJ ADP
-1.7209593	PART CCONJ ADP
-1.9790733	SCONJ CCONJ ADP
-1.4700159	NUM CCONJ ADP
-1.3110255	X CCONJ ADP
-1.2289529	INTJ CCONJ ADP
-1.1835815	<s> ADV ADP
-1.9230161	DET ADV ADP
-0.9200218	NOUN ADV ADP
-1.2531925	AUX ADV ADP
-0.72817934	VERB ADV ADP
-1.1782287	ADP ADV ADP
-1.1725423	PROPN ADV ADP
-1.1152431	CCONJ ADV ADP
-1.1441768	ADV ADV ADP
-1.0257257	ADJ ADV ADP
-1.0141826	PUNCT ADV ADP
-1.3832603	PRON ADV ADP
-1.1572342	PART ADV ADP
-1.2133627	SCONJ ADV ADP
-1.2866739	NUM ADV ADP
-1.1733497	INTJ ADV ADP
-1.1970181	<s> ADJ ADP
-2.0050502	DET ADJ ADP
-0.7426006	NOUN ADJ ADP
-0.65132284	AUX ADJ ADP
-1.0662401	VERB ADJ ADP
-1.8584324	ADP ADJ ADP
-1.2349428	PROPN ADJ ADP
-1.3897547	CCONJ ADJ ADP
-0.8149018	ADV ADJ ADP
-2.2370405	ADJ ADJ ADP
-1.4593593	PUNCT ADJ ADP
-0.6489473	PRON ADJ ADP
-1.1546837	PART ADJ ADP
-1.1714724	SCONJ ADJ ADP
-2.03794	NUM ADJ ADP
-1.7409849	SYM ADJ ADP
-1.4804411	X ADJ ADP
-1.3451942	INTJ ADJ ADP
-1.272163	<s> PUNCT ADP
-1.6786095	DET PUNCT ADP
-1.449741	NOUN PUNCT ADP
-1.2523428	AUX PUNCT ADP
-1.4301149	VERB PUNCT ADP
-1.7071965	ADP PUNCT ADP
-1.4574792	PROPN PUNCT ADP
-0.968757	CCONJ PUNCT ADP
-1.336118	ADV PUNCT ADP
-1.6276519	ADJ PUNCT ADP
-1.6244384	PUNCT PUNCT ADP
-1.569434	PRON PUNCT ADP
-1.7513266	PART PUNCT ADP
-1.1324164	SCONJ PUNCT ADP
-1.3499823	NUM PUNCT ADP
-1.5649016	X PUNCT ADP
-1.3045937	INTJ PUNCT ADP
-2.335126	<s> PRON ADP
-2.9779663	DET PRON ADP
-2.2118416	NOUN PRON ADP
-1.1721499	AUX PRON ADP
-0.748484	VERB PRON ADP
-1.1653738	ADP PRON ADP
-2.0643637	PROPN PRON ADP
-2.0961347	CCONJ PRON ADP
-2.2996202	ADV PRON ADP
-1.9852408	ADJ PRON ADP
-2.316794	PUNCT PRON ADP
-2.3067176	PRON PRON ADP
-1.6635485	PART PRON ADP
-2.376745	SCONJ PRON ADP
-1.8331939	NUM PRON ADP
-1.5675627	SYM PRON ADP
-1.7027373	<s> PART ADP
-1.5365831	DET PART ADP
-2.6870387	NOUN PART ADP
-1.7273593	AUX PART ADP
-2.6527433	VERB PART ADP
-2.571149	ADP PART ADP
-2.4812202	PROPN PART ADP
-1.2415994	CCONJ PART ADP
-1.9915463	ADV PART ADP
-2.6259828	ADJ PART ADP
-1.4852208	PUNCT PART ADP
-2.9301045	PRON PART ADP
-2.6851466	PART PART ADP
-1.4641874	SCONJ PART ADP
-1.8707693	NUM PART ADP
-1.1834232	<s> SCONJ ADP
-1.3237066	DET SCONJ ADP
-1.1898624	NOUN SCONJ ADP
-1.0385607	AUX SCONJ ADP
-1.1902015	VERB SCONJ ADP
-1.2674607	ADP SCONJ ADP
-1.2559624	PROPN SCONJ ADP
-1.2075025	CCONJ SCONJ ADP
-1.1787032	ADV SCONJ ADP
-1.5677115	ADJ SCONJ ADP
-1.2462679	PUNCT SCONJ ADP
-1.2014972	PRON SCONJ ADP
-0.8130788	PART SCONJ ADP
-1.4675349	SCONJ SCONJ ADP
-0.5389265	NUM SCONJ ADP
-0.8865316	X SCONJ ADP
-0.6668262	<s> NUM ADP
-1.4750311	DET NUM ADP
-0.94130754	NOUN NUM ADP
-0.48880506	AUX NUM ADP
-0.9117922	VERB NUM ADP
-1.0539455	ADP NUM ADP
-1.2031814	PROPN NUM ADP
-0.8916315	CCONJ NUM ADP
-1.2089598	ADV NUM ADP
-1.4367174	ADJ NUM ADP
-0.9752338	PUNCT NUM ADP
-0.9541587	PRON NUM ADP
-1.4779978	PART NUM ADP
-1.0594914	SCONJ NUM ADP
-1.0086658	NUM NUM ADP
-1.207759	SYM NUM ADP
-1.8920206	<s> SYM ADP
-2.5161335	NOUN SYM ADP
-2.1241348	ADP SYM ADP
-1.9453965	ADV SYM ADP
-2.058347	PUNCT SYM ADP
-1.4516076	PRON SYM ADP
-2.399957	NUM SYM ADP
-0.89158595	SYM SYM ADP
-2.3762767	<s> X ADP
-1.7027137	DET X ADP
-1.3588178	NOUN X ADP
-1.4976851	VERB X ADP
-1.2026486	ADP X ADP
-2.3196175	PROPN X ADP
-1.7388704	CCONJ X ADP
-1.2156641	ADV X ADP
-1.2979211	ADJ X ADP
-1.8924686	PUNCT X ADP
-1.8227235	X X ADP
-1.6873032	<s> INTJ ADP
-0.9259645	DET INTJ ADP
-1.4358865	NOUN INTJ ADP
-1.3024064	AUX INTJ ADP
-0.6113841	VERB INTJ ADP
-1.187529	ADP INTJ ADP
-1.265729	PROPN INTJ ADP
-1.5028609	CCONJ INTJ ADP
-1.4699271	ADV INTJ ADP
-1.0689491	ADJ INTJ ADP
-1.4810911	PUNCT INTJ ADP
-0.96298665	<s> DET PROPN
-1.2378626	DET DET PROPN
-1.3356823	NOUN DET PROPN
-1.4209133	AUX DET PROPN
-1.2354505	VERB DET PROPN
-0.8791219	ADP DET PROPN
-0.92431545	PROPN DET PROPN
-0.9546588	CCONJ DET PROPN
-1.1620147	ADV DET PROPN
-1.3617009	ADJ DET PROPN
-0.90260375	PUNCT DET PROPN
-1.3026942	PRON DET PROPN
-1.233743	PART DET PROPN
-1.0081112	SCONJ DET PROPN
-1.2329326	NUM DET PROPN
-1.5420219	SYM DET PROPN
-0.85698956	X DET PROPN
-1.2375369	INTJ DET PROPN
-1.5754198	<s> NOUN PROPN
-2.0861964	DET NOUN PROPN
-1.5818219	NOUN NOUN PROPN
-2.3753636	AUX NOUN PROPN
-2.066817	VERB NOUN PROPN
-2.0288825	ADP NOUN PROPN
-1.1380063	PROPN NOUN PROPN
-1.8246465	CCONJ NOUN PROPN
-1.9635525	ADV NOUN PROPN
-1.7408415	ADJ NOUN PROPN
-1.5448991	PUNCT NOUN PROPN
-1.98084	PRON NOUN PROPN
-1.8544775	PART NOUN PROPN
-1.9777765	SCONJ NOUN PROPN
-2.0168371	NUM NOUN PROPN
-1.4459156	SYM NOUN PROPN
-1.0449779	X NOUN PROPN
-1.4883516	INTJ NOUN PROPN
-1.3426782	<s> AUX PROPN
-1.908195	DET AUX PROPN
-1.9933167	NOUN AUX PROPN
-2.5691082	AUX AUX PROPN
-2.3317409	VERB AUX PROPN
-1.5759118	ADP AUX PROPN
-1.8911984	PROPN AUX PROPN
-2.5201592	CCONJ AUX PROPN
-1.6344371	ADV AUX PROPN
-1.6348602	ADJ AUX PROPN
-1.7923881	PUNCT AUX PROPN
-2.00025	PRON AUX PROPN
-2.0215738	PART AUX PROPN
-1.415486	SCONJ AUX PROPN
-1.4643391	NUM AUX PROPN
-1.1718919	X AUX PROPN
-1.2298405	<s> VERB PROPN
-1.375717	DET VERB PROPN
-1.5225056	NOUN VERB PROPN
-1.8489606	AUX VERB PROPN
-1.5161842	VERB VERB PROPN
-1.2734709	ADP VERB PROPN
-1.2861367	PROPN VERB PROPN
-1.6642946	CCONJ VERB PROPN
-1.5453151	ADV VERB PROPN
-1.4525867	ADJ VERB PROPN
-1.1844791	PUNCT VERB PROPN
-1.6535257	PRON VERB PROPN
-1.4569052	PART VERB PROPN
-1.5853299	SCONJ VERB PROPN
-1.3554325	NUM VERB PROPN
-1.5073028	SYM VERB PROPN
-1.660626	X VERB PROPN
-1.1823182	INTJ VERB PROPN
-0.7193862	<s> ADP PROPN
-1.0727717	DET ADP PROPN
-0.70514584	NOUN ADP PROPN
-0.9433433	AUX ADP PROPN
-0.8323031	VERB ADP PROPN
-0.9193533	ADP ADP PROPN
-0.2750235	PROPN ADP PROPN
-0.9906428	CCONJ ADP PROPN
-0.8078041	ADV ADP PROPN
-0.98058367	ADJ ADP PROPN
-0.8186851	PUNCT ADP PROPN
-1.0837983	PRON ADP PROPN
-0.84083205	PART ADP PROPN
-0.97545904	SCONJ ADP PROPN
-0.88106656	NUM ADP PROPN
-1.2855942	SYM ADP PROPN
-0.4740728	X ADP PROPN
-0.54645383	INTJ ADP PROPN
-0.4193536	<s> PROPN PROPN
-0.38170743	DET PROPN PROPN
-0.28700656	NOUN PROPN PROPN
-0.5101452	AUX PROPN PROPN
-0.55203474	VERB PROPN PROPN
-0.6035903	ADP PROPN PROPN
-0.5117466	PROPN PROPN PROPN
-0.6598095	CCONJ PROPN PROPN
-0.5985703	ADV PROPN PROPN
-0.73715943	ADJ PROPN PROPN
-0.4610289	PUNCT PROPN PROPN
-0.6015041	PRON PROPN PROPN
-0.36866286	PART PROPN PROPN
-0.5980886	SCONJ PROPN PROPN
-0.5596615	NUM PROPN PROPN
-0.9224811	SYM PROPN PROPN
-0.31448543	X PROPN PROPN
-0.56450564	INTJ PROPN PROPN
-1.1329792	<s> CCONJ PROPN
-1.2153393	DET CCONJ PROPN
-1.4060841	NOUN CCONJ PROPN
-1.7401005	AUX CCONJ PROPN
-1.4498549	VERB CCONJ PROPN
-1.1347815	ADP CCONJ PROPN
-0.24163973	PROPN CCONJ PROPN
-1.0239452	CCONJ CCONJ PROPN
-1.4655385	ADV CCONJ PROPN
-1.524505	ADJ CCONJ PROPN
-1.054183	PUNCT CCONJ PROPN
-1.4142934	PRON CCONJ PROPN
-0.47764155	PART CCONJ PROPN
-1.1416758	SCONJ CCONJ PROPN
-0.87441254	NUM CCONJ PROPN
-0.8457369	SYM CCONJ PROPN
-1.2444437	X CCONJ PROPN
-0.97355783	INTJ CCONJ PROPN
-1.6237073	<s> ADV PROPN
-2.3639534	DET ADV PROPN
-1.7939023	NOUN ADV PROPN
-2.2153022	AUX ADV PROPN
-1.9310396	VERB ADV PROPN
-1.6256833	ADP ADV PROPN
-1.6020501	PROPN ADV PROPN
-1.7251967	CCONJ ADV PROPN
-2.098144	ADV ADV PROPN
-2.075717	ADJ ADV PROPN
-1.5412333	PUNCT ADV PROPN
-2.917507	PRON ADV PROPN
-1.891859	PART ADV PROPN
-1.5357355	SCONJ ADV PROPN
-1.2623003	NUM ADV PROPN
-1.109735	X ADV PROPN
-1.5473047	INTJ ADV PROPN
-0.97425747	<s> ADJ PROPN
-1.391609	DET ADJ PROPN
-1.3790268	NOUN ADJ PROPN
-2.186079	AUX ADJ PROPN
-1.611427	VERB ADJ PROPN
-1.3001354	ADP ADJ PROPN
-0.9506594	PROPN ADJ PROPN
-1.5931568	CCONJ ADJ PROPN
-1.7639923	ADV ADJ PROPN
-1.481735	ADJ ADJ PROPN
-0.50138724	PUNCT ADJ PROPN
-1.8967781	PRON ADJ PROPN
-1.5388463	PART ADJ PROPN
-1.3508154	SCONJ ADJ PROPN
-1.4481691	NUM ADJ PROPN
-1.3937104	SYM ADJ PROPN
-1.0722921	X ADJ PROPN
-0.87973964	INTJ ADJ PROPN
-0.8838032	<s> PUNCT PROPN
-0.8396623	DET PUNCT PROPN
-1.3085482	NOUN PUNCT PROPN
-1.449799	AUX PUNCT PROPN
-1.3230686	VERB PUNCT PROPN
-0.9652535	ADP PUNCT PROPN
-0.67605996	PROPN PUNCT PROPN
-0.89285684	CCONJ PUNCT PROPN
-1.2937055	ADV PUNCT PROPN
-1.4661986	ADJ PUNCT PROPN
-1.0318087	PUNCT PUNCT PROPN
-1.5801089	PRON PUNCT PROPN
-1.0247778	PART PUNCT PROPN
-0.91587853	SCONJ PUNCT PROPN
-1.1492795	NUM PUNCT PROPN
-1.027025	SYM PUNCT PROPN
-0.9563522	X PUNCT PROPN
-1.2468429	INTJ PUNCT PROPN
-2.7743065	<s> PRON PROPN
-2.7071471	DET PRON PROPN
-2.7522006	NOUN PRON PROPN
-1.8448031	AUX PRON PROPN
-2.0358846	VERB PRON PROPN
-1.9261044	ADP PRON PROPN
-1.6544331	PROPN PRON PROPN
-2.768245	CCONJ PRON PROPN
-2.446367	ADV PRON PROPN
-2.3202	ADJ PRON PROPN
-2.6002762	PUNCT PRON PROPN
-2.5371974	PRON PRON PROPN
-2.3342094	PART PRON PROPN
-2.8411427	SCONJ PRON PROPN
-1.224794	X PRON PROPN
-1.9559864	INTJ PRON PROPN
-2.6113985	<s> PART PROPN
-1.8251513	NOUN PART PROPN
-2.391897	AUX PART PROPN
-3.4296052	VERB PART PROPN
-2.6112864	ADP PART PROPN
-0.7394256	PROPN PART PROPN
-1.6322418	CCONJ PART PROPN
-2.6909022	ADV PART PROPN
-3.2950644	ADJ PART PROPN
-1.849298	PUNCT PART PROPN
-2.965348	PRON PART PROPN
-2.3611166	SCONJ PART PROPN
-2.1282318	NUM PART PROPN
-0.9910279	<s> SCONJ PROPN
-1.0482445	DET SCONJ PROPN
-0.9529624	NOUN SCONJ PROPN
-1.1427635	AUX SCONJ PROPN
-1.001434	VERB SCONJ PROPN
-0.9559439	ADP SCONJ PROPN
-1.0049491	PROPN SCONJ PROPN
-1.2135358	CCONJ SCONJ PROPN
-1.1562195	ADV SCONJ PROPN
-0.99557656	ADJ SCONJ PROPN
-1.0594732	PUNCT SCONJ PROPN
-1.232465	PRON SCONJ PROPN
-1.5586478	PART SCONJ PROPN
-1.1715375	SCONJ SCONJ PROPN
-1.1874253	NUM SCONJ PROPN
-1.281697	<s> NUM PROPN
-0.93545246	DET NUM PROPN
-1.3437097	NOUN NUM PROPN
-1.756232	AUX NUM PROPN
-1.4365067	VERB NUM PROPN
-1.270854	ADP NUM PROPN
-1.2927731	PROPN NUM PROPN
-1.4547023	CCONJ NUM PROPN
-1.5267514	ADV NUM PROPN
-1.5304661	ADJ NUM PROPN
-1.1870692	PUNCT NUM PROPN
-1.545699	PRON NUM PROPN
-1.256987	PART NUM PROPN
-1.6059253	SCONJ NUM PROPN
-1.1038558	NUM NUM PROPN
-1.6071628	SYM NUM PROPN
-0.8823849	X NUM PROPN
-0.23561476	<s> SYM PROPN
-0.5038401	DET SYM PROPN
-0.56214976	NOUN SYM PROPN
-0.44457647	AUX SYM PROPN
-0.5076328	VERB SYM PROPN
-0.2653363	ADP SYM PROPN
-0.08597236	PROPN SYM PROPN
-1.3780549	CCONJ SYM PROPN
-0.73169917	ADV SYM PROPN
-0.64902806	ADJ SYM PROPN
-0.3197796	PUNCT SYM PROPN
-0.7365503	PRON SYM PROPN
-0.7503132	PART SYM PROPN
-0.62005156	SCONJ SYM PROPN
-1.7863915	NUM SYM PROPN
-0.14083786	X SYM PROPN
-1.536459	<s> X PROPN
-0.5764796	DET X PROPN
-1.3252057	NOUN X PROPN
-0.933283	AUX X PROPN
-0.9113375	VERB X PROPN
-1.5417572	ADP X PROPN
-0.2596779	PROPN X PROPN
-1.6367319	CCONJ X PROPN
-1.0642836	ADV X PROPN
-1.14388	ADJ X PROPN
-1.08534	PUNCT X PROPN
-0.7800045	PRON X PROPN
-0.7122966	PART X PROPN
-1.0348803	SCONJ X PROPN
-0.98228216	NUM X PROPN
-0.58141816	X X PROPN
-0.53099865	INTJ X PROPN
-1.2464559	<s> INTJ PROPN
-1.0609	NOUN INTJ PROPN
-1.5731399	VERB INTJ PROPN
-0.7514523	ADP INTJ PROPN
-0.7334479	PROPN INTJ PROPN
-1.2483001	CCONJ INTJ PROPN
-1.2943063	PUNCT INTJ PROPN
-1.3537993	PRON INTJ PROPN
-0.9653499	SCONJ INTJ PROPN
-0.7049468	X INTJ PROPN
-1.6926359	INTJ INTJ PROPN
-0.07815065	NOUN SPACE PROPN
-3.4379036	<s> DET CCONJ
-2.9220574	DET DET CCONJ
-3.600367	NOUN DET CCONJ
-2.9869752	AUX DET CCONJ
-3.0929005	VERB DET CCONJ
-3.1404493	ADP DET CCONJ
-3.028857	PROPN DET CCONJ
-3.2822402	CCONJ DET CCONJ
-3.2683673	ADV DET CCONJ
-3.6286945	PUNCT DET CCONJ
-2.5146694	PRON DET CCONJ
-3.358665	SCONJ DET CCONJ
-2.0007415	NUM DET CCONJ
-1.4206948	<s> NOUN CCONJ
-1.3058197	DET NOUN CCONJ
-1.1358958	NOUN NOUN CCONJ
-1.306037	AUX NOUN CCONJ
-1.0623099	VERB NOUN CCONJ
-0.9945202	ADP NOUN CCONJ
-1.3127259	PROPN NOUN CCONJ
-1.5588471	CCONJ NOUN CCONJ
-1.2201093	ADV NOUN CCONJ
-1.1931005	ADJ NOUN CCONJ
-0.95937955	PUNCT NOUN CCONJ
-1.2725247	PRON NOUN CCONJ
-1.234622	PART NOUN CCONJ
-1.1661935	SCONJ NOUN CCONJ
-1.309234	NUM NOUN CCONJ
-1.1330469	SYM NOUN CCONJ
-1.5265622	X NOUN CCONJ
-1.3179835	INTJ NOUN CCONJ
-3.0678244	DET AUX CCONJ
-2.782103	NOUN AUX CCONJ
-2.9922369	AUX AUX CCONJ
-2.7631638	VERB AUX CCONJ
-2.5696077	ADP AUX CCONJ
-2.8707457	PROPN AUX CCONJ
-3.1387343	CCONJ AUX CCONJ
-2.6158202	ADV AUX CCONJ
-2.9004042	PUNCT AUX CCONJ
-2.606714	PRON AUX CCONJ
-2.6815588	PART AUX CCONJ
-2.2197864	SCONJ AUX CCONJ
-2.306599	NUM AUX CCONJ
-2.2661984	<s> VERB CCONJ
-1.9937702	DET VERB CCONJ
-1.9530371	NOUN VERB CCONJ
-1.5152285	AUX VERB CCONJ
-1.6979039	VERB VERB CCONJ
-1.6376328	ADP VERB CCONJ
-2.0776591	PROPN VERB CCONJ
-2.0972369	CCONJ VERB CCONJ
-1.7076966	ADV VERB CCONJ
-1.8143641	ADJ VERB CCONJ
-1.7379415	PUNCT VERB CCONJ
-1.9840865	PRON VERB CCONJ
-1.5820494	PART VERB CCONJ
-1.7575988	SCONJ VERB CCONJ
-1.7104226	NUM VERB CCONJ
-1.5077668	SYM VERB CCONJ
-1.6611459	X VERB CCONJ
-1.8896482	INTJ VERB CCONJ
-3.718926	<s> ADP CCONJ
-2.4319098	DET ADP CCONJ
-2.7532456	NOUN ADP CCONJ
-2.3808544	AUX ADP CCONJ
-2.1343164	VERB ADP CCONJ
-2.7073224	ADP ADP CCONJ
-2.9546976	PROPN ADP CCONJ
-2.329506	CCONJ ADP CCONJ
-2.9932697	ADV ADP CCONJ
-2.4608557	ADJ ADP CCONJ
-2.5661452	PUNCT ADP CCONJ
-2.006026	PRON ADP CCONJ
-2.5329053	PART ADP CCONJ
-2.7942255	SCONJ ADP CCONJ
-1.640975	X ADP CCONJ
-1.8583498	<s> PROPN CCONJ
-1.4306897	DET PROPN CCONJ
-1.5874007	NOUN PROPN CCONJ
-1.3907363	AUX PROPN CCONJ
-1.234609	VERB PROPN CCONJ
-1.149079	ADP PROPN CCONJ
-1.2719358	PROPN PROPN CCONJ
-1.5461029	CCONJ PROPN CCONJ
-1.3173287	ADV PROPN CCONJ
-1.6220268	ADJ PROPN CCONJ
-1.3263377	PUNCT PROPN CCONJ
-1.5716555	PRON PROPN CCONJ
-1.2627051	PART PROPN CCONJ
-1.2560791	SCONJ PROPN CCONJ
-1.4602238	NUM PROPN CCONJ
-1.4067135	SYM PROPN CCONJ
-1.951425	X PROPN CCONJ
-1.3403267	INTJ PROPN CCONJ
-3.4629498	<s> CCONJ CCONJ
-3.3799996	NOUN CCONJ CCONJ
-3.316501	VERB CCONJ CCONJ
-2.8197918	ADP CCONJ CCONJ
-3.7369938	PROPN CCONJ CCONJ
-2.9742537	ADV CCONJ CCONJ
-3.387032	ADJ CCONJ CCONJ
-3.303259	PUNCT CCONJ CCONJ
-2.816934	NUM CCONJ CCONJ
-2.6921976	<s> ADV CCONJ
-2.4121313	DET ADV CCONJ
-1.5625181	NOUN ADV CCONJ
-2.1934457	AUX ADV CCONJ
-1.4410173	VERB ADV CCONJ
-1.6415857	ADP ADV CCONJ
-1.807247	PROPN ADV CCONJ
-1.9917941	CCONJ ADV CCONJ
-1.7809012	ADV ADV CCONJ
-1.6231492	ADJ ADV CCONJ
-2.0476055	PUNCT ADV CCONJ
-1.89815	PRON ADV CCONJ
-2.404234	PART ADV CCONJ
-2.0362568	SCONJ ADV CCONJ
-2.1260092	NUM ADV CCONJ
-1.5630438	INTJ ADV CCONJ
-1.7498724	<s> ADJ CCONJ
-1.7023175	DET ADJ CCONJ
-1.3864117	NOUN ADJ CCONJ
-1.1742892	AUX ADJ CCONJ
-1.4308577	VERB ADJ CCONJ
-1.5426645	ADP ADJ CCONJ
-1.6093173	PROPN ADJ CCONJ
-1.6943182	CCONJ ADJ CCONJ
-1.2236712	ADV ADJ CCONJ
-1.6818817	ADJ ADJ CCONJ
-1.3817097	PUNCT ADJ CCONJ
-1.2514393	PRON ADJ CCONJ
-1.5352805	PART ADJ CCONJ
-1.5252976	SCONJ ADJ CCONJ
-1.633035	NUM ADJ CCONJ
-1.7409849	SYM ADJ CCONJ
-1.4804411	X ADJ CCONJ
-1.3451942	INTJ ADJ CCONJ
-1.7754244	<s> PUNCT CCONJ
-1.7137272	DET PUNCT CCONJ
-1.1772128	NOUN PUNCT CCONJ
-1.2637843	AUX PUNCT CCONJ
-1.2306513	VERB PUNCT CCONJ
-1.4188367	ADP PUNCT CCONJ
-1.3805819	PROPN PUNCT CCONJ
-2.052237	CCONJ PUNCT CCONJ
-1.3527172	ADV PUNCT CCONJ
-1.1397518	ADJ PUNCT CCONJ
-1.430709	PUNCT PUNCT CCONJ
-1.2162099	PRON PUNCT CCONJ
-1.4704944	PART PUNCT CCONJ
-2.1950145	SCONJ PUNCT CCONJ
-1.3825072	NUM PUNCT CCONJ
-1.400978	SYM PUNCT CCONJ
-1.5886126	X PUNCT CCONJ
-1.4266075	INTJ PUNCT CCONJ
-2.826912	<s> PRON CCONJ
-2.8684297	DET PRON CCONJ
-2.5073047	NOUN PRON CCONJ
-2.1831617	AUX PRON CCONJ
-1.5689094	VERB PRON CCONJ
-1.2830821	ADP PRON CCONJ
-2.2147644	PROPN PRON CCONJ
-2.5501761	CCONJ PRON CCONJ
-2.4083583	ADV PRON CCONJ
-2.5467372	ADJ PRON CCONJ
-2.5306833	PUNCT PRON CCONJ
-3.0343225	PRON PRON CCONJ
-2.3715124	PART PRON CCONJ
-2.2060223	SCONJ PRON CCONJ
-2.8765438	NOUN PART CCONJ
-2.9781175	AUX PART CCONJ
-3.1838512	VERB PART CCONJ
-2.227535	PROPN PART CCONJ
-2.6924288	CCONJ PART CCONJ
-3.0802996	ADV PART CCONJ
-3.4117866	ADJ PART CCONJ
-1.6447303	NUM PART CCONJ
-2.898849	<s> SCONJ CCONJ
-2.9711907	NOUN SCONJ CCONJ
-2.6840496	AUX SCONJ CCONJ
-2.4533837	VERB SCONJ CCONJ
-1.3450762	ADP SCONJ CCONJ
-3.003927	PROPN SCONJ CCONJ
-2.6938167	CCONJ SCONJ CCONJ
-2.9662983	ADV SCONJ CCONJ
-2.8761303	ADJ SCONJ CCONJ
-2.6919434	PUNCT SCONJ CCONJ
-2.5169623	PRON SCONJ CCONJ
-2.1473055	NUM SCONJ CCONJ
-2.152982	<s> NUM CCONJ
-2.1430943	DET NUM CCONJ
-1.4354236	NOUN NUM CCONJ
-1.6810712	AUX NUM CCONJ
-1.7649752	VERB NUM CCONJ
-1.4121058	ADP NUM CCONJ
-1.5317037	PROPN NUM CCONJ
-2.1696317	CCONJ NUM CCONJ
-1.9225895	ADV NUM CCONJ
-1.8432958	ADJ NUM CCONJ
-1.9115242	PUNCT NUM CCONJ
-1.7200882	PRON NUM CCONJ
-2.1325495	PART NUM CCONJ
-1.7568871	SCONJ NUM CCONJ
-1.7934734	NUM NUM CCONJ
-1.7800827	SYM NUM CCONJ
-2.652618	NOUN SYM CCONJ
-2.5324085	VERB SYM CCONJ
-2.7387037	NUM SYM CCONJ
-2.1100776	NOUN X CCONJ
-1.0488896	AUX X CCONJ
-1.266276	VERB X CCONJ
-1.3729334	ADP X CCONJ
-2.4012985	PUNCT X CCONJ
-0.91595536	SCONJ X CCONJ
-1.9818414	X X CCONJ
-2.3603158	<s> INTJ CCONJ
-1.4653726	VERB INTJ CCONJ
-1.7287986	CCONJ INTJ CCONJ
-1.3469698	ADV INTJ CCONJ
-1.1924679	ADJ INTJ CCONJ
-2.3375561	PUNCT INTJ CCONJ
-1.3497609	PRON INTJ CCONJ
-1.088924	SCONJ INTJ CCONJ
-1.8575552	<s> DET ADV
-1.8022273	DET DET ADV
-1.581355	NOUN DET ADV
-1.3797774	AUX DET ADV
-1.8827181	VERB DET ADV
-1.899171	ADP DET ADV
-1.6599656	PROPN DET ADV
-1.8615586	CCONJ DET ADV
-1.7415406	ADV DET ADV
-1.6069176	ADJ DET ADV
-1.7239193	PUNCT DET ADV
-1.4852474	PRON DET ADV
-1.7362363	PART DET ADV
-1.9574757	SCONJ DET ADV
-1.7055006	NUM DET ADV
-1.5501609	SYM DET ADV
-1.4321443	INTJ DET ADV
-1.7180947	<s> NOUN ADV
-1.5418118	DET NOUN ADV
-1.6675115	NOUN NOUN ADV
-1.5736909	AUX NOUN ADV
-1.578161	VERB NOUN ADV
-1.7086895	ADP NOUN ADV
-1.6759245	PROPN NOUN ADV
-1.674234	CCONJ NOUN ADV
-1.5895954	ADV NOUN ADV
-1.6258432	ADJ NOUN ADV
-1.8994783	PUNCT NOUN ADV
-1.6740063	PRON NOUN ADV
-1.625436	PART NOUN ADV
-1.8079947	SCONJ NOUN ADV
-1.1948522	NUM NOUN ADV
-1.6914747	SYM NOUN ADV
-1.9899788	X NOUN ADV
-1.5409402	INTJ NOUN ADV
-1.7328277	<s> AUX ADV
-0.74402773	DET AUX ADV
-0.8068188	NOUN AUX ADV
-1.1054779	AUX AUX ADV
-1.0921278	VERB AUX ADV
-1.0346016	ADP AUX ADV
-0.81198394	PROPN AUX ADV
-0.78766775	CCONJ AUX ADV
-1.3353697	ADV AUX ADV
-0.98116994	ADJ AUX ADV
-0.89323556	PUNCT AUX ADV
-0.83767486	PRON AUX ADV
-1.0791819	PART AUX ADV
-1.0246845	SCONJ AUX ADV
-0.9525043	NUM AUX ADV
-0.88736486	X AUX ADV
-1.0571711	INTJ AUX ADV
-1.5323004	<s> VERB ADV
-1.3722452	DET VERB ADV
-1.2421618	NOUN VERB ADV
-1.2299029	AUX VERB ADV
-1.2865537	VERB VERB ADV
-1.5590822	ADP VERB ADV
-1.3530777	PROPN VERB ADV
-1.371903	CCONJ VERB ADV
-1.4339718	ADV VERB ADV
-1.4605987	ADJ VERB ADV
-1.4537808	PUNCT VERB ADV
-1.1489029	PRON VERB ADV
-1.3588398	PART VERB ADV
-1.4301026	SCONJ VERB ADV
-1.4652406	NUM VERB ADV
-1.3547252	SYM VERB ADV
-1.6611459	X VERB ADV
-1.5157205	INTJ VERB ADV
-1.7461005	<s> ADP ADV
-2.0571318	DET ADP ADV
-1.9808167	NOUN ADP ADV
-1.8203659	AUX ADP ADV
-1.7682195	VERB ADP ADV
-1.751674	ADP ADP ADV
-2.2571445	PROPN ADP ADV
-1.5747685	CCONJ ADP ADV
-1.7901171	ADV ADP ADV
-1.9372015	ADJ ADP ADV
-1.744655	PUNCT ADP ADV
-1.7077701	PRON ADP ADV
-2.4822557	PART ADP ADV
-1.5612671	SCONJ ADP ADV
-2.420408	NUM ADP ADV
-1.285982	SYM ADP ADV
-1.6005976	X ADP ADV
-1.8205837	INTJ ADP ADV
-1.7385064	<s> PROPN ADV
-2.0378087	DET PROPN ADV
-2.0275168	NOUN PROPN ADV
-1.5364368	AUX PROPN ADV
-1.7331891	VERB PROPN ADV
-1.8919985	ADP PROPN ADV
-1.9520246	PROPN PROPN ADV
-1.9524094	CCONJ PROPN ADV
-1.8429648	ADV PROPN ADV
-2.101141	ADJ PROPN ADV
-2.1266258	PUNCT PROPN ADV
-1.7582794	PRON PROPN ADV
-2.0651388	PART PROPN ADV
-1.7459209	SCONJ PROPN ADV
-1.9955037	NUM PROPN ADV
-1.6807843	SYM PROPN ADV
-1.6986713	INTJ PROPN ADV
-0.8300075	<s> CCONJ ADV
-1.5248408	DET CCONJ ADV
-1.3781627	NOUN CCONJ ADV
-0.94668186	AUX CCONJ ADV
-1.2758269	VERB CCONJ ADV
-1.2159755	ADP CCONJ ADV
-1.6156433	PROPN CCONJ ADV
-1.0313386	CCONJ CCONJ ADV
-0.4666001	ADV CCONJ ADV
-1.1326616	ADJ CCONJ ADV
-0.9314083	PUNCT CCONJ ADV
-1.1866919	PRON CCONJ ADV
-1.7209593	PART CCONJ ADV
-1.3139356	SCONJ CCONJ ADV
-1.2144389	NUM CCONJ ADV
-1.3110255	X CCONJ ADV
-1.169692	INTJ CCONJ ADV
-1.0555019	<s> ADV ADV
-1.3760685	DET ADV ADV
-1.006694	NOUN ADV ADV
-1.1150416	AUX ADV ADV
-1.0276676	VERB ADV ADV
-1.1174613	ADP ADV ADV
-1.1524569	PROPN ADV ADV
-1.0917963	CCONJ ADV ADV
-1.2590107	ADV ADV ADV
-0.956135	ADJ ADV ADV
-0.9704542	PUNCT ADV ADV
-1.2255205	PRON ADV ADV
-1.2602619	PART ADV ADV
-1.0163523	SCONJ ADV ADV
-1.2830952	NUM ADV ADV
-1.084322	SYM ADV ADV
-1.0277892	X ADV ADV
-1.316871	INTJ ADV ADV
-2.2003562	<s> ADJ ADV
-2.533296	DET ADJ ADV
-1.987902	NOUN ADJ ADV
-1.6194168	AUX ADJ ADV
-1.9701376	VERB ADJ ADV
-2.558229	ADP ADJ ADV
-2.373789	PROPN ADJ ADV
-2.1877613	CCONJ ADJ ADV
-1.803597	ADV ADJ ADV
-2.640561	ADJ ADJ ADV
-2.4776669	PUNCT ADJ ADV
-1.64435	PRON ADJ ADV
-1.5581195	PART ADJ ADV
-2.1578631	SCONJ ADJ ADV
-2.6968374	NUM ADJ ADV
-1.1707202	<s> PUNCT ADV
-1.5484664	DET PUNCT ADV
-1.4902889	NOUN PUNCT ADV
-1.0533348	AUX PUNCT ADV
-1.4957281	VERB PUNCT ADV
-1.5870234	ADP PUNCT ADV
-1.5478573	PROPN PUNCT ADV
-0.93066067	CCONJ PUNCT ADV
-1.3498008	ADV PUNCT ADV
-1.481439	ADJ PUNCT ADV
-1.6037163	PUNCT PUNCT ADV
-1.4538418	PRON PUNCT ADV
-1.2648406	PART PUNCT ADV
-1.2615625	SCONJ PUNCT ADV
-1.5419587	NUM PUNCT ADV
-1.4643569	SYM PUNCT ADV
-1.5760467	X PUNCT ADV
-1.274483	INTJ PUNCT ADV
-1.1493504	<s> PRON ADV
-1.4299248	DET PRON ADV
-1.4329897	NOUN PRON ADV
-1.0735512	AUX PRON ADV
-1.1439509	VERB PRON ADV
-1.3317491	ADP PRON ADV
-1.4362324	PROPN PRON ADV
-1.1805626	CCONJ PRON ADV
-1.4872332	ADV PRON ADV
-1.7016122	ADJ PRON ADV
-1.3012298	PUNCT PRON ADV
-1.5023828	PRON PRON ADV
-1.2686812	PART PRON ADV
-1.4587743	SCONJ PRON ADV
-1.5289363	NUM PRON ADV
-1.5472741	SYM PRON ADV
-1.2694998	X PRON ADV
-1.5238485	INTJ PRON ADV
-0.8134951	<s> PART ADV
-0.8827985	DET PART ADV
-1.6267799	NOUN PART ADV
-1.0091306	AUX PART ADV
-1.6353413	VERB PART ADV
-1.5133593	ADP PART ADV
-1.7206627	PROPN PART ADV
-1.1119305	CCONJ PART ADV
-1.5459682	ADV PART ADV
-1.7388966	ADJ PART ADV
-0.98484665	PUNCT PART ADV
-1.6018351	PRON PART ADV
-1.6692778	PART PART ADV
-0.8709163	SCONJ PART ADV
-1.6110991	NUM PART ADV
-1.5155786	<s> SCONJ ADV
-1.6003804	DET SCONJ ADV
-1.7629524	NOUN SCONJ ADV
-1.7746114	AUX SCONJ ADV
-1.6653699	VERB SCONJ ADV
-1.6879919	ADP SCONJ ADV
-1.882273	PROPN SCONJ ADV
-1.6613963	CCONJ SCONJ ADV
-1.6160204	ADV SCONJ ADV
-1.591011	ADJ SCONJ ADV
-1.5578113	PUNCT SCONJ ADV
-1.7746027	PRON SCONJ ADV
-1.9765028	SCONJ SCONJ ADV
-2.0611687	NUM SCONJ ADV
-2.085936	<s> NUM ADV
-2.0809038	DET NUM ADV
-2.0712304	NOUN NUM ADV
-1.9432932	AUX NUM ADV
-2.1151938	VERB NUM ADV
-1.9807594	ADP NUM ADV
-1.999079	PROPN NUM ADV
-1.9567405	CCONJ NUM ADV
-2.1753588	ADV NUM ADV
-2.0304165	ADJ NUM ADV
-2.1360734	PUNCT NUM ADV
-2.2694051	PART NUM ADV
-2.1440103	SCONJ NUM ADV
-2.0160449	NUM NUM ADV
-2.259763	SYM NUM ADV
-0.94350225	INTJ NUM ADV
-1.9213985	<s> SYM ADV
-2.4384592	NOUN SYM ADV
-1.5405037	AUX SYM ADV
-2.311584	VERB SYM ADV
-2.372935	ADP SYM ADV
-2.644732	PROPN SYM ADV
-2.4705207	PUNCT SYM ADV
-1.67846	PRON SYM ADV
-1.8473284	SCONJ SYM ADV
-2.4742317	<s> X ADV
-2.199673	NOUN X ADV
-1.0622959	AUX X ADV
-1.4502758	VERB X ADV
-2.267867	PROPN X ADV
-1.4079034	ADJ X ADV
-1.7373537	<s> INTJ ADV
-0.91342944	DET INTJ ADV
-1.2039777	NOUN INTJ ADV
-1.09101	AUX INTJ ADV
-1.5968661	VERB INTJ ADV
-1.1080115	ADP INTJ ADV
-1.3948687	PROPN INTJ ADV
-1.6305087	CCONJ INTJ ADV
-1.7150812	PUNCT INTJ ADV
-1.2765342	PRON INTJ ADV
-1.0264432	SCONJ INTJ ADV
-1.7263011	INTJ INTJ ADV
-0.72716385	<s> DET ADJ
-0.6937608	DET DET ADJ
-1.2066742	NOUN DET ADJ
-0.46013707	AUX DET ADJ
-0.6513664	VERB DET ADJ
-0.65173596	ADP DET ADJ
-0.89182514	PROPN DET ADJ
-0.6804694	CCONJ DET ADJ
-0.62509024	ADV DET ADJ
-0.85888743	ADJ DET ADJ
-0.6948007	PUNCT DET ADJ
-0.8074376	PRON DET ADJ
-0.4464848	PART DET ADJ
-0.68858826	SCONJ DET ADJ
-1.0264584	NUM DET ADJ
-0.5736877	SYM DET ADJ
-0.75096506	X DET ADJ
-1.2377886	INTJ DET ADJ
-2.2491114	<s> NOUN ADJ
-2.151057	DET NOUN ADJ
-2.1090324	NOUN NOUN ADJ
-1.822362	AUX NOUN ADJ
-1.9639832	VERB NOUN ADJ
-2.0732267	ADP NOUN ADJ
-2.172028	PROPN NOUN ADJ
-2.1328194	CCONJ NOUN ADJ
-2.1070065	ADV NOUN ADJ
-2.160282	ADJ NOUN ADJ
-1.8654728	PUNCT NOUN ADJ
-2.0499585	PRON NOUN ADJ
-2.1935205	PART NOUN ADJ
-2.1635363	SCONJ NOUN ADJ
-1.5016257	NUM NOUN ADJ
-1.9296998	SYM NOUN ADJ
-1.9899788	X NOUN ADJ
-1.5409402	INTJ NOUN ADJ
-1.3694848	<s> AUX ADJ
-1.0414253	DET AUX ADJ
-1.0365169	NOUN AUX ADJ
-1.1024792	AUX AUX ADJ
-0.85592794	VERB AUX ADJ
-0.88720983	ADP AUX ADJ
-1.1485194	PROPN AUX ADJ
-1.0364805	CCONJ AUX ADJ
-1.0792145	ADV AUX ADJ
-1.0151229	ADJ AUX ADJ
-1.1821908	PUNCT AUX ADJ
-0.90239316	PRON AUX ADJ
-0.8181015	PART AUX ADJ
-0.85917974	SCONJ AUX ADJ
-1.1481652	NUM AUX ADJ
-1.1604518	X AUX ADJ
-0.7634343	INTJ AUX ADJ
-1.4228286	<s> VERB ADJ
-1.1687741	DET VERB ADJ
-1.3881766	NOUN VERB ADJ
-1.3280454	AUX VERB ADJ
-1.1787167	VERB VERB ADJ
-1.0556055	ADP VERB ADJ
-1.5003225	PROPN VERB ADJ
-1.1628368	CCONJ VERB ADJ
-1.3022	ADV VERB ADJ
-1.268262	ADJ VERB ADJ
-1.2773288	PUNCT VERB ADJ
-1.4452227	PRON VERB ADJ
-1.1955082	PART VERB ADJ
-1.2374835	SCONJ VERB ADJ
-1.2679101	NUM VERB ADJ
-1.2073133	SYM VERB ADJ
-1.0503877	X VERB ADJ
-1.4682696	INTJ VERB ADJ
-1.1464254	<s> ADP ADJ
-1.3528885	DET ADP ADJ
-1.0063692	NOUN ADP ADJ
-1.0595421	AUX ADP ADJ
-1.092101	VERB ADP ADJ
-1.0684029	ADP ADP ADJ
-1.4442753	PROPN ADP ADJ
-0.94866467	CCONJ ADP ADJ
-1.1632628	ADV ADP ADJ
-1.0899504	ADJ ADP ADJ
-1.0844953	PUNCT ADP ADJ
-1.1817865	PRON ADP ADJ
-1.062436	PART ADP ADJ
-1.1138108	SCONJ ADP ADJ
-1.4829092	NUM ADP ADJ
-1.2219816	SYM ADP ADJ
-1.3566471	X ADP ADJ
-1.1680094	INTJ ADP ADJ
-2.5019915	<s> PROPN ADJ
-2.0702586	DET PROPN ADJ
-2.5526102	NOUN PROPN ADJ
-1.7557645	AUX PROPN ADJ
-2.0524151	VERB PROPN ADJ
-2.2726045	ADP PROPN ADJ
-2.412104	PROPN PROPN ADJ
-2.5616817	CCONJ PROPN ADJ
-2.3265934	ADV PROPN ADJ
-2.2798543	ADJ PROPN ADJ
-2.4078405	PUNCT PROPN ADJ
-2.1776655	PART PROPN ADJ
-2.6639304	SCONJ PROPN ADJ
-1.8599842	NUM PROPN ADJ
-2.1463785	SYM PROPN ADJ
-2.3940022	X PROPN ADJ
-1.9069993	INTJ PROPN ADJ
-1.5004547	<s> CCONJ ADJ
-0.8632552	DET CCONJ ADJ
-0.98409337	NOUN CCONJ ADJ
-1.1536304	AUX CCONJ ADJ
-1.378971	VERB CCONJ ADJ
-1.1353805	ADP CCONJ ADJ
-1.3532956	PROPN CCONJ ADJ
-1.1803825	CCONJ CCONJ ADJ
-1.4663832	ADV CCONJ ADJ
-0.22355174	ADJ CCONJ ADJ
-1.1952243	PUNCT CCONJ ADJ
-1.5593467	PRON CCONJ ADJ
-1.0285412	PART CCONJ ADJ
-1.4810631	SCONJ CCONJ ADJ
-1.3034664	NUM CCONJ ADJ
-1.3110255	X CCONJ ADJ
-1.2289529	INTJ CCONJ ADJ
-1.3711101	<s> ADV ADJ
-0.26372442	DET ADV ADJ
-1.388177	NOUN ADV ADJ
-0.5836022	AUX ADV ADJ
-1.0005132	VERB ADV ADJ
-0.80507416	ADP ADV ADJ
-1.6802799	PROPN ADV ADJ
-0.98762196	CCONJ ADV ADJ
-0.9427303	ADV ADV ADJ
-1.0555487	ADJ ADV ADJ
-1.1338217	PUNCT ADV ADJ
-1.3170582	PRON ADV ADJ
-0.7098354	PART ADV ADJ
-1.008901	SCONJ ADV ADJ
-0.7905819	NUM ADV ADJ
-1.0565395	<s> ADJ ADJ
-1.0659485	DET ADJ ADJ
-1.456482	NOUN ADJ ADJ
-1.5914022	AUX ADJ ADJ
-1.1920346	VERB ADJ ADJ
-1.0359572	ADP ADJ ADJ
-1.2410017	PROPN ADJ ADJ
-1.0243572	CCONJ ADJ ADJ
-1.3618892	ADV ADJ ADJ
-0.76629126	ADJ ADJ ADJ
-1.2608086	PUNCT ADJ ADJ
-1.8442615	PRON ADJ ADJ
-1.1359445	PART ADJ ADJ
-1.0499213	SCONJ ADJ ADJ
-1.007729	NUM ADJ ADJ
-0.9720758	SYM ADJ ADJ
-1.4347271	X ADJ ADJ
-1.3732455	<s> PUNCT ADJ
-0.72480124	DET PUNCT ADJ
-1.4762886	NOUN PUNCT ADJ
-1.0609771	AUX PUNCT ADJ
-1.5879346	VERB PUNCT ADJ
-1.0974431	ADP PUNCT ADJ
-1.150858	PROPN PUNCT ADJ
-0.9908648	CCONJ PUNCT ADJ
-1.3824408	ADV PUNCT ADJ
-0.8675398	ADJ PUNCT ADJ
-1.7785279	PUNCT PUNCT ADJ
-1.943843	PRON PUNCT ADJ
-1.1933156	PART PUNCT ADJ
-0.9769923	SCONJ PUNCT ADJ
-1.549337	NUM PUNCT ADJ
-1.2949898	X PUNCT ADJ
-1.4813284	INTJ PUNCT ADJ
-2.6774786	<s> PRON ADJ
-2.7074547	DET PRON ADJ
-2.787206	NOUN PRON ADJ
-1.0074655	AUX PRON ADJ
-1.4272251	VERB PRON ADJ
-1.7688912	ADP PRON ADJ
-2.5157979	PROPN PRON ADJ
-2.3049543	CCONJ PRON ADJ
-2.468834	ADV PRON ADJ
-2.3205884	ADJ PRON ADJ
-2.4926267	PUNCT PRON ADJ
-2.6210566	PRON PRON ADJ
-1.248862	PART PRON ADJ
-2.5418515	SCONJ PRON ADJ
-2.0886207	NUM PRON ADJ
-1.9564523	INTJ PRON ADJ
-1.5457597	<s> PART ADJ
-1.4505364	DET PART ADJ
-1.2423131	NOUN PART ADJ
-1.0598116	AUX PART ADJ
-2.4647377	VERB PART ADJ
-1.7798307	ADP PART ADJ
-0.8115912	PROPN PART ADJ
-1.1691543	CCONJ PART ADJ
-1.389421	ADV PART ADJ
-2.2735837	ADJ PART ADJ
-1.4474094	PUNCT PART ADJ
-1.649418	PRON PART ADJ
-1.0663533	SCONJ PART ADJ
-1.9701725	NUM PART ADJ
-1.1350486	X PART ADJ
-1.1400285	<s> SCONJ ADJ
-1.3286896	DET SCONJ ADJ
-1.217232	NOUN SCONJ ADJ
-1.2931802	AUX SCONJ ADJ
-1.2120143	VERB SCONJ ADJ
-1.2798365	ADP SCONJ ADJ
-1.3630803	PROPN SCONJ ADJ
-1.2669054	CCONJ SCONJ ADJ
-1.0363549	ADV SCONJ ADJ
-1.2238559	ADJ SCONJ ADJ
-1.2038727	PUNCT SCONJ ADJ
-1.3233607	PRON SCONJ ADJ
-1.5588502	PART SCONJ ADJ
-1.3564744	SCONJ SCONJ ADJ
-1.5002626	NUM SCONJ ADJ
-1.0010695	<s> NUM ADJ
-1.0472285	DET NUM ADJ
-1.7686754	NOUN NUM ADJ
-1.1259671	AUX NUM ADJ
-1.0103356	VERB NUM ADJ
-1.2157375	ADP NUM ADJ
-1.8964123	PROPN NUM ADJ
-1.0425332	CCONJ NUM ADJ
-1.1492577	ADV NUM ADJ
-1.3313688	ADJ NUM ADJ
-1.4317192	PUNCT NUM ADJ
-1.401166	PRON NUM ADJ
-1.0504001	PART NUM ADJ
-1.2500883	SCONJ NUM ADJ
-1.2315872	NUM NUM ADJ
-1.9374237	SYM NUM ADJ
-1.4958838	<s> SYM ADJ
-1.590267	DET SYM ADJ
-1.3618567	NOUN SYM ADJ
-1.5191238	VERB SYM ADJ
-1.8706104	ADP SYM ADJ
-1.5042311	PROPN SYM ADJ
-2.3631582	CCONJ SYM ADJ
-0.43637925	ADJ SYM ADJ
-1.6613652	PUNCT SYM ADJ
-1.6063206	PRON SYM ADJ
-1.5852726	PART SYM ADJ
-2.4865851	NUM SYM ADJ
-2.121821	<s> X ADJ
-1.6830006	DET X ADJ
-1.6134233	NOUN X ADJ
-1.4743142	VERB X ADJ
-1.6632503	ADP X ADJ
-2.2965353	PROPN X ADJ
-1.7738279	CCONJ X ADJ
-1.2789111	ADJ X ADJ
-1.8349158	PUNCT X ADJ
-1.0940511	PRON X ADJ
-1.0457029	NUM X ADJ
-1.9168727	X X ADJ
-2.1077309	<s> INTJ ADJ
-1.5420028	NOUN INTJ ADJ
-1.5783193	PROPN INTJ ADJ
-1.5626066	ADV INTJ ADJ
-1.9685715	PUNCT INTJ ADJ
-1.4436659	PRON INTJ ADJ
-1.8473899	INTJ INTJ ADJ
-2.023408	<s> DET PUNCT
-1.5552589	DET DET PUNCT
-1.9813958	NOUN DET PUNCT
-1.7750311	AUX DET PUNCT
-1.7962857	VERB DET PUNCT
-1.8904603	ADP DET PUNCT
-1.8103975	PROPN DET PUNCT
-1.9660568	CCONJ DET PUNCT
-1.8621968	ADV DET PUNCT
-1.6732374	ADJ DET PUNCT
-1.90472	PUNCT DET PUNCT
-1.2994202	PRON DET PUNCT
-1.5450995	PART DET PUNCT
-1.5208082	SCONJ DET PUNCT
-1.0717103	NUM DET PUNCT
-1.6243318	X DET PUNCT
-0.84334797	<s> NOUN PUNCT
-0.65904415	DET NOUN PUNCT
-0.48929983	NOUN NOUN PUNCT
-0.76485336	AUX NOUN PUNCT
-0.6725925	VERB NOUN PUNCT
-0.5098581	ADP NOUN PUNCT
-0.49348125	PROPN NOUN PUNCT
-0.5001033	CCONJ NOUN PUNCT
-0.7709359	ADV NOUN PUNCT
-0.5340176	ADJ NOUN PUNCT
-0.5365263	PUNCT NOUN PUNCT
-0.57167757	PRON NOUN PUNCT
-0.5092813	PART NOUN PUNCT
-0.80470353	SCONJ NOUN PUNCT
-0.5582013	NUM NOUN PUNCT
-0.5148871	SYM NOUN PUNCT
-0.535374	X NOUN PUNCT
-0.48854244	INTJ NOUN PUNCT
-2.4622831	<s> AUX PUNCT
-2.0905077	DET AUX PUNCT
-1.7529103	NOUN AUX PUNCT
-2.1880994	AUX AUX PUNCT
-1.5946115	VERB AUX PUNCT
-1.4512453	ADP AUX PUNCT
-1.9282881	PROPN AUX PUNCT
-2.2152348	CCONJ AUX PUNCT
-1.7194301	ADV AUX PUNCT
-1.781668	ADJ AUX PUNCT
-1.8651305	PUNCT AUX PUNCT
-1.7192942	PRON AUX PUNCT
-1.5596821	PART AUX PUNCT
-1.5823139	SCONJ AUX PUNCT
-1.6458716	NUM AUX PUNCT
-1.4926637	<s> VERB PUNCT
-1.3713809	DET VERB PUNCT
-1.1949093	NOUN VERB PUNCT
-0.96339864	AUX VERB PUNCT
-1.1865647	VERB VERB PUNCT
-1.397042	ADP VERB PUNCT
-0.9774928	PROPN VERB PUNCT
-1.2231147	CCONJ VERB PUNCT
-1.0951984	ADV VERB PUNCT
-1.2056608	ADJ VERB PUNCT
-1.1124312	PUNCT VERB PUNCT
-1.1194944	PRON VERB PUNCT
-1.1581646	PART VERB PUNCT
-0.99822754	SCONJ VERB PUNCT
-0.9513873	NUM VERB PUNCT
-1.0974572	SYM VERB PUNCT
-1.0503877	X VERB PUNCT
-1.2871372	INTJ VERB PUNCT
-2.2018566	<s> ADP PUNCT
-1.4783491	DET ADP PUNCT
-2.034722	NOUN ADP PUNCT
-1.6768626	AUX ADP PUNCT
-1.5484662	VERB ADP PUNCT
-1.8369511	ADP ADP PUNCT
-2.188278	PROPN ADP PUNCT
-1.7705015	CCONJ ADP PUNCT
-1.9931288	ADV ADP PUNCT
-1.9007646	ADJ ADP PUNCT
-1.4142584	PUNCT ADP PUNCT
-1.3537165	PRON ADP PUNCT
-1.8262967	PART ADP PUNCT
-2.2376983	SCONJ ADP PUNCT
-2.4531476	NUM ADP PUNCT
-1.2977787	SYM ADP PUNCT
-1.6136441	X ADP PUNCT
-0.62445563	<s> PROPN PUNCT
-0.89423704	DET PROPN PUNCT
-0.79032105	NOUN PROPN PUNCT
-0.6202475	AUX PROPN PUNCT
-0.73902094	VERB PROPN PUNCT
-0.51632434	ADP PROPN PUNCT
-0.5596606	PROPN PROPN PUNCT
-0.29294577	CCONJ PROPN PUNCT
-0.8524943	ADV PROPN PUNCT
-0.86407363	ADJ PROPN PUNCT
-0.5444203	PUNCT PROPN PUNCT
-0.7703947	PRON PROPN PUNCT
-0.8146346	PART PROPN PUNCT
-0.83115685	SCONJ PROPN PUNCT
-0.65187544	NUM PROPN PUNCT
-0.6396492	SYM PROPN PUNCT
-0.57122564	X PROPN PUNCT
-0.4908172	INTJ PROPN PUNCT
-1.2625207	<s> CCONJ PUNCT
-1.9832144	DET CCONJ PUNCT
-2.2495713	NOUN CCONJ PUNCT
-2.21297	VERB CCONJ PUNCT
-2.1801841	ADP CCONJ PUNCT
-2.353958	PROPN CCONJ PUNCT
-1.3986012	CCONJ CCONJ PUNCT
-2.1817436	ADV CCONJ PUNCT
-2.3999546	ADJ CCONJ PUNCT
-1.4693226	PUNCT CCONJ PUNCT
-2.3174677	PRON CCONJ PUNCT
-1.9293214	PART CCONJ PUNCT
-1.9942648	SCONJ CCONJ PUNCT
-2.2593246	NUM CCONJ PUNCT
-0.8561916	SYM CCONJ PUNCT
-1.2707843	X CCONJ PUNCT
-0.45171186	<s> ADV PUNCT
-0.8649188	DET ADV PUNCT
-0.6154036	NOUN ADV PUNCT
-1.460688	AUX ADV PUNCT
-0.79241776	VERB ADV PUNCT
-0.8117961	ADP ADV PUNCT
-0.8865764	PROPN ADV PUNCT
-0.93307114	CCONJ ADV PUNCT
-0.54946154	ADV ADV PUNCT
-0.58115077	ADJ ADV PUNCT
-0.7893981	PUNCT ADV PUNCT
-1.023849	PRON ADV PUNCT
-1.3766904	PART ADV PUNCT
-0.74143237	SCONJ ADV PUNCT
-0.733522	NUM ADV PUNCT
-1.084322	SYM ADV PUNCT
-1.0277892	X ADV PUNCT
-0.5908408	INTJ ADV PUNCT
-1.2466538	<s> ADJ PUNCT
-1.4208492	DET ADJ PUNCT
-0.85804915	NOUN ADJ PUNCT
-0.65376586	AUX ADJ PUNCT
-1.0712314	VERB ADJ PUNCT
-1.3361367	ADP ADJ PUNCT
-1.1269095	PROPN ADJ PUNCT
-1.011319	CCONJ ADJ PUNCT
-0.69502085	ADV ADJ PUNCT
-1.4287602	ADJ ADJ PUNCT
-0.95900977	PUNCT ADJ PUNCT
-0.650596	PRON ADJ PUNCT
-0.93044424	PART ADJ PUNCT
-0.9695129	SCONJ ADJ PUNCT
-1.3521048	NUM ADJ PUNCT
-0.94137627	SYM ADJ PUNCT
-1.072462	X ADJ PUNCT
-0.5714892	INTJ ADJ PUNCT
-1.268336	<s> PUNCT PUNCT
-1.5377481	DET PUNCT PUNCT
-1.2713808	NOUN PUNCT PUNCT
-1.2330422	AUX PUNCT PUNCT
-1.1052847	VERB PUNCT PUNCT
-1.3598801	ADP PUNCT PUNCT
-1.1705037	PROPN PUNCT PUNCT
-1.9380432	CCONJ PUNCT PUNCT
-1.3383269	ADV PUNCT PUNCT
-1.2315855	ADJ PUNCT PUNCT
-1.0168495	PUNCT PUNCT PUNCT
-1.0310681	PRON PUNCT PUNCT
-1.3600179	PART PUNCT PUNCT
-1.2874796	SCONJ PUNCT PUNCT
-1.3110402	NUM PUNCT PUNCT
-0.7265683	SYM PUNCT PUNCT
-1.1077976	X PUNCT PUNCT
-1.2272391	INTJ PUNCT PUNCT
-2.2664545	<s> PRON PUNCT
-2.107357	DET PRON PUNCT
-1.5462255	NOUN PRON PUNCT
-1.1070893	AUX PRON PUNCT
-0.81226224	VERB PRON PUNCT
-0.47253948	ADP PRON PUNCT
-1.2181764	PROPN PRON PUNCT
-1.9185041	CCONJ PRON PUNCT
-1.938434	ADV PRON PUNCT
-1.216847	ADJ PRON PUNCT
-1.98476	PUNCT PRON PUNCT
-1.8487972	PRON PRON PUNCT
-0.84326345	PART PRON PUNCT
-1.7776357	SCONJ PRON PUNCT
-2.0621092	NUM PRON PUNCT
-1.5472741	SYM PRON PUNCT
-1.2048515	X PRON PUNCT
-1.3099749	INTJ PRON PUNCT
-1.898493	<s> PART PUNCT
-1.1720839	DET PART PUNCT
-2.068487	NOUN PART PUNCT
-1.841582	AUX PART PUNCT
-1.9853383	VERB PART PUNCT
-2.1410215	ADP PART PUNCT
-1.5766075	PROPN PART PUNCT
-0.8971663	CCONJ PART PUNCT
-1.6367829	ADV PART PUNCT
-2.3449705	ADJ PART PUNCT
-1.5266409	PUNCT PART PUNCT
-1.9962132	PRON PART PUNCT
-1.8663747	PART PART PUNCT
-1.2958397	SCONJ PART PUNCT
-1.4172647	NUM PART PUNCT
-2.039492	<s> SCONJ PUNCT
-1.4850479	DET SCONJ PUNCT
-1.5111927	NOUN SCONJ PUNCT
-1.4803853	AUX SCONJ PUNCT
-1.414144	VERB SCONJ PUNCT
-1.3975587	ADP SCONJ PUNCT
-1.4572484	PROPN SCONJ PUNCT
-1.9047166	CCONJ SCONJ PUNCT
-2.0111923	ADV SCONJ PUNCT
-1.6907742	ADJ SCONJ PUNCT
-1.8054363	PUNCT SCONJ PUNCT
-1.3391973	PRON SCONJ PUNCT
-1.9823469	PART SCONJ PUNCT
-2.136681	SCONJ SCONJ PUNCT
-1.656004	NUM SCONJ PUNCT
-0.9459554	<s> NUM PUNCT
-0.97230864	DET NUM PUNCT
-0.4930787	NOUN NUM PUNCT
-1.1584873	AUX NUM PUNCT
-1.2327591	VERB NUM PUNCT
-0.6404658	ADP NUM PUNCT
-0.18927422	PROPN NUM PUNCT
-0.858187	CCONJ NUM PUNCT
-1.4276088	ADV NUM PUNCT
-0.8770979	ADJ NUM PUNCT
-0.51673234	PUNCT NUM PUNCT
-1.2872767	PRON NUM PUNCT
-1.0602263	PART NUM PUNCT
-0.88075405	SCONJ NUM PUNCT
-0.7737947	NUM NUM PUNCT
-0.29218373	SYM NUM PUNCT
-1.6747745	<s> SYM PUNCT
-2.4111583	NOUN SYM PUNCT
-1.520269	AUX SYM PUNCT
-2.2355242	VERB SYM PUNCT
-2.1027777	ADP SYM PUNCT
-2.567771	PROPN SYM PUNCT
-2.7321496	CCONJ SYM PUNCT
-1.7813839	ADJ SYM PUNCT
-1.7133365	PUNCT SYM PUNCT
-2.531314	NUM SYM PUNCT
-0.051794313	<s> X PUNCT
-0.95874757	DET X PUNCT
-0.3744064	NOUN X PUNCT
-0.9336203	AUX X PUNCT
-0.4868093	VERB X PUNCT
-0.31846854	ADP X PUNCT
-0.93913573	PROPN X PUNCT
-0.11010124	CCONJ X PUNCT
-0.51448333	ADV X PUNCT
-0.61709887	ADJ X PUNCT
-0.2623248	PUNCT X PUNCT
-0.961281	PRON X PUNCT
-0.36611772	SCONJ X PUNCT
-0.9826731	NUM X PUNCT
-0.5883607	SYM X PUNCT
-0.6780486	X X PUNCT
-0.91770655	INTJ X PUNCT
-0.21500048	<s> INTJ PUNCT
-0.7849474	DET INTJ PUNCT
-0.38241482	NOUN INTJ PUNCT
-0.2754112	AUX INTJ PUNCT
-0.38551784	VERB INTJ PUNCT
-0.71107006	ADP INTJ PUNCT
-0.75675803	PROPN INTJ PUNCT
-0.2789905	CCONJ INTJ PUNCT
-0.41372615	ADV INTJ PUNCT
-0.41082624	ADJ INTJ PUNCT
-0.23913383	PUNCT INTJ PUNCT
-1.0389308	PRON INTJ PUNCT
-0.8373792	PART INTJ PUNCT
-0.6976694	SCONJ INTJ PUNCT
-0.67592466	NUM INTJ PUNCT
-0.6663372	X INTJ PUNCT
-0.27087292	INTJ INTJ PUNCT
-2.3819168	<s> DET PRON
-1.7673929	DET DET PRON
-1.3223915	NOUN DET PRON
-2.4295597	AUX DET PRON
-2.690467	VERB DET PRON
-2.2772868	ADP DET PRON
-1.779106	PROPN DET PRON
-2.1403484	CCONJ DET PRON
-2.1194358	ADV DET PRON
-2.1156852	ADJ DET PRON
-2.0587397	PUNCT DET PRON
-1.7813301	PRON DET PRON
-1.8268659	PART DET PRON
-2.4802976	SCONJ DET PRON
-1.9748865	NUM DET PRON
-1.5675217	X DET PRON
-1.8497952	<s> NOUN PRON
-1.7284764	DET NOUN PRON
-2.070981	NOUN NOUN PRON
-1.6594224	AUX NOUN PRON
-2.0722823	VERB NOUN PRON
-1.7578388	ADP NOUN PRON
-2.0539055	PROPN NOUN PRON
-1.8485893	CCONJ NOUN PRON
-1.6711162	ADV NOUN PRON
-1.8262731	ADJ NOUN PRON
-2.1879423	PUNCT NOUN PRON
-1.3871337	PRON NOUN PRON
-2.33901	PART NOUN PRON
-1.9600726	SCONJ NOUN PRON
-1.7939893	NUM NOUN PRON
-1.5404814	SYM NOUN PRON
-1.5318253	X NOUN PRON
-0.36281717	<s> AUX PRON
-1.4914573	DET AUX PRON
-2.0769353	NOUN AUX PRON
-2.845145	AUX AUX PRON
-1.7858441	VERB AUX PRON
-2.2478106	ADP AUX PRON
-2.3315034	PROPN AUX PRON
-1.222526	CCONJ AUX PRON
-0.9685471	ADV AUX PRON
-1.5081981	ADJ AUX PRON
-1.2041895	PUNCT AUX PRON
-1.8056511	PRON AUX PRON
-1.4634266	PART AUX PRON
-1.83857	SCONJ AUX PRON
-2.397299	NUM AUX PRON
-1.6259384	INTJ AUX PRON
-0.9753187	<s> VERB PRON
-1.4187725	DET VERB PRON
-1.4570572	NOUN VERB PRON
-1.6367447	AUX VERB PRON
-1.1972544	VERB VERB PRON
-1.3959439	ADP VERB PRON
-1.4227049	PROPN VERB PRON
-1.039856	CCONJ VERB PRON
-1.233747	ADV VERB PRON
-1.4447594	ADJ VERB PRON
-1.2773288	PUNCT VERB PRON
-1.123466	PRON VERB PRON
-1.1295274	PART VERB PRON
-1.594332	SCONJ VERB PRON
-1.7104226	NUM VERB PRON
-1.0098547	SYM VERB PRON
-1.210079	X VERB PRON
-0.6494408	INTJ VERB PRON
-1.6985272	<s> ADP PRON
-0.83748525	DET ADP PRON
-1.7626593	NOUN ADP PRON
-1.3916171	AUX ADP PRON
-1.4754547	VERB ADP PRON
-1.491469	ADP ADP PRON
-2.188619	PROPN ADP PRON
-1.3950485	CCONJ ADP PRON
-1.4912089	ADV ADP PRON
-1.0900539	ADJ ADP PRON
-1.6651545	PUNCT ADP PRON
-1.2903144	PRON ADP PRON
-1.2631391	PART ADP PRON
-1.5513839	SCONJ ADP PRON
-1.3522129	NUM ADP PRON
-1.0352628	SYM ADP PRON
-2.4818223	<s> PROPN PRON
-2.307	DET PROPN PRON
-2.4978323	NOUN PROPN PRON
-1.7736273	AUX PROPN PRON
-2.3913314	VERB PROPN PRON
-2.216549	ADP PROPN PRON
-2.3448653	PROPN PROPN PRON
-2.6045506	CCONJ PROPN PRON
-2.1235101	ADV PROPN PRON
-2.1867726	ADJ PROPN PRON
-2.643577	PUNCT PROPN PRON
-2.0767684	PRON PROPN PRON
-2.5612283	PART PROPN PRON
-2.2794106	SCONJ PROPN PRON
-2.0577996	NUM PROPN PRON
-2.1429806	SYM PROPN PRON
-2.3363726	X PROPN PRON
-1.8914826	INTJ PROPN PRON
-0.66672045	<s> CCONJ PRON
-0.9944191	DET CCONJ PRON
-1.5066341	NOUN CCONJ PRON
-0.94668186	AUX CCONJ PRON
-1.3853682	VERB CCONJ PRON
-1.2856891	ADP CCONJ PRON
-1.7165843	PROPN CCONJ PRON
-1.3358303	CCONJ CCONJ PRON
-1.0896426	ADV CCONJ PRON
-1.4818231	ADJ CCONJ PRON
-0.8722741	PUNCT CCONJ PRON
-0.7860086	PRON CCONJ PRON
-1.2492911	PART CCONJ PRON
-1.3895091	SCONJ CCONJ PRON
-1.5493343	NUM CCONJ PRON
-1.2576302	X CCONJ PRON
-0.98130006	INTJ CCONJ PRON
-0.98241514	<s> ADV PRON
-2.028827	DET ADV PRON
-1.1438845	NOUN ADV PRON
-1.7847325	AUX ADV PRON
-1.4078883	VERB ADV PRON
-1.1815296	ADP ADV PRON
-1.3711219	PROPN ADV PRON
-0.9829887	CCONJ ADV PRON
-1.3280708	ADV ADV PRON
-1.0470616	ADJ ADV PRON
-0.9986379	PUNCT ADV PRON
-1.632113	PRON ADV PRON
-2.2919652	PART ADV PRON
-0.9604381	SCONJ ADV PRON
-0.94737715	NUM ADV PRON
-1.1547499	SYM ADV PRON
-1.1000767	X ADV PRON
-0.7121033	INTJ ADV PRON
-2.9819531	<s> ADJ PRON
-2.8925428	DET ADJ PRON
-2.455796	NOUN ADJ PRON
-2.0833917	AUX ADJ PRON
-2.430559	VERB ADJ PRON
-2.584742	ADP ADJ PRON
-2.68914	PROPN ADJ PRON
-2.815697	CCONJ ADJ PRON
-1.8993084	ADV ADJ PRON
-3.7280595	ADJ ADJ PRON
-3.104491	PUNCT ADJ PRON
-2.3105698	PRON ADJ PRON
-2.3249993	PART ADJ PRON
-3.1547458	SCONJ ADJ PRON
-3.1196017	NUM ADJ PRON
-1.973613	SYM ADJ PRON
-0.632165	<s> PUNCT PRON
-1.3138765	DET PUNCT PRON
-1.36389	NOUN PUNCT PRON
-1.2043332	AUX PUNCT PRON
-1.3428227	VERB PUNCT PRON
-1.4431864	ADP PUNCT PRON
-1.4387648	PROPN PUNCT PRON
-1.0689942	CCONJ PUNCT PRON
-1.0146999	ADV PUNCT PRON
-1.3935945	ADJ PUNCT PRON
-1.1639212	PUNCT PUNCT PRON
-1.2009313	PRON PUNCT PRON
-1.3689773	PART PUNCT PRON
-1.1092753	SCONJ PUNCT PRON
-1.5278139	NUM PUNCT PRON
-1.400978	SYM PUNCT PRON
-1.356999	X PUNCT PRON
-0.6311927	INTJ PUNCT PRON
-2.0599878	<s> PRON PRON
-2.054709	DET PRON PRON
-2.1083727	NOUN PRON PRON
-1.2070504	AUX PRON PRON
-1.4060006	VERB PRON PRON
-1.1766754	ADP PRON PRON
-2.0228977	PROPN PRON PRON
-1.669264	CCONJ PRON PRON
-2.0209696	ADV PRON PRON
-1.6654319	ADJ PRON PRON
-2.0043144	PUNCT PRON PRON
-1.7524204	PRON PRON PRON
-1.3196766	PART PRON PRON
-2.0211954	SCONJ PRON PRON
-2.0751626	NUM PRON PRON
-1.2148774	X PRON PRON
-1.9426869	INTJ PRON PRON
-1.5723517	<s> PART PRON
-1.6621584	DET PART PRON
-3.4053025	NOUN PART PRON
-1.7588967	AUX PART PRON
-2.5177538	VERB PART PRON
-2.6119862	ADP PART PRON
-3.3736718	PROPN PART PRON
-1.390784	CCONJ PART PRON
-2.6912835	ADV PART PRON
-2.1192627	PUNCT PART PRON
-1.7533486	SCONJ PART PRON
-2.3067207	NUM PART PRON
-0.6529653	INTJ PART PRON
-0.6355952	<s> SCONJ PRON
-0.6903145	DET SCONJ PRON
-0.70337397	NOUN SCONJ PRON
-0.6084329	AUX SCONJ PRON
-0.745915	VERB SCONJ PRON
-0.75099903	ADP SCONJ PRON
-0.77684367	PROPN SCONJ PRON
-0.42901576	CCONJ SCONJ PRON
-0.63854194	ADV SCONJ PRON
-0.91500133	ADJ SCONJ PRON
-0.61044943	PUNCT SCONJ PRON
-0.58463275	PRON SCONJ PRON
-0.56277204	PART SCONJ PRON
-0.46845245	SCONJ SCONJ PRON
-0.96443033	NUM SCONJ PRON
-0.8786724	X SCONJ PRON
-0.17432328	INTJ SCONJ PRON
-2.6526036	<s> NUM PRON
-2.486161	DET NUM PRON
-2.8033342	NOUN NUM PRON
-2.497832	AUX NUM PRON
-2.6746638	VERB NUM PRON
-2.2134821	ADP NUM PRON
-2.4005191	PROPN NUM PRON
-2.632209	CCONJ NUM PRON
-2.8803592	ADV NUM PRON
-2.11059	ADJ NUM PRON
-2.6767116	PUNCT NUM PRON
-1.8038594	PRON NUM PRON
-2.7161005	SCONJ NUM PRON
-3.0380397	SYM NUM PRON
-2.0129685	<s> SYM PRON
-2.3267603	DET SYM PRON
-2.5893657	NOUN SYM PRON
-2.4081097	VERB SYM PRON
-2.1711013	PROPN SYM PRON
-0.23317942	PRON SYM PRON
-2.5974176	<s> X PRON
-1.5764472	VERB X PRON
-2.1932847	ADP X PRON
-2.0693605	PROPN X PRON
-1.8656205	CCONJ X PRON
-1.9170915	PUNCT X PRON
-1.6269146	SYM X PRON
-2.3439078	X X PRON
-1.3133457	<s> INTJ PRON
-1.3451675	NOUN INTJ PRON
-1.3311194	AUX INTJ PRON
-1.1377764	VERB INTJ PRON
-1.0921835	ADP INTJ PRON
-0.9634256	CCONJ INTJ PRON
-1.430083	ADV INTJ PRON
-1.043115	ADJ INTJ PRON
-1.3611507	PUNCT INTJ PRON
-1.3159177	PRON INTJ PRON
-0.81030345	PART INTJ PRON
-1.0121331	SCONJ INTJ PRON
-1.3354834	INTJ INTJ PRON
-3.4426575	<s> DET PART
-3.278155	DET DET PART
-3.1387644	NOUN DET PART
-2.778944	AUX DET PART
-3.317943	VERB DET PART
-3.5003798	ADP DET PART
-3.005018	PROPN DET PART
-3.3748858	CCONJ DET PART
-3.0874221	ADV DET PART
-3.1212835	PUNCT DET PART
-2.7868848	PRON DET PART
-3.1606984	SCONJ DET PART
-1.856099	<s> NOUN PART
-1.3017418	DET NOUN PART
-1.6730036	NOUN NOUN PART
-1.3657141	AUX NOUN PART
-1.2966887	VERB NOUN PART
-1.4433261	ADP NOUN PART
-1.6620661	PROPN NOUN PART
-1.6557517	CCONJ NOUN PART
-1.7375231	ADV NOUN PART
-1.5267603	ADJ NOUN PART
-1.9158618	PUNCT NOUN PART
-1.6740063	PRON NOUN PART
-1.3741128	PART NOUN PART
-1.771262	SCONJ NOUN PART
-1.7538782	NUM NOUN PART
-2.0798414	SYM NOUN PART
-1.9899788	X NOUN PART
-1.3179835	INTJ NOUN PART
-0.78581494	<s> AUX PART
-0.9995776	DET AUX PART
-1.01504	NOUN AUX PART
-2.1982026	AUX AUX PART
-1.4846185	VERB AUX PART
-1.8318005	ADP AUX PART
-1.1002759	PROPN AUX PART
-0.93575484	CCONJ AUX PART
-0.98968357	ADV AUX PART
-1.1365728	ADJ AUX PART
-1.036412	PUNCT AUX PART
-0.8487278	PRON AUX PART
-1.8342454	PART AUX PART
-1.7263627	SCONJ AUX PART
-1.4163593	NUM AUX PART
-1.0935707	X AUX PART
-0.44508466	INTJ AUX PART
-1.769621	<s> VERB PART
-1.3872832	DET VERB PART
-1.1846054	NOUN VERB PART
-1.0993618	AUX VERB PART
-1.281647	VERB VERB PART
-1.6494322	ADP VERB PART
-1.2857696	PROPN VERB PART
-1.3300833	CCONJ VERB PART
-1.2443454	ADV VERB PART
-1.5311779	ADJ VERB PART
-1.5630565	PUNCT VERB PART
-0.98364604	PRON VERB PART
-1.6998893	PART VERB PART
-1.6329987	SCONJ VERB PART
-1.6605417	NUM VERB PART
-1.3263749	X VERB PART
-1.7054876	INTJ VERB PART
-3.0060432	<s> ADP PART
-3.1320808	DET ADP PART
-3.0928073	NOUN ADP PART
-2.6149356	AUX ADP PART
-2.2157662	VERB ADP PART
-2.0499969	ADP ADP PART
-3.1641643	PROPN ADP PART
-2.3652906	CCONJ ADP PART
-3.3511596	ADV ADP PART
-2.95383	ADJ ADP PART
-2.7217166	PUNCT ADP PART
-2.2545664	PRON ADP PART
-2.5329053	PART ADP PART
-3.1763375	SCONJ ADP PART
-3.376708	NUM ADP PART
-1.3321172	<s> PROPN PART
-1.4955137	DET PROPN PART
-1.7320945	NOUN PROPN PART
-0.86672044	AUX PROPN PART
-0.89221245	VERB PROPN PART
-1.1696723	ADP PROPN PART
-1.4764283	PROPN PROPN PART
-1.6040262	CCONJ PROPN PART
-1.1414189	ADV PROPN PART
-1.9265653	ADJ PROPN PART
-1.4876074	PUNCT PROPN PART
-1.3458546	PRON PROPN PART
-1.8884221	PART PROPN PART
-1.0760806	SCONJ PROPN PART
-1.9224793	NUM PROPN PART
-1.5729398	SYM PROPN PART
-1.9576002	X PROPN PART
-1.8160621	<s> CCONJ PART
-1.862387	DET CCONJ PART
-1.947651	NOUN CCONJ PART
-1.2971871	AUX CCONJ PART
-1.7467539	VERB CCONJ PART
-2.117263	ADP CCONJ PART
-2.260877	PROPN CCONJ PART
-1.4157451	CCONJ CCONJ PART
-1.6929845	ADV CCONJ PART
-1.7633488	ADJ CCONJ PART
-1.7719128	PUNCT CCONJ PART
-1.3266696	PRON CCONJ PART
-1.9471419	PART CCONJ PART
-0.25224453	SCONJ CCONJ PART
-2.1846538	NUM CCONJ PART
-2.146017	<s> ADV PART
-2.6266234	DET ADV PART
-1.8413141	NOUN ADV PART
-1.6429143	AUX ADV PART
-1.4647039	VERB ADV PART
-1.3898636	ADP ADV PART
-2.1084247	PROPN ADV PART
-1.6611795	CCONJ ADV PART
-1.8873916	ADV ADV PART
-1.1342243	ADJ ADV PART
-1.8587227	PUNCT ADV PART
-1.8580235	PRON ADV PART
-1.8445865	PART ADV PART
-1.9168853	SCONJ ADV PART
-2.1137722	NUM ADV PART
-1.1651517	SYM ADV PART
-1.4959036	INTJ ADV PART
-2.152419	<s> ADJ PART
-2.572574	DET ADJ PART
-1.5504757	NOUN ADJ PART
-0.7813968	AUX ADJ PART
-1.825958	VERB ADJ PART
-2.713439	ADP ADJ PART
-2.0923707	PROPN ADJ PART
-2.0541139	CCONJ ADJ PART
-1.2896341	ADV ADJ PART
-2.9045029	ADJ ADJ PART
-2.3450062	PUNCT ADJ PART
-0.9954725	PRON ADJ PART
-1.3990977	PART ADJ PART
-2.1756182	SCONJ ADJ PART
-3.1017027	NUM ADJ PART
-1.95742	SYM ADJ PART
-1.4347271	X ADJ PART
-2.2837727	<s> PUNCT PART
-2.6289632	DET PUNCT PART
-2.224058	NOUN PUNCT PART
-1.796653	AUX PUNCT PART
-2.217772	VERB PUNCT PART
-2.4066772	ADP PUNCT PART
-2.3916903	PROPN PUNCT PART
-2.055893	CCONJ PUNCT PART
-2.1663485	ADV PUNCT PART
-2.254633	ADJ PUNCT PART
-2.5238683	PUNCT PUNCT PART
-2.2201912	PRON PUNCT PART
-1.9747584	PART PUNCT PART
-2.2580717	SCONJ PUNCT PART
-2.3062623	NUM PUNCT PART
-2.21917	X PUNCT PART
-2.0244865	INTJ PUNCT PART
-3.1138618	<s> PRON PART
-3.0138125	DET PRON PART
-2.7257972	NOUN PRON PART
-1.2328925	AUX PRON PART
-1.2206538	VERB PRON PART
-1.3386663	ADP PRON PART
-2.161475	PROPN PRON PART
-2.6135314	CCONJ PRON PART
-2.857861	ADV PRON PART
-2.195279	ADJ PRON PART
-2.6497095	PUNCT PRON PART
-2.886855	PRON PRON PART
-2.0103776	PART PRON PART
-2.5450232	SCONJ PRON PART
-1.5723517	<s> PART PART
-2.0168393	DET PART PART
-2.1661031	NOUN PART PART
-2.3029869	AUX PART PART
-2.1568842	VERB PART PART
-2.5977275	PROPN PART PART
-1.4610064	CCONJ PART PART
-2.378534	ADV PART PART
-2.0064087	ADJ PART PART
-1.5283787	PUNCT PART PART
-1.7661737	PRON PART PART
-1.5058962	SCONJ PART PART
-1.9918412	NUM PART PART
-2.2227323	<s> SCONJ PART
-2.1042755	NOUN SCONJ PART
-2.2629783	AUX SCONJ PART
-2.3287435	VERB SCONJ PART
-1.7509993	ADP SCONJ PART
-2.9194622	PROPN SCONJ PART
-2.4271479	CCONJ SCONJ PART
-1.9625943	ADV SCONJ PART
-2.5317771	ADJ SCONJ PART
-1.8558497	PUNCT SCONJ PART
-2.240409	PRON SCONJ PART
-2.0485039	PART SCONJ PART
-1.286402	SCONJ SCONJ PART
-2.1043372	NUM SCONJ PART
-2.771111	<s> NUM PART
-2.0679803	DET NUM PART
-2.3018565	NOUN NUM PART
-2.0990205	AUX NUM PART
-2.0410087	VERB NUM PART
-1.8881109	ADP NUM PART
-2.0968587	PROPN NUM PART
-2.302986	CCONJ NUM PART
-2.0930011	ADV NUM PART
-1.698633	ADJ NUM PART
-2.2892015	PUNCT NUM PART
-2.035804	PART NUM PART
-2.6046455	SCONJ NUM PART
-1.8926574	NUM NUM PART
-2.0228472	SYM NUM PART
-2.2661488	ADJ SYM PART
-0.9869651	SYM SYM PART
-2.2211444	NOUN X PART
-1.8764772	ADP X PART
-1.3645934	ADV X PART
-2.4863646	PUNCT X PART
-2.9218001	<s> INTJ PART
-1.8853524	VERB INTJ PART
-1.9765489	INTJ INTJ PART
-3.63619	<s> DET SCONJ
-2.8307633	DET DET SCONJ
-3.4801362	NOUN DET SCONJ
-3.6861882	AUX DET SCONJ
-3.1356733	VERB DET SCONJ
-3.394197	ADP DET SCONJ
-3.7891316	CCONJ DET SCONJ
-3.1818955	ADV DET SCONJ
-3.0587893	PUNCT DET SCONJ
-3.1467922	PRON DET SCONJ
-3.5295792	SCONJ DET SCONJ
-2.1165586	<s> NOUN SCONJ
-1.6779183	DET NOUN SCONJ
-1.7974521	NOUN NOUN SCONJ
-1.5329809	AUX NOUN SCONJ
-1.6245428	VERB NOUN SCONJ
-1.6989901	ADP NOUN SCONJ
-1.9220153	PROPN NOUN SCONJ
-1.8817971	CCONJ NOUN SCONJ
-1.7596282	ADV NOUN SCONJ
-1.7190549	ADJ NOUN SCONJ
-2.2375274	PUNCT NOUN SCONJ
-1.7833617	PRON NOUN SCONJ
-1.6666183	PART NOUN SCONJ
-1.9600726	SCONJ NOUN SCONJ
-1.9137703	NUM NOUN SCONJ
-2.0867264	SYM NOUN SCONJ
-2.005458	X NOUN SCONJ
-2.5989287	<s> AUX SCONJ
-1.9901605	DET AUX SCONJ
-1.7729673	NOUN AUX SCONJ
-2.3840723	AUX AUX SCONJ
-1.782828	VERB AUX SCONJ
-2.0698626	ADP AUX SCONJ
-2.2894936	PROPN AUX SCONJ
-2.5256433	CCONJ AUX SCONJ
-2.064589	ADV AUX SCONJ
-1.12244	ADJ AUX SCONJ
-1.8651305	PUNCT AUX SCONJ
-2.2532933	PRON AUX SCONJ
-2.2580323	PART AUX SCONJ
-1.8269913	NUM AUX SCONJ
-1.698164	INTJ AUX SCONJ
-1.6951517	<s> VERB SCONJ
-1.5845184	DET VERB SCONJ
-1.3551688	NOUN VERB SCONJ
-1.3005902	AUX VERB SCONJ
-1.4437239	VERB VERB SCONJ
-1.8007882	ADP VERB SCONJ
-1.0707009	PROPN VERB SCONJ
-1.4444515	CCONJ VERB SCONJ
-1.2147148	ADV VERB SCONJ
-1.2105144	ADJ VERB SCONJ
-1.339452	PUNCT VERB SCONJ
-1.24975	PRON VERB SCONJ
-1.4997541	PART VERB SCONJ
-1.6042216	SCONJ VERB SCONJ
-1.2995086	NUM VERB SCONJ
-1.1274775	X VERB SCONJ
-1.7909956	INTJ VERB SCONJ
-3.048105	<s> ADP SCONJ
-3.1320808	DET ADP SCONJ
-3.130608	NOUN ADP SCONJ
-3.026371	AUX ADP SCONJ
-2.0939476	VERB ADP SCONJ
-3.345013	ADP ADP SCONJ
-3.1641643	PROPN ADP SCONJ
-3.1507056	CCONJ ADP SCONJ
-2.529583	ADV ADP SCONJ
-2.8806207	ADJ ADP SCONJ
-3.0463996	PUNCT ADP SCONJ
-2.322503	PRON ADP SCONJ
-2.4848332	PART ADP SCONJ
-2.360987	SCONJ ADP SCONJ
-3.376708	NUM ADP SCONJ
-2.9516172	<s> PROPN SCONJ
-2.3589215	DET PROPN SCONJ
-2.5509396	NOUN PROPN SCONJ
-2.4231613	AUX PROPN SCONJ
-1.5962678	VERB PROPN SCONJ
-1.9539421	ADP PROPN SCONJ
-2.294729	PROPN PROPN SCONJ
-2.3445826	CCONJ PROPN SCONJ
-2.5680296	ADV PROPN SCONJ
-2.3176699	ADJ PROPN SCONJ
-2.865074	PUNCT PROPN SCONJ
-2.3996072	PRON PROPN SCONJ
-2.707612	PART PROPN SCONJ
-2.5809078	SCONJ PROPN SCONJ
-2.3380866	NUM PROPN SCONJ
-1.769747	SYM PROPN SCONJ
-2.3363726	X PROPN SCONJ
-1.8449991	INTJ PROPN SCONJ
-1.2423156	<s> CCONJ SCONJ
-2.0386562	DET CCONJ SCONJ
-2.0929136	NOUN CCONJ SCONJ
-2.0895615	AUX CCONJ SCONJ
-1.9687048	VERB CCONJ SCONJ
-1.5938607	ADP CCONJ SCONJ
-2.429773	PROPN CCONJ SCONJ
-1.4522074	CCONJ CCONJ SCONJ
-1.8665981	ADV CCONJ SCONJ
-2.2345943	ADJ CCONJ SCONJ
-1.4695612	PUNCT CCONJ SCONJ
-1.8124409	PRON CCONJ SCONJ
-2.6748526	NUM CCONJ SCONJ
-1.494134	<s> ADV SCONJ
-2.49016	DET ADV SCONJ
-1.5297738	NOUN ADV SCONJ
-2.159633	AUX ADV SCONJ
-1.5800887	VERB ADV SCONJ
-2.1456168	ADP ADV SCONJ
-1.7650422	PROPN ADV SCONJ
-1.6373328	CCONJ ADV SCONJ
-0.79361665	ADV ADV SCONJ
-1.4793098	ADJ ADV SCONJ
-1.2925779	PUNCT ADV SCONJ
-1.8643624	PRON ADV SCONJ
-2.0054846	PART ADV SCONJ
-1.5084594	SCONJ ADV SCONJ
-1.9805608	NUM ADV SCONJ
-1.1651517	SYM ADV SCONJ
-1.5478036	INTJ ADV SCONJ
-1.5475395	<s> ADJ SCONJ
-2.6396453	DET ADJ SCONJ
-0.7074534	NOUN ADJ SCONJ
-1.1090518	AUX ADJ SCONJ
-1.4267731	VERB ADJ SCONJ
-1.739521	ADP ADJ SCONJ
-1.5963119	PROPN ADJ SCONJ
-1.8232223	CCONJ ADJ SCONJ
-1.1089082	ADV ADJ SCONJ
-2.5903792	ADJ ADJ SCONJ
-1.4285913	PUNCT ADJ SCONJ
-0.98793596	PRON ADJ SCONJ
-1.6046333	PART ADJ SCONJ
-1.7423162	SCONJ ADJ SCONJ
-2.524633	NUM ADJ SCONJ
-1.941809	SYM ADJ SCONJ
-1.239535	X ADJ SCONJ
-1.3451942	INTJ ADJ SCONJ
-1.5447446	<s> PUNCT SCONJ
-1.9468623	DET PUNCT SCONJ
-1.7327576	NOUN PUNCT SCONJ
-1.7577059	AUX PUNCT SCONJ
-1.7262447	VERB PUNCT SCONJ
-1.904295	ADP PUNCT SCONJ
-2.0128658	PROPN PUNCT SCONJ
-1.1596627	CCONJ PUNCT SCONJ
-1.5419397	ADV PUNCT SCONJ
-1.6473974	ADJ PUNCT SCONJ
-1.8922075	PUNCT PUNCT SCONJ
-1.6209323	PRON PUNCT SCONJ
-1.9396914	PART PUNCT SCONJ
-1.3767626	SCONJ PUNCT SCONJ
-1.9652473	NUM PUNCT SCONJ
-2.042626	X PUNCT SCONJ
-1.5993139	INTJ PUNCT SCONJ
-2.759122	<s> PRON SCONJ
-2.9779663	DET PRON SCONJ
-3.5191905	NOUN PRON SCONJ
-1.5131967	AUX PRON SCONJ
-1.2982757	VERB PRON SCONJ
-1.4986159	ADP PRON SCONJ
-2.8151298	PROPN PRON SCONJ
-2.4902356	CCONJ PRON SCONJ
-2.974931	ADV PRON SCONJ
-2.50917	ADJ PRON SCONJ
-2.7928824	PUNCT PRON SCONJ
-2.9988608	PRON PRON SCONJ
-2.334796	PART PRON SCONJ
-2.9076512	SCONJ PRON SCONJ
-2.0886207	NUM PRON SCONJ
-1.6355577	SYM PRON SCONJ
-1.6536092	<s> PART SCONJ
-2.0092402	DET PART SCONJ
-3.2159598	NOUN PART SCONJ
-2.2812986	AUX PART SCONJ
-3.095786	VERB PART SCONJ
-2.6069036	ADP PART SCONJ
-3.2434044	PROPN PART SCONJ
-1.92612	CCONJ PART SCONJ
-2.608507	ADV PART SCONJ
-3.1828172	ADJ PART SCONJ
-1.7694565	PUNCT PART SCONJ
-2.162445	<s> SCONJ SCONJ
-1.7446147	DET SCONJ SCONJ
-1.649856	NOUN SCONJ SCONJ
-1.576303	AUX SCONJ SCONJ
-1.6171466	VERB SCONJ SCONJ
-1.540272	ADP SCONJ SCONJ
-1.7043833	PROPN SCONJ SCONJ
-2.344345	CCONJ SCONJ SCONJ
-1.9625943	ADV SCONJ SCONJ
-2.2609272	ADJ SCONJ SCONJ
-1.53761	PUNCT SCONJ SCONJ
-1.6594479	PRON SCONJ SCONJ
-1.474715	PART SCONJ SCONJ
-2.0611687	NUM SCONJ SCONJ
-2.236431	<s> NUM SCONJ
-2.9681988	DET NUM SCONJ
-2.4839818	NOUN NUM SCONJ
-2.5912333	AUX NUM SCONJ
-2.264297	VERB NUM SCONJ
-2.1891809	ADP NUM SCONJ
-2.0220845	PROPN NUM SCONJ
-2.48609	CCONJ NUM SCONJ
-2.2843301	ADV NUM SCONJ
-2.4539208	ADJ NUM SCONJ
-2.3475144	PUNCT NUM SCONJ
-2.4663699	PART NUM SCONJ
-2.253153	SCONJ NUM SCONJ
-2.8658042	NUM NUM SCONJ
-2.7159698	SYM NUM SCONJ
-2.8418133	NOUN SYM SCONJ
-2.1808827	NOUN X SCONJ
-1.7370666	VERB X SCONJ
-2.5571969	PROPN X SCONJ
-2.4561195	PUNCT X SCONJ
-2.453407	X X SCONJ
-2.1174853	<s> INTJ SCONJ
-1.4730126	AUX INTJ SCONJ
-1.61298	PROPN INTJ SCONJ
