\data\
ngram 1=21
ngram 2=324
ngram 3=4284
ngram 4=34308

\1-grams:
-2.3722422	<unk>	0
0	<s>	-4.0721455
-1.2833012	</s>	0
-1.258299	DET	-1.3865321
-1.258299	NOUN	-1.4379205
-1.258299	AUX	-1.3765094
-1.258299	VERB	-1.4480189
-1.258299	ADP	-1.4074854
-1.234658	PROPN	-1.455127
-1.258299	CCONJ	-1.3848776
-1.258299	ADV	-1.4259688
-1.258299	ADJ	-1.4183627
-1.258299	PUNCT	-1.4593366
-1.258299	PRON	-1.3748163
-1.258299	PART	-1.30103
-1.258299	SCONJ	-1.3413247
-1.258299	NUM	-1.3832169
-1.258299	SYM	-1.1408155
-1.258299	X	-1.1995724
-1.2833012	INTJ	-1.1652334
-2.2375438	SPACE	-0.39794004

\2-grams:
-1.3800461	DET </s>	0
-1.2571155	NOUN </s>	0
-1.4115648	AUX </s>	0
-1.2519528	VERB </s>	0
-1.4884799	ADP </s>	0
-1.2341839	PROPN </s>	0
-1.6428729	CCONJ </s>	0
-1.2843883	ADV </s>	0
-1.2222966	ADJ </s>	0
-1.2383937	PUNCT </s>	0
-1.4558108	PRON </s>	0
-1.5516669	PART </s>	0
-1.5319831	SCONJ </s>	0
-1.2716774	NUM </s>	0
-2.076683	SYM </s>	0
-1.088033	X </s>	0
-1.5029565	INTJ </s>	0
-0.7032578	<s> DET	-2.971283
-1.1896133	DET DET	-0.7891056
-1.2562324	NOUN DET	-0.84953874
-1.1547612	AUX DET	-0.83814305
-1.2262707	VERB DET	-0.9439194
-1.1857371	ADP DET	-0.8960457
-1.2333788	PROPN DET	-0.77359325
-1.1879588	CCONJ DET	-0.776822
-1.2042205	ADV DET	-0.832781
-1.3379823	ADJ DET	-0.6977539
-1.2375884	PUNCT DET	-0.8839251
-1.2322694	PRON DET	-0.69807106
-1.1226287	PART DET	-0.6977539
-1.1195763	SCONJ DET	-0.83084375
-1.2406698	NUM DET	-0.63521403
-1.4221022	SYM DET	-0.3036859
-1.2789547	X DET	-0.4250268
-1.3538176	INTJ DET	-0.32294264
-1.1073884	<s> NOUN	-2.5480623
-1.1647838	DET NOUN	-0.9698357
-1.2314342	NOUN NOUN	-0.97801477
-1.2059263	AUX NOUN	-0.8293229
-1.2262707	VERB NOUN	-0.9795077
-1.1857371	ADP NOUN	-0.9640873
-1.2582083	PROPN NOUN	-0.9425769
-1.2142944	CCONJ NOUN	-0.75437856
-1.22905	ADV NOUN	-0.85687333
-1.1966145	ADJ NOUN	-0.9763912
-1.2375884	PUNCT NOUN	-0.92761195
-1.2322694	PRON NOUN	-0.66505104
-1.150685	PART NOUN	-0.6523027
-1.1707414	SCONJ NOUN	-0.8113021
-1.1614685	NUM NOUN	-0.9686236
-0.9120386	SYM NOUN	-0.669129
-1.1539657	X NOUN	-0.58404034
-1.1196266	INTJ NOUN	-0.38666603
-2.0497563	<s> AUX	-1.699966
-1.2159489	DET AUX	-0.86418337
-1.2314342	NOUN AUX	-0.93149996
-1.2059263	AUX AUX	-0.7419049
-1.2511002	VERB AUX	-0.85157084
-1.2949103	ADP AUX	-0.61363
-1.2333788	PROPN AUX	-0.9205766
-1.2423307	CCONJ AUX	-0.74061036
-1.2553856	ADV AUX	-0.85827464
-1.2758158	ADJ AUX	-0.8017988
-1.2624179	PUNCT AUX	-0.9042079
-1.1530681	PRON AUX	-0.9319525
-1.150685	PART AUX	-0.84793156
-1.1987778	SCONJ AUX	-0.6084417
-1.2406698	NUM AUX	-0.7594324
-1.7878953	SYM AUX	-0.37557533
-1.4551466	X AUX	-0.30971357
-1.2446157	INTJ AUX	-0.40245867
-1.3526384	<s> VERB	-2.3277903
-1.1896133	DET VERB	-0.9296505
-1.2314342	NOUN VERB	-0.9698357
-1.1795907	AUX VERB	-0.931897
-1.2262707	VERB VERB	-0.9134919
-1.1857371	ADP VERB	-0.9068265
-1.2098924	PROPN VERB	-0.9681812
-1.1879588	CCONJ VERB	-0.8431465
-1.2042205	ADV VERB	-0.93650556
-1.2477796	ADJ VERB	-0.8759603
-1.2624179	PUNCT VERB	-0.9414046
-1.1530681	PRON VERB	-0.97963226
-1.0714303	PART VERB	-0.9336953
-1.1987778	SCONJ VERB	-0.7958932
-1.2126336	NUM VERB	-0.82584953
-1.0757766	SYM VERB	-0.3512107
-1.119192	X VERB	-0.4584598
-0.99465024	INTJ VERB	-0.53562564
-1.0399469	<s> ADP	-2.6358726
-1.2159489	DET ADP	-0.7807679
-1.2314342	NOUN ADP	-0.94955367
-1.2059263	AUX ADP	-0.7915586
-1.2262707	VERB ADP	-0.9681812
-1.2649385	ADP ADP	-0.7717176
-1.2333788	PROPN ADP	-0.8623542
-1.1879588	CCONJ ADP	-0.7504152
-1.2553856	ADV ADP	-0.8383777
-1.1966145	ADJ ADP	-0.86372834
-1.2624179	PUNCT ADP	-0.90020907
-1.2042332	PRON ADP	-0.7375926
-1.150685	PART ADP	-0.66717553
-1.1707414	SCONJ ADP	-0.820606
-1.2126336	NUM ADP	-0.8407309
-1.2152952	SYM ADP	-0.36248314
-1.1917679	X ADP	-0.47987923
-1.157429	INTJ ADP	-0.49318027
-0.7659097	<s> PROPN	-2.8647158
-1.1639801	DET PROPN	-0.9190958
-1.2306018	NOUN PROPN	-0.8714564
-1.2050222	AUX PROPN	-0.77499527
-1.225467	VERB PROPN	-0.9401915
-1.1849334	ADP PROPN	-0.965828
-1.232575	PROPN PROPN	-0.99703795
-1.1623256	CCONJ PROPN	-0.7249065
-1.2281991	ADV PROPN	-0.752157
-1.1958108	ADJ PROPN	-0.8838583
-1.2367847	PUNCT PROPN	-0.939046
-1.203329	PRON PROPN	-0.629486
-1.2118077	PART PROPN	-0.49559954
-1.1978135	SCONJ PROPN	-0.80297863
-1.1854471	NUM PROPN	-0.8191037
-0.9112478	SYM PROPN	-0.7957747
-1.0018027	X PROPN	-0.56137127
-1.1561145	INTJ PROPN	-0.43434548
-0.20530112	SPACE PROPN	-0.37557533
-1.4660631	<s> CCONJ	-2.2084808
-1.3061516	DET CCONJ	-0.5172142
-1.2314342	NOUN CCONJ	-0.9209478
-1.296129	AUX CCONJ	-0.55519617
-1.2262707	VERB CCONJ	-0.8500845
-1.2649385	ADP CCONJ	-0.6569221
-1.2333788	PROPN CCONJ	-0.8963053
-1.4642599	CCONJ CCONJ	-0.329231
-1.2553856	ADV CCONJ	-0.7472234
-1.1966145	ADJ CCONJ	-0.85468024
-1.2375884	PUNCT CCONJ	-0.9020624
-1.2622412	PRON CCONJ	-0.6338803
-1.4240718	PART CCONJ	-0.35399428
-1.295718	SCONJ CCONJ	-0.5174143
-1.2126336	NUM CCONJ	-0.78894037
-1.6487694	SYM CCONJ	-0.37557533
-1.3881567	X CCONJ	-0.36067516
-1.2957933	INTJ CCONJ	-0.3127317
-1.0896984	<s> ADV	-2.5739193
-1.1896133	DET ADV	-0.79776496
-1.2314342	NOUN ADV	-0.8940489
-1.1795907	AUX ADV	-0.8732394
-1.2262707	VERB ADV	-0.93149996
-1.1857371	ADP ADV	-0.85514396
-1.2582083	PROPN ADV	-0.860135
-1.1879588	CCONJ ADV	-0.82291347
-1.2042205	ADV ADV	-0.9023417
-1.2758158	ADJ ADV	-0.83618873
-1.2375884	PUNCT ADV	-0.9462859
-1.1530681	PRON ADV	-0.74085486
-1.150685	PART ADV	-0.81807953
-1.2287496	SCONJ ADV	-0.7714155
-1.2126336	NUM ADV	-0.676078
-1.1636469	SYM ADV	-0.31921852
-1.4551466	X ADV	-0.3502162
-1.1196266	INTJ ADV	-0.3939096
-1.3260943	<s> ADJ	-2.3375247
-1.1647838	DET ADJ	-0.8880343
-1.2314342	NOUN ADJ	-0.84294194
-1.1795907	AUX ADJ	-0.8860505
-1.2262707	VERB ADJ	-0.89202654
-1.1857371	ADP ADJ	-0.86863375
-1.2582083	PROPN ADJ	-0.7219373
-1.1879588	CCONJ ADJ	-0.75272983
-1.2834219	ADV ADJ	-0.9160138
-1.221444	ADJ ADJ	-0.7852889
-1.2624179	PUNCT ADJ	-0.8564423
-1.2042332	PRON ADJ	-0.70766705
-1.150685	PART ADJ	-0.7594298
-1.1987778	SCONJ ADJ	-0.7325181
-1.2126336	NUM ADJ	-0.75511307
-1.0377183	SYM ADJ	-0.49063152
-1.1539657	X ADJ	-0.43298692
-1.3538176	INTJ ADJ	-0.37133688
-1.4357201	<s> PUNCT	-2.194909
-1.2159489	DET PUNCT	-0.84434617
-1.2314342	NOUN PUNCT	-1.013773
-1.2339625	AUX PUNCT	-0.80847573
-1.2262707	VERB PUNCT	-0.9698357
-1.2105666	ADP PUNCT	-0.81939286
-1.2333788	PROPN PUNCT	-1.0226364
-1.2142944	CCONJ PUNCT	-0.6281935
-1.2042205	ADV PUNCT	-0.96149963
-1.1966145	ADJ PUNCT	-0.95981306
-1.2375884	PUNCT PUNCT	-0.98604256
-1.1530681	PRON PUNCT	-0.848733
-1.150685	PART PUNCT	-0.7342088
-1.1987778	SCONJ PUNCT	-0.7422806
-1.2126336	NUM PUNCT	-0.9190958
-1.1174932	SYM PUNCT	-0.4338098
-1.0026537	X PUNCT	-0.70060396
-0.96831465	INTJ PUNCT	-0.6391175
-0.8590715	<s> PRON	-2.824007
-1.2159489	DET PRON	-0.63793063
-1.2562324	NOUN PRON	-0.78585243
-1.2059263	AUX PRON	-0.8069406
-1.2262707	VERB PRON	-0.9414046
-1.2369022	ADP PRON	-0.89189696
-1.2333788	PROPN PRON	-0.69497555
-1.1879588	CCONJ PRON	-0.7203527
-1.2042205	ADV PRON	-0.78082293
-1.2477796	ADJ PRON	-0.6294761
-1.2375884	PUNCT PRON	-0.8465679
-1.1778976	PRON PRON	-0.6240001
-1.2129006	PART PRON	-0.5638521
-1.1444058	SCONJ PRON	-0.76344734
-1.2706418	NUM PRON	-0.5762945
-1.3417246	SYM PRON	-0.40581468
-1.3301324	X PRON	-0.3597283
-1.0848529	INTJ PRON	-0.56695
-2.238784	<s> PART	-1.5696898
-1.3409253	DET PART	-0.5062038
-1.2314342	NOUN PART	-0.83335197
-1.1795907	AUX PART	-0.78130907
-1.2511002	VERB PART	-0.78748274
-1.2649385	ADP PART	-0.5189968
-1.2582083	PROPN PART	-0.84271824
-1.2423307	CCONJ PART	-0.6609345
-1.22905	ADV PART	-0.691671
-1.221444	ADJ PART	-0.68563867
-1.2624179	PUNCT PART	-0.79606646
-1.2622412	PRON PART	-0.6553369
-1.2129006	PART PART	-0.7165104
-1.2287496	SCONJ PART	-0.62298393
-1.2406698	NUM PART	-0.54065925
-1.7878953	SYM PART	-0.37557533
-1.6313887	X PART	-0.39640862
-1.7221394	INTJ PART	-0.3035499
-1.4288899	<s> SCONJ	-2.2745662
-1.3787277	DET SCONJ	-0.46936437
-1.2562324	NOUN SCONJ	-0.868763
-1.2339625	AUX SCONJ	-0.7453843
-1.2511002	VERB SCONJ	-0.90893984
-1.2649385	ADP SCONJ	-0.5783148
-1.2333788	PROPN SCONJ	-0.78768915
-1.3044971	CCONJ SCONJ	-0.6198717
-1.22905	ADV SCONJ	-0.8003218
-1.1966145	ADJ SCONJ	-0.85034513
-1.2624179	PUNCT SCONJ	-0.86967415
-1.2042332	PRON SCONJ	-0.5766949
-1.2855438	PART SCONJ	-0.5121671
-1.2287496	SCONJ SCONJ	-0.717059
-1.2406698	NUM SCONJ	-0.5423019
-2.0652702	SYM SCONJ	-0.37557533
-1.5343882	X SCONJ	-0.28738117
-1.4208075	INTJ SCONJ	-0.41772026
-1.8492854	<s> NUM	-1.8338017
-1.2159489	DET NUM	-0.73329663
-1.2825328	NOUN NUM	-0.7536425
-1.2339625	AUX NUM	-0.69490564
-1.2774358	VERB NUM	-0.8211406
-1.1857371	ADP NUM	-0.87695664
-1.2845439	PROPN NUM	-0.8562456
-1.2723025	CCONJ NUM	-0.5707349
-1.2042205	ADV NUM	-0.75989145
-1.221444	ADJ NUM	-0.6397586
-1.2624179	PUNCT NUM	-0.794157
-1.4541986	PRON NUM	-0.3427619
-1.2477051	PART NUM	-0.51738334
-1.1707414	SCONJ NUM	-0.6627376
-1.2406698	NUM NUM	-0.7796243
-0.88557905	SYM NUM	-0.7607814
-1.5343882	X NUM	-0.4240892
-1.5000491	INTJ NUM	-0.40069792
-3.0474715	<s> SYM	-1.0087024
-1.3061516	DET SYM	-0.6540088
-1.3105291	NOUN SYM	-0.6574733
-1.3309027	AUX SYM	-0.5088493
-1.305472	VERB SYM	-0.6816412
-1.2949103	ADP SYM	-0.5931413
-1.2845439	PROPN SYM	-0.68691283
-1.2423307	CCONJ SYM	-0.5874764
-1.380362	ADV SYM	-0.6063174
-1.2758158	ADJ SYM	-0.6932335
-1.3467617	PUNCT SYM	-0.66793334
-1.3292096	PRON SYM	-0.5192857
-1.6286882	PART SYM	-0.29634142
-1.5968988	SCONJ SYM	-0.41500673
-1.2126336	NUM SYM	-0.59818065
-1.5208129	SYM SYM	-0.3035499
-1.6313887	X SYM	-0.30378792
-1.7221394	INTJ SYM	-0.3035499
-2.2821207	<s> X	-1.5380185
-1.273957	DET X	-0.58888364
-1.2825328	NOUN X	-0.58852583
-1.7113252	AUX X	-0.33820003
-1.4024123	VERB X	-0.3971458
-1.3618786	ADP X	-0.48751146
-1.2582083	PROPN X	-0.5599431
-1.3044971	CCONJ X	-0.4390089
-1.380362	ADV X	-0.38800678
-1.4519675	ADJ X	-0.38668132
-1.2624179	PUNCT X	-0.5661199
-1.5634005	PRON X	-0.30927697
-1.9869243	PART X	-0.37557536
-1.5968988	SCONJ X	-0.3385337
-1.5137768	NUM X	-0.31722736
-1.2739254	SYM X	-0.4311707
-1.0026537	X X	-0.5929299
-1.5970497	INTJ X	-0.2849894
-2.1617033	<s> INTJ	-1.553773
-1.8219864	DET INTJ	-0.3380712
-1.4464042	NOUN INTJ	-0.38370314
-1.6345047	AUX INTJ	-0.36626112
-1.4036207	VERB INTJ	-0.4673791
-1.5398597	ADP INTJ	-0.30838537
-1.4901824	PROPN INTJ	-0.38313767
-1.419933	CCONJ INTJ	-0.3946533
-1.4610242	ADV INTJ	-0.4005551
-1.6090212	ADJ INTJ	-0.34503776
-1.2632705	PUNCT INTJ	-0.71529216
-1.5071905	PRON INTJ	-0.37409517
-1.6315479	PART INTJ	-0.3035499
-1.5993199	SCONJ INTJ	-0.34714797
-1.9449822	NUM INTJ	-0.32046762
-1.6350268	X INTJ	-0.3380712
-1.246228	INTJ INTJ	-0.3578485
-2.6644378	NOUN SPACE	-0.37557533

\3-grams:
-4.162394	<s> DET </s>	0
-2.025778	NOUN DET </s>	0
-1.853366	AUX DET </s>	0
-1.4916364	VERB DET </s>	0
-1.9254552	ADP DET </s>	0
-1.9336265	PROPN DET </s>	0
-1.9644358	CCONJ DET </s>	0
-2.0208611	ADV DET </s>	0
-1.9133345	PUNCT DET </s>	0
-1.7822514	PRON DET </s>	0
-1.9428465	SCONJ DET </s>	0
-2.1746616	<s> NOUN </s>	0
-1.3410146	DET NOUN </s>	0
-1.2522355	NOUN NOUN </s>	0
-1.5503799	AUX NOUN </s>	0
-1.2094033	VERB NOUN </s>	0
-1.2846	ADP NOUN </s>	0
-1.1887571	PROPN NOUN </s>	0
-1.581974	CCONJ NOUN </s>	0
-1.9563636	ADV NOUN </s>	0
-1.1713988	ADJ NOUN </s>	0
-1.4228547	PUNCT NOUN </s>	0
-1.7588577	PRON NOUN </s>	0
-1.2991674	PART NOUN </s>	0
-1.4528153	SCONJ NOUN </s>	0
-1.2496015	NUM NOUN </s>	0
-1.0897719	SYM NOUN </s>	0
-1.6030906	X NOUN </s>	0
-1.874364	DET AUX </s>	0
-1.7121161	NOUN AUX </s>	0
-1.937588	AUX AUX </s>	0
-1.9628366	VERB AUX </s>	0
-2.0487006	PROPN AUX </s>	0
-1.9241439	CCONJ AUX </s>	0
-1.9863988	ADV AUX </s>	0
-2.099891	PUNCT AUX </s>	0
-1.8165709	PRON AUX </s>	0
-1.9532304	PART AUX </s>	0
-3.3594418	<s> VERB </s>	0
-1.9646583	DET VERB </s>	0
-1.3403398	NOUN VERB </s>	0
-1.3814955	AUX VERB </s>	0
-1.5845917	VERB VERB </s>	0
-1.9403051	ADP VERB </s>	0
-1.4634793	PROPN VERB </s>	0
-1.5085475	CCONJ VERB </s>	0
-1.4703468	ADV VERB </s>	0
-1.8951082	ADJ VERB </s>	0
-1.9089803	PUNCT VERB </s>	0
-1.4292307	PRON VERB </s>	0
-1.3832937	PART VERB </s>	0
-1.891374	SCONJ VERB </s>	0
-1.8417099	NUM VERB </s>	0
-1.2881696	SYM VERB </s>	0
-1.4060137	X VERB </s>	0
-3.8934796	<s> ADP </s>	0
-2.008844	DET ADP </s>	0
-1.4780257	NOUN ADP </s>	0
-1.5520576	VERB ADP </s>	0
-1.7743658	PROPN ADP </s>	0
-1.9798355	CCONJ ADP </s>	0
-2.0091162	ADV ADP </s>	0
-2.1291277	ADJ ADP </s>	0
-2.0709474	PUNCT ADP </s>	0
-2.1623094	<s> PROPN </s>	0
-1.3449751	DET PROPN </s>	0
-1.2705442	NOUN PROPN </s>	0
-1.7867782	AUX PROPN </s>	0
-1.4118931	VERB PROPN </s>	0
-1.221526	ADP PROPN </s>	0
-1.2147229	PROPN PROPN </s>	0
-1.6831598	CCONJ PROPN </s>	0
-1.5650977	ADV PROPN </s>	0
-1.3611902	ADJ PROPN </s>	0
-1.3857948	PUNCT PROPN </s>	0
-1.6063032	PRON PROPN </s>	0
-1.5010794	PART PROPN </s>	0
-1.5248313	SCONJ PROPN </s>	0
-1.6320444	NUM PROPN </s>	0
-1.0234642	SYM PROPN </s>	0
-1.4377689	X PROPN </s>	0
-1.3497163	INTJ PROPN </s>	0
-2.9145305	<s> CCONJ </s>	0
-1.88317	NOUN CCONJ </s>	0
-2.2011404	VERB CCONJ </s>	0
-2.242069	PROPN CCONJ </s>	0
-2.2057362	ADJ CCONJ </s>	0
-1.8642846	PUNCT CCONJ </s>	0
-3.5452418	<s> ADV </s>	0
-1.8355942	DET ADV </s>	0
-1.342025	NOUN ADV </s>	0
-1.5390165	AUX ADV </s>	0
-1.3286247	VERB ADV </s>	0
-1.9079448	ADP ADV </s>	0
-1.493789	PROPN ADV </s>	0
-1.8767903	CCONJ ADV </s>	0
-1.4401958	ADV ADV </s>	0
-1.787323	ADJ ADV </s>	0
-1.9252399	PUNCT ADV </s>	0
-1.7912061	PRON ADV </s>	0
-1.8854069	SCONJ ADV </s>	0
-1.7874703	NUM ADV </s>	0
-1.4082185	INTJ ADV </s>	0
-2.7132635	<s> ADJ </s>	0
-1.616432	DET ADJ </s>	0
-1.4149766	NOUN ADJ </s>	0
-1.4495816	AUX ADJ </s>	0
-1.461105	VERB ADJ </s>	0
-1.8168942	ADP ADJ </s>	0
-1.7125161	PROPN ADJ </s>	0
-1.5512745	CCONJ ADJ </s>	0
-1.4212492	ADV ADJ </s>	0
-1.8645374	ADJ ADJ </s>	0
-1.6867241	PUNCT ADJ </s>	0
-1.4801842	PRON ADJ </s>	0
-1.8252978	PART ADJ </s>	0
-1.5255213	SCONJ ADJ </s>	0
-1.730037	NUM ADJ </s>	0
-1.4878044	SYM ADJ </s>	0
-1.3528086	X ADJ </s>	0
-1.7873223	<s> PUNCT </s>	0
-1.0886648	DET PUNCT </s>	0
-1.2071254	NOUN PUNCT </s>	0
-1.0967621	AUX PUNCT </s>	0
-1.1631882	VERB PUNCT </s>	0
-1.1214637	ADP PUNCT </s>	0
-1.2159889	PROPN PUNCT </s>	0
-1.3513358	CCONJ PUNCT </s>	0
-1.2058182	ADV PUNCT </s>	0
-1.1531656	ADJ PUNCT </s>	0
-1.1793951	PUNCT PUNCT </s>	0
-1.0668213	PRON PUNCT </s>	0
-1.0319434	PART PUNCT </s>	0
-1.1832424	SCONJ PUNCT </s>	0
-1.1634144	NUM PUNCT </s>	0
-0.57144034	SYM PUNCT </s>	0
-1.0279564	X PUNCT </s>	0
-0.93454903	INTJ PUNCT </s>	0
-3.965315	<s> PRON </s>	0
-1.9437394	AUX PRON </s>	0
-1.4593595	VERB PRON </s>	0
-1.4488963	ADP PRON </s>	0
-1.7370162	CCONJ PRON </s>	0
-2.00288	ADV PRON </s>	0
-1.9971664	PUNCT PRON </s>	0
-1.9181608	SCONJ PRON </s>	0
-1.4361044	NUM PRON </s>	0
-2.1087704	NOUN PART </s>	0
-2.0716588	AUX PART </s>	0
-2.0552652	VERB PART </s>	0
-2.0293689	PROPN PART </s>	0
-1.8243572	CCONJ PART </s>	0
-1.9419866	PUNCT PART </s>	0
-3.5449197	<s> SCONJ </s>	0
-2.1464589	NOUN SCONJ </s>	0
-2.191581	VERB SCONJ </s>	0
-1.8214687	ADP SCONJ </s>	0
-2.1329863	ADJ SCONJ </s>	0
-2.1570668	PUNCT SCONJ </s>	0
-1.823275	PRON SCONJ </s>	0
-2.8761363	<s> NUM </s>	0
-1.8424398	DET NUM </s>	0
-1.2513826	NOUN NUM </s>	0
-1.8016174	AUX NUM </s>	0
-1.5411919	VERB NUM </s>	0
-1.5335661	ADP NUM </s>	0
-1.2713624	PROPN NUM </s>	0
-1.871807	ADV NUM </s>	0
-1.5948894	ADJ NUM </s>	0
-1.5142084	PUNCT NUM </s>	0
-1.5944573	PART NUM </s>	0
-1.7723055	SCONJ NUM </s>	0
-1.5763928	NUM NUM </s>	0
-1.3754827	SYM NUM </s>	0
-1.7802663	NUM SYM </s>	0
-1.9584324	<s> X </s>	0
-0.95696217	NOUN X </s>	0
-1.1800301	VERB X </s>	0
-0.8955135	ADP X </s>	0
-1.209387	PROPN X </s>	0
-1.174532	CCONJ X </s>	0
-1.1709077	ADV X </s>	0
-1.1939218	ADJ X </s>	0
-1.1526271	PUNCT X </s>	0
-1.0540562	PRON X </s>	0
-0.7382346	NUM X </s>	0
-0.5310721	SYM X </s>	0
-1.3708869	X X </s>	0
-0.9028932	INTJ X </s>	0
-2.4190938	<s> INTJ </s>	0
-1.3240421	NOUN INTJ </s>	0
-1.4820178	PROPN INTJ </s>	0
-1.4480338	ADV INTJ </s>	0
-1.4571074	PUNCT INTJ </s>	0
-2.048945	<s> DET DET	-1.1512566
-1.232728	DET DET DET	-0.6401883
-1.0708172	NOUN DET DET	-1.3521663
-1.1372607	AUX DET DET	-1.2098995
-1.1886768	VERB DET DET	-1.450714
-1.1559399	ADP DET DET	-1.7197542
-1.4161835	PROPN DET DET	-0.47675738
-1.2168487	CCONJ DET DET	-0.88700926
-1.0828233	ADV DET DET	-1.0040061
-1.2841531	ADJ DET DET	-0.6231416
-1.2391378	PUNCT DET DET	-1.1627785
-1.2852987	PRON DET DET	-0.7326347
-1.1982883	PART DET DET	-0.6408455
-1.1643862	SCONJ DET DET	-1.1365631
-1.4799404	NUM DET DET	-0.29402587
-1.2004626	X DET DET	-0.29137042
-1.1745708	INTJ DET DET	-0.29137042
-2.1610491	<s> NOUN DET	-0.8196104
-1.1895952	DET NOUN DET	-2.2330122
-1.2241087	NOUN NOUN DET	-1.826304
-1.1619476	AUX NOUN DET	-0.94034135
-1.2374706	VERB NOUN DET	-1.4526862
-1.2220503	ADP NOUN DET	-1.7092284
-1.2466762	PROPN NOUN DET	-1.2321801
-1.2738415	CCONJ NOUN DET	-1.3398129
-1.2037392	ADV NOUN DET	-0.46193397
-1.2224852	ADJ NOUN DET	-2.1639788
-1.230685	PUNCT NOUN DET	-1.0554173
-1.3527981	PRON NOUN DET	-0.35560974
-1.4795694	PART NOUN DET	-0.8306781
-1.2729326	SCONJ NOUN DET	-0.525211
-1.1911477	NUM NOUN DET	-1.3101586
-1.4606614	SYM NOUN DET	-0.32794243
-1.6025801	X NOUN DET	-0.29137042
-0.73011667	<s> AUX DET	-1.140065
-1.0703566	DET AUX DET	-1.8526329
-1.1005046	NOUN AUX DET	-2.1147425
-0.9913452	AUX AUX DET	-1.4873512
-1.0256567	VERB AUX DET	-1.7990186
-0.8970836	ADP AUX DET	-1.0790418
-1.0750016	PROPN AUX DET	-1.9953122
-1.0362133	CCONJ AUX DET	-1.220817
-1.120093	ADV AUX DET	-1.9176161
-1.0013655	ADJ AUX DET	-1.017343
-1.037594	PUNCT AUX DET	-1.6714358
-1.0937424	PRON AUX DET	-2.3162446
-1.039267	PART AUX DET	-1.8840152
-0.8209743	SCONJ AUX DET	-0.93076366
-1.0005934	NUM AUX DET	-1.0178667
-0.49631807	SYM AUX DET	-0.29137042
-0.92501175	X AUX DET	-0.29402587
-1.1876762	INTJ AUX DET	-0.29137042
-0.72253215	<s> VERB DET	-1.7218426
-1.1355264	DET VERB DET	-1.9161007
-1.2129098	NOUN VERB DET	-2.3965034
-1.1749711	AUX VERB DET	-2.347595
-1.1057377	VERB VERB DET	-2.21807
-1.0827717	ADP VERB DET	-2.1473475
-1.1604269	PROPN VERB DET	-2.294562
-1.1071934	CCONJ VERB DET	-2.1582134
-1.1656133	ADV VERB DET	-2.2833462
-1.0745281	ADJ VERB DET	-1.1628202
-1.1513605	PUNCT VERB DET	-2.2699106
-1.1718779	PRON VERB DET	-2.3483672
-1.1767694	PART VERB DET	-2.6962905
-1.031747	SCONJ VERB DET	-1.4572059
-1.0172695	NUM VERB DET	-1.0855544
-1.1712027	SYM VERB DET	-0.54182225
-0.8655699	X VERB DET	-0.5863829
-0.92874265	INTJ VERB DET	-1.0157017
-0.33853412	<s> ADP DET	-2.384553
-0.94557905	DET ADP DET	-1.88841
-1.1378887	NOUN ADP DET	-3.2752721
-1.0047293	AUX ADP DET	-1.9809185
-1.1565162	VERB ADP DET	-2.9930842
-0.9650685	ADP ADP DET	-2.0340488
-1.0590061	PROPN ADP DET	-2.4047034
-0.9179274	CCONJ ADP DET	-1.820865
-1.08161	ADV ADP DET	-2.2812777
-1.1069605	ADJ ADP DET	-2.3196642
-1.0896398	PUNCT ADP DET	-2.2897685
-0.8584151	PRON ADP DET	-1.9503977
-0.75047493	PART ADP DET	-1.3189826
-0.96693057	SCONJ ADP DET	-1.9377668
-0.9459655	NUM ADP DET	-2.0834026
-0.9483048	SYM ADP DET	-0.29402587
-0.6930967	X ADP DET	-0.63054615
-0.52831084	INTJ ADP DET	-0.5712095
-2.5583446	<s> PROPN DET	-0.78749233
-1.3034155	DET PROPN DET	-1.0434074
-1.4079635	NOUN PROPN DET	-0.6173779
-1.3868672	AUX PROPN DET	-0.3602518
-1.2196867	VERB PROPN DET	-1.079821
-1.2513756	ADP PROPN DET	-1.4435632
-1.2146453	PROPN PROPN DET	-1.4346331
-1.4638542	CCONJ PROPN DET	-0.73369515
-1.3858526	ADV PROPN DET	-0.29205555
-1.3610492	ADJ PROPN DET	-0.8647383
-1.3070639	PUNCT PROPN DET	-0.89319974
-1.6058578	PRON PROPN DET	-0.29535973
-1.5006038	PART PROPN DET	-0.29402587
-1.4448262	SCONJ PROPN DET	-0.5087387
-1.4527994	NUM PROPN DET	-0.29133305
-1.4487178	SYM PROPN DET	-0.5313893
-1.5327653	X PROPN DET	-0.28535292
-1.2415657	INTJ PROPN DET	-0.28336546
-0.6955629	<s> CCONJ DET	-1.6468024
-0.79447263	DET CCONJ DET	-0.87526095
-1.1598785	NOUN CCONJ DET	-2.2821777
-1.0140529	AUX CCONJ DET	-0.8436384
-1.0935698	VERB CCONJ DET	-1.3476517
-1.0169405	ADP CCONJ DET	-1.1324282
-1.0762782	PROPN CCONJ DET	-1.9795507
-1.0783175	CCONJ CCONJ DET	-0.38226295
-1.1179044	ADV CCONJ DET	-0.9008269
-1.0981655	ADJ CCONJ DET	-1.2836487
-1.1409931	PUNCT CCONJ DET	-2.1700838
-0.9152844	PRON CCONJ DET	-1.3225853
-1.1640644	PART CCONJ DET	-0.5900787
-0.68707776	SCONJ CCONJ DET	-0.54859436
-0.96415716	NUM CCONJ DET	-0.88958716
-1.0001626	X CCONJ DET	-0.28535292
-0.7967843	INTJ CCONJ DET	-0.28654975
-1.0253456	<s> ADV DET	-1.7177918
-1.0918765	DET ADV DET	-0.8668573
-1.1852623	NOUN ADV DET	-1.5328425
-1.12569	AUX ADV DET	-1.8026903
-1.1561441	VERB ADV DET	-1.7582599
-1.0833646	ADP ADV DET	-1.4680569
-1.2102671	PROPN ADV DET	-1.141642
-1.1878405	CCONJ ADV DET	-1.5031788
-1.1845016	ADV ADV DET	-1.3277147
-1.138273	ADJ ADV DET	-0.8225494
-1.1447973	PUNCT ADV DET	-1.675383
-1.2367977	PRON ADV DET	-0.755811
-1.0590831	PART ADV DET	-1.215425
-1.0617999	SCONJ ADV DET	-1.0744386
-1.1381925	NUM ADV DET	-0.65505046
-1.127907	SYM ADV DET	-0.29137042
-1.0351968	X ADV DET	-0.29137042
-1.265328	INTJ ADV DET	-0.29402587
-2.688936	<s> ADJ DET	-0.415382
-1.3344585	DET ADJ DET	-0.6767024
-1.5092773	NOUN ADJ DET	-0.5044915
-1.2667905	AUX ADJ DET	-0.8281127
-1.2400242	VERB ADJ DET	-0.9289119
-1.3171929	ADP ADJ DET	-0.8216563
-1.3978008	CCONJ ADJ DET	-0.4053762
-1.1885558	ADV ADJ DET	-1.0952579
-1.626229	ADJ ADJ DET	-0.2933605
-1.4724137	PUNCT ADJ DET	-0.58837944
-1.4075648	PRON ADJ DET	-0.5519044
-1.2346683	PART ADJ DET	-0.54142535
-1.5650623	SCONJ ADJ DET	-0.36573097
-0.7670447	<s> PUNCT DET	-1.6176978
-1.1463237	DET PUNCT DET	-1.0165982
-1.2317843	NOUN PUNCT DET	-2.6072514
-1.1635786	AUX PUNCT DET	-0.9826188
-1.1878471	VERB PUNCT DET	-1.7998828
-1.0915412	ADP PUNCT DET	-1.3068074
-1.2159163	PROPN PUNCT DET	-2.45645
-1.2711155	CCONJ PUNCT DET	-0.844426
-1.2057365	ADV PUNCT DET	-2.0008216
-1.2319614	ADJ PUNCT DET	-1.4502873
-1.2302794	PUNCT PUNCT DET	-1.8494167
-1.2173225	PRON PUNCT DET	-1.2693157
-1.3030933	PART PUNCT DET	-0.82208544
-1.1041952	SCONJ PUNCT DET	-1.229432
-1.1912441	NUM PUNCT DET	-1.7335888
-1.1967117	SYM PUNCT DET	-0.29137042
-1.18702	X PUNCT DET	-0.88867
-1.147245	INTJ PUNCT DET	-0.93713355
-2.1576016	<s> PRON DET	-1.0068452
-1.2527747	DET PRON DET	-0.4962063
-1.2368286	NOUN PRON DET	-0.73698705
-1.1597395	AUX PRON DET	-1.1663454
-1.1781743	VERB PRON DET	-1.6662925
-1.1401958	ADP PRON DET	-1.2882541
-1.752743	PROPN PRON DET	-0.29535973
-1.0562572	CCONJ PRON DET	-0.8484297
-1.1130171	ADV PRON DET	-0.8121352
-0.97608984	ADJ PRON DET	-0.42239967
-1.1175654	PUNCT PRON DET	-1.0701746
-1.5850524	PRON PRON DET	-0.56222385
-1.0579722	PART PRON DET	-0.5583542
-1.1465601	SCONJ PRON DET	-0.7821971
-1.4760103	INTJ PRON DET	-0.29137042
-1.079717	<s> PART DET	-0.74814266
-1.2824845	DET PART DET	-0.38226295
-1.2357036	NOUN PART DET	-0.59591323
-1.0231061	AUX PART DET	-1.6496474
-1.1767813	VERB PART DET	-0.82874763
-1.3866361	ADP PART DET	-0.29402587
-1.322437	PROPN PART DET	-0.5717834
-1.059193	CCONJ PART DET	-0.921554
-1.0648271	ADV PART DET	-0.8775976
-1.6550567	ADJ PART DET	-0.29137042
-1.083755	PUNCT PART DET	-0.86700505
-1.5119866	PRON PART DET	-0.28904873
-1.5210298	PART PART DET	-0.29137042
-0.91645956	SCONJ PART DET	-0.6083561
-1.4486663	NUM PART DET	-0.29137042
-0.89707434	X PART DET	-0.29137042
-0.47023174	<s> SCONJ DET	-1.9336777
-0.71865904	DET SCONJ DET	-0.82208544
-1.0499014	NOUN SCONJ DET	-2.0794606
-0.9371795	AUX SCONJ DET	-1.3245184
-1.0742453	VERB SCONJ DET	-2.3334272
-0.7830919	ADP SCONJ DET	-1.2001027
-0.89951795	PROPN SCONJ DET	-1.608501
-0.946991	CCONJ SCONJ DET	-1.3538994
-0.9957172	ADV SCONJ DET	-1.7644169
-1.0687999	ADJ SCONJ DET	-1.8316537
-1.0447046	PUNCT SCONJ DET	-1.8838459
-0.82232744	PRON SCONJ DET	-1.396111
-0.76202524	PART SCONJ DET	-0.87229145
-0.85746276	SCONJ SCONJ DET	-1.3122301
-0.7957655	NUM SCONJ DET	-0.95355374
-0.21407285	SYM SCONJ DET	-0.29137042
-0.6607417	X SCONJ DET	-0.28336546
-0.99405575	INTJ SCONJ DET	-0.29137042
-2.7736964	<s> NUM DET	-0.29402587
-1.6628904	DET NUM DET	-0.2945589
-1.3740623	NOUN NUM DET	-0.35560974
-1.3850942	AUX NUM DET	-0.35736063
-1.1837354	VERB NUM DET	-0.47535026
-1.2612485	ADP NUM DET	-0.8614472
-1.3131694	PROPN NUM DET	-0.7920269
-1.5010247	CCONJ NUM DET	-0.28654975
-1.4620019	ADV NUM DET	-0.41360167
-1.4497962	ADJ NUM DET	-0.29313892
-1.2969521	PUNCT NUM DET	-0.64396477
-1.3155175	PRON NUM DET	-0.29137042
-1.2773815	SCONJ NUM DET	-0.34704065
-1.4631127	NUM NUM DET	-0.53944105
-1.0977434	SYM NUM DET	-0.86955774
-0.93354774	DET SYM DET	-0.88542545
-1.6866176	ADP SYM DET	-0.29137042
-1.7374337	PROPN SYM DET	-0.29137042
-1.2850695	PRON SYM DET	-0.29137042
-1.6195129	NUM SYM DET	-0.29137042
-2.15594	<s> X DET	-0.38226295
-1.2128247	NOUN X DET	-0.39819318
-1.2641971	VERB X DET	-0.29402587
-1.3597869	ADP X DET	-0.2945589
-1.3736737	CCONJ X DET	-0.29535973
-1.2834796	ADJ X DET	-0.29137042
-1.2872629	PUNCT X DET	-0.4512267
-1.1936799	SYM X DET	-0.29137042
-1.4540074	X X DET	-0.35429627
-1.6770189	<s> INTJ DET	-0.39647454
-1.4027128	VERB INTJ DET	-0.29535973
-1.3370367	CCONJ INTJ DET	-0.29137042
-1.3897753	ADV INTJ DET	-0.29137042
-1.3392515	PUNCT INTJ DET	-0.58915347
-1.0349581	SCONJ INTJ DET	-0.29137042
-0.7801925	NUM INTJ DET	-0.29137042
-0.26011178	<s> DET NOUN	-2.693166
-0.9532225	DET DET NOUN	-1.8868706
-1.0101652	NOUN DET NOUN	-1.9613777
-1.0191963	AUX DET NOUN	-2.520907
-1.1078186	VERB DET NOUN	-3.106646
-1.0753206	ADP DET NOUN	-3.355411
-0.8962137	PROPN DET NOUN	-1.3888241
-0.9392202	CCONJ DET NOUN	-2.3641098
-1.0224551	ADV DET NOUN	-2.1812665
-0.84268546	ADJ DET NOUN	-1.2309923
-1.0632	PUNCT DET NOUN	-2.5999408
-0.91086596	PRON DET NOUN	-1.6560155
-0.7788983	PART DET NOUN	-1.3924669
-1.0118971	SCONJ DET NOUN	-2.5418432
-0.7307274	NUM DET NOUN	-0.9530939
-0.62190676	SYM DET NOUN	-0.43019977
-0.59838676	X DET NOUN	-0.31392434
-0.73367035	INTJ DET NOUN	-0.37598947
-0.9245301	<s> NOUN NOUN	-1.6509542
-1.1625563	DET NOUN NOUN	-2.6875288
-1.1707352	NOUN NOUN NOUN	-2.2482872
-1.0916008	AUX NOUN NOUN	-1.1071314
-1.2069255	VERB NOUN NOUN	-2.0853486
-1.1915052	ADP NOUN NOUN	-2.3419585
-1.1861849	PROPN NOUN NOUN	-1.8388915
-1.0252846	CCONJ NOUN NOUN	-2.034432
-1.0641729	ADV NOUN NOUN	-1.1405282
-1.1938106	ADJ NOUN NOUN	-2.6354806
-1.119283	PUNCT NOUN NOUN	-2.217822
-1.0350069	PRON NOUN NOUN	-0.52141327
-0.9903478	PART NOUN NOUN	-1.6425683
-1.045809	SCONJ NOUN NOUN	-1.441402
-1.1887927	NUM NOUN NOUN	-1.7194188
-0.95827156	SYM NOUN NOUN	-0.85500175
-0.688247	X NOUN NOUN	-0.67706513
-0.9888394	INTJ NOUN NOUN	-0.29402587
-1.4655383	<s> AUX NOUN	-0.5145554
-1.075824	DET AUX NOUN	-0.9488358
-1.1841408	NOUN AUX NOUN	-1.649556
-1.1125773	AUX AUX NOUN	-0.8734681
-1.1562918	VERB AUX NOUN	-1.0937246
-1.1060452	ADP AUX NOUN	-0.6397235
-1.158766	PROPN AUX NOUN	-1.1144738
-1.1320677	CCONJ AUX NOUN	-0.7821971
-1.1583661	ADV AUX NOUN	-1.0248874
-1.1710178	ADJ AUX NOUN	-0.5496949
-1.1947999	PUNCT AUX NOUN	-0.8041969
-1.1495692	PRON AUX NOUN	-1.7166828
-1.0747392	PART AUX NOUN	-1.256326
-1.2265337	SCONJ AUX NOUN	-0.4647542
-1.0452466	NUM AUX NOUN	-0.49714655
-1.0802525	X AUX NOUN	-0.29137042
-1.1449945	<s> VERB NOUN	-1.2140543
-1.1636347	DET VERB NOUN	-2.1606088
-1.1867524	NOUN VERB NOUN	-2.070619
-1.1749711	AUX VERB NOUN	-1.9165947
-1.156566	VERB VERB NOUN	-1.8575253
-1.0827717	ADP VERB NOUN	-1.9796518
-1.1604269	PROPN VERB NOUN	-1.6494735
-1.1369947	CCONJ VERB NOUN	-1.8563086
-1.1656133	ADV VERB NOUN	-1.9295282
-1.0461785	ADJ VERB NOUN	-1.3793895
-1.1513605	PUNCT VERB NOUN	-2.1401205
-1.2227063	PRON VERB NOUN	-1.8177872
-1.150612	PART VERB NOUN	-2.274844
-1.0642945	SCONJ VERB NOUN	-1.168231
-1.0172695	NUM VERB NOUN	-0.97932947
-0.90460676	SYM VERB NOUN	-0.34049073
-1.0281391	X VERB NOUN	-0.28904873
-1.1490145	INTJ VERB NOUN	-0.46513999
-0.86671394	<s> ADP NOUN	-1.8042128
-0.94557905	DET ADP NOUN	-1.0315682
-1.1378887	NOUN ADP NOUN	-3.0016043
-0.97676444	AUX ADP NOUN	-1.6245931
-1.1565162	VERB ADP NOUN	-2.5364563
-0.9951233	ADP ADP NOUN	-1.4363579
-1.0590061	PROPN ADP NOUN	-1.6663843
-1.0158719	CCONJ ADP NOUN	-1.2923127
-1.0538766	ADV ADP NOUN	-1.7197697
-1.0792272	ADJ ADP NOUN	-1.7595205
-1.0896398	PUNCT ADP NOUN	-1.914369
-0.94990146	PRON ADP NOUN	-1.4446106
-0.75047493	PART ADP NOUN	-0.87297976
-0.96693057	SCONJ ADP NOUN	-1.3795015
-0.9744697	NUM ADP NOUN	-1.1975416
-0.6377292	SYM ADP NOUN	-0.41228822
-0.98833174	X ADP NOUN	-0.29032752
-0.7324531	INTJ ADP NOUN	-0.4047692
-1.4334573	<s> PROPN NOUN	-1.4938294
-1.1429125	DET PROPN NOUN	-2.279366
-1.2011926	NOUN PROPN NOUN	-1.2484477
-1.120909	AUX PROPN NOUN	-0.6435204
-1.1640083	VERB PROPN NOUN	-1.4462148
-1.2239889	ADP PROPN NOUN	-2.00845
-1.2169788	PROPN PROPN NOUN	-2.182564
-1.1689674	CCONJ PROPN NOUN	-1.3536395
-1.1233398	ADV PROPN NOUN	-0.71767104
-1.1138564	ADJ PROPN NOUN	-1.6717923
-1.2133805	PUNCT PROPN NOUN	-1.7116495
-1.1099192	PRON PROPN NOUN	-0.4193193
-1.1012304	PART PROPN NOUN	-1.2243004
-1.1454506	SCONJ PROPN NOUN	-1.0489048
-0.99897134	NUM PROPN NOUN	-1.2217162
-1.0257728	SYM PROPN NOUN	-1.166086
-1.1051842	X PROPN NOUN	-0.43320173
-1.3919973	<s> CCONJ NOUN	-0.939161
-1.1561009	DET CCONJ NOUN	-0.29402587
-1.1120722	NOUN CCONJ NOUN	-2.6888692
-1.2817075	AUX CCONJ NOUN	-0.34249195
-1.0423117	VERB CCONJ NOUN	-1.222926
-1.1196669	ADP CCONJ NOUN	-0.61628526
-1.053992	PROPN CCONJ NOUN	-1.5886012
-1.2003509	CCONJ CCONJ NOUN	-0.29137042
-1.1630921	ADV CCONJ NOUN	-0.7218135
-1.0731491	ADJ CCONJ NOUN	-1.2775459
-1.1716273	PUNCT CCONJ NOUN	-1.7715366
-1.0455648	PRON CCONJ NOUN	-0.44494885
-1.1749028	PART CCONJ NOUN	-0.3815154
-1.065073	NUM CCONJ NOUN	-0.6457013
-0.8492926	SYM CCONJ NOUN	-0.29137042
-1.2552987	X CCONJ NOUN	-0.28336546
-1.6526406	<s> ADV NOUN	-1.0555465
-1.2220566	DET ADV NOUN	-0.6795807
-1.2202437	NOUN ADV NOUN	-1.3422384
-1.1582966	AUX ADV NOUN	-1.1064389
-1.2486707	VERB ADV NOUN	-1.1687828
-1.2213297	ADP ADV NOUN	-0.8367223
-1.175481	PROPN ADV NOUN	-0.7355809
-1.1533686	CCONJ ADV NOUN	-1.1117535
-1.2541915	ADV ADV NOUN	-0.82093155
-1.1796122	ADJ ADV NOUN	-0.60460657
-1.2014416	PUNCT ADV NOUN	-1.2607417
-1.7580717	PRON ADV NOUN	-0.33650544
-1.1781957	PART ADV NOUN	-0.6885161
-1.2444962	SCONJ ADV NOUN	-0.5452123
-1.2023556	NUM ADV NOUN	-0.32011503
-0.8582724	SYM ADV NOUN	-0.2933605
-1.3776321	INTJ ADV NOUN	-0.29137042
-0.23573296	<s> ADJ NOUN	-2.1036215
-1.0611817	DET ADJ NOUN	-3.2329812
-1.0271933	NOUN ADJ NOUN	-1.7319149
-1.0866706	AUX ADJ NOUN	-1.8956734
-1.0481322	VERB ADJ NOUN	-2.5304768
-1.0685925	ADP ADJ NOUN	-2.831076
-0.89322656	PROPN ADJ NOUN	-1.5487585
-0.9390099	CCONJ ADJ NOUN	-2.3740804
-1.144565	ADV ADJ NOUN	-2.2575562
-0.9746386	ADJ ADJ NOUN	-2.629241
-1.0634521	PUNCT ADJ NOUN	-2.3400462
-0.98300713	PRON ADJ NOUN	-1.0062678
-0.965756	PART ADJ NOUN	-1.9785677
-0.93888927	SCONJ ADJ NOUN	-1.9127265
-0.864273	NUM ADJ NOUN	-1.8815708
-0.5889209	SYM ADJ NOUN	-0.7363818
-0.50950897	X ADJ NOUN	-0.50158095
-0.9330965	INTJ ADJ NOUN	-0.28734946
-1.1330587	<s> PUNCT NOUN	-1.2415869
-1.1164945	DET PUNCT NOUN	-1.6353624
-1.2317843	NOUN PUNCT NOUN	-2.5613916
-1.0966716	AUX PUNCT NOUN	-0.79910785
-1.2140726	VERB PUNCT NOUN	-1.5860922
-1.0915412	ADP PUNCT NOUN	-1.5324702
-1.2159163	PROPN PUNCT NOUN	-2.0987163
-1.1451875	CCONJ PUNCT NOUN	-1.1569612
-1.2057365	ADV PUNCT NOUN	-1.4724923
-1.20405	ADJ PUNCT NOUN	-1.9819142
-1.204054	PUNCT PUNCT NOUN	-1.3831002
-1.2173225	PRON PUNCT NOUN	-0.89565957
-1.1049091	PART PUNCT NOUN	-0.83897096
-1.1041952	SCONJ PUNCT NOUN	-1.0767744
-1.1633327	NUM PUNCT NOUN	-1.5085788
-1.322185	SYM PUNCT NOUN	-0.29137042
-1.1414373	X PUNCT NOUN	-0.67845947
-1.4533457	INTJ PUNCT NOUN	-0.65681255
-2.881284	<s> PRON NOUN	-0.51489574
-1.5060593	DET PRON NOUN	-0.29296175
-1.2971652	NOUN PRON NOUN	-0.50680345
-1.201659	AUX PRON NOUN	-0.6174625
-1.2680007	VERB PRON NOUN	-1.1416872
-1.1701818	ADP PRON NOUN	-0.84840804
-1.332467	PROPN PRON NOUN	-0.6755296
-1.2570403	CCONJ PRON NOUN	-0.36677954
-1.1552467	ADV PRON NOUN	-0.4053762
-1.6572235	ADJ PRON NOUN	-0.29402587
-1.2226403	PUNCT PRON NOUN	-0.656799
-1.4875332	PRON PRON NOUN	-0.29137042
-1.2576997	PART PRON NOUN	-0.2893382
-1.3431019	SCONJ PRON NOUN	-0.50786614
-1.4760103	INTJ PRON NOUN	-0.29137042
-2.4892294	<s> PART NOUN	-0.29137042
-1.2948987	DET PART NOUN	-0.29137042
-1.0502717	NOUN PART NOUN	-2.2029471
-1.2152001	AUX PART NOUN	-0.82507086
-1.0947983	VERB PART NOUN	-0.5776558
-1.4020089	ADP PART NOUN	-0.29137042
-1.0072424	PROPN PART NOUN	-2.3014617
-1.4133052	CCONJ PART NOUN	-0.4796679
-1.4253296	ADV PART NOUN	-0.4366639
-0.95696837	ADJ PART NOUN	-0.615192
-1.3526906	PUNCT PART NOUN	-0.7776834
-0.8918952	PRON PART NOUN	-0.8486295
-1.2954862	SCONJ PART NOUN	-0.33650544
-1.1450566	NUM PART NOUN	-0.38425103
-0.49593952	SYM PART NOUN	-0.29137042
-1.1399187	<s> SCONJ NOUN	-1.1727524
-1.2922869	DET SCONJ NOUN	-0.35429627
-1.1130877	NOUN SCONJ NOUN	-1.5768162
-1.0901239	AUX SCONJ NOUN	-0.7996401
-1.1057353	VERB SCONJ NOUN	-1.7339613
-1.2126296	ADP SCONJ NOUN	-0.7355809
-0.9629386	PROPN SCONJ NOUN	-0.91004735
-1.0012132	CCONJ SCONJ NOUN	-0.91902703
-1.0313675	ADV SCONJ NOUN	-1.2332764
-1.0749032	ADJ SCONJ NOUN	-1.4235438
-1.0762489	PUNCT SCONJ NOUN	-1.3752568
-0.90899974	PRON SCONJ NOUN	-0.8865971
-1.1115202	PART SCONJ NOUN	-0.29402587
-0.93745863	SCONJ SCONJ NOUN	-0.8772415
-1.3678751	NUM SCONJ NOUN	-0.33177492
-0.84764373	INTJ SCONJ NOUN	-0.29137042
-0.36984172	<s> NUM NOUN	-1.5216506
-0.9322602	DET NUM NOUN	-1.9277856
-0.9327375	NOUN NUM NOUN	-1.1897857
-0.8869657	AUX NUM NOUN	-1.4373815
-1.0116231	VERB NUM NOUN	-1.7892181
-1.0897907	ADP NUM NOUN	-2.1361628
-1.1104485	PROPN NUM NOUN	-1.2346219
-0.86722714	CCONJ NUM NOUN	-1.3913084
-0.9128347	ADV NUM NOUN	-1.7703466
-0.88647187	ADJ NUM NOUN	-1.5782893
-0.9585663	PUNCT NUM NOUN	-1.6862221
-0.7867867	PRON NUM NOUN	-0.68209934
-0.7677891	PART NUM NOUN	-1.1745543
-0.9246963	SCONJ NUM NOUN	-1.7153295
-0.9633749	NUM NUM NOUN	-1.4898915
-0.98270476	SYM NUM NOUN	-1.0934787
-0.28692052	X NUM NOUN	-0.28654975
-0.2888975	INTJ NUM NOUN	-0.29296175
-0.809927	<s> SYM NOUN	-0.34303424
-0.6328979	DET SYM NOUN	-0.6181457
-0.64303625	NOUN SYM NOUN	-1.0467935
-1.0610852	AUX SYM NOUN	-0.29137042
-0.7123152	VERB SYM NOUN	-0.39860153
-0.7657151	ADP SYM NOUN	-0.5010633
-0.70618856	PROPN SYM NOUN	-0.46415052
-0.9477497	CCONJ SYM NOUN	-0.5732214
-1.1503297	ADV SYM NOUN	-0.29137042
-0.6816043	ADJ SYM NOUN	-0.5557464
-0.7047623	PUNCT SYM NOUN	-0.7669872
-1.1108822	PRON SYM NOUN	-0.29535973
-0.7819824	PART SYM NOUN	-0.29535973
-0.84563875	SCONJ SYM NOUN	-0.34049073
-0.7779802	NUM SYM NOUN	-0.46342716
-0.43084863	INTJ SYM NOUN	-0.29535973
-1.8585229	<s> X NOUN	-0.29402587
-1.057421	DET X NOUN	-0.29402587
-1.1818761	NOUN X NOUN	-0.28826362
-1.0720563	VERB X NOUN	-0.2933605
-0.84778714	ADP X NOUN	-0.4302874
-1.041739	PROPN X NOUN	-0.36096832
-1.0788095	ADV X NOUN	-0.29535973
-1.109383	ADJ X NOUN	-0.2933605
-0.9557638	PUNCT X NOUN	-0.63437855
-1.0827348	PRON X NOUN	-0.29137042
-1.15168	SYM X NOUN	-0.29137042
-0.7544917	X X NOUN	-0.56486934
-1.9107134	<s> INTJ NOUN	-0.28654975
-0.7216412	DET INTJ NOUN	-0.29137042
-1.1816494	NOUN INTJ NOUN	-0.29535973
-1.2979951	VERB INTJ NOUN	-0.29535973
-1.1041839	ADP INTJ NOUN	-0.29137042
-1.0922476	PROPN INTJ NOUN	-0.29137042
-1.3174834	CCONJ INTJ NOUN	-0.29137042
-1.272936	ADV INTJ NOUN	-0.29137042
-1.1631062	PUNCT INTJ NOUN	-0.39819318
-0.9517963	PRON INTJ NOUN	-0.29137042
-0.7150929	PART INTJ NOUN	-0.29137042
-1.1323382	INTJ INTJ NOUN	-0.29137042
-1.2487714	<s> DET AUX	-1.8102261
-1.0567605	DET DET AUX	-0.78628176
-0.98839235	NOUN DET AUX	-1.9359499
-1.3509353	AUX DET AUX	-0.5461111
-1.1915878	VERB DET AUX	-0.95480275
-1.3785443	ADP DET AUX	-0.95927125
-0.9926188	PROPN DET AUX	-1.1074002
-1.0958617	CCONJ DET AUX	-1.2928313
-1.08577	ADV DET AUX	-0.85851693
-0.96642804	ADJ DET AUX	-0.4760764
-1.0928762	PUNCT DET AUX	-1.9267235
-0.9841631	PRON DET AUX	-0.7943796
-1.2035483	PART DET AUX	-0.2937596
-1.133262	SCONJ DET AUX	-1.2065079
-1.0816034	NUM DET AUX	-0.45042843
-0.9261848	INTJ DET AUX	-0.34704065
-0.939133	<s> NOUN AUX	-1.7051959
-1.1625563	DET NOUN AUX	-2.641688
-1.1954341	NOUN NOUN AUX	-2.2194853
-1.3362964	AUX NOUN AUX	-0.470769
-1.2069255	VERB NOUN AUX	-1.5230287
-1.2194957	ADP NOUN AUX	-1.8045055
-1.1599963	PROPN NOUN AUX	-1.7636893
-1.0924236	CCONJ NOUN AUX	-1.737363
-1.1270539	ADV NOUN AUX	-1.3504453
-1.1938106	ADJ NOUN AUX	-2.4503057
-1.143988	PUNCT NOUN AUX	-1.7286348
-0.9188055	PRON NOUN AUX	-0.6268128
-1.1157352	PART NOUN AUX	-1.6115345
-1.1082333	SCONJ NOUN AUX	-1.5114505
-1.1887927	NUM NOUN AUX	-1.6927639
-1.1384542	SYM NOUN AUX	-0.3291222
-1.2251544	X NOUN AUX	-0.29137042
-1.2669026	INTJ NOUN AUX	-0.29137042
-2.0881205	<s> AUX AUX	-0.33950377
-1.1382024	DET AUX AUX	-1.3940551
-1.1563226	NOUN AUX AUX	-2.008199
-1.5186949	AUX AUX AUX	-0.3459136
-1.1213386	VERB AUX AUX	-1.2561526
-1.4972566	ADP AUX AUX	-0.2933605
-1.158766	PROPN AUX AUX	-1.6544274
-1.1320677	CCONJ AUX AUX	-1.0254868
-1.3172479	ADV AUX AUX	-0.779223
-1.0423647	ADJ AUX AUX	-0.8344819
-1.1272119	PUNCT AUX AUX	-1.4727824
-1.1774426	PRON AUX AUX	-1.7653615
-1.3203322	PART AUX AUX	-0.89148444
-1.2265337	SCONJ AUX AUX	-0.666761
-1.0452466	NUM AUX AUX	-0.80332744
-0.5008041	SYM AUX AUX	-0.29137042
-2.1387885	<s> VERB AUX	-0.6767772
-1.1660981	DET VERB AUX	-1.462489
-1.2154256	NOUN VERB AUX	-2.0914528
-1.3400278	AUX VERB AUX	-0.96579814
-1.2170153	VERB VERB AUX	-0.89053524
-1.4163954	ADP VERB AUX	-0.47657493
-1.2137711	PROPN VERB AUX	-1.53222
-1.2446665	CCONJ VERB AUX	-1.0279188
-1.2261988	ADV VERB AUX	-0.8534211
-1.1755722	ADJ VERB AUX	-0.70371526
-1.2080921	PUNCT VERB AUX	-1.2198234
-1.1741152	PRON VERB AUX	-2.0483437
-1.3418262	PART VERB AUX	-0.88630384
-1.411936	SCONJ VERB AUX	-0.70152307
-1.1571743	NUM VERB AUX	-0.75023973
-1.4971031	X VERB AUX	-0.29137042
-1.5954134	INTJ VERB AUX	-0.29137042
-2.745847	<s> ADP AUX	-0.54444724
-1.8921251	DET ADP AUX	-0.29137042
-1.2578045	NOUN ADP AUX	-1.2017359
-1.8443035	AUX ADP AUX	-0.29402587
-1.3089461	VERB ADP AUX	-0.9692976
-1.7219883	ADP ADP AUX	-0.33532107
-1.6127441	PROPN ADP AUX	-0.5056074
-1.5406687	CCONJ ADP AUX	-0.2895636
-1.2721049	ADV ADP AUX	-0.70892954
-1.2551763	ADJ ADP AUX	-0.6680395
-1.3339363	PUNCT ADP AUX	-0.5407492
-1.7585732	PRON ADP AUX	-0.49469236
-1.9248267	SCONJ ADP AUX	-0.29137042
-1.4945648	NUM ADP AUX	-0.58439547
-1.0866716	<s> PROPN AUX	-1.8890127
-1.1405582	DET PROPN AUX	-1.6413378
-1.1981902	NOUN PROPN AUX	-1.2875255
-1.2064909	AUX PROPN AUX	-0.40840718
-1.1616539	VERB PROPN AUX	-1.1480443
-1.2214414	ADP PROPN AUX	-1.89926
-1.2146453	PROPN PROPN AUX	-2.2365727
-1.1650649	CCONJ PROPN AUX	-1.4202844
-1.0470138	ADV PROPN AUX	-1.1011255
-1.1394717	ADJ PROPN AUX	-1.2373713
-1.1566533	PUNCT PROPN AUX	-1.8040379
-0.86035705	PRON PROPN AUX	-0.6801327
-1.1781174	PART PROPN AUX	-0.754885
-1.0451623	SCONJ PROPN AUX	-1.5963756
-1.0815899	NUM PROPN AUX	-0.77941704
-1.1481963	SYM PROPN AUX	-0.7191419
-1.186446	X PROPN AUX	-0.29364553
-1.3493297	INTJ PROPN AUX	-0.29269612
-1.7288041	<s> CCONJ AUX	-0.77508426
-1.4112107	DET CCONJ AUX	-0.28866297
-1.2555448	NOUN CCONJ AUX	-1.6454469
-1.0236952	AUX CCONJ AUX	-0.4940888
-1.1617725	VERB CCONJ AUX	-1.069488
-1.5762413	ADP CCONJ AUX	-0.41284093
-1.1984922	PROPN CCONJ AUX	-1.0828971
-1.2128487	CCONJ CCONJ AUX	-0.29137042
-1.1257589	ADV CCONJ AUX	-0.80007553
-1.2012604	ADJ CCONJ AUX	-0.7800967
-1.2045873	PUNCT CCONJ AUX	-1.601533
-1.1026529	PRON CCONJ AUX	-0.6181832
-1.1860185	PART CCONJ AUX	-0.28535292
-1.4967575	SCONJ CCONJ AUX	-0.29137042
-1.1967711	NUM CCONJ AUX	-0.79572237
-1.0471168	<s> ADV AUX	-1.6490271
-1.1365368	DET ADV AUX	-0.6394019
-1.1611787	NOUN ADV AUX	-1.3375627
-1.1935515	AUX ADV AUX	-1.5397455
-1.1893778	VERB ADV AUX	-1.6007859
-1.3133811	ADP ADV AUX	-0.37904727
-1.1106018	PROPN ADV AUX	-1.0062678
-1.1214327	CCONJ ADV AUX	-1.1188765
-1.222654	ADV ADV AUX	-1.0919746
-1.2253042	ADJ ADV AUX	-0.33442044
-1.1495873	PUNCT ADV AUX	-1.3866904
-0.96886104	PRON ADV AUX	-1.4207681
-1.0643684	PART ADV AUX	-0.99602205
-1.2490015	SCONJ ADV AUX	-0.39247274
-1.6023144	NUM ADV AUX	-0.29137042
-1.3924056	INTJ ADV AUX	-0.29137042
-1.7917246	<s> ADJ AUX	-0.80140907
-1.3723713	DET ADJ AUX	-0.9070682
-1.3146833	NOUN ADJ AUX	-0.36968505
-1.4010547	AUX ADJ AUX	-0.6225447
-1.3138467	VERB ADJ AUX	-0.4501899
-1.4069415	ADP ADJ AUX	-0.5762115
-1.7431012	PROPN ADJ AUX	-0.29137042
-1.384453	CCONJ ADJ AUX	-0.6611862
-1.2509276	ADV ADJ AUX	-0.9039653
-1.3499556	ADJ ADJ AUX	-0.36937967
-1.349397	PUNCT ADJ AUX	-0.68866515
-1.2361788	PRON ADJ AUX	-0.5458084
-1.5492191	PART ADJ AUX	-0.28974387
-1.2269403	SCONJ ADJ AUX	-0.4629812
-1.6619338	NUM ADJ AUX	-0.36573097
-1.7420778	<s> PUNCT AUX	-0.8085581
-1.3414588	DET PUNCT AUX	-0.5461111
-1.2340975	NOUN PUNCT AUX	-1.9545721
-1.2465163	AUX PUNCT AUX	-0.41173682
-1.2446051	VERB PUNCT AUX	-1.0444834
-1.5727686	ADP PUNCT AUX	-0.406311
-1.218101	PROPN PUNCT AUX	-1.9012793
-1.4585395	CCONJ PUNCT AUX	-0.32276782
-1.298531	ADV PUNCT AUX	-1.1637373
-1.3316778	ADJ PUNCT AUX	-0.93607163
-1.232737	PUNCT PUNCT AUX	-1.1969653
-1.2205977	PRON PUNCT AUX	-0.8070617
-1.1502565	PART PUNCT AUX	-0.47682437
-1.7152619	SCONJ PUNCT AUX	-0.2945589
-1.2561271	NUM PUNCT AUX	-1.1045443
-1.3686924	X PUNCT AUX	-0.4629812
-1.462547	INTJ PUNCT AUX	-0.31217167
-0.37880442	<s> PRON AUX	-2.4929402
-0.7703577	DET PRON AUX	-1.5026081
-0.8943069	NOUN PRON AUX	-2.0447714
-1.1484209	AUX PRON AUX	-1.055984
-1.1437482	VERB PRON AUX	-1.875448
-1.1037774	ADP PRON AUX	-1.5998888
-0.7959205	PROPN PRON AUX	-1.3998902
-0.9413023	CCONJ PRON AUX	-1.9578398
-0.9140476	ADV PRON AUX	-1.903904
-0.7451163	ADJ PRON AUX	-1.0371236
-1.0008235	PUNCT PRON AUX	-2.4440813
-0.6900289	PRON PRON AUX	-1.4742073
-0.85670346	PART PRON AUX	-0.71249086
-0.94946957	SCONJ PRON AUX	-2.3081884
-0.57397515	NUM PRON AUX	-0.5688797
-0.95023173	SYM PRON AUX	-0.2893212
-0.87576056	X PRON AUX	-0.29402587
-0.6695509	INTJ PRON AUX	-0.5319934
-1.0956857	<s> PART AUX	-0.7119797
-0.8836883	DET PART AUX	-0.3186011
-1.0502717	NOUN PART AUX	-1.7002043
-0.99714	AUX PART AUX	-1.7289853
-0.9322365	VERB PART AUX	-2.1723952
-0.96524113	ADP PART AUX	-0.8504585
-1.1221161	PROPN PART AUX	-1.0519637
-1.0643486	CCONJ PART AUX	-0.69170845
-0.8768238	ADV PART AUX	-1.1108766
-0.77667516	ADJ PART AUX	-1.3488466
-0.92438245	PUNCT PART AUX	-0.8788213
-0.7601538	PRON PART AUX	-1.190346
-0.57098365	PART PART AUX	-0.7254271
-1.1055725	SCONJ PART AUX	-0.5243467
-1.1450566	NUM PART AUX	-0.46264103
-2.2549245	<s> SCONJ AUX	-0.45553148
-1.401177	DET SCONJ AUX	-0.29137042
-1.3593488	NOUN SCONJ AUX	-0.58680445
-1.3213483	AUX SCONJ AUX	-0.71869963
-1.4662148	VERB SCONJ AUX	-0.48215076
-1.5455031	ADP SCONJ AUX	-0.29137042
-1.5304683	PROPN SCONJ AUX	-0.2933605
-1.3713168	CCONJ SCONJ AUX	-0.36730474
-1.484641	ADV SCONJ AUX	-0.3534867
-1.4741426	ADJ SCONJ AUX	-0.32276782
-1.281995	PUNCT SCONJ AUX	-0.67640114
-1.4597673	PRON SCONJ AUX	-0.28866297
-1.482567	PART SCONJ AUX	-0.29137042
-1.7344646	SCONJ SCONJ AUX	-0.29137042
-1.4763223	NUM SCONJ AUX	-0.29137042
-1.6648049	<s> NUM AUX	-0.5141967
-1.3469003	DET NUM AUX	-0.613174
-1.246007	NOUN NUM AUX	-0.575437
-1.7616842	VERB NUM AUX	-0.29296175
-1.2233254	ADP NUM AUX	-0.6284224
-1.1869851	PROPN NUM AUX	-0.8679964
-1.1853788	CCONJ NUM AUX	-0.47083285
-1.2000694	ADV NUM AUX	-0.4784254
-1.3499616	ADJ NUM AUX	-0.36465794
-1.1185428	PUNCT NUM AUX	-0.7485673
-1.2086054	PRON NUM AUX	-0.29402587
-1.2511315	PART NUM AUX	-0.29137042
-1.3594469	SCONJ NUM AUX	-0.511579
-1.1084385	NUM NUM AUX	-0.3959129
-1.3684589	SYM NUM AUX	-0.3291216
-1.449576	AUX SYM AUX	-0.29137042
-1.862365	VERB SYM AUX	-0.29137042
-1.4485251	DET X AUX	-0.29535973
-1.5382437	NOUN X AUX	-0.29137042
-1.6549962	ADP X AUX	-0.29137042
-1.4447327	CCONJ X AUX	-0.29137042
-1.6002071	PUNCT X AUX	-0.28734946
-1.6375138	X X AUX	-0.29535973
-1.5620174	<s> INTJ AUX	-0.4711133
-1.3470527	NOUN INTJ AUX	-0.29137042
-1.1382502	AUX INTJ AUX	-0.29137042
-1.2430549	VERB INTJ AUX	-0.29137042
-1.3612651	PROPN INTJ AUX	-0.29137042
-1.2913792	CCONJ INTJ AUX	-0.29137042
-1.2230797	ADV INTJ AUX	-0.29137042
-1.1340909	PUNCT INTJ AUX	-0.5678995
-0.9114478	X INTJ AUX	-0.29137042
-1.4334598	<s> DET VERB	-1.604105
-1.0537128	DET DET VERB	-0.7797519
-1.0125622	NOUN DET VERB	-2.1753945
-1.1053653	AUX DET VERB	-1.2555351
-1.1609247	VERB DET VERB	-1.5542674
-1.1283101	ADP DET VERB	-1.9136803
-0.989893	PROPN DET VERB	-1.1712196
-1.0577915	CCONJ DET VERB	-1.2993577
-1.0529597	ADV DET VERB	-1.0069789
-0.9633733	ADJ DET VERB	-0.47005635
-1.0902127	PUNCT DET VERB	-1.956721
-0.8834198	PRON DET VERB	-1.2233114
-1.0112814	PART DET VERB	-0.43113196
-1.0405447	SCONJ DET VERB	-1.266465
-0.83255947	NUM DET VERB	-0.54107416
-1.0755768	X DET VERB	-0.28654975
-1.1745708	INTJ DET VERB	-0.29402587
-0.7889523	<s> NOUN VERB	-1.7777388
-1.187255	DET NOUN VERB	-2.7394633
-1.1954341	NOUN NOUN VERB	-2.2861779
-1.0916008	AUX NOUN VERB	-1.0452942
-1.2069255	VERB NOUN VERB	-1.8003268
-1.1915052	ADP NOUN VERB	-2.0140512
-1.1599963	PROPN NOUN VERB	-1.8928264
-1.1303345	CCONJ NOUN VERB	-1.7583082
-1.0641729	ADV NOUN VERB	-1.3329577
-1.1691117	ADJ NOUN VERB	-2.5501966
-1.143988	PUNCT NOUN VERB	-1.8283505
-0.9188055	PRON NOUN VERB	-0.78863925
-1.1671121	PART NOUN VERB	-1.5648317
-1.045809	SCONJ NOUN VERB	-1.5365618
-1.162451	NUM NOUN VERB	-1.6779647
-1.0390848	SYM NOUN VERB	-0.3806002
-1.1094289	X NOUN VERB	-0.29137042
-1.3688967	INTJ NOUN VERB	-0.29137042
-1.3511128	<s> AUX VERB	-0.5367674
-1.0730817	DET AUX VERB	-1.8775657
-1.1275175	NOUN AUX VERB	-2.6557772
-0.90397555	AUX AUX VERB	-2.2018652
-1.0281872	VERB AUX VERB	-2.1186326
-0.8266697	ADP AUX VERB	-1.1503485
-1.0774198	PROPN AUX VERB	-2.2492287
-0.9661766	CCONJ AUX VERB	-1.5602704
-1.0935495	ADV AUX VERB	-1.6863985
-0.97133166	ADJ AUX VERB	-1.0215846
-1.0662786	PUNCT AUX VERB	-1.8751829
-1.1207594	PRON AUX VERB	-2.4202352
-1.0419003	PART AUX VERB	-1.9514215
-0.95234805	SCONJ AUX VERB	-0.7233598
-0.90519196	NUM AUX VERB	-0.96080905
-0.9320369	X AUX VERB	-0.29137042
-0.9082247	INTJ AUX VERB	-0.36892512
-1.7198219	<s> VERB VERB	-0.7144734
-1.1355264	DET VERB VERB	-1.639976
-1.2129098	NOUN VERB VERB	-2.1949568
-1.2325467	AUX VERB VERB	-1.3463145
-1.2141416	VERB VERB VERB	-1.3781037
-1.2346518	ADP VERB VERB	-0.89721686
-1.2112553	PROPN VERB VERB	-1.7125721
-1.2035371	CCONJ VERB VERB	-1.2974994
-1.1935532	ADV VERB VERB	-1.2945935
-1.137467	ADJ VERB VERB	-0.67856497
-1.1513605	PUNCT VERB VERB	-1.4354113
-1.1718779	PRON VERB VERB	-2.297566
-1.2046038	PART VERB VERB	-1.4637477
-1.2783351	SCONJ VERB VERB	-0.55161196
-1.1541114	NUM VERB VERB	-0.61628526
-1.2755452	SYM VERB VERB	-0.29137042
-1.393082	X VERB VERB	-0.29137042
-1.1490145	INTJ VERB VERB	-0.32477435
-1.5621033	<s> ADP VERB	-1.1600703
-1.1703854	DET ADP VERB	-0.54729587
-1.188234	NOUN ADP VERB	-2.2865207
-1.1390564	AUX ADP VERB	-0.76743174
-1.2068615	VERB ADP VERB	-1.9172046
-1.1002337	ADP ADP VERB	-0.6566034
-1.0850238	PROPN ADP VERB	-1.3558141
-1.1945602	CCONJ ADP VERB	-0.83865243
-1.1112359	ADV ADP VERB	-1.3786491
-1.1365865	ADJ ADP VERB	-1.4711753
-1.115708	PUNCT ADP VERB	-1.3057859
-1.1127228	PRON ADP VERB	-1.1090387
-1.2275865	PART ADP VERB	-0.38275275
-1.2455214	SCONJ ADP VERB	-0.71499884
-1.073287	NUM ADP VERB	-0.57749027
-1.2051618	SYM ADP VERB	-0.29137042
-0.98833174	X ADP VERB	-0.29137042
-1.1304822	INTJ ADP VERB	-0.29137042
-0.8986661	<s> PROPN VERB	-2.0094724
-1.1382165	DET PROPN VERB	-1.742996
-1.0798078	NOUN PROPN VERB	-1.4582925
-1.2026993	AUX PROPN VERB	-0.7531207
-1.1593122	VERB PROPN VERB	-1.2833655
-1.1648959	ADP PROPN VERB	-1.987015
-1.2123243	PROPN PROPN VERB	-2.469107
-1.1611972	CCONJ PROPN VERB	-1.3907819
-1.0789897	ADV PROPN VERB	-1.1332903
-1.136939	ADJ PROPN VERB	-1.3668339
-1.1543323	PUNCT PROPN VERB	-1.9515092
-0.8221988	PRON PROPN VERB	-0.6976494
-0.9623337	PART PROPN VERB	-0.8084611
-1.0427066	SCONJ PROPN VERB	-1.5006114
-1.1111891	NUM PROPN VERB	-0.710145
-1.0488554	SYM PROPN VERB	-0.741426
-1.4269434	X PROPN VERB	-0.32342505
-1.0781513	INTJ PROPN VERB	-0.35226664
-0.21836281	SPACE PROPN VERB	-0.29137042
-1.331189	<s> CCONJ VERB	-1.0230521
-0.88382876	DET CCONJ VERB	-0.4582967
-1.1339623	NOUN CCONJ VERB	-2.3093536
-0.8529601	AUX CCONJ VERB	-0.477185
-1.0658207	VERB CCONJ VERB	-2.0273592
-1.0169405	ADP CCONJ VERB	-1.1284908
-1.1024263	PROPN CCONJ VERB	-1.5857273
-0.9188823	CCONJ CCONJ VERB	-0.28904873
-1.1179044	ADV CCONJ VERB	-1.239011
-1.0704165	ADJ CCONJ VERB	-1.3912122
-1.1979845	PUNCT CCONJ VERB	-1.9867079
-1.0930046	PRON CCONJ VERB	-1.230498
-0.81852233	PART CCONJ VERB	-0.37606993
-1.3670095	SCONJ CCONJ VERB	-0.29137042
-0.9943735	NUM CCONJ VERB	-0.7507255
-0.84438646	SYM CCONJ VERB	-0.29137042
-0.6990513	X CCONJ VERB	-0.29364553
-1.2381814	<s> ADV VERB	-1.3939868
-0.9659996	DET ADV VERB	-1.6133925
-1.1279008	NOUN ADV VERB	-2.0237288
-1.0717508	AUX ADV VERB	-2.3319533
-1.1561441	VERB ADV VERB	-1.8908085
-1.0553744	ADP ADV VERB	-1.2112114
-1.0207729	PROPN ADV VERB	-1.8027558
-1.0254928	CCONJ ADV VERB	-1.7728533
-1.1269859	ADV ADV VERB	-1.6138759
-1.0709523	ADJ ADV VERB	-0.83778894
-1.1201482	PUNCT ADV VERB	-1.7815734
-0.9094342	PRON ADV VERB	-2.0623894
-0.9961697	PART ADV VERB	-1.74671
-1.0617999	SCONJ ADV VERB	-0.83793426
-0.9242997	NUM ADV VERB	-0.5361016
-1.127907	SYM ADV VERB	-0.29137042
-1.0351968	X ADV VERB	-0.29402587
-0.87767446	INTJ ADV VERB	-0.28866297
-1.6867999	<s> ADJ VERB	-0.78356403
-1.175182	DET ADJ VERB	-1.2704635
-1.222219	NOUN ADJ VERB	-0.50521374
-1.2977625	AUX ADJ VERB	-0.87516713
-1.2298843	VERB ADJ VERB	-0.7435335
-1.1279399	ADP ADJ VERB	-0.94476545
-1.1260598	PROPN ADJ VERB	-0.43993062
-1.1974394	CCONJ ADJ VERB	-0.6646349
-1.1800174	ADV ADJ VERB	-0.7998234
-1.0380577	ADJ ADJ VERB	-0.8436503
-1.1849358	PUNCT ADJ VERB	-0.79348224
-0.98883194	PRON ADJ VERB	-0.5197159
-1.0392942	PART ADJ VERB	-0.55328876
-1.1697503	SCONJ ADJ VERB	-0.4518188
-1.1274047	NUM ADJ VERB	-0.42665395
-1.404549	SYM ADJ VERB	-0.29137042
-1.2317722	<s> PUNCT VERB	-1.1175047
-1.1491318	DET PUNCT VERB	-0.9198821
-1.2092376	NOUN PUNCT VERB	-2.5292203
-1.1667534	AUX PUNCT VERB	-0.99519813
-1.2446051	VERB PUNCT VERB	-1.7156612
-1.1912576	ADP PUNCT VERB	-1.122864
-1.218101	PROPN PUNCT VERB	-2.3072453
-1.0978037	CCONJ PUNCT VERB	-0.8413569
-1.1818242	ADV PUNCT VERB	-1.8183273
-1.2065074	ADJ PUNCT VERB	-1.3981035
-1.1815072	PUNCT PUNCT VERB	-1.7608312
-1.1235024	PRON PUNCT VERB	-1.2000178
-1.0020471	PART PUNCT VERB	-1.138819
-1.1074203	SCONJ PUNCT VERB	-0.7482518
-1.2238814	NUM PUNCT VERB	-1.3875962
-1.1037064	X PUNCT VERB	-0.8004862
-1.151768	INTJ PUNCT VERB	-0.6435164
-0.32272014	<s> PRON VERB	-2.4584806
-0.7113576	DET PRON VERB	-1.7101189
-0.8943069	NOUN PRON VERB	-2.1927526
-1.0768011	AUX PRON VERB	-1.5735945
-1.1437482	VERB PRON VERB	-2.0064447
-1.1037774	ADP PRON VERB	-1.655262
-0.76933116	PROPN PRON VERB	-1.422044
-0.88361895	CCONJ PRON VERB	-1.9773918
-0.9140476	ADV PRON VERB	-2.1016686
-0.7451163	ADJ PRON VERB	-1.0488597
-1.0008235	PUNCT PRON VERB	-2.4505715
-0.718573	PRON PRON VERB	-1.6923229
-0.80905443	PART PRON VERB	-0.8043701
-0.94946957	SCONJ PRON VERB	-2.2337222
-0.5285427	NUM PRON VERB	-0.6382825
-0.46880633	SYM PRON VERB	-0.406311
-0.55912876	X PRON VERB	-0.29137042
-0.43707392	INTJ PRON VERB	-0.44844908
-0.27258536	<s> PART VERB	-1.2516686
-0.6287061	DET PART VERB	-0.7064576
-0.93381286	NOUN PART VERB	-2.5966122
-0.9600918	AUX PART VERB	-2.3762631
-0.89793044	VERB PART VERB	-2.6378129
-0.6377759	ADP PART VERB	-1.2450143
-0.9983577	PROPN PART VERB	-1.852404
-0.86347955	CCONJ PART VERB	-1.3902394
-0.78451335	ADV PART VERB	-1.7571639
-0.7410848	ADJ PART VERB	-2.0921788
-0.8902689	PUNCT PART VERB	-1.6176273
-0.7167002	PRON PART VERB	-1.6317233
-0.48769352	PART PART VERB	-1.3292284
-0.78218776	SCONJ PART VERB	-0.90529925
-0.6777634	NUM PART VERB	-0.84468263
-0.48790595	SYM PART VERB	-0.29137042
-0.3568568	X PART VERB	-0.2933605
-0.4533212	INTJ PART VERB	-0.29137042
-1.3943194	<s> SCONJ VERB	-1.0657729
-1.3046498	DET SCONJ VERB	-0.29402587
-1.1163161	NOUN SCONJ VERB	-1.2528771
-1.0136988	AUX SCONJ VERB	-0.768791
-1.1985465	VERB SCONJ VERB	-1.2117776
-1.5455031	ADP SCONJ VERB	-0.46542946
-1.1150666	PROPN SCONJ VERB	-0.75197524
-1.1870818	CCONJ SCONJ VERB	-0.44836378
-1.1396846	ADV SCONJ VERB	-1.0298086
-1.1745993	ADJ SCONJ VERB	-0.9087678
-1.0792075	PUNCT SCONJ VERB	-1.2089782
-1.3261292	PRON SCONJ VERB	-0.44789302
-1.3863727	PART SCONJ VERB	-0.29535973
-1.147511	SCONJ SCONJ VERB	-0.34408793
-1.3803148	NUM SCONJ VERB	-0.29435897
-1.7267947	<s> NUM VERB	-0.44898042
-1.0733693	DET NUM VERB	-0.7164962
-1.1014485	NOUN NUM VERB	-0.5391421
-1.1685374	AUX NUM VERB	-0.57286733
-1.1420286	VERB NUM VERB	-0.53926337
-1.153014	ADP NUM VERB	-0.87798494
-1.1486613	PROPN NUM VERB	-0.8274335
-1.0000284	CCONJ NUM VERB	-0.6074217
-1.1955086	ADV NUM VERB	-0.5356092
-1.5654008	ADJ NUM VERB	-0.40127924
-1.2916883	PUNCT NUM VERB	-0.63840663
-1.1965564	PRON NUM VERB	-0.29402587
-1.3832215	PART NUM VERB	-0.2945589
-1.2025802	SCONJ NUM VERB	-0.4776676
-1.0313607	NUM NUM VERB	-0.55717427
-1.1824582	SYM NUM VERB	-0.33931234
-1.8667126	<s> SYM VERB	-0.29137042
-1.4848065	DET SYM VERB	-0.29137042
-1.131556	NOUN SYM VERB	-0.29435897
-0.77447057	VERB SYM VERB	-0.39098847
-1.4091953	ADP SYM VERB	-0.29137042
-1.2109723	PROPN SYM VERB	-0.29296175
-1.2131119	ADV SYM VERB	-0.29137042
-1.4290534	ADJ SYM VERB	-0.29137042
-1.47775	PUNCT SYM VERB	-0.29137042
-0.9715573	PART SYM VERB	-0.29137042
-0.6294766	INTJ SYM VERB	-0.29137042
-1.6908044	<s> X VERB	-0.28947848
-1.4422048	DET X VERB	-0.29137042
-1.0219538	NOUN X VERB	-0.31901193
-1.0602052	VERB X VERB	-0.2925065
-1.3772376	ADP X VERB	-0.29402587
-1.3559515	PROPN X VERB	-0.29296175
-1.1880949	CCONJ X VERB	-0.29535973
-1.1860615	ADV X VERB	-0.29137042
-1.2099655	ADJ X VERB	-0.29137042
-1.2368501	PUNCT X VERB	-0.32543692
-0.8047427	PRON X VERB	-0.29402587
-0.6478946	PART X VERB	-0.29137042
-1.5501508	X X VERB	-0.29137042
-0.8825228	<s> INTJ VERB	-0.7864743
-0.84479064	DET INTJ VERB	-0.29137042
-1.0225098	NOUN INTJ VERB	-0.29535973
-1.0371641	AUX INTJ VERB	-0.29535973
-1.2292886	VERB INTJ VERB	-0.29137042
-0.7950484	PROPN INTJ VERB	-0.29364553
-1.0744205	CCONJ INTJ VERB	-0.29296175
-0.861367	ADV INTJ VERB	-0.36573097
-1.0071573	ADJ INTJ VERB	-0.29137042
-0.8781445	PUNCT INTJ VERB	-0.8789201
-0.5389466	PRON INTJ VERB	-0.3602518
-0.687619	PART INTJ VERB	-0.29137042
-0.9285684	SCONJ INTJ VERB	-0.29137042
-0.5515129	NUM INTJ VERB	-0.29137042
-0.84479064	X INTJ VERB	-0.29137042
-0.97162735	INTJ INTJ VERB	-0.29137042
-1.9883515	<s> DET ADP	-1.311494
-1.1846853	DET DET ADP	-0.65598255
-1.1796446	NOUN DET ADP	-0.82355666
-1.1084313	AUX DET ADP	-1.1677557
-1.1915878	VERB DET ADP	-1.4777381
-1.1589546	ADP DET ADP	-1.5818155
-1.423496	PROPN DET ADP	-0.415382
-1.1754152	CCONJ DET ADP	-1.1087812
-1.1909014	ADV DET ADP	-0.91355395
-1.2035483	ADJ DET ADP	-0.402922
-1.146834	PUNCT DET ADP	-1.314894
-1.3735532	PRON DET ADP	-0.57694924
-1.2035483	PART DET ADP	-0.7179135
-1.1679602	SCONJ DET ADP	-1.2101028
-1.3478003	NUM DET ADP	-0.58553
-1.3281193	X DET ADP	-0.29137042
-0.51111114	<s> NOUN ADP	-2.1332169
-1.1625563	DET NOUN ADP	-3.24975
-1.1707352	NOUN NOUN ADP	-2.6173668
-1.0614905	AUX NOUN ADP	-1.9440193
-1.1558367	VERB NOUN ADP	-2.6140327
-1.1404164	ADP NOUN ADP	-2.631325
-1.1861849	PROPN NOUN ADP	-2.055668
-1.0252846	CCONJ NOUN ADP	-2.2544713
-1.0358466	ADV NOUN ADP	-1.446219
-1.1938106	ADJ NOUN ADP	-3.0448675
-1.143988	PUNCT NOUN ADP	-2.1760738
-1.0350069	PRON NOUN ADP	-0.9781665
-0.9903478	PART NOUN ADP	-1.9295421
-1.045809	SCONJ NOUN ADP	-1.7631962
-1.1376162	NUM NOUN ADP	-2.2623467
-1.0390848	SYM NOUN ADP	-0.68310577
-0.9427505	X NOUN ADP	-0.4628597
-0.87011296	INTJ NOUN ADP	-0.29402587
-1.9988828	<s> AUX ADP	-0.29133305
-1.1382024	DET AUX ADP	-1.1008571
-1.1563226	NOUN AUX ADP	-1.716522
-1.1125773	AUX AUX ADP	-1.1643484
-1.1213386	VERB AUX ADP	-1.1204352
-1.2590141	ADP AUX ADP	-0.56852776
-1.158766	PROPN AUX ADP	-1.4126263
-1.1845846	CCONJ AUX ADP	-0.6862708
-1.1929744	ADV AUX ADP	-0.9434508
-1.2240394	ADJ AUX ADP	-0.49868643
-1.0687398	PUNCT AUX ADP	-1.024004
-1.1233773	PRON AUX ADP	-1.7003102
-1.0747392	PART AUX ADP	-1.4139326
-1.070595	SCONJ AUX ADP	-0.4004931
-1.0877643	NUM AUX ADP	-0.56797266
-1.2087923	INTJ AUX ADP	-0.28336546
-0.39771128	<s> VERB ADP	-1.9426923
-1.1355264	DET VERB ADP	-1.7830526
-1.1867524	NOUN VERB ADP	-2.6272674
-1.1488137	AUX VERB ADP	-2.7317781
-1.1304086	VERB VERB ADP	-2.1015637
-1.0827717	ADP VERB ADP	-1.7494167
-1.1850979	PROPN VERB ADP	-2.171512
-1.1071934	CCONJ VERB ADP	-2.0235572
-1.1656133	ADV VERB ADP	-2.3063352
-1.0745281	ADJ VERB ADP	-1.0865736
-1.1513605	PUNCT VERB ADP	-2.2466817
-1.1718779	PRON VERB ADP	-2.297531
-1.150612	PART VERB ADP	-2.4090228
-1.031747	SCONJ VERB ADP	-1.4446752
-0.98887354	NUM VERB ADP	-0.9144185
-1.0177615	SYM VERB ADP	-0.29032752
-0.9392917	X VERB ADP	-0.3262062
-0.8746639	INTJ VERB ADP	-0.5555269
-2.0162563	<s> ADP ADP	-0.94763374
-1.3680811	DET ADP ADP	-0.36892512
-1.2245817	NOUN ADP ADP	-1.6074728
-1.1920209	AUX ADP ADP	-0.7546724
-1.215118	VERB ADP ADP	-2.0847867
-1.5714307	ADP ADP ADP	-0.61878896
-1.2569078	PROPN ADP ADP	-1.0976027
-1.2689767	CCONJ ADP ADP	-0.672681
-1.1526579	ADV ADP ADP	-0.8142799
-1.391476	ADJ ADP ADP	-0.65840375
-1.1517857	PUNCT ADP ADP	-1.2109444
-1.1779711	PRON ADP ADP	-0.83212596
-1.3593637	PART ADP ADP	-0.2925065
-1.1131035	SCONJ ADP ADP	-0.62712824
-1.4875311	NUM ADP ADP	-0.4004931
-1.502537	<s> PROPN ADP	-1.4955275
-1.1405582	DET PROPN ADP	-2.0676541
-1.1661291	NOUN PROPN ADP	-1.3001456
-0.98124444	AUX PROPN ADP	-0.6776455
-1.1616539	VERB PROPN ADP	-1.6129248
-1.1671317	ADP PROPN ADP	-2.233781
-1.2146453	PROPN PROPN ADP	-2.4514515
-1.2105728	CCONJ PROPN ADP	-1.4582194
-1.1617385	ADV PROPN ADP	-0.7741088
-1.1394717	ADJ PROPN ADP	-1.4917527
-1.1566533	PUNCT PROPN ADP	-1.7454479
-1.3697056	PRON PROPN ADP	-0.3602518
-1.0955806	PART PROPN ADP	-1.4129022
-1.1423593	SCONJ PROPN ADP	-1.0199468
-1.0815899	NUM PROPN ADP	-1.0630237
-1.2729654	SYM PROPN ADP	-0.70045006
-1.0284116	X PROPN ADP	-0.6698509
-1.3493297	INTJ PROPN ADP	-0.36573097
-1.0843756	<s> CCONJ ADP	-1.3372377
-1.4737353	DET CCONJ ADP	-0.28336546
-1.18744	NOUN CCONJ ADP	-1.5685188
-1.0140529	AUX CCONJ ADP	-0.4962063
-1.1893628	VERB CCONJ ADP	-0.80582494
-0.9020468	ADP CCONJ ADP	-1.0309805
-1.3047065	PROPN CCONJ ADP	-1.1828427
-1.1882025	CCONJ CCONJ ADP	-0.29402587
-1.1587948	ADV CCONJ ADP	-0.8412518
-1.1596258	ADJ CCONJ ADP	-0.845833
-1.1979845	PUNCT CCONJ ADP	-1.6249983
-1.3000721	PRON CCONJ ADP	-0.6797088
-1.1640644	PART CCONJ ADP	-0.29137042
-1.4662428	SCONJ CCONJ ADP	-0.29137042
-1.2402691	NUM CCONJ ADP	-0.5087387
-1.2424847	X CCONJ ADP	-0.29137042
-1.2073356	INTJ CCONJ ADP	-0.29137042
-1.1835915	<s> ADV ADP	-1.4998358
-1.1790051	DET ADV ADP	-0.68166614
-1.1330993	NOUN ADV ADP	-1.8424268
-1.1311172	AUX ADV ADP	-1.6117587
-1.1348013	VERB ADV ADP	-2.0582545
-1.1865419	ADP ADV ADP	-1.2522382
-1.0518161	PROPN ADV ADP	-1.1123841
-1.2833415	CCONJ ADV ADP	-1.4191874
-1.1903158	ADV ADV ADP	-1.5262324
-1.1443621	ADJ ADV ADP	-0.97210264
-1.1495873	PUNCT ADV ADP	-1.6784531
-1.0670487	PRON ADV ADP	-1.1209053
-1.0643684	PART ADV ADP	-1.13081
-1.1489735	SCONJ ADV ADP	-0.7011928
-1.0939834	NUM ADV ADP	-0.45368087
-1.1724383	INTJ ADV ADP	-0.29137042
-1.1970322	<s> ADJ ADP	-1.3669221
-1.2354386	DET ADJ ADP	-1.5071635
-1.0533708	NOUN ADJ ADP	-1.558795
-1.0866706	AUX ADJ ADP	-2.048629
-1.1269252	VERB ADJ ADP	-1.7704308
-1.1223992	ADP ADJ ADP	-1.3411208
-1.0297059	PROPN ADJ ADP	-0.8543753
-1.1017895	CCONJ ADJ ADP	-1.3885411
-1.144565	ADV ADJ ADP	-1.9345762
-1.1786276	ADJ ADJ ADP	-0.9090221
-1.0894735	PUNCT ADJ ADP	-1.4073892
-0.98300713	PRON ADJ ADP	-1.2299594
-1.071775	PART ADJ ADP	-1.2086535
-1.0360589	SCONJ ADJ ADP	-1.2459391
-1.0305437	NUM ADJ ADP	-0.57215965
-1.380078	SYM ADJ ADP	-0.29402587
-1.3398204	X ADJ ADP	-0.29137042
-1.1991354	INTJ ADJ ADP	-0.29137042
-1.2721641	<s> PUNCT ADP	-1.1957889
-1.1813775	DET PUNCT ADP	-0.81961113
-1.2604673	NOUN PUNCT ADP	-2.2674572
-1.1667534	AUX PUNCT ADP	-1.033541
-1.2446051	VERB PUNCT ADP	-1.5489936
-1.2706243	ADP PUNCT ADP	-0.81611526
-1.218101	PROPN PUNCT ADP	-2.026237
-0.9711744	CCONJ PUNCT ADP	-0.9386028
-1.208194	ADV PUNCT ADP	-1.5807778
-1.2645986	ADJ PUNCT ADP	-1.2969579
-1.260812	PUNCT PUNCT ADP	-1.3828628
-1.2205977	PRON PUNCT ADP	-1.0283407
-1.3082993	PART PUNCT ADP	-0.35815808
-1.145383	SCONJ PUNCT ADP	-0.8216563
-1.1938652	NUM PUNCT ADP	-1.3650093
-1.3011966	X PUNCT ADP	-0.51858324
-1.361711	INTJ PUNCT ADP	-0.74058956
-2.335213	<s> PRON ADP	-0.8506561
-1.5873417	DET PRON ADP	-0.29535973
-1.1328689	NOUN PRON ADP	-0.63792723
-1.0831633	AUX PRON ADP	-1.1220481
-1.1245961	VERB PRON ADP	-2.0579636
-1.1669738	ADP PRON ADP	-1.4674741
-1.2411028	PROPN PRON ADP	-0.37316757
-1.3192703	CCONJ PRON ADP	-0.5874147
-1.1975776	ADV PRON ADP	-0.55866504
-1.5536432	ADJ PRON ADP	-0.29269612
-1.1464486	PUNCT PRON ADP	-0.7633407
-1.4753165	PRON PRON ADP	-0.44395065
-1.1400136	PART PRON ADP	-0.29032752
-1.1835102	SCONJ PRON ADP	-0.6422007
-1.2310197	NUM PRON ADP	-0.29402587
-1.1125617	SYM PRON ADP	-0.29137042
-1.7034626	<s> PART ADP	-0.3895453
-1.2948987	DET PART ADP	-0.29296175
-1.1955003	NOUN PART ADP	-0.63604397
-1.2651753	AUX PART ADP	-1.1451173
-1.181831	VERB PART ADP	-0.59978503
-1.484848	ADP PART ADP	-0.29137042
-1.2787509	PROPN PART ADP	-0.6467816
-1.1151775	CCONJ PART ADP	-0.8493955
-1.1211883	ADV PART ADP	-0.48889357
-1.374337	ADJ PART ADP	-0.3970661
-1.1293432	PUNCT PART ADP	-0.79467326
-1.5269685	PRON PART ADP	-0.29137042
-1.5342909	PART PART ADP	-0.29137042
-1.1902301	SCONJ PART ADP	-0.5533453
-1.246573	NUM PART ADP	-0.29296175
-1.1834487	<s> SCONJ ADP	-1.3540902
-1.1510438	DET SCONJ ADP	-0.2925065
-1.0833395	NOUN SCONJ ADP	-1.4995289
-1.010313	AUX SCONJ ADP	-1.0381854
-1.1057353	VERB SCONJ ADP	-1.6517034
-1.1310881	ADP SCONJ ADP	-0.67477775
-1.0307688	PROPN SCONJ ADP	-1.0195048
-1.0531299	CCONJ SCONJ ADP	-0.8400144
-1.0634384	ADV SCONJ ADP	-1.2736133
-1.1363966	ADJ SCONJ ADP	-1.0268884
-1.0762489	PUNCT SCONJ ADP	-1.286922
-1.216021	PRON SCONJ ADP	-0.95046467
-0.8323256	PART SCONJ ADP	-0.6852759
-1.1426016	SCONJ SCONJ ADP	-0.52254266
-0.85007966	NUM SCONJ ADP	-1.0287471
-0.82087654	X SCONJ ADP	-0.29137042
-0.6668449	<s> NUM ADP	-1.5696956
-1.0733693	DET NUM ADP	-1.0255284
-0.9960767	NOUN NUM ADP	-1.1118195
-0.9224122	AUX NUM ADP	-1.5862919
-1.1071817	VERB NUM ADP	-1.4888364
-1.153014	ADP NUM ADP	-1.6309536
-1.0864929	PROPN NUM ADP	-1.478178
-1.0000284	CCONJ NUM ADP	-1.1173947
-1.0696613	ADV NUM ADP	-1.0342956
-0.9974176	ADJ NUM ADP	-0.7614208
-1.0179145	PUNCT NUM ADP	-1.4992636
-1.0810163	PRON NUM ADP	-0.5875797
-1.1359348	PART NUM ADP	-0.47747388
-0.93082255	SCONJ NUM ADP	-1.1901674
-0.99878633	NUM NUM ADP	-1.1041715
-1.0207883	SYM NUM ADP	-1.013611
-1.8362485	<s> SYM ADP	-0.29535973
-1.6432021	NOUN SYM ADP	-0.29137042
-1.2113738	ADP SYM ADP	-0.29296175
-1.395262	ADV SYM ADP	-0.29137042
-1.4366395	PUNCT SYM ADP	-0.29296175
-1.3605793	PRON SYM ADP	-0.29137042
-1.290648	NUM SYM ADP	-0.29402587
-0.8970284	SYM SYM ADP	-0.29137042
-2.3827384	<s> X ADP	-0.29402587
-1.4800422	DET X ADP	-0.29137042
-1.035957	NOUN X ADP	-0.39819318
-1.3242953	VERB X ADP	-0.29137042
-1.1804692	ADP X ADP	-0.3204483
-1.4853207	PROPN X ADP	-0.29137042
-1.2175772	CCONJ X ADP	-0.29137042
-1.2192003	ADV X ADP	-0.29137042
-1.2451689	ADJ X ADP	-0.29137042
-1.2613254	PUNCT X ADP	-0.34704065
-1.4186018	X X ADP	-0.28654975
-1.6874124	<s> INTJ ADP	-0.402922
-0.89133656	DET INTJ ADP	-0.29137042
-1.2992569	NOUN INTJ ADP	-0.29137042
-1.1068906	AUX INTJ ADP	-0.29137042
-0.65886134	VERB INTJ ADP	-0.41094488
-1.121709	ADP INTJ ADP	-0.29137042
-1.3119055	PROPN INTJ ADP	-0.28336546
-1.2500684	CCONJ INTJ ADP	-0.29137042
-1.1880023	ADV INTJ ADP	-0.29535973
-0.9356452	ADJ INTJ ADP	-0.29535973
-1.1199055	PUNCT INTJ ADP	-0.65839064
-0.96298623	<s> DET PROPN	-2.0260773
-1.0156184	DET DET PROPN	-1.0300853
-1.0679864	NOUN DET PROPN	-1.3947515
-1.0450872	AUX DET PROPN	-1.4365507
-1.1077383	VERB DET PROPN	-2.1015916
-1.1254069	ADP DET PROPN	-2.7500296
-0.8961407	PROPN DET PROPN	-1.0075905
-1.0226941	CCONJ DET PROPN	-1.7039242
-1.0223699	ADV DET PROPN	-1.3570977
-0.9602391	ADJ DET PROPN	-0.40327135
-1.0874774	PUNCT DET PROPN	-2.0935838
-1.0155113	PRON DET PROPN	-0.88542545
-0.8783918	PART DET PROPN	-0.67619103
-1.0654154	SCONJ DET PROPN	-1.8409948
-1.142653	NUM DET PROPN	-0.47350308
-0.93270016	SYM DET PROPN	-0.29137042
-0.7725305	X DET PROPN	-0.2923643
-1.0423784	INTJ DET PROPN	-0.29137042
-1.5754198	<s> NOUN PROPN	-1.1647104
-1.241222	DET NOUN PROPN	-1.6930956
-1.221537	NOUN NOUN PROPN	-1.7174487
-1.4623188	AUX NOUN PROPN	-0.49145588
-1.234828	VERB NOUN PROPN	-1.0338672
-1.1914226	ADP NOUN PROPN	-1.3080269
-1.1860992	PROPN NOUN PROPN	-1.7186357
-1.2690281	CCONJ NOUN PROPN	-1.2740862
-1.2425325	ADV NOUN PROPN	-0.6844897
-1.2199135	ADJ NOUN PROPN	-1.9210881
-1.1979699	PUNCT NOUN PROPN	-1.4167233
-1.4476205	PRON NOUN PROPN	-0.28904873
-1.4698465	PART NOUN PROPN	-0.95461327
-1.2687165	SCONJ NOUN PROPN	-0.67112887
-1.1887114	NUM NOUN PROPN	-0.9406815
-1.1980462	SYM NOUN PROPN	-0.49225196
-0.8784347	X NOUN PROPN	-0.3960684
-1.2665315	INTJ NOUN PROPN	-0.29137042
-1.3428476	<s> AUX PROPN	-0.4998729
-1.3499656	DET AUX PROPN	-0.8594504
-1.2800843	NOUN AUX PROPN	-1.2248663
-1.3378193	AUX AUX PROPN	-0.42239967
-1.1941823	VERB AUX PROPN	-0.5319934
-1.2587652	ADP AUX PROPN	-0.4295928
-1.1586685	PROPN AUX PROPN	-0.9699299
-1.3958924	CCONJ AUX PROPN	-0.2925065
-1.1582537	ADV AUX PROPN	-0.84763527
-1.3544333	ADJ AUX PROPN	-0.43080762
-1.159591	PUNCT AUX PROPN	-0.7356631
-1.239094	PRON AUX PROPN	-1.1777762
-1.320165	PART AUX PROPN	-0.6489517
-1.1414105	SCONJ AUX PROPN	-0.44395065
-1.3177493	NUM AUX PROPN	-0.50158095
-1.0799205	X AUX PROPN	-0.29137042
-1.2298968	<s> VERB PROPN	-1.203143
-1.1936009	DET VERB PROPN	-1.3580984
-1.1866738	NOUN VERB PROPN	-1.6867214
-1.2027164	AUX VERB PROPN	-1.3896538
-1.1843113	VERB VERB PROPN	-1.2854221
-1.1091162	ADP VERB PROPN	-1.3920907
-1.1850193	PROPN VERB PROPN	-1.6325724
-1.240949	CCONJ VERB PROPN	-1.0914195
-1.1934669	ADV VERB PROPN	-1.4053974
-1.1047775	ADJ VERB PROPN	-0.61058384
-1.151283	PUNCT VERB PROPN	-1.7619134
-1.2226228	PRON VERB PROPN	-1.5244694
-1.1505333	PART VERB PROPN	-1.7395238
-1.0993841	SCONJ VERB PROPN	-0.5591987
-1.1961985	NUM VERB PROPN	-0.5204679
-1.275144	SYM VERB PROPN	-0.29137042
-1.4812083	X VERB PROPN	-0.29137042
-1.0624197	INTJ VERB PROPN	-0.38973603
-0.71938944	<s> ADP PROPN	-1.9331626
-0.975776	DET ADP PROPN	-1.0850476
-1.1378077	NOUN ADP PROPN	-2.9804816
-1.0046437	AUX ADP PROPN	-1.3450525
-1.1564353	VERB ADP PROPN	-2.5424063
-0.99503565	ADP ADP PROPN	-1.3516119
-1.0343814	PROPN ADP PROPN	-2.5757518
-1.0540259	CCONJ ADP PROPN	-1.1025323
-1.0537905	ADV ADP PROPN	-1.746904
-1.0791411	ADJ ADP PROPN	-1.6411555
-1.0895587	PUNCT ADP PROPN	-1.8257593
-0.9171381	PRON ADP PROPN	-1.1686422
-0.85953635	PART ADP PROPN	-0.71738076
-0.9384365	SCONJ ADP PROPN	-1.1194062
-0.9743984	NUM ADP PROPN	-1.4140879
-1.2047968	SYM ADP PROPN	-0.29137042
-0.693011	X ADP PROPN	-0.37393424
-0.9541898	INTJ ADP PROPN	-0.45180815
-0.4193535	<s> PROPN PROPN	-2.4464495
-1.1141388	DET PROPN PROPN	-2.6533449
-1.0572698	NOUN PROPN PROPN	-2.1943681
-1.0114894	AUX PROPN PROPN	-1.2981501
-1.1352345	VERB PROPN PROPN	-1.9947591
-1.1422575	ADP PROPN PROPN	-2.692404
-1.1898627	PROPN PROPN PROPN	-2.9685097
-1.0194867	CCONJ PROPN PROPN	-1.9949969
-0.9298255	ADV PROPN PROPN	-1.2805711
-1.0850873	ADJ PROPN PROPN	-1.9338032
-1.1318709	PUNCT PROPN PROPN	-2.5469577
-0.7911291	PRON PROPN PROPN	-0.86112833
-1.0260932	PART PROPN PROPN	-1.7089592
-1.0450802	SCONJ PROPN PROPN	-1.7337803
-1.023221	NUM PROPN PROPN	-1.4462149
-1.0812316	SYM PROPN PROPN	-1.00333
-0.68197256	X PROPN PROPN	-1.061206
-0.96908987	INTJ PROPN PROPN	-0.80506366
-1.1329755	<s> CCONJ PROPN	-1.2102642
-1.0600257	DET CCONJ PROPN	-0.36651716
-1.1569192	NOUN CCONJ PROPN	-1.7041862
-1.2641131	AUX CCONJ PROPN	-0.29137042
-1.1515869	VERB CCONJ PROPN	-1.0499642
-1.1099932	ADP CCONJ PROPN	-1.019085
-1.049173	PROPN CCONJ PROPN	-2.4531524
-0.91227436	CCONJ CCONJ PROPN	-0.28535292
-1.1990638	ADV CCONJ PROPN	-0.74762076
-1.0951753	ADJ CCONJ PROPN	-1.0450841
-1.138034	PUNCT CCONJ PROPN	-1.7415745
-0.9911991	PRON CCONJ PROPN	-0.6467816
-1.2496094	PART CCONJ PROPN	-0.8573967
-0.97163033	SCONJ CCONJ PROPN	-0.5105117
-1.096653	NUM CCONJ PROPN	-1.0565968
-0.83937424	SYM CCONJ PROPN	-0.29137042
-1.2296293	X CCONJ PROPN	-0.29137042
-0.962752	INTJ CCONJ PROPN	-0.29137042
-1.6237323	<s> ADV PROPN	-1.0961776
-1.402507	DET ADV PROPN	-0.38077146
-1.2547016	NOUN ADV PROPN	-1.0361003
-1.303919	AUX ADV PROPN	-0.81421435
-1.2485664	VERB ADV PROPN	-1.0524651
-1.2212129	ADP ADV PROPN	-0.8202413
-1.2135438	PROPN ADV PROPN	-0.7246048
-1.153261	CCONJ ADV PROPN	-0.83642185
-1.2917587	ADV ADV PROPN	-0.76883316
-1.3200948	ADJ ADV PROPN	-0.28770113
-1.2633523	PUNCT ADV PROPN	-1.164761
-1.6751333	PRON ADV PROPN	-0.28336546
-1.2250507	PART ADV PROPN	-0.5291749
-1.2443469	SCONJ ADV PROPN	-0.5466173
-1.2021868	NUM ADV PROPN	-0.47350308
-1.0423123	X ADV PROPN	-0.29137042
-1.3771483	INTJ ADV PROPN	-0.29137042
-0.9742659	<s> ADJ PROPN	-1.452058
-1.1117893	DET ADJ PROPN	-1.9796019
-1.0532877	NOUN ADJ PROPN	-0.9792416
-1.1764098	AUX ADJ PROPN	-0.7308493
-1.1886138	VERB ADJ PROPN	-1.173681
-1.0945771	ADP ADJ PROPN	-1.6791285
-0.8931506	PROPN ADJ PROPN	-0.9438243
-1.2980002	CCONJ ADJ PROPN	-1.1291851
-1.1444784	ADV ADJ PROPN	-1.1231037
-1.0025684	ADJ ADJ PROPN	-1.3614609
-1.089386	PUNCT ADJ PROPN	-2.3657174
-1.1095923	PRON ADJ PROPN	-0.42603162
-1.2713447	PART ADJ PROPN	-0.98693216
-1.0738534	SCONJ ADJ PROPN	-0.87690216
-0.89274937	NUM ADJ PROPN	-0.77900743
-1.1197643	SYM ADJ PROPN	-0.28866297
-0.9313878	X ADJ PROPN	-0.2933605
-0.74664956	INTJ ADJ PROPN	-0.28535292
-0.88380206	<s> PUNCT PROPN	-1.3639587
-1.1462305	DET PUNCT PROPN	-1.5041904
-1.2069802	NOUN PUNCT PROPN	-2.3911073
-1.1634732	AUX PUNCT PROPN	-0.81694126
-1.2139909	VERB PUNCT PROPN	-1.5906824
-1.1533	ADP PUNCT PROPN	-1.3882629
-1.2158437	PROPN PUNCT PROPN	-2.718348
-1.0935698	CCONJ PUNCT PROPN	-1.0301077
-1.2056549	ADV PUNCT PROPN	-1.6003876
-1.2318742	ADJ PUNCT PROPN	-1.367752
-1.2039771	PUNCT PUNCT PROPN	-1.8324406
-1.2172137	PRON PUNCT PROPN	-0.9768376
-1.2443002	PART PUNCT PROPN	-0.8958283
-1.0694352	SCONJ PUNCT PROPN	-1.0384593
-1.22098	NUM PUNCT PROPN	-1.5137315
-0.8794998	SYM PUNCT PROPN	-0.28535292
-1.100071	X PUNCT PROPN	-0.9713909
-1.2736667	INTJ PUNCT PROPN	-0.81919825
-2.7745454	<s> PRON PROPN	-0.5288808
-1.4933089	DET PRON PROPN	-0.29137042
-1.2319049	NOUN PRON PROPN	-0.5533453
-1.2945989	AUX PRON PROPN	-0.62115484
-1.2985986	VERB PRON PROPN	-0.9193356
-1.2707947	ADP PRON PROPN	-0.7785542
-1.240904	PROPN PRON PROPN	-0.65398294
-1.3997	CCONJ PRON PROPN	-0.4647542
-1.2492806	ADV PRON PROPN	-0.50785494
-1.4537202	ADJ PRON PROPN	-0.29137042
-1.3050749	PUNCT PRON PROPN	-0.57538754
-1.3326395	PRON PRON PROPN	-0.29535973
-1.577911	PART PRON PROPN	-0.29137042
-1.4024591	SCONJ PRON PROPN	-0.4302874
-1.1630664	X PRON PROPN	-0.29535973
-1.4620199	INTJ PRON PROPN	-0.29137042
-2.6043646	<s> PART PROPN	-0.29137042
-1.0894918	NOUN PART PROPN	-1.2132363
-1.3358737	AUX PART PROPN	-0.5317321
-1.5562474	VERB PART PROPN	-0.29269612
-1.5237969	ADP PART PROPN	-0.29137042
-1.0131689	PROPN PART PROPN	-1.9116542
-1.2546803	CCONJ PART PROPN	-0.56973577
-1.67072	ADV PART PROPN	-0.28535292
-1.6339585	ADJ PART PROPN	-0.29137042
-1.2978189	PUNCT PART PROPN	-0.522568
-1.558042	PRON PART PROPN	-0.29137042
-1.6445767	SCONJ PART PROPN	-0.29137042
-1.4080228	NUM PART PROPN	-0.29137042
-0.9910454	<s> SCONJ PROPN	-1.3762437
-0.96474546	DET SCONJ PROPN	-0.32543692
-1.0862525	NOUN SCONJ PROPN	-1.6490511
-1.0940595	AUX SCONJ PROPN	-0.8525442
-1.1364789	VERB SCONJ PROPN	-1.7835736
-1.007955	ADP SCONJ PROPN	-0.7571479
-1.0725201	PROPN SCONJ PROPN	-0.98041695
-1.1868564	CCONJ SCONJ PROPN	-0.8161412
-1.0343935	ADV SCONJ PROPN	-1.0902138
-1.0778842	ADJ SCONJ PROPN	-1.3941535
-1.0791086	PUNCT SCONJ PROPN	-1.4062364
-1.0122018	PRON SCONJ PROPN	-0.6764704
-1.2770087	PART SCONJ PROPN	-0.29296175
-0.9404111	SCONJ SCONJ PROPN	-0.8160747
-1.0415441	NUM SCONJ PROPN	-0.35229972
-1.2817677	<s> NUM PROPN	-0.89213306
-1.0696231	DET NUM PROPN	-1.2941453
-1.0976354	NOUN NUM PROPN	-0.6287484
-1.2890854	AUX NUM PROPN	-0.5874464
-1.1760073	VERB NUM PROPN	-0.77945656
-1.1497793	ADP NUM PROPN	-1.2857133
-1.0557255	PROPN NUM PROPN	-1.1570048
-1.2509329	CCONJ NUM PROPN	-0.6685009
-1.145192	ADV NUM PROPN	-0.7351347
-1.0346591	ADJ NUM PROPN	-0.6685009
-0.9871409	PUNCT NUM PROPN	-1.1962402
-1.1844474	PRON NUM PROPN	-0.29137042
-1.2331803	PART NUM PROPN	-0.55866504
-1.196661	SCONJ NUM PROPN	-0.6254286
-0.96583754	NUM NUM PROPN	-0.90787464
-1.1779417	SYM NUM PROPN	-0.59731734
-0.80298364	X NUM PROPN	-0.29137042
-0.23593186	<s> SYM PROPN	-0.65486676
-0.63280565	DET SYM PROPN	-0.66814846
-0.70933825	NOUN SYM PROPN	-0.81302595
-0.4894552	AUX SYM PROPN	-0.4044792
-0.7122112	VERB SYM PROPN	-0.67330426
-0.64174354	ADP SYM PROPN	-1.1171819
-0.54112333	PROPN SYM PROPN	-1.317301
-0.8351246	CCONJ SYM PROPN	-0.493448
-0.45151484	ADV SYM PROPN	-0.31510243
-0.6383787	ADJ SYM PROPN	-0.53659517
-0.6379228	PUNCT SYM PROPN	-1.0987922
-0.8448911	PRON SYM PROPN	-0.28698575
-0.781686	PART SYM PROPN	-0.2923643
-0.46500322	SCONJ SYM PROPN	-0.30898723
-0.84835863	NUM SYM PROPN	-0.29044324
-0.37737328	X SYM PROPN	-0.4118287
-1.537421	<s> X PROPN	-0.5458084
-0.57409257	DET X PROPN	-0.49145588
-0.9950172	NOUN X PROPN	-0.3374856
-0.9278742	AUX X PROPN	-0.29137042
-1.0154403	VERB X PROPN	-0.29364553
-1.1108056	ADP X PROPN	-0.29402587
-0.6739758	PROPN X PROPN	-1.1468893
-1.1341107	CCONJ X PROPN	-0.29535973
-1.0202196	ADV X PROPN	-0.29137042
-1.0466357	ADJ X PROPN	-0.29137042
-1.0133313	PUNCT X PROPN	-0.7155274
-0.77381396	PRON X PROPN	-0.29137042
-0.6291294	PART X PROPN	-0.29137042
-0.8268535	SCONJ X PROPN	-0.29535973
-0.97528374	NUM X PROPN	-0.29137042
-0.7737566	X X PROPN	-0.84692043
-0.73401004	INTJ X PROPN	-0.29535973
-1.2464945	<s> INTJ PROPN	-0.7032788
-0.9244781	NOUN INTJ PROPN	-0.29137042
-1.3163677	VERB INTJ PROPN	-0.29137042
-0.9968337	ADP INTJ PROPN	-0.29535973
-1.2150073	PROPN INTJ PROPN	-0.3970661
-1.1451932	CCONJ INTJ PROPN	-0.2881235
-1.1196729	PUNCT INTJ PROPN	-0.63324094
-1.2100188	PRON INTJ PROPN	-0.29137042
-0.9840377	SCONJ INTJ PROPN	-0.29137042
-0.89100915	X INTJ PROPN	-0.29137042
-1.1484417	INTJ INTJ PROPN	-0.29535973
-0.07501902	NOUN SPACE PROPN	-0.29137042
-3.4383247	<s> DET CCONJ	-0.3993232
-1.8247948	DET DET CCONJ	-0.29137042
-1.8032719	NOUN DET CCONJ	-0.29137042
-1.580875	AUX DET CCONJ	-0.31098953
-1.2991979	VERB DET CCONJ	-0.59884906
-1.2664882	ADP DET CCONJ	-0.73778635
-1.8876156	PROPN DET CCONJ	-0.29137042
-1.6091514	CCONJ DET CCONJ	-0.28734946
-1.6659757	ADV DET CCONJ	-0.29137042
-1.6448826	PUNCT DET CCONJ	-0.29402587
-1.6481955	PRON DET CCONJ	-0.28904873
-1.5735759	SCONJ DET CCONJ	-0.28792164
-1.528784	NUM DET CCONJ	-0.29137042
-1.420695	<s> NOUN CCONJ	-1.4058416
-1.2134436	DET NOUN CCONJ	-2.500234
-1.2216227	NOUN NOUN CCONJ	-2.2093801
-1.1589154	AUX NOUN CCONJ	-1.0525343
-1.2069255	VERB NOUN CCONJ	-2.0376954
-1.1404164	ADP NOUN CCONJ	-2.3114707
-1.1861849	PROPN NOUN CCONJ	-1.5623134
-1.1303345	CCONJ NOUN CCONJ	-1.3032941
-1.1622748	ADV NOUN CCONJ	-1.1021599
-1.1938106	ADJ NOUN CCONJ	-2.4249363
-1.1980611	PUNCT NOUN CCONJ	-2.022439
-1.2634454	PRON NOUN CCONJ	-0.60119617
-1.1671121	PART NOUN CCONJ	-1.4194874
-1.1431682	SCONJ NOUN CCONJ	-1.2150952
-1.1887927	NUM NOUN CCONJ	-1.5308951
-1.1384542	SYM NOUN CCONJ	-0.5399345
-1.2251544	X NOUN CCONJ	-0.29296175
-1.1527663	INTJ NOUN CCONJ	-0.29402587
-1.6864204	DET AUX CCONJ	-0.29269612
-1.3301289	NOUN AUX CCONJ	-0.6181366
-1.5501277	AUX AUX CCONJ	-0.28866297
-1.6706064	VERB AUX CCONJ	-0.29190868
-1.635987	ADP AUX CCONJ	-0.29137042
-1.3943866	PROPN AUX CCONJ	-0.34303424
-1.852224	CCONJ AUX CCONJ	-0.29137042
-1.4447699	ADV AUX CCONJ	-0.3262062
-1.8534603	PUNCT AUX CCONJ	-0.35429627
-1.2850136	PRON AUX CCONJ	-0.63703346
-1.5530306	PART AUX CCONJ	-0.38623118
-1.7016108	SCONJ AUX CCONJ	-0.29137042
-1.7795601	NUM AUX CCONJ	-0.29137042
-2.2668104	<s> VERB CCONJ	-0.9052216
-1.2259781	DET VERB CCONJ	-0.8747644
-1.2129098	NOUN VERB CCONJ	-1.3513042
-1.2028055	AUX VERB CCONJ	-1.7042073
-1.2460703	VERB VERB CCONJ	-1.1982517
-1.1373252	ADP VERB CCONJ	-1.1799984
-1.1604269	PROPN VERB CCONJ	-1.0333757
-1.2035371	CCONJ VERB CCONJ	-0.87109125
-1.1935532	ADV VERB CCONJ	-1.3054968
-1.3520476	ADJ VERB CCONJ	-0.5231319
-1.2054515	PUNCT VERB CCONJ	-1.3633676
-1.2505406	PRON VERB CCONJ	-1.2733593
-1.2046038	PART VERB CCONJ	-1.663467
-1.1797647	SCONJ VERB CCONJ	-0.5519044
-1.3550347	NUM VERB CCONJ	-0.31775898
-1.2755452	SYM VERB CCONJ	-0.29137042
-1.481712	X VERB CCONJ	-0.29137042
-1.4971541	INTJ VERB CCONJ	-0.28535292
-3.677157	<s> ADP CCONJ	-0.29137042
-1.3680811	DET ADP CCONJ	-0.38526127
-1.2245817	NOUN ADP CCONJ	-1.1384852
-1.3513585	AUX ADP CCONJ	-0.3161615
-1.273244	VERB ADP CCONJ	-1.316196
-1.7978278	ADP ADP CCONJ	-0.28601745
-1.2986858	PROPN ADP CCONJ	-0.43320173
-1.4251622	CCONJ ADP CCONJ	-0.4501441
-1.4250923	ADV ADP CCONJ	-0.2895636
-1.3395667	ADJ ADP CCONJ	-0.47422194
-1.3296854	PUNCT ADP CCONJ	-0.5083022
-1.6474495	PRON ADP CCONJ	-0.65191483
-1.7142509	PART ADP CCONJ	-0.29137042
-1.5854096	SCONJ ADP CCONJ	-0.29296175
-1.4283884	X ADP CCONJ	-0.29137042
-1.8583469	<s> PROPN CCONJ	-1.3430624
-1.1405582	DET PROPN CCONJ	-1.6786528
-1.2328081	NOUN PROPN CCONJ	-1.1196164
-1.0794255	AUX PROPN CCONJ	-0.77953154
-1.1897017	VERB PROPN CCONJ	-1.3972656
-1.1671317	ADP PROPN CCONJ	-2.172243
-1.189936	PROPN PROPN CCONJ	-2.259467
-1.1238766	CCONJ PROPN CCONJ	-1.2604883
-1.0470138	ADV PROPN CCONJ	-0.87494963
-1.2015569	ADJ PROPN CCONJ	-1.1210462
-1.1566533	PUNCT PROPN CCONJ	-1.8016241
-1.3697056	PRON PROPN CCONJ	-0.46641874
-1.1781174	PART PROPN CCONJ	-1.0297111
-1.1423593	SCONJ PROPN CCONJ	-1.2418753
-1.1869847	NUM PROPN CCONJ	-0.7633407
-1.2272758	SYM PROPN CCONJ	-0.7032394
-1.4374154	X PROPN CCONJ	-0.29137042
-1.0844054	INTJ PROPN CCONJ	-0.29402587
-3.452201	<s> CCONJ CCONJ	-0.29137042
-1.6385322	NOUN CCONJ CCONJ	-0.2942162
-1.9039376	VERB CCONJ CCONJ	-0.28336546
-1.879914	ADP CCONJ CCONJ	-0.29137042
-2.142846	PROPN CCONJ CCONJ	-0.29137042
-1.9026201	ADV CCONJ CCONJ	-0.29137042
-2.013597	ADJ CCONJ CCONJ	-0.29137042
-1.7085557	PUNCT CCONJ CCONJ	-0.2895636
-2.0084462	NUM CCONJ CCONJ	-0.29137042
-2.692522	<s> ADV CCONJ	-0.88860977
-1.2260809	DET ADV CCONJ	-0.5458084
-1.2234514	NOUN ADV CCONJ	-1.2100447
-1.3542085	AUX ADV CCONJ	-0.8107395
-1.1893778	VERB ADV CCONJ	-1.3767486
-1.224848	ADP ADV CCONJ	-0.7427799
-1.217074	PROPN ADV CCONJ	-0.52157694
-1.2368652	CCONJ ADV CCONJ	-0.74814266
-1.1602196	ADV ADV CCONJ	-0.84180015
-1.3248693	ADJ ADV CCONJ	-0.5221066
-1.3015393	PUNCT ADV CCONJ	-0.8923422
-1.3057257	PRON ADV CCONJ	-0.74352795
-1.4133493	PART ADV CCONJ	-0.5519044
-1.5659665	SCONJ ADV CCONJ	-0.3862482
-1.6023144	NUM ADV CCONJ	-0.29137042
-1.3924056	INTJ ADV CCONJ	-0.29137042
-1.7499229	<s> ADJ CCONJ	-1.011431
-1.169277	DET ADJ CCONJ	-1.7531875
-1.1429541	NOUN ADJ CCONJ	-0.9951579
-1.0604277	AUX ADJ CCONJ	-1.5350299
-1.099042	VERB ADJ CCONJ	-1.3850789
-1.1223992	ADP ADJ CCONJ	-1.5621451
-1.1183456	PROPN ADJ CCONJ	-0.4811671
-1.0292131	CCONJ ADJ CCONJ	-1.0705454
-1.144565	ADV ADJ CCONJ	-1.6001736
-1.0325993	ADJ ADJ CCONJ	-1.3077815
-1.0894735	PUNCT ADJ CCONJ	-1.5445595
-1.2893858	PRON ADJ CCONJ	-0.7246856
-1.1602602	PART ADJ CCONJ	-0.9265319
-1.001197	SCONJ ADJ CCONJ	-0.83766943
-0.95624495	NUM ADJ CCONJ	-0.78140396
-1.380078	SYM ADJ CCONJ	-0.29137042
-1.3398204	X ADJ CCONJ	-0.29137042
-1.1991354	INTJ ADJ CCONJ	-0.29137042
-1.7754155	<s> PUNCT CCONJ	-0.7102622
-1.2916485	DET PUNCT CCONJ	-0.7081177
-1.2070528	NOUN PUNCT CCONJ	-2.4976203
-1.2427044	AUX PUNCT CCONJ	-0.845782
-1.2718132	VERB PUNCT CCONJ	-1.7378777
-1.225558	ADP PUNCT CCONJ	-0.9572348
-1.2406478	PROPN PUNCT CCONJ	-2.0392623
-1.2711155	CCONJ PUNCT CCONJ	-0.38723752
-1.2057365	ADV PUNCT CCONJ	-1.5113965
-1.1778245	ADJ PUNCT CCONJ	-1.6565924
-1.2302794	PUNCT PUNCT CCONJ	-1.4796603
-1.1827407	PRON PUNCT CCONJ	-1.1907622
-1.3709089	PART PUNCT CCONJ	-0.5038302
-1.4039142	SCONJ PUNCT CCONJ	-0.29032752
-1.1912441	NUM PUNCT CCONJ	-1.289568
-1.322185	SYM PUNCT CCONJ	-0.29137042
-1.2379539	X PUNCT CCONJ	-0.4756663
-1.049328	INTJ PUNCT CCONJ	-0.5422492
-2.827228	<s> PRON CCONJ	-0.6041117
-1.5187653	DET PRON CCONJ	-0.29402587
-1.3737773	NOUN PRON CCONJ	-0.4193193
-1.2527711	AUX PRON CCONJ	-0.4875781
-1.2092338	VERB PRON CCONJ	-1.28016
-1.1432112	ADP PRON CCONJ	-1.2543578
-1.2532015	PROPN PRON CCONJ	-0.2893382
-1.2629175	CCONJ PRON CCONJ	-0.51229197
-1.159283	ADV PRON CCONJ	-0.485908
-1.6756947	ADJ PRON CCONJ	-0.29137042
-1.226692	PUNCT PRON CCONJ	-0.67030174
-1.6008455	PRON PRON CCONJ	-0.29137042
-1.6150874	PART PRON CCONJ	-0.29137042
-1.1925287	SCONJ PRON CCONJ	-0.6552499
-1.2792004	NOUN PART CCONJ	-0.41316342
-1.5380174	AUX PART CCONJ	-0.4614442
-1.3390712	VERB PART CCONJ	-0.4246358
-1.2268165	PROPN PART CCONJ	-0.8806752
-1.7675706	CCONJ PART CCONJ	-0.29402587
-1.7820978	ADV PART CCONJ	-0.29137042
-1.7367489	ADJ PART CCONJ	-0.29535973
-1.4915247	NUM PART CCONJ	-0.2895636
-2.900547	<s> SCONJ CCONJ	-0.4614442
-1.6957952	NOUN SCONJ CCONJ	-0.50521415
-1.6809056	AUX SCONJ CCONJ	-0.29402587
-1.2836844	VERB SCONJ CCONJ	-0.6265495
-1.0231668	ADP SCONJ CCONJ	-0.8547147
-1.8924303	PROPN SCONJ CCONJ	-0.29137042
-1.6460311	CCONJ SCONJ CCONJ	-0.29137042
-1.756679	ADV SCONJ CCONJ	-0.29137042
-1.6847639	ADJ SCONJ CCONJ	-0.35429627
-1.71123	PUNCT SCONJ CCONJ	-0.63054615
-1.685066	PRON SCONJ CCONJ	-0.29137042
-1.619608	NUM SCONJ CCONJ	-0.29137042
-2.1535566	<s> NUM CCONJ	-0.3276801
-1.3401184	DET NUM CCONJ	-0.47256482
-1.0634123	NOUN NUM CCONJ	-0.5557963
-1.1685374	AUX NUM CCONJ	-0.45515335
-1.1799175	VERB NUM CCONJ	-0.6159283
-1.153014	ADP NUM CCONJ	-1.2481326
-1.1486613	PROPN NUM CCONJ	-0.97345406
-1.3583901	CCONJ NUM CCONJ	-0.29032752
-1.3056939	ADV NUM CCONJ	-0.5385804
-1.0848758	ADJ NUM CCONJ	-0.4728995
-1.2403517	PUNCT NUM CCONJ	-0.57984734
-1.1965564	PRON NUM CCONJ	-0.29137042
-1.3832215	PART NUM CCONJ	-0.28535292
-1.2025802	SCONJ NUM CCONJ	-0.38611752
-1.1934946	NUM NUM CCONJ	-0.48165312
-1.2344131	SYM NUM CCONJ	-0.389957
-1.8453684	NOUN SYM CCONJ	-0.29137042
-1.8236266	VERB SYM CCONJ	-0.29137042
-1.5389751	NUM SYM CCONJ	-0.29137042
-1.7306896	NOUN X CCONJ	-0.29535973
-1.0403126	AUX X CCONJ	-0.29137042
-1.3033062	VERB X CCONJ	-0.2933605
-1.2336982	ADP X CCONJ	-0.29053587
-1.5735699	PUNCT X CCONJ	-0.29137042
-0.9133688	SCONJ X CCONJ	-0.29402587
-1.3249474	X X CCONJ	-0.29137042
-2.3618867	<s> INTJ CCONJ	-0.29137042
-1.259771	VERB INTJ CCONJ	-0.29137042
-1.3136083	CCONJ INTJ CCONJ	-0.29137042
-1.3637573	ADV INTJ CCONJ	-0.29137042
-1.1221182	ADJ INTJ CCONJ	-0.29137042
-1.661609	PUNCT INTJ CCONJ	-0.29137042
-1.1364299	PRON INTJ CCONJ	-0.29535973
-1.0217657	SCONJ INTJ CCONJ	-0.29137042
-1.8575549	<s> DET ADV	-1.3416121
-1.0920316	DET DET ADV	-0.8421305
-1.0708172	NOUN DET ADV	-1.2129148
-1.075653	AUX DET ADV	-1.6103382
-1.1886768	VERB DET ADV	-1.5771699
-1.1559399	ADP DET ADV	-1.858119
-1.105936	PROPN DET ADV	-0.7522567
-1.1300787	CCONJ DET ADV	-0.9989682
-1.114893	ADV DET ADV	-1.1246027
-1.0112814	ADJ DET ADV	-0.34856436
-1.1161895	PUNCT DET ADV	-1.384695
-1.0608201	PRON DET ADV	-0.7760049
-1.1266297	PART DET ADV	-0.5858399
-1.0683538	SCONJ DET ADV	-1.1177714
-1.2333336	NUM DET ADV	-0.28792164
-0.940024	SYM DET ADV	-0.29137042
-1.0514152	INTJ DET ADV	-0.29137042
-1.7180948	<s> NOUN ADV	-1.1254936
-1.1625563	DET NOUN ADV	-2.237502
-1.2216227	NOUN NOUN ADV	-1.6777407
-1.1239552	AUX NOUN ADV	-0.71969956
-1.1806304	VERB NOUN ADV	-1.4929899
-1.16521	ADP NOUN ADV	-1.597293
-1.2140546	PROPN NOUN ADV	-1.2290708
-1.171874	CCONJ NOUN ADV	-1.2418187
-1.1622748	ADV NOUN ADV	-0.7350174
-1.2478689	ADJ NOUN ADV	-2.0266254
-1.1980611	PUNCT NOUN ADV	-1.1601853
-1.2634454	PRON NOUN ADV	-0.29134104
-1.1671121	PART NOUN ADV	-1.0182843
-1.2227992	SCONJ NOUN ADV	-0.86368984
-1.1887927	NUM NOUN ADV	-1.6253493
-1.3500373	SYM NOUN ADV	-0.3291216
-1.588062	X NOUN ADV	-0.29137042
-1.3688967	INTJ NOUN ADV	-0.29137042
-1.7332207	<s> AUX ADV	-0.47350308
-1.0451308	DET AUX ADV	-1.7085867
-1.1030056	NOUN AUX ADV	-2.3183184
-0.9320634	AUX AUX ADV	-1.3415262
-1.0860808	VERB AUX ADV	-1.4682181
-0.94246435	ADP AUX ADV	-0.6650601
-1.1020228	PROPN AUX ADV	-1.9336089
-0.9661766	CCONJ AUX ADV	-1.3579466
-1.0935495	ADV AUX ADV	-1.0563874
-0.97133166	ADJ AUX ADV	-0.7559738
-1.0943664	PUNCT AUX ADV	-1.5095189
-1.1207594	PRON AUX ADV	-2.228549
-1.0718998	PART AUX ADV	-1.4388663
-0.905119	SCONJ AUX ADV	-0.58969295
-1.0419954	NUM AUX ADV	-0.66889614
-0.7884614	X AUX ADV	-0.29137042
-1.0781534	INTJ AUX ADV	-0.36573097
-1.5324132	<s> VERB ADV	-0.84671676
-1.1636347	DET VERB ADV	-1.3608199
-1.2129098	NOUN VERB ADV	-1.9934123
-1.2028055	AUX VERB ADV	-1.988849
-1.1844003	VERB VERB ADV	-1.5059212
-1.1674074	ADP VERB ADV	-1.0954379
-1.1604269	PROPN VERB ADV	-1.5649669
-1.1369947	CCONJ VERB ADV	-1.4242289
-1.1935532	ADV VERB ADV	-1.5167547
-1.2110987	ADJ VERB ADV	-0.5269506
-1.1513605	PUNCT VERB ADV	-1.5015937
-1.1965489	PRON VERB ADV	-2.0110614
-1.2046038	PART VERB ADV	-1.855979
-1.2262594	SCONJ VERB ADV	-0.6558376
-1.1963105	NUM VERB ADV	-0.4113234
-1.1712027	SYM VERB ADV	-0.29137042
-1.481712	X VERB ADV	-0.29137042
-1.1490145	INTJ VERB ADV	-0.3970661
-1.7461349	<s> ADP ADV	-1.1022997
-1.1238866	DET ADP ADV	-0.44544095
-1.188234	NOUN ADP ADV	-1.7569678
-1.1803099	AUX ADP ADV	-0.5786104
-1.2068615	VERB ADP ADV	-1.642205
-1.1002337	ADP ADP ADV	-0.7363818
-1.2859812	PROPN ADP ADV	-0.73326653
-1.0541315	CCONJ ADP ADV	-0.6975045
-1.1112359	ADV ADP ADV	-0.8920392
-1.2026912	ADJ ADP ADV	-0.76931167
-1.115708	PUNCT ADP ADV	-0.9895766
-1.1651493	PRON ADP ADV	-0.6859298
-1.6645911	PART ADP ADV	-0.29137042
-1.030056	SCONJ ADP ADV	-0.6973939
-1.3142508	NUM ADP ADV	-0.38557294
-1.2051618	SYM ADP ADV	-0.29137042
-1.3883626	X ADP ADV	-0.29137042
-1.3727937	INTJ ADP ADV	-0.29137042
-1.7385067	<s> PROPN ADV	-1.4646208
-1.201283	DET PROPN ADV	-1.1145153
-1.2739743	NOUN PROPN ADV	-0.77635896
-1.1633158	AUX PROPN ADV	-0.46679285
-1.2547965	VERB PROPN ADV	-0.9657705
-1.2239889	ADP PROPN ADV	-1.4753327
-1.2433245	PROPN PROPN ADV	-1.5980463
-1.2149086	CCONJ PROPN ADV	-0.9084649
-1.3233167	ADV PROPN ADV	-0.5714383
-1.239466	ADJ PROPN ADV	-0.7436939
-1.3103669	PUNCT PROPN ADV	-1.1226734
-1.3775283	PRON PROPN ADV	-0.2893382
-1.4254892	PART PROPN ADV	-0.5545776
-1.1836528	SCONJ PROPN ADV	-0.83924377
-1.3310022	NUM PROPN ADV	-0.42564368
-1.3288182	SYM PROPN ADV	-0.49184948
-1.2507071	INTJ PROPN ADV	-0.28336546
-0.83000726	<s> CCONJ ADV	-1.4453003
-1.3859854	DET CCONJ ADV	-0.29269612
-1.1598785	NOUN CCONJ ADV	-1.7894838
-1.0844775	AUX CCONJ ADV	-0.32439864
-1.0658207	VERB CCONJ ADV	-1.1312066
-1.1148825	ADP CCONJ ADV	-0.58939314
-1.1918944	PROPN CCONJ ADV	-1.1632961
-1.0783175	CCONJ CCONJ ADV	-0.28535292
-1.0142475	ADV CCONJ ADV	-1.4099494
-1.0981655	ADJ CCONJ ADV	-1.3583692
-1.1150769	PUNCT CCONJ ADV	-1.8996674
-1.0930046	PRON CCONJ ADV	-0.6750701
-1.1640644	PART CCONJ ADV	-0.29137042
-1.0939223	SCONJ CCONJ ADV	-0.2925065
-0.9943735	NUM CCONJ ADV	-0.5428708
-1.2424847	X CCONJ ADV	-0.29137042
-1.0941489	INTJ CCONJ ADV	-0.29137042
-1.055508	<s> ADV ADV	-1.5963763
-1.0243933	DET ADV ADV	-1.1078944
-1.1018318	NOUN ADV ADV	-1.7156005
-1.12569	AUX ADV ADV	-1.7492533
-1.1839505	VERB ADV ADV	-1.730036
-1.1132839	ADP ADV ADV	-1.1353912
-1.0752375	PROPN ADV ADV	-1.0461065
-1.1878405	CCONJ ADV ADV	-1.3236269
-1.1008532	ADV ADV ADV	-1.2955037
-1.1033095	ADJ ADV ADV	-0.9352816
-1.1447973	PUNCT ADV ADV	-1.6522076
-1.025941	PRON ADV ADV	-1.2243422
-1.0590831	PART ADV ADV	-0.9802243
-1.0999779	SCONJ ADV ADV	-0.7885457
-1.0396994	NUM ADV ADV	-0.3913389
-0.99359536	SYM ADV ADV	-0.29137042
-1.0351968	X ADV ADV	-0.29137042
-1.1546944	INTJ ADV ADV	-0.29402587
-2.2005484	<s> ADJ ADV	-0.54101723
-1.2106702	DET ADJ ADV	-0.9901755
-1.2680322	NOUN ADJ ADV	-0.5151979
-1.2209643	AUX ADJ ADV	-1.164225
-1.1979281	VERB ADJ ADV	-0.8558505
-1.2667639	ADP ADJ ADV	-0.61410075
-1.5081778	PROPN ADJ ADV	-0.29535973
-1.314653	CCONJ ADJ ADV	-0.5948245
-1.331704	ADV ADJ ADV	-0.98764604
-1.2371867	ADJ ADJ ADV	-0.4882554
-1.2232566	PUNCT ADJ ADV	-0.5799359
-1.3924519	PRON ADJ ADV	-0.48941904
-1.1243049	PART ADJ ADV	-0.7932796
-1.2872797	SCONJ ADJ ADV	-0.37981075
-1.516041	NUM ADJ ADV	-0.29296175
-1.170718	<s> PUNCT ADV	-1.1673279
-1.1783538	DET PUNCT ADV	-0.8080028
-1.2070528	NOUN PUNCT ADV	-2.2093647
-1.1635786	AUX PUNCT ADV	-0.9767949
-1.2140726	VERB PUNCT ADV	-1.4633645
-1.1879823	ADP PUNCT ADV	-0.79009694
-1.2159163	PROPN PUNCT ADV	-1.9071723
-1.0937057	CCONJ PUNCT ADV	-0.9570647
-1.233648	ADV PUNCT ADV	-1.5234021
-1.2319614	ADJ PUNCT ADV	-1.3140358
-1.2302794	PUNCT PUNCT ADV	-1.3358945
-1.1507106	PRON PUNCT ADV	-1.0153309
-1.0318512	PART PUNCT ADV	-0.60930234
-1.2286966	SCONJ PUNCT ADV	-0.60465896
-1.1633327	NUM PUNCT ADV	-1.1204578
-1.322185	SYM PUNCT ADV	-0.29137042
-1.1414373	X PUNCT ADV	-0.43362135
-1.147245	INTJ PUNCT ADV	-0.62408453
-1.1493552	<s> PRON ADV	-1.9976798
-0.8773009	DET PRON ADV	-1.0255786
-0.94878525	NOUN PRON ADV	-1.4384733
-1.1484209	AUX PRON ADV	-1.1486669
-1.1437482	VERB PRON ADV	-1.6169286
-1.1606282	ADP PRON ADV	-1.2504706
-1.0027052	PROPN PRON ADV	-0.9097828
-0.9732972	CCONJ PRON ADV	-1.4083415
-1.0300524	ADV PRON ADV	-1.3394012
-1.0977854	ADJ PRON ADV	-0.42764091
-1.0252761	PUNCT PRON ADV	-1.7462147
-0.81755066	PRON PRON ADV	-0.8736246
-1.2332524	PART PRON ADV	-0.5700829
-1.0321785	SCONJ PRON ADV	-1.3855368
-1.0446465	NUM PRON ADV	-0.38226295
-1.0956252	SYM PRON ADV	-0.29535973
-1.1423546	X PRON ADV	-0.29137042
-1.2041042	INTJ PRON ADV	-0.28535292
-0.8135886	<s> PART ADV	-0.835628
-0.95580965	DET PART ADV	-0.4965396
-1.0502717	NOUN PART ADV	-1.4113287
-0.99714	AUX PART ADV	-1.6862407
-0.99017644	VERB PART ADV	-1.3281027
-1.0519556	ADP PART ADV	-0.41253704
-1.0608922	PROPN PART ADV	-1.2093436
-1.0188502	CCONJ PART ADV	-0.7730918
-0.944065	ADV PART ADV	-0.7576663
-0.95696837	ADJ PART ADV	-0.8877646
-0.92438245	PUNCT PART ADV	-0.9684906
-0.9464894	PRON PART ADV	-0.79923284
-0.9731302	PART PART ADV	-0.52200484
-0.9205048	SCONJ PART ADV	-0.58629245
-1.246573	NUM PART ADV	-0.29044324
-1.5156411	<s> SCONJ ADV	-0.8775995
-1.1690202	DET SCONJ ADV	-0.29137042
-1.2251933	NOUN SCONJ ADV	-0.9026566
-1.1982552	AUX SCONJ ADV	-0.3551715
-1.1697884	VERB SCONJ ADV	-1.1426302
-1.4718219	ADP SCONJ ADV	-0.42603162
-1.2805496	PROPN SCONJ ADV	-0.3507937
-1.1938998	CCONJ SCONJ ADV	-0.4124659
-1.1437062	ADV SCONJ ADV	-0.7525686
-1.1435363	ADJ SCONJ ADV	-0.81038296
-1.1402855	PUNCT SCONJ ADV	-0.84980744
-1.4739974	PRON SCONJ ADV	-0.38523573
-1.3128914	SCONJ SCONJ ADV	-0.33532107
-1.577888	NUM SCONJ ADV	-0.29137042
-2.0864284	<s> NUM ADV	-0.43267778
-1.213247	DET NUM ADV	-0.68394613
-1.3671739	NOUN NUM ADV	-0.38226295
-1.2958925	AUX NUM ADV	-0.37393424
-1.2214305	VERB NUM ADV	-0.3793474
-1.1850537	ADP NUM ADV	-0.77108634
-1.2212398	PROPN NUM ADV	-0.616906
-1.3583901	CCONJ NUM ADV	-0.40368724
-1.3056939	ADV NUM ADV	-0.29190868
-1.3415066	ADJ NUM ADV	-0.4044792
-1.349917	PUNCT NUM ADV	-0.4760235
-1.3832215	PART NUM ADV	-0.29402587
-1.2705834	SCONJ NUM ADV	-0.35762164
-1.3049105	NUM NUM ADV	-0.34856436
-1.5427328	SYM NUM ADV	-0.28770113
-0.8534631	INTJ NUM ADV	-0.29137042
-1.9177825	<s> SYM ADV	-0.29137042
-1.521525	NOUN SYM ADV	-0.29535973
-1.2863121	AUX SYM ADV	-0.29137042
-1.6087776	VERB SYM ADV	-0.29137042
-1.4553032	ADP SYM ADV	-0.29137042
-1.6085014	PROPN SYM ADV	-0.29137042
-1.5231647	PUNCT SYM ADV	-0.29137042
-1.3379956	PRON SYM ADV	-0.29137042
-1.0536847	SCONJ SYM ADV	-0.29137042
-2.482098	<s> X ADV	-0.29137042
-1.7674344	NOUN X ADV	-0.29137042
-1.0532956	AUX X ADV	-0.29137042
-1.324266	VERB X ADV	-0.28336546
-1.4843341	PROPN X ADV	-0.29402587
-1.3481398	ADJ X ADV	-0.29137042
-1.7373925	<s> INTJ ADV	-0.5087387
-0.88161975	DET INTJ ADV	-0.29137042
-1.0732208	NOUN INTJ ADV	-0.29137042
-0.95800793	AUX INTJ ADV	-0.29137042
-1.3859998	VERB INTJ ADV	-0.29137042
-0.9840561	ADP INTJ ADV	-0.29137042
-1.2891815	PROPN INTJ ADV	-0.29137042
-1.2307988	CCONJ INTJ ADV	-0.29137042
-1.1129827	PUNCT INTJ ADV	-0.29134297
-1.0770686	PRON INTJ ADV	-0.29137042
-0.9726719	SCONJ INTJ ADV	-0.29137042
-1.2330365	INTJ INTJ ADV	-0.29137042
-0.7271636	<s> DET ADJ	-2.2809896
-0.9532225	DET DET ADJ	-1.5739003
-1.0101652	NOUN DET ADJ	-1.5615182
-1.0191963	AUX DET ADJ	-2.4066844
-1.1078186	VERB DET ADJ	-2.6951525
-1.0753206	ADP DET ADJ	-2.9949558
-0.8962137	PROPN DET ADJ	-1.2330493
-0.993111	CCONJ DET ADJ	-2.0189862
-1.0224551	ADV DET ADJ	-1.9140503
-0.9174815	ADJ DET ADJ	-1.0572991
-1.0632	PUNCT DET ADJ	-2.329478
-0.9778276	PRON DET ADJ	-1.3367501
-0.9174815	PART DET ADJ	-1.4175627
-1.0655098	SCONJ DET ADJ	-2.1708462
-0.9114884	NUM DET ADJ	-0.7924859
-0.77771306	SYM DET ADJ	-0.7604867
-1.0682534	X DET ADJ	-0.5875797
-1.042667	INTJ DET ADJ	-0.29402587
-2.2491121	<s> NOUN ADJ	-0.62974405
-1.2134436	DET NOUN ADJ	-1.7143309
-1.279274	NOUN NOUN ADJ	-1.2559404
-1.1589154	AUX NOUN ADJ	-0.64574313
-1.234916	VERB NOUN ADJ	-1.2752453
-1.2194957	ADP NOUN ADJ	-1.3438457
-1.2758113	PROPN NOUN ADJ	-0.9247659
-1.269188	CCONJ NOUN ADJ	-0.90069604
-1.2426513	ADV NOUN ADJ	-0.33898562
-1.2199992	ADJ NOUN ADJ	-1.6379273
-1.2943671	PUNCT NOUN ADJ	-1.2460756
-1.3459594	PRON NOUN ADJ	-0.28734946
-1.3724464	PART NOUN ADJ	-0.6826238
-1.3203845	SCONJ NOUN ADJ	-0.58598465
-1.2168357	NUM NOUN ADJ	-1.3294125
-1.451995	SYM NOUN ADJ	-0.29364553
-1.588062	X NOUN ADJ	-0.29137042
-1.3688967	INTJ NOUN ADJ	-0.29137042
-1.369655	<s> AUX ADJ	-0.62844074
-1.0730817	DET AUX ADJ	-1.4956955
-1.1275175	NOUN AUX ADJ	-2.118002
-1.0292099	AUX AUX ADJ	-1.392537
-1.0860808	VERB AUX ADJ	-1.684206
-0.989116	ADP AUX ADJ	-0.8826183
-1.1020228	PROPN AUX ADJ	-1.6755475
-1.0395639	CCONJ AUX ADJ	-1.1102742
-1.123192	ADV AUX ADJ	-1.3133584
-1.1202384	ADJ AUX ADJ	-0.8318849
-1.1243972	PUNCT AUX ADJ	-1.2808619
-1.1207594	PRON AUX ADJ	-2.1820226
-1.0419003	PART AUX ADJ	-1.7220894
-0.905119	SCONJ AUX ADJ	-0.4882554
-1.0419954	NUM AUX ADJ	-0.5308549
-1.070402	X AUX ADJ	-0.29137042
-0.69136983	INTJ AUX ADJ	-0.29061168
-1.4229163	<s> VERB ADJ	-1.0860441
-1.1636347	DET VERB ADJ	-1.6572249
-1.2129098	NOUN VERB ADJ	-1.8857167
-1.1749711	AUX VERB ADJ	-1.9008218
-1.1844003	VERB VERB ADJ	-1.719256
-1.1091924	ADP VERB ADJ	-1.7047895
-1.1850979	PROPN VERB ADJ	-1.5811509
-1.2410685	CCONJ VERB ADJ	-1.6566554
-1.1935532	ADV VERB ADJ	-1.7556986
-1.137467	ADJ VERB ADJ	-0.9799963
-1.1513605	PUNCT VERB ADJ	-1.7073672
-1.1965489	PRON VERB ADJ	-1.7704628
-1.1767694	PART VERB ADJ	-2.0108037
-1.1377699	SCONJ VERB ADJ	-1.0441235
-1.080323	NUM VERB ADJ	-0.84962434
-1.2755452	SYM VERB ADJ	-0.40830418
-0.9392917	X VERB ADJ	-0.528391
-1.2570362	INTJ VERB ADJ	-0.38723752
-1.146434	<s> ADP ADJ	-1.5874277
-1.0084077	DET ADP ADJ	-0.9885046
-1.1623322	NOUN ADP ADJ	-2.731323
-1.0047293	AUX ADP ADJ	-1.3121158
-1.1809598	VERB ADP ADJ	-2.3184083
-0.9951233	ADP ADP ADJ	-1.3339756
-1.0850238	PROPN ADP ADJ	-1.6521034
-1.0541315	CCONJ ADP ADJ	-1.1540326
-1.08161	ADV ADP ADJ	-1.5213822
-1.1069605	ADJ ADP ADJ	-1.6306167
-1.0896398	PUNCT ADP ADJ	-1.6179972
-0.98524696	PRON ADP ADJ	-1.2774456
-1.0057435	PART ADP ADJ	-0.8134853
-0.9973474	SCONJ ADP ADJ	-1.1160579
-0.9744697	NUM ADP ADJ	-0.9612679
-1.0809499	SYM ADP ADJ	-0.29137042
-1.1587043	X ADP ADJ	-0.29402587
-1.1304822	INTJ ADP ADJ	-0.29269612
-2.5019932	<s> PROPN ADJ	-0.8961344
-1.3486245	DET PROPN ADJ	-1.2761754
-1.2739743	NOUN PROPN ADJ	-0.47271028
-1.2103161	AUX PROPN ADJ	-0.44544095
-1.2547965	VERB PROPN ADJ	-0.8431247
-1.3214357	ADP PROPN ADJ	-1.2561526
-1.2169788	PROPN PROPN ADJ	-1.2580749
-1.4716538	CCONJ PROPN ADJ	-0.6632312
-1.5740496	ADV PROPN ADJ	-0.28904873
-1.2774987	ADJ PROPN ADJ	-0.80246943
-1.2755754	PUNCT PROPN ADJ	-0.97464794
-1.5151072	PART PROPN ADJ	-0.61271185
-1.451052	SCONJ PROPN ADJ	-0.5875797
-1.278865	NUM PROPN ADJ	-0.72414625
-1.4551058	SYM PROPN ADJ	-0.42764091
-1.6304182	X PROPN ADJ	-0.29137042
-1.4588051	INTJ PROPN ADJ	-0.29137042
-1.5004535	<s> CCONJ ADJ	-0.9222988
-0.9365044	DET CCONJ ADJ	-0.57200414
-1.1598785	NOUN CCONJ ADJ	-2.1843553
-1.0140529	AUX CCONJ ADJ	-0.61549324
-1.1232135	VERB CCONJ ADJ	-1.0916994
-0.9751732	ADP CCONJ ADJ	-0.8966265
-1.1024263	PROPN CCONJ ADJ	-1.5179735
-1.1882025	CCONJ CCONJ ADJ	-0.29137042
-1.2039391	ADV CCONJ ADJ	-0.72437435
-1.0981655	ADJ CCONJ ADJ	-2.1604834
-1.2295545	PUNCT CCONJ ADJ	-1.6946446
-1.1516964	PRON CCONJ ADJ	-0.5052133
-1.1640644	PART CCONJ ADJ	-0.5011809
-1.0939223	SCONJ CCONJ ADJ	-0.2945589
-1.1420232	NUM CCONJ ADJ	-0.7544351
-1.2424847	X CCONJ ADJ	-0.29137042
-1.2073356	INTJ CCONJ ADJ	-0.29137042
-1.371127	<s> ADV ADJ	-1.281005
-1.0320843	DET ADV ADJ	-2.0095375
-1.261794	NOUN ADV ADJ	-1.41749
-1.0789555	AUX ADV ADJ	-2.2213657
-1.1921171	VERB ADV ADJ	-1.757952
-1.1215591	ADP ADV ADJ	-1.3955631
-1.1461796	PROPN ADV ADJ	-0.73154294
-1.1598717	CCONJ ADV ADJ	-1.4721942
-1.1629589	ADV ADV ADJ	-1.5920484
-1.1117594	ADJ ADV ADJ	-0.91096276
-1.1520021	PUNCT ADV ADJ	-1.4981514
-1.0702564	PRON ADV ADJ	-1.1208667
-1.0338604	PART ADV ADJ	-1.4173796
-1.0349293	SCONJ ADV ADJ	-0.81031394
-1.0073254	NUM ADV ADJ	-0.826569
-1.0565509	<s> ADJ ADJ	-1.6603813
-1.114452	DET ADJ ADJ	-2.4004574
-1.1138495	NOUN ADJ ADJ	-1.1177309
-1.1472448	AUX ADJ ADJ	-1.3086531
-1.1015209	VERB ADJ ADJ	-1.7999905
-1.0972532	ADP ADJ ADJ	-2.1498532
-0.95876634	PROPN ADJ ADJ	-1.0589638
-0.9695673	CCONJ ADJ ADJ	-1.7550807
-1.1471703	ADV ADJ ADJ	-1.5695112
-0.97701836	ADJ ADJ ADJ	-2.0653887
-1.065931	PUNCT ADJ ADJ	-1.7952051
-1.1661527	PRON ADJ ADJ	-0.6743996
-1.0749366	PART ADJ ADJ	-1.515573
-1.039157	SCONJ ADJ ADJ	-1.3875349
-0.8949319	NUM ADJ ADJ	-1.4280463
-1.0112344	SYM ADJ ADJ	-0.68130547
-1.2371554	X ADJ ADJ	-0.29137042
-1.3732468	<s> PUNCT ADJ	-1.0958141
-1.1813775	DET PUNCT ADJ	-1.7259669
-1.2885424	NOUN PUNCT ADJ	-2.2409098
-1.1317679	AUX PUNCT ADJ	-1.146671
-1.2446051	VERB PUNCT ADJ	-1.4342866
-1.0941623	ADP PUNCT ADJ	-1.4260854
-1.2693307	PROPN PUNCT ADJ	-2.3433998
-1.2772962	CCONJ PUNCT ADJ	-1.1164148
-1.208194	ADV PUNCT ADJ	-1.5807072
-1.1801376	ADJ PUNCT ADJ	-1.9984891
-1.260812	PUNCT PUNCT ADJ	-1.2417146
-1.2999644	PRON PUNCT ADJ	-0.72174746
-1.1968261	PART PUNCT ADJ	-0.91351134
-1.0101277	SCONJ PUNCT ADJ	-1.1537032
-1.2238814	NUM PUNCT ADJ	-1.3103777
-1.3686924	X PUNCT ADJ	-0.7328683
-1.279932	INTJ PUNCT ADJ	-0.613174
-2.67767	<s> PRON ADJ	-0.5734849
-1.352329	DET PRON ADJ	-0.29137042
-1.360835	NOUN PRON ADJ	-0.2906748
-1.1180261	AUX PRON ADJ	-1.2594023
-1.1752578	VERB PRON ADJ	-1.4304667
-1.1989386	ADP PRON ADJ	-0.8780931
-1.5671104	PROPN PRON ADJ	-0.29535973
-1.140659	CCONJ PRON ADJ	-0.5259558
-1.2494469	ADV PRON ADJ	-0.3913389
-1.4540977	ADJ PRON ADJ	-0.29402587
-1.1464486	PUNCT PRON ADJ	-0.58693564
-1.5698134	PRON PRON ADJ	-0.2881235
-1.2493968	PART PRON ADJ	-0.47106263
-1.2288243	SCONJ PRON ADJ	-0.37571242
-1.473647	NUM PRON ADJ	-0.29137042
-1.4624642	INTJ PRON ADJ	-0.29137042
-1.5462649	<s> PART ADJ	-0.31108144
-0.95580965	DET PART ADJ	-0.29402587
-1.0822834	NOUN PART ADJ	-1.7547178
-1.0584106	AUX PART ADJ	-1.6677327
-1.2907908	VERB PART ADJ	-0.63686633
-1.0519556	ADP PART ADJ	-0.33113658
-1.0332394	PROPN PART ADJ	-2.0425916
-1.1151775	CCONJ PART ADJ	-0.78164786
-1.1211883	ADV PART ADJ	-0.7198485
-0.95696837	ADJ PART ADJ	-0.63280493
-1.0148822	PUNCT PART ADJ	-0.64989644
-1.08192	PRON PART ADJ	-0.55370414
-0.9738841	SCONJ PART ADJ	-0.588371
-1.4655659	NUM PART ADJ	-0.28535292
-0.9036113	X PART ADJ	-0.29137042
-1.1400532	<s> SCONJ ADJ	-1.3495046
-1.3046498	DET SCONJ ADJ	-0.528391
-1.1485002	NOUN SCONJ ADJ	-1.4605262
-1.1408328	AUX SCONJ ADJ	-0.8291921
-1.1086278	VERB SCONJ ADJ	-1.5957263
-1.1376815	ADP SCONJ ADJ	-0.6912906
-1.2148386	PROPN SCONJ ADJ	-0.7631274
-1.0581278	CCONJ SCONJ ADJ	-0.80301446
-1.0344982	ADV SCONJ ADJ	-1.2325113
-1.0779873	ADJ SCONJ ADJ	-1.2498729
-1.0792075	PUNCT SCONJ ADJ	-1.3576288
-1.1415093	PRON SCONJ ADJ	-0.803905
-1.1188663	PART SCONJ ADJ	-0.28654975
-1.0858101	SCONJ SCONJ ADJ	-0.84836847
-1.1281726	NUM SCONJ ADJ	-0.6513422
-1.0011101	<s> NUM ADJ	-1.3393123
-1.0001742	DET NUM ADJ	-1.4952598
-1.2408673	NOUN NUM ADJ	-0.74498063
