\data\
ngram 1=21
ngram 2=323
ngram 3=4287
ngram 4=34342

\1-grams:
-2.3709	<unk>	0
0	<s>	-3.6742089
-1.2819587	</s>	0
-1.2333156	PROPN	-1.0585947
-1.2569565	ADP	-1.0188854
-1.2569565	DET	-0.98360956
-1.2569565	NOUN	-1.04211
-1.2569565	AUX	-0.98025596
-1.2569565	VERB	-1.0529361
-1.2569565	CCONJ	-0.9869375
-1.2569565	ADV	-1.0355039
-1.2569565	ADJ	-1.0157943
-1.2569565	PUNCT	-1.0627909
-1.2569565	PRON	-0.9768762
-1.2569565	PART	-0.9051337
-1.2819587	SCONJ	-0.9303641
-1.2569565	SYM	-0.78468215
-1.2569565	NUM	-0.9869375
-1.2569565	X	-0.8041647
-1.2819587	INTJ	-0.75896794
-2.2362013	SPACE	-0.30103

\2-grams:
-1.2368482	PROPN </s>	0
-1.4124004	ADP </s>	0
-1.5754573	DET </s>	0
-1.2526132	NOUN </s>	0
-1.4617126	AUX </s>	0
-1.2561407	VERB </s>	0
-1.5787853	CCONJ </s>	0
-1.2933724	ADV </s>	0
-1.2736628	ADJ </s>	0
-1.2410444	PUNCT </s>	0
-1.4121399	PRON </s>	0
-1.5586715	PART </s>	0
-1.769484	SCONJ </s>	0
-1.9097838	SYM </s>	0
-1.2749553	NUM </s>	0
-1.1245819	X </s>	0
-1.4991968	INTJ </s>	0
-0.7661449	<s> PROPN	-2.842779
-1.2328132	PROPN PROPN	-0.9722193
-1.1931038	ADP PROPN	-0.942464
-1.1825417	DET PROPN	-0.8827244
-1.223596	NOUN PROPN	-0.867039
-1.2053934	AUX PROPN	-0.7627712
-1.2271546	VERB PROPN	-0.9264759
-1.161156	CCONJ PROPN	-0.6923927
-1.2606413	ADV PROPN	-0.7627712
-1.1900128	ADJ PROPN	-0.8546298
-1.2370093	PUNCT PROPN	-0.9173406
-1.2020137	PRON PROPN	-0.61979485
-1.2128167	PART PROPN	-0.5110965
-1.1833903	SCONJ PROPN	-0.7842158
-0.9288436	SYM PROPN	-0.7613759
-1.1858697	NUM PROPN	-0.8026251
-1.0030968	X PROPN	-0.51290303
-1.0737975	INTJ PROPN	-0.4926445
-0.2763652	SPACE PROPN	-0.35917646
-1.0405064	<s> ADP	-2.6053874
-1.2348261	PROPN ADP	-0.8407309
-1.274326	ADP ADP	-0.75682116
-1.2110109	DET ADP	-0.72168696
-1.2256429	NOUN ADP	-0.9364144
-1.1813191	AUX ADP	-0.77121747
-1.2291675	VERB ADP	-0.9497784
-1.2143389	CCONJ ADP	-0.7323333
-1.236567	ADV ADP	-0.83462733
-1.1920257	ADJ ADP	-0.8599779
-1.2390221	PUNCT ADP	-0.85589486
-1.1779393	PRON ADP	-0.72344655
-1.1532587	PART ADP	-0.63099366
-1.1577654	SCONJ ADP	-0.8197089
-1.1867132	SYM ADP	-0.33746037
-1.2143389	NUM ADP	-0.8247136
-1.2815661	X ADP	-0.4388489
-1.1491683	INTJ ADP	-0.5104454
-0.7031167	<s> DET	-2.9773664
-1.2348261	PROPN DET	-0.7753985
-1.1951166	ADP DET	-0.8810821
-1.2110109	DET DET	-0.769533
-1.2767296	NOUN DET	-0.8423233
-1.1564872	AUX DET	-0.81727266
-1.2291675	VERB DET	-0.9079925
-1.1880007	CCONJ DET	-0.75698054
-1.2117352	ADV DET	-0.80332816
-1.30121	ADJ DET	-0.67617434
-1.2390221	PUNCT DET	-0.86895514
-1.262292	PRON DET	-0.7041414
-1.1532587	PART DET	-0.675813
-1.1577654	SCONJ DET	-0.8176889
-1.4533936	SYM DET	-0.3646099
-1.2723534	NUM DET	-0.61157334
-1.2357806	X DET	-0.4030078
-1.3455939	INTJ DET	-0.33293724
-1.1068406	<s> NOUN	-2.5269105
-1.2596579	PROPN NOUN	-0.9278482
-1.1951166	ADP NOUN	-0.9476652
-1.159841	DET NOUN	-0.9481302
-1.2256429	NOUN NOUN	-0.9611438
-1.2356966	AUX NOUN	-0.82236505
-1.2291675	VERB NOUN	-0.9397942
-1.2143389	CCONJ NOUN	-0.74683183
-1.236567	ADV NOUN	-0.8091035
-1.1920257	ADJ NOUN	-0.9611438
-1.2390221	PUNCT NOUN	-0.90698993
-1.2323169	PRON NOUN	-0.6205116
-1.1251692	PART NOUN	-0.6769407
-1.1858047	SCONJ NOUN	-0.7876968
-0.9307216	SYM NOUN	-0.6449497
-1.1631689	NUM NOUN	-0.94005996
-1.1565573	X NOUN	-0.5851263
-1.1905838	INTJ NOUN	-0.39923862
-2.0546608	<s> AUX	-1.690934
-1.2348261	PROPN AUX	-0.9088645
-1.274326	ADP AUX	-0.5992877
-1.1846727	DET AUX	-0.8401482
-1.2256429	NOUN AUX	-0.91175264
-1.1813191	AUX AUX	-0.7283539
-1.2539992	VERB AUX	-0.84632254
-1.2723534	CCONJ AUX	-0.7420141
-1.2117352	ADV AUX	-0.8598713
-1.2168574	ADJ AUX	-0.7779906
-1.263854	PUNCT AUX	-0.88922757
-1.1531075	PRON AUX	-0.9245572
-1.1251692	PART AUX	-0.80651075
-1.1858047	SCONJ AUX	-0.6023269
-1.5568547	SYM AUX	-0.34336877
-1.2423781	NUM AUX	-0.74452883
-1.3907907	X AUX	-0.30646297
-1.2363694	INTJ AUX	-0.40486452
-1.3556619	<s> VERB	-2.2972708
-1.2113376	PROPN VERB	-0.944815
-1.1951166	ADP VERB	-0.8726373
-1.1846727	DET VERB	-0.893661
-1.2256429	NOUN VERB	-0.9481302
-1.1813191	AUX VERB	-0.9065724
-1.2291675	VERB VERB	-0.89276785
-1.1880007	CCONJ VERB	-0.831822
-1.236567	ADV VERB	-0.89553034
-1.2431957	ADJ VERB	-0.873997
-1.263854	PUNCT VERB	-0.9155643
-1.1531075	PRON VERB	-0.9530561
-1.0739155	PART VERB	-0.91378075
-1.1577654	SCONJ VERB	-0.80917656
-1.0970117	SYM VERB	-0.37507278
-1.2143389	NUM VERB	-0.82136554
-1.1217791	X VERB	-0.42275444
-0.9863693	INTJ VERB	-0.5419612
-1.4663887	<s> CCONJ	-2.1784775
-1.2348261	PROPN CCONJ	-0.8852875
-1.2199485	ADP CCONJ	-0.6472546
-1.2690254	DET CCONJ	-0.51345104
-1.2256429	NOUN CCONJ	-0.8992423
-1.2656717	AUX CCONJ	-0.5456918
-1.2291675	VERB CCONJ	-0.8110825
-1.464339	CCONJ CCONJ	-0.36106503
-1.2629052	ADV CCONJ	-0.7319062
-1.2168574	ADJ CCONJ	-0.8332382
-1.2390221	PUNCT CCONJ	-0.8917864
-1.2323169	PRON CCONJ	-0.62546533
-1.4271107	PART CCONJ	-0.37870023
-1.3205644	SCONJ CCONJ	-0.46671024
-1.6929365	SYM CCONJ	-0.35917646
-1.2143389	NUM CCONJ	-0.7447594
-1.3907907	X CCONJ	-0.297577
-1.287557	INTJ CCONJ	-0.31082556
-1.0863038	<s> ADV	-2.5585568
-1.2596579	PROPN ADV	-0.8332382
-1.1951166	ADP ADV	-0.82904285
-1.1846727	DET ADV	-0.78549683
-1.2256429	NOUN ADV	-0.88501245
-1.1813191	AUX ADV	-0.85605437
-1.2291675	VERB ADV	-0.92686903
-1.2143389	CCONJ ADV	-0.780608
-1.2117352	ADV ADV	-0.8726005
-1.2712349	ADJ ADV	-0.7963605
-1.2390221	PUNCT ADV	-0.91917664
-1.1531075	PRON ADV	-0.7284881
-1.1532587	PART ADV	-0.77217096
-1.2157799	SCONJ ADV	-0.74999744
-1.1867132	SYM ADV	-0.34336877
-1.2143389	NUM ADV	-0.6594755
-1.3907907	X ADV	-0.3533614
-1.1491683	INTJ ADV	-0.3335442
-1.3277861	<s> ADJ	-2.3170776
-1.2596579	PROPN ADJ	-0.69306225
-1.1951166	ADP ADJ	-0.8869903
-1.159841	DET ADJ	-0.8731443
-1.2767296	NOUN ADJ	-0.81452775
-1.1813191	AUX ADJ	-0.84746426
-1.2291675	VERB ADJ	-0.8649953
-1.2143389	CCONJ ADJ	-0.72683716
-1.2629052	ADV ADJ	-0.8964587
-1.2168574	ADJ ADJ	-0.7860634
-1.263854	PUNCT ADJ	-0.8482569
-1.2042776	PRON ADJ	-0.65446204
-1.1532587	PART ADJ	-0.7354661
-1.1858047	SCONJ ADJ	-0.71049446
-1.0227033	SYM ADJ	-0.4667603
-1.2143389	NUM ADJ	-0.75068957
-1.194365	X ADJ	-0.4469492
-1.287557	INTJ ADJ	-0.3926487
-1.4371078	<s> PUNCT	-2.1718245
-1.2348261	PROPN PUNCT	-0.9994662
-1.2199485	ADP PUNCT	-0.8137318
-1.2110109	DET PUNCT	-0.82702756
-1.2256429	NOUN PUNCT	-0.9979965
-1.2356966	AUX PUNCT	-0.8124738
-1.2291675	VERB PUNCT	-0.9530561
-1.1880007	CCONJ PUNCT	-0.60153425
-1.2117352	ADV PUNCT	-0.929575
-1.1920257	ADJ PUNCT	-0.9364144
-1.2390221	PUNCT PUNCT	-0.95630926
-1.1779393	PRON PUNCT	-0.82702756
-1.1532587	PART PUNCT	-0.726809
-1.1858047	SCONJ PUNCT	-0.7309561
-1.0970117	SYM PUNCT	-0.4198788
-1.1880007	NUM PUNCT	-0.89553034
-1.031566	X PUNCT	-0.66171336
-0.9600311	INTJ PUNCT	-0.63240546
-0.85980695	<s> PRON	-2.82536
-1.2348261	PROPN PRON	-0.6688881
-1.2199485	ADP PRON	-0.86895514
-1.2110109	DET PRON	-0.6300127
-1.2256429	NOUN PRON	-0.74796873
-1.1813191	AUX PRON	-0.80853564
-1.2291675	VERB PRON	-0.93008
-1.1880007	CCONJ PRON	-0.70605165
-1.2117352	ADV PRON	-0.7505437
-1.2712349	ADJ PRON	-0.6112235
-1.2390221	PUNCT PRON	-0.83087146
-1.2042776	PRON PRON	-0.5836737
-1.215556	PART PRON	-0.47649434
-1.1314272	SCONJ PRON	-0.7700296
-1.3698992	SYM PRON	-0.39791745
-1.2423781	NUM PRON	-0.54426306
-1.2815661	X PRON	-0.3846593
-1.0765823	INTJ PRON	-0.5707303
-2.242586	<s> PART	-1.5484515
-1.2596579	PROPN PART	-0.811681
-1.274326	ADP PART	-0.48377562
-1.3360022	DET PART	-0.5173992
-1.2504355	NOUN PART	-0.7845267
-1.1813191	AUX PART	-0.75955784
-1.2539992	VERB PART	-0.7844922
-1.2423781	CCONJ PART	-0.65853995
-1.236567	ADV PART	-0.6731519
-1.2168574	ADJ PART	-0.6851599
-1.2390221	PUNCT PART	-0.7693803
-1.262292	PRON PART	-0.63049537
-1.215556	PART PART	-0.6954305
-1.2157799	SCONJ PART	-0.61189026
-1.89221	SYM PART	-0.35917646
-1.2423781	NUM PART	-0.53582597
-1.5370629	X PART	-0.34115678
-1.7140516	INTJ PART	-0.34336877
-1.4320153	<s> SCONJ	-2.2455935
-1.2617993	PROPN SCONJ	-0.76479006
-1.2767539	ADP SCONJ	-0.5733446
-1.3771245	DET SCONJ	-0.48470008
-1.2790436	NOUN SCONJ	-0.8196523
-1.2381245	AUX SCONJ	-0.7307406
-1.2561407	VERB SCONJ	-0.8758616
-1.244806	CCONJ SCONJ	-0.6428903
-1.2387085	ADV SCONJ	-0.77870935
-1.2189989	ADJ SCONJ	-0.8226894
-1.2659955	PUNCT SCONJ	-0.85881037
-1.264894	PRON SCONJ	-0.569203
-1.2915719	PART SCONJ	-0.4736343
-1.2183819	SCONJ SCONJ	-0.7048195
-1.244806	NUM SCONJ	-0.52021337
-1.5443935	X SCONJ	-0.3562311
-1.5980879	INTJ SCONJ	-0.38550696
-2.9772491	<s> SYM	-1.0139647
-1.2859961	PROPN SYM	-0.6968162
-1.3043011	ADP SYM	-0.60246664
-1.2690254	DET SYM	-0.6769229
-1.3047187	NOUN SYM	-0.64822936
-1.3704563	AUX SYM	-0.4669079
-1.3083767	VERB SYM	-0.67459685
-1.2423781	CCONJ SYM	-0.6056105
-1.3878965	ADV SYM	-0.6157296
-1.2712349	ADJ SYM	-0.62854505
-1.3482066	PUNCT SYM	-0.6138618
-1.2944906	PRON SYM	-0.5273268
-1.4853634	PART SYM	-0.42329472
-1.5169901	SCONJ SYM	-0.40679243
-1.4533936	SYM SYM	-0.3356756
-1.2143389	NUM SYM	-0.6171842
-1.7592484	X SYM	-0.3382249
-1.7140516	INTJ SYM	-0.35917643
-1.837237	<s> NUM	-1.8157103
-1.2596579	PROPN NUM	-0.83127946
-1.1951166	ADP NUM	-0.8726373
-1.2110109	DET NUM	-0.72271216
-1.2767296	NOUN NUM	-0.73795456
-1.2356966	AUX NUM	-0.6910745
-1.2803375	VERB NUM	-0.78966016
-1.2723534	CCONJ NUM	-0.5806054
-1.2117352	ADV NUM	-0.74743044
-1.2168574	ADJ NUM	-0.66108495
-1.263854	PUNCT NUM	-0.77522665
-1.4542776	PRON NUM	-0.33167443
-1.2504115	PART NUM	-0.52532214
-1.2157799	SCONJ NUM	-0.6374283
-0.90393364	SYM NUM	-0.7035361
-1.2423781	NUM NUM	-0.7663465
-1.4577975	X NUM	-0.47375438
-1.5889025	INTJ NUM	-0.2832016
-2.278036	<s> X	-1.5305551
-1.2596579	PROPN X	-0.5938471
-1.3364997	ADP X	-0.48713407
-1.3360022	DET X	-0.58086586
-1.2504355	NOUN X	-0.58044136
-1.6338888	AUX X	-0.34509704
-1.3705505	VERB X	-0.43749207
-1.304552	CCONJ X	-0.44674215
-1.3531182	ADV X	-0.40329644
-1.4059945	ADJ X	-0.3974713
-1.2901922	PUNCT X	-0.55363274
-1.6305091	PRON X	-0.3402751
-1.9362941	PART X	-0.35917646
-1.5169901	SCONJ X	-0.38877064
-1.2998977	SYM X	-0.44349834
-1.5735636	NUM X	-0.29101598
-1.0052278	X X	-0.5806856
-1.5889025	INTJ X	-0.30593506
-2.1565566	<s> INTJ	-1.5491557
-1.4521097	PROPN INTJ	-0.3646099
-1.6107332	ADP INTJ	-0.3273316
-1.6433415	DET INTJ	-0.32717484
-1.4841993	NOUN INTJ	-0.4323446
-1.7204849	AUX INTJ	-0.32969996
-1.3733532	VERB INTJ	-0.49139795
-1.4222012	CCONJ INTJ	-0.42541298
-1.3909338	ADV INTJ	-0.38302964
-1.7560232	ADJ INTJ	-0.37402645
-1.2659955	PUNCT INTJ	-0.68297017
-1.4121399	PRON INTJ	-0.38328016
-1.8683119	PART INTJ	-0.35917646
-1.6705929	SCONJ INTJ	-0.3706823
-1.8260574	NUM INTJ	-0.33415318
-1.5443935	X INTJ	-0.31415027
-1.2404246	INTJ INTJ	-0.3596882
-2.6621382	NOUN SPACE	-0.35917646

\3-grams:
-2.193796	<s> PROPN </s>	0
-1.2117769	PROPN PROPN </s>	0
-1.2200714	ADP PROPN </s>	0
-1.3364047	DET PROPN </s>	0
-1.2134227	NOUN PROPN </s>	0
-1.721874	AUX PROPN </s>	0
-1.3801563	VERB PROPN </s>	0
-1.6688234	CCONJ PROPN </s>	0
-1.768742	ADV PROPN </s>	0
-1.4112345	ADJ PROPN </s>	0
-1.3860784	PUNCT PROPN </s>	0
-1.5901703	PRON PROPN </s>	0
-1.5069194	PART PROPN </s>	0
-1.5268261	SCONJ PROPN </s>	0
-1.0756471	SYM PROPN </s>	0
-1.5397362	NUM PROPN </s>	0
-1.4878275	X PROPN </s>	0
-1.3453016	INTJ PROPN </s>	0
-3.831878	<s> ADP </s>	0
-1.7562209	PROPN ADP </s>	0
-1.9340938	DET ADP </s>	0
-1.533169	NOUN ADP </s>	0
-1.9880778	AUX ADP </s>	0
-1.4921764	VERB ADP </s>	0
-1.9303222	CCONJ ADP </s>	0
-2.0586548	ADV ADP </s>	0
-1.919864	PUNCT ADP </s>	0
-1.9134043	PRON ADP </s>	0
-2.0168087	NUM ADP </s>	0
-4.2874794	<s> DET </s>	0
-2.0155838	ADP DET </s>	0
-1.9398588	AUX DET </s>	0
-1.57575	VERB DET </s>	0
-2.197997	PUNCT DET </s>	0
-1.984306	PRON DET </s>	0
-2.1401832	SCONJ DET </s>	0
-2.2341971	<s> NOUN </s>	0
-1.2232897	PROPN NOUN </s>	0
-1.1988434	ADP NOUN </s>	0
-1.2735142	DET NOUN </s>	0
-1.2285749	NOUN NOUN </s>	0
-1.5594463	AUX NOUN </s>	0
-1.2072253	VERB NOUN </s>	0
-1.5864482	CCONJ NOUN </s>	0
-1.8242692	ADV NOUN </s>	0
-1.202262	ADJ NOUN </s>	0
-1.41471	PUNCT NOUN </s>	0
-1.6178988	PRON NOUN </s>	0
-1.334298	PART NOUN </s>	0
-1.6279638	SCONJ NOUN </s>	0
-1.106146	SYM NOUN </s>	0
-1.2884406	NUM NOUN </s>	0
-1.5995315	X NOUN </s>	0
-2.1656215	PROPN AUX </s>	0
-1.7431469	DET AUX </s>	0
-1.7284656	NOUN AUX </s>	0
-1.9645182	AUX AUX </s>	0
-1.959406	VERB AUX </s>	0
-1.9653676	CCONJ AUX </s>	0
-2.1135445	ADV AUX </s>	0
-1.8474076	PRON AUX </s>	0
-1.8697524	PART AUX </s>	0
-3.2720232	<s> VERB </s>	0
-1.5137291	PROPN VERB </s>	0
-1.8507303	ADP VERB </s>	0
-1.8754902	DET VERB </s>	0
-1.3786929	NOUN VERB </s>	0
-1.3785408	AUX VERB </s>	0
-1.5116541	VERB VERB </s>	0
-1.4448446	CCONJ VERB </s>	0
-1.5224619	ADV VERB </s>	0
-1.9765797	ADJ VERB </s>	0
-1.9107448	PUNCT VERB </s>	0
-1.4250245	PRON VERB </s>	0
-1.3443434	PART VERB </s>	0
-1.9140874	SCONJ VERB </s>	0
-1.2424885	SYM VERB </s>	0
-1.8228931	NUM VERB </s>	0
-1.3707098	X VERB </s>	0
-2.9090915	<s> CCONJ </s>	0
-2.2127426	PROPN CCONJ </s>	0
-1.8747979	NOUN CCONJ </s>	0
-2.1467307	VERB CCONJ </s>	0
-2.0543025	ADV CCONJ </s>	0
-2.1592493	ADJ CCONJ </s>	0
-1.8673421	PUNCT CCONJ </s>	0
-3.4213512	<s> ADV </s>	0
-1.693315	PROPN ADV </s>	0
-1.8302711	ADP ADV </s>	0
-1.9138849	DET ADV </s>	0
-1.3539878	NOUN ADV </s>	0
-1.5381136	AUX ADV </s>	0
-1.3307781	VERB ADV </s>	0
-1.8256599	CCONJ ADV </s>	0
-1.5628943	ADV ADV </s>	0
-1.780078	ADJ ADV </s>	0
-1.9257258	PUNCT ADV </s>	0
-1.7632182	PRON ADV </s>	0
-1.8808566	SCONJ ADV </s>	0
-1.7837042	NUM ADV </s>	0
-1.3792447	INTJ ADV </s>	0
-2.8081708	<s> ADJ </s>	0
-1.7020189	PROPN ADJ </s>	0
-1.5534319	DET ADJ </s>	0
-1.4175018	NOUN ADJ </s>	0
-1.5277518	AUX ADJ </s>	0
-1.4290338	VERB ADJ </s>	0
-1.5598441	CCONJ ADJ </s>	0
-1.3808043	ADV ADJ </s>	0
-1.8080789	ADJ ADJ </s>	0
-1.6125346	PUNCT ADJ </s>	0
-1.6096126	PRON ADJ </s>	0
-1.7444227	PART ADJ </s>	0
-1.6788988	SCONJ ADJ </s>	0
-1.5049512	SYM ADJ </s>	0
-1.7305659	NUM ADJ </s>	0
-1.7682714	<s> PUNCT </s>	0
-1.2146982	PROPN PUNCT </s>	0
-1.1377316	ADP PUNCT </s>	0
-1.0932473	DET PUNCT </s>	0
-1.2132285	NOUN PUNCT </s>	0
-1.1780921	AUX PUNCT </s>	0
-1.1682881	VERB PUNCT </s>	0
-1.1387159	CCONJ PUNCT </s>	0
-1.1957947	ADV PUNCT </s>	0
-1.1516465	ADJ PUNCT </s>	0
-1.1715413	PUNCT PUNCT </s>	0
-1.0932473	PRON PUNCT </s>	0
-1.0692846	PART PUNCT </s>	0
-1.1853249	SCONJ PUNCT </s>	0
-0.6271387	SYM PUNCT </s>	0
-1.1617501	NUM PUNCT </s>	0
-0.9857132	X PUNCT </s>	0
-0.94364166	INTJ PUNCT </s>	0
-4.037603	<s> PRON </s>	0
-1.3860974	ADP PRON </s>	0
-1.8981111	AUX PRON </s>	0
-1.4567508	VERB PRON </s>	0
-1.7797766	CCONJ PRON </s>	0
-1.9627862	ADV PRON </s>	0
-1.9389428	PUNCT PRON </s>	0
-1.6546863	PART PRON </s>	0
-1.8635579	SCONJ PRON </s>	0
-1.425187	NUM PRON </s>	0
-1.9111056	PROPN PART </s>	0
-2.0828338	NOUN PART </s>	0
-2.0638158	AUX PART </s>	0
-2.0719955	VERB PART </s>	0
-1.9460433	CCONJ PART </s>	0
-2.046073	PUNCT PART </s>	0
-3.651863	<s> SCONJ </s>	0
-1.9365014	ADP SCONJ </s>	0
-2.2479413	NOUN SCONJ </s>	0
-2.0522995	VERB SCONJ </s>	0
-1.7943383	NUM SYM </s>	0
-2.8002036	<s> NUM </s>	0
-1.2336638	PROPN NUM </s>	0
-1.6263769	ADP NUM </s>	0
-1.8411696	DET NUM </s>	0
-1.2485341	NOUN NUM </s>	0
-1.8027422	AUX NUM </s>	0
-1.5384713	VERB NUM </s>	0
-1.8682053	ADV NUM </s>	0
-1.6783739	ADJ NUM </s>	0
-1.6216124	PUNCT NUM </s>	0
-1.5927831	PART NUM </s>	0
-1.7558857	SCONJ NUM </s>	0
-1.4328148	SYM NUM </s>	0
-1.4670014	NUM NUM </s>	0
-2.0424716	<s> X </s>	0
-1.160042	PROPN X </s>	0
-1.0077161	ADP X </s>	0
-1.0312406	NOUN X </s>	0
-0.85685986	VERB X </s>	0
-1.189048	CCONJ X </s>	0
-1.0360384	ADV X </s>	0
-1.2634412	ADJ X </s>	0
-1.087169	PUNCT X </s>	0
-1.0430942	PRON X </s>	0
-0.5741844	SYM X </s>	0
-0.7240007	NUM X </s>	0
-1.3921627	X X </s>	0
-2.6661308	<s> INTJ </s>	0
-1.4713632	PROPN INTJ </s>	0
-1.3162773	NOUN INTJ </s>	0
-1.4787312	ADV INTJ </s>	0
-1.443806	PUNCT INTJ </s>	0
-0.42133737	<s> PROPN PROPN	-2.4457254
-1.186669	PROPN PROPN PROPN	-2.9744616
-1.1405253	ADP PROPN PROPN	-2.6937394
-1.1055858	DET PROPN PROPN	-2.6575162
-1.071998	NOUN PROPN PROPN	-2.19743
-1.0064043	AUX PROPN PROPN	-1.3100837
-1.1245372	VERB PROPN PROPN	-1.9894111
-0.9994839	CCONJ PROPN PROPN	-1.9968678
-0.9781548	ADV PROPN PROPN	-1.2876779
-1.1385485	ADJ PROPN PROPN	-1.9427571
-1.1317903	PUNCT PROPN PROPN	-2.5502863
-0.82015455	PRON PROPN PROPN	-0.85740423
-1.0112044	PART PROPN PROPN	-1.7141211
-1.0454756	SCONJ PROPN PROPN	-1.6997672
-1.0452946	SYM PROPN PROPN	-0.98115206
-1.0284971	NUM PROPN PROPN	-1.4561931
-0.75535923	X PROPN PROPN	-1.0683964
-0.6932427	INTJ PROPN PROPN	-0.7226065
-0.7196641	<s> ADP PROPN	-1.9339731
-1.0349708	PROPN ADP PROPN	-2.5784576
-0.996796	ADP ADP PROPN	-1.3731695
-1.0050852	DET ADP PROPN	-1.0269524
-1.1468964	NOUN ADP PROPN	-2.99023
-1.0030936	AUX ADP PROPN	-1.3448516
-1.1602603	VERB ADP PROPN	-2.5363758
-1.0559219	CCONJ ADP PROPN	-1.0892591
-1.0564262	ADV ADP PROPN	-1.7447517
-1.0817769	ADJ ADP PROPN	-1.6603855
-1.0747112	PUNCT ADP PROPN	-1.8278922
-0.92248476	PRON ADP PROPN	-1.1497754
-0.9566617	PART ADP PROPN	-0.67311805
-0.9554975	SCONJ ADP PROPN	-1.1416271
-1.2285063	SYM ADP PROPN	-0.2893156
-0.9981002	NUM ADP PROPN	-1.4115211
-0.6951042	X ADP PROPN	-0.3156502
-0.84165215	INTJ ADP PROPN	-0.51525563
-0.9633286	<s> DET PROPN	-2.0365002
-0.9156787	PROPN DET PROPN	-1.0477313
-1.1314696	ADP DET PROPN	-2.7525954
-1.0533911	DET DET PROPN	-1.0386283
-1.0899023	NOUN DET PROPN	-1.3639807
-1.0512456	AUX DET PROPN	-1.4229711
-1.1011617	VERB DET PROPN	-2.094301
-1.0250106	CCONJ DET PROPN	-1.7071291
-1.0070525	ADV DET PROPN	-1.3691586
-1.0114073	ADJ DET PROPN	-0.3717746
-1.0768745	PUNCT DET PROPN	-2.1050692
-1.0087147	PRON DET PROPN	-0.9124563
-0.8897623	PART DET PROPN	-0.70119715
-1.0661736	SCONJ DET PROPN	-1.8247092
-1.0582621	NUM DET PROPN	-0.4267995
-0.9812171	X DET PROPN	-0.29207346
-0.95807415	INTJ DET PROPN	-0.2967091
-1.5794151	<s> NOUN PROPN	-1.1795336
-1.1660539	PROPN NOUN PROPN	-1.713677
-1.1958628	ADP NOUN PROPN	-1.3405992
-1.2402725	DET NOUN PROPN	-1.6991746
-1.2254809	NOUN NOUN PROPN	-1.7354774
-1.402443	AUX NOUN PROPN	-0.4460389
-1.2041314	VERB NOUN PROPN	-1.0515751
-1.2705605	CCONJ NOUN PROPN	-1.2820789
-1.1493361	ADV NOUN PROPN	-0.6063595
-1.1993494	ADJ NOUN PROPN	-1.901249
-1.2507994	PUNCT NOUN PROPN	-1.4122576
-1.3170214	PRON NOUN PROPN	-0.44544038
-1.4068353	PART NOUN PROPN	-0.9344763
-1.2607678	SCONJ NOUN PROPN	-0.6839073
-1.2806214	SYM NOUN PROPN	-0.46409866
-1.1950516	NUM NOUN PROPN	-0.9078656
-0.81169116	X NOUN PROPN	-0.42881632
-1.1707308	INTJ NOUN PROPN	-0.2967091
-1.2802547	<s> AUX PROPN	-0.5582683
-1.163285	PROPN AUX PROPN	-0.9495804
-1.3595457	ADP AUX PROPN	-0.35585448
-1.3535779	DET AUX PROPN	-0.79315704
-1.2473875	NOUN AUX PROPN	-1.2047973
-1.340464	AUX AUX PROPN	-0.3971519
-1.2053299	VERB AUX PROPN	-0.58790755
-1.3308511	CCONJ AUX PROPN	-0.29423055
-1.2039162	ADV AUX PROPN	-0.8252127
-1.3602836	ADJ AUX PROPN	-0.39062554
-1.1875558	PUNCT AUX PROPN	-0.7197557
-1.2507156	PRON AUX PROPN	-1.1630232
-1.2236564	PART AUX PROPN	-0.6862519
-1.146398	SCONJ AUX PROPN	-0.29764214
-1.3148687	NUM AUX PROPN	-0.41090602
-1.1304612	X AUX PROPN	-0.2893156
-1.2733989	<s> VERB PROPN	-1.1254653
-1.1833873	PROPN VERB PROPN	-1.6425697
-1.1042783	ADP VERB PROPN	-1.3409619
-1.1904385	DET VERB PROPN	-1.3572301
-1.2128569	NOUN VERB PROPN	-1.6847976
-1.1991298	AUX VERB PROPN	-1.3699597
-1.2058692	VERB VERB PROPN	-1.2431021
-1.2426488	CCONJ VERB PROPN	-1.1007719
-1.1880878	ADV VERB PROPN	-1.3938109
-1.1138681	ADJ VERB PROPN	-0.6424291
-1.1802909	PUNCT VERB PROPN	-1.751601
-1.2177827	PRON VERB PROPN	-1.5205957
-1.1785073	PART VERB PROPN	-1.7476767
-1.1241083	SCONJ VERB PROPN	-0.56886846
-1.0766073	SYM VERB PROPN	-0.2893156
-1.2581273	NUM VERB PROPN	-0.49151576
-1.3562118	X VERB PROPN	-0.2893156
-1.008193	INTJ VERB PROPN	-0.39075685
-1.136907	<s> CCONJ PROPN	-1.2310214
-1.0593224	PROPN CCONJ PROPN	-2.4597626
-0.9803595	ADP CCONJ PROPN	-1.0067712
-1.0199573	DET CCONJ PROPN	-0.32550466
-1.1562659	NOUN CCONJ PROPN	-1.7120552
-1.458546	AUX CCONJ PROPN	-0.2967091
-1.140477	VERB CCONJ PROPN	-1.0339953
-1.1497673	CCONJ CCONJ PROPN	-0.30045354
-1.1474694	ADV CCONJ PROPN	-0.8052901
-1.0824763	ADJ CCONJ PROPN	-1.0252205
-1.1488099	PUNCT CCONJ PROPN	-1.7620983
-1.0498688	PRON CCONJ PROPN	-0.66035086
-1.1906481	PART CCONJ PROPN	-0.9046456
-1.0596491	SCONJ CCONJ PROPN	-0.41568127
-0.7674097	SYM CCONJ PROPN	-0.2893156
-1.1584961	NUM CCONJ PROPN	-0.9465823
-1.168307	X CCONJ PROPN	-0.2893156
-0.99393284	INTJ CCONJ PROPN	-0.2893156
-1.6020149	<s> ADV PROPN	-1.146597
-1.1563935	PROPN ADV PROPN	-0.7535284
-1.235427	ADP ADV PROPN	-0.8041842
-1.4953725	DET ADV PROPN	-0.39872086
-1.2343858	NOUN ADV PROPN	-1.0788486
-1.3043323	AUX ADV PROPN	-0.8037245
-1.2529236	VERB ADV PROPN	-1.0058205
-1.2659397	CCONJ ADV PROPN	-0.92298
-1.2883749	ADV ADV PROPN	-0.7190229
-1.3144414	ADJ ADV PROPN	-0.3298895
-1.229478	PUNCT ADV PROPN	-1.1661985
-1.561734	PRON ADV PROPN	-0.343483
-1.2063813	PART ADV PROPN	-0.56700766
-1.2507728	SCONJ ADV PROPN	-0.54336697
-1.1429185	NUM ADV PROPN	-0.55249184
-1.1603976	INTJ ADV PROPN	-0.2967091
-0.9740123	<s> ADJ PROPN	-1.4311827
-0.8954367	PROPN ADJ PROPN	-0.9557504
-1.071804	ADP ADJ PROPN	-1.6735705
-1.1116872	DET ADJ PROPN	-1.9921879
-1.1007385	NOUN ADJ PROPN	-0.9807166
-1.1751885	AUX ADJ PROPN	-0.7312069
-1.1733959	VERB ADJ PROPN	-1.1959056
-1.2834799	CCONJ ADJ PROPN	-1.0762494
-1.1755997	ADV ADJ PROPN	-1.1008946
-0.9864476	ADJ ADJ PROPN	-1.3769702
-1.0899905	PUNCT ADJ PROPN	-2.3681822
-1.0773826	PRON ADJ PROPN	-0.4524231
-1.272685	PART ADJ PROPN	-1.0423152
-1.0672776	SCONJ ADJ PROPN	-0.8566138
-1.2714978	SYM ADJ PROPN	-0.2967091
-0.9282691	NUM ADJ PROPN	-0.8122401
-1.0726619	X ADJ PROPN	-0.2967091
-1.0115277	INTJ ADJ PROPN	-0.2866349
-0.88848376	<s> PUNCT PROPN	-1.3793111
-1.2143164	PROPN PUNCT PROPN	-2.7194552
-1.1372411	ADP PUNCT PROPN	-1.3651961
-1.1825538	DET PUNCT PROPN	-1.5142987
-1.2375703	NOUN PUNCT PROPN	-2.3943892
-1.1426777	AUX PUNCT PROPN	-0.8580478
-1.2188464	VERB PUNCT PROPN	-1.6144743
-1.0402869	CCONJ PUNCT PROPN	-0.9860989
-1.1953653	ADV PUNCT PROPN	-1.6037976
-1.2022048	ADJ PUNCT PROPN	-1.3795388
-1.2220995	PUNCT PUNCT PROPN	-1.8594067
-1.2546774	PRON PUNCT PROPN	-0.947221
-1.247355	PART PUNCT PROPN	-0.8971004
-1.0707262	SCONJ PUNCT PROPN	-1.0554289
-0.9348826	SYM PUNCT PROPN	-0.28596726
-1.1613208	NUM PUNCT PROPN	-1.5463744
-1.051806	X PUNCT PROPN	-0.9702335
-1.1046696	INTJ PUNCT PROPN	-0.87426066
-2.7307732	<s> PRON PROPN	-0.60336494
-1.227031	PROPN PRON PROPN	-0.7271224
-1.266647	ADP PRON PROPN	-0.74305505
-1.5136241	DET PRON PROPN	-0.2893156
-1.2100986	NOUN PRON PROPN	-0.46205854
-1.3643192	AUX PRON PROPN	-0.61084914
-1.2652572	VERB PRON PROPN	-0.86032385
-1.3895806	CCONJ PRON PROPN	-0.3965436
-1.2476697	ADV PRON PROPN	-0.5282334
-1.4595537	ADJ PRON PROPN	-0.2893156
-1.3566508	PUNCT PRON PROPN	-0.48530906
-1.3391429	PRON PRON PROPN	-0.29370055
-1.4162402	PART PRON PROPN	-0.2893156
-1.3992096	SCONJ PRON PROPN	-0.4314288
-1.2429057	X PRON PROPN	-0.30045354
-1.414358	INTJ PRON PROPN	-0.2893156
-2.5935688	<s> PART PROPN	-0.2893156
-0.99869543	PROPN PART PROPN	-1.9331342
-1.5096188	ADP PART PROPN	-0.2893156
-1.1426357	NOUN PART PROPN	-1.1669279
-1.3272064	AUX PART PROPN	-0.5261461
-1.474781	VERB PART PROPN	-0.28763822
-1.2665236	CCONJ PART PROPN	-0.49682066
-1.6345233	ADV PART PROPN	-0.28596726
-1.5920905	ADJ PART PROPN	-0.2893156
-1.3600006	PUNCT PART PROPN	-0.47609332
-1.4498508	PRON PART PROPN	-0.2893156
-1.6443557	SCONJ PART PROPN	-0.2893156
-1.2716621	NUM PART PROPN	-0.2948489
-0.98503774	<s> SCONJ PROPN	-1.380476
-1.0797851	PROPN SCONJ PROPN	-1.003583
-1.0735118	ADP SCONJ PROPN	-0.78006214
-1.0034205	DET SCONJ PROPN	-0.2878243
-1.111058	NOUN SCONJ PROPN	-1.6328838
-1.0574069	AUX SCONJ PROPN	-0.9021868
-1.1037942	VERB SCONJ PROPN	-1.7443825
-1.0946432	CCONJ SCONJ PROPN	-0.85549957
-1.0328108	ADV SCONJ PROPN	-1.099152
-1.0534928	ADJ SCONJ PROPN	-1.4179662
-1.0504133	PUNCT SCONJ PROPN	-1.419481
-1.0127983	PRON SCONJ PROPN	-0.6743381
-1.2593135	PART SCONJ PROPN	-0.29373655
-0.90981364	SCONJ SCONJ PROPN	-0.794222
-1.0229688	NUM SCONJ PROPN	-0.34837183
-0.21842954	<s> SYM PROPN	-0.6686742
-0.5528562	PROPN SYM PROPN	-1.3352511
-0.66025305	ADP SYM PROPN	-1.1521217
-0.56654984	DET SYM PROPN	-0.6671861
-0.70727754	NOUN SYM PROPN	-0.81588095
-0.56970656	AUX SYM PROPN	-0.29596406
-0.62861574	VERB SYM PROPN	-0.6453011
-0.95715964	CCONJ SYM PROPN	-0.51706374
-0.53273416	ADV SYM PROPN	-0.31366235
-0.5618992	ADJ SYM PROPN	-0.5770939
-0.64895433	PUNCT SYM PROPN	-1.0548537
-0.7717996	PRON SYM PROPN	-0.2903854
-0.9707532	PART SYM PROPN	-0.2893156
-0.4731363	SCONJ SYM PROPN	-0.4395349
-0.81546885	NUM SYM PROPN	-0.32665917
-0.38981408	X SYM PROPN	-0.37592196
-1.2699482	<s> NUM PROPN	-0.88070637
-1.059486	PROPN NUM PROPN	-1.1447237
-1.1574253	ADP NUM PROPN	-1.2871342
-0.9661472	DET NUM PROPN	-1.2775946
-1.1346575	NOUN NUM PROPN	-0.62211293
-1.3696474	AUX NUM PROPN	-0.5136776
-1.1721934	VERB NUM PROPN	-0.7848536
-1.274249	CCONJ NUM PROPN	-0.6133262
-1.1441333	ADV NUM PROPN	-0.67938983
-1.0132309	ADJ NUM PROPN	-0.6523448
-0.98986584	PUNCT NUM PROPN	-1.1564804
-1.1164641	PRON NUM PROPN	-0.2893156
-1.3687412	PART NUM PROPN	-0.5609619
-1.1835854	SCONJ NUM PROPN	-0.7009406
-1.1499547	SYM NUM PROPN	-0.6151487
-0.95539635	NUM NUM PROPN	-0.9980117
-0.8547233	X NUM PROPN	-0.2893156
-1.5669459	<s> X PROPN	-0.48115715
-0.67844856	PROPN X PROPN	-1.1092039
-1.1412671	ADP X PROPN	-0.2929966
-0.54194915	DET X PROPN	-0.463881
-1.002503	NOUN X PROPN	-0.46479514
-0.9691098	AUX X PROPN	-0.2893156
-1.0149977	VERB X PROPN	-0.28739914
-1.2550086	CCONJ X PROPN	-0.2893156
-0.99306715	ADV X PROPN	-0.2893156
-1.1923164	ADJ X PROPN	-0.2893156
-1.0002185	PUNCT X PROPN	-0.7557893
-0.8198694	PRON X PROPN	-0.2893156
-0.48844883	PART X PROPN	-0.2893156
-0.8896285	SCONJ X PROPN	-0.30045354
-0.9456933	NUM X PROPN	-0.2893156
-0.7319847	X X PROPN	-0.85504454
-0.6153795	INTJ X PROPN	-0.2967091
-1.3404585	<s> INTJ PROPN	-0.66163087
-1.0716981	PROPN INTJ PROPN	-0.38729542
-0.8167251	ADP INTJ PROPN	-0.30045354
-1.0177865	DET INTJ PROPN	-0.2893156
-0.74160093	NOUN INTJ PROPN	-0.2929966
-1.2142924	VERB INTJ PROPN	-0.2893156
-1.1950732	CCONJ INTJ PROPN	-0.28596726
-1.1378589	ADV INTJ PROPN	-0.2893156
-1.0419886	PUNCT INTJ PROPN	-0.5748121
-1.1902972	PRON INTJ PROPN	-0.2893156
-1.0067732	SCONJ INTJ PROPN	-0.2893156
-0.91610205	X INTJ PROPN	-0.2893156
-1.0912871	INTJ INTJ PROPN	-0.2967091
-0.10012139	NOUN SPACE PROPN	-0.2893156
-1.4963262	<s> PROPN ADP	-1.5011337
-1.1868615	PROPN PROPN ADP	-2.453496
-1.1918364	ADP PROPN ADP	-2.2413638
-1.1900539	DET PROPN ADP	-2.1216948
-1.1511837	NOUN PROPN ADP	-1.354185
-1.0368407	AUX PROPN ADP	-0.7412859
-1.1758482	VERB PROPN ADP	-1.6281512
-1.3004746	CCONJ PROPN ADP	-1.53653
-1.2309598	ADV PROPN ADP	-0.7286219
-1.1387744	ADJ PROPN ADP	-1.4850776
-1.1566943	PUNCT PROPN ADP	-1.7393274
-1.3965715	PRON PROPN ADP	-0.4137105
-1.0712473	PART PROPN ADP	-1.3691192
-1.1080959	SCONJ PROPN ADP	-0.9994148
-1.2666345	SYM PROPN ADP	-0.78498983
-1.0568817	NUM PROPN ADP	-1.0388187
-0.97420466	X PROPN ADP	-0.56757975
-1.2792789	INTJ PROPN ADP	-0.36581615
-1.999641	<s> ADP ADP	-0.96490765
-1.2201971	PROPN ADP ADP	-1.1268121
-1.388752	ADP ADP ADP	-0.6859474
-1.29278	DET ADP ADP	-0.41520512
-1.2060425	NOUN ADP ADP	-1.5934976
-1.1916145	AUX ADP ADP	-0.7579771
-1.2194065	VERB ADP ADP	-2.0837502
-1.1571871	CCONJ ADP ADP	-0.6346786
-1.1913983	ADV ADP ADP	-0.83608526
-1.2975742	ADJ ADP ADP	-0.6701137
-1.1374642	PUNCT ADP ADP	-1.1646864
-1.3195899	PRON ADP ADP	-0.80953664
-1.3665179	PART ADP ADP	-0.28763822
-1.2230188	SCONJ ADP ADP	-0.54116
-1.352818	NUM ADP ADP	-0.42356917
-1.9816097	<s> DET ADP	-1.3404332
-1.442321	PROPN DET ADP	-0.49955726
-1.162493	ADP DET ADP	-1.5327139
-1.237527	DET DET ADP	-0.604726
-1.1672107	NOUN DET ADP	-0.8221257
-1.2163641	AUX DET ADP	-1.1636164
-1.1548407	VERB DET ADP	-1.4863203
-1.1750361	CCONJ DET ADP	-1.1413659
-1.1005691	ADV DET ADP	-0.97658765
-1.4010897	ADJ DET ADP	-0.4535998
-1.1339641	PUNCT DET ADP	-1.3172072
-1.2862142	PRON DET ADP	-0.45901242
-1.212188	PART DET ADP	-0.5873681
-1.1315365	SCONJ DET ADP	-1.1970394
-1.4802649	NUM DET ADP	-0.35768935
-1.3657628	X DET ADP	-0.2893156
-0.513764	<s> NOUN ADP	-2.1225893
-1.2202296	PROPN NOUN ADP	-2.063651
-1.1698205	ADP NOUN ADP	-2.6321301
-1.1618874	DET NOUN ADP	-3.2606833
-1.174901	NOUN NOUN ADP	-2.6198032
-1.0692579	AUX NOUN ADP	-1.9295452
-1.1535515	VERB NOUN ADP	-2.61822
-0.99619114	CCONJ NOUN ADP	-2.2300298
-1.051996	ADV NOUN ADP	-1.4245722
-1.1995606	ADJ NOUN ADP	-3.046711
-1.1351136	PUNCT NOUN ADP	-2.1655853
-1.0529139	PRON NOUN ADP	-0.9798158
-0.9564079	PART NOUN ADP	-1.919546
-1.0380049	SCONJ NOUN ADP	-1.7308916
-1.0132958	SYM NOUN ADP	-0.6680619
-1.1690601	NUM NOUN ADP	-2.2431722
-0.8685779	X NOUN ADP	-0.4961829
-1.0015635	INTJ NOUN ADP	-0.35768935
-2.0826933	<s> AUX ADP	-0.2967091
-1.1327323	PROPN AUX ADP	-1.3737885
-1.2479845	ADP AUX ADP	-0.5558266
-1.1070796	DET AUX ADP	-1.128952
-1.1552763	NOUN AUX ADP	-1.6897347
-1.0686111	AUX AUX ADP	-1.1637824
-1.0970459	VERB AUX ADP	-1.183405
-1.1966422	CCONJ AUX ADP	-0.6835368
-1.200523	ADV AUX ADP	-0.9646099
-1.436736	ADJ AUX ADP	-0.62175936
-1.1170361	PUNCT AUX ADP	-1.0492862
-1.1583923	PRON AUX ADP	-1.6881516
-1.0743917	PART AUX ADP	-1.4247122
-1.1410321	SCONJ AUX ADP	-0.4286881
-0.9984672	NUM AUX ADP	-0.588937
-1.120295	X AUX ADP	-0.2893156
-1.1652656	INTJ AUX ADP	-0.2848569
-0.40164986	<s> VERB ADP	-1.9106616
-1.1835935	PROPN VERB ADP	-2.1602998
-1.0780873	ADP VERB ADP	-1.7387668
-1.1606882	DET VERB ADP	-1.7670951
-1.1869087	NOUN VERB ADP	-2.6308434
-1.1453509	AUX VERB ADP	-2.7414908
-1.1221218	VERB VERB ADP	-2.0846415
-1.0806057	CCONJ VERB ADP	-2.0326352
-1.160476	ADV VERB ADP	-2.308311
-1.0836179	ADJ VERB ADP	-1.1174189
-1.1543429	PUNCT VERB ADP	-2.2496355
-1.167155	PRON VERB ADP	-2.2980402
-1.1525593	PART VERB ADP	-2.395116
-1.0259062	SCONJ VERB ADP	-1.437798
-0.96371794	SYM VERB ADP	-0.37987244
-1.0035962	NUM VERB ADP	-0.9740082
-0.9541454	X VERB ADP	-0.38234234
-1.0085413	INTJ VERB ADP	-0.54676425
-1.1011268	<s> CCONJ ADP	-1.3367343
-1.2781576	PROPN CCONJ ADP	-1.234664
-0.8509972	ADP CCONJ ADP	-1.0135572
-1.2890046	DET CCONJ ADP	-0.30045354
-1.2199208	NOUN CCONJ ADP	-1.5720639
-1.0275388	AUX CCONJ ADP	-0.3828773
-1.1824304	VERB CCONJ ADP	-0.8107487
-1.3167447	CCONJ CCONJ ADP	-0.2893156
-1.1150521	ADV CCONJ ADP	-0.9008357
-1.1507872	ADJ CCONJ ADP	-0.8595425
-1.1828345	PUNCT CCONJ ADP	-1.6207024
-1.23984	PRON CCONJ ADP	-0.61330336
-1.2409027	SCONJ CCONJ ADP	-0.2967091
-1.3493439	NUM CCONJ ADP	-0.48336384
-1.1947417	X CCONJ ADP	-0.2893156
-1.2367569	INTJ CCONJ ADP	-0.2893156
-1.1815786	<s> ADV ADP	-1.5197195
-1.0628657	PROPN ADV ADP	-1.1485368
-1.1269147	ADP ADV ADP	-1.2705172
-1.0946399	DET ADV ADP	-0.63108516
-1.1693518	NOUN ADV ADP	-1.8358009
-1.1539263	AUX ADV ADP	-1.6051368
-1.1876038	VERB ADV ADP	-2.0692625
-1.2156615	CCONJ ADV ADP	-1.4161716
-1.1801354	ADV ADV ADP	-1.5175478
-1.0630872	ADJ ADV ADP	-0.9943043
-1.1424035	PUNCT ADV ADP	-1.7037034
-1.0634303	PRON ADV ADP	-1.1408283
-1.0742412	PART ADV ADP	-1.1865759
-1.1469781	SCONJ ADV ADP	-0.69112104
-1.0857761	NUM ADV ADP	-0.4275531
-1.1143069	X ADV ADP	-0.2893156
-1.2138383	INTJ ADV ADP	-0.28596726
-1.1953341	<s> ADJ ADP	-1.3534151
-1.07352	PROPN ADJ ADP	-0.7982042
-1.126261	ADP ADJ ADP	-1.3549186
-1.169319	DET ADJ ADP	-1.4642621
-1.0434088	NOUN ADJ ADP	-1.5784273
-1.0862317	AUX ADJ ADP	-2.0438375
-1.14413	VERB ADJ ADP	-1.7598785
-1.086946	CCONJ ADJ ADP	-1.3668023
-1.1460366	ADV ADJ ADP	-1.9338249
-1.1910385	ADJ ADJ ADP	-0.78263974
-1.0902169	PUNCT ADJ ADP	-1.4435159
-0.95111203	PRON ADJ ADP	-1.2574135
-1.035849	PART ADJ ADP	-1.2491069
-0.9624604	SCONJ ADJ ADP	-1.2342685
-1.3316066	SYM ADJ ADP	-0.2967091
-1.0360051	NUM ADJ ADP	-0.5584217
-1.3139175	X ADJ ADP	-0.2893156
-1.087061	INTJ ADJ ADP	-0.2893156
-1.2687867	<s> PUNCT ADP	-1.2449733
-1.2145072	PROPN PUNCT ADP	-2.032426
-1.2416933	ADP PUNCT ADP	-0.78006214
-1.1828177	DET PUNCT ADP	-0.8110964
-1.2377723	NOUN PUNCT ADP	-2.2629194
-1.1429267	AUX PUNCT ADP	-0.9776577
-1.2469766	VERB PUNCT ADP	-1.5525312
-0.9989238	CCONJ PUNCT ADP	-0.91465926
-1.2234956	ADV PUNCT ADP	-1.6082342
-1.230335	ADJ PUNCT ADP	-1.3319958
-1.2502298	PUNCT PUNCT ADP	-1.4154071
-1.2174059	PRON PUNCT ADP	-1.0186646
-1.2477409	PART PUNCT ADP	-0.43006822
-1.0709807	SCONJ PUNCT ADP	-0.8370654
-1.352233	SYM PUNCT ADP	-0.2893156
-1.189451	NUM PUNCT ADP	-1.3849037
-1.3508675	X PUNCT ADP	-0.55225587
-1.2842289	INTJ PUNCT ADP	-0.7726434
-2.2915044	<s> PRON ADP	-0.89540994
-1.3051379	PROPN PRON ADP	-0.28887063
-1.159658	ADP PRON ADP	-1.5503062
-1.3640139	DET PRON ADP	-0.28596726
-1.1535295	NOUN PRON ADP	-0.6252026
-1.0578634	AUX PRON ADP	-1.1044008
-1.1227753	VERB PRON ADP	-2.0431843
-1.2333574	CCONJ PRON ADP	-0.64555234
-1.145948	ADV PRON ADP	-0.46486303
-1.503086	ADJ PRON ADP	-0.2948489
-1.1436317	PUNCT PRON ADP	-0.7996731
-1.4655583	PRON PRON ADP	-0.4314527
-1.1127441	PART PRON ADP	-0.34853035
-1.1304857	SCONJ PRON ADP	-0.59881365
-1.1095493	SYM PRON ADP	-0.2893156
-1.1090397	NUM PRON ADP	-0.2948489
-1.2318311	X PRON ADP	-0.2893156
-1.7691854	<s> PART ADP	-0.46924126
-1.264778	PROPN PART ADP	-0.58847976
-1.4699802	ADP PART ADP	-0.2893156
-1.2997651	DET PART ADP	-0.2893156
-1.1338062	NOUN PART ADP	-0.59740144
-1.3129908	AUX PART ADP	-1.1528393
-1.2009045	VERB PART ADP	-0.5396668
-1.1840428	CCONJ PART ADP	-0.79068464
-1.1191549	ADV PART ADP	-0.537381
-1.3644283	ADJ PART ADP	-0.41201925
-1.0790901	PUNCT PART ADP	-0.80180925
-1.4811864	PRON PART ADP	-0.2893156
-1.5320224	PART PART ADP	-0.2893156
-1.199888	SCONJ PART ADP	-0.6164842
-1.2508819	NUM PART ADP	-0.2870805
-1.2060932	<s> SCONJ ADP	-1.2977686
-0.9707003	PROPN SCONJ ADP	-1.0113596
-1.1367217	ADP SCONJ ADP	-0.6153839
-1.0826862	DET SCONJ ADP	-0.2929966
-1.0782934	NOUN SCONJ ADP	-1.4796522
-1.0158188	AUX SCONJ ADP	-1.0064801
-1.1284615	VERB SCONJ ADP	-1.6465847
-1.0379404	CCONJ SCONJ ADP	-0.88234985
-1.06166	ADV SCONJ ADP	-1.2444549
-1.183884	ADJ SCONJ ADP	-0.95646966
-1.101411	PUNCT SCONJ ADP	-1.3044951
-1.2170227	PRON SCONJ ADP	-0.84588724
-0.8126462	PART SCONJ ADP	-0.6764049
-1.2215875	SCONJ SCONJ ADP	-0.5137781
-0.7824717	NUM SCONJ ADP	-1.0418715
-0.82842225	X SCONJ ADP	-0.2893156
-1.8341671	<s> SYM ADP	-0.30045354
-1.2559081	ADP SYM ADP	-0.29373655
-1.6225559	NOUN SYM ADP	-0.2893156
-1.6165111	VERB SYM ADP	-0.2893156
-1.4066694	ADV SYM ADP	-0.2893156
-1.4071047	PUNCT SYM ADP	-0.2929966
-1.3785731	PRON SYM ADP	-0.2967091
-0.99841416	SYM SYM ADP	-0.2893156
-1.393949	NUM SYM ADP	-0.2893156
-0.67067593	<s> NUM ADP	-1.5571424
-1.1204526	PROPN NUM ADP	-1.3761809
-1.1309676	ADP NUM ADP	-1.6270336
-1.1173854	DET NUM ADP	-1.0085948
-1.0239117	NOUN NUM ADP	-1.085717
-0.9179416	AUX NUM ADP	-1.5918367
-1.103928	VERB NUM ADP	-1.4434073
-0.97527856	CCONJ NUM ADP	-1.1303988
-1.0685114	ADV NUM ADP	-1.0864121
-1.017291	ADJ NUM ADP	-0.7230415
-1.0209184	PUNCT NUM ADP	-1.5021929
-1.0590206	PRON NUM ADP	-0.62653464
-1.0302482	PART NUM ADP	-0.42881632
-0.95178026	SCONJ NUM ADP	-1.2147197
-1.0286987	SYM NUM ADP	-0.9965714
-0.9886609	NUM NUM ADP	-1.0818775
-2.4350007	<s> X ADP	-0.2893156
-1.5353563	PROPN X ADP	-0.2893156
-1.131515	ADP X ADP	-0.39558852
-1.1344364	NOUN X ADP	-0.41201925
-1.3345377	VERB X ADP	-0.2893156
-1.4112983	CCONJ X ADP	-0.2893156
-1.3429192	ADJ X ADP	-0.2893156
-1.3834219	PUNCT X ADP	-0.34430254
-1.3015457	X X ADP	-0.2905384
-1.747146	<s> INTJ ADP	-0.3527805
-1.1642525	PROPN INTJ ADP	-0.2967091
-1.095452	ADP INTJ ADP	-0.2893156
-1.0474076	DET INTJ ADP	-0.2893156
-1.3409101	NOUN INTJ ADP	-0.2893156
-1.116448	AUX INTJ ADP	-0.2893156
-0.6846235	VERB INTJ ADP	-0.4722849
-1.2308578	CCONJ INTJ ADP	-0.2848569
-1.1095589	ADV INTJ ADP	-0.2967091
-0.9571979	ADJ INTJ ADP	-0.2893156
-1.1011481	PUNCT INTJ ADP	-0.7002741
-2.5815728	<s> PROPN DET	-0.7405816
-1.1868615	PROPN PROPN DET	-1.4418696
-1.2198489	ADP PROPN DET	-1.4653207
-1.2947136	DET PROPN DET	-1.0527943
-1.3267237	NOUN PROPN DET	-0.7076619
-1.3418995	AUX PROPN DET	-0.36066234
-1.2338054	VERB PROPN DET	-1.0379428
-1.4463807	CCONJ PROPN DET	-0.7334896
-1.4912777	ADV PROPN DET	-0.29272228
-1.3143145	ADJ PROPN DET	-0.9246928
-1.3446511	PUNCT PROPN DET	-0.8792865
-1.5373755	PRON PROPN DET	-0.2967091
-1.4575518	PART PROPN DET	-0.2866349
-1.3786033	SCONJ PROPN DET	-0.4929461
-1.3175576	SYM PROPN DET	-0.5206201
-1.4586353	NUM PROPN DET	-0.28790697
-1.4356288	X PROPN DET	-0.35402733
-1.3444656	INTJ PROPN DET	-0.2893156
-0.3420508	<s> ADP DET	-2.3713338
-1.0597603	PROPN ADP DET	-2.3968592
-0.9668379	ADP ADP DET	-2.0566459
-0.9429168	DET ADP DET	-1.8881937
-1.1471055	NOUN ADP DET	-3.2696009
-1.0033132	AUX ADP DET	-2.0142744
-1.1604694	VERB ADP DET	-2.9938939
-0.94980055	CCONJ ADP DET	-1.8466508
-1.0566407	ADV ADP DET	-2.311644
-1.0819914	ADJ ADP DET	-2.3031561
-1.0749242	PUNCT ADP DET	-2.3046706
-0.8636733	PRON ADP DET	-1.9617633
-0.7560703	PART ADP DET	-1.3015044
-0.9842072	SCONJ ADP DET	-1.946577
-0.99750537	SYM ADP DET	-0.28596726
-0.9698185	NUM ADP DET	-2.043408
-0.7737947	X ADP DET	-0.55433637
-0.5934347	INTJ ADP DET	-0.42063296
-2.0474238	<s> DET DET	-1.1695261
-1.288202	PROPN DET DET	-0.5125913
-1.162493	ADP DET DET	-1.7215003
-1.237527	DET DET DET	-0.5606258
-1.0931149	NOUN DET DET	-1.3810333
-1.1441687	AUX DET DET	-1.184377
-1.1826856	VERB DET DET	-1.4741249
-1.2209996	CCONJ DET DET	-0.8651988
-1.1005691	ADV DET DET	-0.92356145
-1.2045494	ADJ DET DET	-0.78768283
-1.2304504	PUNCT DET DET	-1.1447752
-1.1023295	PRON DET DET	-0.74693626
-1.212188	PART DET DET	-0.65871936
-1.1662958	SCONJ DET DET	-1.1240827
-1.5348355	NUM DET DET	-0.2893156
-1.2242457	X DET DET	-0.2893156
-2.1554651	<s> NOUN DET	-0.8277318
-1.2258866	PROPN NOUN DET	-1.233788
-1.2294784	ADP NOUN DET	-1.724036
-1.1915393	DET NOUN DET	-2.2270677
-1.231009	NOUN NOUN DET	-1.79857
-1.2117707	AUX NOUN DET	-0.87741953
-1.2378325	VERB NOUN DET	-1.4976547
-1.2806587	CCONJ NOUN DET	-1.3590837
-1.2841829	ADV NOUN DET	-0.463881
-1.231009	ADJ NOUN DET	-2.161823
-1.2249721	PUNCT NOUN DET	-1.0548233
-1.3321404	PRON NOUN DET	-0.41766098
-1.2707208	PART NOUN DET	-0.8493233
-1.2697426	SCONJ NOUN DET	-0.57560545
-1.3775942	SYM NOUN DET	-0.33602387
-1.2004611	NUM NOUN DET	-1.3333693
-0.7592755	<s> AUX DET	-1.1232709
-1.0794768	PROPN AUX DET	-1.9869787
-0.93183374	ADP AUX DET	-1.128405
-1.0743575	DET AUX DET	-1.8487692
-1.1265342	NOUN AUX DET	-2.1034522
-0.9925257	AUX AUX DET	-1.6124592
-1.0364213	VERB AUX DET	-1.81567
-1.0521853	CCONJ AUX DET	-1.2335639
-1.1013845	ADV AUX DET	-1.9216444
-1.0074613	ADJ AUX DET	-1.1160995
-1.0298347	PUNCT AUX DET	-1.7000102
-1.1052161	PRON AUX DET	-2.3015683
-1.0416721	PART AUX DET	-1.8773612
-0.8234367	SCONJ AUX DET	-0.99350756
-0.7637219	SYM AUX DET	-0.2893156
-0.995457	NUM AUX DET	-1.0433215
-0.9354932	X AUX DET	-0.2967091
-1.0883204	INTJ AUX DET	-0.2948489
-0.7343413	<s> VERB DET	-1.7085071
-1.1589139	PROPN VERB DET	-2.3111117
-1.0780873	ADP VERB DET	-2.1690216
-1.1326395	DET VERB DET	-1.9177123
-1.2130759	NOUN VERB DET	-2.3939278
-1.1993634	AUX VERB DET	-2.3178194
-1.0973836	VERB VERB DET	-2.2276354
-1.0806057	CCONJ VERB DET	-2.1579878
-1.160476	ADV VERB DET	-2.2568736
-1.1140751	ADJ VERB DET	-1.1808242
-1.1543429	PUNCT VERB DET	-2.2430847
-1.1918347	PRON VERB DET	-2.3592618
-1.1787264	PART VERB DET	-2.6957307
-1.0563083	SCONJ VERB DET	-1.4604088
-1.0772064	SYM VERB DET	-0.440393
-1.0320494	NUM VERB DET	-1.0931411
-0.8809285	X VERB DET	-0.53864926
-0.8915854	INTJ VERB DET	-1.0431954
-0.6895102	<s> CCONJ DET	-1.6537201
-1.086668	PROPN CCONJ DET	-1.956184
-0.91100657	ADP CCONJ DET	-1.126687
-0.8244992	DET CCONJ DET	-0.85971826
-1.1336285	NOUN CCONJ DET	-2.2787683
-1.0225405	AUX CCONJ DET	-0.8092168
-1.0830479	VERB CCONJ DET	-1.3469682
-0.92531145	CCONJ CCONJ DET	-0.39968288
-1.1110653	ADV CCONJ DET	-0.9391287
-1.0856766	ADJ CCONJ DET	-1.2791309
-1.1520684	PUNCT CCONJ DET	-2.1864626
-0.8935498	PRON CCONJ DET	-1.3123242
-1.2024564	PART CCONJ DET	-0.514571
-0.6558243	SCONJ CCONJ DET	-0.5492087
-0.9688406	NUM CCONJ DET	-0.8770319
-0.949581	X CCONJ DET	-0.2967091
-1.0026791	INTJ CCONJ DET	-0.28596726
-1.0236241	<s> ADV DET	-1.72432
-1.1504562	PROPN ADV DET	-1.1460598
-1.1239817	ADP ADV DET	-1.4882529
-1.1300105	DET ADV DET	-0.863969
-1.1665084	NOUN ADV DET	-1.5348327
-1.1211452	AUX ADV DET	-1.8185816
-1.1569271	VERB ADV DET	-1.7514842
-1.1325533	CCONJ ADV DET	-1.5389947
-1.209086	ADV ADV DET	-1.3234909
-1.1276987	ADJ ADV DET	-0.92494637
-1.1399323	PUNCT ADV DET	-1.6797819
-1.1399597	PRON ADV DET	-0.8294711
-1.0359403	PART ADV DET	-1.2750256
-1.1432964	SCONJ ADV DET	-1.0281525
-1.1264323	SYM ADV DET	-0.2893156
-1.1941112	NUM ADV DET	-0.62175936
-1.105842	X ADV DET	-0.2893156
-1.1417384	INTJ ADV DET	-0.2948489
-2.7228918	<s> ADJ DET	-0.37987244
-1.8255976	PROPN ADJ DET	-0.2893156
-1.2755738	ADP ADJ DET	-0.87105954
-1.3780167	DET ADJ DET	-0.62318206
-1.6802137	NOUN ADJ DET	-0.4063238
-1.3053526	AUX ADJ DET	-0.92731535
-1.219146	VERB ADJ DET	-0.91127783
-1.3781629	CCONJ ADJ DET	-0.47771922
-1.2207518	ADV ADJ DET	-1.1020093
-1.6314607	ADJ ADJ DET	-0.33602387
-1.5381235	PUNCT ADJ DET	-0.55032194
-1.3694532	PRON ADJ DET	-0.586521
-1.1791793	PART ADJ DET	-0.57328916
-1.7442702	SCONJ ADJ DET	-0.2893156
-0.74653846	<s> PUNCT DET	-1.6381193
-1.2145072	PROPN PUNCT DET	-2.4534774
-1.1374863	ADP PUNCT DET	-1.3405156
-1.1507821	DET PUNCT DET	-1.0130966
-1.2377723	NOUN PUNCT DET	-2.6037931
-1.2157685	AUX PUNCT DET	-0.9705954
-1.192832	VERB PUNCT DET	-1.7942263
-1.2645882	CCONJ PUNCT DET	-0.785535
-1.2234956	ADV PUNCT DET	-1.9876137
-1.230335	ADJ PUNCT DET	-1.4612017
-1.1960852	PUNCT PUNCT DET	-1.8620415
-1.1828177	PRON PUNCT DET	-1.284603
-1.1492563	PART PUNCT DET	-0.87125057
-1.0709807	SCONJ PUNCT DET	-1.18113
-1.1914407	SYM PUNCT DET	-0.2893156
-1.189451	NUM PUNCT DET	-1.7653438
-1.1762778	X PUNCT DET	-0.8935289
-1.156946	INTJ PUNCT DET	-0.98438174
-2.1728418	<s> PRON DET	-1.0334888
-1.6405466	PROPN PRON DET	-0.29102847
-1.1394762	ADP PRON DET	-1.3179207
-1.2817671	DET PRON DET	-0.4460389
-1.2204658	NOUN PRON DET	-0.8124378
-1.1354607	AUX PRON DET	-1.1705277
-1.1822133	VERB PRON DET	-1.6614901
-1.18977	CCONJ PRON DET	-0.8493527
-1.1587853	ADV PRON DET	-0.86772424
-0.982359	ADJ PRON DET	-0.38765255
-1.1216221	PUNCT PRON DET	-1.0522376
-1.3597535	PRON PRON DET	-0.46205854
-1.1353472	PART PRON DET	-0.5720517
-1.184776	SCONJ PRON DET	-0.74964094
-1.069412	<s> PART DET	-0.85490274
-1.264778	PROPN PART DET	-0.6164842
-1.3089615	ADP PART DET	-0.2948489
-1.3574334	DET PART DET	-0.29102847
-1.3939242	NOUN PART DET	-0.601701
-0.986895	AUX PART DET	-1.6668092
-1.1551659	VERB PART DET	-0.770687
-1.0292137	CCONJ PART DET	-0.89582413
-1.1191549	ADV PART DET	-0.8695079
-1.0790901	PUNCT PART DET	-0.82397693
-1.5978328	PRON PART DET	-0.29074255
-1.5320224	PART PART DET	-0.2893156
-0.9284622	SCONJ PART DET	-0.5686795
-1.5378186	NUM PART DET	-0.2893156
-0.9491896	X PART DET	-0.2893156
-0.46773228	<s> SCONJ DET	-1.934494
-0.91234666	PROPN SCONJ DET	-1.6553535
-0.82976025	ADP SCONJ DET	-1.2189642
-0.7645998	DET SCONJ DET	-0.8156072
-1.0507646	NOUN SCONJ DET	-2.1087863
-0.9486462	AUX SCONJ DET	-1.3438666
-1.0749449	VERB SCONJ DET	-2.3507714
-0.9116425	CCONJ SCONJ DET	-1.4037606
-0.9999605	ADV SCONJ DET	-1.7349193
-1.0505587	ADJ SCONJ DET	-1.8007836
-1.0477316	PUNCT SCONJ DET	-1.8865163
-0.7940639	PRON SCONJ DET	-1.4269545
-0.748773	PART SCONJ DET	-0.85788274
-0.8712642	SCONJ SCONJ DET	-1.2851629
-0.8842761	NUM SCONJ DET	-0.8900674
-0.5344334	X SCONJ DET	-0.29102847
-2.1057131	<s> SYM DET	-0.2893156
-1.7406296	ADP SYM DET	-0.2893156
-0.9544296	DET SYM DET	-0.9538637
-1.2767705	PRON SYM DET	-0.2893156
-1.6658463	NUM SYM DET	-0.2893156
-2.6655858	<s> NUM DET	-0.2948489
-1.2754673	PROPN NUM DET	-0.75637585
-1.2000372	ADP NUM DET	-0.8360061
-1.6859901	DET NUM DET	-0.298203
-1.3790658	NOUN NUM DET	-0.34853035
-1.5013641	AUX NUM DET	-0.37020972
-1.2269686	VERB NUM DET	-0.6246998
-1.5438832	CCONJ NUM DET	-0.343483
-1.5769743	ADV NUM DET	-0.29074255
-1.4883298	ADJ NUM DET	-0.2967091
-1.4354308	PUNCT NUM DET	-0.6194386
-1.272622	SCONJ NUM DET	-0.48683307
-1.074581	SYM NUM DET	-0.9694923
-1.7156043	NUM NUM DET	-0.46647665
-1.876377	<s> X DET	-0.39968288
-1.3781137	ADP X DET	-0.2967091
-1.2132013	NOUN X DET	-0.34853035
-1.0517491	AUX X DET	-0.2893156
-1.447987	VERB X DET	-0.2893156
-1.1604439	CCONJ X DET	-0.2848569
-0.90102786	ADJ X DET	-0.2893156
-1.2648137	PUNCT X DET	-0.41090602
-1.2138354	SYM X DET	-0.2893156
-1.4426991	X X DET	-0.35402733
-1.7360853	<s> INTJ DET	-0.41384643
-1.191102	AUX INTJ DET	-0.2893156
-1.5433114	VERB INTJ DET	-0.2893156
-1.3091099	CCONJ INTJ DET	-0.2893156
-1.4114501	ADV INTJ DET	-0.2893156
-1.3228282	PUNCT INTJ DET	-0.553984
-0.8747262	NUM INTJ DET	-0.2893156
-1.4298185	<s> PROPN NOUN	-1.489875
-1.1891716	PROPN PROPN NOUN	-2.1758583
-1.1678771	ADP PROPN NOUN	-2.0054612
-1.1345997	DET PROPN NOUN	-2.2687273
-1.153896	NOUN PROPN NOUN	-1.2406611
-1.0721904	AUX PROPN NOUN	-0.63811105
-1.1783512	VERB PROPN NOUN	-1.4580148
-1.1959113	CCONJ PROPN NOUN	-1.3962427
-1.1075542	ADV PROPN NOUN	-0.6755852
-1.0869396	ADJ PROPN NOUN	-1.7143964
-1.1854954	PUNCT PROPN NOUN	-1.727211
-1.2106183	PRON PROPN NOUN	-0.39075685
-1.0763824	PART PROPN NOUN	-1.2223225
-1.1110688	SCONJ PROPN NOUN	-1.0645262
-1.0201035	SYM PROPN NOUN	-1.1464629
-1.0044575	NUM PROPN NOUN	-1.2171161
-1.1115491	X PROPN NOUN	-0.49221447
-0.8609558	<s> ADP NOUN	-1.8109088
-1.0597603	PROPN ADP NOUN	-1.6821374
-0.9668379	ADP ADP NOUN	-1.4417394
-1.0053326	DET ADP NOUN	-1.005225
-1.1471055	NOUN ADP NOUN	-3.0036035
-0.9752577	AUX ADP NOUN	-1.6234666
-1.1849506	VERB ADP NOUN	-2.538518
-0.98245203	CCONJ ADP NOUN	-1.3107787
-1.084557	ADV ADP NOUN	-1.7307606
-1.0819914	ADJ ADP NOUN	-1.7568002
-1.0749242	PUNCT ADP NOUN	-1.8972673
-0.95550394	PRON ADP NOUN	-1.4025979
-0.7560703	PART ADP NOUN	-0.88607347
-0.9842072	SCONJ ADP NOUN	-1.3487209
-0.81471956	SYM ADP NOUN	-0.2866349
-0.99829215	NUM ADP NOUN	-1.186842
-0.99276316	X ADP NOUN	-0.2948489
-0.66158795	INTJ ADP NOUN	-0.44544038
-0.25976336	<s> DET NOUN	-2.7043676
-0.8619991	PROPN DET NOUN	-1.395884
-1.0786518	ADP DET NOUN	-3.3570523
-0.9530401	DET DET NOUN	-1.8633841
-0.99655914	NOUN DET NOUN	-1.9585943
-0.99828494	AUX DET NOUN	-2.5197022
-1.0987802	VERB DET NOUN	-3.1079857
-0.93871796	CCONJ DET NOUN	-2.3749092
-1.0046126	ADV DET NOUN	-2.1787431
-0.8428303	ADJ DET NOUN	-1.251974
-1.0499674	PUNCT DET NOUN	-2.5990639
-0.89968914	PRON DET NOUN	-1.6631756
-0.8515512	PART DET NOUN	-1.4061422
-1.0358102	SCONJ DET NOUN	-2.5472586
-0.43638766	SYM DET NOUN	-0.553984
-0.74078614	NUM DET NOUN	-0.95316535
-0.62133574	X DET NOUN	-0.29254234
-0.6393693	INTJ DET NOUN	-0.34853035
-0.9154796	<s> NOUN NOUN	-1.6620417
-1.1662651	PROPN NOUN NOUN	-1.8479546
-1.2240276	ADP NOUN NOUN	-2.3476477
-1.1865472	DET NOUN NOUN	-2.6886234
-1.174901	NOUN NOUN NOUN	-2.2408273
-1.0692579	AUX NOUN NOUN	-1.1238168
-1.2043557	VERB NOUN NOUN	-2.0812206
-1.1316268	CCONJ NOUN NOUN	-2.0302534
-1.051996	ADV NOUN NOUN	-1.1122471
-1.1995606	ADJ NOUN NOUN	-2.6365705
-1.1103895	PUNCT NOUN NOUN	-2.2150483
-1.0529139	PRON NOUN NOUN	-0.5018701
-1.0237166	PART NOUN NOUN	-1.6236506
-1.0380049	SCONJ NOUN NOUN	-1.4432435
-0.97504866	SYM NOUN NOUN	-0.8424168
-1.1690601	NUM NOUN NOUN	-1.6956621
-0.7168288	X NOUN NOUN	-0.52364236
-0.7847413	INTJ NOUN NOUN	-0.29564512
-1.4996432	<s> AUX NOUN	-0.5002064
-1.1384064	PROPN AUX NOUN	-1.1445435
-1.1059341	ADP AUX NOUN	-0.59185666
-1.1810011	DET AUX NOUN	-0.91912144
-1.1892334	NOUN AUX NOUN	-1.668525
-1.1184729	AUX AUX NOUN	-0.7904507
-1.1357478	VERB AUX NOUN	-1.0755075
-1.105454	CCONJ AUX NOUN	-0.785535
-1.140465	ADV AUX NOUN	-1.012431
-1.2351516	ADJ AUX NOUN	-0.50631005
-1.1911964	PUNCT AUX NOUN	-0.8841155
-1.1641991	PRON AUX NOUN	-1.7470016
-1.113176	PART AUX NOUN	-1.2870983
-1.1528294	SCONJ AUX NOUN	-0.42356917
-1.0045509	NUM AUX NOUN	-0.5521491
-1.1307755	<s> VERB NOUN	-1.2367967
-1.1589139	PROPN VERB NOUN	-1.677334
-1.1044813	ADP VERB NOUN	-1.98
-1.1606882	DET VERB NOUN	-2.1497588
-1.1869087	NOUN VERB NOUN	-2.067658
-1.1993634	AUX VERB NOUN	-1.8975785
-1.1483549	VERB VERB NOUN	-1.8536651
-1.138479	CCONJ VERB NOUN	-1.8569455
-1.160476	ADV VERB NOUN	-1.9377943
-1.0551574	ADJ VERB NOUN	-1.3657349
-1.1543429	PUNCT VERB NOUN	-2.1362057
-1.2180017	PRON VERB NOUN	-1.8218528
-1.1787264	PART VERB NOUN	-2.2723582
-1.0889999	SCONJ VERB NOUN	-1.1670208
-0.96371794	SYM VERB NOUN	-0.29315
-1.0320494	NUM VERB NOUN	-0.8991546
-1.0422596	X VERB NOUN	-0.28549102
-1.1690941	INTJ VERB NOUN	-0.44544038
-1.3542529	<s> CCONJ NOUN	-0.97838587
-1.0893116	PROPN CCONJ NOUN	-1.5684626
-1.257939	ADP CCONJ NOUN	-0.69250745
-1.2890046	DET CCONJ NOUN	-0.28549102
-1.1118866	NOUN CCONJ NOUN	-2.690595
-1.1851907	AUX CCONJ NOUN	-0.48683307
-1.0321032	VERB CCONJ NOUN	-1.2707342
-1.1715362	CCONJ CCONJ NOUN	-0.2893156
-1.2024491	ADV CCONJ NOUN	-0.67084193
-1.0886511	ADJ CCONJ NOUN	-1.2648239
-1.1550971	PUNCT CCONJ NOUN	-1.7653939
-1.0124716	PRON CCONJ NOUN	-0.49044523
-1.2722014	PART CCONJ NOUN	-0.40441254
-0.77634245	SYM CCONJ NOUN	-0.2893156
-1.039779	NUM CCONJ NOUN	-0.6002163
-1.0308305	X CCONJ NOUN	-0.29102847
-1.6253521	<s> ADV NOUN	-1.0878916
-1.226582	PROPN ADV NOUN	-0.7207871
-1.2319783	ADP ADV NOUN	-0.91509753
-1.2227812	DET ADV NOUN	-0.72941905
-1.1992501	NOUN ADV NOUN	-1.3308883
-1.1539263	AUX ADV NOUN	-1.1490881
-1.1876038	VERB ADV NOUN	-1.11712
-1.1739519	CCONJ ADV NOUN	-1.1086594
-1.2123145	ADV ADV NOUN	-0.8145062
-1.1692226	ADJ ADV NOUN	-0.61024785
-1.2588906	PUNCT ADV NOUN	-1.2768631
-1.7309892	PRON ADV NOUN	-0.39006
-1.1555341	PART ADV NOUN	-0.6518041
-1.2464908	SCONJ ADV NOUN	-0.48346162
-0.9405179	SYM ADV NOUN	-0.2893156
-1.3531886	NUM ADV NOUN	-0.2856642
-1.3462219	INTJ ADV NOUN	-0.2893156
-0.23681715	<s> ADJ NOUN	-2.102203
-0.89564335	PROPN ADJ NOUN	-1.5341191
-1.0720025	ADP ADJ NOUN	-2.8218453
-1.0612144	DET ADJ NOUN	-3.232327
-1.0434088	NOUN ADJ NOUN	-1.722566
-1.0862317	AUX ADJ NOUN	-1.8867309
-1.0659618	VERB ADJ NOUN	-2.5390987
-0.95191807	CCONJ ADJ NOUN	-2.3647962
-1.1181422	ADV ADJ NOUN	-2.2447135
-0.9866533	ADJ ADJ NOUN	-2.6311805
-1.0641522	PUNCT ADJ NOUN	-2.3288736
-0.95111203	PRON ADJ NOUN	-1.0099804
-0.96826506	PART ADJ NOUN	-1.991348
-0.9324051	SCONJ ADJ NOUN	-1.9117836
-0.5436727	SYM ADJ NOUN	-0.70369375
-0.86919254	NUM ADJ NOUN	-1.8833323
-0.44707116	X ADJ NOUN	-0.47602567
-0.8242237	INTJ ADJ NOUN	-0.29373655
-1.13706	<s> PUNCT NOUN	-1.2491755
-1.2392421	PROPN PUNCT NOUN	-2.099162
-1.1076524	ADP PUNCT NOUN	-1.517044
-1.1209482	DET PUNCT NOUN	-1.6336385
-1.2130376	NOUN PUNCT NOUN	-2.574061
-1.0805655	AUX PUNCT NOUN	-0.79315704
-1.192832	VERB PUNCT NOUN	-1.6088958
-1.1383152	CCONJ PUNCT NOUN	-1.1025964
-1.19558	ADV PUNCT NOUN	-1.4784096
-1.2024194	ADJ PUNCT NOUN	-1.9902964
-1.2223142	PUNCT PUNCT NOUN	-1.3917933
-1.1828177	PRON PUNCT NOUN	-0.8993232
-1.1072925	PART PUNCT NOUN	-0.8564497
-1.1435736	SCONJ PUNCT NOUN	-1.0669022
-1.352233	SYM PUNCT NOUN	-0.2893156
-1.189451	NUM PUNCT NOUN	-1.5053757
-1.2270544	X PUNCT NOUN	-0.6334401
-1.4650468	INTJ PUNCT NOUN	-0.63603395
-2.9240625	<s> PRON NOUN	-0.4749936
-1.3200752	PROPN PRON NOUN	-0.58973384
-1.1663355	ADP PRON NOUN	-0.90985125
-1.2742244	DET PRON NOUN	-0.2967091
-1.3466307	NOUN PRON NOUN	-0.45000848
-1.2591496	AUX PRON NOUN	-0.59585637
-1.2371123	VERB PRON NOUN	-1.1506535
-1.2449361	CCONJ PRON NOUN	-0.3971519
-1.2011576	ADV PRON NOUN	-0.35473654
-1.6502373	ADJ PRON NOUN	-0.2893156
-1.2652509	PUNCT PRON NOUN	-0.62508917
-1.4922094	PRON PRON NOUN	-0.2893156
-1.2355667	PART PRON NOUN	-0.28596726
-1.2791193	SCONJ PRON NOUN	-0.42426997
-1.4273756	INTJ PRON NOUN	-0.2893156
-2.4365964	<s> PART NOUN	-0.2893156
-0.98963886	PROPN PART NOUN	-2.303002
-1.2955382	ADP PART NOUN	-0.2893156
-1.2875845	DET PART NOUN	-0.2893156
-1.0263053	NOUN PART NOUN	-2.2352765
-1.2002192	AUX PART NOUN	-0.8543625
-1.0720416	VERB PART NOUN	-0.62448275
-1.4150995	CCONJ PART NOUN	-0.45482823
-1.3173511	ADV PART NOUN	-0.39683628
-0.9781756	ADJ PART NOUN	-0.5886758
-1.4162602	PUNCT PART NOUN	-0.83606654
-0.99481386	PRON PART NOUN	-0.7537472
-1.296186	SCONJ PART NOUN	-0.42426997
-1.0565542	NUM PART NOUN	-0.38508072
-0.7312651	X PART NOUN	-0.30045354
-0.7578001	INTJ PART NOUN	-0.2893156
-1.1395437	<s> SCONJ NOUN	-1.2169363
-1.0416876	PROPN SCONJ NOUN	-0.93989176
-1.1436867	ADP SCONJ NOUN	-0.70010877
-1.3417499	DET SCONJ NOUN	-0.29373655
-1.1113669	NOUN SCONJ NOUN	-1.5564461
-1.0997101	AUX SCONJ NOUN	-0.84415317
-1.104061	VERB SCONJ NOUN	-1.7310346
-1.0950902	CCONJ SCONJ NOUN	-0.9057862
-1.0330942	ADV SCONJ NOUN	-1.2270737
-1.0836822	ADJ SCONJ NOUN	-1.44118
-1.0506587	PUNCT SCONJ NOUN	-1.3879157
-0.96059346	PRON SCONJ NOUN	-0.92592674
-1.2602782	PART SCONJ NOUN	-0.2903854
-0.9493509	SCONJ SCONJ NOUN	-0.9396041
-1.1107118	NUM SCONJ NOUN	-0.2923804
-0.8534804	<s> SYM NOUN	-0.33795446
-0.7198704	PROPN SYM NOUN	-0.45098782
-0.7323861	ADP SYM NOUN	-0.5725669
-0.65057826	DET SYM NOUN	-0.58752424
-0.61034375	NOUN SYM NOUN	-1.1076608
-1.0184419	AUX SYM NOUN	-0.2893156
-0.7459158	VERB SYM NOUN	-0.36196703
-0.8394595	CCONJ SYM NOUN	-0.5551095
-0.8979817	ADV SYM NOUN	-0.2948489
-0.80951726	ADJ SYM NOUN	-0.48986492
-0.68393165	PUNCT SYM NOUN	-0.7813073
-1.1121106	PRON SYM NOUN	-0.30045354
-0.9715326	PART SYM NOUN	-0.2893156
-0.86580133	SCONJ SYM NOUN	-0.29564512
-0.700422	NUM SYM NOUN	-0.40713817
-0.62187463	INTJ SYM NOUN	-0.2893156
-0.3626103	<s> NUM NOUN	-1.5323052
-1.1456994	PROPN NUM NOUN	-1.2187926
-1.1249992	ADP NUM NOUN	-2.137762
-0.9335957	DET NUM NOUN	-1.914755
-0.9556779	NOUN NUM NOUN	-1.1592742
-0.8823168	AUX NUM NOUN	-1.4173642
-1.0358449	VERB NUM NOUN	-1.7822251
-0.9258598	CCONJ NUM NOUN	-1.4102433
-0.911004	ADV NUM NOUN	-1.7636453
-0.9054891	ADJ NUM NOUN	-1.5689383
-0.9613114	PUNCT NUM NOUN	-1.686042
-0.75005287	PRON NUM NOUN	-0.6860951
-0.7837948	PART NUM NOUN	-1.1703638
-0.9103211	SCONJ NUM NOUN	-1.7032938
-0.9254092	SYM NUM NOUN	-1.0895722
-0.9530551	NUM NUM NOUN	-1.5078932
-0.2951656	X NUM NOUN	-0.2870805
-0.42693987	INTJ NUM NOUN	-0.2893156
-1.8653218	<s> X NOUN	-0.2902664
-0.89442015	PROPN X NOUN	-0.37389728
-0.8316471	ADP X NOUN	-0.54057324
-1.0369056	DET X NOUN	-0.2929966
-1.2961639	NOUN X NOUN	-0.2866349
-1.2785457	VERB X NOUN	-0.2893156
-1.0460869	ADV X NOUN	-0.2893156
-0.7601267	ADJ X NOUN	-0.29373655
-0.98694026	PUNCT X NOUN	-0.6103744
-1.0549264	PRON X NOUN	-0.2893156
-1.1850513	SYM X NOUN	-0.2893156
-0.88125867	X X NOUN	-0.51525563
-1.781796	<s> INTJ NOUN	-0.2905384
-1.1181062	PROPN INTJ NOUN	-0.2893156
-1.1121984	ADP INTJ NOUN	-0.2893156
-0.7806537	DET INTJ NOUN	-0.2967091
-1.0988897	VERB INTJ NOUN	-0.28596726
-1.3298732	ADV INTJ NOUN	-0.2893156
-1.1604439	PUNCT INTJ NOUN	-0.4186543
-1.0835944	PRON INTJ NOUN	-0.2893156
-0.77246475	PART INTJ NOUN	-0.2893156
-1.0728176	INTJ INTJ NOUN	-0.2893156
-1.0947373	<s> PROPN AUX	-1.8721546
-1.211573	PROPN PROPN AUX	-2.2247114
-1.2198489	ADP PROPN AUX	-1.9035689
-1.1320966	DET PROPN AUX	-1.6549971
-1.1810681	NOUN PROPN AUX	-1.2788615
-1.1426711	AUX PROPN AUX	-0.37384963
-1.1758482	VERB PROPN AUX	-1.1586335
-1.1043818	CCONJ PROPN AUX	-1.4398797
-1.0066103	ADV PROPN AUX	-1.0930823
-1.1387744	ADJ PROPN AUX	-1.2223225
-1.1566943	PUNCT PROPN AUX	-1.8021637
-0.88935935	PRON PROPN AUX	-0.6162603
-1.2227929	PART PROPN AUX	-0.73432267
-1.075773	SCONJ PROPN AUX	-1.6532917
-1.1798182	SYM PROPN AUX	-0.68206334
-1.0870258	NUM PROPN AUX	-0.7434017
-1.4356288	X PROPN AUX	-0.29373655
-1.3444656	INTJ PROPN AUX	-0.29246888
-2.7017748	<s> ADP AUX	-0.5886813
-1.5261955	PROPN ADP AUX	-0.5193988
-1.7697442	ADP ADP AUX	-0.29564512
-1.8420204	DET ADP AUX	-0.2893156
-1.2643099	NOUN ADP AUX	-1.2161468
-1.89515	AUX ADP AUX	-0.30045354
-1.310028	VERB ADP AUX	-1.003082
-1.6808488	CCONJ ADP AUX	-0.29315
-1.2299334	ADV ADP AUX	-0.67695194
-1.255284	ADJ ADP AUX	-0.59978265
-1.3619497	PUNCT ADP AUX	-0.67911357
-1.8255308	PRON ADP AUX	-0.40713817
-1.9202582	SCONJ ADP AUX	-0.2893156
-1.2671257	SYM ADP AUX	-0.2893156
-1.5118158	NUM ADP AUX	-0.52900535
-1.2393324	<s> DET AUX	-1.8002273
-0.9747344	PROPN DET AUX	-1.0849614
-1.2914853	ADP DET AUX	-0.9522633
-1.0184536	DET DET AUX	-0.8190143
-0.9989483	NOUN DET AUX	-1.9370489
-1.348094	AUX DET AUX	-0.49075487
-1.2407722	VERB DET AUX	-0.9646874
-1.0919188	CCONJ DET AUX	-1.2945757
-1.131951	ADV DET AUX	-0.8672123
-0.9637567	ADJ DET AUX	-0.4466687
-1.0770999	PUNCT DET AUX	-1.9173083
-0.9704509	PRON DET AUX	-0.8062482
-1.1350613	PART DET AUX	-0.29411772
-1.1281092	SCONJ DET AUX	-1.2248195
-1.130571	NUM DET AUX	-0.4782236
-0.9817461	X DET AUX	-0.2948489
-0.9586636	INTJ DET AUX	-0.34853035
-0.92313915	<s> NOUN AUX	-1.7132099
-1.1662651	PROPN NOUN AUX	-1.7646592
-1.1960789	ADP NOUN AUX	-1.8083435
-1.1618874	DET NOUN AUX	-2.6371467
-1.1995606	NOUN NOUN AUX	-2.2368395
-1.3442913	AUX NOUN AUX	-0.42080927
-1.2321756	VERB NOUN AUX	-1.5149236
-1.0936078	CCONJ NOUN AUX	-1.7206663
-1.1145729	ADV NOUN AUX	-1.3536733
-1.174901	ADJ NOUN AUX	-2.4397497
-1.1351136	PUNCT NOUN AUX	-1.7226692
-0.92506605	PRON NOUN AUX	-0.60869193
-1.1495011	PART NOUN AUX	-1.6280663
-1.0681047	SCONJ NOUN AUX	-1.5066054
-1.1536678	SYM NOUN AUX	-0.3110768
-1.2231661	NUM NOUN AUX	-1.6794701
-1.2228122	X NOUN AUX	-0.2893156
-1.2371062	INTJ NOUN AUX	-0.2893156
-2.194977	<s> AUX AUX	-0.29246888
-1.1327323	PROPN AUX AUX	-1.6704116
-1.6331854	ADP AUX AUX	-0.2893156
-1.1736832	DET AUX AUX	-1.4082662
-1.1552763	NOUN AUX AUX	-2.0128853
-1.5128767	AUX AUX AUX	-0.2948489
-1.129241	VERB AUX AUX	-1.248189
-1.1443868	CCONJ AUX AUX	-1.0046653
-1.1660366	ADV AUX AUX	-0.7713597
-0.97763765	ADJ AUX AUX	-0.764911
-1.1494596	PUNCT AUX AUX	-1.4363093
-1.1583923	PRON AUX AUX	-1.7480029
-1.3732361	PART AUX AUX	-0.9014221
-1.2258399	SCONJ AUX AUX	-0.8077356
-0.7681758	SYM AUX AUX	-0.2893156
-0.9984672	NUM AUX AUX	-0.8798907
-1.120295	X AUX AUX	-0.2893156
-2.0733736	<s> VERB AUX	-0.5646641
-1.2123893	PROPN VERB AUX	-1.5293546
-1.3595679	ADP VERB AUX	-0.5642314
-1.1633296	DET VERB AUX	-1.4403038
-1.2157046	NOUN VERB AUX	-2.0982533
-1.3368144	AUX VERB AUX	-0.9711544
-1.2090536	VERB VERB AUX	-0.88562727
-1.2086452	CCONJ VERB AUX	-1.0029356
-1.1911247	ADV VERB AUX	-0.89652324
-1.1495073	ADJ VERB AUX	-0.7167113
-1.2111586	PUNCT VERB AUX	-1.2171052
-1.1943092	PRON VERB AUX	-2.047565
-1.3440228	PART VERB AUX	-0.8644425
-1.3691136	SCONJ VERB AUX	-0.55032194
-1.1335741	NUM VERB AUX	-0.7996731
-1.3696553	X VERB AUX	-0.2893156
-1.6104419	INTJ VERB AUX	-0.2893156
-1.7177842	<s> CCONJ AUX	-0.7861273
-1.1496694	PROPN CCONJ AUX	-1.125961
-1.6549567	ADP CCONJ AUX	-0.33413306
-1.3092415	DET CCONJ AUX	-0.28739914
-1.259251	NOUN CCONJ AUX	-1.6362789
-1.1112746	AUX CCONJ AUX	-0.47792682
-1.1551745	VERB CCONJ AUX	-1.054419
-1.193511	CCONJ CCONJ AUX	-0.2893156
-1.1231375	ADV CCONJ AUX	-0.7944998
-1.2315389	ADJ CCONJ AUX	-0.76339155
-1.2194582	PUNCT CCONJ AUX	-1.5714253
-1.2537012	PRON CCONJ AUX	-0.59841615
-1.074337	PART CCONJ AUX	-0.2948489
-1.2301368	NUM CCONJ AUX	-0.5905738
-1.0465113	<s> ADV AUX	-1.6660087
-1.1183014	PROPN ADV AUX	-0.98783946
-1.228246	ADP ADV AUX	-0.3858177
-1.1300105	DET ADV AUX	-0.66858995
-1.1665084	NOUN ADV AUX	-1.3156561
-1.217652	AUX ADV AUX	-1.5504847
-1.1849105	VERB ADV AUX	-1.5968822
-1.097826	CCONJ ADV AUX	-1.1292034
-1.1771367	ADV ADV AUX	-1.0738429
-1.2535613	ADJ ADV AUX	-0.28596726
-1.1399323	PUNCT ADV AUX	-1.3894873
-0.962786	PRON ADV AUX	-1.4190797
-1.0712798	PART ADV AUX	-0.98346394
-1.1897907	SCONJ ADV AUX	-0.45702142
-1.1264323	SYM ADV AUX	-0.2893156
-1.3459277	NUM ADV AUX	-0.2929966
-1.105842	X ADV AUX	-0.2893156
-1.3312225	INTJ ADV AUX	-0.30045354
-1.7529289	<s> ADJ AUX	-0.7810824
-1.4891785	PROPN ADJ AUX	-0.2893156
-1.3520505	ADP ADJ AUX	-0.5440947
-1.3178791	DET ADJ AUX	-0.93416697
-1.208655	NOUN ADJ AUX	-0.45098782
-1.3885441	AUX ADJ AUX	-0.66023725
-1.2806466	VERB ADJ AUX	-0.5294296
-1.3577994	CCONJ ADJ AUX	-0.7449597
-1.2458634	ADV ADJ AUX	-0.9129322
-1.2930816	ADJ ADJ AUX	-0.34155923
-1.3414154	PUNCT ADJ AUX	-0.7224196
-1.1343768	PRON ADJ AUX	-0.5749443
-1.3476702	PART ADJ AUX	-0.3646516
-1.2114229	SCONJ ADJ AUX	-0.53258187
-1.4710234	SYM ADJ AUX	-0.2893156
-1.7007583	NUM ADJ AUX	-0.29074255
-1.266093	INTJ ADJ AUX	-0.2893156
-1.7517349	<s> PUNCT AUX	-0.8196281
-1.2167971	PROPN PUNCT AUX	-1.9016958
-1.4424626	ADP PUNCT AUX	-0.44842786
-1.3002543	DET PUNCT AUX	-0.47848684
-1.2153274	NOUN PUNCT AUX	-1.9746307
-1.2612449	AUX PUNCT AUX	-0.47198978
-1.279754	VERB PUNCT AUX	-1.0555202
-1.5841694	CCONJ PUNCT AUX	-0.3686947
-1.2885346	ADV PUNCT AUX	-1.1479607
-1.2631124	ADJ PUNCT AUX	-0.9178613
-1.2248901	PUNCT PUNCT AUX	-1.1986408
-1.2587341	PRON PUNCT AUX	-0.77074456
-1.19983	PART PUNCT AUX	-0.45441702
-1.5934123	SCONJ PUNCT AUX	-0.29315
-1.2893422	NUM PUNCT AUX	-1.1272427
-1.2322013	X PUNCT AUX	-0.4929461
-1.3728858	INTJ PUNCT AUX	-0.37232828
-0.3744774	<s> PRON AUX	-2.4880667
-0.77948385	PROPN PRON AUX	-1.39917
-1.1270059	ADP PRON AUX	-1.5979439
-0.7909873	DET PRON AUX	-1.4724627
-0.8715635	NOUN PRON AUX	-2.036903
-1.1212889	AUX PRON AUX	-1.0595894
-1.1702529	VERB PRON AUX	-1.8768009
-0.92620265	CCONJ PRON AUX	-1.9742546
-0.9130996	ADV PRON AUX	-1.9002004
-0.7129049	ADJ PRON AUX	-1.0758796
-1.0011334	PUNCT PRON AUX	-2.4518929
-0.76257807	PRON PRON AUX	-1.4518384
-0.8415968	PART PRON AUX	-0.73983943
-0.93937784	SCONJ PRON AUX	-2.307398
-0.9047499	SYM PRON AUX	-0.29764214
-0.5953166	NUM PRON AUX	-0.5960704
-0.79658407	X PRON AUX	-0.29246888
-0.57962567	INTJ PRON AUX	-0.58682173
-1.0471299	<s> PART AUX	-0.7812876
-1.1037726	PROPN PART AUX	-1.0476246
-0.96525687	ADP PART AUX	-0.80290014
-0.8014662	DET PART AUX	-0.34756833
-1.0263053	NOUN PART AUX	-1.7053362
-0.9834671	AUX PART AUX	-1.7419674
-0.94812757	VERB PART AUX	-2.1458235
-1.0244527	CCONJ PART AUX	-0.7055971
-0.8407045	ADV PART AUX	-1.0932798
-0.81266505	ADJ PART AUX	-1.3455547
-0.9704132	PUNCT PART AUX	-0.8194106
-0.82951444	PRON PART AUX	-1.2201514
-0.5720064	PART PART AUX	-0.715319
-1.1081389	SCONJ PART AUX	-0.50204384
-1.1388322	NUM PART AUX	-0.36800733
-0.9409986	X PART AUX	-0.2893156
-2.268484	<s> SCONJ AUX	-0.41445717
-1.3497553	PROPN SCONJ AUX	-0.29246888
-1.5133163	ADP SCONJ AUX	-0.2893156
-1.3947852	DET SCONJ AUX	-0.2893156
-1.3005233	NOUN SCONJ AUX	-0.5697415
-1.407121	AUX SCONJ AUX	-0.8925984
-1.5241396	VERB SCONJ AUX	-0.47058582
-1.4078363	CCONJ SCONJ AUX	-0.29102847
-1.4013983	ADV SCONJ AUX	-0.35015595
-1.5296928	ADJ SCONJ AUX	-0.36581615
-1.2795787	PUNCT SCONJ AUX	-0.72419196
-1.5109601	PRON SCONJ AUX	-0.2905384
-1.4481939	PART SCONJ AUX	-0.2893156
-1.7246958	SCONJ SCONJ AUX	-0.2893156
-1.531963	NUM SCONJ AUX	-0.2893156
-1.7876333	ADP SYM AUX	-0.2893156
-1.4080343	AUX SYM AUX	-0.2893156
-1.7881233	VERB SYM AUX	-0.2893156
-1.7037022	NUM SYM AUX	-0.2893156
-1.7008805	<s> NUM AUX	-0.5795381
-1.1910801	PROPN NUM AUX	-0.91829354
-1.1965287	ADP NUM AUX	-0.6400774
-1.2811888	DET NUM AUX	-0.56748325
-1.2427527	NOUN NUM AUX	-0.5795381
-1.7571586	VERB NUM AUX	-0.2893156
-1.2087013	CCONJ NUM AUX	-0.46424636
-1.1105356	ADV NUM AUX	-0.48841122
-1.375032	ADJ NUM AUX	-0.38645384
-1.2019715	PUNCT NUM AUX	-0.783083
-1.1380329	PRON NUM AUX	-0.2893156
-1.239195	PART NUM AUX	-0.29373655
-1.1359197	SCONJ NUM AUX	-0.5541148
-1.5249393	SYM NUM AUX	-0.2967091
-1.1418184	NUM NUM AUX	-0.40441254
-2.6809738	<s> X AUX	-0.2893156
-1.6424035	ADP X AUX	-0.2893156
-1.3583883	DET X AUX	-0.2967091
-1.5983973	NOUN X AUX	-0.2893156
-1.2805822	CCONJ X AUX	-0.30045354
-1.5727372	PUNCT X AUX	-0.2929966
-1.7136543	X X AUX	-0.2893156
-1.497281	<s> INTJ AUX	-0.51457715
-1.3452737	PROPN INTJ AUX	-0.2893156
-1.3888618	NOUN INTJ AUX	-0.2893156
-1.1521729	AUX INTJ AUX	-0.2893156
-1.3445885	VERB INTJ AUX	-0.2893156
-1.2682238	CCONJ INTJ AUX	-0.2893156
-1.1404893	ADV INTJ AUX	-0.28596726
-1.1689389	PUNCT INTJ AUX	-0.5337806
-0.9644522	X INTJ AUX	-0.2893156
-0.90531814	<s> PROPN VERB	-2.004008
-1.209141	PROPN PROPN VERB	-2.473056
-1.1631789	ADP PROPN VERB	-1.9843694
-1.1296082	DET PROPN VERB	-1.7581005
-1.1206962	NOUN PROPN VERB	-1.4701163
-1.2268487	AUX PROPN VERB	-0.7361024
-1.1733596	VERB PROPN VERB	-1.2924087
-1.1870412	CCONJ PROPN VERB	-1.398242
-1.0664963	ADV PROPN VERB	-1.1556643
-1.1082869	ADJ PROPN VERB	-1.3657582
-1.1542623	PUNCT PROPN VERB	-1.9582397
-0.85107994	PRON PROPN VERB	-0.7095406
-1.0071493	PART PROPN VERB	-0.80940914
-1.0730313	SCONJ PROPN VERB	-1.498447
-1.1043913	SYM PROPN VERB	-0.7381368
-1.0843288	NUM PROPN VERB	-0.70409715
-1.4240214	X PROPN VERB	-0.3266302
-1.1045287	INTJ PROPN VERB	-0.32479063
-0.22948737	SPACE PROPN VERB	-0.2893156
-1.5349736	<s> ADP VERB	-1.177971
-1.0858246	PROPN ADP VERB	-1.3200111
-1.1907319	ADP ADP VERB	-0.69239867
-1.2174435	DET ADP VERB	-0.48134652
-1.1715866	NOUN ADP VERB	-2.285309
-1.1381673	AUX ADP VERB	-0.8643359
-1.2108947	VERB ADP VERB	-1.9039105
-1.1450689	CCONJ ADP VERB	-0.90357023
-1.1143918	ADV ADP VERB	-1.3674058
-1.1397425	ADJ ADP VERB	-1.4448357
-1.1009885	PUNCT ADP VERB	-1.3030438
-1.1719166	PRON ADP VERB	-1.1267083
-1.1459155	PART ADP VERB	-0.48430204
-1.2114793	SCONJ ADP VERB	-0.5972095
-1.2295092	SYM ADP VERB	-0.2893156
-1.0969869	NUM ADP VERB	-0.5972095
-0.99276316	X ADP VERB	-0.2893156
-1.3921397	INTJ ADP VERB	-0.2893156
-1.4441485	<s> DET VERB	-1.5950949
-0.9443065	PROPN DET VERB	-1.2093823
-1.1317182	ADP DET VERB	-1.898955
-1.0184536	DET DET VERB	-0.7984963
-0.9989483	NOUN DET VERB	-2.168551
-1.1088426	AUX DET VERB	-1.2257333
-1.1519018	VERB DET VERB	-1.5613322
-1.0573169	CCONJ DET VERB	-1.2976019
-1.0651548	ADV DET VERB	-0.97601706
-0.9637567	ADJ DET VERB	-0.453533
-1.0770999	PUNCT DET VERB	-1.9680326
-0.9023174	PRON DET VERB	-1.2015196
-1.0737439	PART DET VERB	-0.4120979
-1.066421	SCONJ DET VERB	-1.278404
-0.8123845	NUM DET VERB	-0.4652021
-1.1489903	X DET VERB	-0.298203
-1.1974756	INTJ DET VERB	-0.2893156
-0.7875162	<s> NOUN VERB	-1.7900069
-1.1662651	PROPN NOUN VERB	-1.8894379
-1.1960789	ADP NOUN VERB	-2.0432017
-1.2126918	DET NOUN VERB	-2.739343
-1.174901	NOUN NOUN VERB	-2.27873
-1.0993866	AUX NOUN VERB	-1.0496991
-1.2043557	VERB NOUN VERB	-1.7750789
-1.0936078	CCONJ NOUN VERB	-1.7515217
-1.051996	ADV NOUN VERB	-1.3886517
-1.1995606	ADJ NOUN VERB	-2.5443983
-1.1351136	PUNCT NOUN VERB	-1.8276484
-0.8896354	PRON NOUN VERB	-0.73730034
-1.1034051	PART NOUN VERB	-1.5592347
-1.1353933	SCONJ NOUN VERB	-1.5367203
-1.101671	SYM NOUN VERB	-0.3984352
-1.1690601	NUM NOUN VERB	-1.7046661
-1.2228122	X NOUN VERB	-0.2893156
-1.378093	INTJ NOUN VERB	-0.2893156
-1.4051694	<s> AUX VERB	-0.5513677
-1.0819774	PROPN AUX VERB	-2.2513301
-0.8189177	ADP AUX VERB	-1.1604403
-1.0772537	DET AUX VERB	-1.8775758
-1.1293033	NOUN AUX VERB	-2.650923
-0.90500885	AUX AUX VERB	-2.1946676
-1.039037	VERB AUX VERB	-2.1188188
-1.0172504	CCONJ AUX VERB	-1.5473508
-1.1340883	ADV AUX VERB	-1.6577303
-0.97763765	ADJ AUX VERB	-1.0455
-1.0586563	PUNCT AUX VERB	-1.8852756
-1.1077753	PRON AUX VERB	-2.4279242
-1.0166737	PART AUX VERB	-1.9438252
-0.9557222	SCONJ AUX VERB	-0.8266452
-0.9301559	NUM AUX VERB	-0.98084056
-0.8644127	X AUX VERB	-0.2893156
-0.92055774	INTJ AUX VERB	-0.3749745
-1.6646477	<s> VERB VERB	-0.7244995
-1.2097607	PROPN VERB VERB	-1.7262225
-1.2677119	ADP VERB VERB	-0.86991376
-1.1606882	DET VERB VERB	-1.6360189
-1.2130759	NOUN VERB VERB	-2.1923368
-1.2291172	AUX VERB VERB	-1.3279061
-1.2061139	VERB VERB VERB	-1.3756014
-1.2052675	CCONJ VERB VERB	-1.3133024
-1.160476	ADV VERB VERB	-1.2690626
-1.1140751	ADJ VERB VERB	-0.6539471
-1.1543429	PUNCT VERB VERB	-1.4324124
-1.167155	PRON VERB VERB	-2.2928076
-1.2065717	PART VERB VERB	-1.4807954
-1.2518682	SCONJ VERB VERB	-0.5328359
-1.2891518	SYM VERB VERB	-0.2893156
-1.2584528	NUM VERB VERB	-0.56805104
-1.3017995	X VERB VERB	-0.2967091
-1.1690941	INTJ VERB VERB	-0.2923804
-1.3066103	<s> CCONJ VERB	-1.0485384
-1.1128083	PROPN CCONJ VERB	-1.5960866
-1.0723894	ADP CCONJ VERB	-1.1097679
-0.9660556	DET CCONJ VERB	-0.4493839
-1.1336285	NOUN CCONJ VERB	-2.3019807
-0.86075264	AUX CCONJ VERB	-0.49880362
-1.0553719	VERB CCONJ VERB	-2.0286715
-0.80347407	CCONJ CCONJ VERB	-0.2903854
-1.0735158	ADV CCONJ VERB	-1.2333908
-1.0578378	ADJ CCONJ VERB	-1.4148756
-1.1520684	PUNCT CCONJ VERB	-1.9959065
-1.0546678	PRON CCONJ VERB	-1.2050685
-0.84866923	PART CCONJ VERB	-0.38051015
-1.2311573	SCONJ CCONJ VERB	-0.2893156
-0.77203226	SYM CCONJ VERB	-0.2893156
-0.9688406	NUM CCONJ VERB	-0.7625003
-0.949581	X CCONJ VERB	-0.2929966
-1.2517743	<s> ADV VERB	-1.4051687
-1.036409	PROPN ADV VERB	-1.8033708
-1.0687724	ADP ADV VERB	-1.2617924
-0.96731466	DET ADV VERB	-1.6319544
-1.14138	NOUN ADV VERB	-2.0347447
-1.095784	AUX ADV VERB	-2.329871
-1.159452	VERB ADV VERB	-1.8937621
-1.0685381	CCONJ ADV VERB	-1.7630799
-1.1221526	ADV ADV VERB	-1.6223032
-1.0956663	ADJ ADV VERB	-0.8681252
-1.1175832	PUNCT ADV VERB	-1.8019084
-0.8853665	PRON ADV VERB	-2.0469685
-0.97522956	PART ADV VERB	-1.7349093
-1.1046429	SCONJ ADV VERB	-0.9187691
-0.92149496	NUM ADV VERB	-0.58245677
-1.1143069	X ADV VERB	-0.2967091
-0.8693866	INTJ ADV VERB	-0.34853035
-1.6529027	<s> ADJ VERB	-0.81714565
-1.1282426	PROPN ADJ VERB	-0.3828773
-1.1033605	ADP ADJ VERB	-0.91217655
-1.175498	DET ADJ VERB	-1.2721726
-1.1744354	NOUN ADJ VERB	-0.6208464
-1.2549578	AUX ADJ VERB	-0.884124
-1.2121906	VERB ADJ VERB	-0.7349845
-1.1831524	CCONJ ADJ VERB	-0.7008457
-1.214255	ADV ADJ VERB	-0.80279034
-0.99160457	ADJ ADJ VERB	-0.85249615
-1.1860583	PUNCT ADJ VERB	-0.77657765
-0.9961165	PRON ADJ VERB	-0.48795027
-1.0808611	PART ADJ VERB	-0.5381522
-1.0746893	SCONJ ADJ VERB	-0.41404957
-1.3549477	SYM ADJ VERB	-0.2893156
-1.1876642	NUM ADJ VERB	-0.54014385
-1.244032	<s> PUNCT VERB	-1.093466
-1.2167971	PROPN PUNCT VERB	-2.323206
-1.1103997	ADP PUNCT VERB	-1.0914867
-1.1859872	DET PUNCT VERB	-0.9136319
-1.2153274	NOUN PUNCT VERB	-2.527837
-1.1810626	AUX PUNCT VERB	-0.9823422
-1.249724	VERB PUNCT VERB	-1.7095379
-1.0909939	CCONJ PUNCT VERB	-0.81008035
-1.1717753	ADV PUNCT VERB	-1.8327816
-1.2049953	ADJ PUNCT VERB	-1.3965664
-1.1736403	PUNCT PUNCT VERB	-1.7194527
-1.1537255	PRON PUNCT VERB	-1.1977377
-1.0039629	PART PUNCT VERB	-1.1336056
-1.1090741	SCONJ PUNCT VERB	-0.7764014
-1.2222284	NUM PUNCT VERB	-1.3899848
-1.1808537	X PUNCT VERB	-0.7511481
-1.2213094	INTJ PUNCT VERB	-0.62744725
-0.3240821	<s> PRON VERB	-2.4668903
-0.75280684	PROPN PRON VERB	-1.4412041
-1.0995132	ADP PRON VERB	-1.6646371
-0.7320258	DET PRON VERB	-1.7087997
-0.8466485	NOUN PRON VERB	-2.1926665
-1.0548617	AUX PRON VERB	-1.580445
-1.1444738	VERB PRON VERB	-1.9909507
-0.8681546	CCONJ PRON VERB	-1.9913107
-0.9130996	ADV PRON VERB	-2.1073024
-0.74618024	ADJ PRON VERB	-1.0348741
-1.0011334	PUNCT PRON VERB	-2.4528642
-0.70388013	PRON PRON VERB	-1.7004114
-0.95379126	PART PRON VERB	-0.8377074
-0.9654977	SCONJ PRON VERB	-2.2120662
-0.47757658	SYM PRON VERB	-0.3090779
-0.5953166	NUM PRON VERB	-0.62796617
-0.6669633	X PRON VERB	-0.2893156
-0.46829548	INTJ PRON VERB	-0.4405718
-0.2855542	<s> PART VERB	-1.236454
-0.98353875	PROPN PART VERB	-1.8582823
-0.64436555	ADP PART VERB	-1.2405638
-0.6092164	DET PART VERB	-0.7247042
-0.9372959	NOUN PART VERB	-2.5901694
-0.94955707	AUX PART VERB	-2.3756452
-0.9164189	VERB PART VERB	-2.645609
-0.8729942	CCONJ PART VERB	-1.3838252
-0.78111434	ADV PART VERB	-1.7283973
-0.68898135	ADJ PART VERB	-2.0924745
-0.85641927	PUNCT PART VERB	-1.6199081
-0.70520335	PRON PART VERB	-1.6511251
-0.4896423	PART PART VERB	-1.3099505
-0.78929436	SCONJ PART VERB	-0.9251415
-0.22217779	SYM PART VERB	-0.2893156
-0.7064498	NUM PART VERB	-0.85313123
-0.7213663	X PART VERB	-0.29373655
-0.51802266	INTJ PART VERB	-0.30045354
-1.3629386	<s> SCONJ VERB	-1.0968148
-1.1179878	PROPN SCONJ VERB	-0.7748693
-1.4971752	ADP SCONJ VERB	-0.41520512
-1.3283716	DET SCONJ VERB	-0.29564512
-1.1392136	NOUN SCONJ VERB	-1.2675072
-1.0537511	AUX SCONJ VERB	-0.79554313
-1.1579149	VERB SCONJ VERB	-1.1795624
-1.2975909	CCONJ SCONJ VERB	-0.3929959
-1.1336002	ADV SCONJ VERB	-1.0331558
-1.112125	ADJ SCONJ VERB	-0.918068
-1.0737425	PUNCT SCONJ VERB	-1.2259109
-1.2170227	PRON SCONJ VERB	-0.46296883
-1.2488761	PART SCONJ VERB	-0.2967091
-1.0898416	SCONJ SCONJ VERB	-0.36220205
-1.3533297	NUM SCONJ VERB	-0.2929966
-1.030877	X SCONJ VERB	-0.2893156
-1.9145167	<s> SYM VERB	-0.2893156
-1.1194134	PROPN SYM VERB	-0.29246888
-1.2276624	ADP SYM VERB	-0.2929966
-1.1369468	NOUN SYM VERB	-0.2967091
-0.81503564	VERB SYM VERB	-0.39722744
-1.3683559	ADV SYM VERB	-0.2893156
-1.292095	ADJ SYM VERB	-0.2893156
-1.3685963	PUNCT SYM VERB	-0.29373655
-1.0329412	PART SYM VERB	-0.30045354
-1.4895089	NUM SYM VERB	-0.2893156
-0.65260905	INTJ SYM VERB	-0.2893156
-1.7813097	<s> NUM VERB	-0.39051643
-1.1525918	PROPN NUM VERB	-0.8520084
-1.1608996	ADP NUM VERB	-0.8884516
-1.1173854	DET NUM VERB	-0.725603
-1.0972518	NOUN NUM VERB	-0.5535346
-1.1664319	AUX NUM VERB	-0.6454179
-1.1387224	VERB NUM VERB	-0.44926852
-1.0739043	CCONJ NUM VERB	-0.5464072
-1.1950207	ADV NUM VERB	-0.45735273
-1.2852592	ADJ NUM VERB	-0.39735478
-1.2435087	PUNCT NUM VERB	-0.6246195
-1.1275474	PRON NUM VERB	-0.2967091
-1.3814499	PART NUM VERB	-0.2967091
-1.1307272	SCONJ NUM VERB	-0.47965336
-1.1550046	SYM NUM VERB	-0.34245214
-1.0569017	NUM NUM VERB	-0.60859567
-1.7706589	<s> X VERB	-0.3337731
-1.2646021	PROPN X VERB	-0.29564512
-1.3707683	ADP X VERB	-0.2866349
-1.4269605	DET X VERB	-0.2893156
-1.030645	NOUN X VERB	-0.34853035
-1.2055501	VERB X VERB	-0.2929966
-1.1878835	CCONJ X VERB	-0.30045354
-1.2010317	ADV X VERB	-0.2893156
-1.2618937	ADJ X VERB	-0.2893156
-1.2275082	PUNCT X VERB	-0.2929966
-0.85214937	PRON X VERB	-0.30045354
-1.1092894	SCONJ X VERB	-0.2893156
-1.4418373	X X VERB	-0.2893156
-0.8568319	<s> INTJ VERB	-0.8200353
-0.890683	PROPN INTJ VERB	-0.28739914
-0.9794507	DET INTJ VERB	-0.2893156
-0.81312627	NOUN INTJ VERB	-0.35402733
-1.0382023	AUX INTJ VERB	-0.30045354
-1.1731343	VERB INTJ VERB	-0.2893156
-1.0982076	CCONJ INTJ VERB	-0.2967091
-0.8969774	ADV INTJ VERB	-0.36581615
-0.9066091	ADJ INTJ VERB	-0.2893156
-0.88680404	PUNCT INTJ VERB	-0.86140347
-0.5657095	PRON INTJ VERB	-0.3302188
-0.7309712	PART INTJ VERB	-0.2893156
-0.9727881	SCONJ INTJ VERB	-0.2893156
-0.5851968	NUM INTJ VERB	-0.2893156
-0.8845953	X INTJ VERB	-0.2893156
-0.99364984	INTJ INTJ VERB	-0.2893156
-1.8316175	<s> PROPN CCONJ	-1.3705008
-1.211573	PROPN PROPN CCONJ	-2.2611854
-1.1655217	ADP PROPN CCONJ	-2.1910787
-1.1601093	DET PROPN CCONJ	-1.65788
-1.247818	NOUN PROPN CCONJ	-1.110398
-1.1426711	AUX PROPN CCONJ	-0.7636155
-1.1758482	VERB PROPN CCONJ	-1.4098554
-1.0318855	CCONJ PROPN CCONJ	-1.2417837
-1.0066103	ADV PROPN CCONJ	-0.8530432
-1.1686589	ADJ PROPN CCONJ	-1.1786221
-1.1828971	PUNCT PROPN CCONJ	-1.7993942
-1.2051742	PRON PROPN CCONJ	-0.50123876
-1.1404432	PART PROPN CCONJ	-0.9937144
-1.1430193	SCONJ PROPN CCONJ	-1.1955055
-1.2210605	SYM PROPN CCONJ	-0.6823024
-1.1925017	NUM PROPN CCONJ	-0.7094546
-1.2961588	X PROPN CCONJ	-0.29564512
-1.2792789	INTJ PROPN CCONJ	-0.2948489
-3.4388616	<s> ADP CCONJ	-0.2948489
-1.3370194	PROPN ADP CCONJ	-0.4510342
-1.5590272	ADP ADP CCONJ	-0.2992018
-1.3499699	DET ADP CCONJ	-0.3965436
-1.228128	NOUN ADP CCONJ	-1.205258
-1.3404702	AUX ADP CCONJ	-0.29211658
-1.241492	VERB ADP CCONJ	-1.3003261
-1.4153761	CCONJ ADP CCONJ	-0.55624443
-1.4866639	ADV ADP CCONJ	-0.29002854
-1.3351339	ADJ ADP CCONJ	-0.45567277
-1.4604167	PUNCT ADP CCONJ	-0.5478219
-1.6352242	PRON ADP CCONJ	-0.554734
-1.669546	PART ADP CCONJ	-0.2893156
-1.4848717	SCONJ ADP CCONJ	-0.2929966
-1.2416896	SYM ADP CCONJ	-0.2893156
-1.8910861	NUM ADP CCONJ	-0.2893156
-1.3904753	X ADP CCONJ	-0.2893156
-3.3905776	<s> DET CCONJ	-0.44544038
-1.7648482	PROPN DET CCONJ	-0.2893156
-1.266488	ADP DET CCONJ	-0.69353503
-1.7155371	DET DET CCONJ	-0.2893156
-1.9469403	NOUN DET CCONJ	-0.2893156
-1.4932462	AUX DET CCONJ	-0.34628698
-1.2516907	VERB DET CCONJ	-0.5829967
-1.7327607	CCONJ DET CCONJ	-0.2948489
-1.775486	ADV DET CCONJ	-0.2948489
-1.8575879	PUNCT DET CCONJ	-0.2893156
-1.6929766	PRON DET CCONJ	-0.29564512
-1.7543378	PART DET CCONJ	-0.2893156
-1.564726	SCONJ DET CCONJ	-0.29564512
-1.5637751	NUM DET CCONJ	-0.2893156
-1.4045172	<s> NOUN CCONJ	-1.4233602
-1.1924098	PROPN NOUN CCONJ	-1.5762876
-1.1450597	ADP NOUN CCONJ	-2.3050137
-1.2126918	DET NOUN CCONJ	-2.484333
-1.2257053	NOUN NOUN CCONJ	-2.1926172
-1.1667475	AUX NOUN CCONJ	-1.0969379
-1.2321756	VERB NOUN CCONJ	-2.0237126
-1.1732962	CCONJ NOUN CCONJ	-1.3114078
-1.1496032	ADV NOUN CCONJ	-1.0793767
-1.1995606	ADJ NOUN CCONJ	-2.462222
-1.1613307	PUNCT NOUN CCONJ	-2.0157557
-1.3176285	PRON NOUN CCONJ	-0.66696775
-1.1495011	PART NOUN CCONJ	-1.437958
-1.0681047	SCONJ NOUN CCONJ	-1.2489816
-1.101671	SYM NOUN CCONJ	-0.559094
-1.1952711	NUM NOUN CCONJ	-1.5305876
-1.2228122	X NOUN CCONJ	-0.2929966
-1.2371062	INTJ NOUN CCONJ	-0.2893156
-1.3950361	PROPN AUX CCONJ	-0.35381913
-1.5805123	ADP AUX CCONJ	-0.2893156
-1.6795893	DET AUX CCONJ	-0.29246888
-1.370052	NOUN AUX CCONJ	-0.6320334
-1.4396391	AUX AUX CCONJ	-0.33711982
-1.6741629	VERB AUX CCONJ	-0.29613587
-1.841667	CCONJ AUX CCONJ	-0.2893156
-1.3916785	ADV AUX CCONJ	-0.37156168
-1.8748896	ADJ AUX CCONJ	-0.2893156
-1.8405219	PUNCT AUX CCONJ	-0.49075487
-1.2933769	PRON AUX CCONJ	-0.62728053
-1.6466277	PART AUX CCONJ	-0.3614213
-1.6826583	SCONJ AUX CCONJ	-0.2893156
-1.8363353	NUM AUX CCONJ	-0.2893156
-2.1944654	<s> VERB CCONJ	-0.97378
-1.1589139	PROPN VERB CCONJ	-1.1055897
-1.1626314	ADP VERB CCONJ	-1.1128349
-1.2228854	DET VERB CCONJ	-0.8473261
-1.2130759	NOUN VERB CCONJ	-1.3624855
-1.1993634	AUX VERB CCONJ	-1.6953824
-1.2381555	VERB VERB CCONJ	-1.1905311
-1.2842275	CCONJ VERB CCONJ	-0.8971004
-1.1883214	ADV VERB CCONJ	-1.2979609
-1.3627083	ADJ VERB CCONJ	-0.5220906
-1.238109	PUNCT VERB CCONJ	-1.3539346
-1.2458471	PRON VERB CCONJ	-1.2436924
-1.2065717	PART VERB CCONJ	-1.6754613
-1.2050788	SCONJ VERB CCONJ	-0.56634927
-1.2891518	SYM VERB CCONJ	-0.2893156
-1.37088	NUM VERB CCONJ	-0.28955904
-1.4714544	X VERB CCONJ	-0.2893156
-1.4814073	INTJ VERB CCONJ	-0.36581615
-3.3139784	<s> CCONJ CCONJ	-0.2893156
-2.1449165	PROPN CCONJ CCONJ	-0.2893156
-1.882972	ADP CCONJ CCONJ	-0.2893156
-1.5668657	NOUN CCONJ CCONJ	-0.29467168
-1.8975713	VERB CCONJ CCONJ	-0.2848569
-1.9872042	ADV CCONJ CCONJ	-0.2893156
-1.9664437	ADJ CCONJ CCONJ	-0.2893156
-1.5594097	PUNCT CCONJ CCONJ	-0.35585448
-1.9771414	NUM CCONJ CCONJ	-0.2893156
-2.675492	<s> ADV CCONJ	-0.83481055
-1.2302642	PROPN ADV CCONJ	-0.5401238
-1.235743	ADP ADV CCONJ	-0.7228195
-1.0976708	DET ADV CCONJ	-0.66069907
-1.2346629	NOUN ADV CCONJ	-1.2237395
-1.3046801	AUX ADV CCONJ	-0.8040574
-1.1903142	VERB ADV CCONJ	-1.4279407
-1.3185294	CCONJ ADV CCONJ	-0.74190474
-1.1831551	ADV ADV CCONJ	-0.81449455
-1.3148501	ADJ ADV CCONJ	-0.55180866
-1.2621435	PUNCT ADV CCONJ	-0.8782153
-1.3769807	PRON ADV CCONJ	-0.73684305
-1.4769012	PART ADV CCONJ	-0.5876649
-1.5704682	SCONJ ADV CCONJ	-0.49682066
-1.6068444	NUM ADV CCONJ	-0.2893156
-1.3617579	INTJ ADV CCONJ	-0.2893156
-1.7358972	<s> ADJ CCONJ	-1.0263739
-1.1240382	PROPN ADJ CCONJ	-0.49419743
-1.1289604	ADP ADJ CCONJ	-1.5840311
-1.1723976	DET ADJ CCONJ	-1.7539773
-1.1361616	NOUN ADJ CCONJ	-1.0104452
-1.0626822	AUX ADJ CCONJ	-1.5446466
-1.1192575	VERB ADJ CCONJ	-1.3696536
-1.0172218	CCONJ ADJ CCONJ	-1.0449357
-1.148801	ADV ADJ CCONJ	-1.5808467
-1.0173453	ADJ ADJ CCONJ	-1.3236362
-1.1208419	PUNCT ADJ CCONJ	-1.5664816
-1.4479179	PRON ADJ CCONJ	-0.7131357
-1.2188731	PART ADJ CCONJ	-0.91296977
-0.99774617	SCONJ ADJ CCONJ	-0.8676343
-1.3431203	SYM ADJ CCONJ	-0.2893156
-0.9639656	NUM ADJ CCONJ	-0.8000541
-1.3254883	X ADJ CCONJ	-0.2893156
-1.8107405	<s> PUNCT CCONJ	-0.64376634
-1.2392421	PROPN PUNCT CCONJ	-2.052586
-1.3282962	ADP PUNCT CCONJ	-0.96115047
-1.2961353	DET PUNCT CCONJ	-0.6686742
-1.2130376	NOUN PUNCT CCONJ	-2.4994555
-1.2157685	AUX PUNCT CCONJ	-0.75989866
-1.2768106	VERB PUNCT CCONJ	-1.691767
-1.3448399	CCONJ PUNCT CCONJ	-0.3516925
-1.19558	ADV PUNCT CCONJ	-1.5288024
-1.1761903	ADJ PUNCT CCONJ	-1.6807189
-1.2223142	PUNCT PUNCT CCONJ	-1.4676807
-1.1507821	PRON PUNCT CCONJ	-1.18644
-1.3068609	PART PUNCT CCONJ	-0.4942662
-1.4070443	SCONJ PUNCT CCONJ	-0.2967091
-1.352233	SYM PUNCT CCONJ	-0.2893156
-1.189451	NUM PUNCT CCONJ	-1.2704295
-1.2270544	X PUNCT CCONJ	-0.5124357
-1.1050149	INTJ PUNCT CCONJ	-0.52699006
-2.8628213	<s> PRON CCONJ	-0.5685139
-1.2337282	PROPN PRON CCONJ	-0.2870805
-1.1363249	ADP PRON CCONJ	-1.2514602
-1.5815986	DET PRON CCONJ	-0.2893156
-1.3466307	NOUN PRON CCONJ	-0.40276948
-1.2124559	AUX PRON CCONJ	-0.41124934
-1.2071874	VERB PRON CCONJ	-1.2883801
-1.2449361	CCONJ PRON CCONJ	-0.5081868
-1.154464	ADV PRON CCONJ	-0.48558554
-1.5303764	ADJ PRON CCONJ	-0.30045354
-1.2652509	PUNCT PRON CCONJ	-0.63886505
-1.4922094	PRON PRON CCONJ	-0.2893156
-1.3794376	PART PRON CCONJ	-0.2893156
-1.1383371	SCONJ PRON CCONJ	-0.6695376
-1.3641278	NUM PRON CCONJ	-0.2893156
-1.2138395	PROPN PART CCONJ	-0.8804362
-1.2113781	NOUN PART CCONJ	-0.4372121
-1.4422266	AUX PART CCONJ	-0.41568127
-1.3607075	VERB PART CCONJ	-0.4112768
-1.4028366	CCONJ PART CCONJ	-0.2870805
-1.7414765	ADV PART CCONJ	-0.2893156
-1.6849859	ADJ PART CCONJ	-0.30045354
-1.5030847	NUM PART CCONJ	-0.34853035
-2.831648	<s> SCONJ CCONJ	-0.52900535
-1.035334	ADP SCONJ CCONJ	-0.92256165
-1.5923362	NOUN SCONJ CCONJ	-0.440393
-1.7033051	AUX SCONJ CCONJ	-0.2893156
-1.3268809	VERB SCONJ CCONJ	-0.6228306
-1.661334	CCONJ SCONJ CCONJ	-0.2893156
-1.7715901	ADV SCONJ CCONJ	-0.2893156
-1.6770657	ADJ SCONJ CCONJ	-0.2903854
-1.8643552	PUNCT SCONJ CCONJ	-0.43715653
-1.7006541	PRON SCONJ CCONJ	-0.2893156
-1.6174518	NUM SCONJ CCONJ	-0.2893156
-2.194216	<s> SYM CCONJ	-0.2893156
-1.8606722	NOUN SYM CCONJ	-0.2893156
-1.7451755	NUM SYM CCONJ	-0.2893156
-2.3410738	<s> NUM CCONJ	-0.34853035
-1.1873009	PROPN NUM CCONJ	-0.94735533
-1.1309676	ADP NUM CCONJ	-1.2318509
-1.2752326	DET NUM CCONJ	-0.5269766
-1.0972518	NOUN NUM CCONJ	-0.47981745
-1.1138592	AUX NUM CCONJ	-0.52856076
-1.1387224	VERB NUM CCONJ	-0.64381176
-1.3836156	CCONJ NUM CCONJ	-0.2923804
-1.305967	ADV NUM CCONJ	-0.5337806
-1.1056966	ADJ NUM CCONJ	-0.4275531
-1.2948933	PUNCT NUM CCONJ	-0.5631821
-1.2764866	PRON NUM CCONJ	-0.2893156
-1.4377658	PART NUM CCONJ	-0.28596726
-1.3400352	SCONJ NUM CCONJ	-0.3699765
-1.3338435	SYM NUM CCONJ	-0.39560786
-1.137901	NUM NUM CCONJ	-0.46486303
-1.2746103	ADP X CCONJ	-0.28887063
-1.7353604	NOUN X CCONJ	-0.30045354
-1.092119	AUX X CCONJ	-0.2893156
-1.3763264	VERB X CCONJ	-0.2893156
-1.630489	PUNCT X CCONJ	-0.2948489
-0.97887444	SCONJ X CCONJ	-0.2967091
-1.5016562	X X CCONJ	-0.2967091
-2.1062562	<s> INTJ CCONJ	-0.2905384
-1.1712015	AUX INTJ CCONJ	-0.2893156
-1.1222016	VERB INTJ CCONJ	-0.2948489
-1.2881858	CCONJ INTJ CCONJ	-0.2893156
-1.3825215	ADV INTJ CCONJ	-0.2893156
-1.6463666	PUNCT INTJ CCONJ	-0.2893156
-1.1126511	PRON INTJ CCONJ	-0.30045354
-1.0732266	SCONJ INTJ CCONJ	-0.2893156
-1.7487761	<s> PROPN ADV	-1.4939662
-1.2403741	PROPN PROPN ADV	-1.5760958
-1.222519	ADP PROPN ADV	-1.4705315
-1.1929154	DET PROPN ADV	-1.1554354
-1.2891805	NOUN PROPN ADV	-0.7928556
-1.188304	AUX PROPN ADV	-0.47731674
-1.2366669	VERB PROPN ADV	-0.93830293
-1.2475697	CCONJ PROPN ADV	-0.9131295
-1.146055	ADV PROPN ADV	-0.49994716
-1.2387995	ADJ PROPN ADV	-0.7733669
-1.2757757	PUNCT PROPN ADV	-1.1008946
-1.297047	PRON PROPN ADV	-0.33847976
-1.333743	PART PROPN ADV	-0.53569144
-1.1845171	SCONJ PROPN ADV	-0.80163974
-1.4485954	SYM PROPN ADV	-0.4929461
-1.3368864	NUM PROPN ADV	-0.45374927
-1.3545742	INTJ PROPN ADV	-0.30045354
-1.7681949	<s> ADP ADV	-1.0677495
-1.246512	PROPN ADP ADV	-0.76976484
-1.1444622	ADP ADP ADV	-0.73996913
-1.1659273	DET ADP ADV	-0.41249192
-1.1975307	NOUN ADP ADV	-1.7495434
-1.1381673	AUX ADP ADV	-0.60438126
-1.2108947	VERB ADP ADV	-1.6435475
-1.0983615	CCONJ ADP ADV	-0.6941379
-1.1143918	ADV ADP ADV	-0.90639913
-1.2063682	ADJ ADP ADV	-0.79055774
-1.1009885	PUNCT ADP ADV	-0.99684066
-1.1191508	PRON ADP ADV	-0.7397623
-1.5421726	PART ADP ADV	-0.2893156
-0.9842072	SCONJ ADP ADV	-0.74643725
-1.2295092	SYM ADP ADV	-0.2893156
-1.2249163	NUM ADP ADV	-0.3971519
-1.3769121	X ADP ADV	-0.2893156
-1.3921397	INTJ ADP ADV	-0.2893156
-1.8617649	<s> DET ADV	-1.2976393
-1.0813762	PROPN DET ADV	-0.7546632
-1.1317182	ADP DET ADV	-1.8451538
-1.0919734	DET DET ADV	-0.7883921
-1.057574	NOUN DET ADV	-1.2563367
-1.0792176	AUX DET ADV	-1.6013193
-1.2090847	VERB DET ADV	-1.6282126
-1.1295183	CCONJ DET ADV	-0.9732592
-1.131951	ADV DET ADV	-1.192437
-1.0117095	ADJ DET ADV	-0.3614213
-1.0770999	PUNCT DET ADV	-1.4034156
-1.2105166	PRON DET ADV	-0.7372334
-1.1350613	PART DET ADV	-0.5906265
-1.066421	SCONJ DET ADV	-1.141638
-0.964131	SYM DET ADV	-0.2893156
-1.2168092	NUM DET ADV	-0.34539106
-0.9586636	INTJ DET ADV	-0.2967091
-1.7408699	<s> NOUN ADV	-1.1229068
-1.1924098	PROPN NOUN ADV	-1.2309815
-1.1698205	ADP NOUN ADV	-1.5966711
-1.1618874	DET NOUN ADV	-2.2441835
-1.2257053	NOUN NOUN ADV	-1.6721883
-1.2047998	AUX NOUN ADV	-0.6805629
-1.1782111	VERB NOUN ADV	-1.4702803
-1.2193922	CCONJ NOUN ADV	-1.2616093
-1.1496032	ADV NOUN ADV	-0.6999702
-1.2535253	ADJ NOUN ADV	-2.0174282
-1.1613307	PUNCT NOUN ADV	-1.1843746
-1.4199414	PRON NOUN ADV	-0.28951845
-1.1495011	PART NOUN ADV	-0.9827764
-1.2150536	SCONJ NOUN ADV	-0.8130692
-1.2811491	SYM NOUN ADV	-0.2901712
-1.1952711	NUM NOUN ADV	-1.6400632
-1.5837439	X NOUN ADV	-0.2893156
-1.378093	INTJ NOUN ADV	-0.2893156
-1.776224	<s> AUX ADV	-0.3687403
-1.1066138	PROPN AUX ADV	-1.9221704
-0.935469	ADP AUX ADV	-0.6190006
-1.0493453	DET AUX ADV	-1.722593
-1.1047964	NOUN AUX ADV	-2.3117468
-0.9632756	AUX AUX ADV	-1.3819075
-1.0670736	VERB AUX ADV	-1.4555897
-0.98198277	CCONJ AUX ADV	-1.368086
-1.1340883	ADV AUX ADV	-1.028246
-0.97763765	ADJ AUX ADV	-0.8160635
-1.0586563	PUNCT AUX ADV	-1.5024518
-1.1323469	PRON AUX ADV	-2.2406025
-1.0743917	PART AUX ADV	-1.4424047
-0.9557222	SCONJ AUX ADV	-0.5230251
-1.0371263	NUM AUX ADV	-0.6823024
-0.8644127	X AUX ADV	-0.2948489
-1.1652656	INTJ AUX ADV	-0.28596726
-1.4973787	<s> VERB ADV	-0.9015655
-1.1589139	PROPN VERB ADV	-1.5814271
-1.1626314	ADP VERB ADV	-1.0938073
-1.1606882	DET VERB ADV	-1.3553345
-1.2130759	NOUN VERB ADV	-1.998942
-1.171518	AUX VERB ADV	-1.9960077
-1.1762749	VERB VERB ADV	-1.4936532
-1.138479	CCONJ VERB ADV	-1.4334162
-1.2180752	ADV VERB ADV	-1.5139384
-1.182259	ADJ VERB ADV	-0.5607216
-1.1543429	PUNCT VERB ADV	-1.5375806
-1.1918347	PRON VERB ADV	-2.0158615
-1.2065717	PART VERB ADV	-1.8679297
-1.2518682	SCONJ VERB ADV	-0.6591333
-1.2891518	SYM VERB ADV	-0.2893156
-1.1306618	NUM VERB ADV	-0.46274787
-1.4714544	X VERB ADV	-0.2893156
-1.0814403	INTJ VERB ADV	-0.46372947
-0.84943265	<s> CCONJ ADV	-1.4487088
-1.1735499	PROPN CCONJ ADV	-1.196036
-1.1888319	ADP CCONJ ADV	-0.597508
-1.4257958	DET CCONJ ADV	-0.2893156
-1.1902903	NOUN CCONJ ADV	-1.7821469
-0.9660075	AUX CCONJ ADV	-0.38370082
-1.058291	VERB CCONJ ADV	-1.1239815
-1.1715362	CCONJ CCONJ ADV	-0.2848569
-1.0100789	ADV CCONJ ADV	-1.4193847
-1.0886511	ADJ CCONJ ADV	-1.396847
-1.1550971	PUNCT CCONJ ADV	-1.9180032
-1.1114433	PRON CCONJ ADV	-0.64849085
-1.2722014	PART CCONJ ADV	-0.2893156
-1.2409027	SCONJ CCONJ ADV	-0.29373655
-1.0043672	NUM CCONJ ADV	-0.5407342
-1.0816252	INTJ CCONJ ADV	-0.2893156
-1.0579208	<s> ADV ADV	-1.5989573
-1.1183014	PROPN ADV ADV	-1.0858152
-1.1239817	ADP ADV ADV	-1.1685615
-1.0237547	DET ADV ADV	-1.1503307
-1.1125907	NOUN ADV ADV	-1.7077682
-1.1211452	AUX ADV ADV	-1.7335585
-1.1849105	VERB ADV ADV	-1.7403729
-1.1325533	CCONJ ADV ADV	-1.3156561
-1.0933561	ADV ADV ADV	-1.2809012
-1.1276987	ADJ ADV ADV	-0.9121522
-1.1399323	PUNCT ADV ADV	-1.6873186
-1.0252666	PRON ADV ADV	-1.28191
-1.0712798	PART ADV ADV	-0.9283105
-1.1013018	SCONJ ADV ADV	-0.731195
-0.9346949	SYM ADV ADV	-0.2893156
-1.0818384	NUM ADV ADV	-0.45374927
-1.105842	X ADV ADV	-0.2893156
-1.1417384	INTJ ADV ADV	-0.2948489
-2.2785416	<s> ADJ ADV	-0.48903498
-1.6492581	PROPN ADJ ADV	-0.2948489
-1.2331653	ADP ADJ ADV	-0.58823156
-1.2463394	DET ADJ ADV	-1.0046653
-1.2585493	NOUN ADJ ADV	-0.51417303
-1.1529408	AUX ADJ ADV	-1.1418476
-1.2156544	VERB ADJ ADV	-0.8422836
-1.3010627	CCONJ ADJ ADV	-0.6591074
-1.291355	ADV ADJ ADV	-1.0138001
-1.3031675	ADJ ADJ ADV	-0.5267018
-1.2245901	PUNCT ADJ ADV	-0.596605
-1.6084448	PRON ADJ ADV	-0.4438679
-1.174892	PART ADJ ADV	-0.811864
-1.3522098	SCONJ ADJ ADV	-0.34245214
-1.4154712	NUM ADJ ADV	-0.29102847
-1.1722662	<s> PUNCT ADV	-1.1441127
-1.2145072	PROPN PUNCT ADV	-1.900134
-1.1695219	ADP PUNCT ADV	-0.7453638
-1.2174059	DET PUNCT ADV	-0.8786933
-1.2377723	NOUN PUNCT ADV	-2.2118647
-1.1778222	AUX PUNCT ADV	-1.024697
-1.219061	VERB PUNCT ADV	-1.4617283
-1.0867188	CCONJ PUNCT ADV	-0.9109096
-1.2533295	ADV PUNCT ADV	-1.5340161
-1.230335	ADJ PUNCT ADV	-1.330529
-1.2223142	PUNCT PUNCT ADV	-1.3364687
-1.1828177	PRON PUNCT ADV	-1.0176334
-1.1072925	PART PUNCT ADV	-0.5956515
-1.2307849	SCONJ PUNCT ADV	-0.6131744
-1.1914407	SYM PUNCT ADV	-0.2893156
-1.189451	NUM PUNCT ADV	-1.1257079
-1.1762778	X PUNCT ADV	-0.47578022
-1.156946	INTJ PUNCT ADV	-0.6088213
-1.16248	<s> PRON ADV	-1.9844217
-0.9871706	PROPN PRON ADV	-0.9877961
-1.1563573	ADP PRON ADV	-1.2177638
-0.89784557	DET PRON ADV	-1.0712222
-0.92614055	NOUN PRON ADV	-1.4648631
-1.1212889	AUX PRON ADV	-1.1124765
-1.1444738	VERB PRON ADV	-1.6150421
-0.9584219	CCONJ PRON ADV	-1.4587778
-1.0288146	ADV PRON ADV	-1.3237627
-1.1863312	ADJ PRON ADV	-0.36800733
-1.025604	PUNCT PRON ADV	-1.735195
-0.830468	PRON PRON ADV	-0.8983372
-1.2072841	PART PRON ADV	-0.59418
-0.99328953	SCONJ PRON ADV	-1.329369
-0.9047499	SYM PRON ADV	-0.2848569
-1.2683136	NUM PRON ADV	-0.3828773
-1.0559932	X PRON ADV	-0.2893156
-1.2242147	INTJ PRON ADV	-0.30045354
-0.7862072	<s> PART ADV	-0.8608141
-1.0464541	PROPN PART ADV	-1.2364656
-1.1654146	ADP PART ADV	-0.41090602
-0.8688556	DET PART ADV	-0.45826072
-1.0618347	NOUN PART ADV	-1.3892204
-0.986895	AUX PART ADV	-1.6889572
-1.0090865	VERB PART ADV	-1.3609092
-1.0292137	CCONJ PART ADV	-0.80885386
-0.87387574	ADV PART ADV	-0.7734748
-0.98219746	ADJ PART ADV	-0.9739419
-0.9736646	PUNCT PART ADV	-0.96757585
-0.8327507	PRON PART ADV	-0.8809464
-0.7989905	PART PART ADV	-0.62287265
-0.8807271	SCONJ PART ADV	-0.6161918
-1.437373	NUM PART ADV	-0.2948489
-1.5060698	<s> SCONJ ADV	-0.8725446
-1.2870258	PROPN SCONJ ADV	-0.39735278
-1.3403691	ADP SCONJ ADV	-0.3298895
-1.0979149	DET SCONJ ADV	-0.2929966
-1.1818188	NOUN SCONJ ADV	-0.91213274
-1.1041486	AUX SCONJ ADV	-0.3762349
-1.1973581	VERB SCONJ ADV	-1.1261871
-1.1004721	CCONJ SCONJ ADV	-0.45630935
-1.1422356	ADV SCONJ ADV	-0.75874144
-1.1545582	ADJ SCONJ ADV	-0.8794289
-1.2051876	PUNCT SCONJ ADV	-0.86872065
-1.4772207	PRON SCONJ ADV	-0.35108694
-1.3216461	SCONJ SCONJ ADV	-0.4112768
-1.5518098	NUM SCONJ ADV	-0.2893156
-1.9693966	<s> SYM ADV	-0.2893156
-1.6359503	PROPN SYM ADV	-0.2893156
-1.4695039	ADP SYM ADV	-0.2893156
-1.6225559	NOUN SYM ADV	-0.2893156
-1.2855463	AUX SYM ADV	-0.2893156
-1.4493623	CCONJ SYM ADV	-0.2893156
-1.4670953	PUNCT SYM ADV	-0.2893156
-1.3785731	PRON SYM ADV	-0.2893156
-1.0168481	SCONJ SYM ADV	-0.2893156
-2.1299782	<s> NUM ADV	-0.4460389
-1.1873009	PROPN NUM ADV	-0.5893419
-1.1930482	ADP NUM ADV	-0.79132664
-1.3438243	DET NUM ADV	-0.6363616
-1.2374847	NOUN NUM ADV	-0.4423011
-1.1664319	AUX NUM ADV	-0.41834557
-1.2638011	VERB NUM ADV	-0.44577858
-1.3836156	CCONJ NUM ADV	-0.39683628
-1.2469605	ADV NUM ADV	-0.3469579
-1.4666102	ADJ NUM ADV	-0.33879074
-1.4205288	PUNCT NUM ADV	-0.44842786
-1.4377658	PART NUM ADV	-0.2893156
-1.2585405	SCONJ NUM ADV	-0.44544038
-1.5140889	SYM NUM ADV	-0.2967091
-1.3670993	NUM NUM ADV	-0.2992018
-0.7632958	INTJ NUM ADV	-0.2893156
-2.6809738	<s> X ADV	-0.2893156
-1.5148176	PROPN X ADV	-0.2948489
-1.5983973	NOUN X ADV	-0.2893156
-1.092119	AUX X ADV	-0.2893156
-1.3049067	VERB X ADV	-0.2848569
-1.3899106	ADJ X ADV	-0.2893156
-1.7505815	PUNCT X ADV	-0.2893156
-1.6681383	<s> INTJ ADV	-0.3971519
-1.1642525	PROPN INTJ ADV	-0.2893156
-1.095452	ADP INTJ ADV	-0.2893156
-1.0474076	DET INTJ ADV	-0.2893156
-1.1373632	NOUN INTJ ADV	-0.2967091
-0.9401579	AUX INTJ ADV	-0.2893156
-1.2308578	CCONJ INTJ ADV	-0.2893156
-1.2098609	PUNCT INTJ ADV	-0.2967091
-0.9974678	PRON INTJ ADV	-0.2948489
-1.0327928	SCONJ INTJ ADV	-0.2893156
-1.2641742	INTJ INTJ ADV	-0.30045354
-2.515378	<s> PROPN ADJ	-0.88339126
-1.2403741	PROPN PROPN ADJ	-1.2711632
-1.3200339	ADP PROPN ADJ	-1.2795757
-1.3400812	DET PROPN ADJ	-1.2722875
-1.3768197	NOUN PROPN ADJ	-0.52900535
-1.188304	AUX PROPN ADJ	-0.4841594
-1.269051	VERB PROPN ADJ	-0.8564497
-1.4544314	CCONJ PROPN ADJ	-0.6897688
-1.600621	ADV PROPN ADJ	-0.29373655
-1.3183839	ADJ PROPN ADJ	-0.8414011
-1.2757757	PUNCT PROPN ADJ	-0.97675157
-1.6023707	PRON PROPN ADJ	-0.2893156
-1.4701575	PART PROPN ADJ	-0.46205854
-1.4526534	SCONJ PROPN ADJ	-0.49075487
-1.5285871	SYM PROPN ADJ	-0.34153792
-1.2380542	NUM PROPN ADJ	-0.73818654
-1.5001583	X PROPN ADJ	-0.30045354
-1.1306419	<s> ADP ADJ	-1.6163621
-1.0858246	PROPN ADP ADJ	-1.6034584
-0.99701977	ADP ADP ADJ	-1.3665432
-1.0402621	DET ADP ADJ	-0.9644834
-1.1715866	NOUN ADP ADJ	-2.7221153
-1.0033132	AUX ADP ADJ	-1.289821
-1.2108947	VERB ADP ADJ	-2.326346
-1.0561932	CCONJ ADP ADJ	-1.1930032
-1.084557	ADV ADP ADJ	-1.5171875
-1.1099077	ADJ ADP ADJ	-1.6997957
-1.0749242	PUNCT ADP ADJ	-1.6585232
-0.95550394	PRON ADP ADJ	-1.269895
-1.0112736	PART ADP ADJ	-0.8174163
-1.0147482	SCONJ ADP ADJ	-1.1302322
-1.0698085	SYM ADP ADJ	-0.2893156
-0.99829215	NUM ADP ADJ	-0.9331584
-1.1652807	X ADP ADJ	-0.2893156
-1.1559607	INTJ ADP ADJ	-0.29564512
-0.7271232	<s> DET ADJ	-2.2734606
-0.9720991	PROPN DET ADJ	-1.2348392
-1.0786518	ADP DET ADJ	-3.004585
-1.0155007	DET DET ADJ	-1.5955828
-0.99655914	NOUN DET ADJ	-1.5516059
-1.04863	AUX DET ADJ	-2.428846
-1.0987802	VERB DET ADJ	-2.680363
-0.9925425	CCONJ DET ADJ	-2.013914
-1.0046126	ADV DET ADJ	-1.9413081
-0.87863255	ADJ DET ADJ	-1.0267118
-1.0499674	PUNCT DET ADJ	-2.3238597
-0.9673777	PRON DET ADJ	-1.3058056
-0.88726425	PART DET ADJ	-1.4204657
-1.0358102	SCONJ DET ADJ	-2.1655815
-0.74139535	SYM DET ADJ	-0.6839073
-0.9393991	NUM DET ADJ	-0.7356332
-1.139782	X DET ADJ	-0.54190737
-1.1854167	INTJ DET ADJ	-0.2893156
-2.2348661	<s> NOUN ADJ	-0.612454
-1.2560148	PROPN NOUN ADJ	-0.88443524
-1.2294784	ADP NOUN ADJ	-1.3838253
-1.2179955	DET NOUN ADJ	-1.6937009
-1.2893105	NOUN NOUN ADJ	-1.2499883
-1.1048456	AUX NOUN ADJ	-0.65668064
-1.2378325	VERB NOUN ADJ	-1.2514713
-1.1810176	CCONJ NOUN ADJ	-0.87925
-1.2841829	ADV NOUN ADJ	-0.35803086
-1.231009	ADJ NOUN ADJ	-1.6484663
-1.292546	PUNCT NOUN ADJ	-1.240568
-1.3321404	PRON NOUN ADJ	-0.2866349
-1.4231855	PART NOUN ADJ	-0.704541
-1.4518551	SCONJ NOUN ADJ	-0.6042774
-1.4816185	SYM NOUN ADJ	-0.2929966
-1.2287028	NUM NOUN ADJ	-1.326933
-1.2875127	<s> AUX ADJ	-0.6678962
-1.1066138	PROPN AUX ADJ	-1.6404877
-1.035222	ADP AUX ADJ	-0.8303889
-1.0231224	DET AUX ADJ	-1.527205
-1.1293033	NOUN AUX ADJ	-2.1096725
-1.0686111	AUX AUX ADJ	-1.3825277
-1.129241	VERB AUX ADJ	-1.6958673
-1.0172504	CCONJ AUX ADJ	-1.1251854
-1.1340883	ADV AUX ADJ	-1.3098491
-1.0103259	ADJ AUX ADJ	-0.8840854
-1.086866	PUNCT AUX ADJ	-1.2995008
-1.1077753	PRON AUX ADJ	-2.1595356
-1.0445746	PART AUX ADJ	-1.7082137
-1.0091611	SCONJ AUX ADJ	-0.5300979
-1.1266065	NUM AUX ADJ	-0.6053937
-1.120295	X AUX ADJ	-0.2893156
-0.6988134	INTJ AUX ADJ	-0.2902664
-1.3988949	<s> VERB ADJ	-1.0829513
-1.1835935	PROPN VERB ADJ	-1.5516887
-1.1325839	ADP VERB ADJ	-1.6820567
-1.1906743	DET VERB ADJ	-1.6527816
-1.2130759	NOUN VERB ADJ	-1.8603427
-1.171518	AUX VERB ADJ	-1.9164175
-1.1762749	VERB VERB ADJ	-1.7140841
-1.2429556	CCONJ VERB ADJ	-1.6316515
-1.1883214	ADV VERB ADJ	-1.7781422
-1.1468302	ADJ VERB ADJ	-0.9506155
-1.1543429	PUNCT VERB ADJ	-1.7141376
-1.2458471	PRON VERB ADJ	-1.7876083
-1.2065717	PART VERB ADJ	-2.0069866
-1.0889999	SCONJ VERB ADJ	-1.0429347
-1.2312647	SYM VERB ADJ	-0.28596726
-1.0952442	NUM VERB ADJ	-0.8254931
-1.1529233	X VERB ADJ	-0.28596726
-1.4265895	INTJ VERB ADJ	-0.2948489
-1.5243974	<s> CCONJ ADJ	-0.92901736
-1.0893116	PROPN CCONJ ADJ	-1.5209545
-1.0300684	ADP CCONJ ADJ	-0.8791929
-0.91775954	DET CCONJ ADJ	-0.5748121
-1.1625531	NOUN CCONJ ADJ	-2.180477
-1.0275388	AUX CCONJ ADJ	-0.644513
-1.1159401	VERB CCONJ ADJ	-1.012884
-1.1043483	CCONJ CCONJ ADJ	-0.298203
-1.2024491	ADV CCONJ ADJ	-0.6972342
-1.0886511	ADJ CCONJ ADJ	-2.1688335
-1.2442659	PUNCT CCONJ ADJ	-1.6763284
-1.1114433	PRON CCONJ ADJ	-0.51062053
-1.2136462	PART CCONJ ADJ	-0.40284503
-1.3053621	SCONJ CCONJ ADJ	-0.2893156
-1.0783365	NUM CCONJ ADJ	-0.72478706
-1.2367569	INTJ CCONJ ADJ	-0.2893156
-1.3631648	<s> ADV ADJ	-1.3143516
-1.1566544	PROPN ADV ADJ	-0.7709165
-1.1298678	ADP ADV ADJ	-1.4251221
-1.0289162	DET ADV ADJ	-2.0080383
-1.2023169	NOUN ADV ADJ	-1.3979839
-1.0718224	AUX ADV ADJ	-2.2089207
-1.1619916	VERB ADV ADJ	-1.7482982
-1.177634	CCONJ ADV ADJ	-1.4660798
-1.1831551	ADV ADV ADJ	-1.602572
-1.1341031	ADJ ADV ADJ	-0.97269607
-1.11993	PUNCT ADV ADJ	-1.5012914
-1.1052736	PRON ADV ADJ	-1.0859263
-0.9776018	PART ADV ADJ	-1.4047716
-1.0334839	SCONJ ADV ADJ	-0.823158
-0.9991419	NUM ADV ADJ	-0.8051889
-1.1229401	X ADV ADJ	-0.2893156
-1.0583564	<s> ADJ ADJ	-1.6378467
-0.96120626	PROPN ADJ ADJ	-1.0715907
-1.1008154	ADP ADJ ADJ	-2.1327455
-1.1146079	DET ADJ ADJ	-2.3883553
-1.1039994	NOUN ADJ ADJ	-1.1016682
-1.1467175	AUX ADJ ADJ	-1.2860277
-1.093102	VERB ADJ ADJ	-1.8335404
-0.9847458	CCONJ ADJ ADJ	-1.7717427
-1.148801	ADV ADJ ADJ	-1.5373015
-0.9891219	ADJ ADJ ADJ	-2.0707746
-1.0667096	PUNCT ADJ ADJ	-1.7886493
-1.1343768	PRON ADJ ADJ	-0.63950974
-1.1196645	PART ADJ ADJ	-1.5807014
-1.0328836	SCONJ ADJ ADJ	-1.3787985
-1.1223236	SYM ADJ ADJ	-0.586521
-0.9	NUM ADJ ADJ	-1.4192839
-1.1555876	X ADJ ADJ	-0.2893156
-1.3933086	<s> PUNCT ADJ	-1.088753
-1.2416666	PROPN PUNCT ADJ	-2.3304267
-1.1103997	ADP PUNCT ADJ	-1.3980542
-1.1236956	DET PUNCT ADJ	-1.7212379
-1.2946645	NOUN PUNCT ADJ	-2.249671
-1.145916	AUX PUNCT ADJ	-1.131135
-1.2216369	VERB PUNCT ADJ	-1.4451451
-1.2023958	CCONJ PUNCT ADJ	-1.0222418
-1.226243	ADV PUNCT ADJ	-1.5834551
-1.1786149	ADJ PUNCT ADJ	-1.9749196
-1.2529773	PUNCT PUNCT ADJ	-1.2272041
-1.1859872	PRON PUNCT ADJ	-0.72383463
-1.19983	PART PUNCT ADJ	-0.84069675
-1.0740368	SCONJ PUNCT ADJ	-1.1387473
-1.1921984	NUM PUNCT ADJ	-1.3126761
-1.3577257	X PUNCT ADJ	-0.8256553
-1.290518	INTJ PUNCT ADJ	-0.63086927
-2.703656	<s> PRON ADJ	-0.5488382
-1.5584718	PROPN PRON ADJ	-0.298203
-1.2294918	ADP PRON ADJ	-0.853767
-1.3733075	DET PRON ADJ	-0.3828773
-1.4227651	NOUN PRON ADJ	-0.29272228
-1.128317	AUX PRON ADJ	-1.2032479
-1.1500683	VERB PRON ADJ	-1.4626809
-1.2391081	CCONJ PRON ADJ	-0.4471517
-1.2481154	ADV PRON ADJ	-0.35108694
-1.460555	ADJ PRON ADJ	-0.2967091
-1.1471316	PUNCT PRON ADJ	-0.63094217
-1.529434	PRON PRON ADJ	-0.298203
-1.2259332	PART PRON ADJ	-0.43098488
-1.2736754	SCONJ PRON ADJ	-0.35646522
-1.4960862	NUM PRON ADJ	-0.2893156
-1.2439301	X PRON ADJ	-0.2893156
-1.6149086	<s> PART ADJ	-0.31809446
-1.0187572	PROPN PART ADJ	-2.0152001
-1.0577108	ADP PART ADJ	-0.32802758
-1.0329248	DET PART ADJ	-0.2967091
-1.0298778	NOUN PART ADJ	-1.7525704
-1.1200293	AUX PART ADJ	-1.6827968
-1.1551659	VERB PART ADJ	-0.664826
-1.1260812	CCONJ PART ADJ	-0.79876095
-1.1778965	ADV PART ADJ	-0.65723974
-0.9341236	ADJ PART ADJ	-0.5876649
-1.041033	PUNCT PART ADJ	-0.722505
-1.0732616	PRON PART ADJ	-0.53378695
-0.9820994	SCONJ PART ADJ	-0.58926797
-1.3875495	NUM PART ADJ	-0.28596726
-0.9491896	X PART ADJ	-0.2893156
-1.1276082	<s> SCONJ ADJ	-1.361031
-1.1689595	PROPN SCONJ ADJ	-0.7789044
-1.2267165	ADP SCONJ ADJ	-0.71375847
-1.198033	DET SCONJ ADJ	-0.41568127
-1.1431727	NOUN SCONJ ADJ	-1.4643586
-1.0997101	AUX SCONJ ADJ	-0.8365043
-1.0779414	VERB SCONJ ADJ	-1.6329455
-1.0426551	CCONJ SCONJ ADJ	-0.75415045
-1.0031146	ADV SCONJ ADJ	-1.2484809
-1.0836822	ADJ SCONJ ADJ	-1.2684664
-1.1047248	PUNCT SCONJ ADJ	-1.3204464
-1.0731531	PRON SCONJ ADJ	-0.8178176
-1.2602782	PART SCONJ ADJ	-0.28596726
-1.0944482	SCONJ SCONJ ADJ	-0.8727291
-1.3663819	NUM SCONJ ADJ	-0.49075487
-1.361809	<s> SYM ADJ	-0.29074255
-0.8776804	PROPN SYM ADJ	-0.46647665
-1.3347629	ADP SYM ADJ	-0.41201925
-1.3446797	DET SYM ADJ	-0.50670564
-0.96218884	NOUN SYM ADJ	-0.70509654
-1.1961266	VERB SYM ADJ	-0.3946355
-1.221117	CCONJ SYM ADJ	-0.2893156
-0.5705132	ADJ SYM ADJ	-0.6312488
-1.0919971	PUNCT SYM ADJ	-0.32665917
-1.295094	PRON SYM ADJ	-0.2893156
-1.0073267	PART SYM ADJ	-0.2893156
-1.4437021	NUM SYM ADJ	-0.2893156
-0.6400531	INTJ SYM ADJ	-0.2893156
-1.0105674	<s> NUM ADJ	-1.3162096
-1.225027	PROPN NUM ADJ	-0.9299078
-1.1608996	ADP NUM ADJ	-1.6607076
-1.0018643	DET NUM ADJ	-1.446661
