\data\
ngram 1=19
ngram 2=248
ngram 3=2634
ngram 4=17939
ngram 5=76981

\1-grams:
-2.243184	<unk>	0
0	<s>	-3.7062867
-1.2833012	</s>	0
-1.1661369	PROPN	-0.9508323
-1.1661369	NOUN	-0.9392263
-1.2207799	PART	-0.83517945
-1.2207799	ADJ	-0.84272355
-1.1661369	VERB	-0.92804223
-1.1925995	PUNCT	-0.9685802
-1.1925995	DET	-0.849814
-1.2207799	NUM	-0.9010603
-1.1925995	ADV	-0.9028637
-1.2207799	CCONJ	-0.7481208
-1.1925995	ADP	-0.8808136
-1.1925995	PRON	-0.88900596
-1.2833012	SCONJ	-0.6590563
-1.2207799	X	-0.8226407
-1.3182969	INTJ	-0.40673292
-1.8015351	SPACE	-0.21963213

\2-grams:
-1.217879	PROPN </s>	0
-1.2319379	NOUN </s>	0
-1.4155128	PART </s>	0
-1.2533373	VERB </s>	0
-1.1741502	PUNCT </s>	0
-2.0944939	DET </s>	0
-1.1782441	NUM </s>	0
-1.5466784	ADV </s>	0
-1.9925604	CCONJ </s>	0
-1.692432	ADP </s>	0
-1.3545278	PRON </s>	0
-1.6202289	X </s>	0
-1.6350785	INTJ </s>	0
-0.78486985	<s> PROPN	-3.039629
-1.1477166	PROPN PROPN	-1.0132942
-1.1614535	NOUN PROPN	-0.9979306
-1.0939673	PART PROPN	-0.8905297
-1.0184965	ADJ PROPN	-0.87235093
-1.1778132	VERB PROPN	-1.0553353
-1.1630483	PUNCT PROPN	-0.99395496
-1.0891762	DET PROPN	-0.8886283
-1.1032877	NUM PROPN	-0.88156813
-1.1547695	ADV PROPN	-0.8386039
-1.0515476	CCONJ PROPN	-0.6845359
-1.0781226	ADP PROPN	-1.0118014
-1.1772457	PRON PROPN	-0.66009957
-1.1425505	SCONJ PROPN	-0.5017803
-1.0311959	X PROPN	-0.83557063
-0.81585085	INTJ PROPN	-0.26751596
-1.2155703	SPACE PROPN	-0.30063236
-0.72178257	<s> NOUN	-3.130745
-1.121633	PROPN NOUN	-1.0898461
-1.1614535	NOUN NOUN	-1.0908424
-1.0643631	PART NOUN	-0.9812978
-1.0184965	ADJ NOUN	-1.0487607
-1.1502693	VERB NOUN	-1.0727128
-1.1630483	PUNCT NOUN	-1.0246358
-1.0315261	DET NOUN	-1.0505364
-1.1032877	NUM NOUN	-1.0366006
-1.0973318	ADV NOUN	-0.9420445
-0.98500115	CCONJ NOUN	-0.8314199
-1.0501599	ADP NOUN	-1.013812
-1.115824	PRON NOUN	-0.9235404
-0.9846471	SCONJ NOUN	-0.6023388
-1.0011504	X NOUN	-0.8694942
-0.7543273	INTJ NOUN	-0.47553945
-0.5559881	SPACE NOUN	-0.30063236
-2.9774702	<s> PART	-1.308756
-1.1532631	PROPN PART	-0.9610537
-1.1673355	NOUN PART	-1.0748261
-1.1003698	PART PART	-0.6791027
-1.0237782	ADJ PART	-0.9352923
-1.1840831	VERB PART	-1.0619888
-1.1967005	PUNCT PART	-0.71718395
-1.0952966	DET PART	-0.7105407
-1.1089032	NUM PART	-0.8656739
-1.130984	ADV PART	-0.83334875
-1.2369018	CCONJ PART	-0.43985268
-1.26203	ADP PART	-0.5406795
-1.0936655	PRON PART	-0.9085618
-1.2852045	X PART	-0.5866056
-1.0975593	INTJ PART	-0.32749817
-1.8609395	<s> ADJ	-2.1109343
-1.1813825	PROPN ADJ	-0.7712033
-1.1952673	NOUN ADJ	-0.8630025
-1.1003698	PART ADJ	-0.7172424
-1.0237782	ADJ ADJ	-0.6869112
-1.1840831	VERB ADJ	-0.9343858
-1.1967005	PUNCT ADJ	-0.8874227
-1.0651073	DET ADJ	-0.77958715
-1.1089032	NUM ADJ	-0.8187738
-1.130984	ADV ADJ	-0.7793038
-1.0586488	CCONJ ADJ	-0.60932446
-1.0836746	ADP ADJ	-0.86551774
-1.184101	PRON ADJ	-0.6789822
-1.0395107	SCONJ ADJ	-0.5629217
-1.0696169	X ADJ	-0.6485733
-0.9660333	<s> VERB	-2.87567
-1.121633	PROPN VERB	-1.0769292
-1.1614535	NOUN VERB	-1.0954391
-1.0643631	PART VERB	-0.94734335
-1.0485644	ADJ VERB	-0.8052866
-1.1778132	VERB VERB	-1.0769292
-1.1630483	PUNCT VERB	-0.99189085
-1.0593952	DET VERB	-0.96426445
-1.1032877	NUM VERB	-0.95022905
-1.1251018	ADV VERB	-1.04698
-1.017001	CCONJ VERB	-0.8140146
-1.0781226	ADP VERB	-0.97200274
-1.0880907	PRON VERB	-1.0318542
-0.9043042	SCONJ VERB	-0.7728377
-1.0311959	X VERB	-0.8885234
-1.0807042	INTJ VERB	-0.3136058
-0.74115276	SPACE VERB	-0.36976108
-1.4116201	<s> PUNCT	-2.412885
-1.1504811	PROPN PUNCT	-1.0293113
-1.1383137	NOUN PUNCT	-1.0802138
-1.0971568	PART PUNCT	-0.8676056
-1.1190693	ADJ PUNCT	-0.58659035
-1.1532004	VERB PUNCT	-1.0761925
-1.1937494	PUNCT PUNCT	-0.92844546
-1.124434	DET PUNCT	-0.7035765
-1.1060864	NUM PUNCT	-0.9255976
-1.1000808	ADV PUNCT	-0.82541686
-1.1802648	CCONJ PUNCT	-0.55625695
-1.0808897	ADP PUNCT	-0.80080056
-1.1187863	PRON PUNCT	-0.83141255
-1.3003123	SCONJ PUNCT	-0.3465962
-1.0340359	X PUNCT	-0.6921304
-0.89288276	INTJ PUNCT	-0.32717046
-1.3930435	<s> DET	-2.5429118
-1.178415	PROPN DET	-0.80884784
-1.192121	NOUN DET	-0.9069583
-1.2012866	PART DET	-0.7062164
-1.1573269	ADJ DET	-0.6790333
-1.1809368	VERB DET	-0.9585668
-1.1937494	PUNCT DET	-0.81424594
-1.1592238	DET DET	-0.73537517
-1.2412018	NUM DET	-0.63202405
-1.1899923	ADV DET	-0.79744846
-1.0550838	CCONJ DET	-0.7281559
-1.1109753	ADP DET	-0.91791075
-1.2152506	PRON DET	-0.65506387
-1.2174628	SCONJ DET	-0.46412504
-1.0665355	X DET	-0.6808174
-1.349291	INTJ DET	-0.36976108
-1.4862596	<s> NUM	-2.396249
-1.1532631	PROPN NUM	-0.8650961
-1.1952673	NOUN NUM	-0.9540343
-1.1674811	PART NUM	-0.6864285
-1.0869732	ADJ NUM	-0.75714564
-1.1561514	VERB NUM	-0.9807229
-1.2267871	PUNCT NUM	-0.84615564
-1.0651073	DET NUM	-0.90498114
-1.1089032	NUM NUM	-1.0459406
-1.1610706	ADV NUM	-0.8859232
-1.0968297	CCONJ NUM	-0.6947441
-1.1139605	ADP NUM	-0.8917874
-1.1518177	PRON NUM	-0.647152
-1.153346	SCONJ NUM	-0.453618
-1.1050073	X NUM	-0.60153925
-0.7265229	<s> ADV	-3.1260066
-1.178415	PROPN ADV	-0.92502904
-1.1383137	NOUN ADV	-1.027613
-1.1291705	PART ADV	-0.7184974
-1.1190693	ADJ ADV	-0.5828534
-1.1532004	VERB ADV	-0.996985
-1.1937494	PUNCT ADV	-0.92049295
-1.0922257	DET ADV	-0.7782782
-1.1060864	NUM ADV	-0.7736397
-1.1000808	ADV ADV	-0.9342096
-1.0550838	CCONJ ADV	-0.6897302
-1.143301	ADP ADV	-0.8189924
-1.1486222	PRON ADV	-0.87305945
-1.0353258	SCONJ ADV	-0.5376309
-1.1016651	X ADV	-0.5537984
-1.5542171	INTJ ADV	-0.36976108
-2.1664839	<s> CCONJ	-1.7155206
-1.1813825	PROPN CCONJ	-0.8926732
-1.1952673	NOUN CCONJ	-1.0353278
-1.3441483	PART CCONJ	-0.3766624
-1.122391	ADJ CCONJ	-0.80821204
-1.1840831	VERB CCONJ	-0.90123844
-1.2267871	PUNCT CCONJ	-0.8033312
-2.0369556	DET CCONJ	-0.3136058
-1.2068092	NUM CCONJ	-0.60153925
-1.266311	ADV CCONJ	-0.6538541
-1.544482	CCONJ CCONJ	-0.39697388
-1.4884429	ADP CCONJ	-0.38114086
-1.184101	PRON CCONJ	-0.75707906
-1.5505835	SCONJ CCONJ	-0.3697611
-2.0070918	X CCONJ	-0.36976108
-1.0863869	<s> ADP	-2.7656133
-1.1504811	PROPN ADP	-0.9217513
-1.1643845	NOUN ADP	-1.0102673
-1.2012866	PART ADP	-0.69726795
-1.1573269	ADJ ADP	-0.5974605
-1.1809368	VERB ADP	-0.991132
-1.1937494	PUNCT ADP	-0.8682339
-1.124434	DET ADP	-0.74388427
-1.1361314	NUM ADP	-0.8390616
-1.1280329	ADV ADP	-0.9555751
-1.1344104	CCONJ ADP	-0.6299409
-1.1109753	ADP ADP	-0.7683584
-1.1486222	PRON ADP	-0.9486923
-1.0353258	SCONJ ADP	-0.621167
-1.1398886	X ADP	-0.4650439
-1.5542171	INTJ ADP	-0.36976108
-0.9515733	<s> PRON	-2.9009569
-1.2403295	PROPN PRON	-0.7863365
-1.192121	NOUN PRON	-0.88946325
-1.2423968	PART PRON	-0.6547469
-1.5065604	ADJ PRON	-0.3289231
-1.1532004	VERB PRON	-0.9996695
-1.1657974	PUNCT PRON	-0.8885234
-1.197045	DET PRON	-0.66549426
-1.2827508	NUM PRON	-0.5819376
-1.1899923	ADV PRON	-0.7673292
-1.1802648	CCONJ PRON	-0.6340081
-1.0808897	ADP PRON	-0.95500416
-1.1806599	PRON PRON	-0.8250585
-1.0353258	SCONJ PRON	-0.5252769
-1.1398886	X PRON	-0.6471772
-1.08905	INTJ PRON	-0.30063236
-1.7073452	<s> SCONJ	-2.2286682
-1.4670007	PROPN SCONJ	-0.5241347
-1.2645215	NOUN SCONJ	-0.77865654
-2.0816965	PART SCONJ	-0.29159737
-1.3269053	VERB SCONJ	-0.71442896
-1.3015167	PUNCT SCONJ	-0.772601
-1.9126524	DET SCONJ	-0.36976108
-2.1450312	NUM SCONJ	-0.36976108
-1.5466784	ADV SCONJ	-0.38504726
-1.9925604	CCONJ SCONJ	-0.36976108
-1.692432	ADP SCONJ	-0.29301652
-1.467194	PRON SCONJ	-0.49764642
-1.8973633	SCONJ SCONJ	-0.3697611
-2.5717506	<s> X	-1.4677566
-1.2786553	PROPN X	-0.6776087
-1.1952673	NOUN X	-0.90764004
-1.2468926	PART X	-0.54222524
-1.616917	ADJ X	-0.3224751
-1.1840831	VERB X	-0.8805104
-1.2940425	PUNCT X	-0.6555478
-1.200958	DET X	-0.56668013
-1.333413	NUM X	-0.5389304
-1.1933976	ADV X	-0.8811277
-1.364013	CCONJ X	-0.43352896
-1.26203	ADP X	-0.64096326
-1.2189783	PRON X	-0.73790836
-1.153346	SCONJ X	-0.41028127
-1.4142884	X X	-0.38114086
-3.1434329	<s> INTJ	-0.95631677
-1.6892682	PROPN INTJ	-0.37103617
-1.9374839	NOUN INTJ	-0.3697611
-1.5773969	PART INTJ	-0.402052
-2.115704	ADJ INTJ	-0.24101117
-2.2085977	VERB INTJ	-0.36976108
-1.2694935	PUNCT INTJ	-0.5837262
-1.5756874	DET INTJ	-0.4812332
-1.74485	ADV INTJ	-0.36976108
-2.1673348	PRON INTJ	-0.36976108
-1.8913412	X INTJ	-0.36976108
-1.2849755	INTJ INTJ	-0.42499527
-2.261352	PROPN SPACE	-0.36976108
-2.6348307	NOUN SPACE	-0.36976108
-2.149173	PART SPACE	-0.36976108
-1.9069211	VERB SPACE	-0.24101117

\3-grams:
-2.2025764	<s> PROPN </s>	0
-1.2561811	PROPN PROPN </s>	0
-1.2651682	NOUN PROPN </s>	0
-1.1532242	PART PROPN </s>	0
-1.7810018	ADJ PROPN </s>	0
-1.3280498	VERB PROPN </s>	0
-1.2363789	PUNCT PROPN </s>	0
-1.4631621	DET PROPN </s>	0
-1.4823891	NUM PROPN </s>	0
-1.78002	ADV PROPN </s>	0
-1.4515551	CCONJ PROPN </s>	0
-1.4698579	ADP PROPN </s>	0
-1.3715957	PRON PROPN </s>	0
-1.1146641	INTJ PROPN </s>	0
-2.4053767	<s> NOUN </s>	0
-1.2438341	PROPN NOUN </s>	0
-1.2293838	NOUN NOUN </s>	0
-1.2154644	PART NOUN </s>	0
-1.2126577	ADJ NOUN </s>	0
-1.2366098	VERB NOUN </s>	0
-1.2588024	PUNCT NOUN </s>	0
-1.4421798	DET NOUN </s>	0
-1.1905887	NUM NOUN </s>	0
-1.4020718	ADV NOUN </s>	0
-1.4733944	CCONJ NOUN </s>	0
-1.663019	ADP NOUN </s>	0
-1.5651212	PRON NOUN </s>	0
-1.8090395	X NOUN </s>	0
-1.4480976	PROPN PART </s>	0
-1.2156196	NOUN PART </s>	0
-1.6906412	PART PART </s>	0
-1.2388785	VERB PART </s>	0
-1.896003	NUM PART </s>	0
-1.9397931	ADV PART </s>	0
-2.0319517	PRON PART </s>	0
-2.7958114	<s> VERB </s>	0
-1.2426152	PROPN VERB </s>	0
-1.1795694	NOUN VERB </s>	0
-1.3424706	PART VERB </s>	0
-1.3983763	ADJ VERB </s>	0
-1.2809373	VERB VERB </s>	0
-1.3865609	PUNCT VERB </s>	0
-1.4142458	NUM VERB </s>	0
-1.2381682	ADV VERB </s>	0
-1.7738307	CCONJ VERB </s>	0
-1.7382406	ADP VERB </s>	0
-1.3670715	PRON VERB </s>	0
-1.434456	X VERB </s>	0
-0.9666309	<s> PUNCT </s>	0
-1.10714	PROPN PUNCT </s>	0
-1.1580424	NOUN PUNCT </s>	0
-0.9752318	PART PUNCT </s>	0
-1.4453205	ADJ PUNCT </s>	0
-1.1261374	VERB PUNCT </s>	0
-1.0360717	PUNCT PUNCT </s>	0
-0.9168778	DET PUNCT </s>	0
-1.0034262	NUM PUNCT </s>	0
-0.8873941	ADV PUNCT </s>	0
-1.2627075	CCONJ PUNCT </s>	0
-1.1362562	ADP PUNCT </s>	0
-0.9073199	PRON PUNCT </s>	0
-1.1293687	SCONJ PUNCT </s>	0
-0.8174767	X PUNCT </s>	0
-0.714713	INTJ PUNCT </s>	0
-1.9245722	PROPN DET </s>	0
-2.1969843	NOUN DET </s>	0
-1.8242431	<s> NUM </s>	0
-1.3663365	PROPN NUM </s>	0
-1.4603561	NOUN NUM </s>	0
-1.3851815	PART NUM </s>	0
-1.6369941	ADJ NUM </s>	0
-1.2286302	VERB NUM </s>	0
-1.3274356	PUNCT NUM </s>	0
-1.8249768	DET NUM </s>	0
-1.3201845	NUM NUM </s>	0
-1.2955873	ADV NUM </s>	0
-1.6063473	CCONJ NUM </s>	0
-1.8464102	ADP NUM </s>	0
-1.4593267	X NUM </s>	0
-3.4323914	<s> ADV </s>	0
-2.0096774	PROPN ADV </s>	0
-1.7401204	NOUN ADV </s>	0
-1.684003	VERB ADV </s>	0
-1.6309366	ADV ADV </s>	0
-0.897022	INTJ ADV </s>	0
-2.9089105	<s> CCONJ </s>	0
-1.5346981	PART CCONJ </s>	0
-3.9167736	<s> ADP </s>	0
-2.0513825	PROPN ADP </s>	0
-1.8773624	NOUN ADP </s>	0
-2.1234038	PUNCT ADP </s>	0
-3.7108545	<s> PRON </s>	0
-1.8119628	PROPN PRON </s>	0
-1.6942817	NOUN PRON </s>	0
-1.6364251	PART PRON </s>	0
-1.4781419	VERB PRON </s>	0
-1.9130576	PUNCT PRON </s>	0
-1.7819982	ADV PRON </s>	0
-1.6993504	CCONJ PRON </s>	0
-2.040116	ADP PRON </s>	0
-1.7729518	PROPN X </s>	0
-2.094843	NOUN X </s>	0
-2.0673075	VERB X </s>	0
-1.2871011	PUNCT X </s>	0
-1.618256	<s> INTJ </s>	0
-1.5239667	PUNCT INTJ </s>	0
-0.9607869	<s> PROPN PROPN	-2.0085392
-1.0736468	PROPN PROPN PROPN	-0.7405251
-1.1446317	NOUN PROPN PROPN	-0.77518463
-1.0992316	PART PROPN PROPN	-0.5452254
-0.9310846	ADJ PROPN PROPN	-0.4941133
-1.0987339	VERB PROPN PROPN	-0.7148754
-1.1155093	PUNCT PROPN PROPN	-0.69184744
-0.99736315	DET PROPN PROPN	-0.57797694
-1.0213834	NUM PROPN PROPN	-0.49984196
-1.0375414	ADV PROPN PROPN	-0.497828
-1.0064524	CCONJ PROPN PROPN	-0.44473654
-1.0622171	ADP PROPN PROPN	-0.7261479
-0.9102761	PRON PROPN PROPN	-0.4066642
-1.0339825	SCONJ PROPN PROPN	-0.35507768
-0.95383304	X PROPN PROPN	-0.45227233
-0.98312783	INTJ PROPN PROPN	-0.31105867
-1.277601	<s> NOUN PROPN	-1.7561615
-1.1408545	PROPN NOUN PROPN	-0.8288188
-1.1615388	NOUN NOUN PROPN	-0.835764
-1.2078396	PART NOUN PROPN	-0.6032945
-1.1395669	ADJ NOUN PROPN	-0.768219
-1.163519	VERB NOUN PROPN	-0.75192934
-1.1376204	PUNCT NOUN PROPN	-0.657764
-1.1635209	DET NOUN PROPN	-0.5310698
-1.1495851	NUM NOUN PROPN	-0.57779354
-1.214158	ADV NOUN PROPN	-0.41256043
-1.1044573	CCONJ NOUN PROPN	-0.46492404
-1.0747951	ADP NOUN PROPN	-0.69225496
-1.1505513	PRON NOUN PROPN	-0.37780303
-1.4994321	SCONJ NOUN PROPN	-0.31528202
-1.0990751	X NOUN PROPN	-0.52211833
-0.7500585	SPACE NOUN PROPN	-0.31105867
-2.0721443	<s> PART PROPN	-0.31105867
-1.0368817	PROPN PART PROPN	-0.7499329
-1.1300542	NOUN PART PROPN	-0.7901858
-0.99152267	PART PART PROPN	-0.34904167
-0.93182623	ADJ PART PROPN	-0.55207425
-1.1172171	VERB PART PROPN	-0.80554134
-1.1734059	PUNCT PART PROPN	-0.3548193
-0.6947381	DET PART PROPN	-0.41310355
-1.0106636	NUM PART PROPN	-0.4765616
-1.2108358	ADV PART PROPN	-0.3519879
-1.1865674	CCONJ PART PROPN	-0.31105867
-0.9470843	ADP PART PROPN	-0.31386968
-1.0166831	PRON PART PROPN	-0.51801187
-0.90984595	INTJ PART PROPN	-0.3181206
-1.3327699	<s> ADJ PROPN	-0.86635375
-0.92149055	PROPN ADJ PROPN	-0.49837697
-0.94746333	NOUN ADJ PROPN	-0.49806958
-0.9487706	PART ADJ PROPN	-0.44034678
-0.9716304	ADJ ADJ PROPN	-0.39717963
-0.92658746	VERB ADJ PROPN	-0.58517855
-0.91278017	PUNCT ADJ PROPN	-0.4792929
-0.8804448	DET ADJ PROPN	-0.44784445
-0.8385628	NUM ADJ PROPN	-0.44306675
-0.88597894	ADV ADJ PROPN	-0.4327113
-0.96012914	CCONJ ADJ PROPN	-0.30619377
-0.88408756	ADP ADJ PROPN	-0.60150033
-1.0687846	PRON ADJ PROPN	-0.31457525
-1.0601836	SCONJ ADJ PROPN	-0.3181206
-1.0415542	X ADJ PROPN	-0.3157538
-0.9685756	<s> VERB PROPN	-1.8310955
-1.1391883	PROPN VERB PROPN	-0.75874585
-1.1740179	NOUN VERB PROPN	-0.8829978
-1.1348206	PART VERB PROPN	-0.51575416
-1.1981951	ADJ VERB PROPN	-0.30975416
-1.1391883	VERB VERB PROPN	-0.8433299
-1.1788917	PUNCT VERB PROPN	-0.6336923
-0.9890158	DET VERB PROPN	-0.6014305
-1.0651368	NUM VERB PROPN	-0.6337067
-1.1348867	ADV VERB PROPN	-0.79891074
-1.172603	CCONJ VERB PROPN	-0.4626587
-1.1045116	ADP VERB PROPN	-0.6815293
-1.1140817	PRON VERB PROPN	-0.6675816
-1.1040081	SCONJ VERB PROPN	-0.4224617
-1.1174054	X VERB PROPN	-0.45080146
-0.57567	<s> PUNCT PROPN	-1.7570131
-1.10624	PROPN PUNCT PROPN	-0.80956507
-1.1293147	NOUN PUNCT PROPN	-0.85303456
-1.1190217	PART PUNCT PROPN	-0.53701806
-0.83725613	ADJ PUNCT PROPN	-0.44427162
-1.1531212	VERB PUNCT PROPN	-0.761439
-1.0351079	PUNCT PUNCT PROPN	-0.6367193
-0.96762955	DET PUNCT PROPN	-0.42520836
-1.1360577	NUM PUNCT PROPN	-0.56549406
-1.1071526	ADV PUNCT PROPN	-0.5004696
-0.76832944	CCONJ PUNCT PROPN	-0.42343596
-0.8931616	ADP PUNCT PROPN	-0.6161291
-0.9385682	PRON PUNCT PROPN	-0.47987285
-1.015693	SCONJ PUNCT PROPN	-0.31457525
-0.86338925	X PUNCT PROPN	-0.4219014
-1.1685487	INTJ PUNCT PROPN	-0.31105867
-1.4158444	<s> DET PROPN	-1.1219192
-0.86629313	PROPN DET PROPN	-0.47074637
-1.0314716	NOUN DET PROPN	-0.40107068
-1.0623139	PART DET PROPN	-0.38867503
-1.0307664	VERB DET PROPN	-0.58552724
-1.0043597	PUNCT DET PROPN	-0.4647859
-0.9771383	DET DET PROPN	-0.4220434
-1.3327402	NUM DET PROPN	-0.3157538
-1.2325358	ADV DET PROPN	-0.32781762
-1.0764695	CCONJ DET PROPN	-0.36992732
-0.97096616	ADP DET PROPN	-0.54528195
-1.2834523	PRON DET PROPN	-0.30683824
-0.93130994	SCONJ DET PROPN	-0.30240607
-0.7955582	X DET PROPN	-0.41772497
-1.3767115	<s> NUM PROPN	-1.1030117
-1.0979321	PROPN NUM PROPN	-0.4813817
-1.1472411	NOUN NUM PROPN	-0.4387004
-1.0560963	PART NUM PROPN	-0.3872813
-1.2903944	ADJ NUM PROPN	-0.31457525
-1.1329935	VERB NUM PROPN	-0.5353301
-1.0571669	PUNCT NUM PROPN	-0.44627774
-1.0986866	DET NUM PROPN	-0.47593632
-1.0921491	NUM NUM PROPN	-0.71924865
-1.1072505	ADV NUM PROPN	-0.44383037
-1.0921198	CCONJ NUM PROPN	-0.41437116
-1.0513973	ADP NUM PROPN	-0.45479992
-1.4303474	PRON NUM PROPN	-0.3157538
-1.2372696	SCONJ NUM PROPN	-0.31105867
-0.99086714	X NUM PROPN	-0.31386968
-1.3293045	<s> ADV PROPN	-1.7199205
-1.2800438	PROPN ADV PROPN	-0.36707106
-1.1502961	NOUN ADV PROPN	-0.58803904
-1.4307343	PART ADV PROPN	-0.31618318
-1.1651304	VERB ADV PROPN	-0.5032901
-1.1757212	PUNCT ADV PROPN	-0.5679845
-1.4438823	DET ADV PROPN	-0.31105867
-1.4640476	NUM ADV PROPN	-0.31386968
-1.1992849	ADV ADV PROPN	-0.4605885
-1.3562785	CCONJ ADV PROPN	-0.3157538
-1.1281117	ADP ADV PROPN	-0.38091886
-1.2280742	PRON ADV PROPN	-0.39385736
-1.4109203	SCONJ ADV PROPN	-0.31105867
-0.84006226	INTJ ADV PROPN	-0.31105867
-1.0376856	<s> CCONJ PROPN	-0.7605891
-0.84696937	PROPN CCONJ PROPN	-0.79713035
-1.0202911	NOUN CCONJ PROPN	-0.74564177
-0.92547995	PART CCONJ PROPN	-0.31669897
-1.1296039	VERB CCONJ PROPN	-0.4394273
-1.0316966	PUNCT CCONJ PROPN	-0.43053433
-1.2071284	NUM CCONJ PROPN	-0.31386968
-1.1190205	ADV CCONJ PROPN	-0.31669897
-1.0569502	CCONJ CCONJ PROPN	-0.31105867
-0.9895005	ADP CCONJ PROPN	-0.3157538
-0.8523325	PRON CCONJ PROPN	-0.465839
-0.48878878	X CCONJ PROPN	-0.31105867
-0.7141729	<s> ADP PROPN	-1.9647591
-0.9112504	PROPN ADP PROPN	-0.77728647
-1.0374998	NOUN ADP PROPN	-0.8594911
-0.9644487	PART ADP PROPN	-0.3662498
-0.722448	ADJ ADP PROPN	-0.3397481
-0.9902987	VERB ADP PROPN	-0.8288188
-0.99174625	PUNCT ADP PROPN	-0.6761935
-0.8193998	DET ADP PROPN	-0.50413483
-0.7930693	NUM ADP PROPN	-0.5281013
-0.98514605	ADV ADP PROPN	-0.7268567
-0.8040033	CCONJ ADP PROPN	-0.47515595
-0.78733754	ADP ADP PROPN	-0.5939825
-0.94482905	PRON ADP PROPN	-0.68318397
-0.8543943	SCONJ ADP PROPN	-0.3784357
-0.7451771	X ADP PROPN	-0.3730856
-2.373322	<s> PRON PROPN	-0.65801907
-1.0233419	PROPN PRON PROPN	-0.37780303
-1.1115116	NOUN PRON PROPN	-0.36007428
-1.6256293	PART PRON PROPN	-0.31105867
-0.9466893	ADJ PRON PROPN	-0.31105867
-1.1866122	VERB PRON PROPN	-0.497724
-1.2722737	PUNCT PRON PROPN	-0.4605497
-1.4983882	NUM PRON PROPN	-0.31105867
-1.7595817	ADV PRON PROPN	-0.31105867
-1.5993148	CCONJ PRON PROPN	-0.31105867
-1.1389822	ADP PRON PROPN	-0.40157408
-1.4708624	SCONJ PRON PROPN	-0.31105867
-1.5384095	X PRON PROPN	-0.31105867
-0.97922635	<s> SCONJ PROPN	-1.174365
-1.234186	NOUN SCONJ PROPN	-0.3157538
-0.9320886	VERB SCONJ PROPN	-0.41208696
-0.9365059	PUNCT SCONJ PROPN	-0.4287067
-0.8375071	NUM SCONJ PROPN	-0.31105867
-1.2130796	ADV SCONJ PROPN	-0.3128134
-1.0461553	ADP SCONJ PROPN	-0.31105867
-0.9920547	<s> X PROPN	-0.5184374
-0.9951872	PROPN X PROPN	-0.32733357
-1.0048941	NOUN X PROPN	-0.530199
-1.0142838	PART X PROPN	-0.31609115
-0.97719646	VERB X PROPN	-0.5015536
-1.0807632	PUNCT X PROPN	-0.3648302
-0.823526	DET X PROPN	-0.3038363
-0.9791114	NUM X PROPN	-0.31386968
-0.99700576	ADV X PROPN	-0.5742858
-1.1365788	CCONJ X PROPN	-0.31105867
-0.9756861	ADP X PROPN	-0.31386968
-1.0519295	PRON X PROPN	-0.31090707
-1.0316527	SCONJ X PROPN	-0.3157538
-0.73818463	X X PROPN	-0.3133999
-1.3017703	<s> INTJ PROPN	-0.31457525
-0.7967659	PROPN INTJ PROPN	-0.3157538
-0.5912802	NOUN INTJ PROPN	-0.31105867
-0.92859924	PUNCT INTJ PROPN	-0.31105867
-0.8356849	DET INTJ PROPN	-0.31105867
-0.45368692	PRON INTJ PROPN	-0.31105867
-0.19490248	X INTJ PROPN	-0.31105867
-0.22245173	PART SPACE PROPN	-0.31105867
-0.605729	VERB SPACE PROPN	-0.31105867
-0.5145334	<s> PROPN NOUN	-2.424844
-1.043755	PROPN PROPN NOUN	-0.8051479
-1.0534393	NOUN PROPN NOUN	-0.83677775
-1.0176685	PART PROPN NOUN	-0.6888973
-0.83123523	ADJ PROPN NOUN	-0.75702196
-1.0966247	VERB PROPN NOUN	-0.8636276
-1.0516417	PUNCT PROPN NOUN	-0.7833986
-0.8895582	DET PROPN NOUN	-0.67804104
-0.9141348	NUM PROPN NOUN	-0.7062956
-0.9558277	ADV PROPN NOUN	-0.642893
-0.9522144	CCONJ PROPN NOUN	-0.53081805
-1.0600736	ADP PROPN NOUN	-0.8097195
-0.809214	PRON PROPN NOUN	-0.5009473
-0.77720124	SCONJ PROPN NOUN	-0.36297843
-0.8357956	X PROPN NOUN	-0.5173361
-0.9733003	INTJ PROPN NOUN	-0.31105867
-0.6007239	SPACE PROPN NOUN	-0.31105867
-0.5321078	<s> NOUN NOUN	-2.4703715
-1.1128955	PROPN NOUN NOUN	-0.8943521
-1.1336855	NOUN NOUN NOUN	-0.92682076
-1.0621897	PART NOUN NOUN	-0.761439
-1.1097438	ADJ NOUN NOUN	-0.86747855
-1.1057899	VERB NOUN NOUN	-0.8997417
-1.0756441	PUNCT NOUN NOUN	-0.801882
-1.1015447	DET NOUN NOUN	-0.78653437
-1.0876089	NUM NOUN NOUN	-0.78776795
-1.0229363	ADV NOUN NOUN	-0.6831954
-0.9800172	CCONJ NOUN NOUN	-0.59909344
-1.0747951	ADP NOUN NOUN	-0.8638145
-1.0049188	PRON NOUN NOUN	-0.63974005
-0.82200575	SCONJ NOUN NOUN	-0.45142537
-0.905721	X NOUN NOUN	-0.65987146
-0.523352	INTJ NOUN NOUN	-0.31386968
-0.9763634	<s> PART NOUN	-0.3387
-1.0046659	PROPN PART NOUN	-0.86907285
-1.0998821	NOUN PART NOUN	-0.9245529
-0.75541496	PART PART NOUN	-0.5959185
-0.83162284	ADJ PART NOUN	-0.8113374
-1.1144239	VERB PART NOUN	-0.9035909
-0.7254499	PUNCT PART NOUN	-0.61123794
-0.58558047	DET PART NOUN	-0.7623062
-0.8747258	NUM PART NOUN	-0.74564177
-0.87353265	ADV PART NOUN	-0.615125
-0.8287212	CCONJ PART NOUN	-0.31105867
-0.8361122	ADP PART NOUN	-0.31508
-0.89049304	PRON PART NOUN	-0.7958079
-0.36817393	X PART NOUN	-0.29930198
-0.64242464	INTJ PART NOUN	-0.31386968
-0.13954328	<s> ADJ NOUN	-1.7873671
-0.7016669	PROPN ADJ NOUN	-0.7921774
-0.8145622	NOUN ADJ NOUN	-0.8185063
-0.74229	PART ADJ NOUN	-0.6889576
-0.35646465	ADJ ADJ NOUN	-0.75304115
-0.8970523	VERB ADJ NOUN	-0.8396827
-0.84635633	PUNCT ADJ NOUN	-0.66158587
-0.65772337	DET ADJ NOUN	-0.72126615
-0.66044414	NUM ADJ NOUN	-0.7529476
-0.6936028	ADV ADJ NOUN	-0.7071014
-0.5764743	CCONJ ADJ NOUN	-0.5473893
-0.7490684	ADP ADJ NOUN	-0.7378164
-0.61182195	PRON ADJ NOUN	-0.6375618
-0.28641868	SCONJ ADJ NOUN	-0.3738558
-0.3724205	X ADJ NOUN	-0.5413275
-0.60832787	<s> VERB NOUN	-2.1798525
-1.1370144	PROPN VERB NOUN	-0.81782895
-1.171761	NOUN VERB NOUN	-0.9153141
-1.0277807	PART VERB NOUN	-0.6806248
-0.8885471	ADJ VERB NOUN	-0.5600721
-1.1370144	VERB VERB NOUN	-0.8897575
-1.0141172	PUNCT VERB NOUN	-0.76739514
-0.98702145	DET VERB NOUN	-0.66114616
-1.0306664	NUM VERB NOUN	-0.6518447
-1.132581	ADV VERB NOUN	-0.87140626
-0.9339904	CCONJ VERB NOUN	-0.6005589
-1.0351112	ADP VERB NOUN	-0.7069065
-1.1118059	PRON VERB NOUN	-0.7545996
-0.94340223	SCONJ VERB NOUN	-0.53331983
-1.0009779	X VERB NOUN	-0.65015435
-0.21940684	SPACE VERB NOUN	-0.31105867
-0.71919864	<s> PUNCT NOUN	-1.6246918
-1.10624	PROPN PUNCT NOUN	-0.7741812
-1.1571425	NOUN PUNCT NOUN	-0.898792
-1.0780658	PART PUNCT NOUN	-0.6309222
-0.6337328	ADJ PUNCT NOUN	-0.59942317
-1.1252934	VERB PUNCT NOUN	-0.8338512
-1.1014814	PUNCT PUNCT NOUN	-0.60589343
-0.82729703	DET PUNCT NOUN	-0.6150199
-1.0641801	NUM PUNCT NOUN	-0.6846669
-1.0205576	ADV PUNCT NOUN	-0.52660936
-0.8793691	CCONJ PUNCT NOUN	-0.43411538
-0.9251849	ADP PUNCT NOUN	-0.6204643
-1.0110159	PRON PUNCT NOUN	-0.47158387
-0.5987927	SCONJ PUNCT NOUN	-0.30613878
-0.8164729	X PUNCT NOUN	-0.46227193
-1.1685487	INTJ PUNCT NOUN	-0.31105867
-0.22349046	<s> DET NOUN	-2.1184204
-0.75609946	PROPN DET NOUN	-0.6489684
-0.8800016	NOUN DET NOUN	-0.741964
-0.8330419	PART DET NOUN	-0.52903146
-0.47116	ADJ DET NOUN	-0.51562756
-0.9641018	VERB DET NOUN	-0.7927387
-0.8076574	PUNCT DET NOUN	-0.6691179
-0.83266777	DET DET NOUN	-0.6094748
-0.46830848	NUM DET NOUN	-0.51562756
-0.84546185	ADV DET NOUN	-0.58168274
-0.89187264	CCONJ DET NOUN	-0.55762416
-0.93092793	ADP DET NOUN	-0.7049841
-0.6988009	PRON DET NOUN	-0.54162174
-0.77281904	SCONJ DET NOUN	-0.35112745
-0.789068	X DET NOUN	-0.5009473
-0.21262553	INTJ DET NOUN	-0.31105867
-0.51782006	<s> NUM NOUN	-1.7734046
-0.87796926	PROPN NUM NOUN	-0.70814794
-0.9728258	NOUN NUM NOUN	-0.7557223
-0.8335513	PART NUM NOUN	-0.55203277
-0.5999119	ADJ NUM NOUN	-0.58268905
-1.0292377	VERB NUM NOUN	-0.8146932
-0.8657908	PUNCT NUM NOUN	-0.67140216
-0.9242943	DET NUM NOUN	-0.7775348
-1.0921491	NUM NUM NOUN	-0.8889007
-0.9164216	ADV NUM NOUN	-0.7114228
-0.8310492	CCONJ NUM NOUN	-0.5672547
-0.8899533	ADP NUM NOUN	-0.65709066
-0.7062294	PRON NUM NOUN	-0.4463121
-0.74733585	SCONJ NUM NOUN	-0.34568182
-0.7276209	X NUM NOUN	-0.53423053
-0.9781536	<s> ADV NOUN	-2.0396206
-1.1179966	PROPN ADV NOUN	-0.5652227
-1.0836184	NOUN ADV NOUN	-0.7437011
-1.113743	PART ADV NOUN	-0.34234613
-0.75502294	ADJ ADV NOUN	-0.3157538
-1.0555115	VERB ADV NOUN	-0.644029
-1.1230901	PUNCT ADV NOUN	-0.6140551
-0.9889821	DET ADV NOUN	-0.3479747
-0.91952944	NUM ADV NOUN	-0.4048596
-1.1060288	ADV ADV NOUN	-0.5663458
-0.960419	CCONJ ADV NOUN	-0.3642925
-0.9228707	ADP ADV NOUN	-0.54806477
-1.1614856	PRON ADV NOUN	-0.48706228
-1.0674194	SCONJ ADV NOUN	-0.35088646
-0.9278302	X ADV NOUN	-0.37078306
-0.8275455	INTJ ADV NOUN	-0.31105867
-0.6700447	<s> CCONJ NOUN	-1.1104792
-0.8412584	PROPN CCONJ NOUN	-0.6625309
-1.0141652	NOUN CCONJ NOUN	-0.8739685
-0.7737225	PART CCONJ NOUN	-0.31618318
-0.5967414	ADJ CCONJ NOUN	-0.39007315
-0.8530509	VERB CCONJ NOUN	-0.6940298
-0.97155595	PUNCT CCONJ NOUN	-0.4977862
-0.7827348	DET CCONJ NOUN	-0.31105867
-0.6681971	NUM CCONJ NOUN	-0.4611561
-0.8021034	ADV CCONJ NOUN	-0.451465
-1.0286982	CCONJ CCONJ NOUN	-0.31105867
-0.57839894	ADP CCONJ NOUN	-0.31457525
-0.7574188	PRON CCONJ NOUN	-0.54477435
-0.62848306	SCONJ CCONJ NOUN	-0.31105867
-0.4449433	<s> ADP NOUN	-2.2340074
-0.90890163	PROPN ADP NOUN	-0.7899303
-1.0349386	NOUN ADP NOUN	-0.89448243
-0.7641034	PART ADP NOUN	-0.50008386
-0.437955	ADJ ADP NOUN	-0.3830709
-0.9878972	VERB ADP NOUN	-0.8122829
-0.9232219	PUNCT ADP NOUN	-0.6778041
-0.7017557	DET ADP NOUN	-0.6209296
-0.722985	NUM ADP NOUN	-0.63022983
-0.9506605	ADV ADP NOUN	-0.78138435
-0.9268772	CCONJ ADP NOUN	-0.4201121
-0.86414224	ADP ADP NOUN	-0.5462499
-0.94244426	PRON ADP NOUN	-0.68183607
-0.7399831	SCONJ ADP NOUN	-0.4443041
-0.6301362	X ADP NOUN	-0.38218647
-0.48862642	INTJ ADP NOUN	-0.31105867
-1.4023101	<s> PRON NOUN	-1.4817984
-0.8137158	PROPN PRON NOUN	-0.44441742
-0.99176747	NOUN PRON NOUN	-0.48804674
-0.9637003	PART PRON NOUN	-0.34869567
-0.9288666	ADJ PRON NOUN	-0.31105867
-1.076583	VERB PRON NOUN	-0.6754183
-1.0692403	PUNCT PRON NOUN	-0.58552724
-0.8845829	DET PRON NOUN	-0.31508
-1.0368376	NUM PRON NOUN	-0.3133999
-1.0179307	ADV PRON NOUN	-0.41443992
-0.99837875	CCONJ PRON NOUN	-0.3651688
-0.9865488	ADP PRON NOUN	-0.6550718
-0.8835976	PRON PRON NOUN	-0.3757582
-1.0319326	SCONJ PRON NOUN	-0.30897334
-0.88631773	X PRON NOUN	-0.36240253
-0.61280125	<s> SCONJ NOUN	-1.5138925
-0.8696142	PROPN SCONJ NOUN	-0.31386968
-0.79492897	NOUN SCONJ NOUN	-0.41865018
-0.7579016	PART SCONJ NOUN	-0.3157538
-0.80104417	VERB SCONJ NOUN	-0.5295694
-0.87214535	PUNCT SCONJ NOUN	-0.48154405
-0.79900074	NUM SCONJ NOUN	-0.31105867
-0.7302233	ADV SCONJ NOUN	-0.3096358
-0.9746895	ADP SCONJ NOUN	-0.31386968
-1.0806897	PRON SCONJ NOUN	-0.31105867
-0.40893644	<s> X NOUN	-0.92371964
-0.88508	PROPN X NOUN	-0.45227233
-0.8987593	NOUN X NOUN	-0.6446743
-0.90985614	PART X NOUN	-0.3648302
-0.7225484	ADJ X NOUN	-0.31105867
-0.87104946	VERB X NOUN	-0.58528006
-0.74165475	PUNCT X NOUN	-0.4605885
-0.8183268	DET X NOUN	-0.37078306
-0.56300867	NUM X NOUN	-0.43857232
-0.86877847	ADV X NOUN	-0.60580176
-0.6720754	CCONJ X NOUN	-0.30240607
-0.59458387	ADP X NOUN	-0.47987285
-0.73863816	PRON X NOUN	-0.4937426
-0.6377535	SCONJ X NOUN	-0.30932018
-0.5809911	X X NOUN	-0.30240607
-1.2799523	<s> INTJ NOUN	-0.31105867
-0.5747774	NOUN INTJ NOUN	-0.31105867
-0.73424035	PART INTJ NOUN	-0.31105867
-0.27820796	ADJ INTJ NOUN	-0.31105867
-0.44160363	VERB INTJ NOUN	-0.31105867
-1.0893453	PUNCT INTJ NOUN	-0.31105867
-0.81342167	DET INTJ NOUN	-0.31105867
-0.660661	ADV INTJ NOUN	-0.31105867
-0.1599999	PROPN SPACE NOUN	-0.31105867
-0.39228955	NOUN SPACE NOUN	-0.31105867
-0.42883018	VERB SPACE NOUN	-0.31105867
-1.2041587	<s> PROPN PART	-1.8573349
-1.1038713	PROPN PROPN PART	-0.7265979
-1.1134014	NOUN PROPN PART	-0.7126956
-1.0998663	PART PROPN PART	-0.47359836
-1.0586249	ADJ PROPN PART	-0.41841432
-1.0991676	VERB PROPN PART	-0.80467886
-1.1160285	PUNCT PROPN PART	-0.644029
-0.9244136	DET PROPN PART	-0.5659958
-0.9166269	NUM PROPN PART	-0.5883663
-0.958858	ADV PROPN PART	-0.53605664
-0.91105366	CCONJ PROPN PART	-0.4668727
-1.0924927	ADP PROPN PART	-0.7557302
-1.1198947	PRON PROPN PART	-0.34873804
-1.1687776	SCONJ PROPN PART	-0.30736354
-0.9120495	X PROPN PART	-0.43217582
-1.0859637	INTJ PROPN PART	-0.31105867
-1.1131972	<s> NOUN PART	-1.9307268
-1.1133206	PROPN NOUN PART	-0.8318452
-1.1341302	NOUN NOUN PART	-0.88722515
-1.0626752	PART NOUN PART	-0.6602545
-1.1102077	ADJ NOUN PART	-0.8285634
-1.1341597	VERB NOUN PART	-0.87577903
-1.1060133	PUNCT NOUN PART	-0.6964237
-1.101998	DET NOUN PART	-0.7901858
-1.0880622	NUM NOUN PART	-0.77172416
-1.0234219	ADV NOUN PART	-0.6977851
-1.0182887	CCONJ NOUN PART	-0.5875801
-1.047324	ADP NOUN PART	-0.80058753
-0.9754921	PRON NOUN PART	-0.62279683
-1.00183	SCONJ NOUN PART	-0.3689315
-0.9736195	X NOUN PART	-0.5261911
-1.077793	INTJ NOUN PART	-0.31105867
-1.0691643	PROPN PART PART	-0.6264275
-1.130636	NOUN PART PART	-0.8318884
-1.234733	PART PART PART	-0.31508
-1.7533712	ADJ PART PART	-0.3181206
-1.1177988	VERB PART PART	-0.7134005
-1.1748719	PUNCT PART PART	-0.35859874
-1.5805308	DET PART PART	-0.31105867
-1.011379	NUM PART PART	-0.4512895
-1.2120584	ADV PART PART	-0.40427357
-1.1894338	CCONJ PART PART	-0.31105867
-1.089545	ADP PART PART	-0.3157538
-1.0957557	PRON PART PART	-0.46588427
-1.1654168	X PART PART	-0.31105867
-1.0238568	INTJ PART PART	-0.31105867
-0.7573151	<s> ADJ PART	-1.4173484
-0.7983515	PROPN ADJ PART	-0.59776205
-0.87646735	NOUN ADJ PART	-0.6040105
-0.81419253	PART ADJ PART	-0.47530478
-0.9726005	ADJ ADJ PART	-0.39717963
-0.9270818	VERB ADJ PART	-0.6962804
-0.91331387	PUNCT ADJ PART	-0.5239311
-0.6581035	DET ADJ PART	-0.65777194
-0.72361875	NUM ADJ PART	-0.55622596
-0.6639663	ADV ADJ PART	-0.63058203
-0.75449455	CCONJ ADJ PART	-0.39452374
-0.8117963	ADP ADJ PART	-0.6237345
-0.6122532	PRON ADJ PART	-0.5022636
-0.7968358	SCONJ ADJ PART	-0.29673204
-0.7833349	X ADJ PART	-0.428775
-1.0597123	<s> VERB PART	-1.7514195
-1.1116502	PROPN VERB PART	-0.8353195
-1.1745136	NOUN VERB PART	-0.9284093
-1.0305594	PART VERB PART	-0.73042434
-0.8234284	ADJ VERB PART	-0.5297373
-1.1396656	VERB VERB PART	-0.8460042
-1.106852	PUNCT VERB PART	-0.69380414
-1.0220447	DET VERB PART	-0.59379977
-1.0656757	NUM VERB PART	-0.6223596
-1.135393	ADV VERB PART	-0.8580404
-0.97513205	CCONJ VERB PART	-0.5106119
-1.0377809	ADP VERB PART	-0.6719333
-1.0845758	PRON VERB PART	-0.8122958
-1.1048952	SCONJ VERB PART	-0.3882858
-1.00397	X VERB PART	-0.71329373
-2.3070364	<s> PUNCT PART	-0.823468
-1.2056735	PROPN PUNCT PART	-0.62883765
-1.2218678	NOUN PUNCT PART	-0.7357976
-1.4231974	PART PUNCT PART	-0.38860542
-1.456082	ADJ PUNCT PART	-0.3181206
-1.2525547	VERB PUNCT PART	-0.53909993
-1.280548	PUNCT PUNCT PART	-0.35859874
-1.6152941	DET PUNCT PART	-0.31105867
-1.1810007	NUM PUNCT PART	-0.46313554
-1.465134	ADV PUNCT PART	-0.3038363
-1.5423465	CCONJ PUNCT PART	-0.31105867
-1.441638	ADP PUNCT PART	-0.3002696
-1.4585042	PRON PUNCT PART	-0.39717963
-1.6600866	X PUNCT PART	-0.31105867
-1.2691025	INTJ PUNCT PART	-0.31105867
-2.0967183	<s> DET PART	-0.89484626
-1.4452004	PROPN DET PART	-0.3002696
-1.1297309	NOUN DET PART	-0.44028392
-1.1431706	PART DET PART	-0.38158733
-1.1031921	VERB DET PART	-0.5260898
-1.1143655	PUNCT DET PART	-0.45976266
-1.1822902	DET DET PART	-0.30777255
-1.101612	NUM DET PART	-0.3002696
-1.0284737	ADV DET PART	-0.48345482
-1.2559171	CCONJ DET PART	-0.3585161
-1.2740499	ADP DET PART	-0.48223004
-0.90469	PRON DET PART	-0.5576786
-0.93276364	SCONJ DET PART	-0.29673204
-1.2942214	X DET PART	-0.30240607
-1.4972426	<s> NUM PART	-1.2851113
-1.0533233	PROPN NUM PART	-0.48698312
-1.0030413	NOUN NUM PART	-0.52482927
-1.1368653	PART NUM PART	-0.30975416
-1.2918986	ADJ NUM PART	-0.31457525
-1.1336185	VERB NUM PART	-0.58212537
-1.0578825	PUNCT NUM PART	-0.465839
-0.986449	DET NUM PART	-0.5163662
-1.0926386	NUM NUM PART	-0.7933337
-0.91689366	ADV NUM PART	-0.5184563
-0.9692004	CCONJ NUM PART	-0.42826137
-1.0056438	ADP NUM PART	-0.43298358
-1.0818642	PRON NUM PART	-0.37078306
-1.141377	SCONJ NUM PART	-0.31669897
-1.2268099	X NUM PART	-0.31457525
-2.26037	<s> ADV PART	-0.962439
-1.2185124	PROPN ADV PART	-0.42826137
-1.182363	NOUN ADV PART	-0.6053723
-1.6033738	PART ADV PART	-0.3133999
-1.2724686	ADJ ADV PART	-0.3181206
-1.0904977	VERB ADV PART	-0.5555702
-1.1726508	PUNCT ADV PART	-0.4218645
-1.436027	DET ADV PART	-0.3157538
-1.455735	NUM ADV PART	-0.31418315
-1.1961445	ADV ADV PART	-0.42278
-1.5431587	CCONJ ADV PART	-0.31105867
-1.3721902	ADP ADV PART	-0.30318558
-1.2907343	PRON ADV PART	-0.3912667
-1.4696916	SCONJ ADV PART	-0.31105867
-0.9339973	X ADV PART	-0.31457525
-2.234141	<s> CCONJ PART	-0.30240607
-1.810898	PROPN CCONJ PART	-0.31105867
-1.3136683	NOUN CCONJ PART	-0.34348285
-1.3074389	PART CCONJ PART	-0.31105867
-1.9019091	VERB CCONJ PART	-0.31105867
-1.8040019	PUNCT CCONJ PART	-0.31105867
-1.1229639	CCONJ CCONJ PART	-0.31105867
-1.7158458	PRON CCONJ PART	-0.31105867
-3.4147258	<s> ADP PART	-0.31105867
-1.6832943	PROPN ADP PART	-0.31386968
-1.3302886	NOUN ADP PART	-0.42791927
-1.6145395	PART ADP PART	-0.31105867
-1.4982837	VERB ADP PART	-0.4140052
-1.8384253	PUNCT ADP PART	-0.31105867
-1.7285538	DET ADP PART	-0.31105867
-1.3494073	ADV ADP PART	-0.30777255
-1.6779327	ADP ADP PART	-0.3181206
-1.9514165	PRON ADP PART	-0.31105867
-1.1826061	<s> PRON PART	-1.7259533
-0.9008498	PROPN PRON PART	-0.465839
-1.0237468	NOUN PRON PART	-0.5017696
-1.026963	PART PRON PART	-0.385375
-0.92199045	ADJ PRON PART	-0.31105867
-1.0745094	VERB PRON PART	-0.72871405
-0.9638431	PUNCT PRON PART	-0.61025447
-1.139755	DET PRON PART	-0.30240607
-0.84491473	NUM PRON PART	-0.35088646
-1.0148412	ADV PRON PART	-0.47074637
-0.92718285	CCONJ PRON PART	-0.42791927
-0.9846804	ADP PRON PART	-0.6464814
-0.8341936	PRON PRON PART	-0.5422047
-1.0263772	SCONJ PRON PART	-0.36285266
-0.744714	X PRON PART	-0.56407547
-0.5963888	INTJ PRON PART	-0.31105867
-2.450903	<s> X PART	-0.31105867
-1.4329667	PROPN X PART	-0.29673204
-1.638556	NOUN X PART	-0.3157538
-0.92006105	ADJ X PART	-0.31105867
-1.6109629	VERB X PART	-0.3157538
-1.6838913	PUNCT X PART	-0.31105867
-1.877507	ADV X PART	-0.31105867
-1.0600661	X X PART	-0.3181206
-1.1172874	<s> INTJ PART	-0.31306466
-1.2493163	PUNCT INTJ PART	-0.31105867
-0.29660386	DET INTJ PART	-0.42167076
-0.49391866	PRON INTJ PART	-0.31105867
-1.7419183	<s> PROPN ADJ	-1.5509967
-1.1383816	PROPN PROPN ADJ	-0.5727832
-1.1823888	NOUN PROPN ADJ	-0.5260898
-1.1490234	PART PROPN ADJ	-0.45267764
-1.0615727	ADJ PROPN ADJ	-0.6524521
-1.1012892	VERB PROPN ADJ	-0.61932
-1.1185701	PUNCT PROPN ADJ	-0.4488612
-1.1417925	DET PROPN ADJ	-0.5031329
-1.1129063	NUM PROPN ADJ	-0.59776205
-1.5730189	ADV PROPN ADJ	-0.30683824
-1.3129421	CCONJ PROPN ADJ	-0.34997067
-1.1270167	ADP PROPN ADJ	-0.5891572
-1.5572933	PRON PROPN ADJ	-0.3181206
-1.3817753	SCONJ PROPN ADJ	-0.3181206
-1.3740815	X PROPN ADJ	-0.42167076
-2.03478	<s> NOUN ADJ	-1.3213961
-1.1734487	PROPN NOUN ADJ	-0.6044837
-1.1941378	NOUN NOUN ADJ	-0.62009317
-1.257629	PART NOUN ADJ	-0.47334224
-1.1745764	ADJ NOUN ADJ	-0.5839857
-1.1362848	VERB NOUN ADJ	-0.6564695
-1.1754379	PUNCT NOUN ADJ	-0.50859094
-1.239288	DET NOUN ADJ	-0.5542998
-1.2253522	NUM NOUN ADJ	-0.5183751
-1.2183757	ADV NOUN ADJ	-0.49360195
-1.2858937	CCONJ NOUN ADJ	-0.45976266
-1.2123091	ADP NOUN ADJ	-0.5497225
-1.31014	PRON NOUN ADJ	-0.4728233
-1.5175014	SCONJ NOUN ADJ	-0.3181206
-1.2830046	X NOUN ADJ	-0.54330766
-1.974475	<s> PART ADJ	-0.3181206
-1.0079726	PROPN PART ADJ	-0.5852812
-1.130636	NOUN PART ADJ	-0.67460746
-0.9347298	PART PART ADJ	-0.4621874
-0.86435246	ADJ PART ADJ	-0.5861412
-1.1177988	VERB PART ADJ	-0.664992
-1.0958936	PUNCT PART ADJ	-0.40792093
-0.83825755	DET PART ADJ	-0.7227008
-0.97393334	NUM PART ADJ	-0.5705444
-1.2120584	ADV PART ADJ	-0.4485341
-1.0858535	CCONJ PART ADJ	-0.3181206
-1.3056402	ADP PART ADJ	-0.31105867
-0.98287296	PRON PART ADJ	-0.55536747
-1.1654168	X PART ADJ	-0.31105867
-1.9390625	<s> ADJ ADJ	-0.9769632
-0.9222022	PROPN ADJ ADJ	-0.6448288
-0.87646735	NOUN ADJ ADJ	-0.7321075
-0.9496288	PART ADJ ADJ	-0.54092145
-0.9726005	ADJ ADJ ADJ	-0.42167076
-0.99304134	VERB ADJ ADJ	-0.544448
-0.9918698	PUNCT ADJ ADJ	-0.7396023
-0.9910316	DET ADJ ADJ	-0.5576786
-0.9376605	NUM ADJ ADJ	-0.7227008
-1.1435146	ADV ADJ ADJ	-0.5185808
-1.1878492	CCONJ ADJ ADJ	-0.3002696
-1.0235648	ADP ADJ ADJ	-0.60343605
-1.4068778	PRON ADJ ADJ	-0.3181206
-1.1749516	SCONJ ADJ ADJ	-0.31105867
-1.0427994	X ADJ ADJ	-0.29673204
-1.4822463	<s> VERB ADJ	-1.5340555
-1.1116502	PROPN VERB ADJ	-0.68228143
-1.1745136	NOUN VERB ADJ	-0.703127
-1.0976056	PART VERB ADJ	-0.4877131
-1.3822622	ADJ VERB ADJ	-0.39717963
-1.1396656	VERB VERB ADJ	-0.67460746
-1.1416715	PUNCT VERB ADJ	-0.52845496
-1.1376988	DET VERB ADJ	-0.6012996
-1.1798118	NUM VERB ADJ	-0.54179907
-1.1971755	ADV VERB ADJ	-0.7161169
-1.173548	CCONJ VERB ADJ	-0.5079016
-1.0377809	ADP VERB ADJ	-0.6241003
-1.2194911	PRON VERB ADJ	-0.53147334
-1.1048952	SCONJ VERB ADJ	-0.4263487
-1.1639565	X VERB ADJ	-0.55905414
-1.6046002	<s> PUNCT ADJ	-1.1398602
-1.2056735	PROPN PUNCT ADJ	-0.5659958
-1.1598064	NOUN PUNCT ADJ	-0.64648104
-1.1686727	PART PUNCT ADJ	-0.48056224
-0.91223997	ADJ PUNCT ADJ	-0.38345775
-1.1857082	VERB PUNCT ADJ	-0.66557217
-1.2295125	PUNCT PUNCT ADJ	-0.43889785
-0.8725	DET PUNCT ADJ	-0.55905414
-1.2777002	NUM PUNCT ADJ	-0.40598497
-1.2209213	ADV PUNCT ADJ	-0.48519465
-1.0355858	CCONJ PUNCT ADJ	-0.3585161
-1.0881733	ADP PUNCT ADJ	-0.46842158
-1.3600867	PRON PUNCT ADJ	-0.30736354
-1.0262026	SCONJ PUNCT ADJ	-0.31105867
-1.1341581	X PUNCT ADJ	-0.3730856
-1.4346751	<s> DET ADJ	-1.4367272
-0.90562224	PROPN DET ADJ	-0.57568353
-0.987456	NOUN DET ADJ	-0.6709573
-0.93355536	PART DET ADJ	-0.45510396
-0.9559119	ADJ DET ADJ	-0.29673204
-0.99669623	VERB DET ADJ	-0.63445836
-0.9147417	PUNCT DET ADJ	-0.5548323
-1.0310469	DET DET ADJ	-0.46268138
-0.94790137	NUM DET ADJ	-0.39717963
-1.0242213	ADV DET ADJ	-0.56407547
-0.9473363	CCONJ DET ADJ	-0.57327086
-0.9686948	ADP DET ADJ	-0.6185105
-0.9680362	PRON DET ADJ	-0.45365193
-1.1541207	SCONJ DET ADJ	-0.3157538
-0.9040544	X DET ADJ	-0.5185808
-1.701847	<s> NUM ADJ	-1.1500039
-1.0533233	PROPN NUM ADJ	-0.6012996
-1.0694704	NOUN NUM ADJ	-0.60546815
-0.9897843	PART NUM ADJ	-0.4310775
-1.1483599	ADJ NUM ADJ	-0.3002696
-1.02973	VERB NUM ADJ	-0.601458
-1.1668237	PUNCT NUM ADJ	-0.45365193
-1.0583823	DET NUM ADJ	-0.57260346
-1.0926386	NUM NUM ADJ	-0.72419935
-1.0624485	ADV NUM ADJ	-0.6448288
-1.026798	CCONJ NUM ADJ	-0.47636086
-1.1039764	ADP NUM ADJ	-0.52482927
-1.5147966	PRON NUM ADJ	-0.31105867
-1.2399507	SCONJ NUM ADJ	-0.31105867
-0.9919465	X NUM ADJ	-0.3636788
-1.9810847	<s> ADV ADJ	-1.3975604
-1.080822	PROPN ADV ADJ	-0.6040105
-1.1480312	NOUN ADV ADJ	-0.6524521
-0.9950959	PART ADV ADJ	-0.5045584
-1.3741286	ADJ ADV ADJ	-0.31105867
-1.1250618	VERB ADV ADJ	-0.6021546
-1.0861242	PUNCT ADV ADJ	-0.5311434
-0.85220754	DET ADV ADJ	-0.6524521
-1.0798315	NUM ADV ADJ	-0.49334076
-1.1508794	ADV ADV ADJ	-0.5306239
-0.9652727	CCONJ ADV ADJ	-0.4780725
-1.1246374	ADP ADV ADJ	-0.57327086
-1.2242143	PRON ADV ADJ	-0.53283316
-1.2065315	SCONJ ADV ADJ	-0.3157538
-1.3092957	X ADV ADJ	-0.31105867
-1.4951574	<s> CCONJ ADJ	-0.7621861
-1.0227855	PROPN CCONJ ADJ	-0.5022636
-1.0208957	NOUN CCONJ ADJ	-0.64256185
-1.2102569	PART CCONJ ADJ	-0.31105867
-0.45097506	ADJ CCONJ ADJ	-0.63252413
-0.99335945	VERB CCONJ ADJ	-0.6482427
-1.1564775	PUNCT CCONJ ADJ	-0.3872813
-0.67203575	DET CCONJ ADJ	-0.31105867
-1.3980327	NUM CCONJ ADJ	-0.3181206
-0.939585	ADV CCONJ ADJ	-0.35142213
-1.0946543	ADP CCONJ ADJ	-0.31105867
-1.114904	PRON CCONJ ADJ	-0.47636086
-1.4377341	<s> ADP ADJ	-1.5334822
-1.0722841	PROPN ADP ADJ	-0.55360657
-1.0379908	NOUN ADP ADJ	-0.678833
-0.9653021	PART ADP ADJ	-0.49486604
-0.836455	ADJ ADP ADJ	-0.31457525
-1.0523844	VERB ADP ADJ	-0.5894439
-0.9923591	PUNCT ADP ADJ	-0.5130362
-0.97790074	DET ADP ADJ	-0.50928146
-0.92158204	NUM ADP ADJ	-0.57568353
-1.0203362	ADV ADP ADJ	-0.57923967
-1.014186	CCONJ ADP ADJ	-0.38867503
-1.0925583	ADP ADP ADJ	-0.43857232
-0.98024243	PRON ADP ADJ	-0.5629421
-0.92383415	SCONJ ADP ADJ	-0.50928146
-1.2333285	X ADP ADJ	-0.31105867
-2.4761605	<s> PRON ADJ	-0.75021714
-1.3352364	NOUN PRON ADJ	-0.3648302
-1.3590198	PART PRON ADJ	-0.31669897
-0.9485689	ADJ PRON ADJ	-0.31105867
-1.2287824	VERB PRON ADJ	-0.6239357
-1.2152276	PUNCT PRON ADJ	-0.4391367
-1.508681	DET PRON ADJ	-0.31105867
-1.5021352	NUM PRON ADJ	-0.31105867
-1.2844462	ADV PRON ADJ	-0.40789446
-1.3284706	CCONJ PRON ADJ	-0.3002696
-1.1861179	ADP PRON ADJ	-0.5513327
-1.7333935	PRON PRON ADJ	-0.31105867
-1.342524	X PRON ADJ	-0.31457525
-1.7591275	<s> SCONJ ADJ	-0.9552734
-1.2280033	PROPN SCONJ ADJ	-0.31105867
-1.611818	NOUN SCONJ ADJ	-0.31105867
-0.89096844	PART SCONJ ADJ	-0.31105867
-1.5578637	VERB SCONJ ADJ	-0.31105867
-1.17805	PUNCT SCONJ ADJ	-0.4485341
-1.160082	ADV SCONJ ADJ	-0.3157538
-0.48736542	CCONJ SCONJ ADJ	-0.31105867
-1.0844618	ADP SCONJ ADJ	-0.31105867
-1.6760765	<s> X ADJ	-0.54330766
-1.3575022	PROPN X ADJ	-0.29673204
-1.0957955	NOUN X ADJ	-0.523304
-1.3446817	PART X ADJ	-0.3181206
-0.8662273	ADJ X ADJ	-0.31105867
-1.1188918	VERB X ADJ	-0.511123
-1.1860216	PUNCT X ADJ	-0.38434273
-1.2209748	NUM X ADJ	-0.3181206
-1.0534505	ADV X ADJ	-0.5199567
-1.2407218	CCONJ X ADJ	-0.31105867
-1.4397248	ADP X ADJ	-0.31105867
-1.1625968	PRON X ADJ	-0.30613878
-1.0995744	X X ADJ	-0.31105867
-0.8747259	<s> PROPN VERB	-2.0646296
-1.043755	PROPN PROPN VERB	-0.81281054
-1.0809884	NOUN PROPN VERB	-0.845435
-1.0551385	PART PROPN VERB	-0.57598454
-0.89384735	ADJ PROPN VERB	-0.4999988
-1.0966247	VERB PROPN VERB	-0.78133386
-1.0812315	PUNCT PROPN VERB	-0.7128095
-0.99491256	DET PROPN VERB	-0.5084162
-0.946286	NUM PROPN VERB	-0.5072648
-1.0345271	ADV PROPN VERB	-0.53816664
-1.0024561	CCONJ PROPN VERB	-0.46819782
-1.0600736	ADP PROPN VERB	-0.82168794
-1.0330973	PRON PROPN VERB	-0.40352574
-0.84575444	SCONJ PROPN VERB	-0.32392254
-0.8032334	X PROPN VERB	-0.6119794
-0.9733003	INTJ PROPN VERB	-0.31105867
-0.7420394	SPACE PROPN VERB	-0.31105867
-0.68621445	<s> NOUN VERB	-2.3162637
-1.1128955	PROPN NOUN VERB	-0.942345
-1.1615388	NOUN NOUN VERB	-0.9552734
-1.0621897	PART NOUN VERB	-0.7927387
-1.1097438	ADJ NOUN VERB	-0.90833735
-1.133696	VERB NOUN VERB	-0.9014524
-1.0476853	PUNCT NOUN VERB	-0.77449435
-1.0735857	DET NOUN VERB	-0.88722515
-1.0876089	NUM NOUN VERB	-0.8922751
-0.9650939	ADV NOUN VERB	-0.7416686
-1.0176697	CCONJ NOUN VERB	-0.6041815
-1.0747951	ADP NOUN VERB	-0.8821157
-1.0716591	PRON NOUN VERB	-0.68937266
-0.87383753	SCONJ NOUN VERB	-0.44057557
-0.8755819	X NOUN VERB	-0.71621376
-0.64159936	INTJ NOUN VERB	-0.31457525
-0.11968006	<s> PART VERB	-0.85629565
-0.9772294	PROPN PART VERB	-0.76161885
-1.0998821	NOUN PART VERB	-0.9164445
-0.98648566	PART PART VERB	-0.4029284
-1.0094204	ADJ PART VERB	-0.41182527
-1.1144239	VERB PART VERB	-0.8795383
-0.87019247	PUNCT PART VERB	-0.47000107
-1.1488065	DET PART VERB	-0.31669897
-0.97012717	NUM PART VERB	-0.47316775
-0.90798366	ADV PART VERB	-0.5692734
-0.56328565	CCONJ PART VERB	-0.30298054
-0.5672812	ADP PART VERB	-0.3917526
-0.9476687	PRON PART VERB	-0.5872594
-0.5821792	X PART VERB	-0.30516148
-0.9005146	INTJ PART VERB	-0.31105867
-2.0431316	<s> ADJ VERB	-0.40189603
-0.92544353	PROPN ADJ VERB	-0.4429668
-0.9508582	NOUN ADJ VERB	-0.48554707
-1.0105854	PART ADJ VERB	-0.42992476
-0.9770264	ADJ ADJ VERB	-0.31457525
-0.9956599	VERB ADJ VERB	-0.55305886
-0.95346546	PUNCT ADJ VERB	-0.47721583
-1.1438614	DET ADJ VERB	-0.29875
-1.0694247	NUM ADJ VERB	-0.31208837
-0.94132745	ADV ADJ VERB	-0.34222668
-0.9664185	CCONJ ADJ VERB	-0.30882478
-0.92880934	ADP ADJ VERB	-0.4029284
-0.97168434	PRON ADJ VERB	-0.3038363
-1.04849	X ADJ VERB	-0.31105867
-0.75963825	<s> VERB VERB	-2.0092971
-1.1112026	PROPN VERB VERB	-0.8581742
-1.1461185	NOUN VERB VERB	-0.9677876
-1.0970218	PART VERB VERB	-0.62618303
-0.97127926	ADJ VERB VERB	-0.41198984
-1.1391883	VERB VERB VERB	-0.8914781
-1.1410884	PUNCT VERB VERB	-0.73029035
-1.0215727	DET VERB VERB	-0.59544486
-1.0329448	NUM VERB VERB	-0.62653846
-1.1646442	ADV VERB VERB	-0.8840688
-0.97453344	CCONJ VERB VERB	-0.5243221
-1.069607	ADP VERB VERB	-0.68795276
-1.1140817	PRON VERB VERB	-0.80956507
-0.9927149	SCONJ VERB VERB	-0.5981768
-1.0034311	X VERB VERB	-0.6935676
-1.1349628	<s> PUNCT VERB	-1.2760093
-1.1359738	PROPN PUNCT VERB	-0.7701254
-1.1571425	NOUN PUNCT VERB	-0.88903224
-1.1642457	PART PUNCT VERB	-0.55480134
-1.0955943	ADJ PUNCT VERB	-0.3157538
-1.1531212	VERB PUNCT VERB	-0.85288614
-1.1798614	PUNCT PUNCT VERB	-0.5772373
-0.91564894	DET PUNCT VERB	-0.45740646
-1.0986335	NUM PUNCT VERB	-0.59856814
-0.98297757	ADV PUNCT VERB	-0.57993305
-0.94774264	CCONJ PUNCT VERB	-0.35253027
-0.9597588	ADP PUNCT VERB	-0.48483807
-0.9732831	PRON PUNCT VERB	-0.48706838
-1.015693	SCONJ PUNCT VERB	-0.31105867
-0.9159947	X PUNCT VERB	-0.4310775
-1.1685487	INTJ PUNCT VERB	-0.31386968
-1.4673643	<s> DET VERB	-0.98742276
-1.1281338	PROPN DET VERB	-0.31747386
-0.94916624	NOUN DET VERB	-0.55612725
-1.0566515	PART DET VERB	-0.32781762
-0.844113	ADJ DET VERB	-0.31489637
-1.0619578	VERB DET VERB	-0.73323274
-1.0004879	PUNCT DET VERB	-0.48363543
-0.8768541	DET DET VERB	-0.5384419
-1.4107138	NUM DET VERB	-0.31105867
-1.0233879	ADV DET VERB	-0.40247205
-0.84993696	CCONJ DET VERB	-0.38302615
-1.0057553	ADP DET VERB	-0.5036489
-1.1455355	PRON DET VERB	-0.3109197
-0.66885763	SCONJ DET VERB	-0.3048607
-0.9032277	X DET VERB	-0.34568182
-1.4511231	<s> NUM VERB	-0.89808595
-1.0526453	PROPN NUM VERB	-0.39774942
-1.0025492	NOUN NUM VERB	-0.6337067
-1.0560963	PART NUM VERB	-0.35158494
-0.8819351	ADJ NUM VERB	-0.31361336
-1.0955856	VERB NUM VERB	-0.611215
-1.1659043	PUNCT NUM VERB	-0.4007831
-0.9540144	DET NUM VERB	-0.6405663
-1.0921491	NUM NUM VERB	-0.85379106
-1.0617887	ADV NUM VERB	-0.44659835
-0.9683737	CCONJ NUM VERB	-0.4024377
-1.1032599	ADP NUM VERB	-0.43718496
-0.9756145	PRON NUM VERB	-0.31528202
-1.1392391	SCONJ NUM VERB	-0.31105867
-1.4218719	X NUM VERB	-0.31105867
-0.4434318	<s> ADV VERB	-2.554304
-0.9460993	PROPN ADV VERB	-0.8795383
-1.0583539	NOUN ADV VERB	-0.94603455
-0.7835185	PART ADV VERB	-0.6744877
-0.3824865	ADJ ADV VERB	-0.5009823
-1.0003257	VERB ADV VERB	-0.8894488
-0.9517041	PUNCT ADV VERB	-0.76461446
-0.7455325	DET ADV VERB	-0.6864659
-0.7754259	NUM ADV VERB	-0.7027366
-0.9479729	ADV ADV VERB	-0.858349
-0.726083	CCONJ ADV VERB	-0.5474394
-0.85256344	ADP ADV VERB	-0.6954144
-0.92397445	PRON ADV VERB	-0.8394192
-0.825641	SCONJ ADV VERB	-0.5138559
-0.45589665	X ADV VERB	-0.469141
-0.6605391	<s> CCONJ VERB	-1.0185208
-1.0176631	PROPN CCONJ VERB	-0.53341204
-1.0172174	NOUN CCONJ VERB	-0.78628266
-0.9143249	PART CCONJ VERB	-0.31418315
-0.6626322	ADJ CCONJ VERB	-0.35142213
-0.8559183	VERB CCONJ VERB	-0.7955571
-0.97628564	PUNCT CCONJ VERB	-0.45798656
-0.9728046	NUM CCONJ VERB	-0.30683824
-0.8649178	ADV CCONJ VERB	-0.41759565
-0.5233361	CCONJ CCONJ VERB	-0.30240607
-0.7351397	ADP CCONJ VERB	-0.31105867
-0.95845914	PRON CCONJ VERB	-0.3298612
-0.6343159	SCONJ CCONJ VERB	-0.31105867
-0.915438	<s> ADP VERB	-1.7844865
-1.000235	PROPN ADP VERB	-0.64507324
-1.0098755	NOUN ADP VERB	-0.82352847
-0.9644487	PART ADP VERB	-0.32071486
-1.3369812	ADJ ADP VERB	-0.31105867
-1.051854	VERB ADP VERB	-0.7282907
-1.0287921	PUNCT ADP VERB	-0.67140216
-0.865884	DET ADP VERB	-0.32659855
-0.97369415	NUM ADP VERB	-0.3585701
-0.98514605	ADV ADP VERB	-0.6474672
-1.0130712	CCONJ ADP VERB	-0.33680147
-0.9133468	ADP ADP VERB	-0.4040373
-0.9797472	PRON ADP VERB	-0.51891786
-1.1045375	SCONJ ADP VERB	-0.29673204
-1.133936	X ADP VERB	-0.31457525
-0.36610168	<s> PRON VERB	-2.406573
-0.85355425	PROPN PRON VERB	-0.50704163
-0.95735735	NOUN PRON VERB	-0.75775826
-0.85051626	PART PRON VERB	-0.46492857
-0.9202223	ADJ PRON VERB	-0.31105867
-1.044524	VERB PRON VERB	-0.78776795
-0.9948932	PUNCT PRON VERB	-0.752664
-0.5550317	DET PRON VERB	-0.4790718
-0.7741995	NUM PRON VERB	-0.3781611
-0.8914441	ADV PRON VERB	-0.58226323
-0.92629546	CCONJ PRON VERB	-0.49707204
-0.9841965	ADP PRON VERB	-0.7473233
-0.79103017	PRON PRON VERB	-0.49964225
-0.6648048	SCONJ PRON VERB	-0.45992526
-0.7855621	X PRON VERB	-0.5990451
-0.73481786	INTJ PRON VERB	-0.31105867
-0.6971248	<s> SCONJ VERB	-1.3814458
-0.5114769	PROPN SCONJ VERB	-0.3686632
-0.6731675	NOUN SCONJ VERB	-0.6502209
-0.73193896	PART SCONJ VERB	-0.31508
-0.7900241	VERB SCONJ VERB	-0.44382265
-0.90438586	PUNCT SCONJ VERB	-0.4915905
-0.20315619	DET SCONJ VERB	-0.31105867
-0.7751046	NUM SCONJ VERB	-0.31105867
-0.80202854	ADV SCONJ VERB	-0.30941153
-0.9328418	ADP SCONJ VERB	-0.31457525
-0.48645145	PRON SCONJ VERB	-0.33803275
-0.6121392	SCONJ SCONJ VERB	-0.31105867
-0.6903411	<s> X VERB	-0.82298493
-0.7681259	PROPN X VERB	-0.56371176
-0.87199634	NOUN X VERB	-0.7261479
-0.66011995	PART X VERB	-0.45643005
-0.85442036	ADJ X VERB	-0.31105867
-0.8738917	VERB X VERB	-0.59856814
-0.9382144	PUNCT X VERB	-0.4317675
-0.43471482	DET X VERB	-0.51361376
-0.6384094	NUM X VERB	-0.39347306
-0.8367323	ADV X VERB	-0.66955155
-0.78287005	CCONJ X VERB	-0.3108919
-0.5971937	ADP X VERB	-0.4426161
-0.74154806	PRON X VERB	-0.5053636
-0.6426696	SCONJ X VERB	-0.3133999
-1.7218492	<s> INTJ VERB	-0.3181206
-0.61369324	PROPN INTJ VERB	-0.3157538
-0.4920953	VERB INTJ VERB	-0.31105867
-0.7477788	ADV INTJ VERB	-0.31105867
-0.4388337	NOUN SPACE VERB	-0.31105867
-0.71186626	<s> PROPN PUNCT	-2.2182724
-1.1036297	PROPN PROPN PUNCT	-0.7780807
-1.0835499	NOUN PROPN PUNCT	-0.800312
-1.0995488	PART PROPN PUNCT	-0.5517001
-0.9696629	ADJ PROPN PUNCT	-0.54183996
-1.0989506	VERB PROPN PUNCT	-0.8271067
-1.026206	PUNCT PROPN PUNCT	-0.81139046
-1.0395702	DET PROPN PUNCT	-0.4833355
-1.0216541	NUM PROPN PUNCT	-0.45443085
-0.9964202	ADV PROPN PUNCT	-0.4879882
-1.0068642	CCONJ PROPN PUNCT	-0.44146797
-1.0922567	ADP PROPN PUNCT	-0.7158832
-0.96970433	PRON PROPN PUNCT	-0.40352574
-1.3660624	SCONJ PROPN PUNCT	-0.3181206
-1.0009289	X PROPN PUNCT	-0.35495463
-0.9841479	INTJ PROPN PUNCT	-0.31105867
-1.0196892	<s> NOUN PUNCT	-1.9735333
-1.1111708	PROPN NOUN PUNCT	-0.8710359
-1.1318804	NOUN NOUN PUNCT	-0.92512095
-1.030467	PART NOUN PUNCT	-0.7986335
-1.107862	ADJ NOUN PUNCT	-0.8865576
-1.1318141	VERB NOUN PUNCT	-0.9199894
-1.0459605	PUNCT NOUN PUNCT	-0.8647296
-1.0997056	DET NOUN PUNCT	-0.78776795
-1.1155226	NUM NOUN PUNCT	-0.828211
-1.0209665	ADV NOUN PUNCT	-0.6458137
-0.94324493	CCONJ NOUN PUNCT	-0.5613959
-1.0729133	ADP NOUN PUNCT	-0.7317773
-1.0348853	PRON NOUN PUNCT	-0.50687194
-1.0767307	SCONJ NOUN PUNCT	-0.3648302
-1.0089116	X NOUN PUNCT	-0.43780974
-1.1852723	INTJ NOUN PUNCT	-0.31105867
-0.603199	SPACE NOUN PUNCT	-0.31105867
-1.1320069	<s> PART PUNCT	-0.60343605
-1.0371865	PROPN PART PUNCT	-0.6295697
-1.130345	NOUN PART PUNCT	-0.8659108
-0.934269	PART PART PUNCT	-0.4273278
-0.9320802	ADJ PART PUNCT	-0.52654976
-1.1175078	VERB PART PUNCT	-0.79446775
-0.87408364	PUNCT PART PUNCT	-0.41508368
-1.0523895	DET PART PUNCT	-0.30882478
-0.93915844	NUM PART PUNCT	-0.4861069
-0.94894457	ADV PART PUNCT	-0.48214677
-0.835441	CCONJ PART PUNCT	-0.3002696
-1.304153	ADP PART PUNCT	-0.31457525
-1.0170115	PRON PART PUNCT	-0.52660936
-1.0225866	INTJ PART PUNCT	-0.31105867
-2.1461515	<s> ADJ PUNCT	-0.38867503
-1.6183028	PROPN ADJ PUNCT	-0.31105867
-1.1565219	NOUN ADJ PUNCT	-0.49504462
-1.3954713	PART ADJ PUNCT	-0.30683824
-1.1797163	VERB ADJ PUNCT	-0.50571114
-0.85425484	PUNCT ADJ PUNCT	-0.50413173
-1.2606608	DET ADJ PUNCT	-0.3133999
-1.4080999	NUM ADJ PUNCT	-0.3157538
-1.4004027	ADV ADJ PUNCT	-0.29673204
-1.4245964	CCONJ ADJ PUNCT	-0.31105867
-1.0954376	ADP ADJ PUNCT	-0.4728233
-1.5383942	PRON ADJ PUNCT	-0.31105867
-1.2802324	<s> VERB PUNCT	-1.4899234
-1.1372519	PROPN VERB PUNCT	-0.77729553
-1.1442329	NOUN VERB PUNCT	-0.94994456
-1.1322389	PART VERB PUNCT	-0.56121856
-0.8212496	ADJ VERB PUNCT	-0.5589937
-1.1372519	VERB VERB PUNCT	-0.8534099
-1.0143349	PUNCT VERB PUNCT	-0.7939252
-0.9872393	DET VERB PUNCT	-0.4813817
-1.0975405	NUM VERB PUNCT	-0.5221119
-1.1328328	ADV VERB PUNCT	-0.8707633
-1.0594041	CCONJ VERB PUNCT	-0.4380142
-1.1813322	ADP VERB PUNCT	-0.4891854
-1.1120545	PRON VERB PUNCT	-0.71461827
-1.0416721	SCONJ VERB PUNCT	-0.38084355
-1.0012457	X VERB PUNCT	-0.55568606
-0.68931973	INTJ VERB PUNCT	-0.3157538
-1.2676833	<s> PUNCT PUNCT	-1.1453224
-1.1385849	PROPN PUNCT PUNCT	-0.6937091
-1.1894872	NOUN PUNCT PUNCT	-0.82692033
-1.1226698	PART PUNCT PUNCT	-0.49566472
-1.4546903	ADJ PUNCT PUNCT	-0.3157538
-1.1854659	VERB PUNCT PUNCT	-0.71929455
-1.1422243	PUNCT PUNCT PUNCT	-0.58428746
-1.182338	DET PUNCT PUNCT	-0.3157538
-1.1806618	NUM PUNCT PUNCT	-0.5171451
-1.2204535	ADV PUNCT PUNCT	-0.42131957
-1.269285	CCONJ PUNCT PUNCT	-0.31457525
-1.1971413	ADP PUNCT PUNCT	-0.3686632
-1.0557417	PRON PUNCT PUNCT	-0.43533072
-1.2374135	X PUNCT PUNCT	-0.30240607
-1.1829165	INTJ PUNCT PUNCT	-0.31306466
-2.3468573	<s> DET PUNCT	-0.5306239
-1.3226991	PROPN DET PUNCT	-0.31306466
-1.133527	NOUN DET PUNCT	-0.43205705
-1.2487284	PART DET PUNCT	-0.31361336
-1.1476071	VERB DET PUNCT	-0.48579395
-1.2670343	PUNCT DET PUNCT	-0.31457525
-1.1886694	DET DET PUNCT	-0.31105867
-1.032343	ADV DET PUNCT	-0.3730856
-1.5843836	CCONJ DET PUNCT	-0.31105867
-1.2792187	ADP DET PUNCT	-0.3872813
-1.4934641	PRON DET PUNCT	-0.3157538
-1.2750368	SCONJ DET PUNCT	-0.31105867
-1.5836924	X DET PUNCT	-0.31105867
-0.88260394	<s> NUM PUNCT	-1.4189086
-1.0119464	PROPN NUM PUNCT	-0.51306105
-1.0347221	NOUN NUM PUNCT	-0.6710359
-0.87976784	PART NUM PUNCT	-0.4317675
-1.0402385	ADJ NUM PUNCT	-0.3048607
-1.0958723	VERB NUM PUNCT	-0.65066624
-0.8981527	PUNCT NUM PUNCT	-0.57956445
-1.0990301	DET NUM PUNCT	-0.459576
-1.1219547	NUM NUM PUNCT	-0.8246124
-1.0621184	ADV NUM PUNCT	-0.4631003
-1.0926692	CCONJ NUM PUNCT	-0.3623362
-1.051715	ADP NUM PUNCT	-0.51532364
-1.4316844	PRON NUM PUNCT	-0.31457525
-1.2386081	SCONJ NUM PUNCT	-0.31105867
-1.093009	X NUM PUNCT	-0.3133999
-1.2392074	<s> ADV PUNCT	-1.8009467
-1.1634874	PROPN ADV PUNCT	-0.47601348
-1.1133202	NOUN ADV PUNCT	-0.6169262
-1.1142874	PART ADV PUNCT	-0.36717668
-1.0193092	ADJ ADV PUNCT	-0.3157538
-1.0557622	VERB ADV PUNCT	-0.63860184
-1.082669	PUNCT ADV PUNCT	-0.59884745
-1.0481848	DET ADV PUNCT	-0.35507768
-1.0750631	NUM ADV PUNCT	-0.525685
-1.1469953	ADV ADV PUNCT	-0.5382148
-1.5964789	CCONJ ADV PUNCT	-0.31105867
-1.2664781	ADP ADV PUNCT	-0.34949273
-1.1115178	PRON ADV PUNCT	-0.42826137
-1.3814602	SCONJ ADV PUNCT	-0.3157538
-1.2960095	X ADV PUNCT	-0.31105867
-0.8281744	INTJ ADV PUNCT	-0.31105867
-1.6860421	<s> CCONJ PUNCT	-0.32745352
-1.194807	PROPN CCONJ PUNCT	-0.44784445
-1.1663551	NOUN CCONJ PUNCT	-0.5004118
-1.1886095	PART CCONJ PUNCT	-0.31105867
-1.4603984	VERB CCONJ PUNCT	-0.3048607
-0.90706307	PUNCT CCONJ PUNCT	-0.47507834
-1.2489753	NUM CCONJ PUNCT	-0.3157538
-1.5037159	ADV CCONJ PUNCT	-0.31105867
-1.6008015	PRON CCONJ PUNCT	-0.3157538
-1.7172608	<s> ADP PUNCT	-1.0979377
-1.1575197	PROPN ADP PUNCT	-0.43772563
-1.0989363	NOUN ADP PUNCT	-0.5892116
-1.3379617	PART ADP PUNCT	-0.30683824
-1.3382479	ADJ ADP PUNCT	-0.31105867
-1.0865331	VERB ADP PUNCT	-0.54722667
-1.1143742	PUNCT ADP PUNCT	-0.46966553
-1.3587494	DET ADP PUNCT	-0.3157538
-1.1866084	NUM ADP PUNCT	-0.30145526
-1.1956009	ADV ADP PUNCT	-0.43679225
-1.244806	CCONJ ADP PUNCT	-0.31105867
-1.0241331	ADP ADP PUNCT	-0.36285266
-1.0596316	PRON ADP PUNCT	-0.41182527
-1.2360321	SCONJ ADP PUNCT	-0.31669897
-0.89619523	X ADP PUNCT	-0.31105867
-2.455609	<s> PRON PUNCT	-0.5903838
-1.0162197	PROPN PRON PUNCT	-0.34568182
-0.99205375	NOUN PRON PUNCT	-0.5279876
-0.8083331	PART PRON PUNCT	-0.4310775
-0.8031217	ADJ PRON PUNCT	-0.31105867
-1.0768529	VERB PRON PUNCT	-0.68884254
-1.1553469	PUNCT PRON PUNCT	-0.43253168
-0.8849575	DET PRON PUNCT	-0.30240607
-1.0374825	NUM PRON PUNCT	-0.36285266
-0.9730881	ADV PRON PUNCT	-0.42037207
-0.9989023	CCONJ PRON PUNCT	-0.4040373
-1.1783341	ADP PRON PUNCT	-0.48975942
-0.8838565	PRON PRON PUNCT	-0.4032671
-1.3618017	SCONJ PRON PUNCT	-0.31105867
-1.5071714	X PRON PUNCT	-0.31105867
-2.3924844	<s> SCONJ PUNCT	-0.35507768
-1.7549232	NOUN SCONJ PUNCT	-0.31105867
-1.3348863	PUNCT SCONJ PUNCT	-0.31508
-1.3781404	ADV SCONJ PUNCT	-0.31105867
-1.3041646	PRON SCONJ PUNCT	-0.31105867
-1.3665102	<s> X PUNCT	-0.34311506
-1.0599917	PROPN X PUNCT	-0.38091886
-1.1978688	NOUN X PUNCT	-0.38250384
-1.3250872	PART X PUNCT	-0.31457525
-1.0632691	VERB X PUNCT	-0.37698883
-1.004254	PUNCT X PUNCT	-0.37231675
-1.3010421	DET X PUNCT	-0.31105867
-0.9798379	NUM X PUNCT	-0.31105867
-1.1745466	ADV X PUNCT	-0.36076722
-1.1379105	CCONJ X PUNCT	-0.31105867
-1.4202925	ADP X PUNCT	-0.31105867
-1.5603337	PRON X PUNCT	-0.31105867
-1.1298242	SCONJ X PUNCT	-0.31105867
-0.9831072	X X PUNCT	-0.31105867
-0.16790496	<s> INTJ PUNCT	-1.1751256
-0.58084875	PROPN INTJ PUNCT	-0.3157538
-0.37140495	PART INTJ PUNCT	-0.3002696
-0.2773174	PUNCT INTJ PUNCT	-0.41493398
-0.7035169	ADV INTJ PUNCT	-0.31105867
-0.17246535	INTJ INTJ PUNCT	-0.29673204
-2.227434	<s> PROPN DET	-0.951553
-1.2974705	PROPN PROPN DET	-0.5295694
-1.3058517	NOUN PROPN DET	-0.43030867
-1.3260347	PART PROPN DET	-0.35142213
-1.4278587	ADJ PROPN DET	-0.31457525
-1.1981565	VERB PROPN DET	-0.56212366
-1.328698	PUNCT PROPN DET	-0.41367644
-1.5865785	DET PROPN DET	-0.31386968
-1.7927184	NUM PROPN DET	-0.3181206
-1.4440753	ADV PROPN DET	-0.3038363
-1.3121095	CCONJ PROPN DET	-0.35507768
-1.286531	ADP PROPN DET	-0.44824097
-1.6296729	PRON PROPN DET	-0.31105867
-1.4576263	SCONJ PROPN DET	-0.31105867
-1.7130362	X PROPN DET	-0.3157538
-2.1576767	<s> NOUN DET	-1.0842413
-1.2054871	PROPN NOUN DET	-0.56212366
-1.2260337	NOUN NOUN DET	-0.59179425
-1.2572486	PART NOUN DET	-0.451465
-1.2883856	ADJ NOUN DET	-0.54802406
-1.1982596	VERB NOUN DET	-0.583386
-1.3005866	PUNCT NOUN DET	-0.45601213
-1.2389771	DET NOUN DET	-0.519358
-1.489634	NUM NOUN DET	-0.43857232
-1.395078	ADV NOUN DET	-0.41772497
-1.3650587	CCONJ NOUN DET	-0.4040373
-1.1741582	ADP NOUN DET	-0.52091134
-1.3770077	PRON NOUN DET	-0.426394
-1.3206695	SCONJ NOUN DET	-0.31105867
-1.464397	X NOUN DET	-0.30613878
-2.1189997	<s> PART DET	-0.31105867
-1.151352	PROPN PART DET	-0.5938162
-1.1688792	NOUN PART DET	-0.660325
-1.2612128	PART PART DET	-0.3730856
-1.0216006	ADJ PART DET	-0.5195741
-1.1883144	VERB PART DET	-0.6983409
-1.4314299	PUNCT PART DET	-0.30545014
-1.6021228	NUM PART DET	-0.3157538
-1.4140382	ADV PART DET	-0.31386968
-1.4433734	ADP PART DET	-0.31105867
-1.0649053	PRON PART DET	-0.45767725
-2.389451	<s> ADJ DET	-0.3730856
-1.3046538	PROPN ADJ DET	-0.39717963
-1.230921	NOUN ADJ DET	-0.30683824
-1.2782106	PART ADJ DET	-0.3648302
-1.1325309	VERB ADJ DET	-0.41290265
-1.4198072	PUNCT ADJ DET	-0.42167076
-1.7213624	NUM ADJ DET	-0.31105867
-1.7016274	ADV ADJ DET	-0.31105867
-1.4431827	CCONJ ADJ DET	-0.3181206
-1.1001904	ADP ADJ DET	-0.36025593
-1.4693294	PRON ADJ DET	-0.31105867
-1.4054278	<s> VERB DET	-1.4765846
-1.2015052	PROPN VERB DET	-0.6588903
-1.1742656	NOUN VERB DET	-0.8355005
-1.0973136	PART VERB DET	-0.5411152
-1.708166	ADJ VERB DET	-0.3181206
-1.1394268	VERB VERB DET	-0.7781294
-1.2206517	PUNCT VERB DET	-0.53668183
-1.1373907	DET VERB DET	-0.42520836
-1.1001993	NUM VERB DET	-0.5684125
-1.1649153	ADV VERB DET	-0.7542172
-1.1730753	CCONJ VERB DET	-0.3662498
-1.0698658	ADP VERB DET	-0.59098804
-1.1813431	PRON VERB DET	-0.59776205
-1.1730927	SCONJ VERB DET	-0.43137556
-1.5164232	X VERB DET	-0.3157538
-1.6604147	<s> PUNCT DET	-1.0057138
-1.1707046	PROPN PUNCT DET	-0.61760145
-1.1894872	NOUN PUNCT DET	-0.6972962
-1.1682962	PART PUNCT DET	-0.4330876
-1.5369518	ADJ PUNCT DET	-0.31105867
-1.1854659	VERB PUNCT DET	-0.60931605
-1.229136	PUNCT PUNCT DET	-0.4701516
-1.3350583	NUM PUNCT DET	-0.4617402
-1.2875829	ADV PUNCT DET	-0.40304878
-1.466441	CCONJ PUNCT DET	-0.31105867
-1.3436085	ADP PUNCT DET	-0.3648302
-1.4577072	PRON PUNCT DET	-0.30613878
-1.1372213	SCONJ PUNCT DET	-0.31105867
-1.3740425	X PUNCT DET	-0.3157538
-1.2674587	INTJ PUNCT DET	-0.31105867
-1.7694683	<s> DET DET	-0.87595737
-1.0748488	PROPN DET DET	-0.35142213
-1.0385463	NOUN DET DET	-0.523304
-1.0055053	PART DET DET	-0.4219557
-1.1099031	VERB DET DET	-0.50299233
-1.1926435	PUNCT DET DET	-0.44677928
-1.4273069	DET DET DET	-0.31105867
-1.0961666	ADV DET DET	-0.31090707
-1.019218	CCONJ DET DET	-0.37573627
-1.0575393	ADP DET DET	-0.44677928
-1.511122	PRON DET DET	-0.31105867
-1.6042441	X DET DET	-0.31105867
-2.9152281	<s> NUM DET	-0.39717963
-1.8152851	PROPN NUM DET	-0.3157538
-1.4730134	NOUN NUM DET	-0.39717963
-1.6136851	PART NUM DET	-0.31457525
-1.2880913	VERB NUM DET	-0.47636086
-1.4429016	PUNCT NUM DET	-0.3181206
-1.424421	DET NUM DET	-0.30516148
-1.2810295	NUM NUM DET	-0.60033196
-1.4918063	ADV NUM DET	-0.31457525
-1.3019961	CCONJ NUM DET	-0.3002696
-1.2511377	ADP NUM DET	-0.38434273
-1.5217375	<s> ADV DET	-1.6253973
-1.434275	PROPN ADV DET	-0.37078306
-1.1212493	NOUN ADV DET	-0.604432
-1.3124176	PART ADV DET	-0.30318558
-1.2564981	VERB ADV DET	-0.45142537
-1.180006	PUNCT ADV DET	-0.47588325
-1.4549923	DET ADV DET	-0.3157538
-1.6749756	NUM ADV DET	-0.31105867
-1.255144	ADV ADV DET	-0.4224617
-1.2307273	CCONJ ADV DET	-0.42167076
-1.3870276	ADP ADV DET	-0.35674194
-1.2334727	PRON ADV DET	-0.3605514
-1.428986	SCONJ ADV DET	-0.31105867
-1.0377513	<s> CCONJ DET	-0.7794619
-0.8770743	PROPN CCONJ DET	-0.6387408
-1.0205933	NOUN CCONJ DET	-0.6508469
-1.1305391	PART CCONJ DET	-0.31457525
-1.1301334	VERB CCONJ DET	-0.40782973
-1.0322261	PUNCT CCONJ DET	-0.35669926
-0.802929	DET CCONJ DET	-0.31105867
-1.0800599	NUM CCONJ DET	-0.30240607
-1.0201008	ADV CCONJ DET	-0.38218647
-1.058382	CCONJ CCONJ DET	-0.31105867
-1.0326762	PRON CCONJ DET	-0.40789446
-0.64081156	SCONJ CCONJ DET	-0.31105867
-1.1399434	<s> ADP DET	-1.6325241
-1.0753816	PROPN ADP DET	-0.6132762
-1.0700238	NOUN ADP DET	-0.68410087
-0.9693664	PART ADP DET	-0.37228376
-1.3517383	ADJ ADP DET	-0.31105867
-1.0549045	VERB ADP DET	-0.610727
-1.0326346	PUNCT ADP DET	-0.52904606
-1.0509548	DET ADP DET	-0.30810004
-1.192013	NUM ADP DET	-0.34222668
-0.9556886	ADV ADP DET	-0.6206369
-1.019505	CCONJ ADP DET	-0.36025593
-1.028503	ADP ADP DET	-0.48223004
-1.0208298	PRON ADP DET	-0.56497514
-1.0107311	SCONJ ADP DET	-0.37078306
-2.4139836	<s> PRON DET	-0.74137676
-1.435178	PROPN PRON DET	-0.29673204
-1.3407623	NOUN PRON DET	-0.30613878
-1.6488662	PART PRON DET	-0.31105867
-1.278361	VERB PRON DET	-0.45267764
-1.3461218	PUNCT PRON DET	-0.41910484
-1.5188223	NUM PRON DET	-0.31105867
-1.2909662	ADV PRON DET	-0.4140052
-1.2017947	CCONJ PRON DET	-0.31386968
-1.0619732	ADP PRON DET	-0.44138137
-1.4927506	SCONJ PRON DET	-0.31105867
-1.557665	X PRON DET	-0.31105867
-1.2916902	<s> SCONJ DET	-1.127358
-1.0988901	VERB SCONJ DET	-0.30613878
-1.0579878	PUNCT SCONJ DET	-0.42343712
-0.8523053	NUM SCONJ DET	-0.31105867
-1.2477815	ADV SCONJ DET	-0.31105867
-1.1759199	ADP SCONJ DET	-0.31105867
-1.1323276	<s> X DET	-0.64451283
-1.067032	PROPN X DET	-0.35313377
-1.0088638	NOUN X DET	-0.46965402
-1.3430134	PART X DET	-0.3133999
-1.0677018	VERB X DET	-0.52174675
-1.0892545	PUNCT X DET	-0.31087336
-1.2196538	DET X DET	-0.31105867
-1.312583	NUM X DET	-0.31105867
-1.0011503	ADV X DET	-0.44564804
-1.2390351	CCONJ X DET	-0.31105867
-1.4380705	ADP X DET	-0.31105867
-0.8447987	PRON X DET	-0.46202925
-1.0450672	SCONJ X DET	-0.31105867
-1.937948	<s> INTJ DET	-0.31105867
-1.8362712	<s> PROPN NUM	-1.2808684
-1.2078316	PROPN PROPN NUM	-0.58896196
-1.1451819	NOUN PROPN NUM	-0.59379977
-1.1455678	PART PROPN NUM	-0.41367644
-1.3208574	ADJ PROPN NUM	-0.30613878
-1.1611307	VERB PROPN NUM	-0.6414027
-1.1880316	PUNCT PROPN NUM	-0.5512874
-1.1975324	DET PROPN NUM	-0.30932018
-1.4658806	NUM PROPN NUM	-0.36025593
-1.0840012	ADV PROPN NUM	-0.4218645
-1.2093409	CCONJ PROPN NUM	-0.3010901
-1.1967036	ADP PROPN NUM	-0.5653316
-1.5424507	PRON PROPN NUM	-0.31105867
-1.3674996	SCONJ PROPN NUM	-0.3157538
-1.2654734	X PROPN NUM	-0.30145526
-0.74845684	SPACE PROPN NUM	-0.31105867
-1.597823	<s> NOUN NUM	-1.6127677
-1.1734487	PROPN NOUN NUM	-0.66448075
-1.1941378	NOUN NOUN NUM	-0.75474304
-1.2116352	PART NOUN NUM	-0.5005008
-1.2093984	ADJ NOUN NUM	-0.6259845
-1.1662925	VERB NOUN NUM	-0.6607269
-1.1754379	PUNCT NOUN NUM	-0.56147504
-1.239288	DET NOUN NUM	-0.50173515
-1.1525046	NUM NOUN NUM	-0.57572395
-1.172382	ADV NOUN NUM	-0.504764
-1.2184671	CCONJ NOUN NUM	-0.36973092
-1.2123091	ADP NOUN NUM	-0.5918043
-1.2517782	PRON NOUN NUM	-0.46327063
-1.3217238	SCONJ NOUN NUM	-0.31669897
-1.2143322	X NOUN NUM	-0.38860542
-2.1049423	<s> PART NUM	-0.31105867
-1.1102326	PROPN PART NUM	-0.6041412
-1.1661414	NOUN PART NUM	-0.7093322
-1.0028528	PART PART NUM	-0.46716544
-0.9015571	ADJ PART NUM	-0.6729628
-1.1234473	VERB PART NUM	-0.72664845
-1.1078604	PUNCT PART NUM	-0.43857232
-1.3136097	DET PART NUM	-0.3181206
-1.1061174	NUM PART NUM	-0.44560567
-1.1554972	ADV PART NUM	-0.48223004
-1.0237268	PRON PART NUM	-0.6405663
-1.0491045	INTJ PART NUM	-0.31105867
-1.7897022	<s> ADJ NUM	-0.7785765
-1.2868652	PROPN ADJ NUM	-0.39717963
-0.9963595	NOUN ADJ NUM	-0.57327086
-1.0170927	PART ADJ NUM	-0.44990966
-1.3701499	ADJ ADJ NUM	-0.31105867
-1.0785352	VERB ADJ NUM	-0.55458724
-1.0967677	PUNCT ADJ NUM	-0.552858
-1.2530609	DET ADJ NUM	-0.31386968
-0.94504404	NUM ADJ NUM	-0.39007315
-0.94612724	ADV ADJ NUM	-0.53283316
-1.075947	CCONJ ADJ NUM	-0.3002696
-1.0316516	ADP ADJ NUM	-0.46268138
-0.8931994	PRON ADJ NUM	-0.3730856
-1.179162	<s> VERB NUM	-1.6550311
-1.1374893	PROPN VERB NUM	-0.6847052
-1.1722541	NOUN VERB NUM	-0.82525826
-1.1737343	PART VERB NUM	-0.4975709
-1.7655126	ADJ VERB NUM	-0.31105867
-1.1374893	VERB VERB NUM	-0.7143512
-1.1043986	PUNCT VERB NUM	-0.58618134
-1.0930836	DET VERB NUM	-0.6040105
-1.1354411	NUM VERB NUM	-0.52093595
-1.1627147	ADV VERB NUM	-0.7364172
-1.2364471	CCONJ VERB NUM	-0.36076722
-1.227405	ADP VERB NUM	-0.53279275
-1.1443619	PRON VERB NUM	-0.58083236
-1.1008579	SCONJ VERB NUM	-0.43442017
-1.1149143	X VERB NUM	-0.67593324
-0.82815504	INTJ VERB NUM	-0.31105867
-1.6565355	<s> PUNCT NUM	-1.0127606
-1.1735338	PROPN PUNCT NUM	-0.63679445
-1.2244362	NOUN PUNCT NUM	-0.7419833
-1.1723849	PART PUNCT NUM	-0.4449611
-1.2512372	ADJ PUNCT NUM	-0.3157538
-1.1880928	VERB PUNCT NUM	-0.60697246
-1.1871889	PUNCT PUNCT NUM	-0.49863708
-1.1052113	DET PUNCT NUM	-0.3181206
-1.0374979	NUM PUNCT NUM	-0.69009084
-1.2935255	ADV PUNCT NUM	-0.41759565
-1.279931	CCONJ PUNCT NUM	-0.3157538
-1.2022433	ADP PUNCT NUM	-0.48861757
-1.4664065	PRON PUNCT NUM	-0.3048607
-1.2446201	X PUNCT NUM	-0.31105867
-0.6172727	<s> DET NUM	-1.8139498
-0.8639987	PROPN DET NUM	-0.49802434
-0.8529001	NOUN DET NUM	-0.70238805
-0.88264716	PART DET NUM	-0.4456804
-0.84483737	ADJ DET NUM	-0.37078306
-0.99669623	VERB DET NUM	-0.68449014
-0.9147417	PUNCT DET NUM	-0.5152021
-1.0972203	DET DET NUM	-0.3648302
-0.61658394	NUM DET NUM	-0.3719328
-0.92773205	ADV DET NUM	-0.5113419
-0.9473363	CCONJ DET NUM	-0.46680176
-0.9340358	ADP DET NUM	-0.6455924
-0.74384815	PRON DET NUM	-0.5104205
-0.92544025	SCONJ DET NUM	-0.30683824
-0.7464968	X DET NUM	-0.5223191
-0.3996833	<s> NUM NUM	-1.8912154
-0.8505429	PROPN NUM NUM	-0.7269622
-0.9732853	NOUN NUM NUM	-0.8288188
-0.8341689	PART NUM NUM	-0.6006348
-0.6002183	ADJ NUM NUM	-0.6212431
-0.9999739	VERB NUM NUM	-0.8553263
-0.86625123	PUNCT NUM NUM	-0.6778041
-0.92475444	DET NUM NUM	-0.76091653
-1.1222167	NUM NUM NUM	-0.7022139
-0.94896805	ADV NUM NUM	-0.7625722
-0.91835487	CCONJ NUM NUM	-0.5653211
-0.8578958	ADP NUM NUM	-0.73088545
-0.54156524	PRON NUM NUM	-0.57713336
-0.5469433	SCONJ NUM NUM	-0.36025593
-0.6391582	X NUM NUM	-0.5184374
-1.5507395	<s> ADV NUM	-1.5846585
-1.046001	PROPN ADV NUM	-0.5191223
-1.1188602	NOUN ADV NUM	-0.7180368
-0.94750893	PART ADV NUM	-0.41772497
-1.0931726	VERB ADV NUM	-0.73318446
-1.0892838	PUNCT ADV NUM	-0.5255031
-1.3115478	DET ADV NUM	-0.30613878
-1.0249215	NUM ADV NUM	-0.40304878
-1.1131238	ADV ADV NUM	-0.5409119
-0.8568	CCONJ ADV NUM	-0.4394273
-0.9289311	ADP ADV NUM	-0.53104585
-1.0319409	PRON ADV NUM	-0.49486604
-1.0837699	SCONJ ADV NUM	-0.36025593
-0.93918794	X ADV NUM	-0.39717963
-0.9741396	<s> CCONJ NUM	-0.9053894
-1.0730749	PROPN CCONJ NUM	-0.47918457
-1.0538656	NOUN CCONJ NUM	-0.6138676
-0.9392077	PART CCONJ NUM	-0.30240607
-1.084763	VERB CCONJ NUM	-0.43400055
-0.98685586	PUNCT CCONJ NUM	-0.41841432
-0.8138841	DET CCONJ NUM	-0.31105867
-0.5997091	NUM CCONJ NUM	-0.62016875
-0.87647045	ADV CCONJ NUM	-0.39775965
-1.0052825	ADP CCONJ NUM	-0.31105867
-0.9697537	PRON CCONJ NUM	-0.46716544
-1.3792795	<s> ADP NUM	-1.4363731
-1.0382096	PROPN ADP NUM	-0.5571002
-1.0702883	NOUN ADP NUM	-0.65353125
-1.1194617	PART ADP NUM	-0.36240253
-1.0230685	VERB ADP NUM	-0.60026664
-1.073885	PUNCT ADP NUM	-0.46748304
-1.2360897	DET ADP NUM	-0.31457525
-1.1925327	NUM ADP NUM	-0.35353005
-1.1027197	ADV ADP NUM	-0.5515358
-1.1221464	CCONJ ADP NUM	-0.39717963
-1.0976783	ADP ADP NUM	-0.4617402
-1.1095041	PRON ADP NUM	-0.44034678
-1.2470601	SCONJ ADP NUM	-0.3181206
-0.4956332	INTJ ADP NUM	-0.31105867
-2.2962515	<s> PRON NUM	-1.0250808
-1.7051194	PROPN PRON NUM	-0.31105867
-1.503617	NOUN PRON NUM	-0.3002696
-1.5387944	PART PRON NUM	-0.31105867
-1.225081	VERB PRON NUM	-0.48418427
-1.268081	PUNCT PRON NUM	-0.44891217
-1.484256	NUM PRON NUM	-0.31105867
-1.1983528	ADV PRON NUM	-0.40789446
-1.1866809	CCONJ PRON NUM	-0.42167076
-1.2924345	ADP PRON NUM	-0.38799408
-1.7159867	PRON PRON NUM	-0.31105867
-1.378733	SCONJ PRON NUM	-0.3181206
-1.3317821	X PRON NUM	-0.29673204
-0.7481716	INTJ PRON NUM	-0.31105867
-1.5292788	<s> SCONJ NUM	-0.8450215
-1.2363836	NOUN SCONJ NUM	-0.3181206
-1.1941376	VERB SCONJ NUM	-0.30516148
-1.2019521	PUNCT SCONJ NUM	-0.29875
-0.83976746	NUM SCONJ NUM	-0.31105867
-1.2182788	ADV SCONJ NUM	-0.3181206
-1.1450634	ADP SCONJ NUM	-0.31105867
-1.5208074	<s> X NUM	-0.39717963
-1.1531646	PROPN X NUM	-0.3648302
-1.0128701	NOUN X NUM	-0.52211833
-0.9318849	PART X NUM	-0.3048607
-1.2494465	VERB X NUM	-0.40789446
-1.097915	PUNCT X NUM	-0.31261808
-1.3317572	NUM X NUM	-0.31105867
-1.0053345	ADV X NUM	-0.5268348
-1.1696955	CCONJ X NUM	-0.31105867
-1.1365501	ADP X NUM	-0.3157538
-1.3095102	PRON X NUM	-0.30613878
-1.1627823	SCONJ X NUM	-0.31105867
-1.1335887	<s> PROPN ADV	-1.8911769
-1.1059917	PROPN PROPN ADV	-0.56803036
-1.1156473	NOUN PROPN ADV	-0.64151394
-1.0610548	PART PROPN ADV	-0.49128515
-1.0612696	ADJ PROPN ADV	-0.49486604
-1.1010711	VERB PROPN ADV	-0.6526983
-1.1907245	PUNCT PROPN ADV	-0.60616374
-1.0000811	DET PROPN ADV	-0.544448
-1.0661993	NUM PROPN ADV	-0.5183751
-1.0408891	ADV PROPN ADV	-0.45142537
-1.2151283	CCONJ PROPN ADV	-0.32428262
-1.1267611	ADP PROPN ADV	-0.60680574
-1.0426975	PRON PROPN ADV	-0.4310775
-0.9380419	SCONJ PROPN ADV	-0.33617204
-1.5091817	X PROPN ADV	-0.3002696
-0.8624335	<s> NOUN ADV	-2.191539
-1.1390153	PROPN NOUN ADV	-0.7930098
-1.1318804	NOUN NOUN ADV	-0.8624375
-1.1266409	PART NOUN ADV	-0.68937266
-1.107862	ADJ NOUN ADV	-0.72124857
-1.1318141	VERB NOUN ADV	-0.751472
-1.169979	PUNCT NOUN ADV	-0.6481282
-1.0997056	DET NOUN ADV	-0.68331164
-1.1155226	NUM NOUN ADV	-0.6913732
-0.9912137	ADV NOUN ADV	-0.5694529
-0.97771585	CCONJ NOUN ADV	-0.47684923
-1.0729133	ADP NOUN ADV	-0.6573564
-1.0029469	PRON NOUN ADV	-0.6159938
-0.87078613	SCONJ NOUN ADV	-0.4429668
-1.1476223	X NOUN ADV	-0.56759524
-1.1852723	INTJ NOUN ADV	-0.31105867
-0.74547017	SPACE NOUN ADV	-0.31105867
-2.0882337	<s> PART ADV	-0.31105867
-1.1437697	PROPN PART ADV	-0.5439915
-1.1331582	NOUN PART ADV	-0.7672891
-1.2427562	PART PART ADV	-0.34451628
-1.2451708	ADJ PART ADV	-0.4310775
-1.120321	VERB PART ADV	-0.7405251
-1.1812632	PUNCT PART ADV	-0.428775
-1.5151929	DET PART ADV	-0.3181206
-1.0557733	NUM PART ADV	-0.45787746
-0.99380434	ADV PART ADV	-0.50936604
-1.20204	CCONJ PART ADV	-0.31105867
-0.95408326	ADP PART ADV	-0.3002696
-1.0991725	PRON PART ADV	-0.47334224
-2.7650993	<s> ADJ ADV	-0.29673204
-1.425827	PROPN ADJ ADV	-0.3157538
-1.4041033	NOUN ADJ ADV	-0.30240607
-1.3954713	PART ADJ ADV	-0.31457525
-1.2382286	VERB ADJ ADV	-0.41598272
-1.5411278	PUNCT ADJ ADV	-0.31105867
-1.3961558	DET ADJ ADV	-0.31105867
-1.6996676	NUM ADJ ADV	-0.31105867
-1.67895	ADV ADJ ADV	-0.31105867
-1.5026926	CCONJ ADJ ADV	-0.31105867
-1.5383942	PRON ADJ ADV	-0.31105867
-1.4167563	X ADJ ADV	-0.31105867
-1.3328904	<s> VERB ADV	-1.4994462
-1.1372519	PROPN VERB ADV	-0.6632949
-1.1720074	NOUN VERB ADV	-0.86100346
-1.1322389	PART VERB ADV	-0.48851955
-1.2749449	ADJ VERB ADV	-0.30516148
-1.1372519	VERB VERB ADV	-0.72413474
-1.138724	PUNCT VERB ADV	-0.58130443
-1.1808193	DET VERB ADV	-0.3648302
-1.22173	NUM VERB ADV	-0.41579393
-1.1624451	ADV VERB ADV	-0.76779926
-1.1687802	CCONJ VERB ADV	-0.36916402
-1.1813322	ADP VERB ADV	-0.45590115
-1.0822169	PRON VERB ADV	-0.6525467
-1.0416721	SCONJ VERB ADV	-0.4705725
-1.1145663	X VERB ADV	-0.45873246
-0.8274798	INTJ VERB ADV	-0.31105867
-1.1492671	<s> PUNCT ADV	-1.2736862
-1.1385849	PROPN PUNCT ADV	-0.6957719
-1.1595802	NOUN PUNCT ADV	-0.8581742
-1.0813844	PART PUNCT ADV	-0.56324935
-0.99668103	ADJ PUNCT ADV	-0.5185808
-1.155559	VERB PUNCT ADV	-0.7874261
-1.1422243	PUNCT PUNCT ADV	-0.5871191
-1.4166044	DET PUNCT ADV	-0.3157538
-1.1393764	NUM PUNCT ADV	-0.5918043
-1.0237609	ADV PUNCT ADV	-0.51434976
-1.1365436	CCONJ PUNCT ADV	-0.35678315
-1.1390435	ADP PUNCT ADV	-0.46716544
-1.0557417	PRON PUNCT ADV	-0.44515345
-1.1336374	X PUNCT ADV	-0.5185808
-1.1829165	INTJ PUNCT ADV	-0.31105867
-1.9801272	<s> DET ADV	-0.75138485
-1.2149256	PROPN DET ADV	-0.30736354
-1.0778283	NOUN DET ADV	-0.41042963
-1.0628761	PART DET ADV	-0.34311506
-0.9602141	ADJ DET ADV	-0.3002696
-1.1888983	VERB DET ADV	-0.5411152
-1.1808068	PUNCT DET ADV	-0.39200023
-1.0355403	DET DET ADV	-0.39717963
-1.3339843	NUM DET ADV	-0.3181206
-0.9307974	ADV DET ADV	-0.4456878
-1.1569902	CCONJ DET ADV	-0.34527513
-1.0965884	ADP DET ADV	-0.4456878
-1.2845052	PRON DET ADV	-0.30240607
-1.2932066	X DET ADV	-0.29673204
-1.9805672	<s> NUM ADV	-0.73625237
-1.0983082	PROPN NUM ADV	-0.43400055
-1.1066173	NOUN NUM ADV	-0.51479125
-1.2338345	PART NUM ADV	-0.3096358
-1.5991994	ADJ NUM ADV	-0.31105867
-1.1333059	VERB NUM ADV	-0.5729707
-1.1663638	PUNCT NUM ADV	-0.36333102
-1.0990301	DET NUM ADV	-0.46227193
-1.0923939	NUM NUM ADV	-0.7903429
-1.1584455	ADV NUM ADV	-0.46590033
-1.1710074	CCONJ NUM ADV	-0.47636086
-1.1625768	ADP NUM ADV	-0.4817219
-1.0812662	PRON NUM ADV	-0.39717963
-1.2386081	SCONJ NUM ADV	-0.31105867
-1.4233284	X NUM ADV	-0.3181206
-0.7933353	<s> ADV ADV	-2.245499
-0.97377837	PROPN ADV ADV	-0.62054527
-1.0562863	NOUN ADV ADV	-0.8054502
-0.99064004	PART ADV ADV	-0.42025384
-1.2610282	ADJ ADV ADV	-0.3181206
-1.0557622	VERB ADV ADV	-0.6140658
-1.082669	PUNCT ADV ADV	-0.6041815
-0.89123404	DET ADV ADV	-0.55919766
-0.87837434	NUM ADV ADV	-0.5716206
-1.0349625	ADV ADV ADV	-0.6101428
-1.0288817	CCONJ ADV ADV	-0.4310775
-1.0104669	ADP ADV ADV	-0.4705725
-0.9218087	PRON ADV ADV	-0.5879697
-0.76338375	SCONJ ADV ADV	-0.42992476
-1.3841096	X ADV ADV	-0.31105867
-0.8281744	INTJ ADV ADV	-0.31105867
-1.2307127	<s> CCONJ ADV	-0.6818496
-1.0677956	PROPN CCONJ ADV	-0.4674734
-1.0820208	NOUN CCONJ ADV	-0.5745072
-1.1305391	PART CCONJ ADV	-0.3157538
-1.106418	ADJ CCONJ ADV	-0.31105867
-0.8888917	VERB CCONJ ADV	-0.5891572
-1.0322261	PUNCT CCONJ ADV	-0.43889785
-1.2083914	NUM CCONJ ADV	-0.30240607
-0.93898153	ADV CCONJ ADV	-0.41772497
-1.058382	CCONJ CCONJ ADV	-0.31105867
-1.0930402	ADP CCONJ ADV	-0.31105867
-1.0326762	PRON CCONJ ADV	-0.30683824
-1.5229375	<s> ADP ADV	-1.2369596
-1.1659045	PROPN ADP ADV	-0.43107757
-1.1048955	NOUN ADP ADV	-0.573696
-1.2268143	PART ADP ADV	-0.30240607
-1.0577079	VERB ADP ADV	-0.5662435
-1.1229637	PUNCT ADP ADV	-0.48230776
-1.5838453	DET ADP ADV	-0.3181206
-1.3030895	NUM ADP ADV	-0.37078306
-1.1521571	ADV ADP ADV	-0.44659835
-1.1289781	CCONJ ADP ADV	-0.30683824
-1.1850643	ADP ADP ADV	-0.3730856
-1.0659066	PRON ADP ADV	-0.44488472
-1.1202043	SCONJ ADP ADV	-0.30240607
-0.47576153	<s> PRON ADV	-2.338373
-0.9062999	PROPN PRON ADV	-0.5366629
-0.9627846	NOUN PRON ADV	-0.6078038
-0.81146836	PART PRON ADV	-0.4949446
-1.1114908	VERB PRON ADV	-0.64237595
-1.0008267	PUNCT PRON ADV	-0.5879697
-0.7256991	DET PRON ADV	-0.49504462
-0.9377611	NUM PRON ADV	-0.40789446
-0.93533224	ADV PRON ADV	-0.4972624
-0.9354329	CCONJ PRON ADV	-0.41759565
-1.0563972	ADP PRON ADV	-0.5382148
-0.7953165	PRON PRON ADV	-0.5801286
-0.7840463	SCONJ PRON ADV	-0.37698883
-1.0997084	X PRON ADV	-0.39717963
-1.1275585	<s> SCONJ ADV	-1.0397283
-0.61490506	PROPN SCONJ ADV	-0.428775
-0.75800484	NOUN SCONJ ADV	-0.60423166
-0.9178657	VERB SCONJ ADV	-0.47992754
-0.9747368	PUNCT SCONJ ADV	-0.451465
-1.1578008	ADV SCONJ ADV	-0.3133999
-0.99917704	ADP SCONJ ADV	-0.3181206
-0.589892	PRON SCONJ ADV	-0.40427357
-0.63750046	SCONJ SCONJ ADV	-0.31105867
-1.7500638	<s> X ADV	-0.38158733
-1.0741884	PROPN X ADV	-0.3038363
-0.97467524	NOUN X ADV	-0.6524521
-1.1651058	PART X ADV	-0.30240607
-1.0721802	VERB X ADV	-0.57568353
-1.5054482	PUNCT X ADV	-0.3157538
-1.3336473	DET X ADV	-0.31105867
-1.3301253	NUM X ADV	-0.31105867
-1.004984	ADV X ADV	-0.55040157
-1.257942	CCONJ X ADV	-0.31105867
-1.4566073	ADP X ADV	-0.31105867
-1.064588	PRON X ADV	-0.5185808
-1.4424511	<s> INTJ ADV	-0.31105867
-1.5063819	PUNCT INTJ ADV	-0.31105867
-1.6406782	<s> PROPN CCONJ	-1.4909142
-1.1062346	PROPN PROPN CCONJ	-0.6310321
-1.1478757	NOUN PROPN CCONJ	-0.6497862
-1.1490234	PART PROPN CCONJ	-0.5184118
-1.3262645	ADJ PROPN CCONJ	-0.3585161
-1.1313181	VERB PROPN CCONJ	-0.664992
-1.1185701	PUNCT PROPN CCONJ	-0.59884745
-1.0893518	DET PROPN CCONJ	-0.511123
-1.0664995	NUM PROPN CCONJ	-0.5513327
-1.0873806	ADV PROPN CCONJ	-0.48923126
-1.2157942	CCONJ PROPN CCONJ	-0.3730856
-1.0948027	ADP PROPN CCONJ	-0.6519063
-1.1254452	PRON PROPN CCONJ	-0.3181206
-1.1777568	SCONJ PROPN CCONJ	-0.30613878
-1.0040267	X PROPN CCONJ	-0.523304
-1.6413323	<s> NOUN CCONJ	-1.5101342
-1.1734487	PROPN NOUN CCONJ	-0.7422784
-1.1641865	NOUN NOUN CCONJ	-0.84083194
-1.1700494	PART NOUN CCONJ	-0.6867935
-1.1123328	ADJ NOUN CCONJ	-0.7369464
-1.1362848	VERB NOUN CCONJ	-0.7721852
-1.1405398	PUNCT NOUN CCONJ	-0.62952906
-1.1040747	DET NOUN CCONJ	-0.641487
-1.1202033	NUM NOUN CCONJ	-0.65273
-1.1307961	ADV NOUN CCONJ	-0.5184374
-1.1601157	CCONJ NOUN CCONJ	-0.43631655
-1.1396278	ADP NOUN CCONJ	-0.6732773
-1.0399308	PRON NOUN CCONJ	-0.44995067
-1.0064718	SCONJ NOUN CCONJ	-0.35088646
-1.0563413	X NOUN CCONJ	-0.53423053
-1.980981	PROPN PART CCONJ	-0.31105867
-1.2115186	NOUN PART CCONJ	-0.5869225
-1.7499279	PART PART CCONJ	-0.31105867
-1.3161645	VERB PART CCONJ	-0.41290265
-1.7871352	PUNCT PART CCONJ	-0.31105867
-1.9509208	NUM PART CCONJ	-0.31105867
-1.9033	ADV PART CCONJ	-0.31105867
-1.994068	PRON PART CCONJ	-0.31105867
-2.9594798	<s> ADJ CCONJ	-0.31105867
-1.6200753	PROPN ADJ CCONJ	-0.3181206
-1.7224813	NOUN ADJ CCONJ	-0.31105867
-1.269092	PART ADJ CCONJ	-0.30240607
-1.1285527	VERB ADJ CCONJ	-0.5285925
-1.3107579	PUNCT ADJ CCONJ	-0.30683824
-1.6010456	DET ADJ CCONJ	-0.31105867
-1.6202015	NUM ADJ CCONJ	-0.31105867
-1.680951	ADV ADJ CCONJ	-0.31105867
-1.4262435	CCONJ ADJ CCONJ	-0.31105867
-1.6898856	ADP ADJ CCONJ	-0.31105867
-1.5402179	PRON ADJ CCONJ	-0.31105867
-2.3438048	<s> VERB CCONJ	-0.7947765
-1.2017807	PROPN VERB CCONJ	-0.53616554
-1.1745136	NOUN VERB CCONJ	-0.6687578
-1.2227765	PART VERB CCONJ	-0.42826137
-1.0708437	ADJ VERB CCONJ	-0.47636086
-1.1696136	VERB VERB CCONJ	-0.57807446
-1.1795279	PUNCT VERB CCONJ	-0.49480268
-1.2957957	DET VERB CCONJ	-0.5576786
-1.2769308	NUM VERB CCONJ	-0.41042963
-1.1651865	ADV VERB CCONJ	-0.65485376
-1.2414705	CCONJ VERB CCONJ	-0.39889124
-1.2308182	ADP VERB CCONJ	-0.51831794
-1.3068221	PRON VERB CCONJ	-0.44653532
-1.4872422	SCONJ VERB CCONJ	-0.3157538
-1.2152251	X VERB CCONJ	-0.46273232
-2.630008	<s> PUNCT CCONJ	-0.5011554
-1.1735338	PROPN PUNCT CCONJ	-0.5839638
-1.2244362	NOUN PUNCT CCONJ	-0.76384807
-1.4298909	PART PUNCT CCONJ	-0.33456156
-1.5555065	ADJ PUNCT CCONJ	-0.31105867
-1.2933155	VERB PUNCT CCONJ	-0.57149965
-1.4107105	PUNCT PUNCT CCONJ	-0.38152194
-1.6306432	DET PUNCT CCONJ	-0.31105867
-1.2303768	NUM PUNCT CCONJ	-0.40867254
-1.6018963	ADV PUNCT CCONJ	-0.31105867
-1.4833237	CCONJ PUNCT CCONJ	-0.31386968
-1.8357868	ADP PUNCT CCONJ	-0.31105867
-1.5965981	PRON PUNCT CCONJ	-0.3038363
-1.2855788	INTJ PUNCT CCONJ	-0.31105867
-1.6699408	VERB DET CCONJ	-0.31105867
-2.0091949	CCONJ DET CCONJ	-0.31105867
-2.4854996	<s> NUM CCONJ	-0.7173794
-1.1626705	PROPN NUM CCONJ	-0.4220434
-1.1587212	NOUN NUM CCONJ	-0.5803648
-1.3944448	PART NUM CCONJ	-0.3002696
-1.1051497	VERB NUM CCONJ	-0.6246254
-1.3330262	PUNCT NUM CCONJ	-0.4512895
-1.4176812	DET NUM CCONJ	-0.30882478
-1.2358158	NUM NUM CCONJ	-0.48826635
-1.2313462	ADV NUM CCONJ	-0.6012996
-1.6215731	CCONJ NUM CCONJ	-0.3157538
-1.1759149	ADP NUM CCONJ	-0.5576786
-1.5568526	X NUM CCONJ	-0.31105867
-2.6076791	<s> ADV CCONJ	-0.6874555
-1.2959301	PROPN ADV CCONJ	-0.3171047
-1.2332362	NOUN ADV CCONJ	-0.44659835
-1.4677782	PART ADV CCONJ	-0.31457525
-1.4471167	VERB ADV CCONJ	-0.31090707
-1.4535902	PUNCT ADV CCONJ	-0.30613884
-1.7951479	NUM ADV CCONJ	-0.31105867
-1.3245124	ADV ADV CCONJ	-0.3437988
-1.8402234	ADP ADV CCONJ	-0.31105867
-1.397154	PRON ADV CCONJ	-0.3133999
-1.5502704	SCONJ ADV CCONJ	-0.31105867
-2.5481732	<s> CCONJ CCONJ	-0.31105867
-1.4026864	NOUN CCONJ CCONJ	-0.39492276
-2.0534565	VERB CCONJ CCONJ	-0.31105867
-1.9555494	PUNCT CCONJ CCONJ	-0.31105867
-3.2601693	<s> ADP CCONJ	-0.3038363
-1.7429426	PROPN ADP CCONJ	-0.31457525
-1.68876	NOUN ADP CCONJ	-0.3002696
-2.0423958	VERB ADP CCONJ	-0.3181206
-1.9394157	PUNCT ADP CCONJ	-0.31105867
-2.0890322	ADV ADP CCONJ	-0.31105867
-2.1947796	<s> PRON CCONJ	-0.87072986
-1.7237043	PROPN PRON CCONJ	-0.31105867
-1.2095965	NOUN PRON CCONJ	-0.34517428
-1.3590198	PART PRON CCONJ	-0.3171047
-1.1873083	VERB PRON CCONJ	-0.54828566
-1.2152276	PUNCT PRON CCONJ	-0.46010038
-1.4152961	NUM PRON CCONJ	-0.31105867
-1.3827912	ADV PRON CCONJ	-0.30783036
-1.60351	CCONJ PRON CCONJ	-0.31105867
-1.2381307	ADP PRON CCONJ	-0.47721583
-1.2731615	PRON PRON CCONJ	-0.29673204
-1.3946743	SCONJ PRON CCONJ	-0.31105867
-1.6171889	X PRON CCONJ	-0.31105867
-3.3884766	<s> SCONJ CCONJ	-0.31105867
-1.856034	NOUN SCONJ CCONJ	-0.31105867
-1.9103333	PUNCT SCONJ CCONJ	-0.31105867
-1.9987979	PROPN X CCONJ	-0.31105867
-0.99907607	ADJ X CCONJ	-0.31105867
-1.3386756	<s> PROPN ADP	-1.749592
-1.1355773	PROPN PROPN ADP	-0.6866388
-1.0835499	NOUN PROPN ADP	-0.6913732
-1.1962537	PART PROPN ADP	-0.45033237
-1.1698531	ADJ PROPN ADP	-0.42791927
-1.1288127	VERB PROPN ADP	-0.6607269
-1.1502584	PUNCT PROPN ADP	-0.6047284
-1.2655655	DET PROPN ADP	-0.44990966
-1.1608409	NUM PROPN ADP	-0.46842158
-1.0836563	ADV PROPN ADP	-0.4889592
-1.130524	CCONJ PROPN ADP	-0.36933658
-1.1242752	ADP PROPN ADP	-0.6337067
-1.038105	PRON PROPN ADP	-0.30777255
-1.0346509	SCONJ PROPN ADP	-0.307583
-1.1131763	X PROPN ADP	-0.49504462
-0.9841479	INTJ PROPN ADP	-0.31105867
-1.2941185	<s> NOUN ADP	-1.8430504
-1.1410811	PROPN NOUN ADP	-0.808885
-1.161776	NOUN NOUN ADP	-0.8976484
-1.2081791	PART NOUN ADP	-0.669148
-1.1398152	ADJ NOUN ADP	-0.76900077
-1.1637673	VERB NOUN ADP	-0.76846933
-1.1378818	PUNCT NOUN ADP	-0.6204643
-1.1017712	DET NOUN ADP	-0.7271498
-1.1177351	NUM NOUN ADP	-0.73895466
-1.1276544	ADV NOUN ADP	-0.49497518
-1.2135178	CCONJ NOUN ADP	-0.44990966
-1.1048665	ADP NOUN ADP	-0.6884455
-1.0372698	PRON NOUN ADP	-0.57859063
-1.3111539	SCONJ NOUN ADP	-0.30683824
-1.0114559	X NOUN ADP	-0.5192191
-1.1948082	INTJ NOUN ADP	-0.31105867
-1.1929868	PROPN PART ADP	-0.47000107
-1.1688792	NOUN PART ADP	-0.7079666
-1.5931935	PART PART ADP	-0.3133999
-1.8868337	ADJ PART ADP	-0.31105867
-1.156042	VERB PART ADP	-0.68113273
-1.4314299	PUNCT PART ADP	-0.30810004
-1.6370304	DET PART ADP	-0.31105867
-1.6021228	NUM PART ADP	-0.31489637
-1.0010047	ADV PART ADP	-0.39115912
-1.4433734	ADP PART ADP	-0.31105867
-1.4145492	PRON PART ADP	-0.38158733
-2.7778397	<s> ADJ ADP	-0.31105867
-1.1197563	PROPN ADJ ADP	-0.3038363
-1.3128403	NOUN ADJ ADP	-0.38434273
-1.6017667	PART ADJ ADP	-0.3181206
-1.3124686	VERB ADJ ADP	-0.4310775
-1.3175225	PUNCT ADJ ADP	-0.3002696
-1.2691717	DET ADJ ADP	-0.3181206
-1.7213624	NUM ADJ ADP	-0.31105867
-1.6213144	ADV ADJ ADP	-0.3181206
-1.5250361	CCONJ ADJ ADP	-0.31105867
-1.7875136	ADP ADJ ADP	-0.31105867
-1.2597885	<s> VERB ADP	-1.6478014
-1.1693578	PROPN VERB ADP	-0.71963906
-1.1463509	NOUN VERB ADP	-0.8981098
-1.1351389	PART VERB ADP	-0.49803093
-1.070463	ADJ VERB ADP	-0.4728233
-1.1394268	VERB VERB ADP	-0.7499867
-1.1413798	PUNCT VERB ADP	-0.63511634
-1.236083	DET VERB ADP	-0.39232123
-1.1001993	NUM VERB ADP	-0.5945056
-1.1351398	ADV VERB ADP	-0.78575253
-1.0627393	CCONJ VERB ADP	-0.44160804
-1.1844007	ADP VERB ADP	-0.5372831
-1.1143316	PRON VERB ADP	-0.6607269
-1.1044514	SCONJ VERB ADP	-0.41927728
-1.076319	X VERB ADP	-0.47659245
-1.3615764	<s> PUNCT ADP	-1.1271068
-1.1385849	PROPN PUNCT ADP	-0.6732773
-1.2216071	NOUN PUNCT ADP	-0.8109051
-1.1682962	PART PUNCT ADP	-0.43119448
-1.5369518	ADJ PUNCT ADP	-0.31105867
-1.155559	VERB PUNCT ADP	-0.7483963
-1.2801247	PUNCT PUNCT ADP	-0.48706645
-1.2838632	DET PUNCT ADP	-0.31386968
-1.1806618	NUM PUNCT ADP	-0.5122633
-1.1623248	ADV PUNCT ADP	-0.4760669
-1.1365436	CCONJ PUNCT ADP	-0.31105867
-1.1971413	ADP PUNCT ADP	-0.3686632
-1.21179	PRON PUNCT ADP	-0.40071213
-1.6583415	X PUNCT ADP	-0.31105867
-1.2674587	INTJ PUNCT ADP	-0.31105867
-2.0550427	<s> DET ADP	-0.73401254
-1.0702416	PROPN DET ADP	-0.40789446
-1.3420455	NOUN DET ADP	-0.3157538
-1.2487284	PART DET ADP	-0.34517428
-1.4658118	ADJ DET ADP	-0.31105867
-1.1063607	VERB DET ADP	-0.58517855
-1.1866847	PUNCT DET ADP	-0.4485341
-1.0405802	DET DET ADP	-0.47636086
-1.3394716	ADV DET ADP	-0.35228458
-1.0826635	CCONJ DET ADP	-0.3585161
-1.0540909	ADP DET ADP	-0.4790718
-1.0603623	PRON DET ADP	-0.31386968
-1.5066025	X DET ADP	-0.3157538
-2.1961071	<s> NUM ADP	-0.6558493
-1.3571315	PROPN NUM ADP	-0.41598272
-1.2477754	NOUN NUM ADP	-0.3585161
-1.5595148	PART NUM ADP	-0.31634432
-1.2234694	VERB NUM ADP	-0.5080096
-1.1711429	PUNCT NUM ADP	-0.34348285
-1.1025995	DET NUM ADP	-0.51309335
-1.0949317	NUM NUM ADP	-0.73342466
-1.2209114	ADV NUM ADP	-0.36707106
-1.2752248	CCONJ NUM ADP	-0.30683824
-1.1073371	ADP NUM ADP	-0.42791927
-1.2289484	PRON NUM ADP	-0.31105867
-1.2526933	SCONJ NUM ADP	-0.31105867
-1.235564	X NUM ADP	-0.3157538
-1.0297083	<s> ADV ADP	-2.1044016
-0.9761904	PROPN ADV ADP	-0.7143102
-1.1159472	NOUN ADV ADP	-0.8644479
-1.0526947	PART ADV ADP	-0.42433771
-1.3727763	ADJ ADV ADP	-0.31105867
-1.0582308	VERB ADV ADP	-0.6788084
-1.1268837	PUNCT ADV ADP	-0.667525
-1.0522059	DET ADV ADP	-0.4562537
-1.0207168	NUM ADV ADP	-0.42715597
-1.0376823	ADV ADV ADP	-0.69372714
-0.96485984	CCONJ ADV ADP	-0.46716544
-1.065511	ADP ADV ADP	-0.46695483
-1.028539	PRON ADV ADP	-0.62054527
-0.82606626	SCONJ ADV ADP	-0.4040373
-1.3080502	X ADV ADP	-0.31105867
-1.1012137	<s> CCONJ ADP	-0.8606214
-1.4377755	PROPN CCONJ ADP	-0.3157538
-1.1620586	NOUN CCONJ ADP	-0.55494195
-1.253772	PART CCONJ ADP	-0.31105867
-1.04282	VERB CCONJ ADP	-0.41863993
-1.102147	PUNCT CCONJ ADP	-0.4006916
-1.5148047	NUM CCONJ ADP	-0.31105867
-1.1390269	ADV CCONJ ADP	-0.31386968
-1.6588311	PRON CCONJ ADP	-0.31105867
-0.49769124	X CCONJ ADP	-0.31105867
-1.7174767	<s> ADP ADP	-1.1439029
-1.1616919	PROPN ADP ADP	-0.46268138
-1.1363147	NOUN ADP ADP	-0.5146213
-1.3486408	PART ADP ADP	-0.3002696
-1.0549045	VERB ADP ADP	-0.5520513
-1.1186477	PUNCT ADP ADP	-0.4915426
-1.3688047	DET ADP ADP	-0.3002696
-1.7196245	NUM ADP ADP	-0.31105867
-1.2581694	ADV ADP ADP	-0.4352419
-1.5283802	CCONJ ADP ADP	-0.31105867
-1.6043023	ADP ADP ADP	-0.31105867
-1.2885528	PRON ADP ADP	-0.4091735
-1.5196062	SCONJ ADP ADP	-0.31105867
-1.2463207	X ADP ADP	-0.31105867
-1.057265	<s> PRON ADP	-1.8517953
-0.9062999	PROPN PRON ADP	-0.4183689
-0.9948405	NOUN PRON ADP	-0.57027465
-1.0368788	PART PRON ADP	-0.36623988
-1.0794809	VERB PRON ADP	-0.69231594
-1.035381	PUNCT PRON ADP	-0.6189632
-1.4921379	DET PRON ADP	-0.31105867
-0.85260576	NUM PRON ADP	-0.41598272
-1.073261	ADV PRON ADP	-0.4543009
-1.0854937	CCONJ PRON ADP	-0.36759803
-1.1359875	ADP PRON ADP	-0.57356316
-1.0733995	PRON PRON ADP	-0.31090707
-0.9368951	SCONJ PRON ADP	-0.3533423
-0.8905345	X PRON ADP	-0.45417288
-1.3950131	<s> SCONJ ADP	-0.8451648
-1.1255265	PROPN SCONJ ADP	-0.3157538
-0.8467273	NOUN SCONJ ADP	-0.4107072
-0.8894448	PART SCONJ ADP	-0.31105867
-1.2954781	VERB SCONJ ADP	-0.31457525
-1.1770744	PUNCT SCONJ ADP	-0.3397481
-1.1578008	ADV SCONJ ADP	-0.31575382
-0.7852035	ADP SCONJ ADP	-0.31105867
-1.1000893	PRON SCONJ ADP	-0.31508
-2.3723655	<s> X ADP	-0.31105867
-1.38479	PROPN X ADP	-0.3002696
-1.4636497	NOUN X ADP	-0.31669897
-1.177429	PART X ADP	-0.3157538
-1.3365446	VERB X ADP	-0.30613878
-1.5975446	PUNCT X ADP	-0.31105867
-1.3509161	DET X ADP	-0.31105867
-1.3787966	ADV X ADP	-0.3636788
-1.4759707	ADP X ADP	-0.31105867
-1.6222539	PRON X ADP	-0.31105867
-1.1294836	X X ADP	-0.31105867
-2.0143561	<s> INTJ ADP	-0.31105867
-0.6925576	NOUN INTJ ADP	-0.31105867
-2.5256872	<s> PROPN PRON	-0.78957283
-1.415852	PROPN PROPN PRON	-0.38342232
-1.1879759	NOUN PROPN PRON	-0.42847738
-1.5200523	PART PROPN PRON	-0.30569428
-1.3305393	VERB PROPN PRON	-0.47122473
-1.3960701	PUNCT PROPN PRON	-0.4688325
-1.8948923	DET PROPN PRON	-0.31105867
-1.901809	NUM PROPN PRON	-0.31105867
-1.4597822	ADV PROPN PRON	-0.30949375
-1.4593731	CCONJ PROPN PRON	-0.30777255
-1.2472824	ADP PROPN PRON	-0.4891558
-1.378468	PRON PROPN PRON	-0.31457525
-1.8265222	X PROPN PRON	-0.31105867
-1.9134216	<s> NOUN PRON	-1.2415788
-1.3657969	PROPN NOUN PRON	-0.45567936
-1.2260337	NOUN NOUN PRON	-0.6088741
-1.2572486	PART NOUN PRON	-0.47539324
-1.334208	ADJ NOUN PRON	-0.4861069
-1.1982596	VERB NOUN PRON	-0.60927814
-1.3005866	PUNCT NOUN PRON	-0.5004833
-1.2389771	DET NOUN PRON	-0.53104585
-1.266596	NUM NOUN PRON	-0.46163762
-1.395078	ADV NOUN PRON	-0.3298612
-1.2853205	CCONJ NOUN PRON	-0.3065153
-1.2992593	ADP NOUN PRON	-0.56261545
-1.3096497	PRON NOUN PRON	-0.39232123
-1.5158477	SCONJ NOUN PRON	-0.31457525
-1.8602773	X NOUN PRON	-0.31105867
-1.3551029	PROPN PART PRON	-0.41093904
-1.1719543	NOUN PART PRON	-0.7133744
-1.6139278	PART PART PRON	-0.3133999
-1.2605501	ADJ PART PRON	-0.30736354
-1.1288716	VERB PART PRON	-0.7157016
-1.4444013	PUNCT PART PRON	-0.31105867
-1.3327874	DET PART PRON	-0.3157538
-1.2268722	NUM PART PRON	-0.30783036
-1.4235377	ADV PART PRON	-0.3002696
-1.4225336	PRON PART PRON	-0.31508
-1.8922107	PROPN ADJ PRON	-0.31105867
-1.7160921	VERB ADJ PRON	-0.31457525
-2.007607	PUNCT ADJ PRON	-0.31105867
-1.7564023	ADV ADJ PRON	-0.3181206
-1.9558889	ADP ADJ PRON	-0.31105867
-1.0993131	<s> VERB PRON	-1.7103842
-1.167028	PROPN VERB PRON	-0.62253815
-1.1720074	NOUN VERB PRON	-0.80344814
-1.1733863	PART VERB PRON	-0.5402221
-1.5036787	ADJ VERB PRON	-0.31105867
-1.1372519	VERB VERB PRON	-0.7605144
-1.1041309	PUNCT VERB PRON	-0.63297904
-1.2325665	DET VERB PRON	-0.48923126
-1.2725085	NUM VERB PRON	-0.4192239
-1.1624451	ADV VERB PRON	-0.7427727
-1.2359008	CCONJ VERB PRON	-0.42229056
-1.1022362	ADP VERB PRON	-0.59292847
-1.1440942	PRON VERB PRON	-0.62905663
-1.1683726	SCONJ VERB PRON	-0.41191974
-1.2683142	X VERB PRON	-0.3377936
-0.8274798	INTJ VERB PRON	-0.31105867
-0.983296	<s> PUNCT PRON	-1.394282
-1.2400773	PROPN PUNCT PRON	-0.6000236
-1.187117	NOUN PUNCT PRON	-0.6916555
-1.1646186	PART PUNCT PRON	-0.49068743
-1.5207723	ADJ PUNCT PRON	-0.31105867
-1.1830957	VERB PUNCT PRON	-0.6588123
-1.1392113	PUNCT PUNCT PRON	-0.5491823
-1.5989867	DET PUNCT PRON	-0.31105867
-1.2226106	NUM PUNCT PRON	-0.44708148
-1.1075128	ADV PUNCT PRON	-0.47334224
-1.4516672	CCONJ PUNCT PRON	-0.31386968
-1.0842445	ADP PUNCT PRON	-0.4024377
-0.9735442	PRON PUNCT PRON	-0.47601348
-1.1259573	SCONJ PUNCT PRON	-0.31105867
-1.5657635	X PUNCT PRON	-0.31105867
-1.1698573	INTJ PUNCT PRON	-0.31386968
-2.7978947	<s> DET PRON	-0.3002696
-1.5956767	NOUN DET PRON	-0.31105867
-1.6048493	PART DET PRON	-0.31457525
-1.2539146	VERB DET PRON	-0.42540905
-1.5182705	PUNCT DET PRON	-0.3157538
-1.3055754	DET DET PRON	-0.3002696
-1.4927282	ADV DET PRON	-0.3002696
-1.2811917	CCONJ DET PRON	-0.30613878
-1.4772755	ADP DET PRON	-0.31508
-1.611215	PRON DET PRON	-0.31105867
-1.625817	X DET PRON	-0.31105867
-3.0268097	<s> NUM PRON	-0.31457525
-1.8360476	PROPN NUM PRON	-0.31105867
-1.584595	NOUN NUM PRON	-0.31508
-1.7174988	PART NUM PRON	-0.31105867
-1.2396739	VERB NUM PRON	-0.4861069
-1.672963	DET NUM PRON	-0.31105867
-1.2849541	NUM NUM PRON	-0.513385
-1.6397185	ADV NUM PRON	-0.3157538
-1.7405415	CCONJ NUM PRON	-0.31105867
-1.6059241	PRON NUM PRON	-0.31105867
-1.0889424	<s> ADV PRON	-1.9502571
-1.2854424	PROPN ADV PRON	-0.48835817
-1.1882303	NOUN ADV PRON	-0.5438874
-1.4431217	PART ADV PRON	-0.31528202
-1.2103475	VERB ADV PRON	-0.39803067
-1.180006	PUNCT ADV PRON	-0.54946107
-1.7398828	DET ADV PRON	-0.31105867
-1.3421642	NUM ADV PRON	-0.3157538
-1.1576529	ADV ADV PRON	-0.42813304
-1.3674129	CCONJ ADV PRON	-0.3157538
-1.2023383	ADP ADV PRON	-0.3397481
-1.3015444	PRON ADV PRON	-0.42540905
-1.428986	SCONJ ADV PRON	-0.31386968
-1.1591078	<s> CCONJ PRON	-0.7153146
-1.0823756	PROPN CCONJ PRON	-0.47108254
-1.0928214	NOUN CCONJ PRON	-0.65176314
-1.4603984	VERB CCONJ PRON	-0.36681673
-1.2604581	PUNCT CCONJ PRON	-0.3925201
-1.4602917	NUM CCONJ PRON	-0.31457525
-1.5037159	ADV CCONJ PRON	-0.31105867
-0.98335725	CCONJ CCONJ PRON	-0.3181206
-0.91851264	PRON CCONJ PRON	-0.473705
-0.9903503	<s> ADP PRON	-1.7095586
-1.0347672	PROPN ADP PRON	-0.57997185
-1.0377452	NOUN ADP PRON	-0.68795276
-0.96487516	PART ADP PRON	-0.396808
-1.2365187	ADJ ADP PRON	-0.3181206
-1.020233	VERB ADP PRON	-0.7111826
-0.99205256	PUNCT ADP PRON	-0.5877569
-0.977506	DET ADP PRON	-0.33617204
-0.8743081	NUM ADP PRON	-0.47026035
-1.0200688	ADV ADP PRON	-0.60125446
-0.8635626	CCONJ ADP PRON	-0.4040373
-1.0241331	ADP ADP PRON	-0.46507078
-0.9450575	PRON ADP PRON	-0.55926913
-1.0048543	SCONJ ADP PRON	-0.30569428
-0.89619523	X ADP PRON	-0.31105867
-2.3810775	<s> PRON PRON	-0.7459821
-1.6390644	PROPN PRON PRON	-0.31105867
-1.3346057	NOUN PRON PRON	-0.31575382
-1.554125	PART PRON PRON	-0.31508
-1.1869601	VERB PRON PRON	-0.63619167
-1.1177247	PUNCT PRON PRON	-0.47886655
-1.5002576	NUM PRON PRON	-0.31105867
-1.3818594	ADV PRON PRON	-0.3096358
-1.0917414	CCONJ PRON PRON	-0.30683824
-1.1857331	ADP PRON PRON	-0.50676596
-1.2725275	PRON PRON PRON	-0.31386968
-1.3930036	SCONJ PRON PRON	-0.31457525
-1.2079258	X PRON PRON	-0.3157538
-0.64905745	<s> SCONJ PRON	-1.5167396
-1.0271721	NOUN SCONJ PRON	-0.30683824
-0.8894448	PART SCONJ PRON	-0.31105867
-0.8589813	VERB SCONJ PRON	-0.50571114
-0.8784225	PUNCT SCONJ PRON	-0.6120123
-0.8405102	ADV SCONJ PRON	-0.30949375
-0.48686233	CCONJ SCONJ PRON	-0.31105867
-0.99917704	ADP SCONJ PRON	-0.3157538
-0.63750046	SCONJ SCONJ PRON	-0.31105867
-0.96925294	<s> X PRON	-0.7007153
-1.0141908	PROPN X PRON	-0.41564244
-0.9429827	NOUN X PRON	-0.60058975
-0.9383887	PART X PRON	-0.35142213
-0.9152606	VERB X PRON	-0.57902324
-0.9557202	PUNCT X PRON	-0.39717963
-1.3509161	DET X PRON	-0.31105867
-1.008852	ADV X PRON	-0.53140235
-0.80335015	CCONJ X PRON	-0.38158733
-0.9136432	PRON X PRON	-0.4091735
-1.1779288	SCONJ X PRON	-0.31105867
-1.8069744	<s> INTJ PRON	-0.31105867
-1.0072075	PROPN INTJ PRON	-0.31105867
-1.3455719	PUNCT INTJ PRON	-0.31105867
-0.749421	ADV INTJ PRON	-0.31105867
-2.9250288	<s> PROPN SCONJ	-0.59776205
-2.1863377	PROPN PROPN SCONJ	-0.31105867
-1.8663105	NOUN PROPN SCONJ	-0.3157538
-2.0487041	PART PROPN SCONJ	-0.31105867
-2.2192163	VERB PROPN SCONJ	-0.31105867
-1.5832629	PUNCT PROPN SCONJ	-0.35353005
-1.7583983	CCONJ PROPN SCONJ	-0.31105867
-2.085348	ADP PROPN SCONJ	-0.3181206
-2.4736447	<s> NOUN SCONJ	-0.97998446
-1.3271796	PROPN NOUN SCONJ	-0.43400055
-1.3054668	NOUN NOUN SCONJ	-0.5460004
-1.4466654	PART NOUN SCONJ	-0.38709617
-1.3948454	ADJ NOUN SCONJ	-0.5576786
-1.4782566	VERB NOUN SCONJ	-0.33617204
-1.4900035	PUNCT NOUN SCONJ	-0.34742436
-1.3346521	DET NOUN SCONJ	-0.47132555
-1.5019683	NUM NOUN SCONJ	-0.41796926
-1.7243026	ADV NOUN SCONJ	-0.30240607
-1.8117807	CCONJ NOUN SCONJ	-0.31105867
-1.8032986	ADP NOUN SCONJ	-0.3157538
-1.9036467	PRON NOUN SCONJ	-0.3181206
-1.8344159	NOUN PART SCONJ	-0.39717963
-1.6006604	VERB PART SCONJ	-0.31634432
-3.011273	<s> VERB SCONJ	-0.42343712
-1.5609105	PROPN VERB SCONJ	-0.31747386
-1.3643689	NOUN VERB SCONJ	-0.47721583
-1.9587383	PART VERB SCONJ	-0.31105867
-1.6448611	VERB VERB SCONJ	-0.3409009
-1.5508649	PUNCT VERB SCONJ	-0.3096358
-1.961624	NUM VERB SCONJ	-0.31105867
-1.4849881	ADV VERB SCONJ	-0.401381
-2.055742	ADP VERB SCONJ	-0.31105867
-1.5065491	PRON VERB SCONJ	-0.39762154
-1.8999184	X VERB SCONJ	-0.31105867
-1.980947	<s> PUNCT SCONJ	-0.7347686
-1.4547452	PROPN PUNCT SCONJ	-0.40630037
-1.2301503	NOUN PUNCT SCONJ	-0.65578663
-1.3624135	PART PUNCT SCONJ	-0.3249709
-1.226129	VERB PUNCT SCONJ	-0.6159938
-1.2415193	PUNCT PUNCT SCONJ	-0.43248945
-1.7511622	DET PUNCT SCONJ	-0.31105867
-1.503008	NUM PUNCT SCONJ	-0.29930198
-1.4917619	ADV PUNCT SCONJ	-0.30975416
-1.805635	ADP PUNCT SCONJ	-0.3181206
-1.826776	PRON PUNCT SCONJ	-0.31457525
-1.3242583	INTJ PUNCT SCONJ	-0.31105867
-2.2667763	VERB DET SCONJ	-0.31105867
-2.2214944	PROPN NUM SCONJ	-0.31105867
-1.9745226	NUM NUM SCONJ	-0.31105867
-2.141097	<s> ADV SCONJ	-1.0822849
-2.1385028	NOUN ADV SCONJ	-0.31105867
-2.1924675	VERB ADV SCONJ	-0.31105867
-1.40337	PUNCT ADV SCONJ	-0.3651688
-2.135914	ADV ADV SCONJ	-0.31105867
-1.9577079	PRON ADV SCONJ	-0.31105867
-2.1847136	VERB CCONJ SCONJ	-0.31105867
-2.0868063	PUNCT CCONJ SCONJ	-0.31105867
-2.8120525	<s> ADP SCONJ	-0.33607358
-2.2647345	NOUN ADP SCONJ	-0.31105867
-2.225841	VERB ADP SCONJ	-0.31105867
-1.73627	PUNCT ADP SCONJ	-0.3133999
-2.3775158	<s> PRON SCONJ	-1.0983644
-2.0534403	NOUN PRON SCONJ	-0.31105867
-1.7823061	PART PRON SCONJ	-0.31105867
-1.4915481	VERB PRON SCONJ	-0.4485341
-1.4689134	PUNCT PRON SCONJ	-0.30932018
-1.6157225	DET PRON SCONJ	-0.31105867
-1.5928183	ADV PRON SCONJ	-0.30613878
-2.88927	<s> SCONJ SCONJ	-0.3002696
-1.903073	VERB SCONJ SCONJ	-0.31105867
-2.4909031	<s> PROPN X	-0.74485266
-1.2622308	PROPN PROPN X	-0.44726992
-1.4293972	NOUN PROPN X	-0.42917982
-1.2726175	PART PROPN X	-0.30378163
-1.2451177	VERB PROPN X	-0.451465
-1.2892396	PUNCT PROPN X	-0.46583846
-1.4963074	NUM PROPN X	-0.31386968
-1.4686899	ADV PROPN X	-0.30240607
-1.6721861	CCONJ PROPN X	-0.31105867
-1.2509252	ADP PROPN X	-0.54802406
-1.427654	SCONJ PROPN X	-0.31105867
-1.1395146	INTJ PROPN X	-0.31105867
-2.5080018	<s> NOUN X	-0.76954436
-1.20575	PROPN NOUN X	-0.564902
-1.1641865	NOUN NOUN X	-0.65981007
-1.257629	PART NOUN X	-0.53278893
-1.2472578	ADJ NOUN X	-0.4790718
-1.27121	VERB NOUN X	-0.56230617
-1.300967	PUNCT NOUN X	-0.45763826
-1.239288	DET NOUN X	-0.4906013
-1.1874027	NUM NOUN X	-0.57725805
-1.573522	ADV NOUN X	-0.3437988
-1.7744082	CCONJ NOUN X	-0.31105867
-1.2537868	ADP NOUN X	-0.5212477
-1.5554036	PRON NOUN X	-0.30882478
-1.5175014	SCONJ NOUN X	-0.31457525
-1.7899493	X NOUN X	-0.31105867
-1.3557376	PROPN PART X	-0.4485341
-1.2399818	NOUN PART X	-0.60311234
-1.6954049	PART PART X	-0.31105867
-1.353863	VERB PART X	-0.48940042
-1.4457692	PUNCT PART X	-0.31105867
-1.6606559	DET PART X	-0.31105867
-1.4826208	NUM PART X	-0.3038363
-1.1659849	ADV PART X	-0.30736354
-1.4657063	ADP PART X	-0.31105867
-1.8616533	PRON PART X	-0.3181206
-3.273572	<s> ADJ X	-0.31105867
-1.923872	NOUN ADJ X	-0.31105867
-1.78778	PART ADJ X	-0.31105867
-2.119959	VERB ADJ X	-0.31105867
-2.2281787	<s> VERB X	-0.8657008
-1.2742865	PROPN VERB X	-0.48168066
-1.1745136	NOUN VERB X	-0.72456586
-1.5761214	PART VERB X	-0.30975416
-1.7830936	ADJ VERB X	-0.31105867
-1.2742865	VERB VERB X	-0.514382
-1.7459733	PUNCT VERB X	-0.312819
-1.5469258	DET VERB X	-0.31105867
-1.335072	NUM VERB X	-0.30777255
-1.2317095	ADV VERB X	-0.6098866
-1.5493927	CCONJ VERB X	-0.30683824
-1.2823744	ADP VERB X	-0.4219557
-1.2609651	PRON VERB X	-0.49556994
-1.6812364	SCONJ VERB X	-0.31457525
-1.6429393	X VERB X	-0.31105867
-2.678387	<s> PUNCT X	-0.30378163
-1.4537435	PROPN PUNCT X	-0.40116677
-1.2649782	NOUN PUNCT X	-0.58490396
-1.5453126	PART PUNCT X	-0.31669897
-1.2994522	VERB PUNCT X	-0.4163887
-1.4220785	PUNCT PUNCT X	-0.3377936
-1.7469813	DET PUNCT X	-0.31105867
-1.5015874	NUM PUNCT X	-0.30777255
-1.6245695	ADV PUNCT X	-0.31105867
-1.8018442	ADP PUNCT X	-0.3157538
-1.9008883	PRON PUNCT X	-0.31105867
-1.7149036	X PUNCT X	-0.31105867
-3.0109067	<s> DET X	-0.39717963
-1.6068133	PART DET X	-0.31105867
-1.499315	ADJ DET X	-0.31105867
-1.3135903	VERB DET X	-0.43857232
-1.5195241	PUNCT DET X	-0.3181206
-1.6423179	DET DET X	-0.31105867
-1.6977146	ADV DET X	-0.31105867
-1.7023268	CCONJ DET X	-0.31105867
-1.2914958	ADP DET X	-0.35142213
-1.6134578	PRON DET X	-0.31105867
-1.5433911	X DET X	-0.3181206
-3.17869	<s> NUM X	-0.3157538
-1.9446516	PROPN NUM X	-0.31105867
