\data\
ngram 1=19
ngram 2=248
ngram 3=2634

\1-grams:
-2.243184	<unk>	0
0	<s>	-3.7062867
-1.2833012	</s>	0
-1.1661369	PROPN	-0.9508323
-1.1661369	NOUN	-0.9392263
-1.2207799	PART	-0.83517945
-1.2207799	ADJ	-0.84272355
-1.1661369	VERB	-0.92804223
-1.1925995	PUNCT	-0.9685802
-1.1925995	DET	-0.849814
-1.2207799	NUM	-0.9010603
-1.1925995	ADV	-0.9028637
-1.2207799	CCONJ	-0.7481208
-1.1925995	ADP	-0.8808136
-1.1925995	PRON	-0.88900596
-1.2833012	SCONJ	-0.6590563
-1.2207799	X	-0.8226407
-1.3182969	INTJ	-0.40673292
-1.8015351	SPACE	-0.21963213

\2-grams:
-1.217879	PROPN </s>	0
-1.2319379	NOUN </s>	0
-1.4155128	PART </s>	0
-1.2533373	VERB </s>	0
-1.1741502	PUNCT </s>	0
-2.0944939	DET </s>	0
-1.1782441	NUM </s>	0
-1.5466784	ADV </s>	0
-1.9925604	CCONJ </s>	0
-1.692432	ADP </s>	0
-1.3545278	PRON </s>	0
-1.6202289	X </s>	0
-1.6350785	INTJ </s>	0
-0.78486985	<s> PROPN	-2.961185
-1.1477166	PROPN PROPN	-2.747883
-1.1614535	NOUN PROPN	-2.7484615
-1.0939673	PART PROPN	-2.4506145
-1.0184965	ADJ PROPN	-1.7008734
-1.1778132	VERB PROPN	-2.9187717
-1.1630483	PUNCT PROPN	-2.9236262
-1.0891762	DET PROPN	-1.7497501
-1.1032877	NUM PROPN	-1.9898539
-1.1547695	ADV PROPN	-2.0388527
-1.0515476	CCONJ PROPN	-2.2527475
-1.0781226	ADP PROPN	-2.8035588
-1.1772457	PRON PROPN	-1.1969115
-1.1425505	SCONJ PROPN	-1.3895344
-1.0311959	X PROPN	-1.4989347
-0.81585085	INTJ PROPN	-0.34696573
-1.2155703	SPACE PROPN	-0.33132878
-0.72178257	<s> NOUN	-3.0523012
-1.121633	PROPN NOUN	-3.2180855
-1.1614535	NOUN NOUN	-3.662462
-1.0643631	PART NOUN	-3.4613476
-1.0184965	ADJ NOUN	-3.1043694
-1.1502693	VERB NOUN	-3.4712718
-1.1630483	PUNCT NOUN	-3.0796416
-1.0315261	DET NOUN	-2.865007
-1.1032877	NUM NOUN	-3.0398092
-1.0973318	ADV NOUN	-2.4329112
-0.98500115	CCONJ NOUN	-2.7797344
-1.0501599	ADP NOUN	-3.0561798
-1.115824	PRON NOUN	-2.1274285
-0.9846471	SCONJ NOUN	-1.742562
-1.0011504	X NOUN	-1.9706485
-0.7543273	INTJ NOUN	-0.43997967
-0.5559881	SPACE NOUN	-0.33132878
-2.9774702	<s> PART	-1.261775
-1.1532631	PROPN PART	-2.6634066
-1.1673355	NOUN PART	-3.3707967
-1.1003698	PART PART	-2.2527232
-1.0237782	ADJ PART	-2.4521306
-1.1840831	VERB PART	-3.2242448
-1.1967005	PUNCT PART	-2.1468666
-1.0952966	DET PART	-1.3723625
-1.1089032	NUM PART	-2.229721
-1.130984	ADV PART	-1.6060195
-1.2369018	CCONJ PART	-0.6021001
-1.26203	ADP PART	-0.75753033
-1.0936655	PRON PART	-2.546402
-1.2852045	X PART	-0.71475834
-1.0975593	INTJ PART	-0.4867304
-1.8609395	<s> ADJ	-2.0479467
-1.1813825	PROPN ADJ	-2.099477
-1.1952673	NOUN ADJ	-2.288801
-1.1003698	PART ADJ	-2.559777
-1.0237782	ADJ ADJ	-1.8515977
-1.1840831	VERB ADJ	-2.6962233
-1.1967005	PUNCT ADJ	-2.2295005
-1.0651073	DET ADJ	-2.0385165
-1.1089032	NUM ADJ	-2.2782724
-1.130984	ADV ADJ	-2.0771945
-1.0586488	CCONJ ADJ	-1.9742923
-1.0836746	ADP ADJ	-2.2059608
-1.184101	PRON ADJ	-1.393024
-1.0395107	SCONJ ADJ	-1.1563088
-1.0696169	X ADJ	-1.2968097
-0.9660333	<s> VERB	-2.7971146
-1.121633	PROPN VERB	-2.8385286
-1.1614535	NOUN VERB	-3.5167148
-1.0643631	PART VERB	-2.8015656
-1.0485644	ADJ VERB	-1.3798224
-1.1778132	VERB VERB	-3.2914107
-1.1630483	PUNCT VERB	-2.8755538
-1.0593952	DET VERB	-1.9141507
-1.1032877	NUM VERB	-2.2207425
-1.1251018	ADV VERB	-3.518802
-1.017001	CCONJ VERB	-2.2551641
-1.0781226	ADP VERB	-2.3949134
-1.0880907	PRON VERB	-2.8921883
-0.9043042	SCONJ VERB	-1.787299
-1.0311959	X VERB	-2.0923495
-1.0807042	INTJ VERB	-0.38260323
-0.74115276	SPACE VERB	-0.28681412
-1.4116201	<s> PUNCT	-2.334441
-1.1504811	PROPN PUNCT	-2.9532685
-1.1383137	NOUN PUNCT	-3.689007
-1.0971568	PART PUNCT	-2.8518991
-1.1190693	ADJ PUNCT	-1.1010554
-1.1532004	VERB PUNCT	-3.3556125
-1.1937494	PUNCT PUNCT	-2.705952
-1.124434	DET PUNCT	-1.1307864
-1.1060864	NUM PUNCT	-2.473926
-1.1000808	ADV PUNCT	-2.1256666
-1.1802648	CCONJ PUNCT	-1.2832228
-1.0808897	ADP PUNCT	-1.6779122
-1.1187863	PRON PUNCT	-2.0529168
-1.3003123	SCONJ PUNCT	-0.51373386
-1.0340359	X PUNCT	-1.0424242
-0.89288276	INTJ PUNCT	-1.0449995
-1.3930435	<s> DET	-2.4643295
-1.178415	PROPN DET	-1.5846735
-1.192121	NOUN DET	-1.8662821
-1.2012866	PART DET	-2.0317955
-1.1573269	ADJ DET	-1.1256663
-1.1809368	VERB DET	-2.6452458
-1.1937494	PUNCT DET	-2.1303463
-1.1592238	DET DET	-1.4473622
-1.2412018	NUM DET	-1.181299
-1.1899923	ADV DET	-1.9105673
-1.0550838	CCONJ DET	-1.73485
-1.1109753	ADP DET	-2.2821705
-1.2152506	PRON DET	-1.2590212
-1.2174628	SCONJ DET	-1.3362818
-1.0665355	X DET	-1.3392223
-1.349291	INTJ DET	-0.28681412
-1.4862596	<s> NUM	-2.317805
-1.1532631	PROPN NUM	-1.9295866
-1.1952673	NOUN NUM	-2.3404074
-1.1674811	PART NUM	-2.3943753
-1.0869732	ADJ NUM	-1.5331732
-1.1561514	VERB NUM	-2.814089
-1.2267871	PUNCT NUM	-2.3146834
-1.0651073	DET NUM	-2.4175563
-1.1089032	NUM NUM	-3.0025005
-1.1610706	ADV NUM	-2.2619333
-1.0968297	CCONJ NUM	-1.7877556
-1.1139605	ADP NUM	-2.1468418
-1.1518177	PRON NUM	-1.3778008
-1.153346	SCONJ NUM	-1.0169897
-1.1050073	X NUM	-1.1875174
-0.7265229	<s> ADV	-3.0475626
-1.178415	PROPN ADV	-2.4451616
-1.1383137	NOUN ADV	-3.1955411
-1.1291705	PART ADV	-2.2566435
-1.1190693	ADJ ADV	-0.83754545
-1.1532004	VERB ADV	-2.7538567
-1.1937494	PUNCT ADV	-2.8333528
-1.0922257	DET ADV	-1.5138967
-1.1060864	NUM ADV	-1.8727328
-1.1000808	ADV ADV	-2.9312336
-1.0550838	CCONJ ADV	-1.6315573
-1.143301	ADP ADV	-1.833908
-1.1486222	PRON ADV	-2.7219973
-1.0353258	SCONJ ADV	-1.4098507
-1.1016651	X ADV	-1.2897679
-1.5542171	INTJ ADV	-0.28681412
-2.1664839	<s> CCONJ	-1.6497262
-1.1813825	PROPN CCONJ	-2.3252132
-1.1952673	NOUN CCONJ	-2.9392688
-1.3441483	PART CCONJ	-0.98745614
-1.122391	ADJ CCONJ	-0.991646
-1.1840831	VERB CCONJ	-2.1181903
-1.2267871	PUNCT CCONJ	-2.0043077
-2.0369556	DET CCONJ	-0.32205334
-1.2068092	NUM CCONJ	-1.4625657
-1.266311	ADV CCONJ	-1.1024262
-1.544482	CCONJ CCONJ	-0.45593444
-1.4884429	ADP CCONJ	-0.5066207
-1.184101	PRON CCONJ	-1.3932457
-1.5505835	SCONJ CCONJ	-0.28681412
-2.0070918	X CCONJ	-0.28681412
-1.0863869	<s> ADP	-2.698965
-1.1504811	PROPN ADP	-2.3276708
-1.1643845	NOUN ADP	-2.7697563
-1.2012866	PART ADP	-1.7911817
-1.1573269	ADJ ADP	-0.80133325
-1.1809368	VERB ADP	-2.7584488
-1.1937494	PUNCT ADP	-2.4812028
-1.124434	DET ADP	-1.4213305
-1.1361314	NUM ADP	-1.7789862
-1.1280329	ADV ADP	-2.7004359
-1.1344104	CCONJ ADP	-1.5099806
-1.1109753	ADP ADP	-1.7143891
-1.1486222	PRON ADP	-2.2762547
-1.0353258	SCONJ ADP	-1.1617552
-1.1398886	X ADP	-0.6649354
-1.5542171	INTJ ADP	-0.28681412
-0.9515733	<s> PRON	-2.8225129
-1.2403295	PROPN PRON	-1.3827858
-1.192121	NOUN PRON	-1.7672683
-1.2423968	PART PRON	-1.771257
-1.5065604	ADJ PRON	-0.32593185
-1.1532004	VERB PRON	-2.7292087
-1.1657974	PUNCT PRON	-2.432278
-1.197045	DET PRON	-0.97376454
-1.2827508	NUM PRON	-1.1231244
-1.1899923	ADV PRON	-2.1908221
-1.1802648	CCONJ PRON	-1.4221003
-1.0808897	ADP PRON	-2.4103463
-1.1806599	PRON PRON	-1.5416046
-1.0353258	SCONJ PRON	-1.7518622
-1.1398886	X PRON	-1.4966116
-1.08905	INTJ PRON	-0.33132878
-1.7073452	<s> SCONJ	-2.150086
-1.4670007	PROPN SCONJ	-0.8238107
-1.2645215	NOUN SCONJ	-1.455675
-2.0816965	PART SCONJ	-0.5445181
-1.3269053	VERB SCONJ	-1.1653165
-1.3015167	PUNCT SCONJ	-1.779804
-1.9126524	DET SCONJ	-0.28681412
-2.1450312	NUM SCONJ	-0.28681412
-1.5466784	ADV SCONJ	-1.2162188
-1.9925604	CCONJ SCONJ	-0.28681412
-1.692432	ADP SCONJ	-0.43720612
-1.467194	PRON SCONJ	-1.2278671
-1.8973633	SCONJ SCONJ	-0.32166213
-2.5717506	<s> X	-1.3889617
-1.2786553	PROPN X	-1.2454984
-1.1952673	NOUN X	-1.9053446
-1.2468926	PART X	-1.3500584
-1.616917	ADJ X	-0.31597793
-1.1840831	VERB X	-1.8080307
-1.2940425	PUNCT X	-1.4477025
-1.200958	DET X	-0.83921254
-1.333413	NUM X	-1.059992
-1.1933976	ADV X	-2.0572488
-1.364013	CCONJ X	-0.83860666
-1.26203	ADP X	-1.0324084
-1.2189783	PRON X	-1.3821319
-1.153346	SCONJ X	-0.64785755
-1.4142884	X X	-0.6827314
-3.1434329	<s> INTJ	-0.89801186
-1.6892682	PROPN INTJ	-0.34019408
-1.9374839	NOUN INTJ	-0.28681412
-1.5773969	PART INTJ	-0.8779647
-2.115704	ADJ INTJ	-0.38093275
-2.2085977	VERB INTJ	-0.34724212
-1.2694935	PUNCT INTJ	-1.1410495
-1.5756874	DET INTJ	-0.40084338
-1.74485	ADV INTJ	-0.28681412
-2.1673348	PRON INTJ	-0.28681412
-1.8913412	X INTJ	-0.28681412
-1.2849755	INTJ INTJ	-0.3465514
-2.261352	PROPN SPACE	-0.28681412
-2.6348307	NOUN SPACE	-0.28681412
-2.149173	PART SPACE	-0.28681412
-1.9069211	VERB SPACE	-0.3599791

\3-grams:
-2.2026007	<s> PROPN </s>
-1.8875474	PROPN PROPN </s>
-2.0579755	NOUN PROPN </s>
-2.1612327	PART PROPN </s>
-2.350631	ADJ PROPN </s>
-2.1689548	VERB PROPN </s>
-1.7715371	PUNCT PROPN </s>
-2.304555	DET PROPN </s>
-2.6701636	NUM PROPN </s>
-2.7364187	ADV PROPN </s>
-2.4068608	CCONJ PROPN </s>
-2.6700969	ADP PROPN </s>
-1.8527178	PRON PROPN </s>
-1.2257683	INTJ PROPN </s>
-2.4055068	<s> NOUN </s>
-1.947442	PROPN NOUN </s>
-1.7788312	NOUN NOUN </s>
-1.9107746	PART NOUN </s>
-1.9023118	ADJ NOUN </s>
-1.906419	VERB NOUN </s>
-1.7887863	PUNCT NOUN </s>
-2.629627	DET NOUN </s>
-2.246662	NUM NOUN </s>
-2.5682259	ADV NOUN </s>
-1.9831494	CCONJ NOUN </s>
-2.6937373	ADP NOUN </s>
-2.4877841	PRON NOUN </s>
-2.4608736	X NOUN </s>
-2.9956682	PROPN PART </s>
-2.952416	NOUN PART </s>
-3.2234738	PART PART </s>
-2.7193632	VERB PART </s>
-3.2289019	NUM PART </s>
-2.7835398	ADV PART </s>
-3.732439	PRON PART </s>
-2.7964654	<s> VERB </s>
-1.9210798	PROPN VERB </s>
-1.9682145	NOUN VERB </s>
-2.1799338	PART VERB </s>
-1.6216661	ADJ VERB </s>
-2.0529354	VERB VERB </s>
-1.618995	PUNCT VERB </s>
-2.3473184	NUM VERB </s>
-2.4645395	ADV VERB </s>
-2.859346	CCONJ VERB </s>
-3.2466207	ADP VERB </s>
-2.9026253	PRON VERB </s>
-2.0921576	X VERB </s>
-0.96661717	<s> PUNCT </s>
-0.6999001	PROPN PUNCT </s>
-0.25732043	NOUN PUNCT </s>
-0.20753738	PART PUNCT </s>
-1.8598785	ADJ PUNCT </s>
-0.22108302	VERB PUNCT </s>
-0.39081106	PUNCT PUNCT </s>
-0.8386434	DET PUNCT </s>
-0.35117376	NUM PUNCT </s>
-0.30843568	ADV PUNCT </s>
-1.5929084	CCONJ PUNCT </s>
-1.6621859	ADP PUNCT </s>
-0.15991618	PRON PUNCT </s>
-1.3611678	SCONJ PUNCT </s>
-0.4986484	X PUNCT </s>
-0.16155005	INTJ PUNCT </s>
-2.508959	PROPN DET </s>
-3.2812576	NOUN DET </s>
-1.8243604	<s> NUM </s>
-2.0262513	PROPN NUM </s>
-2.364162	NOUN NUM </s>
-2.874405	PART NUM </s>
-2.4823203	ADJ NUM </s>
-2.5605397	VERB NUM </s>
-2.0305674	PUNCT NUM </s>
-3.2312999	DET NUM </s>
-2.6016483	NUM NUM </s>
-2.445381	ADV NUM </s>
-2.2677429	CCONJ NUM </s>
-3.1566103	ADP NUM </s>
-1.9833332	X NUM </s>
-3.4391046	<s> ADV </s>
-3.4817963	PROPN ADV </s>
-3.717998	NOUN ADV </s>
-3.033618	VERB ADV </s>
-3.7237651	ADV ADV </s>
-0.9533288	INTJ ADV </s>
-2.7823582	<s> CCONJ </s>
-2.2798207	PART CCONJ </s>
-3.7987704	<s> ADP </s>
-3.4043558	PROPN ADP </s>
-3.5747588	NOUN ADP </s>
-3.8197014	PUNCT ADP </s>
-3.7235024	<s> PRON </s>
-2.479687	PROPN PRON </s>
-2.6638007	NOUN PRON </s>
-2.3901818	PART PRON </s>
-2.7025254	VERB PRON </s>
-2.995045	PUNCT PRON </s>
-3.16977	ADV PRON </s>
-2.2672932	CCONJ PRON </s>
-3.5594223	ADP PRON </s>
-2.1739428	PROPN X </s>
-3.1820898	NOUN X </s>
-3.0847762	VERB X </s>
-1.7064617	PUNCT X </s>
-1.6598066	<s> INTJ </s>
-2.148406	PUNCT INTJ </s>
-0.96078074	<s> PROPN PROPN
-0.9537517	PROPN PROPN PROPN
-0.78399616	NOUN PROPN PROPN
-1.0122651	PART PROPN PROPN
-1.3331003	ADJ PROPN PROPN
-1.2004535	VERB PROPN PROPN
-0.83756554	PUNCT PROPN PROPN
-1.0655038	DET PROPN PROPN
-1.3181725	NUM PROPN PROPN
-1.0851142	ADV PROPN PROPN
-1.1381189	CCONJ PROPN PROPN
-1.0583313	ADP PROPN PROPN
-1.0963863	PRON PROPN PROPN
-1.4382455	SCONJ PROPN PROPN
-1.1979891	X PROPN PROPN
-0.84782356	INTJ PROPN PROPN
-1.2775983	<s> NOUN PROPN
-1.0775813	PROPN NOUN PROPN
-1.4859664	NOUN NOUN PROPN
-1.8515304	PART NOUN PROPN
-1.5281584	ADJ NOUN PROPN
-1.8384633	VERB NOUN PROPN
-1.4013047	PUNCT NOUN PROPN
-2.184689	DET NOUN PROPN
-1.9572222	NUM NOUN PROPN
-1.6090896	ADV NOUN PROPN
-1.6797764	CCONJ NOUN PROPN
-1.5792309	ADP NOUN PROPN
-1.877229	PRON NOUN PROPN
-1.7230394	SCONJ NOUN PROPN
-1.7400205	X NOUN PROPN
-0.8153274	SPACE NOUN PROPN
-2.0854366	<s> PART PROPN
-0.9622001	PROPN PART PROPN
-1.5165722	NOUN PART PROPN
-1.226427	PART PART PROPN
-1.3874599	ADJ PART PROPN
-1.2473038	VERB PART PROPN
-1.3621098	PUNCT PART PROPN
-1.1110969	DET PART PROPN
-0.9996318	NUM PART PROPN
-1.6111903	ADV PART PROPN
-1.4198002	CCONJ PART PROPN
-1.0382729	ADP PART PROPN
-1.5087595	PRON PART PROPN
-0.9598227	INTJ PART PROPN
-1.3329445	<s> ADJ PROPN
-1.4855282	PROPN ADJ PROPN
-1.5102887	NOUN ADJ PROPN
-1.8354651	PART ADJ PROPN
-2.0904918	ADJ ADJ PROPN
-1.7094108	VERB ADJ PROPN
-1.2920557	PUNCT ADJ PROPN
-1.7898954	DET ADJ PROPN
-1.7922684	NUM ADJ PROPN
-1.9628907	ADV ADJ PROPN
-1.5450337	CCONJ ADJ PROPN
-1.4345207	ADP ADJ PROPN
-1.8601462	PRON ADJ PROPN
-1.631288	SCONJ ADJ PROPN
-1.6338388	X ADJ PROPN
-0.968574	<s> VERB PROPN
-1.0519695	PROPN VERB PROPN
-1.2446897	NOUN VERB PROPN
-1.400661	PART VERB PROPN
-1.4340656	ADJ VERB PROPN
-1.1619997	VERB VERB PROPN
-1.0580386	PUNCT VERB PROPN
-1.1259837	DET VERB PROPN
-0.9659589	NUM VERB PROPN
-1.319285	ADV VERB PROPN
-1.216091	CCONJ VERB PROPN
-0.99584246	ADP VERB PROPN
-1.2761267	PRON VERB PROPN
-1.3258181	SCONJ VERB PROPN
-1.5750983	X VERB PROPN
-0.57566226	<s> PUNCT PROPN
-0.53482485	PROPN PUNCT PROPN
-1.3079329	NOUN PUNCT PROPN
-1.2505109	PART PUNCT PROPN
-1.0396972	ADJ PUNCT PROPN
-1.3933885	VERB PUNCT PROPN
-0.8694615	PUNCT PUNCT PROPN
-0.97756535	DET PUNCT PROPN
-1.3818868	NUM PUNCT PROPN
-1.0647258	ADV PUNCT PROPN
-0.6063814	CCONJ PUNCT PROPN
-0.5482994	ADP PUNCT PROPN
-1.6140544	PRON PUNCT PROPN
-0.5375107	SCONJ PUNCT PROPN
-0.8277007	X PUNCT PROPN
-1.7807701	INTJ PUNCT PROPN
-1.4158393	<s> DET PROPN
-1.095209	PROPN DET PROPN
-1.4659976	NOUN DET PROPN
-1.7104603	PART DET PROPN
-1.5910971	VERB DET PROPN
-1.2637788	PUNCT DET PROPN
-1.3790092	DET DET PROPN
-1.5701963	NUM DET PROPN
-1.4836969	ADV DET PROPN
-1.3345656	CCONJ DET PROPN
-1.2933491	ADP DET PROPN
-1.5276527	PRON DET PROPN
-1.4689763	SCONJ DET PROPN
-1.2108494	X DET PROPN
-1.3766507	<s> NUM PROPN
-1.3531209	PROPN NUM PROPN
-1.8168004	NOUN NUM PROPN
-2.0257494	PART NUM PROPN
-2.01279	ADJ NUM PROPN
-1.8256388	VERB NUM PROPN
-1.6219311	PUNCT NUM PROPN
-1.8013805	DET NUM PROPN
-1.3577043	NUM NUM PROPN
-1.686057	ADV NUM PROPN
-1.6003153	CCONJ NUM PROPN
-1.5865376	ADP NUM PROPN
-2.0643299	PRON NUM PROPN
-1.450164	SCONJ NUM PROPN
-1.61752	X NUM PROPN
-1.3292999	<s> ADV PROPN
-2.2483242	PROPN ADV PROPN
-2.3955212	NOUN ADV PROPN
-2.173009	PART ADV PROPN
-2.00083	VERB ADV PROPN
-1.4007632	PUNCT ADV PROPN
-2.2652059	DET ADV PROPN
-2.402628	NUM ADV PROPN
-2.2055428	ADV ADV PROPN
-1.7744998	CCONJ ADV PROPN
-1.8864256	ADP ADV PROPN
-2.3361886	PRON ADV PROPN
-2.0253923	SCONJ ADV PROPN
-0.87664443	INTJ ADV PROPN
-1.0376487	<s> CCONJ PROPN
-0.18463665	PROPN CCONJ PROPN
-1.170857	NOUN CCONJ PROPN
-1.1741797	PART CCONJ PROPN
-1.6694843	VERB CCONJ PROPN
-0.88494164	PUNCT CCONJ PROPN
-1.9268891	NUM CCONJ PROPN
-1.5473595	ADV CCONJ PROPN
-1.2125905	CCONJ CCONJ PROPN
-0.94133806	ADP CCONJ PROPN
-0.90206516	PRON CCONJ PROPN
-0.5412672	X CCONJ PROPN
-0.7141703	<s> ADP PROPN
-0.4911646	PROPN ADP PROPN
-0.59377915	NOUN ADP PROPN
-0.6379168	PART ADP PROPN
-0.5403314	ADJ ADP PROPN
-0.6697704	VERB ADP PROPN
-0.71165717	PUNCT ADP PROPN
-0.56465167	DET ADP PROPN
-0.4520108	NUM ADP PROPN
-0.72131276	ADV ADP PROPN
-0.65024275	CCONJ ADP PROPN
-0.53103465	ADP ADP PROPN
-0.6923106	PRON ADP PROPN
-0.6510057	SCONJ ADP PROPN
-0.7569784	X ADP PROPN
-2.3733265	<s> PRON PROPN
-0.9624137	PROPN PRON PROPN
-1.548882	NOUN PRON PROPN
-2.8051767	PART PRON PROPN
-1.0700746	ADJ PRON PROPN
-2.2800224	VERB PRON PROPN
-2.1707795	PUNCT PRON PROPN
-2.0993633	NUM PRON PROPN
-3.0861595	ADV PRON PROPN
-2.4425828	CCONJ PRON PROPN
-2.1781816	ADP PRON PROPN
-2.7561114	SCONJ PRON PROPN
-2.3348317	X PRON PROPN
-0.97926813	<s> SCONJ PROPN
-1.6537535	NOUN SCONJ PROPN
-1.0160632	VERB SCONJ PROPN
-1.0135448	PUNCT SCONJ PROPN
-0.8732829	NUM SCONJ PROPN
-1.402002	ADV SCONJ PROPN
-1.1364427	ADP SCONJ PROPN
-0.99231255	<s> X PROPN
-1.1229137	PROPN X PROPN
-1.0985036	NOUN X PROPN
-1.1554068	PART X PROPN
-1.1112545	VERB X PROPN
-1.0275121	PUNCT X PROPN
-0.9572802	DET X PROPN
-0.95131874	NUM X PROPN
-1.1214981	ADV X PROPN
-1.4943585	CCONJ X PROPN
-1.2009524	ADP X PROPN
-1.2169244	PRON X PROPN
-1.1196778	SCONJ X PROPN
-0.771345	X X PROPN
-1.3029703	<s> INTJ PROPN
-0.62940806	PROPN INTJ PROPN
-0.6196662	NOUN INTJ PROPN
-1.3892297	PUNCT INTJ PROPN
-0.84992915	DET INTJ PROPN
-0.49399832	PRON INTJ PROPN
-0.25002462	X INTJ PROPN
-0.2883512	PART SPACE PROPN
-0.44802967	VERB SPACE PROPN
-0.51453006	<s> PROPN NOUN
-0.6579187	PROPN PROPN NOUN
-0.62806803	NOUN PROPN NOUN
-0.31411743	PART PROPN NOUN
-0.27526715	ADJ PROPN NOUN
-0.41912678	VERB PROPN NOUN
-0.5716994	PUNCT PROPN NOUN
-0.32096544	DET PROPN NOUN
-0.19554906	NUM PROPN NOUN
-0.5032534	ADV PROPN NOUN
-0.48027664	CCONJ PROPN NOUN
-0.47963822	ADP PROPN NOUN
-0.50703615	PRON PROPN NOUN
-0.4766221	SCONJ PROPN NOUN
-0.45069033	X PROPN NOUN
-0.95131	INTJ PROPN NOUN
-0.48511678	SPACE PROPN NOUN
-0.5321073	<s> NOUN NOUN
-0.57745767	PROPN NOUN NOUN
-0.684791	NOUN NOUN NOUN
-0.6774317	PART NOUN NOUN
-0.6868395	ADJ NOUN NOUN
-0.569963	VERB NOUN NOUN
-0.5209591	PUNCT NOUN NOUN
-0.8414478	DET NOUN NOUN
-0.7696631	NUM NOUN NOUN
-0.6269518	ADV NOUN NOUN
-0.44175535	CCONJ NOUN NOUN
-0.47752097	ADP NOUN NOUN
-0.8838047	PRON NOUN NOUN
-0.6419676	SCONJ NOUN NOUN
-0.63663	X NOUN NOUN
-0.5440929	INTJ NOUN NOUN
-0.98163384	<s> PART NOUN
-0.21768156	PROPN PART NOUN
-0.3198749	NOUN PART NOUN
-0.23200409	PART PART NOUN
-0.08503651	ADJ PART NOUN
-0.33089593	VERB PART NOUN
-0.25858188	PUNCT PART NOUN
-0.11383302	DET PART NOUN
-0.27228802	NUM PART NOUN
-0.67194873	ADV PART NOUN
-0.9219951	CCONJ PART NOUN
-0.90000576	ADP PART NOUN
-0.10813237	PRON PART NOUN
-0.2430929	X PART NOUN
-0.36488643	INTJ PART NOUN
-0.13955446	<s> ADJ NOUN
-0.06480114	PROPN ADJ NOUN
-0.07430289	NOUN ADJ NOUN
-0.039492145	PART ADJ NOUN
-0.023698367	ADJ ADJ NOUN
-0.10096267	VERB ADJ NOUN
-0.101782575	PUNCT ADJ NOUN
-0.17744227	DET ADJ NOUN
-0.119032115	NUM ADJ NOUN
-0.1941467	ADV ADJ NOUN
-0.07667901	CCONJ ADJ NOUN
-0.09417405	ADP ADJ NOUN
-0.39435852	PRON ADJ NOUN
-0.119861916	SCONJ ADJ NOUN
-0.09636002	X ADJ NOUN
-0.6083252	<s> VERB NOUN
-0.71268684	PROPN VERB NOUN
-0.66731226	NOUN VERB NOUN
-0.7111417	PART VERB NOUN
-0.6955586	ADJ VERB NOUN
-0.5745343	VERB VERB NOUN
-0.5406334	PUNCT VERB NOUN
-0.5324349	DET VERB NOUN
-0.5928707	NUM VERB NOUN
-0.67556095	ADV VERB NOUN
-0.43599996	CCONJ VERB NOUN
-0.39685547	ADP VERB NOUN
-0.7601358	PRON VERB NOUN
-0.5926508	SCONJ VERB NOUN
-0.9208098	X VERB NOUN
-0.28406766	SPACE VERB NOUN
-0.71918786	<s> PUNCT NOUN
-0.7929508	PROPN PUNCT NOUN
-0.956956	NOUN PUNCT NOUN
-1.0447838	PART PUNCT NOUN
-0.22444825	ADJ PUNCT NOUN
-1.0809072	VERB PUNCT NOUN
-0.92002386	PUNCT PUNCT NOUN
-0.39603147	DET PUNCT NOUN
-0.93289864	NUM PUNCT NOUN
-0.95319676	ADV PUNCT NOUN
-0.47627944	CCONJ PUNCT NOUN
-0.42576954	ADP PUNCT NOUN
-1.4016722	PRON PUNCT NOUN
-0.6153922	SCONJ PUNCT NOUN
-0.65563685	X PUNCT NOUN
-1.450575	INTJ PUNCT NOUN
-0.2234854	<s> DET NOUN
-0.27946994	PROPN DET NOUN
-0.24715783	NOUN DET NOUN
-0.28290775	PART DET NOUN
-0.20163201	ADJ DET NOUN
-0.23432918	VERB DET NOUN
-0.2363848	PUNCT DET NOUN
-0.2127667	DET DET NOUN
-0.19557375	NUM DET NOUN
-0.2247444	ADV DET NOUN
-0.23433304	CCONJ DET NOUN
-0.24097587	ADP DET NOUN
-0.30102503	PRON DET NOUN
-0.1597362	SCONJ DET NOUN
-0.27222246	X DET NOUN
-0.2745712	INTJ DET NOUN
-0.51781166	<s> NUM NOUN
-0.4324335	PROPN NUM NOUN
-0.6012678	NOUN NUM NOUN
-0.6315531	PART NUM NOUN
-0.5561642	ADJ NUM NOUN
-0.54422694	VERB NUM NOUN
-0.5762941	PUNCT NUM NOUN
-0.24444567	DET NUM NOUN
-0.3633363	NUM NUM NOUN
-0.44639525	ADV NUM NOUN
-0.6171866	CCONJ NUM NOUN
-0.56733906	ADP NUM NOUN
-0.61241955	PRON NUM NOUN
-0.38256422	SCONJ NUM NOUN
-0.7314594	X NUM NOUN
-0.9781455	<s> ADV NOUN
-1.7746788	PROPN ADV NOUN
-1.7764943	NOUN ADV NOUN
-1.4963247	PART ADV NOUN
-0.8398225	ADJ ADV NOUN
-1.3617419	VERB ADV NOUN
-1.056849	PUNCT ADV NOUN
-1.1339358	DET ADV NOUN
-1.480969	NUM ADV NOUN
-1.6486963	ADV ADV NOUN
-1.3747299	CCONJ ADV NOUN
-1.0935639	ADP ADV NOUN
-1.9012275	PRON ADV NOUN
-1.3692793	SCONJ ADV NOUN
-1.2946242	X ADV NOUN
-0.86023617	INTJ ADV NOUN
-0.6699348	<s> CCONJ NOUN
-0.73669475	PROPN CCONJ NOUN
-0.1671889	NOUN CCONJ NOUN
-0.38059303	PART CCONJ NOUN
-0.60342085	ADJ CCONJ NOUN
-0.69440943	VERB CCONJ NOUN
-0.6868244	PUNCT CCONJ NOUN
-0.8356956	DET CCONJ NOUN
-0.9842778	NUM CCONJ NOUN
-0.5697904	ADV CCONJ NOUN
-0.5778884	CCONJ CCONJ NOUN
-0.41770917	ADP CCONJ NOUN
-0.51922196	PRON CCONJ NOUN
-0.66837025	SCONJ CCONJ NOUN
-0.44494	<s> ADP NOUN
-0.41756302	PROPN ADP NOUN
-0.34329584	NOUN ADP NOUN
-0.36582053	PART ADP NOUN
-0.35533023	ADJ ADP NOUN
-0.36391768	VERB ADP NOUN
-0.3803022	PUNCT ADP NOUN
-0.33801168	DET ADP NOUN
-0.42546603	NUM ADP NOUN
-0.3421895	ADV ADP NOUN
-0.31240273	CCONJ ADP NOUN
-0.3581486	ADP ADP NOUN
-0.3708026	PRON ADP NOUN
-0.3792242	SCONJ ADP NOUN
-0.34297013	X ADP NOUN
-0.54104555	INTJ ADP NOUN
-1.4022831	<s> PRON NOUN
-0.85345846	PROPN PRON NOUN
-1.2086735	NOUN PRON NOUN
-1.1057339	PART PRON NOUN
-0.7800368	ADJ PRON NOUN
-1.0868698	VERB PRON NOUN
-1.326981	PUNCT PRON NOUN
-1.0682724	DET PRON NOUN
-1.3343004	NUM PRON NOUN
-1.283981	ADV PRON NOUN
-0.8263384	CCONJ PRON NOUN
-0.9615604	ADP PRON NOUN
-1.2726129	PRON PRON NOUN
-1.3350748	SCONJ PRON NOUN
-1.2920506	X PRON NOUN
-0.61275333	<s> SCONJ NOUN
-1.0148518	PROPN SCONJ NOUN
-1.1509632	NOUN SCONJ NOUN
-0.8772993	PART SCONJ NOUN
-0.5864508	VERB SCONJ NOUN
-0.6025441	PUNCT SCONJ NOUN
-0.82334363	NUM SCONJ NOUN
-0.69285196	ADV SCONJ NOUN
-0.65008616	ADP SCONJ NOUN
-1.7493151	PRON SCONJ NOUN
-0.40895343	<s> X NOUN
-0.842572	PROPN X NOUN
-0.6355189	NOUN X NOUN
-0.7257248	PART X NOUN
-0.61465204	ADJ X NOUN
-0.52447426	VERB X NOUN
-0.53797424	PUNCT X NOUN
-0.71077824	DET X NOUN
-0.598208	NUM X NOUN
-0.54510945	ADV X NOUN
-0.5548061	CCONJ X NOUN
-0.68233985	ADP X NOUN
-0.543305	PRON X NOUN
-0.32110488	SCONJ X NOUN
-0.30692056	X X NOUN
-1.2780387	<s> INTJ NOUN
-0.5984572	NOUN INTJ NOUN
-1.2995353	PART INTJ NOUN
-0.18226044	ADJ INTJ NOUN
-0.32929388	VERB INTJ NOUN
-1.5875707	PUNCT INTJ NOUN
-0.82241404	DET INTJ NOUN
-0.6740692	ADV INTJ NOUN
-0.20274845	PROPN SPACE NOUN
-0.4142059	NOUN SPACE NOUN
-0.44982296	VERB SPACE NOUN
-1.2041489	<s> PROPN PART
-1.1240214	PROPN PROPN PART
-1.2102718	NOUN PROPN PART
-1.2647811	PART PROPN PART
-1.2404883	ADJ PROPN PART
-0.8655376	VERB PROPN PART
-1.283563	PUNCT PROPN PART
-0.905594	DET PROPN PART
-1.1385652	NUM PROPN PART
-1.012402	ADV PROPN PART
-0.7432982	CCONJ PROPN PART
-0.84877026	ADP PROPN PART
-1.0966976	PRON PROPN PART
-1.1333983	SCONJ PROPN PART
-1.01615	X PROPN PART
-1.1949732	INTJ PROPN PART
-1.113196	<s> NOUN PART
-0.91333896	PROPN NOUN PART
-0.9016647	NOUN NOUN PART
-1.1655117	PART NOUN PART
-0.90621597	ADJ NOUN PART
-0.83723617	VERB NOUN PART
-1.1487521	PUNCT NOUN PART
-0.85548216	DET NOUN PART
-0.88063747	NUM NOUN PART
-0.91738623	ADV NOUN PART
-0.86680365	CCONJ NOUN PART
-0.7072522	ADP NOUN PART
-0.6610148	PRON NOUN PART
-1.2767478	SCONJ NOUN PART
-1.1550018	X NOUN PART
-0.966048	INTJ NOUN PART
-1.6493872	PROPN PART PART
-1.3688086	NOUN PART PART
-2.3080215	PART PART PART
-3.2324042	ADJ PART PART
-1.8621424	VERB PART PART
-1.5572668	PUNCT PART PART
-2.2924576	DET PART PART
-1.3919259	NUM PART PART
-1.6959329	ADV PART PART
-1.1999667	CCONJ PART PART
-1.3834351	ADP PART PART
-2.2114613	PRON PART PART
-1.4165335	X PART PART
-1.2189482	INTJ PART PART
-0.757365	<s> ADJ PART
-1.2979918	PROPN ADJ PART
-1.2024496	NOUN ADJ PART
-1.4925711	PART ADJ PART
-1.7599691	ADJ ADJ PART
-0.88971716	VERB ADJ PART
-1.1512425	PUNCT ADJ PART
-0.54902524	DET ADJ PART
-0.7219595	NUM ADJ PART
-0.5149448	ADV ADJ PART
-1.039034	CCONJ ADJ PART
-1.0124793	ADP ADJ PART
-0.32727316	PRON ADJ PART
-0.84027565	SCONJ ADJ PART
-0.9451753	X ADJ PART
-1.0597116	<s> VERB PART
-0.8299921	PROPN VERB PART
-0.87241465	NOUN VERB PART
-0.6494415	PART VERB PART
-0.6854088	ADJ VERB PART
-0.94909	VERB VERB PART
-1.0265827	PUNCT VERB PART
-0.5791107	DET VERB PART
-0.70999837	NUM VERB PART
-0.9292696	ADV VERB PART
-0.7677703	CCONJ VERB PART
-0.8521383	ADP VERB PART
-0.89695704	PRON VERB PART
-1.2930431	SCONJ VERB PART
-0.6303941	X VERB PART
-2.3069637	<s> PUNCT PART
-1.5105147	PROPN PUNCT PART
-1.898859	NOUN PUNCT PART
-2.6811233	PART PUNCT PART
-1.4054704	ADJ PUNCT PART
-2.2493567	VERB PUNCT PART
-2.368329	PUNCT PUNCT PART
-1.9207416	DET PUNCT PART
-1.9572153	NUM PUNCT PART
-2.667271	ADV PUNCT PART
-2.3274522	CCONJ PUNCT PART
-2.2910411	ADP PUNCT PART
-2.2924101	PRON PUNCT PART
-2.0615888	X PUNCT PART
-2.0569046	INTJ PUNCT PART
-2.0967286	<s> DET PART
-1.8621906	PROPN DET PART
-1.956002	NOUN DET PART
-1.9203459	PART DET PART
-1.9967498	VERB DET PART
-2.1778562	PUNCT DET PART
-1.6176169	DET DET PART
-1.2905743	NUM DET PART
-1.8531162	ADV DET PART
-1.6825442	CCONJ DET PART
-2.2142942	ADP DET PART
-1.2224841	PRON DET PART
-1.6342002	SCONJ DET PART
-1.7865366	X DET PART
-1.4971733	<s> NUM PART
-1.7204205	PROPN NUM PART
-1.492859	NOUN NUM PART
-1.8753424	PART NUM PART
-2.0141191	ADJ NUM PART
-1.6237402	VERB NUM PART
-1.5250849	PUNCT NUM PART
-1.7905084	DET NUM PART
-1.0076485	NUM NUM PART
-1.1023064	ADV NUM PART
-1.3693106	CCONJ NUM PART
-1.6538055	ADP NUM PART
-1.3559095	PRON NUM PART
-1.2485424	SCONJ NUM PART
-1.7246516	X NUM PART
-2.2602847	<s> ADV PART
-2.1414647	PROPN ADV PART
-2.3307629	NOUN ADV PART
-2.6114078	PART ADV PART
-1.467086	ADJ ADV PART
-1.8573246	VERB ADV PART
-2.4488637	PUNCT ADV PART
-2.2556555	DET ADV PART
-1.67	NUM ADV PART
-2.311308	ADV ADV PART
-2.4480357	CCONJ ADV PART
-1.914698	ADP ADV PART
-2.396115	PRON ADV PART
-2.3869836	SCONJ ADV PART
-1.7000706	X ADV PART
-2.2408464	<s> CCONJ PART
-3.19505	PROPN CCONJ PART
-3.0481107	NOUN CCONJ PART
-1.9927393	PART CCONJ PART
-3.1766047	VERB CCONJ PART
-2.8977714	PUNCT CCONJ PART
-1.2967547	CCONJ CCONJ PART
-2.421289	PRON CCONJ PART
-3.4227545	<s> ADP PART
-2.9243457	PROPN ADP PART
-2.9539504	NOUN ADP PART
-2.6716325	PART ADP PART
-2.8167672	VERB ADP PART
-3.32915	PUNCT ADP PART
-2.4711375	DET ADP PART
-2.8607013	ADV ADP PART
-2.5707076	ADP ADP PART
-3.165183	PRON ADP PART
-1.1825832	<s> PRON PART
-0.7910971	PROPN PRON PART
-0.99793315	NOUN PRON PART
-0.56038284	PART PRON PART
-1.0373411	ADJ PRON PART
-0.61785334	VERB PRON PART
-1.1102618	PUNCT PRON PART
-1.1292975	DET PRON PART
-0.85987544	NUM PRON PART
-1.022562	ADV PRON PART
-0.4253216	CCONJ PRON PART
-0.578217	ADP PRON PART
-0.5785637	PRON PRON PART
-1.2818255	SCONJ PRON PART
-0.6913655	X PRON PART
-0.4820171	INTJ PRON PART
-2.4420083	<s> X PART
-2.0817668	PROPN X PART
-2.2527025	NOUN X PART
-0.9762909	ADJ X PART
-2.6305988	VERB X PART
-2.5375342	PUNCT X PART
-3.121125	ADV X PART
-1.1940347	X X PART
-1.1247269	<s> INTJ PART
-1.7236067	PUNCT INTJ PART
-0.32487854	DET INTJ PART
-0.5482895	PRON INTJ PART
-1.7419038	<s> PROPN ADJ
-2.0459683	PROPN PROPN ADJ
-2.0784755	NOUN PROPN ADJ
-1.6121446	PART PROPN ADJ
-1.7142612	ADJ PROPN ADJ
-1.5929463	VERB PROPN ADJ
-1.8555849	PUNCT PROPN ADJ
-1.5623373	DET PROPN ADJ
-1.4579525	NUM PROPN ADJ
-1.8118322	ADV PROPN ADJ
-1.7631736	CCONJ PROPN ADJ
-1.645714	ADP PROPN ADJ
-2.0616002	PRON PROPN ADJ
-1.6387315	SCONJ PROPN ADJ
-1.7006822	X PROPN ADJ
-2.0347998	<s> NOUN ADJ
-1.9496261	PROPN NOUN ADJ
-2.1906905	NOUN NOUN ADJ
-2.4159389	PART NOUN ADJ
-2.3321502	ADJ NOUN ADJ
-1.9971952	VERB NOUN ADJ
-2.0400639	PUNCT NOUN ADJ
-2.3207667	DET NOUN ADJ
-2.242866	NUM NOUN ADJ
-1.9841422	ADV NOUN ADJ
-2.1276326	CCONJ NOUN ADJ
-2.156359	ADP NOUN ADJ
-2.2897751	PRON NOUN ADJ
-2.6208985	SCONJ NOUN ADJ
-2.017299	X NOUN ADJ
-1.8683525	<s> PART ADJ
-1.2139969	PROPN PART ADJ
-1.3009503	NOUN PART ADJ
-1.0658536	PART PART ADJ
-1.2368244	ADJ PART ADJ
-1.3069955	VERB PART ADJ
-1.3380641	PUNCT PART ADJ
-1.2815872	DET PART ADJ
-1.3386097	NUM PART ADJ
-1.887514	ADV PART ADJ
-1.1999667	CCONJ PART ADJ
-1.4770572	ADP PART ADJ
-1.5199666	PRON PART ADJ
-1.1491836	X PART ADJ
-1.9398214	<s> ADJ ADJ
-1.6080934	PROPN ADJ ADJ
-1.8890617	NOUN ADJ ADJ
-1.7461689	PART ADJ ADJ
-1.9276258	ADJ ADJ ADJ
-1.7545565	VERB ADJ ADJ
-1.7817817	PUNCT ADJ ADJ
-1.8087195	DET ADJ ADJ
-1.9582032	NUM ADJ ADJ
-2.0180523	ADV ADJ ADJ
-1.7893932	CCONJ ADJ ADJ
-1.6643393	ADP ADJ ADJ
-2.0859368	PRON ADJ ADJ
-1.5204743	SCONJ ADJ ADJ
-1.7895995	X ADJ ADJ
-1.4822445	<s> VERB ADJ
-1.5617223	PROPN VERB ADJ
-1.5525964	NOUN VERB ADJ
-1.5871208	PART VERB ADJ
-1.7742381	ADJ VERB ADJ
-1.4156017	VERB VERB ADJ
-1.4410826	PUNCT VERB ADJ
-1.3607143	DET VERB ADJ
-1.4481702	NUM VERB ADJ
-1.5155777	ADV VERB ADJ
-1.3532102	CCONJ VERB ADJ
-1.395693	ADP VERB ADJ
-1.7174422	PRON VERB ADJ
-1.3010416	SCONJ VERB ADJ
-1.8321505	X VERB ADJ
-1.6045858	<s> PUNCT ADJ
-1.7438616	PROPN PUNCT ADJ
-2.0302503	NOUN PUNCT ADJ
-1.8136343	PART PUNCT ADJ
-0.93318236	ADJ PUNCT ADJ
-1.9578899	VERB PUNCT ADJ
-1.9199914	PUNCT PUNCT ADJ
-1.081977	DET PUNCT ADJ
-1.9053997	NUM PUNCT ADJ
-1.8873196	ADV PUNCT ADJ
-1.16378	CCONJ PUNCT ADJ
-1.3319207	ADP PUNCT ADJ
-2.2924101	PRON PUNCT ADJ
-1.0087056	SCONJ PUNCT ADJ
-1.4001417	X PUNCT ADJ
-1.4346385	<s> DET ADJ
-1.1138924	PROPN DET ADJ
-1.3770946	NOUN DET ADJ
-1.1375906	PART DET ADJ
-1.0476383	ADJ DET ADJ
-1.1711726	VERB DET ADJ
-1.3447452	PUNCT DET ADJ
-1.22498	DET DET ADJ
-1.3618199	NUM DET ADJ
-1.2253783	ADV DET ADJ
-1.022106	CCONJ DET ADJ
-1.2537639	ADP DET ADJ
-1.2201824	PRON DET ADJ
-1.5401442	SCONJ DET ADJ
-1.2611632	X DET ADJ
-1.7017359	<s> NUM ADJ
-1.4347843	PROPN NUM ADJ
-1.687069	NOUN NUM ADJ
-1.4865519	PART NUM ADJ
-2.0141191	ADJ NUM ADJ
-1.4810636	VERB NUM ADJ
-1.9782596	PUNCT NUM ADJ
-1.5799072	DET NUM ADJ
-1.2338971	NUM NUM ADJ
-1.4289373	ADV NUM ADJ
-1.6340048	CCONJ NUM ADJ
-1.6448221	ADP NUM ADJ
-1.9278749	PRON NUM ADJ
-1.7038	SCONJ NUM ADJ
-1.2181134	X NUM ADJ
-1.9810398	<s> ADV ADJ
-1.834662	PROPN ADV ADJ
-2.2951643	NOUN ADV ADJ
-1.3524234	PART ADV ADJ
-1.68997	ADJ ADV ADJ
-1.4283276	VERB ADV ADJ
-1.9976239	PUNCT ADV ADJ
-0.79877466	DET ADV ADJ
-1.0111042	NUM ADV ADJ
-2.3977337	ADV ADV ADJ
-1.3448486	CCONJ ADV ADJ
-1.325807	ADP ADV ADJ
-2.53558	PRON ADV ADJ
-1.9165999	SCONJ ADV ADJ
-1.9618739	X ADV ADJ
-1.4951131	<s> CCONJ ADJ
-1.6087462	PROPN CCONJ ADJ
-1.202787	NOUN CCONJ ADJ
-1.6320063	PART CCONJ ADJ
-0.34187502	ADJ CCONJ ADJ
-1.5333347	VERB CCONJ ADJ
-1.5733535	PUNCT CCONJ ADJ
-0.5603049	DET CCONJ ADJ
-2.1563873	NUM CCONJ ADJ
-1.1983927	ADV CCONJ ADJ
-1.2785995	ADP CCONJ ADJ
-1.5778259	PRON CCONJ ADJ
-1.437724	<s> ADP ADJ
-1.6183932	PROPN ADP ADJ
-1.4601892	NOUN ADP ADJ
-1.3712243	PART ADP ADJ
-1.1510466	ADJ ADP ADJ
-1.3700352	VERB ADP ADJ
-1.4110903	PUNCT ADP ADJ
-1.2939075	DET ADP ADJ
-1.3441416	NUM ADP ADJ
-1.3772357	ADV ADP ADJ
-1.1816455	CCONJ ADP ADJ
-1.4785346	ADP ADP ADJ
-1.5179093	PRON ADP ADJ
-1.1535393	SCONJ ADP ADJ
-1.5049201	X ADP ADJ
-2.4761999	<s> PRON ADJ
-2.1150277	NOUN PRON ADJ
-1.966293	PART PRON ADJ
-1.0725908	ADJ PRON ADJ
-2.0316546	VERB PRON ADJ
-2.3079724	PUNCT PRON ADJ
-1.6875186	DET PRON ADJ
-2.103666	NUM PRON ADJ
-2.363814	ADV PRON ADJ
-1.7564694	CCONJ PRON ADJ
-2.0356812	ADP PRON ADJ
-2.5195198	PRON PRON ADJ
-2.1095235	X PRON ADJ
-1.7588158	<s> SCONJ ADJ
-1.4016984	PROPN SCONJ ADJ
-2.3346448	NOUN SCONJ ADJ
-1.2497234	PART SCONJ ADJ
-2.058275	VERB SCONJ ADJ
-1.6866468	PUNCT SCONJ ADJ
-1.8810737	ADV SCONJ ADJ
-0.5393242	CCONJ SCONJ ADJ
-1.2781986	ADP SCONJ ADJ
-1.678428	<s> X ADJ
-1.9923432	PROPN X ADJ
-1.6363239	NOUN X ADJ
-2.0430071	PART X ADJ
-0.9146603	ADJ X ADJ
-1.462338	VERB X ADJ
-1.4311087	PUNCT X ADJ
-1.6994163	NUM X ADJ
-1.6746389	ADV X ADJ
-1.6984159	CCONJ X ADJ
-1.9012164	ADP X ADJ
-1.7121607	PRON X ADJ
-1.4778266	X X ADJ
-0.8747182	<s> PROPN VERB
-0.7236421	PROPN PROPN VERB
-0.7872592	NOUN PROPN VERB
-1.0695921	PART PROPN VERB
-0.97173345	ADJ PROPN VERB
-0.979583	VERB PROPN VERB
-1.0607471	PUNCT PROPN VERB
-1.0871266	DET PROPN VERB
-1.1521393	NUM PROPN VERB
-0.8500511	ADV PROPN VERB
-0.94053715	CCONJ PROPN VERB
-0.6896745	ADP PROPN VERB
-0.73465705	PRON PROPN VERB
-0.66886985	SCONJ PROPN VERB
-0.52195096	X PROPN VERB
-0.95131	INTJ PROPN VERB
-0.80665046	SPACE PROPN VERB
-0.68621373	<s> NOUN VERB
-0.7403399	PROPN NOUN VERB
-0.7678755	NOUN NOUN VERB
-0.87496614	PART NOUN VERB
-0.8612126	ADJ NOUN VERB
-0.8632424	VERB NOUN VERB
-0.8478489	PUNCT NOUN VERB
-0.6565832	DET NOUN VERB
-0.66540587	NUM NOUN VERB
-0.6758464	ADV NOUN VERB
-0.90225893	CCONJ NOUN VERB
-0.6078035	ADP NOUN VERB
-0.6041132	PRON NOUN VERB
-0.44024804	SCONJ NOUN VERB
-0.2751603	X NOUN VERB
-0.6690399	INTJ NOUN VERB
-0.1204093	<s> PART VERB
-1.1704541	PROPN PART VERB
-0.83993053	NOUN PART VERB
-1.2611331	PART PART VERB
-2.0408804	ADJ PART VERB
-0.9943815	VERB PART VERB
-0.77800477	PUNCT PART VERB
-1.6920273	DET PART VERB
-1.272664	NUM PART VERB
-0.40306187	ADV PART VERB
-0.3809362	CCONJ PART VERB
-0.32249266	ADP PART VERB
-1.1831048	PRON PART VERB
-0.72032386	X PART VERB
-0.9525496	INTJ PART VERB
-2.0444016	<s> ADJ VERB
-1.8567765	PROPN ADJ VERB
-1.5507131	NOUN ADJ VERB
-2.4320462	PART ADJ VERB
-2.2094612	ADJ ADJ VERB
-1.854601	VERB ADJ VERB
-1.8362489	PUNCT ADJ VERB
-2.3329463	DET ADJ VERB
-2.0530386	NUM ADJ VERB
-2.050408	ADV ADJ VERB
-2.053935	CCONJ ADJ VERB
-1.784196	ADP ADJ VERB
-1.6059719	PRON ADJ VERB
-1.7967521	X ADJ VERB
-0.7596373	<s> VERB VERB
-0.9200845	PROPN VERB VERB
-0.8290261	NOUN VERB VERB
-1.0389307	PART VERB VERB
-0.89762497	ADJ VERB VERB
-0.916422	VERB VERB VERB
-0.84395874	PUNCT VERB VERB
-0.8872516	DET VERB VERB
-0.9023388	NUM VERB VERB
-0.7630466	ADV VERB VERB
-1.0241343	CCONJ VERB VERB
-0.96238166	ADP VERB VERB
-0.65490615	PRON VERB VERB
-0.60074574	SCONJ VERB VERB
-0.669277	X VERB VERB
-1.1349347	<s> PUNCT VERB
-1.0623561	PROPN PUNCT VERB
-1.1395172	NOUN PUNCT VERB
-1.2972124	PART PUNCT VERB
-1.4613804	ADJ PUNCT VERB
-1.1922492	VERB PUNCT VERB
-1.2276391	PUNCT PUNCT VERB
-0.95968926	DET PUNCT VERB
-1.2298234	NUM PUNCT VERB
-1.0757642	ADV PUNCT VERB
-0.93945366	CCONJ PUNCT VERB
-0.87379944	ADP PUNCT VERB
-1.3057681	PRON PUNCT VERB
-1.1153759	SCONJ PUNCT VERB
-0.90448326	X PUNCT VERB
-1.450575	INTJ PUNCT VERB
-1.4673167	<s> DET VERB
-1.5275906	PROPN DET VERB
-1.2890364	NOUN DET VERB
-1.3661208	PART DET VERB
-0.96286374	ADJ DET VERB
-1.1370645	VERB DET VERB
-1.3576151	PUNCT DET VERB
-0.9322659	DET DET VERB
-2.0143497	NUM DET VERB
-1.2427626	ADV DET VERB
-1.0845367	CCONJ DET VERB
-1.2716489	ADP DET VERB
-1.1683273	PRON DET VERB
-1.402541	SCONJ DET VERB
-1.3522005	X DET VERB
-1.451051	<s> NUM VERB
-1.4057353	PROPN NUM VERB
-1.4099017	NOUN NUM VERB
-1.7302235	PART NUM VERB
-1.4940884	ADJ NUM VERB
-1.5343155	VERB NUM VERB
-1.4322536	PUNCT NUM VERB
-1.3758985	DET NUM VERB
-1.0264837	NUM NUM VERB
-1.540977	ADV NUM VERB
-1.3786812	CCONJ NUM VERB
-1.5943825	ADP NUM VERB
-1.4630669	PRON NUM VERB
-1.450164	SCONJ NUM VERB
-1.9506769	X NUM VERB
-0.4434303	<s> ADV VERB
-0.17258586	PROPN ADV VERB
-0.16214953	NOUN ADV VERB
-0.16975021	PART ADV VERB
-0.20489651	ADJ ADV VERB
-0.20353055	VERB ADV VERB
-0.34006557	PUNCT ADV VERB
-0.26485628	DET ADV VERB
-0.21268763	NUM ADV VERB
-0.12990294	ADV ADV VERB
-0.18045291	CCONJ ADV VERB
-0.21661305	ADP ADV VERB
-0.15328287	PRON ADV VERB
-0.19210242	SCONJ ADV VERB
-0.077236004	X ADV VERB
-0.6604776	<s> CCONJ VERB
-1.5661756	PROPN CCONJ VERB
-1.061128	NOUN CCONJ VERB
-0.8357112	PART CCONJ VERB
-0.7170054	ADJ CCONJ VERB
-0.21457528	VERB CCONJ VERB
-0.61882836	PUNCT CCONJ VERB
-1.7722526	NUM CCONJ VERB
-0.87224853	ADV CCONJ VERB
-0.58213776	CCONJ CCONJ VERB
-0.77112824	ADP CCONJ VERB
-1.1630028	PRON CCONJ VERB
-0.6761269	SCONJ CCONJ VERB
-0.9154339	<s> ADP VERB
-1.178677	PROPN ADP VERB
-1.1120657	NOUN ADP VERB
-1.1532079	PART ADP VERB
-1.309337	ADJ ADP VERB
-1.0978103	VERB ADP VERB
-1.0094858	PUNCT ADP VERB
-1.1912457	DET ADP VERB
-1.2489028	NUM ADP VERB
-1.1095351	ADV ADP VERB
-1.2464249	CCONJ ADP VERB
-1.2234309	ADP ADP VERB
-1.1027367	PRON ADP VERB
-1.46119	SCONJ ADP VERB
-1.03782	X ADP VERB
-0.36609793	<s> PRON VERB
-0.63382536	PROPN PRON VERB
-0.46907148	NOUN PRON VERB
-0.7098494	PART PRON VERB
-1.0350205	ADJ PRON VERB
-0.5461499	VERB PRON VERB
-0.3735815	PUNCT PRON VERB
-0.32816976	DET PRON VERB
-0.5459209	NUM PRON VERB
-0.4508994	ADV PRON VERB
-0.7422531	CCONJ PRON VERB
-0.40025187	ADP PRON VERB
-0.5003988	PRON PRON VERB
-0.28841686	SCONJ PRON VERB
-0.22612293	X PRON VERB
-0.79884756	INTJ PRON VERB
-0.6970133	<s> SCONJ VERB
-0.3209589	PROPN SCONJ VERB
-0.22545117	NOUN SCONJ VERB
-0.28932697	PART SCONJ VERB
-0.5671105	VERB SCONJ VERB
-0.6981132	PUNCT SCONJ VERB
-0.26140818	DET SCONJ VERB
-0.79298025	NUM SCONJ VERB
-0.502081	ADV SCONJ VERB
-0.81952786	ADP SCONJ VERB
-0.24118738	PRON SCONJ VERB
-0.80657953	SCONJ SCONJ VERB
-0.6904698	<s> X VERB
-0.30446362	PROPN X VERB
-0.3176798	NOUN X VERB
-0.24906814	PART X VERB
-0.90128565	ADJ X VERB
-0.4846119	VERB X VERB
-0.65340745	PUNCT X VERB
-0.27818662	DET X VERB
-0.28360945	NUM X VERB
-0.37613428	ADV X VERB
-0.4471677	CCONJ X VERB
-0.26461932	ADP X VERB
-0.42634255	PRON X VERB
-0.7546994	SCONJ X VERB
-1.6210909	<s> INTJ VERB
-0.69278866	PROPN INTJ VERB
-0.7023479	VERB INTJ VERB
-0.7858371	ADV INTJ VERB
-0.47437915	NOUN SPACE VERB
-0.711863	<s> PROPN PUNCT
-0.6440446	PROPN PROPN PUNCT
-0.6595057	NOUN PROPN PUNCT
-0.82944983	PART PROPN PUNCT
-0.77773905	ADJ PROPN PUNCT
-0.80229145	VERB PROPN PUNCT
-0.5652502	PUNCT PROPN PUNCT
-1.1048831	DET PROPN PUNCT
-1.213013	NUM PROPN PUNCT
-1.0507646	ADV PROPN PUNCT
-0.8396842	CCONJ PROPN PUNCT
-1.0724033	ADP PROPN PUNCT
-0.83727896	PRON PROPN PUNCT
-2.0038755	SCONJ PROPN PUNCT
-1.348552	X PROPN PUNCT
-0.8484454	INTJ PROPN PUNCT
-1.0196851	<s> NOUN PUNCT
-0.82118666	PROPN NOUN PUNCT
-0.55703205	NOUN NOUN PUNCT
-0.38665676	PART NOUN PUNCT
-0.44901526	ADJ NOUN PUNCT
-0.5369828	VERB NOUN PUNCT
-0.66646427	PUNCT NOUN PUNCT
-0.6381345	DET NOUN PUNCT
-0.5643473	NUM NOUN PUNCT
-0.9429129	ADV NOUN PUNCT
-0.6269844	CCONJ NOUN PUNCT
-1.2621237	ADP NOUN PUNCT
-0.91410065	PRON NOUN PUNCT
-1.8989216	SCONJ NOUN PUNCT
-1.5530487	X NOUN PUNCT
-1.2151536	INTJ NOUN PUNCT
-0.48688257	SPACE NOUN PUNCT
-1.1397796	<s> PART PUNCT
-1.221671	PROPN PART PUNCT
-0.7776454	NOUN PART PUNCT
-0.9941827	PART PART PUNCT
-1.5117477	ADJ PART PUNCT
-0.8394701	VERB PART PUNCT
-0.95365906	PUNCT PART PUNCT
-1.5113236	DET PART PUNCT
-0.8304438	NUM PART PUNCT
-0.75615025	ADV PART PUNCT
-0.8092628	CCONJ PART PUNCT
-1.2356133	ADP PART PUNCT
-1.3190229	PRON PART PUNCT
-1.2175689	INTJ PART PUNCT
-2.148752	<s> ADJ PUNCT
-2.4402356	PROPN ADJ PUNCT
-2.436294	NOUN ADJ PUNCT
-2.5838528	PART ADJ PUNCT
-2.3642557	VERB ADJ PUNCT
-1.5034584	PUNCT ADJ PUNCT
-2.2839458	DET ADJ PUNCT
-2.957085	NUM ADJ PUNCT
-2.524437	ADV ADJ PUNCT
-2.754277	CCONJ ADJ PUNCT
-2.2597377	ADP ADJ PUNCT
-2.311066	PRON ADJ PUNCT
-1.2802207	<s> VERB PUNCT
-0.62335664	PROPN VERB PUNCT
-0.6515829	NOUN VERB PUNCT
-0.5878646	PART VERB PUNCT
-0.57447356	ADJ VERB PUNCT
-0.78559095	VERB VERB PUNCT
-0.9431475	PUNCT VERB PUNCT
-1.2349887	DET VERB PUNCT
-0.939755	NUM VERB PUNCT
-0.706324	ADV VERB PUNCT
-0.9940703	CCONJ VERB PUNCT
-1.3844326	ADP VERB PUNCT
-0.9205365	PRON VERB PUNCT
-1.0879061	SCONJ VERB PUNCT
-0.5981391	X VERB PUNCT
-0.3897798	INTJ VERB PUNCT
-1.2676741	<s> PUNCT PUNCT
-1.1390374	PROPN PUNCT PUNCT
-1.3092805	NOUN PUNCT PUNCT
-1.5748311	PART PUNCT PUNCT
-1.8673064	ADJ PUNCT PUNCT
-1.2935745	VERB PUNCT PUNCT
-1.2885684	PUNCT PUNCT PUNCT
-1.5967329	DET PUNCT PUNCT
-1.1801938	NUM PUNCT PUNCT
-1.7030642	ADV PUNCT PUNCT
-1.9598231	CCONJ PUNCT PUNCT
-1.7070088	ADP PUNCT PUNCT
-1.2152401	PRON PUNCT PUNCT
-1.5561295	X PUNCT PUNCT
-1.1381818	INTJ PUNCT PUNCT
-2.3471613	<s> DET PUNCT
-1.297773	PROPN DET PUNCT
-1.6227345	NOUN DET PUNCT
-2.0410697	PART DET PUNCT
-2.082611	VERB DET PUNCT
-2.3578637	PUNCT DET PUNCT
-1.620979	DET DET PUNCT
-1.8801742	ADV DET PUNCT
-2.3513966	CCONJ DET PUNCT
-2.3197176	ADP DET PUNCT
-1.9836822	PRON DET PUNCT
-2.218497	SCONJ DET PUNCT
-2.291015	X DET PUNCT
-0.8825858	<s> NUM PUNCT
-0.9458227	PROPN NUM PUNCT
-0.9542242	NOUN NUM PUNCT
-1.1870642	PART NUM PUNCT
-1.7429253	ADJ NUM PUNCT
-1.1607908	VERB NUM PUNCT
-0.71687883	PUNCT NUM PUNCT
-1.8014337	DET NUM PUNCT
-0.82754177	NUM NUM PUNCT
-1.2987616	ADV NUM PUNCT
-1.1747355	CCONJ NUM PUNCT
-1.5150697	ADP NUM PUNCT
-1.7380372	PRON NUM PUNCT
-1.8989316	SCONJ NUM PUNCT
-0.62409055	X NUM PUNCT
-1.2391932	<s> ADV PUNCT
-2.0366666	PROPN ADV PUNCT
-2.137841	NOUN ADV PUNCT
-1.7138251	PART ADV PUNCT
-1.3513495	ADJ ADV PUNCT
-1.3755627	VERB ADV PUNCT
-1.5087695	PUNCT ADV PUNCT
-1.7063736	DET ADV PUNCT
-1.7412616	NUM ADV PUNCT
-2.034492	ADV ADV PUNCT
-2.5825148	CCONJ ADV PUNCT
-1.7355305	ADP ADV PUNCT
-2.5193923	PRON ADV PUNCT
-2.008872	SCONJ ADV PUNCT
-1.9508797	X ADV PUNCT
-0.86105704	INTJ ADV PUNCT
-1.6873919	<s> CCONJ PUNCT
-1.9923378	PROPN CCONJ PUNCT
-2.2872078	NOUN CCONJ PUNCT
-1.7707443	PART CCONJ PUNCT
-2.3920987	VERB CCONJ PUNCT
-0.9381444	PUNCT CCONJ PUNCT
-2.0632644	NUM CCONJ PUNCT
-1.8279669	ADV CCONJ PUNCT
-1.8665948	PRON CCONJ PUNCT
-1.7172381	<s> ADP PUNCT
-1.600283	PROPN ADP PUNCT
-1.8144729	NOUN ADP PUNCT
-1.7440959	PART ADP PUNCT
-1.6266623	ADJ ADP PUNCT
-1.7722597	VERB ADP PUNCT
-1.7235488	PUNCT ADP PUNCT
-1.8037758	DET ADP PUNCT
-1.7117118	NUM ADP PUNCT
-1.8902389	ADV ADP PUNCT
-1.8792846	CCONJ ADP PUNCT
-1.7478235	ADP ADP PUNCT
-1.8002275	PRON ADP PUNCT
-1.6137122	SCONJ ADP PUNCT
-1.1954006	X ADP PUNCT
-2.4553194	<s> PRON PUNCT
-1.2419235	PROPN PRON PUNCT
-1.2271758	NOUN PRON PUNCT
-0.75042605	PART PRON PUNCT
-0.65922433	ADJ PRON PUNCT
-0.80973655	VERB PRON PUNCT
-1.9970745	PUNCT PRON PUNCT
-1.0685536	DET PRON PUNCT
-0.60643715	NUM PRON PUNCT
-1.8935962	ADV PRON PUNCT
-1.2666355	CCONJ PRON PUNCT
-1.5954814	ADP PRON PUNCT
-1.0180941	PRON PRON PUNCT
-2.346344	SCONJ PRON PUNCT
-2.307071	X PRON PUNCT
-2.3963385	<s> SCONJ PUNCT
-2.4970272	NOUN SCONJ PUNCT
-2.0962496	PUNCT SCONJ PUNCT
-2.2780538	ADV SCONJ PUNCT
-2.1080594	PRON SCONJ PUNCT
-1.3671627	<s> X PUNCT
-1.0704545	PROPN X PUNCT
-1.6634029	NOUN X PUNCT
-1.8026797	PART X PUNCT
-1.7482036	VERB X PUNCT
-1.0588951	PUNCT X PUNCT
-1.6296875	DET X PUNCT
-1.588594	NUM X PUNCT
-1.9266036	ADV X PUNCT
-1.4024515	CCONJ X PUNCT
-1.8784707	ADP X PUNCT
-2.2608004	PRON X PUNCT
-1.4328071	SCONJ X PUNCT
-0.98023105	X X PUNCT
-0.1682454	<s> INTJ PUNCT
-0.65092605	PROPN INTJ PUNCT
-0.08050482	PART INTJ PUNCT
-0.065885395	PUNCT INTJ PUNCT
-0.72826034	ADV INTJ PUNCT
-0.21654359	INTJ INTJ PUNCT
-2.2273834	<s> PROPN DET
-2.549448	PROPN PROPN DET
-2.44881	NOUN PROPN DET
-2.6271684	PART PROPN DET
-2.3396046	ADJ PROPN DET
-2.0918715	VERB PROPN DET
-2.3718321	PUNCT PROPN DET
-2.295672	DET PROPN DET
-2.8703842	NUM PROPN DET
-2.2048523	ADV PROPN DET
-2.0435588	CCONJ PROPN DET
-2.1306665	ADP PROPN DET
-2.0601666	PRON PROPN DET
-2.3994188	SCONJ PROPN DET
-2.1212204	X PROPN DET
-2.1576989	<s> NOUN DET
-2.4915197	PROPN NOUN DET
-2.709652	NOUN NOUN DET
-2.8237677	PART NOUN DET
-2.8310766	ADJ NOUN DET
-2.4988685	VERB NOUN DET
-2.422746	PUNCT NOUN DET
-2.6408148	DET NOUN DET
-3.0923803	NUM NOUN DET
-2.0324192	ADV NOUN DET
-2.4434261	CCONJ NOUN DET
-2.2946517	ADP NOUN DET
-2.2048929	PRON NOUN DET
-2.535643	SCONJ NOUN DET
-2.2717454	X NOUN DET
-2.139721	<s> PART DET
-1.8631161	PROPN PART DET
-2.0323367	NOUN PART DET
-1.521688	PART PART DET
-2.1594043	ADJ PART DET
-1.5604955	VERB PART DET
-2.0667744	PUNCT PART DET
-2.6121223	NUM PART DET
-2.1673856	ADV PART DET
-1.7200882	ADP PART DET
-2.1063473	PRON PART DET
-2.3948495	<s> ADJ DET
-2.5167694	PROPN ADJ DET
-2.5830302	NOUN ADJ DET
-2.5868053	PART ADJ DET
-2.403548	VERB ADJ DET
-2.3118374	PUNCT ADJ DET
-3.241921	NUM ADJ DET
-2.8742456	ADV ADJ DET
-2.2713246	CCONJ ADJ DET
-2.3932886	ADP ADJ DET
-2.046089	PRON ADJ DET
-1.4054248	<s> VERB DET
-1.6145219	PROPN VERB DET
-1.6650391	NOUN VERB DET
-1.5543618	PART VERB DET
-2.2470102	ADJ VERB DET
-1.3482159	VERB VERB DET
-1.6247257	PUNCT VERB DET
-1.8200698	DET VERB DET
-1.7841406	NUM VERB DET
-1.4746742	ADV VERB DET
-1.4216226	CCONJ VERB DET
-1.4454468	ADP VERB DET
-1.4036753	PRON VERB DET
-1.3615023	SCONJ VERB DET
-2.389887	X VERB DET
-1.6603917	<s> PUNCT DET
-2.0756838	PROPN PUNCT DET
-2.040507	NOUN PUNCT DET
-1.9769865	PART PUNCT DET
-1.9549485	ADJ PUNCT DET
-1.970944	VERB PUNCT DET
-1.7373753	PUNCT PUNCT DET
-2.060175	NUM PUNCT DET
-1.6875463	ADV PUNCT DET
-2.0921907	CCONJ PUNCT DET
-1.986877	ADP PUNCT DET
-2.3714151	PRON PUNCT DET
-1.3702946	SCONJ PUNCT DET
-1.8029771	X PUNCT DET
-1.882158	INTJ PUNCT DET
-1.7696326	<s> DET DET
-1.6892292	PROPN DET DET
-1.8434113	NOUN DET DET
-1.4169478	PART DET DET
-1.7233481	VERB DET DET
-1.9254522	PUNCT DET DET
-2.2141845	DET DET DET
-1.9377909	ADV DET DET
-1.5985386	CCONJ DET DET
-1.850719	ADP DET DET
-1.7534949	PRON DET DET
-2.314083	X DET DET
-2.9192352	<s> NUM DET
-2.764968	PROPN NUM DET
-2.9418373	NOUN NUM DET
-2.8156152	PART NUM DET
-2.7740948	VERB NUM DET
-2.795884	PUNCT NUM DET
-2.9357636	DET NUM DET
-2.611828	NUM NUM DET
-2.9524179	ADV NUM DET
-2.0473826	CCONJ NUM DET
-2.5908024	ADP NUM DET
-1.521742	<s> ADV DET
-2.7169273	PROPN ADV DET
-2.6210942	NOUN ADV DET
-2.1749675	PART ADV DET
-2.2505445	VERB ADV DET
-1.6825763	PUNCT ADV DET
-1.9492738	DET ADV DET
-2.7371588	NUM ADV DET
-2.2536008	ADV ADV DET
-2.246135	CCONJ ADV DET
-2.0692098	ADP ADV DET
-2.5091553	PRON ADV DET
-2.262022	SCONJ ADV DET
-1.0377251	<s> CCONJ DET
-1.3103744	PROPN CCONJ DET
-1.5180173	NOUN CCONJ DET
-0.95716906	PART CCONJ DET
-2.052335	VERB CCONJ DET
-1.381773	PUNCT CCONJ DET
-0.85812664	DET CCONJ DET
-1.927801	NUM CCONJ DET
-1.0332656	ADV CCONJ DET
-1.2143801	CCONJ CCONJ DET
-0.9021661	PRON CCONJ DET
-0.68480587	SCONJ CCONJ DET
-1.1399468	<s> ADP DET
-1.2761629	PROPN ADP DET
-1.3785925	NOUN ADP DET
-1.1810437	PART ADP DET
-1.6431074	ADJ ADP DET
-1.2324636	VERB ADP DET
-1.3058904	PUNCT ADP DET
-1.3998389	DET ADP DET
-1.4224825	NUM ADP DET
-1.2706546	ADV ADP DET
-1.4447131	CCONJ ADP DET
-1.2900143	ADP ADP DET
-1.1843799	PRON ADP DET
-1.125079	SCONJ ADP DET
-2.4141445	<s> PRON DET
-2.1201952	PROPN PRON DET
-2.2988622	NOUN PRON DET
-2.1495159	PART PRON DET
-2.1070464	VERB PRON DET
-2.379416	PUNCT PRON DET
-2.1228967	NUM PRON DET
-2.2237375	ADV PRON DET
-1.9762892	CCONJ PRON DET
-1.9212047	ADP PRON DET
-2.2653434	SCONJ PRON DET
-2.3518307	X PRON DET
-1.2918897	<s> SCONJ DET
-1.5492651	VERB SCONJ DET
-1.2626226	PUNCT SCONJ DET
-0.89283955	NUM SCONJ DET
-1.5269881	ADV SCONJ DET
-1.3821368	ADP SCONJ DET
-1.1329743	<s> X DET
-1.4051816	PROPN X DET
-1.494404	NOUN X DET
-1.7295911	PART X DET
-1.1388451	VERB X DET
-1.4850194	PUNCT X DET
-1.434647	DET X DET
-1.8972213	NUM X DET
-1.3299139	ADV X DET
-1.6965123	CCONJ X DET
-1.7168374	ADP X DET
-1.0404855	PRON X DET
-1.2347994	SCONJ X DET
-1.9502264	<s> INTJ DET
-1.8362293	<s> PROPN NUM
-1.8899289	PROPN PROPN NUM
-1.8573658	NOUN PROPN NUM
-1.9535867	PART PROPN NUM
-2.0788715	ADJ PROPN NUM
-1.7673949	VERB PROPN NUM
-1.7553463	PUNCT PROPN NUM
-2.027439	DET PROPN NUM
-2.204415	NUM PROPN NUM
-1.6723151	ADV PROPN NUM
-1.6034812	CCONJ PROPN NUM
-1.9285864	ADP PROPN NUM
-1.9662398	PRON PROPN NUM
-2.0046833	SCONJ PROPN NUM
-1.6976483	X PROPN NUM
-0.8135933	SPACE PROPN NUM
-1.5978303	<s> NOUN NUM
-1.9293146	PROPN NOUN NUM
-2.0602815	NOUN NOUN NUM
-2.537709	PART NOUN NUM
-2.3428764	ADJ NOUN NUM
-1.9654104	VERB NOUN NUM
-1.7610503	PUNCT NOUN NUM
-2.2274733	DET NOUN NUM
-1.94345	NUM NOUN NUM
-1.7486049	ADV NOUN NUM
-2.3086667	CCONJ NOUN NUM
-1.8044318	ADP NOUN NUM
-1.8665733	PRON NOUN NUM
-1.7771498	SCONJ NOUN NUM
-1.9905962	X NOUN NUM
-2.123336	<s> PART NUM
-1.4554842	PROPN PART NUM
-1.6168565	NOUN PART NUM
-1.2221625	PART PART NUM
-1.5801731	ADJ PART NUM
-1.1689178	VERB PART NUM
-1.6689442	PUNCT PART NUM
-1.9072567	DET PART NUM
-1.8942745	NUM PART NUM
-1.8083115	ADV PART NUM
-1.8308917	PRON PART NUM
-1.2464395	INTJ PART NUM
-1.7906556	<s> ADJ NUM
-2.4347208	PROPN ADJ NUM
-1.9661531	NOUN ADJ NUM
-1.9704862	PART ADJ NUM
-2.478992	ADJ ADJ NUM
-1.890143	VERB ADJ NUM
-1.9552939	PUNCT ADJ NUM
-2.4919484	DET ADJ NUM
-2.0148714	NUM ADJ NUM
-1.7804751	ADV ADJ NUM
-2.5181472	CCONJ ADJ NUM
-1.9890971	ADP ADJ NUM
-1.3284427	PRON ADJ NUM
-1.1791537	<s> VERB NUM
-1.3197378	PROPN VERB NUM
-1.3692495	NOUN VERB NUM
-1.3806337	PART VERB NUM
-2.3854945	ADJ VERB NUM
-1.3243284	VERB VERB NUM
-1.3123595	PUNCT VERB NUM
-1.6417996	DET VERB NUM
-1.345797	NUM VERB NUM
-1.3068867	ADV VERB NUM
-1.7258911	CCONJ VERB NUM
-1.4901781	ADP VERB NUM
-1.4391336	PRON VERB NUM
-1.3517044	SCONJ VERB NUM
-1.5550627	X VERB NUM
-1.008885	INTJ VERB NUM
-1.6565833	<s> PUNCT NUM
-1.7897426	PROPN PUNCT NUM
-1.9596391	NOUN PUNCT NUM
-1.862448	PART PUNCT NUM
-1.8793597	ADJ PUNCT NUM
-1.9437217	VERB PUNCT NUM
-1.7290336	PUNCT PUNCT NUM
-1.369972	DET PUNCT NUM
-0.8651555	NUM PUNCT NUM
-1.9397197	ADV PUNCT NUM
-1.5525929	CCONJ PUNCT NUM
-1.7328634	ADP PUNCT NUM
-2.3338113	PRON PUNCT NUM
-1.6708155	X PUNCT NUM
-0.6172671	<s> DET NUM
-0.78384	PROPN DET NUM
-0.6312529	NOUN DET NUM
-0.62136406	PART DET NUM
-1.1525489	ADJ DET NUM
-0.782243	VERB DET NUM
-0.6643361	PUNCT DET NUM
-1.5762742	DET DET NUM
-0.72167975	NUM DET NUM
-0.7697315	ADV DET NUM
-1.0328276	CCONJ DET NUM
-0.6939313	ADP DET NUM
-0.7234956	PRON DET NUM
-0.8036221	SCONJ DET NUM
-0.6219023	X DET NUM
-0.39967772	<s> NUM NUM
-0.48368403	PROPN NUM NUM
-0.3013194	NOUN NUM NUM
-0.21514858	PART NUM NUM
-0.20273347	ADJ NUM NUM
-0.29747713	VERB NUM NUM
-0.3908438	PUNCT NUM NUM
-0.54995364	DET NUM NUM
-1.3254334	NUM NUM NUM
-0.41624424	ADV NUM NUM
-0.28634834	CCONJ NUM NUM
-0.24627705	ADP NUM NUM
-0.22734702	PRON NUM NUM
-0.42920887	SCONJ NUM NUM
-0.3877709	X NUM NUM
-1.5507342	<s> ADV NUM
-1.7756919	PROPN ADV NUM
-1.8656733	NOUN ADV NUM
-1.2709684	PART ADV NUM
-1.0256491	VERB ADV NUM
-1.5547422	PUNCT ADV NUM
-1.7134702	DET ADV NUM
-1.4032917	NUM ADV NUM
-1.8599209	ADV ADV NUM
-1.1073235	CCONJ ADV NUM
-1.0991828	ADP ADV NUM
-2.0121279	PRON ADV NUM
-1.3483744	SCONJ ADV NUM
-1.496339	X ADV NUM
-0.974221	<s> CCONJ NUM
-1.7009838	PROPN CCONJ NUM
-1.5893296	NOUN CCONJ NUM
-1.0355394	PART CCONJ NUM
-1.9359637	VERB CCONJ NUM
-1.2783012	PUNCT CCONJ NUM
-0.8703444	DET CCONJ NUM
-0.100847125	NUM CCONJ NUM
-0.64494807	ADV CCONJ NUM
-1.0635043	ADP CCONJ NUM
-0.9707149	PRON CCONJ NUM
-1.379287	<s> ADP NUM
-1.3540813	PROPN ADP NUM
-1.4368348	NOUN ADP NUM
-1.3721427	PART ADP NUM
-1.5192437	VERB ADP NUM
-1.3494356	PUNCT ADP NUM
-1.8935251	DET ADP NUM
-1.3820776	NUM ADP NUM
-1.3748893	ADV ADP NUM
-1.7015573	CCONJ ADP NUM
-1.5827849	ADP ADP NUM
-1.3932179	PRON ADP NUM
-1.6212605	SCONJ ADP NUM
-0.5506434	INTJ ADP NUM
-2.2961695	<s> PRON NUM
-2.356271	PROPN PRON NUM
-2.4590516	NOUN PRON NUM
-1.6796298	PART PRON NUM
-2.0021338	VERB PRON NUM
-2.246491	PUNCT PRON NUM
-2.0831838	NUM PRON NUM
-2.0432172	ADV PRON NUM
-1.8798848	CCONJ PRON NUM
-2.1633408	ADP PRON NUM
-2.3199313	PRON PRON NUM
-2.5783143	SCONJ PRON NUM
-2.1006198	X PRON NUM
-0.8132846	INTJ PRON NUM
-1.5294574	<s> SCONJ NUM
-1.9872339	NOUN SCONJ NUM
-1.6250834	VERB SCONJ NUM
-1.9785267	PUNCT SCONJ NUM
-0.87625635	NUM SCONJ NUM
-1.7830778	ADV SCONJ NUM
-1.3467314	ADP SCONJ NUM
-1.5231044	<s> X NUM
-1.5853559	PROPN X NUM
-1.6240804	NOUN X NUM
-1.6675963	PART X NUM
-1.8864427	VERB X NUM
-0.87080306	PUNCT X NUM
-1.9194971	NUM X NUM
-1.5631374	ADV X NUM
-1.4252142	CCONJ X NUM
-1.6355255	ADP X NUM
-1.6470828	PRON X NUM
-1.4713666	SCONJ X NUM
-1.1335846	<s> PROPN ADV
-1.3625395	PROPN PROPN ADV
-1.3356326	NOUN PROPN ADV
-1.4719933	PART PROPN ADV
-1.773141	ADJ PROPN ADV
-1.4986656	VERB PROPN ADV
-1.3961078	PUNCT PROPN ADV
-1.2508366	DET PROPN ADV
-1.5623038	NUM PROPN ADV
-0.86391264	ADV PROPN ADV
-1.2559798	CCONJ PROPN ADV
-1.382152	ADP PROPN ADV
-1.2178347	PRON PROPN ADV
-0.7656467	SCONJ PROPN ADV
-1.8010156	X PROPN ADV
-0.8624307	<s> NOUN ADV
-1.098378	PROPN NOUN ADV
-1.0845948	NOUN NOUN ADV
-1.1013857	PART NOUN ADV
-1.2180737	ADJ NOUN ADV
-1.3848627	VERB NOUN ADV
-1.1351215	PUNCT NOUN ADV
-0.78407836	DET NOUN ADV
-1.0030376	NUM NOUN ADV
-0.77290374	ADV NOUN ADV
-1.1909051	CCONJ NOUN ADV
-1.3118863	ADP NOUN ADV
-0.8055753	PRON NOUN ADV
-0.70246816	SCONJ NOUN ADV
-1.5255677	X NOUN ADV
-1.2151536	INTJ NOUN ADV
-0.810361	SPACE NOUN ADV
-2.1039732	<s> PART ADV
-1.832859	PROPN PART ADV
-1.4487953	NOUN PART ADV
-2.0877006	PART PART ADV
-2.6454983	ADJ PART ADV
-1.5131917	VERB PART ADV
-1.986736	PUNCT PART ADV
-2.1344404	DET PART ADV
-1.3889207	NUM PART ADV
-1.1356366	ADV PART ADV
-1.4380786	CCONJ PART ADV
-1.1319329	ADP PART ADV
-1.9401838	PRON PART ADV
-2.7760172	<s> ADJ ADV
-2.8275476	PROPN ADJ ADV
-2.7062001	NOUN ADJ ADV
-3.0703285	PART ADJ ADV
-2.7176378	VERB ADJ ADV
-2.7334354	PUNCT ADJ ADV
-2.603699	DET ADJ ADV
-3.2170432	NUM ADJ ADV
-3.0231667	ADV ADJ ADV
-2.527098	CCONJ ADJ ADV
-2.311066	PRON ADJ ADV
-2.1429796	X ADJ ADV
-1.3328772	<s> VERB ADV
-1.4765977	PROPN VERB ADV
-1.3922802	NOUN VERB ADV
-1.5703156	PART VERB ADV
-1.6108342	ADJ VERB ADV
-1.4340438	VERB VERB ADV
-1.4285758	PUNCT VERB ADV
-1.6689409	DET VERB ADV
-1.5521778	NUM VERB ADV
-1.349363	ADV VERB ADV
-1.7396231	CCONJ VERB ADV
-1.6225647	ADP VERB ADV
-1.1666043	PRON VERB ADV
-1.108137	SCONJ VERB ADV
-1.6240433	X VERB ADV
-1.0080118	INTJ VERB ADV
-1.14926	<s> PUNCT ADV
-1.406555	PROPN PUNCT ADV
-1.1846569	NOUN PUNCT ADV
-1.2495565	PART PUNCT ADV
-1.5370412	ADJ PUNCT ADV
-1.2110105	VERB PUNCT ADV
-1.224379	PUNCT PUNCT ADV
-1.9195825	DET PUNCT ADV
-1.2534821	NUM PUNCT ADV
-1.2419226	ADV PUNCT ADV
-1.201747	CCONJ PUNCT ADV
-1.6052935	ADP PUNCT ADV
-1.2736751	PRON PUNCT ADV
-1.5561295	X PUNCT ADV
-1.7919958	INTJ PUNCT ADV
-1.9801217	<s> DET ADV
-1.8617221	PROPN DET ADV
-1.8651083	NOUN DET ADV
-1.6509272	PART DET ADV
-1.2944835	ADJ DET ADV
-1.6140171	VERB DET ADV
-1.7855009	PUNCT DET ADV
-1.402753	DET DET ADV
-1.8290565	NUM DET ADV
-1.5887564	ADV DET ADV
-1.5755242	CCONJ DET ADV
-1.7762523	ADP DET ADV
-1.4758828	PRON DET ADV
-1.785844	X DET ADV
-1.9803395	<s> NUM ADV
-1.765873	PROPN NUM ADV
-1.9170035	NOUN NUM ADV
-2.2959793	PART NUM ADV
-2.4383082	ADJ NUM ADV
-1.886313	VERB NUM ADV
-1.9665715	PUNCT NUM ADV
-1.8014337	DET NUM ADV
-1.4608269	NUM NUM ADV
-1.8651994	ADV NUM ADV
-1.8554159	CCONJ NUM ADV
-2.0819247	ADP NUM ADV
-1.7380372	PRON NUM ADV
-1.8989316	SCONJ NUM ADV
-1.9519536	X NUM ADV
-0.7933302	<s> ADV ADV
-0.8740184	PROPN ADV ADV
-0.76882124	NOUN ADV ADV
-0.95135635	PART ADV ADV
-1.3513495	ADJ ADV ADV
-1.1794184	VERB ADV ADV
-0.8226436	PUNCT ADV ADV
-1.1000543	DET ADV ADV
-0.96536607	NUM ADV ADV
-0.94768214	ADV ADV ADV
-1.1423159	CCONJ ADV ADV
-1.2378893	ADP ADV ADV
-0.7424222	PRON ADV ADV
-0.8733868	SCONJ ADV ADV
-2.1535048	X ADV ADV
-0.86105704	INTJ ADV ADV
-1.2306719	<s> CCONJ ADV
-2.2278085	PROPN CCONJ ADV
-1.8032162	NOUN CCONJ ADV
-1.0742861	PART CCONJ ADV
-1.3968762	ADJ CCONJ ADV
-1.1261647	VERB CCONJ ADV
-1.1516362	PUNCT CCONJ ADV
-1.8473307	NUM CCONJ ADV
-0.957936	ADV CCONJ ADV
-1.2143801	CCONJ CCONJ ADV
-1.2767534	ADP CCONJ ADV
-1.5773478	PRON CCONJ ADV
-1.5229688	<s> ADP ADV
-1.8216455	PROPN ADP ADV
-1.8431947	NOUN ADP ADV
-2.0306914	PART ADP ADV
-1.7483442	VERB ADP ADV
-1.5619277	PUNCT ADP ADV
-2.1437252	DET ADP ADV
-1.9740298	NUM ADP ADV
-1.668899	ADV ADP ADV
-1.704963	CCONJ ADP ADV
-1.9716552	ADP ADP ADV
-1.7254207	PRON ADP ADV
-1.4102885	SCONJ ADP ADV
-0.4757601	<s> PRON ADV
-0.75273293	PROPN PRON ADV
-0.5254097	NOUN PRON ADV
-0.85316706	PART PRON ADV
-0.94206715	VERB PRON ADV
-0.5123164	PUNCT PRON ADV
-0.72236234	DET PRON ADV
-0.82520896	NUM PRON ADV
-0.4204178	ADV PRON ADV
-0.96565884	CCONJ PRON ADV
-1.0270381	ADP PRON ADV
-0.73696876	PRON PRON ADV
-0.5625928	SCONJ PRON ADV
-1.5315379	X PRON ADV
-1.1274797	<s> SCONJ ADV
-0.6860543	PROPN SCONJ ADV
-0.7313688	NOUN SCONJ ADV
-1.0851114	VERB SCONJ ADV
-1.0797446	PUNCT SCONJ ADV
-0.996706	ADV SCONJ ADV
-1.0014875	ADP SCONJ ADV
-0.5817852	PRON SCONJ ADV
-0.85192853	SCONJ SCONJ ADV
-1.7538639	<s> X ADV
-1.6424745	PROPN X ADV
-1.3807458	NOUN X ADV
-1.4265604	PART X ADV
-1.5546821	VERB X ADV
-2.1932876	PUNCT X ADV
-1.6669881	DET X ADV
-1.7110438	NUM X ADV
-1.6157478	ADV X ADV
-1.7179044	CCONJ X ADV
-1.9211224	ADP X ADV
-1.7178247	PRON X ADV
-1.46876	<s> INTJ ADV
-2.1279507	PUNCT INTJ ADV
-1.6406666	<s> PROPN CCONJ
-1.623161	PROPN PROPN CCONJ
-1.6468304	NOUN PROPN CCONJ
-1.5719116	PART PROPN CCONJ
-1.8062477	ADJ PROPN CCONJ
-1.4407812	VERB PROPN CCONJ
-1.3603989	PUNCT PROPN CCONJ
-1.7001083	DET PROPN CCONJ
-1.712789	NUM PROPN CCONJ
-1.3429095	ADV PROPN CCONJ
-1.8325624	CCONJ PROPN CCONJ
-1.4516215	ADP PROPN CCONJ
-1.6562588	PRON PROPN CCONJ
-1.3814987	SCONJ PROPN CCONJ
-1.4147874	X PROPN CCONJ
-1.6413403	<s> NOUN CCONJ
-1.5384489	PROPN NOUN CCONJ
-1.4140373	NOUN NOUN CCONJ
-1.409514	PART NOUN CCONJ
-1.4012008	ADJ NOUN CCONJ
-1.3801237	VERB NOUN CCONJ
-1.1269617	PUNCT NOUN CCONJ
-1.6276723	DET NOUN CCONJ
-1.5690858	NUM NOUN CCONJ
-1.4519012	ADV NOUN CCONJ
-2.1276326	CCONJ NOUN CCONJ
-1.4185817	ADP NOUN CCONJ
-1.5101122	PRON NOUN CCONJ
-1.6173322	SCONJ NOUN CCONJ
-1.526963	X NOUN CCONJ
-3.417817	PROPN PART CCONJ
-2.7875347	NOUN PART CCONJ
-3.385592	PART PART CCONJ
-3.169114	VERB PART CCONJ
-3.281714	PUNCT PART CCONJ
-3.1075068	NUM PART CCONJ
-2.740867	ADV PART CCONJ
-3.6889622	PRON PART CCONJ
-2.8602386	<s> ADJ CCONJ
-2.911769	PROPN ADJ CCONJ
-3.1057239	NOUN ADJ CCONJ
-3.071144	PART ADJ CCONJ
-2.5789378	VERB ADJ CCONJ
-2.5832145	PUNCT ADJ CCONJ
-2.7428553	DET ADJ CCONJ
-2.9582872	NUM ADJ CCONJ
-3.0253935	ADV ADJ CCONJ
-2.7557955	CCONJ ADJ CCONJ
-2.9910846	ADP ADJ CCONJ
-2.1292028	PRON ADJ CCONJ
-2.3437915	<s> VERB CCONJ
-2.1474857	PROPN VERB CCONJ
-2.1052296	NOUN VERB CCONJ
-2.1892774	PART VERB CCONJ
-1.3077132	ADJ VERB CCONJ
-2.0179322	VERB VERB CCONJ
-1.8559295	PUNCT VERB CCONJ
-1.8202362	DET VERB CCONJ
-2.0546188	NUM VERB CCONJ
-2.1535559	ADV VERB CCONJ
-2.1916764	CCONJ VERB CCONJ
-1.9764223	ADP VERB CCONJ
-2.335673	PRON VERB CCONJ
-2.1993954	SCONJ VERB CCONJ
-1.797334	X VERB CCONJ
-2.6304586	<s> PUNCT CCONJ
-1.9282532	PROPN PUNCT CCONJ
-1.9943409	NOUN PUNCT CCONJ
-2.7404978	PART PUNCT CCONJ
-1.8793597	ADJ PUNCT CCONJ
-2.3580027	VERB PUNCT CCONJ
-2.2349284	PUNCT PUNCT CCONJ
-2.019634	DET PUNCT CCONJ
-2.218317	NUM PUNCT CCONJ
-2.8542266	ADV PUNCT CCONJ
-1.5997347	CCONJ PUNCT CCONJ
-2.7578886	ADP PUNCT CCONJ
-2.4220107	PRON PUNCT CCONJ
-1.5482193	INTJ PUNCT CCONJ
-3.4711955	VERB DET CCONJ
-3.137144	CCONJ DET CCONJ
-2.4864843	<s> NUM CCONJ
-1.9246783	PROPN NUM CCONJ
-2.1573532	NOUN NUM CCONJ
-2.5337203	PART NUM CCONJ
-2.0345535	VERB NUM CCONJ
-2.1361084	PUNCT NUM CCONJ
-2.8602238	DET NUM CCONJ
-2.1695728	NUM NUM CCONJ
-2.2455282	ADV NUM CCONJ
-2.5944922	CCONJ NUM CCONJ
-1.8072546	ADP NUM CCONJ
-2.183697	X NUM CCONJ
-2.608005	<s> ADV CCONJ
-2.8872592	PROPN ADV CCONJ
-3.1019456	NOUN ADV CCONJ
-2.9540477	PART ADV CCONJ
-2.9740207	VERB ADV CCONJ
-2.5016055	PUNCT ADV CCONJ
-2.9485247	NUM ADV CCONJ
-3.126227	ADV ADV CCONJ
-2.9145103	ADP ADV CCONJ
-3.1137033	PRON ADV CCONJ
-2.4773543	SCONJ ADV CCONJ
-2.5770364	<s> CCONJ CCONJ
-3.1772952	NOUN CCONJ CCONJ
-3.3547385	VERB CCONJ CCONJ
-3.2450347	PUNCT CCONJ CCONJ
-3.270872	<s> ADP CCONJ
-3.080867	PROPN ADP CCONJ
-3.5422642	NOUN ADP CCONJ
-3.7679791	VERB ADP CCONJ
-3.5069187	PUNCT ADP CCONJ
-3.9124415	ADV ADP CCONJ
-2.1948004	<s> PRON CCONJ
-2.201082	PROPN PRON CCONJ
-1.9546489	NOUN PRON CCONJ
-2.0928679	PART PRON CCONJ
-2.0721984	VERB PRON CCONJ
-2.09573	PUNCT PRON CCONJ
-1.9189613	NUM PRON CCONJ
-2.0612292	ADV PRON CCONJ
-2.4473495	CCONJ PRON CCONJ
-2.045941	ADP PRON CCONJ
-1.6997533	PRON PRON CCONJ
-2.1028016	SCONJ PRON CCONJ
-2.50541	X PRON CCONJ
-3.3938622	<s> SCONJ CCONJ
-2.6169462	NOUN SCONJ CCONJ
-3.0046685	PUNCT SCONJ CCONJ
-2.6729932	PROPN X CCONJ
-1.0689847	ADJ X CCONJ
-1.3386616	<s> PROPN ADP
-1.1736377	PROPN PROPN ADP
-1.3340081	NOUN PROPN ADP
-1.7014998	PART PROPN ADP
-1.7120913	ADJ PROPN ADP
-1.56921	VERB PROPN ADP
-1.492168	PUNCT PROPN ADP
-1.5959669	DET PROPN ADP
-1.8456155	NUM PROPN ADP
-1.3913409	ADV PROPN ADP
-1.5888858	CCONJ PROPN ADP
-1.6772765	ADP PROPN ADP
-1.2745396	PRON PROPN ADP
-1.1657917	SCONJ PROPN ADP
-1.5173472	X PROPN ADP
-0.9598756	INTJ PROPN ADP
-1.2941161	<s> NOUN ADP
-1.3512582	PROPN NOUN ADP
-1.5627348	NOUN NOUN ADP
-1.7153006	PART NOUN ADP
-1.6895138	ADJ NOUN ADP
-1.7191732	VERB NOUN ADP
-1.571365	PUNCT NOUN ADP
-1.3560656	DET NOUN ADP
-1.4009836	NUM NOUN ADP
-1.4989309	ADV NOUN ADP
-1.762037	CCONJ NOUN ADP
-1.7081273	ADP NOUN ADP
-1.3965161	PRON NOUN ADP
-1.1900305	SCONJ NOUN ADP
-1.5088028	X NOUN ADP
-1.2262603	INTJ NOUN ADP
-2.358091	PROPN PART ADP
-2.1144123	NOUN PART ADP
-2.5964754	PART PART ADP
-3.4578135	ADJ PART ADP
-1.9014032	VERB PART ADP
-2.1346507	PUNCT PART ADP
-2.3563995	DET PART ADP
-2.0463932	NUM PART ADP
-1.5473952	ADV PART ADP
-1.7200882	ADP PART ADP
-2.971825	PRON PART ADP
-2.7911625	<s> ADJ ADP
-2.5167694	PROPN ADJ ADP
-2.7135406	NOUN ADJ ADP
-3.401216	PART ADJ ADP
-2.9277759	VERB ADJ ADP
-2.4286635	PUNCT ADJ ADP
-2.6140506	DET ADJ ADP
-3.241921	NUM ADJ ADP
-2.8742456	ADV ADJ ADP
-2.9455955	CCONJ ADJ ADP
-3.17958	ADP ADJ ADP
-1.2597865	<s> VERB ADP
-1.5048285	PROPN VERB ADP
-1.4128731	NOUN VERB ADP
-1.731677	PART VERB ADP
-1.6140603	ADJ VERB ADP
-1.5430471	VERB VERB ADP
-1.3912369	PUNCT VERB ADP
-1.488354	DET VERB ADP
-1.3732775	NUM VERB ADP
-1.3882037	ADV VERB ADP
-1.5781218	CCONJ VERB ADP
-1.5972066	ADP VERB ADP
-1.2548679	PRON VERB ADP
-1.2407752	SCONJ VERB ADP
-1.3197424	X VERB ADP
-1.361565	<s> PUNCT ADP
-1.3908634	PROPN PUNCT ADP
-1.6135893	NOUN PUNCT ADP
-1.7211578	PART PUNCT ADP
-2.121263	ADJ PUNCT ADP
-1.6228474	VERB PUNCT ADP
-1.492827	PUNCT PUNCT ADP
-1.6801912	DET PUNCT ADP
-1.6382586	NUM PUNCT ADP
-1.329389	ADV PUNCT ADP
-1.7764277	CCONJ PUNCT ADP
-1.7070088	ADP PUNCT ADP
-1.7909667	PRON PUNCT ADP
-2.0596256	X PUNCT ADP
-1.882158	INTJ PUNCT ADP
-2.055198	<s> DET ADP
-1.7669675	PROPN DET ADP
-2.300844	NOUN DET ADP
-1.7964666	PART DET ADP
-1.9884367	ADJ DET ADP
-1.7514303	VERB DET ADP
-1.8779782	PUNCT DET ADP
-1.4848565	DET DET ADP
-1.8551033	ADV DET ADP
-1.8625673	CCONJ DET ADP
-1.7854912	ADP DET ADP
-1.7457266	PRON DET ADP
-2.0378714	X DET ADP
-2.196017	<s> NUM ADP
-2.1985738	PROPN NUM ADP
-2.4700027	NOUN NUM ADP
-2.2784328	PART NUM ADP
-2.077817	VERB NUM ADP
-2.2934453	PUNCT NUM ADP
-1.9536432	DET NUM ADP
-1.6323489	NUM NUM ADP
-1.7633901	ADV NUM ADP
-2.132802	CCONJ NUM ADP
-2.1357336	ADP NUM ADP
-1.9352254	PRON NUM ADP
-1.9166124	SCONJ NUM ADP
-1.8749685	X NUM ADP
-1.029703	<s> ADV ADP
-1.0013417	PROPN ADV ADP
-1.1700845	NOUN ADV ADP
-1.574254	PART ADV ADP
-1.6884136	ADJ ADV ADP
-1.3947836	VERB ADV ADP
-1.014175	PUNCT ADV ADP
-1.2265723	DET ADV ADP
-1.3847077	NUM ADV ADP
-1.2541661	ADV ADV ADP
-1.2151232	CCONJ ADV ADP
-1.3177546	ADP ADV ADP
-1.2176169	PRON ADV ADP
-1.2022501	SCONJ ADV ADP
-1.9608457	X ADV ADP
-1.1014373	<s> CCONJ ADP
-2.3370726	PROPN CCONJ ADP
-1.9484107	NOUN CCONJ ADP
-1.9297258	PART CCONJ ADP
-1.6625054	VERB CCONJ ADP
-1.1346408	PUNCT CCONJ ADP
-2.0507143	NUM CCONJ ADP
-1.4816815	ADV CCONJ ADP
-2.189476	PRON CCONJ ADP
-0.5534734	X CCONJ ADP
-1.7174898	<s> ADP ADP
-1.8674085	PROPN ADP ADP
-2.0122354	NOUN ADP ADP
-2.1381454	PART ADP ADP
-1.8965838	VERB ADP ADP
-1.7617176	PUNCT ADP ADP
-1.9958609	DET ADP ADP
-2.47893	NUM ADP ADP
-1.9650365	ADV ADP ADP
-2.455975	CCONJ ADP ADP
-2.5049644	ADP ADP ADP
-2.0941265	PRON ADP ADP
-2.10775	SCONJ ADP ADP
-1.5202863	X ADP ADP
-1.0572597	<s> PRON ADP
-1.0567263	PROPN PRON ADP
-1.1746109	NOUN PRON ADP
-1.2278913	PART PRON ADP
-1.230309	VERB PRON ADP
-1.0658368	PUNCT PRON ADP
-1.8805891	DET PRON ADP
-1.1925614	NUM PRON ADP
-1.259771	ADV PRON ADP
-1.250324	CCONJ PRON ADP
-1.395767	ADP PRON ADP
-1.382993	PRON PRON ADP
-1.1264645	SCONJ PRON ADP
-1.1537848	X PRON ADP
-1.3948672	<s> SCONJ ADP
-1.0226144	PROPN SCONJ ADP
-1.1182998	NOUN SCONJ ADP
-1.2477802	PART SCONJ ADP
-1.3898468	VERB SCONJ ADP
-1.4605577	PUNCT SCONJ ADP
-1.1945331	ADV SCONJ ADP
-0.8549339	ADP SCONJ ADP
-0.99162203	PRON SCONJ ADP
-2.3511026	<s> X ADP
-1.8965049	PROPN X ADP
-2.2923205	NOUN X ADP
-2.0711553	PART X ADP
-2.2634199	VERB X ADP
-2.439438	PUNCT X ADP
-1.6869129	DET X ADP
-2.2663276	ADV X ADP
-1.9441295	ADP X ADP
-2.1553705	PRON X ADP
-1.513755	X X ADP
-2.0416338	<s> INTJ ADP
-0.7556215	NOUN INTJ ADP
-2.5258188	<s> PROPN PRON
-2.626134	PROPN PROPN PRON
-2.5045629	NOUN PROPN PRON
-2.569746	PART PROPN PRON
-2.5458302	VERB PROPN PRON
-2.5613952	PUNCT PROPN PRON
-2.8132355	DET PROPN PRON
-2.9004638	NUM PROPN PRON
-2.2460077	ADV PROPN PRON
-2.4768343	CCONJ PROPN PRON
-2.3296926	ADP PROPN PRON
-1.8587571	PRON PROPN PRON
-2.5498416	X PROPN PRON
-1.9134343	<s> NOUN PRON
-2.826202	PROPN NOUN PRON
-2.8383834	NOUN NOUN PRON
-2.8237677	PART NOUN PRON
-2.9908555	ADJ NOUN PRON
-2.63358	VERB NOUN PRON
-2.2965705	PUNCT NOUN PRON
-2.3658202	DET NOUN PRON
-2.6064942	NUM NOUN PRON
-1.9269861	ADV NOUN PRON
-2.59572	CCONJ NOUN PRON
-2.5046368	ADP NOUN PRON
-2.1564562	PRON NOUN PRON
-2.2148252	SCONJ NOUN PRON
-3.0078943	X NOUN PRON
-2.4813938	PROPN PART PRON
-2.4432795	NOUN PART PRON
-2.319081	PART PART PRON
-2.712103	ADJ PART PRON
-1.6329069	VERB PART PRON
-2.7173145	PUNCT PART PRON
-2.0788703	DET PART PRON
-2.0959074	NUM PART PRON
-1.8158315	ADV PART PRON
-2.7358806	PRON PART PRON
-3.2954376	PROPN ADJ PRON
-3.4185088	VERB ADJ PRON
-3.4330132	PUNCT ADJ PRON
-2.994023	ADV ADJ PRON
-3.374724	ADP ADJ PRON
-1.0993054	<s> VERB PRON
-1.6245064	PROPN VERB PRON
-1.5514569	NOUN VERB PRON
-1.4463449	PART VERB PRON
-2.152204	ADJ VERB PRON
-1.3042777	VERB VERB PRON
-1.3541526	PUNCT VERB PRON
-1.5918347	DET VERB PRON
-1.7834501	NUM VERB PRON
-1.4073517	ADV VERB PRON
-1.2989212	CCONJ VERB PRON
-1.4657952	ADP VERB PRON
-1.1515461	PRON VERB PRON
-1.5420891	SCONJ VERB PRON
-2.1081553	X VERB PRON
-1.0080118	INTJ VERB PRON
-0.98327756	<s> PUNCT PRON
-1.8034812	PROPN PUNCT PRON
-1.7272236	NOUN PUNCT PRON
-1.494514	PART PUNCT PRON
-2.1023214	ADJ PUNCT PRON
-1.6216993	VERB PUNCT PRON
-1.192376	PUNCT PUNCT PRON
-1.9083651	DET PUNCT PRON
-1.8586184	NUM PUNCT PRON
-1.3674692	ADV PUNCT PRON
-1.3978384	CCONJ PUNCT PRON
-1.492714	ADP PUNCT PRON
-1.4725142	PRON PUNCT PRON
-1.3572112	SCONJ PUNCT PRON
-1.8785157	X PUNCT PRON
-1.4510542	INTJ PUNCT PRON
-2.8005528	<s> DET PRON
-2.642759	NOUN DET PRON
-2.416838	PART DET PRON
-2.3923302	VERB DET PRON
-2.3664253	PUNCT DET PRON
-2.0913475	DET DET PRON
-2.439112	ADV DET PRON
-2.1832874	CCONJ DET PRON
-2.6672132	ADP DET PRON
-2.273286	PRON DET PRON
-2.338446	X DET PRON
-3.033948	<s> NUM PRON
-2.780818	PROPN NUM PRON
-2.7952366	NOUN NUM PRON
-2.7600803	PART NUM PRON
-2.3533127	VERB NUM PRON
-2.9433274	DET NUM PRON
-2.4416595	NUM NUM PRON
-2.9637125	ADV NUM PRON
-2.8864074	CCONJ NUM PRON
-2.2252724	PRON NUM PRON
-1.0889441	<s> ADV PRON
-2.4584632	PROPN ADV PRON
-2.6936543	NOUN ADV PRON
-2.4059846	PART ADV PRON
-2.0383537	VERB ADV PRON
-1.2555264	PUNCT ADV PRON
-2.5316012	DET ADV PRON
-2.3268812	NUM ADV PRON
-2.0851038	ADV ADV PRON
-2.3870726	CCONJ ADV PRON
-1.7621769	ADP ADV PRON
-2.4818923	PRON ADV PRON
-1.9299089	SCONJ ADV PRON
-1.1595085	<s> CCONJ PRON
-1.695659	PROPN CCONJ PRON
-1.9362786	NOUN CCONJ PRON
-2.302538	VERB CCONJ PRON
-1.4813576	PUNCT CCONJ PRON
-1.7998077	NUM CCONJ PRON
-1.8279669	ADV CCONJ PRON
-1.0172172	CCONJ CCONJ PRON
-0.7206924	PRON CCONJ PRON
-0.990346	<s> ADP PRON
-1.3131324	PROPN ADP PRON
-1.2325641	NOUN ADP PRON
-1.1094242	PART ADP PRON
-1.4144529	ADJ ADP PRON
-1.0393016	VERB ADP PRON
-1.0416653	PUNCT ADP PRON
-1.2294796	DET ADP PRON
-1.2683749	NUM ADP PRON
-1.0378661	ADV ADP PRON
-1.1815374	CCONJ ADP PRON
-1.2235053	ADP ADP PRON
-0.9560684	PRON ADP PRON
-1.1860557	SCONJ ADP PRON
-1.1954006	X ADP PRON
-2.3810956	<s> PRON PRON
-2.1995964	PROPN PRON PRON
-2.0685968	NOUN PRON PRON
-1.8133376	PART PRON PRON
-1.8131901	VERB PRON PRON
-2.233981	PUNCT PRON PRON
-2.1015093	NUM PRON PRON
-2.095939	ADV PRON PRON
-1.8159586	CCONJ PRON PRON
-1.7044128	ADP PRON PRON
-1.9778746	PRON PRON PRON
-2.3639395	SCONJ PRON PRON
-1.9179536	X PRON PRON
-0.6490312	<s> SCONJ PRON
-1.7002249	NOUN SCONJ PRON
-1.002984	PART SCONJ PRON
-0.79608804	VERB SCONJ PRON
-0.6280218	PUNCT SCONJ PRON
-0.69433945	ADV SCONJ PRON
-0.538638	CCONJ SCONJ PRON
-1.0014875	ADP SCONJ PRON
-0.42735076	SCONJ SCONJ PRON
-0.97006327	<s> X PRON
-1.1906362	PROPN X PRON
-1.3100924	NOUN X PRON
-1.2258906	PART X PRON
-0.93847305	VERB X PRON
-1.234004	PUNCT X PRON
-1.6869129	DET X PRON
-1.0946579	ADV X PRON
-0.78602934	CCONJ X PRON
-0.9681436	PRON X PRON
-1.2577661	SCONJ X PRON
-1.7997438	<s> INTJ PRON
-1.0677571	PROPN INTJ PRON
-1.9462254	PUNCT INTJ PRON
-0.7880084	ADV INTJ PRON
-2.926907	<s> PROPN SCONJ
-3.9846158	PROPN PROPN SCONJ
-3.7053344	NOUN PROPN SCONJ
-3.67976	PART PROPN SCONJ
-4.155504	VERB PROPN SCONJ
-3.225939	PUNCT PROPN SCONJ
-3.282939	CCONJ PROPN SCONJ
-3.8337505	ADP PROPN SCONJ
-2.4738772	<s> NOUN SCONJ
-3.0814655	PROPN NOUN SCONJ
-3.2139704	NOUN NOUN SCONJ
-3.252782	PART NOUN SCONJ
-3.223879	ADJ NOUN SCONJ
-3.450825	VERB NOUN SCONJ
-3.010618	PUNCT NOUN SCONJ
-2.5509994	DET NOUN SCONJ
-3.357414	NUM NOUN SCONJ
-2.5707462	ADV NOUN SCONJ
-3.4095957	CCONJ NOUN SCONJ
-3.9298475	ADP NOUN SCONJ
-2.9945738	PRON NOUN SCONJ
-3.9233646	NOUN PART SCONJ
-3.648556	VERB PART SCONJ
-3.0133743	<s> VERB SCONJ
-3.0547884	PROPN VERB SCONJ
-3.3270633	NOUN VERB SCONJ
-3.6926322	PART VERB SCONJ
-3.4438205	VERB VERB SCONJ
-2.9620094	PUNCT VERB SCONJ
-3.1943192	NUM VERB SCONJ
-3.2336538	ADV VERB SCONJ
-3.5376468	ADP VERB SCONJ
-2.4861684	PRON VERB SCONJ
-3.0659263	X VERB SCONJ
-1.9813466	<s> PUNCT SCONJ
-2.734942	PROPN PUNCT SCONJ
-2.4837072	NOUN PUNCT SCONJ
-2.4563832	PART PUNCT SCONJ
-2.2435656	VERB PUNCT SCONJ
-2.0331986	PUNCT PUNCT SCONJ
-2.2339983	DET PUNCT SCONJ
-2.7038338	NUM PUNCT SCONJ
-2.0009873	ADV PUNCT SCONJ
-2.6460989	ADP PUNCT SCONJ
-2.2671547	PRON PUNCT SCONJ
-2.1224658	INTJ PUNCT SCONJ
-4.0678515	VERB DET SCONJ
-3.4089959	PROPN NUM SCONJ
-3.8628802	NUM NUM SCONJ
-2.141438	<s> ADV SCONJ
-4.1630144	NOUN ADV SCONJ
-4.0272818	VERB ADV SCONJ
-2.4763248	PUNCT ADV SCONJ
-4.2099447	ADV ADV SCONJ
-3.658981	PRON ADV SCONJ
-3.520147	VERB CCONJ SCONJ
-3.412394	PUNCT CCONJ SCONJ
-2.8168218	<s> ADP SCONJ
-4.1147676	NOUN ADP SCONJ
-3.825685	VERB ADP SCONJ
-3.0560102	PUNCT ADP SCONJ
-2.3783553	<s> PRON SCONJ
-3.0012975	NOUN PRON SCONJ
-2.992373	PART PRON SCONJ
-3.1146908	VERB PRON SCONJ
-2.6476152	PUNCT PRON SCONJ
-2.0341742	DET PRON SCONJ
-2.236485	ADV PRON SCONJ
-2.9169292	<s> SCONJ SCONJ
-2.4723604	VERB SCONJ SCONJ
-2.4911427	<s> PROPN X
-2.4779754	PROPN PROPN X
-2.5057673	NOUN PROPN X
-2.7535036	PART PROPN X
-2.7380254	VERB PROPN X
-2.472266	PUNCT PROPN X
-2.5802176	NUM PROPN X
-2.5639043	ADV PROPN X
-2.8771036	CCONJ PROPN X
-2.411528	ADP PROPN X
-2.1856456	SCONJ PROPN X
-1.2525569	INTJ PROPN X
-2.508061	<s> NOUN X
-2.410998	PROPN NOUN X
-2.482859	NOUN NOUN X
-2.4459102	PART NOUN X
-2.7409542	ADJ NOUN X
-2.642819	VERB NOUN X
-2.494533	PUNCT NOUN X
-2.3146875	DET NOUN X
-2.2131178	NUM NOUN X
-2.5370388	ADV NOUN X
-2.745126	CCONJ NOUN X
-2.4600966	ADP NOUN X
-2.4826717	PRON NOUN X
-2.145633	SCONJ NOUN X
-2.8556554	X NOUN X
-2.8983033	PROPN PART X
-2.4713671	NOUN PART X
-3.15515	PART PART X
-2.5339823	VERB PART X
-2.5622165	PUNCT PART X
-2.3834789	DET PART X
-2.4761674	NUM PART X
-1.8162466	ADV PART X
-1.7458214	ADP PART X
-3.4626708	PRON PART X
-3.294395	<s> ADJ X
-3.2838337	NOUN ADJ X
-3.5658348	PART ADJ X
-3.9714637	VERB ADJ X
-2.2281685	<s> VERB X
-2.4839423	PROPN VERB X
-2.4241621	NOUN VERB X
-2.7107148	PART VERB X
-2.405059	ADJ VERB X
-2.5636482	VERB VERB X
-2.4748545	PUNCT VERB X
-2.5790453	DET VERB X
-2.477065	NUM VERB X
-2.31179	ADV VERB X
-2.693834	CCONJ VERB X
-2.4063783	ADP VERB X
-2.177762	PRON VERB X
-2.4521937	SCONJ VERB X
-2.7920933	X VERB X
-2.680243	<s> PUNCT X
-2.3023193	PROPN PUNCT X
-2.7342253	NOUN PUNCT X
-2.775856	PART PUNCT X
-2.742147	VERB PUNCT X
-2.7451324	PUNCT PUNCT X
-2.229249	DET PUNCT X
-2.7773135	NUM PUNCT X
-3.011096	ADV PUNCT X
-2.5566132	ADP PUNCT X
-2.8017251	PRON PUNCT X
-2.1237798	X PUNCT X
-3.015402	<s> DET X
-2.6769137	PART DET X
-2.0286515	ADJ DET X
-2.7221487	VERB DET X
-2.6814187	PUNCT DET X
-2.3169355	DET DET X
-2.772574	ADV DET X
-2.7646267	CCONJ DET X
-2.5539167	ADP DET X
-2.2758508	PRON DET X
-2.1587305	X DET X
-3.1919248	<s> NUM X
-3.0698202	PROPN NUM X
-2.6381562	NOUN NUM X
-3.1118379	VERB NUM X
-3.2541676	PUNCT NUM X
-2.951777	DET NUM X
-2.548818	NUM NUM X
-3.3977327	ADV NUM X
-2.7349274	CCONJ NUM X
-1.9963894	<s> ADV X
-1.7661482	PROPN ADV X
-1.7743727	NOUN ADV X
-1.8434368	PART ADV X
-2.009264	VERB ADV X
-1.8890305	PUNCT ADV X
-1.7644814	DET ADV X
-1.810875	NUM ADV X
-1.8367125	ADV ADV X
-2.2470376	CCONJ ADV X
-2.1167326	ADP ADV X
-1.9385238	PRON ADV X
-1.8457751	SCONJ ADV X
-2.1051404	<s> CCONJ X
-3.24516	PROPN CCONJ X
-2.9687076	NOUN CCONJ X
-2.024491	VERB CCONJ X
-2.1014154	PUNCT CCONJ X
-2.366671	NUM CCONJ X
-2.6011524	<s> ADP X
-2.6075246	PROPN ADP X
-2.8098958	NOUN ADP X
-2.6716325	PART ADP X
-2.8167672	VERB ADP X
-2.6902783	PUNCT ADP X
-2.8607013	ADV ADP X
-2.3601866	CCONJ ADP X
-2.8179448	PRON ADP X
-2.0119612	SCONJ ADP X
-2.1340964	<s> PRON X
-2.2311385	NOUN PRON X
-2.2792585	PART PRON X
-2.2443688	VERB PRON X
-1.9917371	PUNCT PRON X
-1.9195038	DET PRON X
-1.9328897	NUM PRON X
-2.097888	ADV PRON X
-2.3073442	CCONJ PRON X
-2.2740352	ADP PRON X
-2.0460145	SCONJ PRON X
-2.5283904	X PRON X
-2.147528	<s> SCONJ X
-1.6719986	PROPN SCONJ X
-2.2279706	NOUN SCONJ X
-1.7321755	VERB SCONJ X
-2.3949769	PUNCT SCONJ X
-2.1872504	ADV SCONJ X
-2.046207	PRON SCONJ X
-2.2241032	PROPN X X
-2.3298254	NOUN X X
-2.4868004	PART X X
-2.2325115	VERB X X
-2.0311782	PUNCT X X
-1.1128	ADP X X
-3.9754658	<s> PROPN INTJ
-3.8551872	PROPN PROPN INTJ
-3.876281	NOUN PROPN INTJ
-4.026076	VERB PROPN INTJ
-4.282992	PUNCT PROPN INTJ
-5.1278343	NOUN NOUN INTJ
-4.5626426	ADJ NOUN INTJ
-4.929545	VERB NOUN INTJ
-3.6305392	PROPN PART INTJ
-4.674227	NOUN PART INTJ
-4.527675	VERB PART INTJ
-3.4105122	PUNCT PART INTJ
-2.7570586	PRON PART INTJ
-3.9746277	PART ADJ INTJ
-3.5594234	ADP ADJ INTJ
-4.3280373	<s> VERB INTJ
-4.7389297	ADV VERB INTJ
-2.9048622	<s> PUNCT INTJ
-3.2962344	PROPN PUNCT INTJ
-3.9898212	NOUN PUNCT INTJ
-3.353363	PART PUNCT INTJ
-3.2619855	VERB PUNCT INTJ
-2.9004092	PUNCT PUNCT INTJ
-3.359718	NUM PUNCT INTJ
-3.2390099	ADV PUNCT INTJ
-2.121838	CCONJ PUNCT INTJ
-2.5470145	ADP PUNCT INTJ
-3.16626	PRON PUNCT INTJ
-2.1085722	X PUNCT INTJ
-1.9138678	INTJ PUNCT INTJ
-3.7203104	<s> DET INTJ
-3.1105452	NOUN DET INTJ
-3.6990876	VERB DET INTJ
-3.3863273	PUNCT DET INTJ
-2.6961594	DET DET INTJ
-4.5800276	NOUN ADV INTJ
-3.6059937	PART ADV INTJ
-4.2011385	PUNCT ADV INTJ
-4.3055973	ADV ADV INTJ
-3.2753608	NOUN PRON INTJ
-2.901683	X PRON INTJ
-2.8213441	PUNCT X INTJ
-1.9165857	<s> INTJ INTJ
-1.4720467	PART INTJ INTJ
-2.037131	PUNCT INTJ INTJ
-4.3036942	NOUN PROPN SPACE
-5.264219	NOUN NOUN SPACE
-4.6482472	ADP NOUN SPACE
-3.7157488	NUM PART SPACE
-4.2864227	PROPN VERB SPACE
-4.6856995	NOUN VERB SPACE
-4.739305	VERB VERB SPACE
-4.977745	ADV VERB SPACE

\end\
