\data\
ngram 1=19
ngram 2=248
ngram 3=2628

\1-grams:
-2.243184	<unk>	0
0	<s>	-3.6021328
-1.2833012	</s>	0
-1.1661369	PROPN	-0.8394258
-1.1661369	NOUN	-0.8399381
-1.2207799	PART	-0.7449653
-1.2207799	ADJ	-0.7619919
-1.2207799	DET	-0.78761554
-1.1661369	VERB	-0.8325141
-1.1925995	CCONJ	-0.65580064
-1.2207799	NUM	-0.81388396
-1.1925995	PUNCT	-0.8625709
-1.1925995	ADV	-0.8029852
-1.1925995	PRON	-0.81584996
-1.1925995	ADP	-0.7862016
-1.2833012	SCONJ	-0.5982084
-1.2207799	X	-0.74063784
-1.3182969	INTJ	-0.35739905
-1.8015351	SPACE	-0.20919852

\2-grams:
-1.2470713	PROPN </s>	0
-1.2339767	NOUN </s>	0
-1.3603524	PART </s>	0
-1.8596922	DET </s>	0
-1.2592956	VERB </s>	0
-1.7744234	CCONJ </s>	0
-1.181422	NUM </s>	0
-1.1742711	PUNCT </s>	0
-1.4857963	ADV </s>	0
-1.4158875	PRON </s>	0
-1.713247	ADP </s>	0
-1.6378527	X </s>	0
-1.3358506	INTJ </s>	0
-0.78520304	<s> PROPN	-2.9938362
-1.1406099	PROPN PROPN	-2.7684567
-1.1601833	NOUN PROPN	-2.7788694
-1.0925697	PART PROPN	-2.4611325
-1.0243002	ADJ PROPN	-1.7278376
-1.068695	DET PROPN	-1.7547196
-1.1802201	VERB PROPN	-2.9433804
-1.074451	CCONJ PROPN	-2.2683268
-1.1331671	NUM PROPN	-2.0391603
-1.1601454	PUNCT PROPN	-2.9467213
-1.1896019	ADV PROPN	-2.064995
-1.1468972	PRON PROPN	-1.1735606
-1.0873815	ADP PROPN	-2.817211
-1.230624	SCONJ PROPN	-1.4037445
-1.026964	X PROPN	-1.5163118
-0.97971237	INTJ PROPN	-0.30801067
-0.7351609	SPACE PROPN	-0.29318443
-0.7210645	<s> NOUN	-3.0814812
-1.1146035	PROPN NOUN	-3.2433016
-1.1601833	NOUN NOUN	-3.6887853
-1.0628945	PART NOUN	-3.487913
-1.0243002	ADJ NOUN	-3.121575
-1.068695	DET NOUN	-2.89247
-1.126932	VERB NOUN	-3.4991717
-0.96930766	CCONJ NOUN	-2.805336
-1.1031678	NUM NOUN	-3.0658753
-1.1601454	PUNCT NOUN	-3.1062226
-1.1005597	ADV NOUN	-2.460578
-1.1170299	PRON NOUN	-2.153483
-1.0594367	ADP NOUN	-3.0986001
-0.99797875	SCONJ NOUN	-1.7612575
-0.9966134	X NOUN	-1.9687179
-0.74525326	INTJ NOUN	-0.4195903
-0.7351609	SPACE NOUN	-0.29318443
-3.0361946	<s> PART	-1.1494532
-1.1476742	PROPN PART	-2.7059906
-1.1675674	NOUN PART	-3.4095762
-1.1679759	PART PART	-2.3067722
-1.0307552	ADJ PART	-2.4255393
-1.1060133	DET PART	-1.4205937
-1.1601434	VERB PART	-3.2505922
-1.4399661	CCONJ PART	-0.5639169
-1.1100397	NUM PART	-2.2442021
-1.2254372	PUNCT PART	-2.1680229
-1.1357312	ADV PART	-1.616287
-1.0957057	PRON PART	-2.5479064
-1.2312429	ADP PART	-0.8030985
-1.2865224	X PART	-0.820929
-1.1178126	INTJ PART	-0.4747647
-1.853942	<s> ADJ	-2.0746753
-1.1758063	PROPN ADJ	-2.1054964
-1.1955146	NOUN ADJ	-2.3069086
-1.1004382	PART ADJ	-2.5494704
-1.0307552	ADJ ADJ	-1.8608891
-1.0754372	DET ADJ	-2.068737
-1.1880906	VERB ADJ	-2.7268946
-1.0094432	CCONJ ADJ	-1.9976544
-1.1100397	NUM ADJ	-2.3169103
-1.1953169	PUNCT ADJ	-2.2486715
-1.1357312	ADV ADJ	-2.0841045
-1.1240942	PRON ADJ	-1.4129171
-1.1248204	ADP ADJ	-2.1802583
-1.0554397	SCONJ ADJ	-1.2063016
-1.0029742	X ADJ	-1.364997
-1.3926138	<s> DET	-2.5068603
-1.1758063	PROPN DET	-1.6273481
-1.1955146	NOUN DET	-1.86388
-1.1679759	PART DET	-2.0544884
-1.2124251	ADJ DET	-1.09018
-1.174496	DET DET	-1.4432032
-1.1880906	VERB DET	-2.6771083
-1.1262599	CCONJ DET	-1.7454636
-1.2474524	NUM DET	-1.0705023
-1.1953169	PUNCT DET	-2.1620684
-1.1658515	ADV DET	-1.9281663
-1.2224458	PRON DET	-1.2935858
-1.1248204	ADP DET	-2.302655
-1.1727444	SCONJ DET	-1.4049876
-1.0669581	X DET	-1.3425722
-0.97019154	<s> VERB	-2.8323536
-1.1146035	PROPN VERB	-2.8572412
-1.1601833	NOUN VERB	-3.53883
-1.0925697	PART VERB	-2.8333235
-1.054586	ADJ VERB	-1.3679084
-1.068695	DET VERB	-1.9278965
-1.1527593	VERB VERB	-3.3212886
-1.0365037	CCONJ VERB	-2.2857869
-1.1031678	NUM VERB	-2.2516453
-1.1601454	PUNCT VERB	-2.9004867
-1.1282604	ADV VERB	-3.538846
-1.0890851	PRON VERB	-2.92158
-1.0873815	ADP VERB	-2.4324782
-0.91613984	SCONJ VERB	-1.823756
-1.026964	X VERB	-2.1343474
-1.0980939	INTJ VERB	-0.42972237
-0.8518317	SPACE VERB	-0.3093313
-2.1749935	<s> CCONJ	-1.6769769
-1.1720234	PROPN CCONJ	-2.3769114
-1.1915616	NOUN CCONJ	-2.951393
-1.2881364	PART CCONJ	-0.98626196
-1.1263741	ADJ CCONJ	-1.0128992
-1.8017197	DET CCONJ	-0.29318443
-1.1841376	VERB CCONJ	-2.184662
-1.6612097	CCONJ CCONJ	-0.4195903
-1.2044877	NUM CCONJ	-1.4779867
-1.2214175	PUNCT CCONJ	-2.0394385
-1.2661128	ADV CCONJ	-1.1084282
-1.1830308	PRON CCONJ	-1.4434466
-1.5723987	ADP CCONJ	-0.5337272
-1.5869311	SCONJ CCONJ	-0.28793278
-1.7863959	X CCONJ	-0.3093313
-1.3427023	INTJ CCONJ	-0.3093313
-1.4890387	<s> NUM	-2.348665
-1.1476742	PROPN NUM	-1.9716601
-1.1955146	NOUN NUM	-2.3567424
-1.1679759	PART NUM	-2.4041443
-1.094612	ADJ NUM	-1.5569416
-1.0754372	DET NUM	-2.452852
-1.1601434	VERB NUM	-2.836623
-1.0837331	CCONJ NUM	-1.794845
-1.1100397	NUM NUM	-3.0236084
-1.2254372	PUNCT NUM	-2.325571
-1.1357312	ADV NUM	-2.288509
-1.1871287	PRON NUM	-1.4286072
-1.0944458	ADP NUM	-2.1763062
-1.2459136	SCONJ NUM	-1.0374968
-1.1028717	X NUM	-1.1949248
-1.4103247	<s> PUNCT	-2.3642
-1.1441277	PROPN PUNCT	-2.9775221
-1.1378193	NOUN PUNCT	-3.7166052
-1.0964861	PART PUNCT	-2.8776362
-1.1263741	ADJ PUNCT	-1.1186224
-1.072053	DET PUNCT	-1.223125
-1.1564356	VERB PUNCT	-3.3846025
-1.1676788	CCONJ PUNCT	-1.2827728
-1.1065902	NUM PUNCT	-2.4970107
-1.1915654	PUNCT PUNCT	-2.7341733
-1.1040483	ADV PUNCT	-2.1763375
-1.1205477	PRON PUNCT	-2.0917552
-1.0908992	ADP PUNCT	-1.7266816
-1.3245322	SCONJ PUNCT	-0.48889965
-1.0632615	X PUNCT	-1.0527251
-0.892751	INTJ PUNCT	-1.0563132
-0.72216856	<s> ADV	-3.0803795
-1.1720234	PROPN ADV	-2.4653354
-1.1378193	NOUN ADV	-3.2248094
-1.1286383	PART ADV	-2.3049943
-1.0908616	ADJ ADV	-0.8600051
-1.1349919	DET ADV	-1.553389
-1.1564356	VERB ADV	-2.781683
-1.0407319	CCONJ ADV	-1.6452682
-1.1065902	NUM ADV	-1.8837154
-1.1636341	PUNCT ADV	-2.8512173
-1.1040483	ADV ADV	-2.975399
-1.1506665	PRON ADV	-2.7356625
-1.121018	ADP ADV	-1.8727107
-0.95913625	SCONJ ADV	-1.445513
-1.1376343	X ADV	-1.2480458
-1.288532	INTJ ADV	-0.3093313
-0.95582366	<s> PRON	-2.8467255
-1.2684016	PROPN PRON	-1.4086691
-1.1915616	NOUN PRON	-1.7940657
-1.201106	PART PRON	-1.7835478
-1.4372793	ADJ PRON	-0.37527862
-1.2086234	DET PRON	-0.97202224
-1.1841376	VERB PRON	-2.7609339
-1.1676788	CCONJ PRON	-1.4532351
-1.2846588	NUM PRON	-1.1687179
-1.1636341	PUNCT PRON	-2.4608157
-1.1938883	ADV PRON	-2.2290444
-1.1506665	PRON PRON	-1.5300729
-1.0908992	ADP PRON	-2.4380732
-1.0023975	SCONJ PRON	-1.7431556
-1.1376343	X PRON	-1.4813174
-1.2756299	INTJ PRON	-0.3475356
-1.0856	<s> ADP	-2.735048
-1.1720234	PROPN ADP	-2.3558178
-1.1915616	NOUN ADP	-2.7757974
-1.201106	PART ADP	-1.8167884
-1.1650512	ADJ ADP	-0.7571701
-1.1023833	DET ADP	-1.4483935
-1.1841376	VERB ADP	-2.814347
-1.121117	CCONJ ADP	-1.5353655
-1.1368353	NUM ADP	-1.7855414
-1.1915654	PUNCT ADP	-2.5020957
-1.1319797	ADV ADP	-2.7321124
-1.1506665	PRON ADP	-2.2820032
-1.121018	ADP ADP	-1.6912365
-1.0023975	SCONJ ADP	-1.2087793
-1.22743	X ADP	-0.63677675
-1.2756299	INTJ ADP	-0.28793278
-1.7108729	<s> SCONJ	-2.1886652
-1.4647918	PROPN SCONJ	-0.92112875
-1.2667197	NOUN SCONJ	-1.4217907
-1.8329762	PART SCONJ	-0.47073796
-1.905378	DET SCONJ	-0.3093313
-1.3332705	VERB SCONJ	-1.1250358
-1.7179545	CCONJ SCONJ	-0.30933133
-1.8895748	NUM SCONJ	-0.30933133
-1.3023119	PUNCT SCONJ	-1.8286989
-1.4857963	ADV SCONJ	-1.2751052
-1.4774967	PRON SCONJ	-1.1531094
-1.6057585	ADP SCONJ	-0.4213633
-1.6413971	SCONJ SCONJ	-0.32929263
-2.5598679	<s> X	-1.4094902
-1.2731296	PROPN X	-1.273339
-1.1955146	NOUN X	-1.9547937
-1.2942964	PART X	-1.361374
-1.6363957	ADJ X	-0.29636616
-1.174496	DET X	-0.8485836
-1.2179606	VERB X	-1.8383199
-1.3565181	CCONJ X	-0.7902728
-1.3368772	NUM X	-1.1304681
-1.2578031	PUNCT X	-1.4692794
-1.1982174	ADV X	-2.0655777
-1.2608913	PRON X	-1.3673735
-1.1927974	ADP X	-1.0645361
-1.2459136	SCONJ X	-0.6882053
-1.4191546	X X	-0.7306125
-3.1055949	<s> INTJ	-0.91078645
-1.6921457	PROPN INTJ	-0.3843762
-1.952548	NOUN INTJ	-0.30933133
-1.6982405	PART INTJ	-0.79469365
-1.846421	ADJ INTJ	-0.27761638
-1.7161328	DET INTJ	-0.45454597
-1.9451239	VERB INTJ	-0.2837768
-1.7980676	CCONJ INTJ	-0.3093313
-1.3465384	PUNCT INTJ	-1.1285489
-1.9054741	ADV INTJ	-0.30933133
-1.8721647	X INTJ	-0.3093313
-1.3528429	INTJ INTJ	-0.37501
-2.2704608	PROPN SPACE	-0.3093313
-2.1876767	NOUN SPACE	-0.30933133
-2.1686375	PART SPACE	-0.3093313
-1.9620384	VERB SPACE	-0.27761638

\3-grams:
-2.1990905	<s> PROPN </s>
-1.8631985	PROPN PROPN </s>
-2.0381055	NOUN PROPN </s>
-2.1503997	PART PROPN </s>
-2.2419856	ADJ PROPN </s>
-2.297362	DET PROPN </s>
-2.164161	VERB PROPN </s>
-2.5083854	CCONJ PROPN </s>
-2.6752963	NUM PROPN </s>
-1.7562354	PUNCT PROPN </s>
-2.637673	ADV PROPN </s>
-1.9564205	PRON PROPN </s>
-2.6358814	ADP PROPN </s>
-2.4259832	<s> NOUN </s>
-1.9476558	PROPN NOUN </s>
-1.7861465	NOUN NOUN </s>
-1.9119052	PART NOUN </s>
-1.8954605	ADJ NOUN </s>
-2.710645	DET NOUN </s>
-1.9146317	VERB NOUN </s>
-1.9317331	CCONJ NOUN </s>
-2.2442517	NUM NOUN </s>
-1.8117368	PUNCT NOUN </s>
-2.7922232	ADV NOUN </s>
-2.3965704	PRON NOUN </s>
-2.6905937	ADP NOUN </s>
-2.386476	X NOUN </s>
-2.9043102	PROPN PART </s>
-2.958917	NOUN PART </s>
-3.4157028	PART PART </s>
-2.794929	VERB PART </s>
-3.0979311	NUM PART </s>
-3.2952805	PUNCT PART </s>
-2.740421	ADV PART </s>
-3.6909788	PRON PART </s>
-2.078255	PROPN DET </s>
-3.203481	NOUN DET </s>
-2.8606381	<s> VERB </s>
-1.9350528	PROPN VERB </s>
-1.9564949	NOUN VERB </s>
-2.183623	PART VERB </s>
-1.7471175	ADJ VERB </s>
-2.035611	VERB VERB </s>
-2.9646754	CCONJ VERB </s>
-2.4808748	NUM VERB </s>
-1.6214474	PUNCT VERB </s>
-2.5016065	ADV VERB </s>
-2.8422396	PRON VERB </s>
-3.255339	ADP VERB </s>
-1.9513953	X VERB </s>
-3.0058813	<s> CCONJ </s>
-1.8217095	<s> NUM </s>
-2.023739	PROPN NUM </s>
-2.306101	NOUN NUM </s>
-3.1780798	PART NUM </s>
-2.4968705	ADJ NUM </s>
-3.374296	DET NUM </s>
-2.594886	VERB NUM </s>
-2.2564893	CCONJ NUM </s>
-2.5095274	NUM NUM </s>
-2.0617766	PUNCT NUM </s>
-2.481888	ADV NUM </s>
-3.1710496	ADP NUM </s>
-2.0446327	X NUM </s>
-0.9775052	<s> PUNCT </s>
-0.6920111	PROPN PUNCT </s>
-0.25763685	NOUN PUNCT </s>
-0.20577416	PART PUNCT </s>
-1.8512776	ADJ PUNCT </s>
-0.81910014	DET PUNCT </s>
-0.21917412	VERB PUNCT </s>
-1.4562819	CCONJ PUNCT </s>
-0.33946654	NUM PUNCT </s>
-0.39086622	PUNCT PUNCT </s>
-0.3093419	ADV PUNCT </s>
-0.1634001	PRON PUNCT </s>
-1.6322324	ADP PUNCT </s>
-1.3374426	SCONJ PUNCT </s>
-0.51408553	X PUNCT </s>
-0.14138454	INTJ PUNCT </s>
-3.3434336	<s> ADV </s>
-3.3492815	PROPN ADV </s>
-3.6465702	NOUN ADV </s>
-2.9169683	VERB ADV </s>
-4.073572	PUNCT ADV </s>
-3.7131042	ADV ADV </s>
-0.8434679	INTJ ADV </s>
-3.73342	<s> PRON </s>
-2.677356	NOUN PRON </s>
-2.3926604	PART PRON </s>
-2.6506224	VERB PRON </s>
-2.460308	CCONJ PRON </s>
-3.0015674	PUNCT PRON </s>
-3.399	ADV PRON </s>
-3.602624	ADP PRON </s>
-4.0597854	<s> ADP </s>
-3.6692905	PROPN ADP </s>
-3.5623322	NOUN ADP </s>
-3.823851	PUNCT ADP </s>
-2.1613626	PROPN X </s>
-3.093778	VERB X </s>
-1.7634953	PUNCT X </s>
-1.7152264	X X </s>
-1.3469585	<s> INTJ </s>
-2.0223908	PUNCT INTJ </s>
-0.9578495	<s> PROPN PROPN
-0.9691334	PROPN PROPN PROPN
-0.78777754	NOUN PROPN PROPN
-1.0174357	PART PROPN PROPN
-1.3253918	ADJ PROPN PROPN
-1.0680724	DET PROPN PROPN
-1.1924828	VERB PROPN PROPN
-1.1453433	CCONJ PROPN PROPN
-1.3318878	NUM PROPN PROPN
-0.83132076	PUNCT PROPN PROPN
-1.1063647	ADV PROPN PROPN
-1.1256826	PRON PROPN PROPN
-1.039994	ADP PROPN PROPN
-1.4025276	SCONJ PROPN PROPN
-1.2636269	X PROPN PROPN
-0.91553915	INTJ PROPN PROPN
-1.2750906	<s> NOUN PROPN
-1.0780773	PROPN NOUN PROPN
-1.4901401	NOUN NOUN PROPN
-1.8544	PART NOUN PROPN
-1.5323036	ADJ NOUN PROPN
-2.192733	DET NOUN PROPN
-1.8479013	VERB NOUN PROPN
-1.6960646	CCONJ NOUN PROPN
-1.9637811	NUM NOUN PROPN
-1.395845	PUNCT NOUN PROPN
-1.6314105	ADV NOUN PROPN
-1.8629299	PRON NOUN PROPN
-1.5806538	ADP NOUN PROPN
-1.6127065	SCONJ NOUN PROPN
-1.755163	X NOUN PROPN
-0.78894925	SPACE NOUN PROPN
-1.9864278	<s> PART PROPN
-0.958686	PROPN PART PROPN
-1.5127691	NOUN PART PROPN
-1.2320404	PART PART PROPN
-1.3553119	ADJ PART PROPN
-1.165771	DET PART PROPN
-1.2460064	VERB PART PROPN
-1.380383	CCONJ PART PROPN
-0.9938685	NUM PART PROPN
-1.3751241	PUNCT PART PROPN
-1.6195486	ADV PART PROPN
-1.5080968	PRON PART PROPN
-1.1849523	ADP PART PROPN
-1.0011165	INTJ PART PROPN
-1.3456023	<s> ADJ PROPN
-1.5088912	PROPN ADJ PROPN
-1.529277	NOUN ADJ PROPN
-1.8518854	PART ADJ PROPN
-2.0045424	ADJ ADJ PROPN
-1.7570262	DET ADJ PROPN
-1.693555	VERB ADJ PROPN
-1.6289426	CCONJ ADJ PROPN
-1.9681106	NUM ADJ PROPN
-1.2896276	PUNCT ADJ PROPN
-1.9574293	ADV ADJ PROPN
-1.861819	PRON ADJ PROPN
-1.3789327	ADP ADJ PROPN
-1.7449533	SCONJ ADJ PROPN
-1.5120343	X ADJ PROPN
-1.4425638	<s> DET PROPN
-1.0639387	PROPN DET PROPN
-1.403028	NOUN DET PROPN
-1.6913294	PART DET PROPN
-1.9233223	ADJ DET PROPN
-1.3758624	DET DET PROPN
-1.6274123	VERB DET PROPN
-1.3057001	CCONJ DET PROPN
-1.368266	NUM DET PROPN
-1.2634957	PUNCT DET PROPN
-1.5073346	ADV DET PROPN
-1.5893692	PRON DET PROPN
-1.2961628	ADP DET PROPN
-1.5680811	SCONJ DET PROPN
-1.1782972	X DET PROPN
-0.9773404	<s> VERB PROPN
-1.0433748	PROPN VERB PROPN
-1.2401284	NOUN VERB PROPN
-1.4025724	PART VERB PROPN
-1.4277956	ADJ VERB PROPN
-1.0764304	DET VERB PROPN
-1.1621747	VERB VERB PROPN
-1.2120044	CCONJ VERB PROPN
-0.9790757	NUM VERB PROPN
-1.0581192	PUNCT VERB PROPN
-1.3190315	ADV VERB PROPN
-1.2523547	PRON VERB PROPN
-0.97164893	ADP VERB PROPN
-1.3337678	SCONJ VERB PROPN
-1.6467534	X VERB PROPN
-1.0128015	<s> CCONJ PROPN
-0.18192135	PROPN CCONJ PROPN
-1.177976	NOUN CCONJ PROPN
-1.2192402	PART CCONJ PROPN
-1.6350396	ADJ CCONJ PROPN
-1.6715889	VERB CCONJ PROPN
-1.6197178	NUM CCONJ PROPN
-0.89208335	PUNCT CCONJ PROPN
-1.4350721	ADV CCONJ PROPN
-0.8846226	PRON CCONJ PROPN
-0.75303054	ADP CCONJ PROPN
-1.3794837	<s> NUM PROPN
-1.4029163	PROPN NUM PROPN
-1.805377	NOUN NUM PROPN
-2.0533931	PART NUM PROPN
-1.833637	ADJ NUM PROPN
-1.8324602	DET NUM PROPN
-1.7925211	VERB NUM PROPN
-1.5926007	CCONJ NUM PROPN
-1.3657341	NUM NUM PROPN
-1.5870059	PUNCT NUM PROPN
-1.6913742	ADV NUM PROPN
-1.9400269	PRON NUM PROPN
-1.5581899	ADP NUM PROPN
-1.7292811	X NUM PROPN
-0.57001436	<s> PUNCT PROPN
-0.5371865	PROPN PUNCT PROPN
-1.3130465	NOUN PUNCT PROPN
-1.2427862	PART PUNCT PROPN
-1.1472327	ADJ PUNCT PROPN
-1.0084043	DET PUNCT PROPN
-1.4070499	VERB PUNCT PROPN
-0.6756346	CCONJ PUNCT PROPN
-1.3769178	NUM PUNCT PROPN
-0.86688757	PUNCT PUNCT PROPN
-1.0889635	ADV PUNCT PROPN
-1.6452942	PRON PUNCT PROPN
-0.55408275	ADP PUNCT PROPN
-0.6057063	SCONJ PUNCT PROPN
-0.81677026	X PUNCT PROPN
-1.9161351	INTJ PUNCT PROPN
-1.3382368	<s> ADV PROPN
-2.2682896	PROPN ADV PROPN
-2.4172103	NOUN ADV PROPN
-2.1977432	PART ADV PROPN
-1.9514288	DET ADV PROPN
-2.0293248	VERB ADV PROPN
-1.8069639	CCONJ ADV PROPN
-2.4023368	NUM ADV PROPN
-1.3921348	PUNCT ADV PROPN
-2.2024367	ADV ADV PROPN
-2.394672	PRON ADV PROPN
-1.7304014	ADP ADV PROPN
-2.1740587	SCONJ ADV PROPN
-2.399932	<s> PRON PROPN
-0.9863354	PROPN PRON PROPN
-1.5750594	NOUN PRON PROPN
-2.690811	PART PRON PROPN
-1.1396372	ADJ PRON PROPN
-2.3571	VERB PRON PROPN
-2.3349502	CCONJ PRON PROPN
-2.1099794	NUM PRON PROPN
-2.19386	PUNCT PRON PROPN
-3.2267196	ADV PRON PROPN
-2.4761896	PRON PRON PROPN
-2.2528799	ADP PRON PROPN
-2.7178895	SCONJ PRON PROPN
-2.214018	X PRON PROPN
-0.720712	<s> ADP PROPN
-0.4938626	PROPN ADP PROPN
-0.5891697	NOUN ADP PROPN
-0.62326455	PART ADP PROPN
-0.41319758	ADJ ADP PROPN
-0.5343691	DET ADP PROPN
-0.6727878	VERB ADP PROPN
-0.742137	CCONJ ADP PROPN
-0.45886672	NUM ADP PROPN
-0.7121559	PUNCT ADP PROPN
-0.7252688	ADV ADP PROPN
-0.7074388	PRON ADP PROPN
-0.542758	ADP ADP PROPN
-0.6600895	SCONJ ADP PROPN
-0.7381938	X ADP PROPN
-0.9657611	<s> SCONJ PROPN
-1.6522647	NOUN SCONJ PROPN
-0.96228087	VERB SCONJ PROPN
-0.94403195	NUM SCONJ PROPN
-1.0607619	PUNCT SCONJ PROPN
-1.4398781	ADV SCONJ PROPN
-1.0747526	<s> X PROPN
-1.1380498	PROPN X PROPN
-1.1101185	NOUN X PROPN
-1.1584096	PART X PROPN
-1.1032332	DET X PROPN
-1.1292075	VERB X PROPN
-1.5052538	CCONJ X PROPN
-0.87123567	NUM X PROPN
-1.0784339	PUNCT X PROPN
-1.1160464	ADV X PROPN
-1.2023697	PRON X PROPN
-1.2776169	ADP X PROPN
-1.1709504	SCONJ X PROPN
-0.6664284	X X PROPN
-1.3803167	<s> INTJ PROPN
-0.97091717	PROPN INTJ PROPN
-0.655173	NOUN INTJ PROPN
-1.3941305	PUNCT INTJ PROPN
-0.25114116	X INTJ PROPN
-0.5848851	NOUN SPACE PROPN
-0.2220449	PART SPACE PROPN
-0.47722605	VERB SPACE PROPN
-0.51955086	<s> PROPN NOUN
-0.6618906	PROPN PROPN NOUN
-0.62990737	NOUN PROPN NOUN
-0.3121423	PART PROPN NOUN
-0.25876483	ADJ PROPN NOUN
-0.3072075	DET PROPN NOUN
-0.41697806	VERB PROPN NOUN
-0.4820738	CCONJ PROPN NOUN
-0.1980591	NUM PROPN NOUN
-0.57351166	PUNCT PROPN NOUN
-0.50766873	ADV PROPN NOUN
-0.5397637	PRON PROPN NOUN
-0.48091778	ADP PROPN NOUN
-0.49780405	SCONJ PROPN NOUN
-0.4551681	X PROPN NOUN
-0.9077558	INTJ PROPN NOUN
-0.56026435	SPACE PROPN NOUN
-0.5312786	<s> NOUN NOUN
-0.5799904	PROPN NOUN NOUN
-0.68568134	NOUN NOUN NOUN
-0.6781903	PART NOUN NOUN
-0.68766123	ADJ NOUN NOUN
-0.845147	DET NOUN NOUN
-0.56740725	VERB NOUN NOUN
-0.43899673	CCONJ NOUN NOUN
-0.7656624	NUM NOUN NOUN
-0.5266677	PUNCT NOUN NOUN
-0.6172052	ADV NOUN NOUN
-0.8813993	PRON NOUN NOUN
-0.47782388	ADP NOUN NOUN
-0.61407584	SCONJ NOUN NOUN
-0.663123	X NOUN NOUN
-0.5947766	INTJ NOUN NOUN
-1.0276358	<s> PART NOUN
-0.22005951	PROPN PART NOUN
-0.3196893	NOUN PART NOUN
-0.22700433	PART PART NOUN
-0.089035004	ADJ PART NOUN
-0.10899495	DET PART NOUN
-0.32989693	VERB PART NOUN
-0.89006716	CCONJ PART NOUN
-0.27596256	NUM PART NOUN
-0.24913025	PUNCT PART NOUN
-0.67514724	ADV PART NOUN
-0.11019435	PRON PART NOUN
-0.96467847	ADP PART NOUN
-0.2219834	X PART NOUN
-0.32776782	INTJ PART NOUN
-0.12680516	<s> ADJ NOUN
-0.062311076	PROPN ADJ NOUN
-0.07275645	NOUN ADJ NOUN
-0.038456388	PART ADJ NOUN
-0.030651204	ADJ ADJ NOUN
-0.17568214	DET ADJ NOUN
-0.101914175	VERB ADJ NOUN
-0.0779524	CCONJ ADJ NOUN
-0.11708127	NUM ADJ NOUN
-0.104219966	PUNCT ADJ NOUN
-0.19624458	ADV ADJ NOUN
-0.38094825	PRON ADJ NOUN
-0.096536435	ADP ADJ NOUN
-0.112544276	SCONJ ADJ NOUN
-0.111474715	X ADJ NOUN
-0.22083613	<s> DET NOUN
-0.28666192	PROPN DET NOUN
-0.2503931	NOUN DET NOUN
-0.2795976	PART DET NOUN
-0.20622033	ADJ DET NOUN
-0.22074519	DET DET NOUN
-0.23396581	VERB DET NOUN
-0.23640344	CCONJ DET NOUN
-0.18551774	NUM DET NOUN
-0.23657434	PUNCT DET NOUN
-0.21926893	ADV DET NOUN
-0.30461416	PRON DET NOUN
-0.24440303	ADP DET NOUN
-0.15364152	SCONJ DET NOUN
-0.25466833	X DET NOUN
-0.60715336	<s> VERB NOUN
-0.71482086	PROPN VERB NOUN
-0.66646105	NOUN VERB NOUN
-0.71187514	PART VERB NOUN
-0.6229596	ADJ VERB NOUN
-0.5312067	DET VERB NOUN
-0.5744578	VERB VERB NOUN
-0.43953496	CCONJ VERB NOUN
-0.5931461	NUM VERB NOUN
-0.53918767	PUNCT VERB NOUN
-0.678394	ADV VERB NOUN
-0.76439196	PRON VERB NOUN
-0.39743483	ADP VERB NOUN
-0.5715183	SCONJ VERB NOUN
-0.91430986	X VERB NOUN
-1.1040146	INTJ VERB NOUN
-0.26273733	SPACE VERB NOUN
-0.67906046	<s> CCONJ NOUN
-0.72532195	PROPN CCONJ NOUN
-0.16650894	NOUN CCONJ NOUN
-0.39245313	PART CCONJ NOUN
-0.67251825	ADJ CCONJ NOUN
-0.73991364	DET CCONJ NOUN
-0.71453553	VERB CCONJ NOUN
-0.5706464	CCONJ CCONJ NOUN
-1.0327667	NUM CCONJ NOUN
-0.6626606	PUNCT CCONJ NOUN
-0.6043049	ADV CCONJ NOUN
-0.54597175	PRON CCONJ NOUN
-0.39193863	ADP CCONJ NOUN
-0.43159425	SCONJ CCONJ NOUN
-0.52798057	<s> NUM NOUN
-0.43234998	PROPN NUM NOUN
-0.5870591	NOUN NUM NOUN
-0.6421492	PART NUM NOUN
-0.5304523	ADJ NUM NOUN
-0.23983957	DET NUM NOUN
-0.54551864	VERB NUM NOUN
-0.63437295	CCONJ NUM NOUN
-0.36043718	NUM NUM NOUN
-0.55604285	PUNCT NUM NOUN
-0.43957108	ADV NUM NOUN
-0.54297036	PRON NUM NOUN
-0.55679786	ADP NUM NOUN
-0.3934951	SCONJ NUM NOUN
-0.7273346	X NUM NOUN
-0.72391295	<s> PUNCT NOUN
-0.7949017	PROPN PUNCT NOUN
-0.9589354	NOUN PUNCT NOUN
-1.0499663	PART PUNCT NOUN
-0.24515003	ADJ PUNCT NOUN
-0.37633985	DET PUNCT NOUN
-1.0731903	VERB PUNCT NOUN
-0.47981143	CCONJ PUNCT NOUN
-0.9479998	NUM PUNCT NOUN
-0.9188004	PUNCT PUNCT NOUN
-0.9466203	ADV PUNCT NOUN
-1.4059465	PRON PUNCT NOUN
-0.44197017	ADP PUNCT NOUN
-0.69833905	SCONJ PUNCT NOUN
-0.6175447	X PUNCT NOUN
-1.7645639	INTJ PUNCT NOUN
-0.97760415	<s> ADV NOUN
-1.7885723	PROPN ADV NOUN
-1.8012114	NOUN ADV NOUN
-1.4941921	PART ADV NOUN
-0.740552	ADJ ADV NOUN
-1.2430663	DET ADV NOUN
-1.3585792	VERB ADV NOUN
-1.3309251	CCONJ ADV NOUN
-1.4258176	NUM ADV NOUN
-1.0708631	PUNCT ADV NOUN
-1.6225299	ADV ADV NOUN
-1.934394	PRON ADV NOUN
-1.1185311	ADP ADV NOUN
-1.2580221	SCONJ ADV NOUN
-1.1668003	X ADV NOUN
-0.77915764	INTJ ADV NOUN
-1.4079366	<s> PRON NOUN
-0.8081531	PROPN PRON NOUN
-1.246793	NOUN PRON NOUN
-1.1866949	PART PRON NOUN
-0.95504814	ADJ PRON NOUN
-1.1857955	DET PRON NOUN
-1.0729082	VERB PRON NOUN
-0.8246392	CCONJ PRON NOUN
-1.3042316	NUM PRON NOUN
-1.3407582	PUNCT PRON NOUN
-1.3397175	ADV PRON NOUN
-1.3931319	PRON PRON NOUN
-0.9483669	ADP PRON NOUN
-1.3804457	SCONJ PRON NOUN
-1.2684451	X PRON NOUN
-0.44195867	<s> ADP NOUN
-0.4168377	PROPN ADP NOUN
-0.35101905	NOUN ADP NOUN
-0.3739333	PART ADP NOUN
-0.52541524	ADJ ADP NOUN
-0.35515603	DET ADP NOUN
-0.3707519	VERB ADP NOUN
-0.29283103	CCONJ ADP NOUN
-0.4186219	NUM ADP NOUN
-0.37926048	PUNCT ADP NOUN
-0.34253445	ADV ADP NOUN
-0.3670605	PRON ADP NOUN
-0.3776325	ADP ADP NOUN
-0.35255137	SCONJ ADP NOUN
-0.3554377	X ADP NOUN
-0.4439277	INTJ ADP NOUN
-0.6200204	<s> SCONJ NOUN
-1.3366214	PROPN SCONJ NOUN
-1.2472874	NOUN SCONJ NOUN
-1.0314109	PART SCONJ NOUN
-0.5708578	VERB SCONJ NOUN
-0.87226933	NUM SCONJ NOUN
-0.56885403	PUNCT SCONJ NOUN
-0.7443407	ADV SCONJ NOUN
-1.80333	PRON SCONJ NOUN
-0.69796085	ADP SCONJ NOUN
-0.41720375	<s> X NOUN
-0.8010696	PROPN X NOUN
-0.6332973	NOUN X NOUN
-0.6942548	PART X NOUN
-0.6200473	ADJ X NOUN
-0.8239575	DET X NOUN
-0.5184587	VERB X NOUN
-0.54816955	CCONJ X NOUN
-0.6329371	NUM X NOUN
-0.543884	PUNCT X NOUN
-0.54436594	ADV X NOUN
-0.56293046	PRON X NOUN
-0.7784204	ADP X NOUN
-0.3955703	SCONJ X NOUN
-0.31737435	X X NOUN
-1.3942581	<s> INTJ NOUN
-0.58836114	NOUN INTJ NOUN
-1.185524	PART INTJ NOUN
-0.24628326	ADJ INTJ NOUN
-0.78246814	DET INTJ NOUN
-0.5490495	VERB INTJ NOUN
-0.22354896	CCONJ INTJ NOUN
-1.711368	PUNCT INTJ NOUN
-0.2220449	PROPN SPACE NOUN
-0.5848851	NOUN SPACE NOUN
-0.47722605	VERB SPACE NOUN
-1.2052304	<s> PROPN PART
-1.1215285	PROPN PROPN PART
-1.1923857	NOUN PROPN PART
-1.2935976	PART PROPN PART
-1.2236575	ADJ PROPN PART
-0.95706785	DET PROPN PART
-0.8698184	VERB PROPN PART
-0.7478643	CCONJ PROPN PART
-1.1012034	NUM PROPN PART
-1.29048	PUNCT PROPN PART
-1.0209882	ADV PROPN PART
-1.1024967	PRON PROPN PART
-0.8526024	ADP PROPN PART
-1.0988656	SCONJ PROPN PART
-0.98679477	X PROPN PART
-1.0897223	INTJ PROPN PART
-1.1144117	<s> NOUN PART
-0.9082942	PROPN NOUN PART
-0.8966825	NOUN NOUN PART
-1.1641612	PART NOUN PART
-0.90857315	ADJ NOUN PART
-0.8559574	DET NOUN PART
-0.83614737	VERB NOUN PART
-0.8740167	CCONJ NOUN PART
-0.8821255	NUM NOUN PART
-1.1537144	PUNCT NOUN PART
-0.93055266	ADV NOUN PART
-0.67124397	PRON NOUN PART
-0.70627	ADP NOUN PART
-1.2326516	SCONJ NOUN PART
-1.1718727	X NOUN PART
-0.9805094	INTJ NOUN PART
-2.026664	<s> PART PART
-1.6316988	PROPN PART PART
-1.3707556	NOUN PART PART
-2.4485846	PART PART PART
-3.2969394	ADJ PART PART
-1.8531913	VERB PART PART
-1.0692122	CCONJ PART PART
-1.4275508	NUM PART PART
-1.6069176	PUNCT PART PART
-1.716458	ADV PART PART
-2.3122199	PRON PART PART
-1.45439	ADP PART PART
-0.81514096	<s> ADJ PART
-1.3331019	PROPN ADJ PART
-1.1824968	NOUN ADJ PART
-1.5035647	PART ADJ PART
-1.5815217	ADJ ADJ PART
-0.55080223	DET ADJ PART
-0.8897041	VERB ADJ PART
-1.0221387	CCONJ ADJ PART
-0.72303736	NUM ADJ PART
-1.1740291	PUNCT ADJ PART
-0.5140907	ADV ADJ PART
-0.32674235	PRON ADJ PART
-1.007629	ADP ADJ PART
-0.84338737	SCONJ ADJ PART
-0.860621	X ADJ PART
-2.1208415	<s> DET PART
-1.778515	PROPN DET PART
-1.9210473	NOUN DET PART
-1.9363998	PART DET PART
-1.8582171	DET DET PART
-2.000543	VERB DET PART
-1.6420478	CCONJ DET PART
-1.6348231	NUM DET PART
-2.358798	PUNCT DET PART
-1.8110927	ADV DET PART
-1.1539111	PRON DET PART
-2.08341	ADP DET PART
-2.107559	SCONJ DET PART
-1.8970118	X DET PART
-1.052872	<s> VERB PART
-0.8407124	PROPN VERB PART
-0.87617105	NOUN VERB PART
-0.64670056	PART VERB PART
-0.65946007	ADJ VERB PART
-0.57355726	DET VERB PART
-0.95351136	VERB VERB PART
-0.77818185	CCONJ VERB PART
-0.70761454	NUM VERB PART
-1.020011	PUNCT VERB PART
-0.9303107	ADV VERB PART
-0.8991768	PRON VERB PART
-0.8556298	ADP VERB PART
-1.2849095	SCONJ VERB PART
-0.6265587	X VERB PART
-1.1154394	INTJ VERB PART
-2.1774495	<s> CCONJ PART
-2.9666965	NOUN CCONJ PART
-2.0789616	PART CCONJ PART
-1.2496961	CCONJ CCONJ PART
-3.1979523	PUNCT CCONJ PART
-1.534472	<s> NUM PART
-1.747396	PROPN NUM PART
-1.4906722	NOUN NUM PART
-1.9249717	PART NUM PART
-1.9167585	ADJ NUM PART
-1.8033053	DET NUM PART
-1.5877808	VERB NUM PART
-1.379723	CCONJ NUM PART
-1.0101742	NUM NUM PART
-1.5448486	PUNCT NUM PART
-1.0907362	ADV NUM PART
-1.3012948	PRON NUM PART
-1.683063	ADP NUM PART
-1.2018682	SCONJ NUM PART
-1.7233388	X NUM PART
-2.2913182	<s> PUNCT PART
-1.5042007	PROPN PUNCT PART
-1.9019536	NOUN PUNCT PART
-2.6047769	PART PUNCT PART
-1.4654273	ADJ PUNCT PART
-2.1270726	DET PUNCT PART
-2.2484488	VERB PUNCT PART
-2.3375165	CCONJ PUNCT PART
-1.9358318	NUM PUNCT PART
-2.3782191	PUNCT PUNCT PART
-2.4604814	ADV PUNCT PART
-2.1978183	PRON PUNCT PART
-2.5409217	ADP PUNCT PART
-1.9476082	INTJ PUNCT PART
-2.301208	<s> ADV PART
-2.2080088	PROPN ADV PART
-2.3522518	NOUN ADV PART
-2.6166	PART ADV PART
-1.7204092	ADJ ADV PART
-2.5150282	DET ADV PART
-1.8684071	VERB ADV PART
-2.496991	CCONJ ADV PART
-1.7803714	NUM ADV PART
-2.4591472	PUNCT ADV PART
-2.2857885	ADV ADV PART
-2.3616269	PRON ADV PART
-1.8951696	ADP ADV PART
-2.407904	SCONJ ADV PART
-1.9868884	X ADV PART
-1.1662412	<s> PRON PART
-0.8433848	PROPN PRON PART
-1.0211803	NOUN PRON PART
-0.5386881	PART PRON PART
-1.1176848	ADJ PRON PART
-1.183073	DET PRON PART
-0.6234525	VERB PRON PART
-0.4381257	CCONJ PRON PART
-0.7536734	NUM PRON PART
-1.1032759	PUNCT PRON PART
-1.0244523	ADV PRON PART
-0.60753274	PRON PRON PART
-0.5780145	ADP PRON PART
-1.3089744	SCONJ PRON PART
-0.7405774	X PRON PART
-0.86033773	INTJ PRON PART
-3.0037644	<s> ADP PART
-2.9195962	PROPN ADP PART
-3.018605	NOUN ADP PART
-2.834111	PART ADP PART
-2.459456	DET ADP PART
-2.8147953	VERB ADP PART
-3.076711	PUNCT ADP PART
-2.7612276	ADV ADP PART
-2.9038327	PRON ADP PART
-2.59	ADP ADP PART
-1.5511783	X ADP PART
-2.4499915	<s> X PART
-2.2334337	PROPN X PART
-2.3218546	NOUN X PART
-0.8927167	ADJ X PART
-2.4837928	VERB X PART
-2.5468879	PUNCT X PART
-2.9841661	ADV X PART
-1.4271779	X X PART
-1.3126686	<s> INTJ PART
-0.24127164	DET INTJ PART
-1.5796355	PUNCT INTJ PART
-0.68356663	ADV INTJ PART
-1.7391566	<s> PROPN ADJ
-2.0617273	PROPN PROPN ADJ
-2.0452738	NOUN PROPN ADJ
-1.663785	PART PROPN ADJ
-1.7653036	ADJ PROPN ADJ
-1.5882953	DET PROPN ADJ
-1.6078074	VERB PROPN ADJ
-1.7709489	CCONJ PROPN ADJ
-1.4724838	NUM PROPN ADJ
-1.8521323	PUNCT PROPN ADJ
-1.7344067	ADV PROPN ADJ
-2.0743945	PRON PROPN ADJ
-1.6905783	ADP PROPN ADJ
-1.6852725	SCONJ PROPN ADJ
-1.7355424	X PROPN ADJ
-2.0675502	<s> NOUN ADJ
-1.962862	PROPN NOUN ADJ
-2.197184	NOUN NOUN ADJ
-2.4063847	PART NOUN ADJ
-2.3110557	ADJ NOUN ADJ
-2.2364533	DET NOUN ADJ
-2.0103245	VERB NOUN ADJ
-2.1595454	CCONJ NOUN ADJ
-2.3231173	NUM NOUN ADJ
-2.0561583	PUNCT NOUN ADJ
-1.9757671	ADV NOUN ADJ
-2.3195944	PRON NOUN ADJ
-2.142556	ADP NOUN ADJ
-2.675146	SCONJ NOUN ADJ
-2.1075804	X NOUN ADJ
-1.8497102	<s> PART ADJ
-1.188538	PROPN PART ADJ
-1.2924101	NOUN PART ADJ
-1.0650283	PART PART ADJ
-1.2087629	ADJ PART ADJ
-1.2715741	DET PART ADJ
-1.3101252	VERB PART ADJ
-1.2366438	CCONJ PART ADJ
-1.2974335	NUM PART ADJ
-1.3346229	PUNCT PART ADJ
-1.7826965	ADV PART ADJ
-1.5015959	PRON PART ADJ
-1.5885235	ADP PART ADJ
-1.4264534	X PART ADJ
-1.8833005	<s> ADJ ADJ
-1.5669729	PROPN ADJ ADJ
-1.9398203	NOUN ADJ ADJ
-1.8016	PART ADJ ADJ
-1.814702	ADJ ADJ ADJ
-1.8504213	DET ADJ ADJ
-1.7283316	VERB ADJ ADJ
-1.7700279	CCONJ ADJ ADJ
-1.9346586	NUM ADJ ADJ
-1.7163423	PUNCT ADJ ADJ
-1.9329348	ADV ADJ ADJ
-2.1496081	PRON ADJ ADJ
-1.6606134	ADP ADJ ADJ
-1.5522786	SCONJ ADJ ADJ
-1.627908	X ADJ ADJ
-1.4840031	<s> DET ADJ
-1.1283418	PROPN DET ADJ
-1.3939009	NOUN DET ADJ
-1.1251543	PART DET ADJ
-1.0340177	ADJ DET ADJ
-1.200538	DET DET ADJ
-1.1447792	VERB DET ADJ
-0.994342	CCONJ DET ADJ
-1.2092615	NUM DET ADJ
-1.344115	PUNCT DET ADJ
-1.2545527	ADV DET ADJ
-1.2007431	PRON DET ADJ
-1.2646301	ADP DET ADJ
-1.7699914	SCONJ DET ADJ
-1.3044965	X DET ADJ
-1.4863095	<s> VERB ADJ
-1.5541599	PROPN VERB ADJ
-1.5466621	NOUN VERB ADJ
-1.5856255	PART VERB ADJ
-1.9917628	ADJ VERB ADJ
-1.4645101	DET VERB ADJ
-1.4067273	VERB VERB ADJ
-1.3582723	CCONJ VERB ADJ
-1.4292685	NUM VERB ADJ
-1.4439169	PUNCT VERB ADJ
-1.5091083	ADV VERB ADJ
-1.7449902	PRON VERB ADJ
-1.4186205	ADP VERB ADJ
-1.3171648	SCONJ VERB ADJ
-1.9042783	X VERB ADJ
-1.4681699	<s> CCONJ ADJ
-1.6629027	PROPN CCONJ ADJ
-1.2009404	NOUN CCONJ ADJ
-1.4591892	PART CCONJ ADJ
-0.34704265	ADJ CCONJ ADJ
-0.5436818	DET CCONJ ADJ
-1.4731323	VERB CCONJ ADJ
-2.0046568	NUM CCONJ ADJ
-1.5710719	PUNCT CCONJ ADJ
-1.0842421	ADV CCONJ ADJ
-1.6008388	PRON CCONJ ADJ
-1.2446265	ADP CCONJ ADJ
-0.2537826	INTJ CCONJ ADJ
-1.7278545	<s> NUM ADJ
-1.3753065	PROPN NUM ADJ
-1.7235421	NOUN NUM ADJ
-1.4866816	PART NUM ADJ
-1.9167585	ADJ NUM ADJ
-1.6092273	DET NUM ADJ
-1.4751508	VERB NUM ADJ
-1.5605253	CCONJ NUM ADJ
-1.2331771	NUM NUM ADJ
-2.0309691	PUNCT NUM ADJ
-1.4526846	ADV NUM ADJ
-2.2283428	PRON NUM ADJ
-1.6459634	ADP NUM ADJ
-1.5601814	SCONJ NUM ADJ
-1.2238438	X NUM ADJ
-1.5530742	<s> PUNCT ADJ
-1.7599733	PROPN PUNCT ADJ
-2.0414593	NOUN PUNCT ADJ
-1.8239828	PART PUNCT ADJ
-0.8933586	ADJ PUNCT ADJ
-1.0098318	DET PUNCT ADJ
-1.9592241	VERB PUNCT ADJ
-1.1549188	CCONJ PUNCT ADJ
-1.9992927	NUM PUNCT ADJ
-1.9910861	PUNCT PUNCT ADJ
-1.8318576	ADV PUNCT ADJ
-2.2255323	PRON PUNCT ADJ
-1.278154	ADP PUNCT ADJ
-1.1826168	SCONJ PUNCT ADJ
-1.5567517	X PUNCT ADJ
-1.976343	<s> ADV ADJ
-1.9209682	PROPN ADV ADJ
-2.2961936	NOUN ADV ADJ
-1.3758405	PART ADV ADJ
-1.573965	ADJ ADV ADJ
-0.8181105	DET ADV ADJ
-1.440742	VERB ADV ADJ
-1.3972692	CCONJ ADV ADJ
-1.0339603	NUM ADV ADJ
-1.9641997	PUNCT ADV ADJ
-2.3375103	ADV ADV ADJ
-2.5796833	PRON ADV ADJ
-1.2978361	ADP ADV ADJ
-2.0209455	SCONJ ADV ADJ
-1.8104515	X ADV ADJ
-2.4798899	<s> PRON ADJ
-2.2343266	PROPN PRON ADJ
-2.2134316	NOUN PRON ADJ
-1.8600188	PART PRON ADJ
-1.130041	ADJ PRON ADJ
-1.7123001	DET PRON ADJ
-2.0050662	VERB PRON ADJ
-1.810332	CCONJ PRON ADJ
-2.095637	NUM PRON ADJ
-2.3742628	PUNCT PRON ADJ
-2.3894746	ADV PRON ADJ
-2.4616888	PRON PRON ADJ
-2.043564	ADP PRON ADJ
-2.7024183	SCONJ PRON ADJ
-1.9761277	X PRON ADJ
-1.4509597	<s> ADP ADJ
-1.6474402	PROPN ADP ADJ
-1.4649907	NOUN ADP ADJ
-1.3629807	PART ADP ADJ
-1.2867069	ADJ ADP ADJ
-1.2947022	DET ADP ADJ
-1.3700534	VERB ADP ADJ
-1.1921314	CCONJ ADP ADJ
-1.3392622	NUM ADP ADJ
-1.3915217	PUNCT ADP ADJ
-1.3807839	ADV ADP ADJ
-1.4682144	PRON ADP ADJ
-1.4988143	ADP ADP ADJ
-1.2731633	SCONJ ADP ADJ
-1.7160596	<s> SCONJ ADJ
-1.5364641	PROPN SCONJ ADJ
-2.314369	NOUN SCONJ ADJ
-1.2103161	PART SCONJ ADJ
-1.9252988	VERB SCONJ ADJ
-0.67162687	CCONJ SCONJ ADJ
-1.6305757	PUNCT SCONJ ADJ
-1.9165841	ADV SCONJ ADJ
-1.2556406	ADP SCONJ ADJ
-1.5659672	<s> X ADJ
-2.076768	PROPN X ADJ
-1.6700693	NOUN X ADJ
-1.9971212	PART X ADJ
-0.8179045	ADJ X ADJ
-1.6380304	DET X ADJ
-1.4618155	VERB X ADJ
-1.493392	CCONJ X ADJ
-1.8896711	NUM X ADJ
-1.4335684	PUNCT X ADJ
-1.7859113	ADV X ADJ
-1.6128776	PRON X ADJ
-1.7576644	ADP X ADJ
-1.3316036	SCONJ X ADJ
-1.4755776	X X ADJ
-2.2345784	<s> PROPN DET
-2.5476246	PROPN PROPN DET
-2.388181	NOUN PROPN DET
-2.5088649	PART PROPN DET
-2.6145425	ADJ PROPN DET
-2.131541	DET PROPN DET
-2.0665371	VERB PROPN DET
-2.079503	CCONJ PROPN DET
-3.0425608	NUM PROPN DET
-2.3437266	PUNCT PROPN DET
-2.0599825	ADV PROPN DET
-2.0743945	PRON PROPN DET
-2.1509266	ADP PROPN DET
-2.2874613	SCONJ PROPN DET
-2.0031345	X PROPN DET
-2.1449864	<s> NOUN DET
-2.5089004	PROPN NOUN DET
-2.7147055	NOUN NOUN DET
-2.8525946	PART NOUN DET
-2.830525	ADJ NOUN DET
-2.5915215	DET NOUN DET
-2.4896576	VERB NOUN DET
-2.4713411	CCONJ NOUN DET
-3.0027487	NUM NOUN DET
-2.4069545	PUNCT NOUN DET
-2.0671942	ADV NOUN DET
-2.22907	PRON NOUN DET
-2.2841556	ADP NOUN DET
-2.3953977	SCONJ NOUN DET
-2.4487617	X NOUN DET
-1.8753425	<s> PART DET
-1.8692846	PROPN PART DET
-2.0249982	NOUN PART DET
-1.4809642	PART PART DET
-2.135254	ADJ PART DET
-1.5709023	VERB PART DET
-2.5011456	NUM PART DET
-2.1573486	PUNCT PART DET
-2.3725736	ADV PART DET
-2.1699448	PRON PART DET
-1.748014	ADP PART DET
-1.2079285	INTJ PART DET
-2.3457346	<s> ADJ DET
-2.5090706	PROPN ADJ DET
-2.524319	NOUN ADJ DET
-2.6568592	PART ADJ DET
-2.449303	VERB ADJ DET
-2.1608331	CCONJ ADJ DET
-2.306221	PUNCT ADJ DET
-3.0772185	ADV ADJ DET
-2.2324622	PRON ADJ DET
-2.2988505	ADP ADJ DET
-1.7918983	<s> DET DET
-1.7039276	PROPN DET DET
-1.8162217	NOUN DET DET
-1.4381622	PART DET DET
-2.1900551	DET DET DET
-1.7590892	VERB DET DET
-1.6233898	CCONJ DET DET
-1.9458297	PUNCT DET DET
-1.9194312	ADV DET DET
-1.8661916	PRON DET DET
-1.8980553	ADP DET DET
-1.9151781	X DET DET
-1.3830428	<s> VERB DET
-1.6258197	PROPN VERB DET
-1.6751584	NOUN VERB DET
-1.5397309	PART VERB DET
-2.2724884	ADJ VERB DET
-1.8258575	DET VERB DET
-1.349789	VERB VERB DET
-1.4272116	CCONJ VERB DET
-1.8049015	NUM VERB DET
-1.6081865	PUNCT VERB DET
-1.4810805	ADV VERB DET
-1.407415	PRON VERB DET
-1.4375144	ADP VERB DET
-1.3789314	SCONJ VERB DET
-2.444316	X VERB DET
-1.0081617	<s> CCONJ DET
-1.3350232	PROPN CCONJ DET
-1.5289327	NOUN CCONJ DET
-0.91205287	PART CCONJ DET
-2.117589	VERB CCONJ DET
-1.1492927	CCONJ CCONJ DET
-2.1740248	NUM CCONJ DET
-1.4492784	PUNCT CCONJ DET
-1.0938264	ADV CCONJ DET
-0.867549	PRON CCONJ DET
-2.9173403	<s> NUM DET
-2.9184346	PROPN NUM DET
-2.7164228	NOUN NUM DET
-2.807346	PART NUM DET
-2.9381518	DET NUM DET
-2.887947	VERB NUM DET
-2.1375713	CCONJ NUM DET
-2.760128	NUM NUM DET
-2.7837484	PUNCT NUM DET
-2.8458827	ADV NUM DET
-2.518626	ADP NUM DET
-1.670319	<s> PUNCT DET
-2.0961597	PROPN PUNCT DET
-2.028948	NOUN PUNCT DET
-1.9636916	PART PUNCT DET
-1.7206929	ADJ PUNCT DET
-1.9764823	VERB PUNCT DET
-2.0750124	CCONJ PUNCT DET
-2.074341	NUM PUNCT DET
-1.7243799	PUNCT PUNCT DET
-1.6915224	ADV PUNCT DET
-2.3723433	PRON PUNCT DET
-1.9173883	ADP PUNCT DET
-1.3472568	SCONJ PUNCT DET
-1.7982005	X PUNCT DET
-2.0521667	INTJ PUNCT DET
-1.5456485	<s> ADV DET
-2.674405	PROPN ADV DET
-2.6624484	NOUN ADV DET
-2.1965127	PART ADV DET
-1.9475017	DET ADV DET
-2.3016038	VERB ADV DET
-2.3612938	CCONJ ADV DET
-2.4985085	NUM ADV DET
-1.6882848	PUNCT ADV DET
-2.3011193	ADV ADV DET
-2.5489607	PRON ADV DET
-2.0763838	ADP ADV DET
-2.1656957	SCONJ ADV DET
-2.1435404	X ADV DET
-2.3550196	<s> PRON DET
-2.4088242	PROPN PRON DET
-2.2311587	NOUN PRON DET
-2.0046756	PART PRON DET
-2.0952864	VERB PRON DET
-2.0846734	CCONJ PRON DET
-2.1554687	NUM PRON DET
-2.486847	PUNCT PRON DET
-2.2203534	ADV PRON DET
-1.9365159	ADP PRON DET
-2.3519878	SCONJ PRON DET
-2.2415931	X PRON DET
-1.1462859	<s> ADP DET
-1.2937492	PROPN ADP DET
-1.3910924	NOUN ADP DET
-1.2373635	PART ADP DET
-1.4670726	ADJ ADP DET
-1.3437694	DET ADP DET
-1.1979358	VERB ADP DET
-1.3086485	CCONJ ADP DET
-1.431114	NUM ADP DET
-1.3192834	PUNCT ADP DET
-1.2362139	ADV ADP DET
-1.1735421	PRON ADP DET
-1.3082426	ADP ADP DET
-1.1985041	SCONJ ADP DET
-1.2469074	<s> SCONJ DET
-2.2712383	NOUN SCONJ DET
-1.3699495	VERB SCONJ DET
-0.9286103	NUM SCONJ DET
-1.3420819	PUNCT SCONJ DET
-1.3434553	ADV SCONJ DET
-1.17697	ADP SCONJ DET
-1.1087897	<s> X DET
-1.2780151	PROPN X DET
-1.4197812	NOUN X DET
-1.643601	PART X DET
-1.541834	DET X DET
-1.1521637	VERB X DET
-1.6472934	CCONJ X DET
-1.9250097	NUM X DET
-1.6266876	PUNCT X DET
-1.3165072	ADV X DET
-1.0785726	PRON X DET
-1.4790064	ADP X DET
-1.1820025	SCONJ X DET
-0.8712723	<s> PROPN VERB
-0.7197512	PROPN PROPN VERB
-0.7908786	NOUN PROPN VERB
-1.0811399	PART PROPN VERB
-0.99522305	ADJ PROPN VERB
-1.0844911	DET PROPN VERB
-0.97773564	VERB PROPN VERB
-0.9255686	CCONJ PROPN VERB
-1.1481229	NUM PROPN VERB
-1.056103	PUNCT PROPN VERB
-0.82737774	ADV PROPN VERB
-0.70661557	PRON PROPN VERB
-0.6822491	ADP PROPN VERB
-0.64927167	SCONJ PROPN VERB
-0.50801253	X PROPN VERB
-0.9077558	INTJ PROPN VERB
-0.7786645	SPACE PROPN VERB
-0.6842677	<s> NOUN VERB
-0.73553073	PROPN NOUN VERB
-0.7716562	NOUN NOUN VERB
-0.8765308	PART NOUN VERB
-0.8680154	ADJ NOUN VERB
-0.65426296	DET NOUN VERB
-0.8590352	VERB NOUN VERB
-0.8985499	CCONJ NOUN VERB
-0.6636473	NUM NOUN VERB
-0.84874535	PUNCT NOUN VERB
-0.6887694	ADV NOUN VERB
-0.60170835	PRON NOUN VERB
-0.60832405	ADP NOUN VERB
-0.46004638	SCONJ NOUN VERB
-0.26370034	X NOUN VERB
-0.5947766	INTJ NOUN VERB
-0.14022519	<s> PART VERB
-1.1693778	PROPN PART VERB
-0.83969617	NOUN PART VERB
-1.2521341	PART PART VERB
-1.9661887	ADJ PART VERB
-1.5016185	DET PART VERB
-0.99838585	VERB PART VERB
-0.401783	CCONJ PART VERB
-1.2411433	NUM PART VERB
-0.7928594	PUNCT PART VERB
-0.376007	ADV PART VERB
-1.1764448	PRON PART VERB
-0.2531495	ADP PART VERB
-0.6038862	X PART VERB
-1.996743	<s> ADJ VERB
-1.93573	PROPN ADJ VERB
-1.6079125	NOUN ADJ VERB
-2.3968692	PART ADJ VERB
-2.2091205	ADJ ADJ VERB
-2.3351207	DET ADJ VERB
-1.9044769	VERB ADJ VERB
-2.0554557	CCONJ ADJ VERB
-2.0675197	NUM ADJ VERB
-1.8273755	PUNCT ADJ VERB
-2.077195	ADV ADJ VERB
-1.6802678	PRON ADJ VERB
-1.8056527	ADP ADJ VERB
-2.128159	X ADJ VERB
-1.4550781	<s> DET VERB
-1.3920379	PROPN DET VERB
-1.2666914	NOUN DET VERB
-1.4030745	PART DET VERB
-1.0821323	ADJ DET VERB
-0.89166135	DET DET VERB
-1.1565762	VERB DET VERB
-1.1781391	CCONJ DET VERB
-1.9168621	NUM DET VERB
-1.3977836	PUNCT DET VERB
-1.2295955	ADV DET VERB
-1.1517035	PRON DET VERB
-1.2934412	ADP DET VERB
-1.2438622	SCONJ DET VERB
-1.3665762	X DET VERB
-0.761265	<s> VERB VERB
-0.91451156	PROPN VERB VERB
-0.82917047	NOUN VERB VERB
-1.0329622	PART VERB VERB
-0.93509996	ADJ VERB VERB
-0.8889397	DET VERB VERB
-0.9168389	VERB VERB VERB
-1.0000243	CCONJ VERB VERB
-0.89055747	NUM VERB VERB
-0.8482613	PUNCT VERB VERB
-0.75904673	ADV VERB VERB
-0.65570587	PRON VERB VERB
-0.958571	ADP VERB VERB
-0.589728	SCONJ VERB VERB
-0.6767684	X VERB VERB
-1.1129487	INTJ VERB VERB
-0.6928309	<s> CCONJ VERB
-1.5715593	PROPN CCONJ VERB
-1.0665052	NOUN CCONJ VERB
-0.8203175	PART CCONJ VERB
-0.6440896	ADJ CCONJ VERB
-0.21157384	VERB CCONJ VERB
-0.58021176	CCONJ CCONJ VERB
-1.6608939	NUM CCONJ VERB
-0.6031959	PUNCT CCONJ VERB
-0.7832802	ADV CCONJ VERB
-1.1413952	PRON CCONJ VERB
-0.9090842	ADP CCONJ VERB
-1.4330231	<s> NUM VERB
-1.343481	PROPN NUM VERB
-1.4584457	NOUN NUM VERB
-1.6832294	PART NUM VERB
-1.4752096	ADJ NUM VERB
-1.3946396	DET NUM VERB
-1.5308195	VERB NUM VERB
-1.369772	CCONJ NUM VERB
-1.0218633	NUM NUM VERB
-1.4752978	PUNCT NUM VERB
-1.5000005	ADV NUM VERB
-1.5582823	PRON NUM VERB
-1.6370081	ADP NUM VERB
-1.5583938	SCONJ NUM VERB
-1.8574333	X NUM VERB
-1.1286839	<s> PUNCT VERB
-1.06492	PROPN PUNCT VERB
-1.140475	NOUN PUNCT VERB
-1.3052683	PART PUNCT VERB
-1.1800234	ADJ PUNCT VERB
-1.0270976	DET PUNCT VERB
-1.2018412	VERB PUNCT VERB
-0.8798823	CCONJ PUNCT VERB
-1.2153845	NUM PUNCT VERB
-1.2451261	PUNCT PUNCT VERB
-1.0724378	ADV PUNCT VERB
-1.2798855	PRON PUNCT VERB
-0.8503803	ADP PUNCT VERB
-0.8162414	SCONJ PUNCT VERB
-0.9104477	X PUNCT VERB
-1.5226349	INTJ PUNCT VERB
-0.4433327	<s> ADV VERB
-0.16887996	PROPN ADV VERB
-0.15975349	NOUN ADV VERB
-0.1662099	PART ADV VERB
-0.22032061	ADJ ADV VERB
-0.24725036	DET ADV VERB
-0.2008605	VERB ADV VERB
-0.18484801	CCONJ ADV VERB
-0.21140984	NUM ADV VERB
-0.34398735	PUNCT ADV VERB
-0.13238089	ADV ADV VERB
-0.15483996	PRON ADV VERB
-0.2160052	ADP ADV VERB
-0.18642643	SCONJ ADV VERB
-0.08301928	X ADV VERB
-0.3621533	<s> PRON VERB
-0.6113716	PROPN PRON VERB
-0.44288895	NOUN PRON VERB
-0.7077998	PART PRON VERB
-0.7473767	ADJ PRON VERB
-0.334114	DET PRON VERB
-0.54689574	VERB PRON VERB
-0.7057398	CCONJ PRON VERB
-0.5442279	NUM PRON VERB
-0.37554157	PUNCT PRON VERB
-0.4436671	ADV PRON VERB
-0.488684	PRON PRON VERB
-0.39945891	ADP PRON VERB
-0.29421276	SCONJ PRON VERB
-0.22376862	X PRON VERB
-0.41614476	INTJ PRON VERB
-0.9051684	<s> ADP VERB
-1.1735286	PROPN ADP VERB
-1.1010686	NOUN ADP VERB
-1.1134357	PART ADP VERB
-1.124475	ADJ ADP VERB
-1.1902752	DET ADP VERB
-1.0861983	VERB ADP VERB
-1.2883003	CCONJ ADP VERB
-1.2432183	NUM ADP VERB
-0.9950855	PUNCT ADP VERB
-1.105692	ADV ADP VERB
-1.1016124	PRON ADP VERB
-1.165981	ADP ADP VERB
-1.3121941	SCONJ ADP VERB
-1.3385484	X ADP VERB
-0.68909985	<s> SCONJ VERB
-0.28470522	PROPN SCONJ VERB
-0.21824872	NOUN SCONJ VERB
-0.3353903	PART SCONJ VERB
-0.596151	VERB SCONJ VERB
-0.63955086	CCONJ SCONJ VERB
-0.84039456	NUM SCONJ VERB
-0.69477034	PUNCT SCONJ VERB
-0.4852015	ADV SCONJ VERB
-0.25449342	PRON SCONJ VERB
-0.68118346	ADP SCONJ VERB
-0.8485083	SCONJ SCONJ VERB
-0.66410583	<s> X VERB
-0.3031142	PROPN X VERB
-0.31709418	NOUN X VERB
-0.26260212	PART X VERB
-0.82567644	ADJ X VERB
-0.23090668	DET X VERB
-0.47446603	VERB X VERB
-0.45627612	CCONJ X VERB
-0.26157108	NUM X VERB
-0.662502	PUNCT X VERB
-0.37188488	ADV X VERB
-0.3983805	PRON X VERB
-0.25010648	ADP X VERB
-0.5818563	SCONJ X VERB
-1.4135653	<s> INTJ VERB
-0.42620882	PROPN INTJ VERB
-0.8434476	VERB INTJ VERB
-0.67994094	ADV INTJ VERB
-0.6219289	NOUN SPACE VERB
-1.6630038	<s> PROPN CCONJ
-1.6184219	PROPN PROPN CCONJ
-1.6474749	NOUN PROPN CCONJ
-1.5690383	PART PROPN CCONJ
-2.0142143	ADJ PROPN CCONJ
-1.7657884	DET PROPN CCONJ
-1.4526951	VERB PROPN CCONJ
-1.8515275	CCONJ PROPN CCONJ
-1.6455497	NUM PROPN CCONJ
-1.3615	PUNCT PROPN CCONJ
-1.3691132	ADV PROPN CCONJ
-1.6139659	PRON PROPN CCONJ
-1.4649734	ADP PROPN CCONJ
-1.3761901	SCONJ PROPN CCONJ
-1.4520305	X PROPN CCONJ
-1.6387346	<s> NOUN CCONJ
-1.5397056	PROPN NOUN CCONJ
-1.4131128	NOUN NOUN CCONJ
-1.41317	PART NOUN CCONJ
-1.3926843	ADJ NOUN CCONJ
-1.618058	DET NOUN CCONJ
-1.3889599	VERB NOUN CCONJ
-2.1442401	CCONJ NOUN CCONJ
-1.5982571	NUM NOUN CCONJ
-1.1262776	PUNCT NOUN CCONJ
-1.4510779	ADV NOUN CCONJ
-1.6124328	PRON NOUN CCONJ
-1.4102889	ADP NOUN CCONJ
-1.5776476	SCONJ NOUN CCONJ
-1.5104584	X NOUN CCONJ
-3.5391881	PROPN PART CCONJ
-2.8202386	NOUN PART CCONJ
-3.373758	PART PART CCONJ
-3.4840608	ADJ PART CCONJ
-3.164442	VERB PART CCONJ
-3.2271307	NUM PART CCONJ
-3.2516155	PUNCT PART CCONJ
-2.6970541	ADV PART CCONJ
-3.239304	PRON PART CCONJ
-2.9245625	<s> ADJ CCONJ
-2.9553835	PROPN ADJ CCONJ
-3.1567955	NOUN ADJ CCONJ
-2.919621	PART ADJ CCONJ
-2.6049292	DET ADJ CCONJ
-2.5620415	VERB ADJ CCONJ
-2.9333856	CCONJ ADJ CCONJ
-2.7028713	NUM ADJ CCONJ
-2.5144675	PUNCT ADJ CCONJ
-2.7579136	ADV ADJ CCONJ
-2.195562	PRON ADJ CCONJ
-2.746755	ADP ADJ CCONJ
-3.6167164	VERB DET CCONJ
-3.0466137	CCONJ DET CCONJ
-2.362548	<s> VERB CCONJ
-2.157158	PROPN VERB CCONJ
-2.1016994	NOUN VERB CCONJ
-2.1478357	PART VERB CCONJ
-1.3691937	ADJ VERB CCONJ
-1.8052715	DET VERB CCONJ
-2.0020394	VERB VERB CCONJ
-2.2353044	CCONJ VERB CCONJ
-2.0356996	NUM VERB CCONJ
-1.8606744	PUNCT VERB CCONJ
-2.1385627	ADV VERB CCONJ
-2.2968187	PRON VERB CCONJ
-1.922275	ADP VERB CCONJ
-2.275545	SCONJ VERB CCONJ
-1.7617303	X VERB CCONJ
-2.5826604	<s> CCONJ CCONJ
-3.3286824	NOUN CCONJ CCONJ
-3.2996576	PUNCT CCONJ CCONJ
-2.3923106	<s> NUM CCONJ
-1.9702908	PROPN NUM CCONJ
-2.1926734	NOUN NUM CCONJ
-2.493318	PART NUM CCONJ
-2.9304118	DET NUM CCONJ
-2.0210001	VERB NUM CCONJ
-2.5776608	CCONJ NUM CCONJ
-2.1685278	NUM NUM CCONJ
-2.2405117	PUNCT NUM CCONJ
-2.1994197	ADV NUM CCONJ
-1.7829843	ADP NUM CCONJ
-2.181393	X NUM CCONJ
-2.5930417	<s> PUNCT CCONJ
-1.9554745	PROPN PUNCT CCONJ
-1.9934728	NOUN PUNCT CCONJ
-2.7374763	PART PUNCT CCONJ
-2.0238883	ADJ PUNCT CCONJ
-2.2442596	DET PUNCT CCONJ
-2.3544729	VERB PUNCT CCONJ
-1.4992131	CCONJ PUNCT CCONJ
-2.176112	NUM PUNCT CCONJ
-2.2211857	PUNCT PUNCT CCONJ
-2.7665987	ADV PUNCT CCONJ
-2.2277365	PRON PUNCT CCONJ
-2.7840545	ADP PUNCT CCONJ
-1.7852362	INTJ PUNCT CCONJ
-2.6530333	<s> ADV CCONJ
-3.041974	PROPN ADV CCONJ
-3.040029	NOUN ADV CCONJ
-3.2543614	PART ADV CCONJ
-1.7846884	ADJ ADV CCONJ
-2.5978858	DET ADV CCONJ
-3.011544	VERB ADV CCONJ
-2.945718	NUM ADV CCONJ
-2.5459795	PUNCT ADV CCONJ
-3.294927	ADV ADV CCONJ
-3.108082	PRON ADV CCONJ
-2.125015	<s> PRON CCONJ
-2.2629724	PROPN PRON CCONJ
-1.9223648	NOUN PRON CCONJ
-2.0423112	PART PRON CCONJ
-2.0524545	VERB PRON CCONJ
-2.462131	CCONJ PRON CCONJ
-2.1321287	NUM PRON CCONJ
-2.0402224	PUNCT PRON CCONJ
-2.09226	ADV PRON CCONJ
-1.7998142	PRON PRON CCONJ
-2.0151672	ADP PRON CCONJ
-2.1543257	SCONJ PRON CCONJ
-2.3756588	X PRON CCONJ
-3.36962	<s> ADP CCONJ
-2.973642	PROPN ADP CCONJ
-3.42634	NOUN ADP CCONJ
-3.6029894	PUNCT ADP CCONJ
-3.9592283	ADV ADP CCONJ
-2.4211946	NOUN SCONJ CCONJ
-2.319917	VERB SCONJ CCONJ
-2.5957792	PROPN X CCONJ
-2.0248544	PUNCT INTJ CCONJ
-1.8314123	<s> PROPN NUM
-1.8652217	PROPN PROPN NUM
-1.8114277	NOUN PROPN NUM
-1.9678537	PART PROPN NUM
-2.070549	ADJ PROPN NUM
-2.1269484	DET PROPN NUM
-1.7853186	VERB PROPN NUM
-1.6068491	CCONJ PROPN NUM
-2.1605334	NUM PROPN NUM
-1.770446	PUNCT PROPN NUM
-1.6900314	ADV PROPN NUM
-1.9196668	PRON PROPN NUM
-1.9552652	ADP PROPN NUM
-1.8929373	SCONJ PROPN NUM
-1.7849828	X PROPN NUM
-0.7862095	SPACE PROPN NUM
-1.5977975	<s> NOUN NUM
-1.9725688	PROPN NOUN NUM
-2.0692751	NOUN NOUN NUM
-2.548777	PART NOUN NUM
-2.3647375	ADJ NOUN NUM
-2.2571516	DET NOUN NUM
-1.9722329	VERB NOUN NUM
-2.3280854	CCONJ NOUN NUM
-1.9359317	NUM NOUN NUM
-1.7602	PUNCT NOUN NUM
-1.7995375	ADV NOUN NUM
-1.8641336	PRON NOUN NUM
-1.8104352	ADP NOUN NUM
-2.0287397	SCONJ NOUN NUM
-1.9649781	X NOUN NUM
-2.026664	<s> PART NUM
-1.450259	PROPN PART NUM
-1.6270717	NOUN PART NUM
-1.2180134	PART PART NUM
-1.5790297	ADJ PART NUM
-2.0478215	DET PART NUM
-1.1751294	VERB PART NUM
-1.8869463	NUM PART NUM
-1.621678	PUNCT PART NUM
-1.832103	ADV PART NUM
-1.7903229	PRON PART NUM
-1.0203298	INTJ PART NUM
-1.886876	<s> ADJ NUM
-2.3094277	PROPN ADJ NUM
-1.9291899	NOUN ADJ NUM
-1.9354769	PART ADJ NUM
-2.3709364	ADJ ADJ NUM
-2.596544	DET ADJ NUM
-1.8689381	VERB ADJ NUM
-2.6538193	CCONJ ADJ NUM
-1.9888711	NUM ADJ NUM
-1.8286556	PUNCT ADJ NUM
-1.7752956	ADV ADJ NUM
-1.3693662	PRON ADJ NUM
-2.0258198	ADP ADJ NUM
-0.6100546	<s> DET NUM
-0.7935646	PROPN DET NUM
-0.6433284	NOUN DET NUM
-0.61563337	PART DET NUM
-1.0826933	ADJ DET NUM
-1.4553665	DET DET NUM
-0.7846593	VERB DET NUM
-1.0155346	CCONJ DET NUM
-0.83127064	NUM DET NUM
-0.65815693	PUNCT DET NUM
-0.77085894	ADV DET NUM
-0.7302019	PRON DET NUM
-0.6854791	ADP DET NUM
-0.7773283	SCONJ DET NUM
-0.6650054	X DET NUM
-1.179583	<s> VERB NUM
-1.3215723	PROPN VERB NUM
-1.3756118	NOUN VERB NUM
-1.3974029	PART VERB NUM
-2.2577155	ADJ VERB NUM
-1.6543816	DET VERB NUM
-1.3324891	VERB VERB NUM
-1.6830136	CCONJ VERB NUM
-1.3327907	NUM VERB NUM
-1.3213282	PUNCT VERB NUM
-1.313627	ADV VERB NUM
-1.4370686	PRON VERB NUM
-1.5107569	ADP VERB NUM
-1.3782598	SCONJ VERB NUM
-1.5493925	X VERB NUM
-1.1154394	INTJ VERB NUM
-0.9606643	<s> CCONJ NUM
-1.7334766	PROPN CCONJ NUM
-1.5890008	NOUN CCONJ NUM
-1.0594605	PART CCONJ NUM
-0.77121353	DET CCONJ NUM
-1.9295274	VERB CCONJ NUM
-0.10185922	NUM CCONJ NUM
-1.3234891	PUNCT CCONJ NUM
-0.69424367	ADV CCONJ NUM
-0.9136072	PRON CCONJ NUM
-1.2803977	ADP CCONJ NUM
-0.39030963	<s> NUM NUM
-0.49607012	PROPN NUM NUM
-0.30457973	NOUN NUM NUM
-0.21118663	PART NUM NUM
-0.21888204	ADJ NUM NUM
-0.55569625	DET NUM NUM
-0.30281186	VERB NUM NUM
-0.27855045	CCONJ NUM NUM
-1.3503726	NUM NUM NUM
-0.38591248	PUNCT NUM NUM
-0.41282386	ADV NUM NUM
-0.24845417	PRON NUM NUM
-0.24783666	ADP NUM NUM
-0.39361718	SCONJ NUM NUM
-0.40742615	X NUM NUM
-1.6706947	<s> PUNCT NUM
-1.798118	PROPN PUNCT NUM
-1.9509768	NOUN PUNCT NUM
-1.8435435	PART PUNCT NUM
-1.8690978	ADJ PUNCT NUM
-1.3586556	DET PUNCT NUM
-1.9807677	VERB PUNCT NUM
-1.461127	CCONJ PUNCT NUM
-0.88706845	NUM PUNCT NUM
-1.7224677	PUNCT PUNCT NUM
-1.951238	ADV PUNCT NUM
-2.333963	PRON PUNCT NUM
-1.6960095	ADP PUNCT NUM
-1.5627162	X PUNCT NUM
-1.5745904	<s> ADV NUM
-1.7449485	PROPN ADV NUM
-1.8845242	NOUN ADV NUM
-1.2701544	PART ADV NUM
-1.7204092	ADJ ADV NUM
-1.5971649	DET ADV NUM
-1.006331	VERB ADV NUM
-1.1119405	CCONJ ADV NUM
-1.4465499	NUM ADV NUM
-1.5533772	PUNCT ADV NUM
-1.8774416	ADV ADV NUM
-2.004246	PRON ADV NUM
-1.1441486	ADP ADV NUM
-1.5267879	SCONJ ADV NUM
-1.5444857	X ADV NUM
-2.2386162	<s> PRON NUM
-2.372432	NOUN PRON NUM
-1.6601443	PART PRON NUM
-2.0306714	VERB PRON NUM
-1.8900284	CCONJ PRON NUM
-2.1345956	NUM PRON NUM
-2.3081653	PUNCT PRON NUM
-2.0098531	ADV PRON NUM
-2.2126248	PRON PRON NUM
-2.1778386	ADP PRON NUM
-2.6315255	SCONJ PRON NUM
-1.9901282	X PRON NUM
-0.88243	INTJ PRON NUM
-1.3779429	<s> ADP NUM
-1.3390294	PROPN ADP NUM
-1.4243236	NOUN ADP NUM
-1.3298322	PART ADP NUM
-1.8041819	DET ADP NUM
-1.5166965	VERB ADP NUM
-1.7200735	CCONJ ADP NUM
-1.3884037	NUM ADP NUM
-1.3520225	PUNCT ADP NUM
-1.3919276	ADV ADP NUM
-1.4260433	PRON ADP NUM
-1.4414512	ADP ADP NUM
-1.4730215	SCONJ ADP NUM
-1.4798479	X ADP NUM
-0.6751387	INTJ ADP NUM
-1.5875088	<s> SCONJ NUM
-1.8772867	NOUN SCONJ NUM
-1.8554606	VERB SCONJ NUM
-0.9478581	NUM SCONJ NUM
-2.0415149	PUNCT SCONJ NUM
-1.6320014	ADV SCONJ NUM
-1.4509023	<s> X NUM
-1.7059995	PROPN X NUM
-1.5805945	NOUN X NUM
-1.7186882	PART X NUM
-1.6963577	DET X NUM
-1.8881792	VERB X NUM
-1.5406095	CCONJ X NUM
-1.9438193	NUM X NUM
-0.8592265	PUNCT X NUM
-1.6024256	ADV X NUM
-1.4680686	PRON X NUM
-1.635099	ADP X NUM
-0.7146005	<s> PROPN PUNCT
-0.6432562	PROPN PROPN PUNCT
-0.6609667	NOUN PROPN PUNCT
-0.81968343	PART PROPN PUNCT
-0.8138589	ADJ PROPN PUNCT
-1.0849599	DET PROPN PUNCT
-0.80355316	VERB PROPN PUNCT
-0.8383425	CCONJ PROPN PUNCT
-1.2436612	NUM PROPN PUNCT
-0.56807595	PUNCT PROPN PUNCT
-1.0507693	ADV PROPN PUNCT
-0.82348526	PRON PROPN PUNCT
-1.0812725	ADP PROPN PUNCT
-2.1266153	SCONJ PROPN PUNCT
-1.3788829	X PROPN PUNCT
-0.71437776	INTJ PROPN PUNCT
-1.0256089	<s> NOUN PUNCT
-0.81614375	PROPN NOUN PUNCT
-0.5563245	NOUN NOUN PUNCT
-0.38593817	PART NOUN PUNCT
-0.44526523	ADJ NOUN PUNCT
-0.63828534	DET NOUN PUNCT
-0.5395744	VERB NOUN PUNCT
-0.624883	CCONJ NOUN PUNCT
-0.5662077	NUM NOUN PUNCT
-0.66046757	PUNCT NOUN PUNCT
-0.93935966	ADV NOUN PUNCT
-0.8764499	PRON NOUN PUNCT
-1.2722696	ADP NOUN PUNCT
-1.7698766	SCONJ NOUN PUNCT
-1.4924812	X NOUN PUNCT
-1.1538943	INTJ NOUN PUNCT
-0.56348777	SPACE NOUN PUNCT
-1.0297536	<s> PART PUNCT
-1.2247915	PROPN PART PUNCT
-0.77970904	NOUN PART PUNCT
-1.0220904	PART PART PUNCT
-1.5251362	ADJ PART PUNCT
-1.6175388	DET PART PUNCT
-0.8353598	VERB PART PUNCT
-0.89603454	CCONJ PART PUNCT
-0.84879637	NUM PART PUNCT
-0.9639538	PUNCT PART PUNCT
-0.7754454	ADV PART PUNCT
-1.3044262	PRON PART PUNCT
-1.2913958	ADP PART PUNCT
-1.180274	INTJ PART PUNCT
-2.2358015	<s> ADJ PUNCT
-2.4945378	PROPN ADJ PUNCT
-2.5672097	NOUN ADJ PUNCT
-2.6171556	PART ADJ PUNCT
-2.4164536	DET ADJ PUNCT
-2.2794704	VERB ADJ PUNCT
-2.5264983	CCONJ ADJ PUNCT
-2.7028713	NUM ADJ PUNCT
-1.4891285	PUNCT ADJ PUNCT
-2.4317317	ADV ADJ PUNCT
-2.3216007	PRON ADJ PUNCT
-2.5621173	ADP ADJ PUNCT
-2.2898493	<s> DET PUNCT
-1.2807001	PROPN DET PUNCT
-1.6672622	NOUN DET PUNCT
-2.059084	PART DET PUNCT
-1.9252714	ADJ DET PUNCT
-1.5893023	DET DET PUNCT
-2.010526	VERB DET PUNCT
-2.3168337	CCONJ DET PUNCT
-1.7905351	NUM DET PUNCT
-2.354467	PUNCT DET PUNCT
-1.9419757	ADV DET PUNCT
-1.8382175	PRON DET PUNCT
-2.2657163	ADP DET PUNCT
-2.2305276	SCONJ DET PUNCT
-2.2559059	X DET PUNCT
-1.2870436	<s> VERB PUNCT
-0.6231667	PROPN VERB PUNCT
-0.65063953	NOUN VERB PUNCT
-0.591351	PART VERB PUNCT
-0.5946467	ADJ VERB PUNCT
-1.2525135	DET VERB PUNCT
-0.78397596	VERB VERB PUNCT
-0.9899948	CCONJ VERB PUNCT
-0.9554417	NUM VERB PUNCT
-0.9451706	PUNCT VERB PUNCT
-0.7048989	ADV VERB PUNCT
-0.9173738	PRON VERB PUNCT
-1.3959074	ADP VERB PUNCT
-1.1266217	SCONJ VERB PUNCT
-0.5916748	X VERB PUNCT
-0.3985633	INTJ VERB PUNCT
-1.7330146	<s> CCONJ PUNCT
-1.9437511	PROPN CCONJ PUNCT
-2.2670016	NOUN CCONJ PUNCT
-1.8089546	PART CCONJ PUNCT
-2.4029872	VERB CCONJ PUNCT
-2.1889484	NUM CCONJ PUNCT
-0.9552676	PUNCT CCONJ PUNCT
-1.9464628	ADV CCONJ PUNCT
-1.8910264	PRON CCONJ PUNCT
-0.8789949	<s> NUM PUNCT
-0.9254543	PROPN NUM PUNCT
-0.9402263	NOUN NUM PUNCT
-1.1967051	PART NUM PUNCT
-1.9161434	ADJ NUM PUNCT
-1.7868761	DET NUM PUNCT
-1.1447839	VERB NUM PUNCT
-1.2239101	CCONJ NUM PUNCT
-0.8304871	NUM NUM PUNCT
-0.74086493	PUNCT NUM PUNCT
-1.3998578	ADV NUM PUNCT
-1.8283082	PRON NUM PUNCT
-1.5505092	ADP NUM PUNCT
-1.8804067	SCONJ NUM PUNCT
-0.5786492	X NUM PUNCT
-1.272427	<s> PUNCT PUNCT
-1.1326787	PROPN PUNCT PUNCT
-1.3099313	NOUN PUNCT PUNCT
-1.5668283	PART PUNCT PUNCT
-1.8574543	ADJ PUNCT PUNCT
-1.5599295	DET PUNCT PUNCT
-1.2932348	VERB PUNCT PUNCT
-1.8444313	CCONJ PUNCT PUNCT
-1.1944681	NUM PUNCT PUNCT
-1.2769488	PUNCT PUNCT PUNCT
-1.6767093	ADV PUNCT PUNCT
-1.2147561	PRON PUNCT PUNCT
-1.7400023	ADP PUNCT PUNCT
-1.5559855	X PUNCT PUNCT
-1.1671437	INTJ PUNCT PUNCT
-1.2221061	<s> ADV PUNCT
-2.0889964	PROPN ADV PUNCT
-2.1388588	NOUN ADV PUNCT
-1.6641407	PART ADV PUNCT
-1.7033144	ADJ ADV PUNCT
-1.9364104	DET ADV PUNCT
-1.3874496	VERB ADV PUNCT
-2.5841157	CCONJ ADV PUNCT
-1.6643773	NUM ADV PUNCT
-1.4973466	PUNCT ADV PUNCT
-2.0202165	ADV ADV PUNCT
-2.5308704	PRON ADV PUNCT
-1.6704272	ADP ADV PUNCT
-2.2834454	SCONJ ADV PUNCT
-2.1092887	X ADV PUNCT
-0.7799716	INTJ ADV PUNCT
-2.4512382	<s> PRON PUNCT
-1.2652745	PROPN PRON PUNCT
-1.2809987	NOUN PRON PUNCT
-0.77831495	PART PRON PUNCT
-0.58529437	ADJ PRON PUNCT
-0.9456912	DET PRON PUNCT
-0.80813277	VERB PRON PUNCT
-1.2201095	CCONJ PRON PUNCT
-0.6536377	NUM PRON PUNCT
-1.9972948	PUNCT PRON PUNCT
-1.8464434	ADV PRON PUNCT
-1.0276806	PRON PRON PUNCT
-1.6176041	ADP PRON PUNCT
-2.3248935	SCONJ PRON PUNCT
-2.3423965	X PRON PUNCT
-1.7205067	<s> ADP PUNCT
-1.5878047	PROPN ADP PUNCT
-1.7861849	NOUN ADP PUNCT
-1.8427498	PART ADP PUNCT
-1.5932932	ADJ ADP PUNCT
-1.8857054	DET ADP PUNCT
-1.7375951	VERB ADP PUNCT
-2.082417	CCONJ ADP PUNCT
-1.7969345	NUM ADP PUNCT
-1.7110856	PUNCT ADP PUNCT
-1.9185901	ADV ADP PUNCT
-1.7733982	PRON ADP PUNCT
-1.6098549	ADP ADP PUNCT
-1.6254299	SCONJ ADP PUNCT
-1.1656398	X ADP PUNCT
-2.3943424	<s> SCONJ PUNCT
-2.1664255	PUNCT SCONJ PUNCT
-2.3278527	ADV SCONJ PUNCT
-2.0967283	PRON SCONJ PUNCT
-1.2289891	ADP SCONJ PUNCT
-1.4121405	<s> X PUNCT
-1.036326	PROPN X PUNCT
-1.6881961	NOUN X PUNCT
-1.8921926	PART X PUNCT
-1.673899	DET X PUNCT
-1.7093546	VERB X PUNCT
-1.5225719	CCONJ X PUNCT
-1.9230317	NUM X PUNCT
-1.058109	PUNCT X PUNCT
-1.8422785	ADV X PUNCT
-2.1533945	PRON X PUNCT
-1.911613	ADP X PUNCT
-1.0154121	X X PUNCT
-0.16328706	<s> INTJ PUNCT
-0.76724494	PROPN INTJ PUNCT
-0.103849135	PART INTJ PUNCT
-0.59257275	VERB INTJ PUNCT
-0.06976231	PUNCT INTJ PUNCT
-0.19908094	INTJ INTJ PUNCT
-1.12321	<s> PROPN ADV
-1.3514454	PROPN PROPN ADV
-1.343303	NOUN PROPN ADV
-1.4744891	PART PROPN ADV
-1.7978387	ADJ PROPN ADV
-1.2855238	DET PROPN ADV
-1.4852145	VERB PROPN ADV
-1.2385128	CCONJ PROPN ADV
-1.5549314	NUM PROPN ADV
-1.3810676	PUNCT PROPN ADV
-0.87244046	ADV PROPN ADV
-1.179372	PRON PROPN ADV
-1.3878331	ADP PROPN ADV
-0.7823873	SCONJ PROPN ADV
-1.6878929	X PROPN ADV
-0.8669071	<s> NOUN ADV
-1.1046779	PROPN NOUN ADV
-1.0823193	NOUN NOUN ADV
-1.097439	PART NOUN ADV
-1.2172273	ADJ NOUN ADV
-0.78540283	DET NOUN ADV
-1.3839407	VERB NOUN ADV
-1.1924938	CCONJ NOUN ADV
-0.9969202	NUM NOUN ADV
-1.1224211	PUNCT NOUN ADV
-0.74529296	ADV NOUN ADV
-0.80113894	PRON NOUN ADV
-1.3038923	ADP NOUN ADV
-0.6931756	SCONJ NOUN ADV
-1.5007498	X NOUN ADV
-1.1538943	INTJ NOUN ADV
-0.7840074	SPACE NOUN ADV
-2.0060802	<s> PART ADV
-1.8654194	PROPN PART ADV
-1.4424766	NOUN PART ADV
-2.1211154	PART PART ADV
-2.8149943	ADJ PART ADV
-1.8901416	DET PART ADV
-1.5079927	VERB PART ADV
-1.399109	CCONJ PART ADV
-1.3591661	NUM PART ADV
-1.9533123	PUNCT PART ADV
-1.2021812	ADV PART ADV
-1.9574289	PRON PART ADV
-1.2991029	ADP PART ADV
-2.4569938	<s> ADJ ADV
-2.66811	PROPN ADJ ADV
-2.6210866	NOUN ADJ ADV
-2.9795363	PART ADJ ADV
-2.595524	DET ADJ ADV
-2.842592	VERB ADJ ADV
-2.3311338	CCONJ ADJ ADV
-3.2130606	NUM ADJ ADV
-2.636104	PUNCT ADJ ADV
-2.9998715	ADV ADJ ADV
-2.2997437	PRON ADJ ADV
-3.007019	ADP ADJ ADV
-2.146324	X ADJ ADV
-2.076988	<s> DET ADV
-2.196273	PROPN DET ADV
-1.8387098	NOUN DET ADV
-1.6693735	PART DET ADV
-1.280874	ADJ DET ADV
-1.3567308	DET DET ADV
-1.5796968	VERB DET ADV
-1.5236368	CCONJ DET ADV
-1.7674081	PUNCT DET ADV
-1.6428164	ADV DET ADV
-1.4869256	PRON DET ADV
-1.7352048	ADP DET ADV
-2.0403354	X DET ADV
-1.3316392	<s> VERB ADV
-1.4591248	PROPN VERB ADV
-1.392523	NOUN VERB ADV
-1.5675695	PART VERB ADV
-1.8007466	ADJ VERB ADV
-1.7144881	DET VERB ADV
-1.4373617	VERB VERB ADV
-1.6829493	CCONJ VERB ADV
-1.5722078	NUM VERB ADV
-1.4335687	PUNCT VERB ADV
-1.3501666	ADV VERB ADV
-1.1699693	PRON VERB ADV
-1.6133848	ADP VERB ADV
-1.1373612	SCONJ VERB ADV
-1.6235663	X VERB ADV
-1.1141922	INTJ VERB ADV
-1.2311465	<s> CCONJ ADV
-2.3214436	PROPN CCONJ ADV
-1.8104824	NOUN CCONJ ADV
-1.101925	PART CCONJ ADV
-1.4391727	ADJ CCONJ ADV
-1.1335716	VERB CCONJ ADV
-1.7708653	NUM CCONJ ADV
-1.1846709	PUNCT CCONJ ADV
-0.8768235	ADV CCONJ ADV
-1.6567907	PRON CCONJ ADV
-1.2600789	ADP CCONJ ADV
-0.6640615	SCONJ CCONJ ADV
-1.9674071	<s> NUM ADV
-1.7793684	PROPN NUM ADV
-2.047227	NOUN NUM ADV
-2.2006357	PART NUM ADV
-2.32892	ADJ NUM ADV
-1.7659684	DET NUM ADV
-1.8618323	VERB NUM ADV
-1.8179189	CCONJ NUM ADV
-1.4590648	NUM NUM ADV
-1.9449307	PUNCT NUM ADV
-1.9146172	ADV NUM ADV
-1.8283082	PRON NUM ADV
-2.1627774	ADP NUM ADV
-1.8804067	SCONJ NUM ADV
-2.0081606	X NUM ADV
-1.1761048	<s> PUNCT ADV
-1.408042	PROPN PUNCT ADV
-1.1761208	NOUN PUNCT ADV
-1.2621167	PART PUNCT ADV
-1.4567319	ADJ PUNCT ADV
-2.2069397	DET PUNCT ADV
-1.216017	VERB PUNCT ADV
-1.2327048	CCONJ PUNCT ADV
-1.2696626	NUM PUNCT ADV
-1.2194655	PUNCT PUNCT ADV
-1.2449263	ADV PUNCT ADV
-1.2459857	PRON PUNCT ADV
-1.5162724	ADP PUNCT ADV
-1.3323855	SCONJ PUNCT ADV
-1.6524866	X PUNCT ADV
-1.6278617	INTJ PUNCT ADV
-0.7844085	<s> ADV ADV
-0.870885	PROPN ADV ADV
-0.770879	NOUN ADV ADV
-0.97388136	PART ADV ADV
-1.3840451	ADJ ADV ADV
-1.125268	DET ADV ADV
-1.1789602	VERB ADV ADV
-1.1297851	CCONJ ADV ADV
-0.9683365	NUM ADV ADV
-0.81597304	PUNCT ADV ADV
-0.93989927	ADV ADV ADV
-0.7404539	PRON ADV ADV
-1.2551137	ADP ADV ADV
-0.86649215	SCONJ ADV ADV
-2.1092887	X ADV ADV
-0.7799716	INTJ ADV ADV
-0.48117167	<s> PRON ADV
-0.7027553	PROPN PRON ADV
-0.5282896	NOUN PRON ADV
-0.8454769	PART PRON ADV
-0.7052769	DET PRON ADV
-0.93770677	VERB PRON ADV
-0.97961915	CCONJ PRON ADV
-0.83283657	NUM PRON ADV
-0.5168023	PUNCT PRON ADV
-0.41337124	ADV PRON ADV
-0.6774081	PRON PRON ADV
-1.0264783	ADP PRON ADV
-0.5450275	SCONJ PRON ADV
-1.4656267	X PRON ADV
-1.493939	<s> ADP ADV
-1.7904917	PROPN ADP ADV
-1.8205696	NOUN ADP ADV
-1.9192595	PART ADP ADV
-1.9953802	DET ADP ADV
-1.7240715	VERB ADP ADV
-1.676294	CCONJ ADP ADV
-2.1460605	NUM ADP ADV
-1.5985146	PUNCT ADP ADV
-1.6769893	ADV ADP ADV
-1.7567159	PRON ADP ADV
-1.8037958	ADP ADP ADV
-1.4161867	SCONJ ADP ADV
-1.4945427	X ADP ADV
-1.1309016	<s> SCONJ ADV
-0.613909	PROPN SCONJ ADV
-0.7400662	NOUN SCONJ ADV
-1.1611135	PART SCONJ ADV
-0.24921438	DET SCONJ ADV
-1.0430818	VERB SCONJ ADV
-1.0786419	PUNCT SCONJ ADV
-1.0642979	ADV SCONJ ADV
-0.5968844	PRON SCONJ ADV
-0.93155	ADP SCONJ ADV
-0.6800475	SCONJ SCONJ ADV
-1.9556612	<s> X ADV
-1.7935134	PROPN X ADV
-1.4562886	NOUN X ADV
-1.3764725	PART X ADV
-1.7153337	DET X ADV
-1.5437968	VERB X ADV
-1.5557046	CCONJ X ADV
-1.8051717	NUM X ADV
-2.2101672	PUNCT X ADV
-1.592539	ADV X ADV
-2.035574	PRON X ADV
-1.6093827	<s> INTJ ADV
-2.004689	PUNCT INTJ ADV
-2.5260596	<s> PROPN PRON
-2.5940564	PROPN PROPN PRON
-2.5763917	NOUN PROPN PRON
-2.6007872	PART PROPN PRON
-2.705189	DET PROPN PRON
-2.5309708	VERB PROPN PRON
-2.5104384	CCONJ PROPN PRON
-2.5218105	PUNCT PROPN PRON
-2.2454355	ADV PROPN PRON
-1.9636277	PRON PROPN PRON
-2.3118117	ADP PROPN PRON
-2.5656278	X PROPN PRON
-1.8768734	<s> NOUN PRON
-2.8058708	PROPN NOUN PRON
-2.7847087	NOUN NOUN PRON
-2.826817	PART NOUN PRON
-3.0595863	ADJ NOUN PRON
-2.4634793	DET NOUN PRON
-2.6241431	VERB NOUN PRON
-2.621804	CCONJ NOUN PRON
-2.6201649	NUM NOUN PRON
-2.3471751	PUNCT NOUN PRON
-1.9609498	ADV NOUN PRON
-2.1316178	PRON NOUN PRON
-2.5853696	ADP NOUN PRON
-2.0282714	SCONJ NOUN PRON
-2.6287591	X NOUN PRON
-2.553123	PROPN PART PRON
-2.486575	NOUN PART PRON
-2.4127004	PART PART PRON
-2.8273363	ADJ PART PRON
-2.3703356	DET PART PRON
-1.6166553	VERB PART PRON
-2.1036468	NUM PART PRON
-3.0874543	PUNCT PART PRON
-1.8826649	ADV PART PRON
-2.6609883	PRON PART PRON
-1.7675315	ADP PART PRON
-3.245622	PROPN ADJ PRON
-3.574216	PART ADJ PRON
-3.2877727	VERB ADJ PRON
-3.3919404	PUNCT ADJ PRON
-3.037908	ADV ADJ PRON
-3.316013	ADP ADJ PRON
-2.749936	<s> DET PRON
-2.6318643	NOUN DET PRON
-2.6706479	PART DET PRON
-2.202492	DET DET PRON
-2.4175098	VERB DET PRON
-2.250506	CCONJ DET PRON
-2.2888272	PUNCT DET PRON
-2.4215064	ADV DET PRON
-2.2969472	PRON DET PRON
-2.611026	ADP DET PRON
-2.3459337	X DET PRON
-1.0964655	<s> VERB PRON
-1.611978	PROPN VERB PRON
-1.5511137	NOUN VERB PRON
-1.434637	PART VERB PRON
-2.270426	ADJ VERB PRON
-1.5331718	DET VERB PRON
-1.3028632	VERB VERB PRON
-1.3496357	CCONJ VERB PRON
-1.7564384	NUM VERB PRON
-1.3487575	PUNCT VERB PRON
-1.4019915	ADV VERB PRON
-1.1440309	PRON VERB PRON
-1.5109502	ADP VERB PRON
-1.46219	SCONJ VERB PRON
-2.0737636	X VERB PRON
-1.2078162	<s> CCONJ PRON
-1.7057652	PROPN CCONJ PRON
-1.9017187	NOUN CCONJ PRON
-2.2745013	VERB CCONJ PRON
-0.980537	CCONJ CCONJ PRON
-1.861579	NUM CCONJ PRON
-1.480115	PUNCT CCONJ PRON
-1.7865912	ADV CCONJ PRON
-0.7380986	PRON CCONJ PRON
-2.840175	<s> NUM PRON
-2.6383564	PROPN NUM PRON
-2.781866	NOUN NUM PRON
-2.8124802	PART NUM PRON
-2.8126204	DET NUM PRON
-2.339362	VERB NUM PRON
-2.88102	CCONJ NUM PRON
-2.3948288	NUM NUM PRON
-3.0999746	ADV NUM PRON
-2.4481933	PRON NUM PRON
-0.9765958	<s> PUNCT PRON
-1.7908204	PROPN PUNCT PRON
-1.7312182	NOUN PUNCT PRON
-1.5088929	PART PUNCT PRON
-2.1045442	ADJ PUNCT PRON
-1.812318	DET PUNCT PRON
-1.6192744	VERB PUNCT PRON
-1.4203202	CCONJ PUNCT PRON
-1.8070098	NUM PUNCT PRON
-1.1878492	PUNCT PUNCT PRON
-1.3645049	ADV PUNCT PRON
-1.4612752	PRON PUNCT PRON
-1.5462326	ADP PUNCT PRON
-1.3323855	SCONJ PUNCT PRON
-2.0413923	X PUNCT PRON
-1.3686702	INTJ PUNCT PRON
-1.0895481	<s> ADV PRON
-2.5130453	PROPN ADV PRON
-2.6629562	NOUN ADV PRON
-2.3459816	PART ADV PRON
-2.5531046	DET ADV PRON
-2.1392424	VERB ADV PRON
-2.5262587	CCONJ ADV PRON
-2.3200781	NUM ADV PRON
-1.2679998	PUNCT ADV PRON
-2.102285	ADV ADV PRON
-2.550168	PRON ADV PRON
-1.7950972	ADP ADV PRON
-1.9308615	SCONJ ADV PRON
-2.3462248	<s> PRON PRON
-2.09257	PROPN PRON PRON
-2.1102452	NOUN PRON PRON
-1.8080001	PART PRON PRON
-1.8640058	DET PRON PRON
-1.81363	VERB PRON PRON
-1.7555646	CCONJ PRON PRON
-2.1123233	NUM PRON PRON
-2.1471052	PUNCT PRON PRON
-2.1091635	ADV PRON PRON
-2.3586764	PRON PRON PRON
-1.8039734	ADP PRON PRON
-2.3333912	SCONJ PRON PRON
-2.083371	X PRON PRON
-0.9941931	<s> ADP PRON
-1.3133997	PROPN ADP PRON
-1.2162384	NOUN ADP PRON
-1.1072291	PART ADP PRON
-1.2778391	ADJ ADP PRON
-1.3416942	DET ADP PRON
-1.0423683	VERB ADP PRON
-1.0764171	CCONJ ADP PRON
-1.2433006	NUM ADP PRON
-1.0477334	PUNCT ADP PRON
-1.0362333	ADV ADP PRON
-0.9650315	PRON ADP PRON
-1.2255576	ADP ADP PRON
-1.2701043	SCONJ ADP PRON
-1.1656398	X ADP PRON
-0.66474015	<s> SCONJ PRON
-1.8273592	NOUN SCONJ PRON
-1.0330201	PART SCONJ PRON
-0.853703	VERB SCONJ PRON
-0.660339	CCONJ SCONJ PRON
-0.6395244	PUNCT SCONJ PRON
-0.6686918	ADV SCONJ PRON
-1.8053085	PRON SCONJ PRON
-0.946448	ADP SCONJ PRON
-0.473986	SCONJ SCONJ PRON
-0.9450634	<s> X PRON
-1.3118725	PROPN X PRON
-1.2858033	NOUN X PRON
-1.2574952	PART X PRON
-1.3897661	DET X PRON
-0.9731929	VERB X PRON
-0.7962723	CCONJ X PRON
-1.0934944	PUNCT X PRON
-1.106506	ADV X PRON
-1.0295413	PRON X PRON
-1.1997901	SCONJ X PRON
-1.606029	<s> INTJ PRON
-1.0677261	PROPN INTJ PRON
-0.70812947	ADV INTJ PRON
-1.318241	<s> PROPN ADP
-1.1682272	PROPN PROPN ADP
-1.3385398	NOUN PROPN ADP
-1.6389234	PART PROPN ADP
-1.60769	ADJ PROPN ADP
-1.5531187	DET PROPN ADP
-1.5747216	VERB PROPN ADP
-1.5779266	CCONJ PROPN ADP
-1.8228208	NUM PROPN ADP
-1.5100596	PUNCT PROPN ADP
-1.3841896	ADV PROPN ADP
-1.2077425	PRON PROPN ADP
-1.6592318	ADP PROPN ADP
-1.1299485	SCONJ PROPN ADP
-1.5074141	X PROPN ADP
-1.2885548	<s> NOUN ADP
-1.3580579	PROPN NOUN ADP
-1.5579959	NOUN NOUN ADP
-1.7311038	PART NOUN ADP
-1.7056507	ADJ NOUN ADP
-1.3524756	DET NOUN ADP
-1.718425	VERB NOUN ADP
-1.7980808	CCONJ NOUN ADP
-1.4030855	NUM NOUN ADP
-1.5603281	PUNCT NOUN ADP
-1.5058969	ADV NOUN ADP
-1.4496144	PRON NOUN ADP
-1.7028594	ADP NOUN ADP
-1.3206606	SCONJ NOUN ADP
-1.564959	X NOUN ADP
-2.3992987	PROPN PART ADP
-2.11966	NOUN PART ADP
-2.8103166	PART PART ADP
-3.1580298	ADJ PART ADP
-2.3703356	DET PART ADP
-1.9356958	VERB PART ADP
-2.0388691	NUM PART ADP
-2.1861696	PUNCT PART ADP
-1.5517268	ADV PART ADP
-2.8087826	PRON PART ADP
-1.6343623	ADP PART ADP
-2.5542295	<s> ADJ ADP
-2.6888034	PROPN ADJ ADP
-2.7864625	NOUN ADJ ADP
-3.4480376	PART ADJ ADP
-2.6145425	DET ADJ ADP
-2.781912	VERB ADJ ADP
-2.957923	CCONJ ADJ ADP
-3.2589607	NUM ADJ ADP
-2.5798464	PUNCT ADJ ADP
-3.0480142	ADV ADJ ADP
-3.1590593	ADP ADJ ADP
-2.0978217	<s> DET ADP
-1.8768545	PROPN DET ADP
-2.1126912	NOUN DET ADP
-1.8567622	PART DET ADP
-1.9425881	ADJ DET ADP
-1.5927904	DET DET ADP
-1.7466469	VERB DET ADP
-1.8075693	CCONJ DET ADP
-1.8037595	NUM DET ADP
-1.8134401	PUNCT DET ADP
-1.8595233	ADV DET ADP
-1.8470029	PRON DET ADP
-1.7737046	ADP DET ADP
-1.8959893	X DET ADP
-1.2623813	<s> VERB ADP
-1.5050498	PROPN VERB ADP
-1.4138731	NOUN VERB ADP
-1.7604201	PART VERB ADP
-1.5771302	ADJ VERB ADP
-1.5226585	DET VERB ADP
-1.53722	VERB VERB ADP
-1.5344868	CCONJ VERB ADP
-1.3358725	NUM VERB ADP
-1.3926646	PUNCT VERB ADP
-1.3917193	ADV VERB ADP
-1.2562996	PRON VERB ADP
-1.5788862	ADP VERB ADP
-1.2930892	SCONJ VERB ADP
-1.3416574	X VERB ADP
-1.0544373	<s> CCONJ ADP
-2.390742	PROPN CCONJ ADP
-1.9248998	NOUN CCONJ ADP
-1.7872946	PART CCONJ ADP
-1.5886725	VERB CCONJ ADP
-2.0383284	NUM CCONJ ADP
-1.109663	PUNCT CCONJ ADP
-1.9240438	ADV CCONJ ADP
-2.271106	PRON CCONJ ADP
-0.26234493	X CCONJ ADP
-2.3361688	<s> NUM ADP
-2.197004	PROPN NUM ADP
-2.4901252	NOUN NUM ADP
-2.23553	PART NUM ADP
-1.932401	DET NUM ADP
-2.0719094	VERB NUM ADP
-2.0249321	CCONJ NUM ADP
-1.627759	NUM NUM ADP
-2.4247992	PUNCT NUM ADP
-1.7616752	ADV NUM ADP
-1.9409004	PRON NUM ADP
-2.1365778	ADP NUM ADP
-1.8966258	SCONJ NUM ADP
-2.0232894	X NUM ADP
-1.358599	<s> PUNCT ADP
-1.4023476	PROPN PUNCT ADP
-1.607857	NOUN PUNCT ADP
-1.7304924	PART PUNCT ADP
-2.122894	ADJ PUNCT ADP
-1.8195856	DET PUNCT ADP
-1.6185702	VERB PUNCT ADP
-1.7634573	CCONJ PUNCT ADP
-1.6463591	NUM PUNCT ADP
-1.5050634	PUNCT PUNCT ADP
-1.3374156	ADV PUNCT ADP
-1.8390447	PRON PUNCT ADP
-1.6940606	ADP PUNCT ADP
-1.9474126	X PUNCT ADP
-1.7754059	INTJ PUNCT ADP
-1.0328335	<s> ADV ADP
-1.0093881	PROPN ADV ADP
-1.1724298	NOUN ADV ADP
-1.561557	PART ADV ADP
-1.5725408	ADJ ADV ADP
-1.2011775	DET ADV ADP
-1.4184573	VERB ADV ADP
-1.1598788	CCONJ ADV ADP
-1.363724	NUM ADV ADP
-1.0055617	PUNCT ADV ADP
-1.2473556	ADV ADV ADP
-1.1991383	PRON ADV ADP
-1.2761843	ADP ADV ADP
-1.1863692	SCONJ ADV ADP
-1.9853803	X ADV ADP
-1.0784029	<s> PRON ADP
-1.1584526	PROPN PRON ADP
-1.1750062	NOUN PRON ADP
-1.2392334	PART PRON ADP
-1.8640058	DET PRON ADP
-1.2369949	VERB PRON ADP
-1.2728609	CCONJ PRON ADP
-1.2596855	NUM PRON ADP
-1.0373844	PUNCT PRON ADP
-1.308995	ADV PRON ADP
-1.3455182	PRON PRON ADP
-1.3814877	ADP PRON ADP
-1.1054529	SCONJ PRON ADP
-1.1106008	X PRON ADP
-1.7568241	<s> ADP ADP
-1.8332059	PROPN ADP ADP
-2.0489438	NOUN ADP ADP
-2.2731302	PART ADP ADP
-1.8922145	DET ADP ADP
-1.9163061	VERB ADP ADP
-2.3719947	CCONJ ADP ADP
-2.2293625	NUM ADP ADP
-1.7744604	PUNCT ADP ADP
-1.9931173	ADV ADP ADP
-2.0179434	PRON ADP ADP
-2.5352464	ADP ADP ADP
-2.14105	SCONJ ADP ADP
-1.4945427	X ADP ADP
-1.3820919	<s> SCONJ ADP
-0.97977394	PROPN SCONJ ADP
-1.0949737	NOUN SCONJ ADP
-1.0330201	PART SCONJ ADP
-1.4696822	VERB SCONJ ADP
-0.8738869	NUM SCONJ ADP
-1.4521277	PUNCT SCONJ ADP
-1.2223214	ADV SCONJ ADP
-0.9768466	PRON SCONJ ADP
-1.1036885	ADP SCONJ ADP
-2.2879925	<s> X ADP
-1.9174159	PROPN X ADP
-2.3143008	NOUN X ADP
-1.9342868	PART X ADP
-2.2097404	VERB X ADP
-2.3957477	PUNCT X ADP
-2.458446	ADV X ADP
-2.232359	PRON X ADP
-1.5850496	X X ADP
-1.9254452	<s> INTJ ADP
-0.70812947	NOUN INTJ ADP
-1.9996516	PUNCT INTJ ADP
-2.8903375	<s> PROPN SCONJ
-3.9849124	PROPN PROPN SCONJ
-3.695269	NOUN PROPN SCONJ
-3.361722	PART PROPN SCONJ
-4.1598363	VERB PROPN SCONJ
-3.3408089	CCONJ PROPN SCONJ
-3.21887	PUNCT PROPN SCONJ
-3.565767	ADP PROPN SCONJ
-2.5037909	<s> NOUN SCONJ
-3.0780575	PROPN NOUN SCONJ
-3.2193933	NOUN NOUN SCONJ
-3.2507484	PART NOUN SCONJ
-3.0829182	ADJ NOUN SCONJ
-2.571207	DET NOUN SCONJ
-3.4307468	VERB NOUN SCONJ
-3.4057734	CCONJ NOUN SCONJ
-3.2054045	NUM NOUN SCONJ
-3.008547	PUNCT NOUN SCONJ
-2.6683092	ADV NOUN SCONJ
-2.9905038	PRON NOUN SCONJ
-4.1881557	ADP NOUN SCONJ
-3.8418317	NOUN PART SCONJ
-3.6934857	VERB PART SCONJ
-3.649984	ADP DET SCONJ
-3.0096395	<s> VERB SCONJ
-3.1295218	PROPN VERB SCONJ
-3.3970506	NOUN VERB SCONJ
-3.847636	PART VERB SCONJ
-3.5088754	VERB VERB SCONJ
-3.3799958	NUM VERB SCONJ
-2.8860822	PUNCT VERB SCONJ
-3.2567153	ADV VERB SCONJ
-2.5130048	PRON VERB SCONJ
-3.5608287	ADP VERB SCONJ
-3.2626977	X VERB SCONJ
-3.6141324	PROPN CCONJ SCONJ
-3.4481943	VERB CCONJ SCONJ
-3.3213174	PUNCT CCONJ SCONJ
-3.334636	PROPN NUM SCONJ
-3.7019677	NUM NUM SCONJ
-1.9565713	<s> PUNCT SCONJ
-2.6844819	PROPN PUNCT SCONJ
-2.4766097	NOUN PUNCT SCONJ
-2.4535375	PART PUNCT SCONJ
-2.244073	VERB PUNCT SCONJ
-2.2700446	CCONJ PUNCT SCONJ
-2.549924	NUM PUNCT SCONJ
-2.0415177	PUNCT PUNCT SCONJ
-1.9969467	ADV PUNCT SCONJ
-2.431391	PRON PUNCT SCONJ
-2.8378406	ADP PUNCT SCONJ
-2.1290157	X PUNCT SCONJ
-2.1375463	<s> ADV SCONJ
-3.8735163	NOUN ADV SCONJ
-3.9987473	VERB ADV SCONJ
-2.387706	PUNCT ADV SCONJ
-4.1924634	ADV ADV SCONJ
-3.6284754	PRON ADV SCONJ
-3.0585716	ADP ADV SCONJ
-2.3369935	<s> PRON SCONJ
-2.8716514	NOUN PRON SCONJ
-2.993817	PART PRON SCONJ
-2.0136666	DET PRON SCONJ
-2.9468746	VERB PRON SCONJ
-2.6833754	PUNCT PRON SCONJ
-2.2318325	ADV PRON SCONJ
-2.8750355	<s> ADP SCONJ
-3.6232426	PROPN ADP SCONJ
-3.7105293	NOUN ADP SCONJ
-4.0562105	VERB ADP SCONJ
-3.2546158	PUNCT ADP SCONJ
-2.7591279	<s> SCONJ SCONJ
-2.3411846	VERB SCONJ SCONJ
-2.497565	<s> PROPN X
-2.5119395	PROPN PROPN X
-2.4276958	NOUN PROPN X
-2.6694195	PART PROPN X
-2.8707597	VERB PROPN X
-2.8663373	CCONJ PROPN X
-2.681536	NUM PROPN X
-2.4742842	PUNCT PROPN X
-2.427916	ADV PROPN X
-2.3986492	ADP PROPN X
-2.3344116	SCONJ PROPN X
-1.1393695	INTJ PROPN X
-2.4907768	<s> NOUN X
-2.4282763	PROPN NOUN X
-2.497508	NOUN NOUN X
-2.393305	PART NOUN X
-2.758844	ADJ NOUN X
-2.2733495	DET NOUN X
-2.6362436	VERB NOUN X
-2.7043297	CCONJ NOUN X
-2.1919587	NUM NOUN X
-2.4816356	PUNCT NOUN X
-2.699578	ADV NOUN X
-2.434095	PRON NOUN X
-2.462163	ADP NOUN X
-2.2105634	SCONJ NOUN X
-2.7599812	X NOUN X
-2.9811523	PROPN PART X
-2.4872055	NOUN PART X
-2.4200964	DET PART X
-2.5324576	VERB PART X
-2.4719827	NUM PART X
-2.5664349	PUNCT PART X
-1.8925232	ADV PART X
-3.5338745	PRON PART X
-1.8191102	ADP PART X
-3.3039243	<s> ADJ X
-3.5361576	NOUN ADJ X
-3.640851	PART ADJ X
-3.9817479	VERB ADJ X
-2.6991165	<s> DET X
-2.7630713	NOUN DET X
-2.5590222	PART DET X
-1.9816605	ADJ DET X
-2.3359733	DET DET X
-2.776974	VERB DET X
-2.7406614	CCONJ DET X
-2.6774232	PUNCT DET X
-2.918391	ADV DET X
-2.2753608	PRON DET X
-2.4264832	ADP DET X
-2.054357	X DET X
-2.2304072	<s> VERB X
-2.4766095	PROPN VERB X
-2.398105	NOUN VERB X
-2.7288294	PART VERB X
-2.572177	DET VERB X
-2.5734935	VERB VERB X
-2.6415339	CCONJ VERB X
-2.8271878	NUM VERB X
-2.4807303	PUNCT VERB X
-2.2979815	ADV VERB X
-2.2271922	PRON VERB X
-2.492914	ADP VERB X
-2.364898	SCONJ VERB X
-2.8104777	X VERB X
-1.9773904	<s> CCONJ X
-2.9904356	NOUN CCONJ X
-2.0561078	VERB CCONJ X
-2.425207	NUM CCONJ X
-2.2090647	PUNCT CCONJ X
-2.5222785	PRON CCONJ X
-3.34861	<s> NUM X
-2.788719	NOUN NUM X
-3.5226455	PART NUM X
-2.880297	DET NUM X
-3.2685995	VERB NUM X
-2.6231837	CCONJ NUM X
-2.5121698	NUM NUM X
-3.3076277	PUNCT NUM X
-3.4070103	ADV NUM X
-2.6348855	<s> PUNCT X
-2.2976408	PROPN PUNCT X
-2.7243047	NOUN PUNCT X
-2.738997	PART PUNCT X
-2.1422102	DET PUNCT X
-2.7520494	VERB PUNCT X
-2.8522024	NUM PUNCT X
-2.6814632	PUNCT PUNCT X
-2.8767	ADV PUNCT X
-2.9254394	PRON PUNCT X
-2.3162158	ADP PUNCT X
-2.1020195	X PUNCT X
-2.0905833	INTJ PUNCT X
-2.0202508	<s> ADV X
-1.769798	PROPN ADV X
-1.7964519	NOUN ADV X
-1.8455687	PART ADV X
-1.767298	DET ADV X
-2.0510576	VERB ADV X
-2.126245	CCONJ ADV X
-1.7837406	NUM ADV X
-1.8397526	PUNCT ADV X
-1.8257592	ADV ADV X
-1.8992457	PRON ADV X
-2.2399418	ADP ADV X
-1.8468503	SCONJ ADV X
-2.1669588	<s> PRON X
-2.2372324	NOUN PRON X
-2.2811003	PART PRON X
-2.2626123	VERB PRON X
-2.5126987	CCONJ PRON X
-1.8636087	NUM PRON X
-1.992574	PUNCT PRON X
-2.1144164	ADV PRON X
-2.2095592	ADP PRON X
-2.0326962	SCONJ PRON X
-2.535628	X PRON X
-2.6167078	<s> ADP X
-2.7020073	PROPN ADP X
-2.6931744	NOUN ADP X
-2.8102171	PART ADP X
-2.812439	VERB ADP X
-2.4078043	CCONJ ADP X
-2.773043	NUM ADP X
-2.8601394	PUNCT ADP X
-2.822038	ADV ADP X
-2.576309	PRON ADP X
-2.6887443	ADP ADP X
-2.186154	SCONJ ADP X
-2.1245267	<s> SCONJ X
-2.135916	NOUN SCONJ X
-1.7091761	VERB SCONJ X
-2.157631	PUNCT SCONJ X
-2.2840445	ADV SCONJ X
-1.700996	PRON SCONJ X
-2.2909842	PROPN X X
-2.3358352	NOUN X X
-2.4756632	PART X X
-2.396745	VERB X X
-1.8698303	PUNCT X X
-0.98064977	ADP X X
-4.1647034	<s> PROPN INTJ
-3.9272845	PROPN PROPN INTJ
-4.1175776	NOUN PROPN INTJ
-4.102208	VERB PROPN INTJ
-4.279378	PUNCT PROPN INTJ
-5.124323	NOUN NOUN INTJ
-4.5571127	ADJ NOUN INTJ
-4.9271593	VERB NOUN INTJ
-4.024531	PROPN PART INTJ
-4.5859017	VERB PART INTJ
-3.4602988	PUNCT PART INTJ
-2.7988563	PRON PART INTJ
-3.891613	PART ADJ INTJ
-3.473869	ADP ADJ INTJ
-3.1549304	NOUN DET INTJ
-2.7257366	DET DET INTJ
-3.812603	VERB DET INTJ
-3.4482868	PUNCT DET INTJ
-4.290508	PROPN VERB INTJ
-4.9720964	NOUN VERB INTJ
-4.5609713	ADV VERB INTJ
-4.2886267	NOUN CCONJ INTJ
-2.918667	<s> PUNCT INTJ
-3.1817896	PROPN PUNCT INTJ
-3.9566483	NOUN PUNCT INTJ
-3.5167596	PART PUNCT INTJ
-3.3358364	VERB PUNCT INTJ
-2.2908945	CCONJ PUNCT INTJ
-3.5323625	NUM PUNCT INTJ
-2.8459928	PUNCT PUNCT INTJ
-2.743801	ADP PUNCT INTJ
-2.0187602	X PUNCT INTJ
-2.141413	INTJ PUNCT INTJ
-4.6381874	NOUN ADV INTJ
-4.252563	PUNCT ADV INTJ
-4.1290436	PRON ADV INTJ
-2.8126085	PUNCT X INTJ
-1.8126789	<s> INTJ INTJ
-1.3614091	PART INTJ INTJ
-4.289011	NOUN PROPN SPACE
-5.1833715	NOUN NOUN SPACE
-4.616162	ADJ NOUN SPACE
-4.570363	ADP NOUN SPACE
-3.6989098	NUM PART SPACE
-4.295643	PROPN VERB SPACE
-4.9772315	NOUN VERB SPACE
-4.7520905	VERB VERB SPACE
-4.9887652	ADV VERB SPACE

\end\
