\data\
ngram 1=19
ngram 2=248
ngram 3=2628
ngram 4=17888
ngram 5=76655

\1-grams:
-2.243184	<unk>	0
0	<s>	-3.6021328
-1.2833012	</s>	0
-1.1661369	PROPN	-0.8394258
-1.1661369	NOUN	-0.8399381
-1.2207799	PART	-0.7449653
-1.2207799	ADJ	-0.7619919
-1.2207799	DET	-0.78761554
-1.1661369	VERB	-0.8325141
-1.1925995	CCONJ	-0.65580064
-1.2207799	NUM	-0.81388396
-1.1925995	PUNCT	-0.8625709
-1.1925995	ADV	-0.8029852
-1.1925995	PRON	-0.81584996
-1.1925995	ADP	-0.7862016
-1.2833012	SCONJ	-0.5982084
-1.2207799	X	-0.74063784
-1.3182969	INTJ	-0.35739905
-1.8015351	SPACE	-0.20919852

\2-grams:
-1.2470713	PROPN </s>	0
-1.2339767	NOUN </s>	0
-1.3603524	PART </s>	0
-1.8596922	DET </s>	0
-1.2592956	VERB </s>	0
-1.7744234	CCONJ </s>	0
-1.181422	NUM </s>	0
-1.1742711	PUNCT </s>	0
-1.4857963	ADV </s>	0
-1.4158875	PRON </s>	0
-1.713247	ADP </s>	0
-1.6378527	X </s>	0
-1.3358506	INTJ </s>	0
-0.78520304	<s> PROPN	-2.9598665
-1.1406099	PROPN PROPN	-0.9264976
-1.1601833	NOUN PROPN	-0.9296537
-1.0925697	PART PROPN	-0.78638643
-1.0243002	ADJ PROPN	-0.7791135
-1.068695	DET PROPN	-0.79405564
-1.1802201	VERB PROPN	-0.96997607
-1.074451	CCONJ PROPN	-0.6377181
-1.1331671	NUM PROPN	-0.81387746
-1.1601454	PUNCT PROPN	-0.89665437
-1.1896019	ADV PROPN	-0.76895434
-1.1468972	PRON PROPN	-0.60452926
-1.0873815	ADP PROPN	-0.9212808
-1.230624	SCONJ PROPN	-0.43768772
-1.026964	X PROPN	-0.74482375
-0.97971237	INTJ PROPN	-0.33821157
-0.7351609	SPACE PROPN	-0.34186625
-0.7210645	<s> NOUN	-3.0429184
-1.1146035	PROPN NOUN	-0.9971019
-1.1601833	NOUN NOUN	-1.0012956
-1.0628945	PART NOUN	-0.8818918
-1.0243002	ADJ NOUN	-0.95930207
-1.068695	DET NOUN	-0.9573926
-1.126932	VERB NOUN	-0.9940842
-0.96930766	CCONJ NOUN	-0.7460432
-1.1031678	NUM NOUN	-0.9480525
-1.1601454	PUNCT NOUN	-0.9385072
-1.1005597	ADV NOUN	-0.8446027
-1.1170299	PRON NOUN	-0.83284384
-1.0594367	ADP NOUN	-0.9535856
-0.99797875	SCONJ NOUN	-0.56384325
-0.9966134	X NOUN	-0.7835397
-0.74525326	INTJ NOUN	-0.417788
-0.7351609	SPACE NOUN	-0.34186625
-3.0361946	<s> PART	-1.153863
-1.1476742	PROPN PART	-0.89241576
-1.1675674	NOUN PART	-1.0012981
-1.1679759	PART PART	-0.6452421
-1.0307552	ADJ PART	-0.83107716
-1.1060133	DET PART	-0.700431
-1.1601434	VERB PART	-0.9771339
-1.4399661	CCONJ PART	-0.34038162
-1.1100397	NUM PART	-0.7656138
-1.2254372	PUNCT PART	-0.66219324
-1.1357312	ADV PART	-0.73498905
-1.0957057	PRON PART	-0.81729984
-1.2312429	ADP PART	-0.50797707
-1.2865224	X PART	-0.5343772
-1.1178126	INTJ PART	-0.34058785
-1.853942	<s> ADJ	-2.0450974
-1.1758063	PROPN ADJ	-0.7008042
-1.1955146	NOUN ADJ	-0.79136777
-1.1004382	PART ADJ	-0.6660751
-1.0307552	ADJ ADJ	-0.6374772
-1.0754372	DET ADJ	-0.6854008
-1.1880906	VERB ADJ	-0.8584596
-1.0094432	CCONJ ADJ	-0.58550155
-1.1100397	NUM ADJ	-0.73526704
-1.1953169	PUNCT ADJ	-0.8053045
-1.1357312	ADV ADJ	-0.7202856
-1.1240942	PRON ADJ	-0.6486784
-1.1248204	ADP ADJ	-0.7496524
-1.0554397	SCONJ ADJ	-0.5874501
-1.0029742	X ADJ	-0.6391126
-1.3926138	<s> DET	-2.4682975
-1.1758063	PROPN DET	-0.7397413
-1.1955146	NOUN DET	-0.8141511
-1.1679759	PART DET	-0.65614957
-1.2124251	ADJ DET	-0.52250385
-1.174496	DET DET	-0.6316841
-1.1880906	VERB DET	-0.87455213
-1.1262599	CCONJ DET	-0.63188666
-1.2474524	NUM DET	-0.60081404
-1.1953169	PUNCT DET	-0.7508257
-1.1658515	ADV DET	-0.7243826
-1.2224458	PRON DET	-0.60036355
-1.1248204	ADP DET	-0.8216329
-1.1727444	SCONJ DET	-0.4954035
-1.0669581	X DET	-0.6158757
-0.97019154	<s> VERB	-2.7937908
-1.1146035	PROPN VERB	-0.9870552
-1.1601833	NOUN VERB	-1.0189443
-1.0925697	PART VERB	-0.8776562
-1.054586	ADJ VERB	-0.6885205
-1.068695	DET VERB	-0.86595654
-1.1527593	VERB VERB	-0.99200124
-1.0365037	CCONJ VERB	-0.7279528
-1.1031678	NUM VERB	-0.8646126
-1.1601454	PUNCT VERB	-0.9111214
-1.1282604	ADV VERB	-0.9666307
-1.0890851	PRON VERB	-0.95274764
-1.0873815	ADP VERB	-0.8866251
-0.91613984	SCONJ VERB	-0.70917046
-1.026964	X VERB	-0.82738215
-1.0980939	INTJ VERB	-0.34449568
-0.8518317	SPACE VERB	-0.34802654
-2.1749935	<s> CCONJ	-1.6404688
-1.1720234	PROPN CCONJ	-0.8624876
-1.1915616	NOUN CCONJ	-0.91936445
-1.2881364	PART CCONJ	-0.3878574
-1.1263741	ADJ CCONJ	-0.65262353
-1.8017197	DET CCONJ	-0.34186625
-1.1841376	VERB CCONJ	-0.842731
-1.6612097	CCONJ CCONJ	-0.34058785
-1.2044877	NUM CCONJ	-0.53711075
-1.2214175	PUNCT CCONJ	-0.730488
-1.2661128	ADV CCONJ	-0.62094116
-1.1830308	PRON CCONJ	-0.70297253
-1.5723987	ADP CCONJ	-0.37724325
-1.5869311	SCONJ CCONJ	-0.3398321
-1.7863959	X CCONJ	-0.34802654
-1.3427023	INTJ CCONJ	-0.34802654
-1.4890387	<s> NUM	-2.3153636
-1.1476742	PROPN NUM	-0.7987205
-1.1955146	NOUN NUM	-0.85621274
-1.1679759	PART NUM	-0.64474946
-1.094612	ADJ NUM	-0.68093354
-1.0754372	DET NUM	-0.82743514
-1.1601434	VERB NUM	-0.8950415
-1.0837331	CCONJ NUM	-0.6432691
-1.1100397	NUM NUM	-0.95969653
-1.2254372	PUNCT NUM	-0.77781844
-1.1357312	ADV NUM	-0.799131
-1.1871287	PRON NUM	-0.61029226
-1.0944458	ADP NUM	-0.8139047
-1.2459136	SCONJ NUM	-0.44867998
-1.1028717	X NUM	-0.5427694
-1.4103247	<s> PUNCT	-2.3256373
-1.1441277	PROPN PUNCT	-0.9385072
-1.1378193	NOUN PUNCT	-0.9936625
-1.0964861	PART PUNCT	-0.77153146
-1.1263741	ADJ PUNCT	-0.576342
-1.072053	DET PUNCT	-0.68314725
-1.1564356	VERB PUNCT	-0.9835856
-1.1676788	CCONJ PUNCT	-0.48955554
-1.1065902	NUM PUNCT	-0.8546532
-1.1915654	PUNCT PUNCT	-0.8398974
-1.1040483	ADV PUNCT	-0.7611506
-1.1205477	PRON PUNCT	-0.7772995
-1.0908992	ADP PUNCT	-0.7448727
-1.3245322	SCONJ PUNCT	-0.33967242
-1.0632615	X PUNCT	-0.56746864
-0.892751	INTJ PUNCT	-0.38020447
-0.72216856	<s> ADV	-3.0418167
-1.1720234	PROPN ADV	-0.8337719
-1.1378193	NOUN ADV	-0.9503997
-1.1286383	PART ADV	-0.6318773
-1.0908616	ADJ ADV	-0.56630963
-1.1349919	DET ADV	-0.69978684
-1.1564356	VERB ADV	-0.90464175
-1.0407319	CCONJ ADV	-0.6444858
-1.1065902	NUM ADV	-0.70807374
-1.1636341	PUNCT ADV	-0.823848
-1.1040483	ADV ADV	-0.8431237
-1.1506665	PRON ADV	-0.8033439
-1.121018	ADP ADV	-0.7553262
-0.95913625	SCONJ ADV	-0.5333712
-1.1376343	X ADV	-0.5460461
-1.288532	INTJ ADV	-0.34802654
-0.95582366	<s> PRON	-2.8081627
-1.2684016	PROPN PRON	-0.7225681
-1.1915616	NOUN PRON	-0.80690813
-1.201106	PART PRON	-0.5733801
-1.4372793	ADJ PRON	-0.3414081
-1.2086234	DET PRON	-0.5786198
-1.1841376	VERB PRON	-0.908544
-1.1676788	CCONJ PRON	-0.57675236
-1.2846588	NUM PRON	-0.49226972
-1.1636341	PUNCT PRON	-0.8001747
-1.1938883	ADV PRON	-0.69734895
-1.1506665	PRON PRON	-0.71201336
-1.0908992	ADP PRON	-0.86821187
-1.0023975	SCONJ PRON	-0.5135512
-1.1376343	X PRON	-0.6185157
-1.2756299	INTJ PRON	-0.34186625
-1.0856	<s> ADP	-2.698397
-1.1720234	PROPN ADP	-0.8480727
-1.1915616	NOUN ADP	-0.9111214
-1.201106	PART ADP	-0.6308529
-1.1650512	ADJ ADP	-0.5138869
-1.1023833	DET ADP	-0.68430334
-1.1841376	VERB ADP	-0.92691696
-1.121117	CCONJ ADP	-0.54985934
-1.1368353	NUM ADP	-0.73217046
-1.1915654	PUNCT ADP	-0.79576015
-1.1319797	ADV ADP	-0.87235814
-1.1506665	PRON ADP	-0.85303956
-1.121018	ADP ADP	-0.7180632
-1.0023975	SCONJ ADP	-0.5802553
-1.22743	X ADP	-0.42607078
-1.2756299	INTJ ADP	-0.3398321
-1.7108729	<s> SCONJ	-2.1501024
-1.4647918	PROPN SCONJ	-0.48855865
-1.2667197	NOUN SCONJ	-0.68194854
-1.8329762	PART SCONJ	-0.34186625
-1.905378	DET SCONJ	-0.34802654
-1.3332705	VERB SCONJ	-0.5923946
-1.7179545	CCONJ SCONJ	-0.34802654
-1.8895748	NUM SCONJ	-0.34802654
-1.3023119	PUNCT SCONJ	-0.69299453
-1.4857963	ADV SCONJ	-0.40161008
-1.4774967	PRON SCONJ	-0.45589498
-1.6057585	ADP SCONJ	-0.33753502
-1.6413971	SCONJ SCONJ	-0.34802654
-2.5598679	<s> X	-1.3808013
-1.2731296	PROPN X	-0.63764894
-1.1955146	NOUN X	-0.8454202
-1.2942964	PART X	-0.47244713
-1.6363957	ADJ X	-0.34309134
-1.174496	DET X	-0.5235134
-1.2179606	VERB X	-0.7897438
-1.3565181	CCONJ X	-0.42034915
-1.3368772	NUM X	-0.51663864
-1.2578031	PUNCT X	-0.61208034
-1.1982174	ADV X	-0.7854988
-1.2608913	PRON X	-0.62956583
-1.1927974	ADP X	-0.5829116
-1.2459136	SCONJ X	-0.3940647
-1.4191546	X X	-0.3710739
-3.1055949	<s> INTJ	-0.88318187
-1.6921457	PROPN INTJ	-0.33953553
-1.952548	NOUN INTJ	-0.34802654
-1.6982405	PART INTJ	-0.34104198
-1.846421	ADJ INTJ	-0.33579212
-1.7161328	DET INTJ	-0.43622324
-1.9451239	VERB INTJ	-0.34186625
-1.7980676	CCONJ INTJ	-0.34802654
-1.3465384	PUNCT INTJ	-0.5490384
-1.9054741	ADV INTJ	-0.34802654
-1.8721647	X INTJ	-0.34802654
-1.3528429	INTJ INTJ	-0.33579212
-2.2704608	PROPN SPACE	-0.34802654
-2.1876767	NOUN SPACE	-0.34802654
-2.1686375	PART SPACE	-0.34802654
-1.9620384	VERB SPACE	-0.33579212

\3-grams:
-2.1991782	<s> PROPN </s>	0
-1.252214	PROPN PROPN </s>	0
-1.2296944	NOUN PROPN </s>	0
-1.2032505	PART PROPN </s>	0
-1.5835283	ADJ PROPN </s>	0
-1.4800411	DET PROPN </s>	0
-1.3337555	VERB PROPN </s>	0
-1.4908835	CCONJ PROPN </s>	0
-1.4911814	NUM PROPN </s>	0
-1.3296794	PUNCT PROPN </s>	0
-1.7135495	ADV PROPN </s>	0
-1.4006894	PRON PROPN </s>	0
-1.4752519	ADP PROPN </s>	0
-2.4260573	<s> NOUN </s>	0
-1.240975	PROPN NOUN </s>	0
-1.261649	NOUN NOUN </s>	0
-1.2062149	PART NOUN </s>	0
-1.2196555	ADJ NOUN </s>	0
-1.3805358	DET NOUN </s>	0
-1.2462938	VERB NOUN </s>	0
-1.473218	CCONJ NOUN </s>	0
-1.1919255	NUM NOUN </s>	0
-1.2628304	PUNCT NOUN </s>	0
-1.4776474	ADV NOUN </s>	0
-1.3764007	PRON NOUN </s>	0
-1.5789046	ADP NOUN </s>	0
-1.7162448	X NOUN </s>	0
-1.441688	PROPN PART </s>	0
-1.2565361	NOUN PART </s>	0
-1.7362865	PART PART </s>	0
-1.323577	VERB PART </s>	0
-1.6539099	NUM PART </s>	0
-1.7760416	PUNCT PART </s>	0
-1.8591176	ADV PART </s>	0
-1.9551244	PRON PART </s>	0
-1.8010541	PROPN DET </s>	0
-2.1496215	NOUN DET </s>	0
-2.8611386	<s> VERB </s>	0
-1.2500299	PROPN VERB </s>	0
-1.1836017	NOUN VERB </s>	0
-1.35644	PART VERB </s>	0
-1.5052121	ADJ VERB </s>	0
-1.2852974	VERB VERB </s>	0
-1.6785969	CCONJ VERB </s>	0
-1.4885726	NUM VERB </s>	0
-1.6528196	PUNCT VERB </s>	0
-1.2460706	ADV VERB </s>	0
-1.3797097	PRON VERB </s>	0
-1.8424242	ADP VERB </s>	0
-1.3594218	X VERB </s>	0
-2.9708152	<s> CCONJ </s>	0
-1.8218985	<s> NUM </s>	0
-1.3718065	PROPN NUM </s>	0
-1.3727454	NOUN NUM </s>	0
-1.6399437	PART NUM </s>	0
-1.6174296	ADJ NUM </s>	0
-1.7380753	DET NUM </s>	0
-1.2328398	VERB NUM </s>	0
-1.543559	CCONJ NUM </s>	0
-1.277195	NUM NUM </s>	0
-1.3425992	PUNCT NUM </s>	0
-1.3804573	ADV NUM </s>	0
-1.8093066	ADP NUM </s>	0
-1.3685236	X NUM </s>	0
-0.9774979	<s> PUNCT </s>	0
-1.1043714	PROPN PUNCT </s>	0
-1.1595267	NOUN PUNCT </s>	0
-0.95898986	PART PUNCT </s>	0
-1.414903	ADJ PUNCT </s>	0
-0.86883384	DET PUNCT </s>	0
-1.1215979	VERB PUNCT </s>	0
-1.1539266	CCONJ PUNCT </s>	0
-1.0421115	NUM PUNCT </s>	0
-1.0057616	PUNCT PUNCT </s>	0
-0.92283255	ADV PUNCT </s>	0
-0.91066474	PRON PUNCT </s>	0
-1.1414316	ADP PUNCT </s>	0
-1.1364992	SCONJ PUNCT </s>	0
-0.812055	X PUNCT </s>	0
-0.7324147	INTJ PUNCT </s>	0
-3.345953	<s> ADV </s>	0
-1.7684122	PROPN ADV </s>	0
-1.6420121	NOUN ADV </s>	0
-1.6875734	VERB ADV </s>	0
-2.046464	PUNCT ADV </s>	0
-1.7848965	ADV ADV </s>	0
-0.8167815	INTJ ADV </s>	0
-3.7422974	<s> PRON </s>	0
-1.7344977	NOUN PRON </s>	0
-1.4396335	PART PRON </s>	0
-1.4182205	VERB PRON </s>	0
-1.7096385	CCONJ PRON </s>	0
-1.8388135	PUNCT PRON </s>	0
-1.8674349	ADV PRON </s>	0
-2.0337496	ADP PRON </s>	0
-4.0245476	<s> ADP </s>	0
-2.1617272	PROPN ADP </s>	0
-1.9227897	NOUN ADP </s>	0
-2.1096208	PUNCT ADP </s>	0
-1.6933609	PROPN X </s>	0
-2.04642	VERB X </s>	0
-1.2065779	PUNCT X </s>	0
-1.3082658	X X </s>	0
-1.3553873	<s> INTJ </s>	0
-1.4057564	PUNCT INTJ </s>	0
-0.9578494	<s> PROPN PROPN	-1.9958808
-1.0635748	PROPN PROPN PROPN	-0.73002255
-1.1448163	NOUN PROPN PROPN	-0.7620005
-1.0897692	PART PROPN PROPN	-0.5362528
-0.91546386	ADJ PROPN PROPN	-0.54091686
-1.000621	DET PROPN PROPN	-0.5063932
-1.1277789	VERB PROPN PROPN	-0.72551394
-0.9692219	CCONJ PROPN PROPN	-0.4329255
-1.0098888	NUM PROPN PROPN	-0.46720585
-1.1037856	PUNCT PROPN PROPN	-0.7159486
-1.004545	ADV PROPN PROPN	-0.4632821
-0.9700112	PRON PROPN PROPN	-0.47640207
-1.0882823	ADP PROPN PROPN	-0.7157531
-0.9855195	SCONJ PROPN PROPN	-0.3409437
-1.0502123	X PROPN PROPN	-0.4682277
-0.8511031	INTJ PROPN PROPN	-0.31380695
-1.275089	<s> NOUN PROPN	-1.7547864
-1.1362852	PROPN NOUN PROPN	-0.82848364
-1.1570907	NOUN NOUN PROPN	-0.81898975
-1.1964228	PART NOUN PROPN	-0.60620713
-1.1448271	ADJ NOUN PROPN	-0.7555052
-1.1584947	DET NOUN PROPN	-0.5176356
-1.1416698	VERB NOUN PROPN	-0.73709583
-1.1489146	CCONJ NOUN PROPN	-0.41712207
-1.1837739	NUM NOUN PROPN	-0.5743301
-1.1742285	PUNCT NOUN PROPN	-0.6405783
-1.2046436	ADV NOUN PROPN	-0.4171891
-1.1390197	PRON NOUN PROPN	-0.3612668
-1.0834583	ADP NOUN PROPN	-0.6745155
-1.4109246	SCONJ NOUN PROPN	-0.3105629
-1.1001978	X NOUN PROPN	-0.44990152
-0.7713574	SPACE NOUN PROPN	-0.31380695
-1.9732094	<s> PART PROPN	-0.31380695
-1.0272827	PROPN PART PROPN	-0.6825891
-1.1335658	NOUN PART PROPN	-0.7634284
-0.8681222	PART PART PROPN	-0.3943805
-0.9040879	ADJ PART PROPN	-0.5339417
-0.74787486	DET PART PROPN	-0.4160475
-1.1176702	VERB PART PROPN	-0.7905883
-1.0603887	CCONJ PART PROPN	-0.31380695
-0.99441946	NUM PART PROPN	-0.47282335
-1.1059885	PUNCT PART PROPN	-0.36134276
-1.197367	ADV PART PROPN	-0.34436935
-0.9747119	PRON PART PROPN	-0.5314644
-1.0184997	ADP PART PROPN	-0.31201974
-0.76573646	INTJ PART PROPN	-0.3093526
-1.3457327	<s> ADJ PROPN	-0.91658044
-0.91445696	PROPN ADJ PROPN	-0.46500054
-0.92958945	NOUN ADJ PROPN	-0.4859116
-0.98227733	PART ADJ PROPN	-0.41924304
-1.1757568	ADJ ADJ PROPN	-0.28933224
-0.8754779	DET ADJ PROPN	-0.44788805
-0.93674123	VERB ADJ PROPN	-0.5554918
-1.0890564	CCONJ ADJ PROPN	-0.29509112
-0.9237143	NUM ADJ PROPN	-0.39830723
-0.9957678	PUNCT ADJ PROPN	-0.44763103
-1.0076432	ADV ADJ PROPN	-0.34349686
-1.100182	PRON ADJ PROPN	-0.31157407
-0.8631305	ADP ADJ PROPN	-0.5734935
-1.0373653	SCONJ ADJ PROPN	-0.31380695
-1.0997792	X ADJ PROPN	-0.31083232
-1.4425567	<s> DET PROPN	-1.0956202
-0.8719943	PROPN DET PROPN	-0.4402474
-1.0422426	NOUN DET PROPN	-0.42542708
-1.0089399	PART DET PROPN	-0.46052396
-1.3502482	ADJ DET PROPN	-0.31380695
-1.0041257	DET DET PROPN	-0.46149063
-1.0196303	VERB DET PROPN	-0.53444946
-1.1215969	CCONJ DET PROPN	-0.3557916
-1.1523156	NUM DET PROPN	-0.31157407
-1.0245637	PUNCT DET PROPN	-0.47697023
-1.1442642	ADV DET PROPN	-0.34074694
-1.2938406	PRON DET PROPN	-0.31083232
-0.9712958	ADP DET PROPN	-0.5192206
-1.0105126	SCONJ DET PROPN	-0.29411814
-0.8115944	X DET PROPN	-0.4072065
-0.97734076	<s> VERB PROPN	-1.7934741
-1.144793	PROPN VERB PROPN	-0.75705403
-1.1766822	NOUN VERB PROPN	-0.87570584
-1.1070845	PART VERB PROPN	-0.5473172
-1.2351595	ADJ VERB PROPN	-0.30297667
-0.98055875	DET VERB PROPN	-0.59861237
-1.1414932	VERB VERB PROPN	-0.8313747
-1.1086072	CCONJ VERB PROPN	-0.46875668
-1.0849004	NUM VERB PROPN	-0.5911866
-1.1143806	PUNCT VERB PROPN	-0.6665394
-1.1409438	ADV VERB PROPN	-0.7971115
-1.1237909	PRON VERB PROPN	-0.66889197
-1.0978249	ADP VERB PROPN	-0.6474341
-1.1310028	SCONJ VERB PROPN	-0.4187511
-1.1185313	X VERB PROPN	-0.41467682
-1.012759	<s> CCONJ PROPN	-0.74536806
-0.84618515	PROPN CCONJ PROPN	-0.75931776
-1.0037225	NOUN CCONJ PROPN	-0.7179019
-1.0250453	PART CCONJ PROPN	-0.31083232
-1.252728	ADJ CCONJ PROPN	-0.31380695
-1.137799	VERB CCONJ PROPN	-0.4399975
-1.2245978	NUM CCONJ PROPN	-0.30082312
-0.9945651	PUNCT CCONJ PROPN	-0.43887907
-1.0470517	ADV CCONJ PROPN	-0.30935264
-0.9262748	PRON CCONJ PROPN	-0.41139475
-0.9027886	ADP CCONJ PROPN	-0.31157407
-1.3795232	<s> NUM PROPN	-1.0807678
-1.1017725	PROPN NUM PROPN	-0.4398952
-1.1411997	NOUN NUM PROPN	-0.4311902
-1.1605043	PART NUM PROPN	-0.37570578
-1.0778104	ADJ NUM PROPN	-0.2973382
-1.1034534	DET NUM PROPN	-0.4724726
-1.0665033	VERB NUM PROPN	-0.537704
-1.0563084	CCONJ NUM PROPN	-0.4774885
-1.0962319	NUM NUM PROPN	-0.7534274
-1.0714908	PUNCT NUM PROPN	-0.4487143
-1.1115125	ADV NUM PROPN	-0.4118161
-1.2676349	PRON NUM PROPN	-0.31157407
-1.1181974	ADP NUM PROPN	-0.40220892
-1.1009711	X NUM PROPN	-0.31157407
-0.5700101	<s> PUNCT PROPN	-1.7490985
-1.1029654	PROPN PUNCT PROPN	-0.7835947
-1.130356	NOUN PUNCT PROPN	-0.8323787
-1.1022207	PART PUNCT PROPN	-0.55412436
-0.8983454	ADJ PUNCT PROPN	-0.29922706
-0.9683934	DET PUNCT PROPN	-0.4076723
-1.1480438	VERB PUNCT PROPN	-0.7640583
-0.83878654	CCONJ PUNCT PROPN	-0.35720113
-1.144401	NUM PUNCT PROPN	-0.5706264
-1.0340172	PUNCT PUNCT PROPN	-0.6470263
-1.1129827	ADV PUNCT PROPN	-0.46820846
-0.9767096	PRON PUNCT PROPN	-0.4606128
-0.92790455	ADP PUNCT PROPN	-0.57718843
-0.9412845	SCONJ PUNCT PROPN	-0.31157407
-0.86362004	X PUNCT PROPN	-0.46883658
-1.2774823	INTJ PUNCT PROPN	-0.31380695
-1.3382384	<s> ADV PROPN	-1.7005522
-1.1727332	PROPN ADV PROPN	-0.39062682
-1.197764	NOUN ADV PROPN	-0.52888066
-1.4289752	PART ADV PROPN	-0.30315512
-1.1327869	DET ADV PROPN	-0.31231707
-1.164078	VERB ADV PROPN	-0.544306
-1.260259	CCONJ ADV PROPN	-0.29841655
-1.3691381	NUM ADV PROPN	-0.31201974
-1.1796621	PUNCT ADV PROPN	-0.5666224
-1.1906205	ADV ADV PROPN	-0.43233293
-1.1940621	PRON ADV PROPN	-0.36004388
-1.159492	ADP ADV PROPN	-0.33537894
-1.3625089	SCONJ ADV PROPN	-0.31380695
-2.399865	<s> PRON PROPN	-0.6501132
-1.0172037	PROPN PRON PROPN	-0.3535342
-1.1566535	NOUN PRON PROPN	-0.33522588
-1.4387534	PART PRON PROPN	-0.31380695
-1.0280776	ADJ PRON PROPN	-0.31380695
-1.2211543	VERB PRON PROPN	-0.4606128
-1.4300635	CCONJ PRON PROPN	-0.31380695
-1.4219091	NUM PRON PROPN	-0.31380695
-1.2581979	PUNCT PRON PROPN	-0.40283668
-1.6951119	ADV PRON PROPN	-0.31380695
-1.6487392	PRON PRON PROPN	-0.31380695
-1.1365472	ADP PRON PROPN	-0.40694413
-1.4671724	SCONJ PRON PROPN	-0.31380695
-1.3762656	X PRON PROPN	-0.31083232
-0.7207089	<s> ADP PROPN	-1.9445989
-0.94313574	PROPN ADP PROPN	-0.77879584
-1.0428177	NOUN ADP PROPN	-0.8446277
-1.0114657	PART ADP PROPN	-0.41467682
-0.66266	ADJ ADP PROPN	-0.46935442
-0.8060401	DET ADP PROPN	-0.49767345
-0.9819577	VERB ADP PROPN	-0.8035456
-0.74832946	CCONJ ADP PROPN	-0.42761153
-0.7888364	NUM ADP PROPN	-0.5262723
-0.9525666	PUNCT ADP PROPN	-0.6505222
-0.98949856	ADV ADP PROPN	-0.7197904
-0.9488787	PRON ADP PROPN	-0.6619124
-0.81377643	ADP ADP PROPN	-0.5723003
-0.86601883	SCONJ ADP PROPN	-0.38714814
-0.82496893	X ADP PROPN	-0.37329936
-0.9658204	<s> SCONJ PROPN	-1.1580148
-1.2640235	NOUN SCONJ PROPN	-0.29590368
-0.9242413	VERB SCONJ PROPN	-0.39854196
-0.92714417	NUM SCONJ PROPN	-0.31380695
-0.9993237	PUNCT SCONJ PROPN	-0.41834402
-1.1018405	ADV SCONJ PROPN	-0.31125602
-1.0752885	<s> X PROPN	-0.5074435
-0.8946783	PROPN X PROPN	-0.42415392
-1.0064485	NOUN X PROPN	-0.54398215
-1.0199672	PART X PROPN	-0.30478886
-0.89000034	DET X PROPN	-0.31201974
-1.0117892	VERB X PROPN	-0.46643397
-1.0834183	CCONJ X PROPN	-0.31380695
-0.9762352	NUM X PROPN	-0.31201974
-1.0997305	PUNCT X PROPN	-0.36356717
-0.99982995	ADV X PROPN	-0.5212001
-0.9344679	PRON X PROPN	-0.30275774
-0.91248965	ADP X PROPN	-0.31083232
-0.9778328	SCONJ X PROPN	-0.31083232
-0.80820066	X X PROPN	-0.31231707
-1.3844235	<s> INTJ PROPN	-0.31157407
-0.8972215	PROPN INTJ PROPN	-0.31380695
-0.63680494	NOUN INTJ PROPN	-0.31380695
-0.9721631	PUNCT INTJ PROPN	-0.31380695
-0.22308119	X INTJ PROPN	-0.31380695
-0.5745818	NOUN SPACE PROPN	-0.31380695
-0.19801335	PART SPACE PROPN	-0.31380695
-0.45080292	VERB SPACE PROPN	-0.31380695
-0.51955026	<s> PROPN NOUN	-2.404233
-1.0332698	PROPN PROPN NOUN	-0.7854486
-1.0531846	NOUN PROPN NOUN	-0.8248193
-1.0079533	PART PROPN NOUN	-0.6781118
-0.8148574	ADJ PROPN NOUN	-0.7351976
-0.8924598	DET PROPN NOUN	-0.6924294
-1.09539	VERB PROPN NOUN	-0.8483668
-0.87882864	CCONJ PROPN NOUN	-0.5163358
-0.90149105	NUM PROPN NOUN	-0.6810544
-1.0395966	PUNCT PROPN NOUN	-0.7681378
-0.92908734	ADV PROPN NOUN	-0.6539913
-0.7651008	PRON PROPN NOUN	-0.52763665
-1.0559092	ADP PROPN NOUN	-0.8010164
-0.87149817	SCONJ PROPN NOUN	-0.32651615
-0.8316315	X PROPN NOUN	-0.5217927
-0.84483284	INTJ PROPN NOUN	-0.31380695
-0.5168587	SPACE PROPN NOUN	-0.31380695
-0.5312783	<s> NOUN NOUN	-2.4566607
-1.1083494	PROPN NOUN NOUN	-0.87466383
-1.1570907	NOUN NOUN NOUN	-0.9160604
-1.0509319	PART NOUN NOUN	-0.7531912
-1.115097	ADJ NOUN NOUN	-0.83687526
-1.0965757	DET NOUN NOUN	-0.76958156
-1.087592	VERB NOUN NOUN	-0.88111174
-0.9384739	CCONJ NOUN NOUN	-0.57876706
-1.0872357	NUM NOUN NOUN	-0.78085595
-1.0776904	PUNCT NOUN NOUN	-0.7835947
-1.0136429	ADV NOUN NOUN	-0.6470263
-1.0252745	PRON NOUN NOUN	-0.63355213
-1.0554621	ADP NOUN NOUN	-0.84574264
-0.84947526	SCONJ NOUN NOUN	-0.42440286
-0.9064399	X NOUN NOUN	-0.64730245
-0.611635	INTJ NOUN NOUN	-0.31157407
-1.0328517	<s> PART NOUN	-0.30236155
-0.99453735	PROPN PART NOUN	-0.84336776
-1.1029105	NOUN PART NOUN	-0.9047205
-0.7758727	PART PART NOUN	-0.5516343
-0.8387108	ADJ PART NOUN	-0.793537
-0.59293056	DET PART NOUN	-0.6533607
-1.1142538	VERB PART NOUN	-0.8835312
-1.0475559	CCONJ PART NOUN	-0.31380695
-0.8581203	NUM PART NOUN	-0.74401456
-0.7652445	PUNCT PART NOUN	-0.6085197
-0.8594432	ADV PART NOUN	-0.59577984
-0.8825315	PRON PART NOUN	-0.7585925
-0.8191349	ADP PART NOUN	-0.31125602
-0.35159382	X PART NOUN	-0.29985854
-0.61676514	INTJ PART NOUN	-0.31157407
-0.12681305	<s> ADJ NOUN	-1.7602804
-0.692821	PROPN ADJ NOUN	-0.7963998
-0.7954621	NOUN ADJ NOUN	-0.8126631
-0.7760984	PART ADJ NOUN	-0.6735554
-0.39788422	ADJ ADJ NOUN	-0.733181
-0.6521672	DET ADJ NOUN	-0.70968723
-0.90724355	VERB ADJ NOUN	-0.7945084
-0.5573446	CCONJ ADJ NOUN	-0.54443556
-0.6441753	NUM ADJ NOUN	-0.72308517
-0.85084474	PUNCT ADJ NOUN	-0.6577323
-0.7027748	ADV ADJ NOUN	-0.6882312
-0.5537743	PRON ADJ NOUN	-0.58725893
-0.7580877	ADP ADJ NOUN	-0.7197558
-0.30056095	SCONJ ADJ NOUN	-0.35959136
-0.32575414	X ADJ NOUN	-0.6002405
-0.2208357	<s> DET NOUN	-2.0955708
-0.79868585	PROPN DET NOUN	-0.62960947
-0.86717576	NOUN DET NOUN	-0.72502524
-0.81163245	PART DET NOUN	-0.54741424
-0.5401485	ADJ DET NOUN	-0.4788184
-0.8085697	DET DET NOUN	-0.5833382
-0.9583178	VERB DET NOUN	-0.7681378
-0.86290616	CCONJ DET NOUN	-0.5289551
-0.50467443	NUM DET NOUN	-0.52739793
-0.83391243	PUNCT DET NOUN	-0.6470263
-0.84156233	ADV DET NOUN	-0.59456104
-0.7071037	PRON DET NOUN	-0.5346421
-0.90471965	ADP DET NOUN	-0.7113004
-0.6419828	SCONJ DET NOUN	-0.34624583
-0.7648304	X DET NOUN	-0.5219049
-0.6071514	<s> VERB NOUN	-2.161604
-1.1394426	PROPN VERB NOUN	-0.79794717
-1.1437179	NOUN VERB NOUN	-0.90042466
-1.0345064	PART VERB NOUN	-0.6615653
-0.8728007	ADJ VERB NOUN	-0.56758124
-0.9757114	DET VERB NOUN	-0.6327276
-1.1362427	VERB VERB NOUN	-0.8696967
-0.92412156	CCONJ VERB NOUN	-0.5739071
-1.0122728	NUM VERB NOUN	-0.62161255
-1.0470244	PUNCT VERB NOUN	-0.7659994
-1.1353866	ADV VERB NOUN	-0.853568
-1.0609186	PRON VERB NOUN	-0.7430515
-0.9953129	ADP VERB NOUN	-0.72308517
-1.062915	SCONJ VERB NOUN	-0.50054246
-0.99794436	X VERB NOUN	-0.6162455
-0.94874024	INTJ VERB NOUN	-0.31380695
-0.23300618	SPACE VERB NOUN	-0.31380695
-0.6789524	<s> CCONJ NOUN	-1.0942109
-0.86629534	PROPN CCONJ NOUN	-0.6621527
-0.9917191	NOUN CCONJ NOUN	-0.85614544
-0.851148	PART CCONJ NOUN	-0.31009182
-0.7372996	ADJ CCONJ NOUN	-0.33465585
-0.72893435	DET CCONJ NOUN	-0.31380695
-0.8527982	VERB CCONJ NOUN	-0.6611645
-0.92848647	CCONJ CCONJ NOUN	-0.31380695
-0.70607185	NUM CCONJ NOUN	-0.4469401
-0.97653526	PUNCT CCONJ NOUN	-0.4915876
-0.8154553	ADV CCONJ NOUN	-0.4123508
-0.7337368	PRON CCONJ NOUN	-0.5346421
-0.57980126	ADP CCONJ NOUN	-0.29965296
-0.38928732	SCONJ CCONJ NOUN	-0.31380695
-0.52798337	<s> NUM NOUN	-1.7239631
-0.8760072	PROPN NUM NOUN	-0.6969174
-0.9627813	NOUN NUM NOUN	-0.7418141
-0.7651167	PART NUM NOUN	-0.5162442
-0.6640017	ADJ NUM NOUN	-0.54642886
-0.9246105	DET NUM NOUN	-0.7565191
-1.031279	VERB NUM NOUN	-0.7808285
-0.85489863	CCONJ NUM NOUN	-0.55331445
-1.0931131	NUM NUM NOUN	-0.8696967
-0.87510777	PUNCT NUM NOUN	-0.66090775
-0.8863414	ADV NUM NOUN	-0.7033308
-0.7244103	PRON NUM NOUN	-0.41758853
-0.89962685	ADP NUM NOUN	-0.65627104
-0.7607524	SCONJ NUM NOUN	-0.34349686
-0.7169821	X NUM NOUN	-0.508971
-0.72390676	<s> PUNCT NOUN	-1.6287816
-1.1029654	PROPN PUNCT NOUN	-0.7585925
-1.1581206	NOUN PUNCT NOUN	-0.88111174
-1.0612792	PART PUNCT NOUN	-0.6014074
-0.6918708	ADJ PUNCT NOUN	-0.55985385
-0.74964935	DET PUNCT NOUN	-0.5912652
-1.1202792	VERB PUNCT NOUN	-0.8241583
-0.89815027	CCONJ PUNCT NOUN	-0.3791347
-1.0725453	NUM PUNCT NOUN	-0.6518517
-1.1783401	PUNCT PUNCT NOUN	-0.6161172
-0.98828393	ADV PUNCT NOUN	-0.5593689
-1.0147548	PRON PUNCT NOUN	-0.4315163
-0.92790455	ADP PUNCT NOUN	-0.6108974
-0.8067169	SCONJ PUNCT NOUN	-0.28933224
-0.7629419	X PUNCT NOUN	-0.45512748
-1.1212494	INTJ PUNCT NOUN	-0.31380695
-0.9776001	<s> ADV NOUN	-2.0201824
-1.1139818	PROPN ADV NOUN	-0.59679526
-1.091821	NOUN ADV NOUN	-0.74675614
-1.0874076	PART ADV NOUN	-0.3311033
-0.7154525	ADJ ADV NOUN	-0.29841655
-1.0469637	DET ADV NOUN	-0.33853987
-1.0494593	VERB ADV NOUN	-0.62519145
-1.0504887	CCONJ ADV NOUN	-0.28774863
-0.94085944	NUM ADV NOUN	-0.41459826
-1.0801808	PUNCT ADV NOUN	-0.6117482
-1.131767	ADV ADV NOUN	-0.55064934
-1.178636	PRON ADV NOUN	-0.5013297
-0.9465972	ADP ADV NOUN	-0.556081
-1.0823944	SCONJ ADV NOUN	-0.32149157
-0.83178765	X ADV NOUN	-0.3564085
-0.760907	INTJ ADV NOUN	-0.31380695
-1.4079223	<s> PRON NOUN	-1.4201685
-0.768003	PROPN PRON NOUN	-0.47584778
-0.99447936	NOUN PRON NOUN	-0.42818677
-1.1037802	PART PRON NOUN	-0.30628753
-1.0174928	ADJ PRON NOUN	-0.31380695
-1.0023043	DET PRON NOUN	-0.31083232
-1.0434257	VERB PRON NOUN	-0.6620971
-1.0065525	CCONJ PRON NOUN	-0.35587746
-1.1655655	NUM PRON NOUN	-0.31231707
-1.0593004	PUNCT PRON NOUN	-0.53954583
-1.0160594	ADV PRON NOUN	-0.40381578
-0.9888666	PRON PRON NOUN	-0.39190957
-1.0187784	ADP PRON NOUN	-0.6270945
-1.0884323	SCONJ PRON NOUN	-0.28986102
-0.8678156	X PRON NOUN	-0.32058042
-0.44195598	<s> ADP NOUN	-2.2231612
-0.9402078	PROPN ADP NOUN	-0.782512
-1.039633	NOUN ADP NOUN	-0.86033845
-0.7365728	PART ADP NOUN	-0.50314784
-0.51936346	ADJ ADP NOUN	-0.3791347
-0.7295305	DET ADP NOUN	-0.5395921
-0.9792867	VERB ADP NOUN	-0.810096
-0.8562697	CCONJ ADP NOUN	-0.4285106
-0.71805614	NUM ADP NOUN	-0.6241176
-0.9176273	PUNCT ADP NOUN	-0.67000675
-0.9247279	ADV ADP NOUN	-0.7736127
-0.94594556	PRON ADP NOUN	-0.6621527
-0.8489554	ADP ADP NOUN	-0.5171004
-0.74864525	SCONJ ADP NOUN	-0.46720585
-0.61514336	X ADP NOUN	-0.36356717
-0.39918804	INTJ ADP NOUN	-0.31380695
-0.6200017	<s> SCONJ NOUN	-1.4528476
-0.8935922	PROPN SCONJ NOUN	-0.31380695
-0.7961843	NOUN SCONJ NOUN	-0.41356626
-0.9406813	PART SCONJ NOUN	-0.31380695
-0.8290708	VERB SCONJ NOUN	-0.46542352
-0.86340165	NUM SCONJ NOUN	-0.31380695
-0.91386104	PUNCT SCONJ NOUN	-0.4900859
-0.88570243	ADV SCONJ NOUN	-0.3105629
-1.2117058	PRON SCONJ NOUN	-0.31380695
-0.9281978	ADP SCONJ NOUN	-0.31380695
-0.41730106	<s> X NOUN	-0.88449633
-0.8893714	PROPN X NOUN	-0.41116768
-0.8994712	NOUN X NOUN	-0.64133525
-0.83392805	PART X NOUN	-0.37860703
-0.5831523	ADJ X NOUN	-0.31380695
-0.88318413	DET X NOUN	-0.37329936
-0.86480016	VERB X NOUN	-0.60506094
-0.8179025	CCONJ X NOUN	-0.34658056
-0.5255345	NUM X NOUN	-0.3791347
-0.757225	PUNCT X NOUN	-0.5097626
-0.83684343	ADV X NOUN	-0.6236248
-0.74688494	PRON X NOUN	-0.46980807
-0.6878606	ADP X NOUN	-0.4393912
-0.68980294	SCONJ X NOUN	-0.29509112
-0.6385593	X X NOUN	-0.3017898
-1.3919778	<s> INTJ NOUN	-0.31380695
-0.57768565	NOUN INTJ NOUN	-0.31380695
-0.71616566	PART INTJ NOUN	-0.31380695
-0.20660222	ADJ INTJ NOUN	-0.31380695
-0.7542369	DET INTJ NOUN	-0.31380695
-0.6582797	VERB INTJ NOUN	-0.31380695
-0.19931485	CCONJ INTJ NOUN	-0.31380695
-1.1133212	PUNCT INTJ NOUN	-0.31380695
-0.19801335	PROPN SPACE NOUN	-0.31380695
-0.5745818	NOUN SPACE NOUN	-0.31380695
-0.45080292	VERB SPACE NOUN	-0.31380695
-1.205231	<s> PROPN PART	-1.8532153
-1.0940431	PROPN PROPN PART	-0.6725055
-1.1138355	NOUN PROPN PART	-0.7143128
-1.0907898	PART PROPN PART	-0.49314407
-1.0439909	ADJ PROPN PART	-0.45931002
-0.928051	DET PROPN PART	-0.5525085
-1.0986668	VERB PROPN PART	-0.7710174
-0.9245259	CCONJ PROPN PART	-0.44363007
-0.9044938	NUM PROPN PART	-0.55064934
-1.104603	PUNCT PROPN PART	-0.6382876
-0.96750516	ADV PROPN PART	-0.49026963
-1.0410254	PRON PROPN PART	-0.3241978
-1.0890276	ADP PROPN PART	-0.7327146
-1.2391695	SCONJ PROPN PART	-0.31125602
-0.9513251	X PROPN PART	-0.40735152
-1.0565274	INTJ PROPN PART	-0.31380695
-1.1144111	<s> NOUN PART	-1.927386
-1.109004	PROPN NOUN PART	-0.8343596
-1.1299464	NOUN NOUN PART	-0.895783
-1.0516798	PART NOUN PART	-0.6399541
-1.1158226	ADJ NOUN PART	-0.81052476
-1.097274	DET NOUN PART	-0.7772167
-1.1423817	VERB NOUN PART	-0.8768326
-1.0118371	CCONJ NOUN PART	-0.58048695
-1.0879339	NUM NOUN PART	-0.7571646
-1.0783886	PUNCT NOUN PART	-0.67641675
-1.0143907	ADV NOUN PART	-0.67440915
-0.96389884	PRON NOUN PART	-0.6224128
-1.0561029	ADP NOUN PART	-0.79174286
-0.9826777	SCONJ NOUN PART	-0.34074694
-0.9747332	X NOUN PART	-0.5212001
-0.93657684	INTJ NOUN PART	-0.31380695
-2.011772	<s> PART PART	-0.31380695
-1.1022841	PROPN PART PART	-0.63943726
-1.1412177	NOUN PART PART	-0.8264568
-1.4956396	PART PART PART	-0.31201974
-1.6887254	ADJ PART PART	-0.3093526
-1.1254704	VERB PART PART	-0.710606
-1.0907832	CCONJ PART PART	-0.31380695
-1.1438085	NUM PART PART	-0.44788805
-1.2049294	PUNCT PART PART	-0.35262996
-1.0853332	ADV PART PART	-0.38893998
-1.1440203	PRON PART PART	-0.3950723
-1.1883981	ADP PART PART	-0.31083232
-0.81518185	<s> ADJ PART	-1.4425762
-0.7556066	PROPN ADJ PART	-0.5874392
-0.85807407	NOUN ADJ PART	-0.5649362
-0.84820455	PART ADJ PART	-0.44463554
-0.8246914	ADJ ADJ PART	-0.39509028
-0.6527288	DET ADJ PART	-0.6556665
-0.9374674	VERB ADJ PART	-0.6860926
-0.67462325	CCONJ ADJ PART	-0.41643173
-0.7080342	NUM ADJ PART	-0.553396
-0.8515181	PUNCT ADJ PART	-0.57708573
-0.7033571	ADV ADJ PART	-0.57611066
-0.6728054	PRON ADJ PART	-0.5189356
-0.825944	ADP ADJ PART	-0.5886676
-0.7265828	SCONJ ADJ PART	-0.40640995
-0.82222825	X ADJ PART	-0.40879744
-2.1209245	<s> DET PART	-0.8291706
-1.2297057	PROPN DET PART	-0.46542352
-1.144875	NOUN DET PART	-0.3851856
-1.2663416	PART DET PART	-0.29411814
-1.386422	DET DET PART	-0.31380698
-1.1372539	VERB DET PART	-0.4738909
-1.2324433	CCONJ DET PART	-0.36428502
-1.4395323	NUM DET PART	-0.31380695
-1.2075849	PUNCT DET PART	-0.36428502
-1.0837673	ADV DET PART	-0.42672855
-0.85393566	PRON DET PART	-0.4947112
-1.2109486	ADP DET PART	-0.43752974
-1.3097522	SCONJ DET PART	-0.31380695
-1.3246928	X DET PART	-0.28933224
-1.0528703	<s> VERB PART	-1.763032
-1.115022	PROPN VERB PART	-0.8336646
-1.1747353	NOUN VERB PART	-0.9040005
-1.0700825	PART VERB PART	-0.7143128
-0.769704	ADJ VERB PART	-0.476618
-1.0113168	DET VERB PART	-0.5491402
-1.1395829	VERB VERB PART	-0.8155906
-0.96592695	CCONJ VERB PART	-0.4990978
-1.0156394	NUM VERB PART	-0.6575876
-1.0503008	PUNCT VERB PART	-0.70130146
-1.1389214	ADV VERB PART	-0.8462631
-1.091927	PRON VERB PART	-0.80538625
-1.0284454	ADP VERB PART	-0.6842101
-1.0683388	SCONJ VERB PART	-0.37713704
-1.001494	X VERB PART	-0.6975691
-0.95844406	INTJ VERB PART	-0.31380695
-2.1826382	<s> CCONJ PART	-0.37329936
-1.3862914	NOUN CCONJ PART	-0.3555743
-1.4524314	PART CCONJ PART	-0.31380695
-1.0681102	CCONJ CCONJ PART	-0.31380695
-1.8877991	PUNCT CCONJ PART	-0.31380695
-1.534507	<s> NUM PART	-1.2334749
-1.011226	PROPN NUM PART	-0.5316824
-0.9931865	NOUN NUM PART	-0.51366794
-1.1548096	PART NUM PART	-0.30315512
-1.3306819	ADJ NUM PART	-0.28147122
-0.9550737	DET NUM PART	-0.54138917
-1.0983485	VERB NUM PART	-0.57324725
-0.94282275	CCONJ NUM PART	-0.49547604
-1.0938447	NUM NUM PART	-0.78613305
-1.0680667	PUNCT NUM PART	-0.4437892
-0.948937	ADV NUM PART	-0.528264
-0.914886	PRON NUM PART	-0.4982381
-1.0159277	ADP NUM PART	-0.41732636
-1.058227	SCONJ NUM PART	-0.31023982
-1.0946958	X NUM PART	-0.28933224
-2.2914202	<s> PUNCT PART	-0.6823154
-1.1715758	PROPN PUNCT PART	-0.6156117
-1.2267312	NOUN PUNCT PART	-0.6929467
-1.4164437	PART PUNCT PART	-0.37818953
-1.3289256	ADJ PUNCT PART	-0.28147122
-1.560497	DET PUNCT PART	-0.31380695
-1.2166542	VERB PUNCT PART	-0.57117414
-1.5304062	CCONJ PUNCT PART	-0.31380695
-1.1944143	NUM PUNCT PART	-0.45931002
-1.4113601	PUNCT PUNCT PART	-0.3874316
-1.4856489	ADV PUNCT PART	-0.30031082
-1.3772658	PRON PUNCT PART	-0.42227694
-1.5949639	ADP PUNCT PART	-0.31083232
-1.3119055	INTJ PUNCT PART	-0.31380695
-2.3011646	<s> ADV PART	-0.8672512
-1.2156693	PROPN ADV PART	-0.43858412
-1.1569595	NOUN ADV PART	-0.601707
-1.4063445	PART ADV PART	-0.31125602
-1.3949436	ADJ ADV PART	-0.31380695
-1.6603886	DET ADV PART	-0.31380695
-1.0852437	VERB ADV PART	-0.5413267
-1.4794427	CCONJ ADV PART	-0.31380695
-1.482541	NUM ADV PART	-0.31182164
-1.2791274	PUNCT ADV PART	-0.42716184
-1.1824478	ADV ADV PART	-0.41683564
-1.2427824	PRON ADV PART	-0.40021387
-1.2185751	ADP ADV PART	-0.33465585
-1.4691219	SCONJ ADV PART	-0.31380695
-1.2369996	X ADV PART	-0.31380695
-1.1662297	<s> PRON PART	-1.7119913
-0.94880253	PROPN PRON PART	-0.41645044
-0.9919158	NOUN PRON PART	-0.53728956
-0.95066935	PART PRON PART	-0.39722082
-1.0096458	ADJ PRON PART	-0.31380695
-1.1537741	DET PRON PART	-0.29411814
-1.0705472	VERB PRON PART	-0.7051523
-0.8747807	CCONJ PRON PART	-0.36578375
-0.7504406	NUM PRON PART	-0.3676418
-0.95357025	PUNCT PRON PART	-0.60744524
-0.9674632	ADV PRON PART	-0.476618
-0.8709785	PRON PRON PART	-0.4682277
-0.95469743	ADP PRON PART	-0.62516814
-0.97890425	SCONJ PRON PART	-0.40879744
-0.7765795	X PRON PART	-0.48890463
-0.7586232	INTJ PRON PART	-0.31380695
-3.0048006	<s> ADP PART	-0.45455495
-1.5526716	PROPN ADP PART	-0.31380698
-1.3931404	NOUN ADP PART	-0.4533185
-1.6367425	PART ADP PART	-0.31380695
-1.6960232	DET ADP PART	-0.31380695
-1.4939144	VERB ADP PART	-0.38990888
-1.7322738	PUNCT ADP PART	-0.31157407
-1.3542267	ADV ADP PART	-0.34436935
-1.7544732	PRON ADP PART	-0.31083232
-1.5981836	ADP ADP PART	-0.3093526
-1.3272407	X ADP PART	-0.31380695
-2.4188852	<s> X PART	-0.31380695
-1.5708134	PROPN X PART	-0.3093526
-1.6636618	NOUN X PART	-0.29411814
-0.87380505	ADJ X PART	-0.31380695
-1.4773242	VERB X PART	-0.3093526
-1.6727718	PUNCT X PART	-0.31380695
-1.6895685	ADV X PART	-0.3093526
-1.0047066	X X PART	-0.3093526
-1.3182544	<s> INTJ PART	-0.31201974
-0.25851947	DET INTJ PART	-0.40640995
-1.1377656	PUNCT INTJ PART	-0.31380695
-0.6616007	ADV INTJ PART	-0.31380695
-1.7391672	<s> PROPN ADJ	-1.5200291
-1.2016377	PROPN PROPN ADJ	-0.55472845
-1.2210323	NOUN PROPN ADJ	-0.5591451
-1.1919494	PART PROPN ADJ	-0.4218728
-1.161114	ADJ PROPN ADJ	-0.5323703
-1.2058254	DET PROPN ADJ	-0.5493906
-1.1313106	VERB PROPN ADJ	-0.59236693
-1.233378	CCONJ PROPN ADJ	-0.32995033
-1.1557885	NUM PROPN ADJ	-0.59343994
-1.1424204	PUNCT PROPN ADJ	-0.45508823
-1.2760913	ADV PROPN ADJ	-0.47342947
-1.4726657	PRON PROPN ADJ	-0.3093526
-1.1588321	ADP PROPN ADJ	-0.5516472
-1.2516211	SCONJ PROPN ADJ	-0.3093526
-1.3758098	X PROPN ADJ	-0.38624224
-2.0675616	<s> NOUN ADJ	-1.2801354
-1.2019488	PROPN NOUN ADJ	-0.53864115
-1.1904328	NOUN NOUN ADJ	-0.6073863
-1.2988623	PART NOUN ADJ	-0.44588342
-1.215403	ADJ NOUN ADJ	-0.520029
-1.1971706	DET NOUN ADJ	-0.5496116
-1.1449786	VERB NOUN ADJ	-0.6354247
-1.2814733	CCONJ NOUN ADJ	-0.4533185
-1.2258191	NUM NOUN ADJ	-0.50773627
-1.2162738	PUNCT NOUN ADJ	-0.47623044
-1.2100533	ADV NOUN ADJ	-0.48414737
-1.4487764	PRON NOUN ADJ	-0.40640995
-1.1842104	ADP NOUN ADJ	-0.63896805
-1.5588919	SCONJ NOUN ADJ	-0.31380695
-1.2863286	X NOUN ADJ	-0.46542352
-1.8161608	<s> PART ADJ	-0.3093526
-0.998492	PROPN PART ADJ	-0.54908663
-1.1344211	NOUN PART ADJ	-0.651211
-0.9216599	PART PART ADJ	-0.4367884
-0.8722223	ADJ PART ADJ	-0.52203065
-0.7971219	DET PART ADJ	-0.6415148
-1.1185418	VERB PART ADJ	-0.61220914
-0.87243706	CCONJ PART ADJ	-0.3093526
-0.99548787	NUM PART ADJ	-0.5055309
-1.0400665	PUNCT PART ADJ	-0.42978972
-1.199198	ADV PART ADJ	-0.44024613
-1.0474707	PRON PART ADJ	-0.53894174
-1.2696793	ADP PART ADJ	-0.31380695
-1.134894	X PART ADJ	-0.31380695
-1.8837785	<s> ADJ ADJ	-1.0296949
-0.91544896	PROPN ADJ ADJ	-0.63654083
-0.89274377	NOUN ADJ ADJ	-0.66388047
-0.983534	PART ADJ ADJ	-0.5324998
-0.8246914	ADJ ADJ ADJ	-0.58250123
-1.0548196	DET ADJ ADJ	-0.43853799
-1.0033714	VERB ADJ ADJ	-0.5256116
-0.987852	CCONJ ADJ ADJ	-0.46542352
-0.9246503	NUM ADJ ADJ	-0.5493906
-0.99670815	PUNCT ADJ ADJ	-0.6726212
-1.008819	ADV ADJ ADJ	-0.59036225
-1.3482196	PRON ADJ ADJ	-0.3093526
-1.0030564	ADP ADJ ADJ	-0.59514815
-1.2325265	SCONJ ADJ ADJ	-0.31380695
-0.9398037	X ADJ ADJ	-0.40640995
-1.4840002	<s> DET ADJ	-1.5313487
-0.914734	PROPN DET ADJ	-0.59836817
-0.9643797	NOUN DET ADJ	-0.65996134
-0.9517261	PART DET ADJ	-0.45859888
-0.93743354	ADJ DET ADJ	-0.348418
-0.9475679	DET DET ADJ	-0.42763495
-0.98863506	VERB DET ADJ	-0.60090864
-0.9156875	CCONJ DET ADJ	-0.54091686
-0.88374287	NUM DET ADJ	-0.37159118
-0.9012954	PUNCT DET ADJ	-0.53243005
-1.0781269	ADV DET ADJ	-0.49738315
-0.978604	PRON DET ADJ	-0.44084775
-1.0509259	ADP DET ADJ	-0.5382979
-1.1326147	SCONJ DET ADJ	-0.31083232
-0.92478937	X DET ADJ	-0.44084775
-1.4863129	<s> VERB ADJ	-1.5501194
-1.1175426	PROPN VERB ADJ	-0.6587257
-1.1774234	NOUN VERB ADJ	-0.71762407
-1.1459708	PART VERB ADJ	-0.42728242
-1.478148	ADJ VERB ADJ	-0.28933224
-1.1301014	DET VERB ADJ	-0.5245351
-1.1422205	VERB VERB ADJ	-0.6389766
-1.1690829	CCONJ VERB ADJ	-0.45597696
-1.1656554	NUM VERB ADJ	-0.4703428
-1.1500711	PUNCT VERB ADJ	-0.5389879
-1.2035027	ADV VERB ADJ	-0.70769215
-1.1916974	PRON VERB ADJ	-0.5075948
-1.031048	ADP VERB ADJ	-0.5882168
-1.0726402	SCONJ VERB ADJ	-0.4647188
-1.1659232	X VERB ADJ	-0.48871857
-1.4677283	<s> CCONJ ADJ	-0.6842832
-1.1710571	PROPN CCONJ ADJ	-0.4218728
-1.025726	NOUN CCONJ ADJ	-0.6381014
-1.0972087	PART CCONJ ADJ	-0.31083232
-0.45172027	ADJ CCONJ ADJ	-0.58697575
-0.503396	DET CCONJ ADJ	-0.31380695
-0.9901731	VERB CCONJ ADJ	-0.5953421
-1.1967424	NUM CCONJ ADJ	-0.31157407
-1.2302856	PUNCT CCONJ ADJ	-0.39830723
-0.8812399	ADV CCONJ ADJ	-0.37818953
-1.0436956	PRON CCONJ ADJ	-0.58250123
-1.0605296	ADP CCONJ ADJ	-0.31380695
-0.22534534	INTJ CCONJ ADJ	-0.31380695
-1.7279092	<s> NUM ADJ	-1.2001197
-1.011226	PROPN NUM ADJ	-0.5672458
-1.0595196	NOUN NUM ADJ	-0.59514815
-1.0043631	PART NUM ADJ	-0.4393912
-1.0734725	ADJ NUM ADJ	-0.38624224
-1.059102	DET NUM ADJ	-0.590891
-1.0320153	VERB NUM ADJ	-0.610944
-1.0518068	CCONJ NUM ADJ	-0.4838701
-1.0938447	NUM NUM ADJ	-0.6817122
-1.1775317	PUNCT NUM ADJ	-0.44084775
-1.1079384	ADV NUM ADJ	-0.5759178
-1.504584	PRON NUM ADJ	-0.31380695
-1.114689	ADP NUM ADJ	-0.56127685
-1.2347013	SCONJ NUM ADJ	-0.31380695
-1.0946958	X NUM ADJ	-0.29240993
-1.5530663	<s> PUNCT ADJ	-1.0847116
-1.2030966	PROPN PUNCT ADJ	-0.5606633
-1.1914512	NOUN PUNCT ADJ	-0.651211
-1.2041739	PART PUNCT ADJ	-0.45307004
-0.9032777	ADJ PUNCT ADJ	-0.3676418
-0.91894954	DET PUNCT ADJ	-0.47623044
-1.1813743	VERB PUNCT ADJ	-0.62823635
-1.0572476	CCONJ PUNCT ADJ	-0.35146335
-1.2872957	NUM PUNCT ADJ	-0.4215591
-1.1834637	PUNCT PUNCT ADJ	-0.4390489
-1.1699638	ADV PUNCT ADJ	-0.47640207
-1.3699399	PRON PUNCT ADJ	-0.30031082
-1.1448725	ADP PUNCT ADJ	-0.43184257
-0.95072293	SCONJ PUNCT ADJ	-0.31380695
-1.1937693	X PUNCT ADJ	-0.29411814
-1.9763224	<s> ADV ADJ	-1.3742502
-1.0778607	PROPN ADV ADJ	-0.531673
-1.1251695	NOUN ADV ADJ	-0.6679318
-0.9676774	PART ADV ADJ	-0.49738315
-1.2236975	ADJ ADV ADJ	-0.3093526
-0.8928168	DET ADV ADJ	-0.67129666
-1.0852437	VERB ADV ADJ	-0.62960947
-0.9871197	CCONJ ADV ADJ	-0.48224044
-1.1713227	NUM ADV ADJ	-0.4838701
-1.1260488	PUNCT ADV ADJ	-0.5069443
-1.1824478	ADV ADV ADJ	-0.5183404
-1.2427824	PRON ADV ADJ	-0.46542352
-0.99271715	ADP ADV ADJ	-0.6163374
-1.3381932	SCONJ ADV ADJ	-0.3093526
-1.1158704	X ADV ADJ	-0.31083232
-2.479743	<s> PRON ADJ	-0.75511
-1.5218456	PROPN PRON ADJ	-0.31380695
-1.3256818	NOUN PRON ADJ	-0.44024613
-1.4266789	PART PRON ADJ	-0.31157407
-1.0200388	ADJ PRON ADJ	-0.31380695
-1.4373047	DET PRON ADJ	-0.31380695
-1.2177389	VERB PRON ADJ	-0.53728956
-1.4183154	CCONJ PRON ADJ	-0.31083232
-1.4079396	NUM PRON ADJ	-0.31380695
-1.2534317	PUNCT PRON ADJ	-0.45168537
-1.4908978	ADV PRON ADJ	-0.29841655
-1.6345437	PRON PRON ADJ	-0.31380695
-1.092076	ADP PRON ADJ	-0.69612026
-1.4524231	SCONJ PRON ADJ	-0.31380695
-1.3668128	X PRON ADJ	-0.31023982
-1.4509563	<s> ADP ADJ	-1.4322777
-1.0811529	PROPN ADP ADJ	-0.57516336
-1.0468084	NOUN ADP ADJ	-0.71299875
-0.94783187	PART ADP ADJ	-0.44117206
-1.043968	ADJ ADP ADJ	-0.31380695
-1.0135324	DET ADP ADJ	-0.4965299
-1.0479159	VERB ADP ADJ	-0.5975814
-1.0223842	CCONJ ADP ADJ	-0.39722082
-0.87423605	NUM ADP ADJ	-0.6331303
-1.0291393	PUNCT ADP ADJ	-0.49335447
-1.028412	ADV ADP ADJ	-0.53564197
-0.95255184	PRON ADP ADJ	-0.55578595
-1.2122641	ADP ADP ADJ	-0.34393772
-0.943267	SCONJ ADP ADJ	-0.4965299
-1.715996	<s> SCONJ ADJ	-0.93781114
-1.2146391	PROPN SCONJ ADJ	-0.31380695
-1.5654564	NOUN SCONJ ADJ	-0.31380695
-0.9626982	PART SCONJ ADJ	-0.31380695
-1.3722026	VERB SCONJ ADJ	-0.31380695
-0.651199	CCONJ SCONJ ADJ	-0.31380695
-1.1001067	PUNCT SCONJ ADJ	-0.4982381
-1.1423943	ADV SCONJ ADJ	-0.31083232
-1.1123147	ADP SCONJ ADJ	-0.31380695
-1.5674026	<s> X ADJ	-0.6415148
-1.4221281	PROPN X ADJ	-0.3093526
-1.0436466	NOUN X ADJ	-0.5422651
-1.1371856	PART X ADJ	-0.28147122
-0.8087411	ADJ X ADJ	-0.31380695
-1.292814	DET X ADJ	-0.31380695
-1.1016015	VERB X ADJ	-0.5323703
-1.0728768	CCONJ X ADJ	-0.3093526
-1.2481209	NUM X ADJ	-0.31380695
-1.0926636	PUNCT X ADJ	-0.44024613
-1.0467106	ADV X ADJ	-0.4934783
-1.1150723	PRON X ADJ	-0.31023982
-1.259206	ADP X ADJ	-0.3093526
-0.969033	SCONJ X ADJ	-0.3093526
-1.0880998	X X ADJ	-0.31380695
-2.2346113	<s> PROPN DET	-0.98315936
-1.3399376	PROPN PROPN DET	-0.4470384
-1.2621863	NOUN PROPN DET	-0.4290107
-1.3970429	PART PROPN DET	-0.3564085
-1.6537234	ADJ PROPN DET	-0.31380695
-1.3574721	DET PROPN DET	-0.31125602
-1.1635705	VERB PROPN DET	-0.5734317
-1.4606905	CCONJ PROPN DET	-0.30210418
-1.8179595	NUM PROPN DET	-0.31380695
-1.3179554	PUNCT PROPN DET	-0.4826236
-1.456712	ADV PROPN DET	-0.29841655
-1.5963037	PRON PROPN DET	-0.31380695
-1.2380067	ADP PROPN DET	-0.49520546
-1.3918531	SCONJ PROPN DET	-0.31380695
-1.5143234	X PROPN DET	-0.28933224
-2.145	<s> NOUN DET	-1.0220422
-1.23688	PROPN NOUN DET	-0.53166556
-1.2226253	NOUN NOUN DET	-0.61598647
-1.2473423	PART NOUN DET	-0.4451401
-1.2532022	ADJ NOUN DET	-0.5389512
-1.2351592	DET NOUN DET	-0.481641
-1.2072687	VERB NOUN DET	-0.5734317
-1.2814733	CCONJ NOUN DET	-0.35972488
-1.4234878	NUM NOUN DET	-0.45781845
-1.3039578	PUNCT NOUN DET	-0.44481853
-1.3876159	ADV NOUN DET	-0.37818953
-1.368274	PRON NOUN DET	-0.42672855
-1.1842104	ADP NOUN DET	-0.49983308
-1.4277472	SCONJ NOUN DET	-0.31380695
-1.6031762	X NOUN DET	-0.31023982
-1.8395889	<s> PART DET	-0.31380695
-1.1819646	PROPN PART DET	-0.51566106
-1.1412177	NOUN PART DET	-0.6525754
-1.2545924	PART PART DET	-0.36356717
-1.0283225	ADJ PART DET	-0.45781845
-1.1553172	VERB PART DET	-0.6883391
-1.3512657	NUM PART DET	-0.29922706
-1.3078078	PUNCT PART DET	-0.29662037
-1.5297421	ADV PART DET	-0.31083232
-1.0977763	PRON PART DET	-0.424762
-1.4438413	ADP PART DET	-0.31380695
-1.0003668	INTJ PART DET	-0.31380695
-2.348951	<s> ADJ DET	-0.3564085
-1.2139851	PROPN ADJ DET	-0.38624224
-1.2288898	NOUN ADJ DET	-0.3564085
-1.2290086	PART ADJ DET	-0.4208424
-1.1522748	VERB ADJ DET	-0.3956409
-1.4052081	CCONJ ADJ DET	-0.3093526
-1.446424	PUNCT ADJ DET	-0.40640995
-1.7088237	ADV ADJ DET	-0.31380695
-1.4236536	PRON ADJ DET	-0.31380695
-1.090814	ADP ADJ DET	-0.37818953
-1.7920259	<s> DET DET	-0.8423786
-1.1599625	PROPN DET DET	-0.34393772
-1.0136371	NOUN DET DET	-0.541862
-1.0273879	PART DET DET	-0.41442412
-1.4155977	DET DET DET	-0.31380695
-1.1044455	VERB DET DET	-0.515337
-1.0622027	CCONJ DET DET	-0.37244442
-1.2220305	PUNCT DET DET	-0.43184257
-1.165872	ADV DET DET	-0.30210418
-1.4392103	PRON DET DET	-0.31380695
-1.0213635	ADP DET DET	-0.4745078
-1.3508509	X DET DET	-0.31157407
-1.3830454	<s> VERB DET	-1.4809686
-1.2075908	PROPN VERB DET	-0.6522964
-1.1774234	NOUN VERB DET	-0.80781466
-1.1079589	PART VERB DET	-0.5197292
-1.5754256	ADJ VERB DET	-0.3093526
-1.1769305	DET VERB DET	-0.3557916
-1.1422205	VERB VERB DET	-0.7748104
-1.237695	CCONJ VERB DET	-0.33848658
-1.0857565	NUM VERB DET	-0.57117414
-1.229526	PUNCT VERB DET	-0.5488385
-1.1715103	ADV VERB DET	-0.74037826
-1.1916974	PRON VERB DET	-0.5954662
-1.0986634	ADP VERB DET	-0.5720168
-1.1323653	SCONJ VERB DET	-0.40701896
-1.6557633	X VERB DET	-0.31201974
-1.0081968	<s> CCONJ DET	-0.8197251
-0.8807959	PROPN CCONJ DET	-0.6264844
-1.0387218	NOUN CCONJ DET	-0.67770666
-1.0432664	PART CCONJ DET	-0.31231707
-1.1459925	VERB CCONJ DET	-0.46149063
-0.9869878	CCONJ CCONJ DET	-0.31380695
-1.2451099	NUM CCONJ DET	-0.31083232
-1.0542301	PUNCT CCONJ DET	-0.32754913
-1.058168	ADV CCONJ DET	-0.34658056
-0.99464834	PRON CCONJ DET	-0.41212553
-2.9209003	<s> NUM DET	-0.29411814
-1.7323195	PROPN NUM DET	-0.3093526
-1.5733707	NOUN NUM DET	-0.37329936
-1.5463006	PART NUM DET	-0.31157407
-1.4329717	DET NUM DET	-0.2973382
-1.4250319	VERB NUM DET	-0.47342947
-1.337302	CCONJ NUM DET	-0.36285046
-1.2856563	NUM NUM DET	-0.58250123
-1.3576658	PUNCT NUM DET	-0.31023982
-1.3961197	ADV NUM DET	-0.29411814
-1.2679942	ADP NUM DET	-0.36285046
-1.6703085	<s> PUNCT DET	-0.9637265
-1.2030966	PROPN PUNCT DET	-0.5382919
-1.1914512	NOUN PUNCT DET	-0.6593948
-1.1530154	PART PUNCT DET	-0.40669268
-1.4244918	ADJ PUNCT DET	-0.31380695
-1.248175	VERB PUNCT DET	-0.59348965
-1.391443	CCONJ PUNCT DET	-0.31380695
-1.3452953	NUM PUNCT DET	-0.41848668
-1.229085	PUNCT PUNCT DET	-0.42314607
-1.3770311	ADV PUNCT DET	-0.3557916
-1.4708996	PRON PUNCT DET	-0.29590368
-1.2720236	ADP PUNCT DET	-0.35146335
-1.1452004	SCONJ PUNCT DET	-0.31380695
-1.3358252	X PUNCT DET	-0.31083232
-1.2963294	INTJ PUNCT DET	-0.31380695
-1.5456465	<s> ADV DET	-1.5909257
-1.4269686	PROPN ADV DET	-0.39722082
-1.1283649	NOUN ADV DET	-0.5832978
-1.4191984	PART ADV DET	-0.3017898
-1.3181602	DET ADV DET	-0.29590368
-1.2486413	VERB ADV DET	-0.51860476
-1.3940454	CCONJ ADV DET	-0.28147122
-1.3619689	NUM ADV DET	-0.31157407
-1.1760974	PUNCT ADV DET	-0.47088867
-1.2384619	ADV ADV DET	-0.3974947
-1.1902003	PRON ADV DET	-0.38069004
-1.4092213	ADP ADV DET	-0.35254976
-1.3519925	SCONJ ADV DET	-0.31083232
-1.4154068	X ADV DET	-0.31380695
-2.3551073	<s> PRON DET	-0.80661887
-1.7109278	PROPN PRON DET	-0.31380695
-1.348088	NOUN PRON DET	-0.36285046
-1.6039116	PART PRON DET	-0.31380698
-1.2778738	VERB PRON DET	-0.44763103
-1.3635824	CCONJ PRON DET	-0.31157407
-1.4661341	NUM PRON DET	-0.31380695
-1.3413546	PUNCT PRON DET	-0.38797328
-1.3993127	ADV PRON DET	-0.35764492
-1.0645651	ADP PRON DET	-0.4625005
-1.5140485	SCONJ PRON DET	-0.31380695
-1.4055344	X PRON DET	-0.31380695
-1.1462842	<s> ADP DET	-1.6143507
-1.0811529	PROPN ADP DET	-0.59068954
-1.0764176	NOUN ADP DET	-0.66618687
-0.94783187	PART ADP DET	-0.36595884
-1.1684581	ADJ ADP DET	-0.31380695
-1.0135324	DET ADP DET	-0.34436935
-1.0154805	VERB ADP DET	-0.59020746
-1.1274459	CCONJ ADP DET	-0.29590368
-1.1928543	NUM ADP DET	-0.33679685
-1.0291393	PUNCT ADP DET	-0.5197292
-1.028412	ADV ADP DET	-0.61995333
-0.95255184	PRON ADP DET	-0.5794165
-1.0589215	ADP ADP DET	-0.47271162
-0.943267	SCONJ ADP DET	-0.43853799
-1.2469817	<s> SCONJ DET	-1.154808
-1.5038555	NOUN SCONJ DET	-0.31380695
-1.0748746	VERB SCONJ DET	-0.34393772
-0.91354656	NUM SCONJ DET	-0.31380695
-1.1238462	PUNCT SCONJ DET	-0.4386135
-1.195301	ADV SCONJ DET	-0.31157407
-1.1698271	ADP SCONJ DET	-0.31380695
-1.1094923	<s> X DET	-0.59154344
-1.0098276	PROPN X DET	-0.3851856
-1.0116825	NOUN X DET	-0.53728956
-1.1653862	PART X DET	-0.29965296
-1.1733022	DET X DET	-0.31380695
-1.0178182	VERB X DET	-0.4986372
-1.2477255	CCONJ X DET	-0.31380695
-1.2811888	NUM X DET	-0.31380695
-1.4228967	PUNCT X DET	-0.31201974
-1.0057521	ADV X DET	-0.46760294
-0.8704544	PRON X DET	-0.46935442
-1.1797369	ADP X DET	-0.3093526
-0.9918266	SCONJ X DET	-0.31380695
-0.8712711	<s> PROPN VERB	-2.052487
-1.0609245	PROPN PROPN VERB	-0.77257967
-1.0807171	NOUN PROPN VERB	-0.81898975
-1.0858879	PART PROPN VERB	-0.56419
-0.9510849	ADJ PROPN VERB	-0.4699562
-0.99751246	DET PROPN VERB	-0.44964635
-1.09539	VERB PROPN VERB	-0.76829815
-1.0156194	CCONJ PROPN VERB	-0.45740148
-0.9688217	NUM PROPN VERB	-0.51604736
-1.069062	PUNCT PROPN VERB	-0.68615454
-1.0423453	ADV PROPN VERB	-0.48958614
-0.96553636	PRON PROPN VERB	-0.403756
-1.0559092	ADP PROPN VERB	-0.81302154
-0.87149817	SCONJ PROPN VERB	-0.32572696
-0.79901147	X PROPN VERB	-0.57822937
-0.84483284	INTJ PROPN VERB	-0.31380695
-0.7625136	SPACE PROPN VERB	-0.31380695
-0.6842673	<s> NOUN VERB	-2.3146596
-1.1083494	PROPN NOUN VERB	-0.9228859
-1.1570907	NOUN NOUN VERB	-0.9400126
-1.0509319	PART NOUN VERB	-0.7681378
-1.115097	ADJ NOUN VERB	-0.8993192
-1.0965757	DET NOUN VERB	-0.853568
-1.1416698	VERB NOUN VERB	-0.8912329
-1.0109044	CCONJ NOUN VERB	-0.60095793
-1.0872357	NUM NOUN VERB	-0.864904
-1.1075473	PUNCT NOUN VERB	-0.77257967
-0.95585024	ADV NOUN VERB	-0.7226799
-1.0252745	PRON NOUN VERB	-0.6643914
-1.0834583	ADP NOUN VERB	-0.866212
-0.84947526	SCONJ NOUN VERB	-0.41373572
-0.87625253	X NOUN VERB	-0.70549685
-0.611635	INTJ NOUN VERB	-0.31380695
-0.14089519	<s> PART VERB	-0.77738655
-0.9699826	PROPN PART VERB	-0.70743996
-1.1335658	NOUN PART VERB	-0.90158105
-0.9800053	PART PART VERB	-0.39274713
-0.97758967	ADJ PART VERB	-0.4024966
-0.9862002	DET PART VERB	-0.31157407
-1.1176702	VERB PART VERB	-0.85824305
-0.8702972	CCONJ PART VERB	-0.31083232
-0.99441946	NUM PART VERB	-0.4099574
-0.88280624	PUNCT PART VERB	-0.45854095
-0.8974383	ADV PART VERB	-0.5797479
-0.9428659	PRON PART VERB	-0.5850899
-0.5883939	ADP PART VERB	-0.45781845
-0.5824293	X PART VERB	-0.29240993
-1.997491	<s> ADJ VERB	-0.4398952
-0.97066194	PROPN ADJ VERB	-0.48414737
-0.9749695	NOUN ADJ VERB	-0.4614579
-1.0451168	PART ADJ VERB	-0.38069004
-1.1854169	ADJ ADJ VERB	-0.31083232
-1.242116	DET ADJ VERB	-0.29718366
-0.9400665	VERB ADJ VERB	-0.5675607
-1.2360744	CCONJ ADJ VERB	-0.2973382
-1.0591768	NUM ADJ VERB	-0.30210418
-0.95867825	PUNCT ADJ VERB	-0.45722765
-1.0130376	ADV ADJ VERB	-0.35972488
-1.2537783	PRON ADJ VERB	-0.29240993
-1.0069457	ADP ADJ VERB	-0.3862423
-1.3986694	X ADJ VERB	-0.31380695
-1.4550709	<s> DET VERB	-0.97439426
-1.0711151	PROPN DET VERB	-0.3721598
-1.0011292	NOUN DET VERB	-0.49721238
-1.0763516	PART DET VERB	-0.2948732
-1.0893329	ADJ DET VERB	-0.31182164
-0.8954325	DET DET VERB	-0.49335447
-1.0196303	VERB DET VERB	-0.68988305
-1.0411307	CCONJ DET VERB	-0.3824136
-1.4189688	NUM DET VERB	-0.31380695
-1.0245637	PUNCT DET VERB	-0.45852274
-0.8795026	ADV DET VERB	-0.44403017
-1.0594923	PRON DET VERB	-0.32943964
-1.0499586	ADP DET VERB	-0.46075124
-0.6419828	SCONJ DET VERB	-0.31023982
-0.99275374	X DET VERB	-0.3409437
-0.76126367	<s> VERB VERB	-1.9980055
-1.1421096	PROPN VERB VERB	-0.8314082
-1.1462201	NOUN VERB VERB	-0.9554076
-1.0692811	PART VERB VERB	-0.64464915
-0.8756716	ADJ VERB VERB	-0.40676686
-0.9781283	DET VERB VERB	-0.56639016
-1.13886	VERB VERB VERB	-0.8740373
-1.006641	CCONJ VERB VERB	-0.49506235
-1.0818027	NUM VERB VERB	-0.6355032
-1.1114017	PUNCT VERB VERB	-0.72308517
-1.1677011	ADV VERB VERB	-0.8637872
-1.1210243	PRON VERB VERB	-0.80360067
-1.027732	ADP VERB VERB	-0.6733463
-1.015287	SCONJ VERB VERB	-0.5650239
-1.0007257	X VERB VERB	-0.68493265
-0.9563318	INTJ VERB VERB	-0.31380695
-0.6927801	<s> CCONJ VERB	-0.97773355
-0.94040024	PROPN CCONJ VERB	-0.50967526
-1.0290178	NOUN CCONJ VERB	-0.7532939
-0.87101156	PART CCONJ VERB	-0.30210418
-0.6692528	ADJ CCONJ VERB	-0.4533185
-0.8596908	VERB CCONJ VERB	-0.78056157
-0.61234146	CCONJ CCONJ VERB	-0.31157407
-0.97743565	NUM CCONJ VERB	-0.31125602
-0.90252763	PUNCT CCONJ VERB	-0.46790376
-0.8859397	ADV CCONJ VERB	-0.4470384
-0.9802956	PRON CCONJ VERB	-0.3211158
-0.7610521	ADP CCONJ VERB	-0.31380695
-1.4330455	<s> NUM VERB	-0.90000033
-1.0516093	PROPN NUM VERB	-0.45768294
-0.9924502	NOUN NUM VERB	-0.6065389
-1.0031343	PART NUM VERB	-0.357209
-0.8498645	ADJ NUM VERB	-0.3115741
-0.9862831	DET NUM VERB	-0.61995333
-1.0974907	VERB NUM VERB	-0.61051357
-1.0504318	CCONJ NUM VERB	-0.44643036
-1.0931131	NUM NUM VERB	-0.85238194
-1.1181806	PUNCT NUM VERB	-0.39926785
-1.0203058	ADV NUM VERB	-0.45914453
-1.0011655	PRON NUM VERB	-0.31046194
-1.061555	ADP NUM VERB	-0.42940006
-1.0560446	SCONJ NUM VERB	-0.31380695
-1.2325366	X NUM VERB	-0.31083232
-1.1286684	<s> PUNCT VERB	-1.2580043
-1.132627	PROPN PUNCT VERB	-0.7457571
-1.1042602	NOUN PUNCT VERB	-0.87377137
-1.1474273	PART PUNCT VERB	-0.5267279
-0.97003895	ADJ PUNCT VERB	-0.32496276
-1.0293531	DET PUNCT VERB	-0.4393912
-1.1480438	VERB PUNCT VERB	-0.8248193
-1.0486972	CCONJ PUNCT VERB	-0.330156
-1.1069888	NUM PUNCT VERB	-0.5704537
-1.1375209	PUNCT PUNCT VERB	-0.56882006
-1.026007	ADV PUNCT VERB	-0.57145804
-0.94173056	PRON PUNCT VERB	-0.443534
-0.9627046	ADP PUNCT VERB	-0.49793974
-0.9412845	SCONJ PUNCT VERB	-0.31380695
-1.0792447	X PUNCT VERB	-0.33412603
-1.1212494	INTJ PUNCT VERB	-0.31157407
-0.44333205	<s> ADV VERB	-2.534633
-0.94280475	PROPN ADV VERB	-0.8567317
-1.0670979	NOUN ADV VERB	-0.9376516
-0.753216	PART ADV VERB	-0.65163743
-0.4243431	ADJ ADV VERB	-0.47338519
-0.77541715	DET ADV VERB	-0.5970124
-0.9948016	VERB ADV VERB	-0.867324
-0.7441943	CCONJ ADV VERB	-0.5203238
-0.7969526	NUM ADV VERB	-0.6810544
-0.9506424	PUNCT ADV VERB	-0.7681378
-0.93328357	ADV ADV VERB	-0.83508456
-0.9420042	PRON ADV VERB	-0.82890636
-0.87666494	ADP ADV VERB	-0.6838221
-0.71014374	SCONJ ADV VERB	-0.538528
-0.45246446	X ADV VERB	-0.461421
-0.36215132	<s> PRON VERB	-2.3910122
-0.8472322	PROPN PRON VERB	-0.5028137
-0.9595424	NOUN PRON VERB	-0.73089236
-0.83978295	PART PRON VERB	-0.43044767
-0.80473846	ADJ PRON VERB	-0.31083232
-0.59803903	DET PRON VERB	-0.42936358
-1.0404286	VERB PRON VERB	-0.7759684
-0.93256867	CCONJ PRON VERB	-0.4402474
-0.7494719	NUM PRON VERB	-0.37980202
-0.9843638	PUNCT PRON VERB	-0.745638
-0.85405207	ADV PRON VERB	-0.58189523
-0.7406286	PRON PRON VERB	-0.50343055
-1.0156716	ADP PRON VERB	-0.72862923
-0.7116524	SCONJ PRON VERB	-0.44036812
-0.77581006	X PRON VERB	-0.5859363
-0.5138487	INTJ PRON VERB	-0.31380695
-0.90516365	<s> ADP VERB	-1.7803117
-0.94313574	PROPN ADP VERB	-0.62161255
-1.0428177	NOUN ADP VERB	-0.8029033
-1.0114657	PART ADP VERB	-0.29626173
-1.3186167	ADJ ADP VERB	-0.31380695
-0.89512104	DET ADP VERB	-0.3156612
-1.0118985	VERB ADP VERB	-0.7074327
-1.013763	CCONJ ADP VERB	-0.36842224
-1.0307161	NUM ADP VERB	-0.327919
-1.0241477	PUNCT ADP VERB	-0.64661914
-0.98949856	ADV ADP VERB	-0.6635025
-0.9838183	PRON ADP VERB	-0.48982182
-0.9408924	ADP ADP VERB	-0.41459826
-1.2635565	SCONJ ADP VERB	-0.30935264
-1.099036	X ADP VERB	-0.31380695
-0.6890514	<s> SCONJ VERB	-1.3707421
-0.5982983	PROPN SCONJ VERB	-0.29537776
-0.7066834	NOUN SCONJ VERB	-0.61675024
-0.7216526	PART SCONJ VERB	-0.3125296
-0.81374115	VERB SCONJ VERB	-0.43896443
-0.6230763	CCONJ SCONJ VERB	-0.31380695
-0.83472675	NUM SCONJ VERB	-0.31380695
-0.81579417	PUNCT SCONJ VERB	-0.50590867
-0.85896033	ADV SCONJ VERB	-0.30149686
-0.58113855	PRON SCONJ VERB	-0.3306658
-0.7862386	ADP SCONJ VERB	-0.31201974
-0.6230763	SCONJ SCONJ VERB	-0.31380695
-0.664314	<s> X VERB	-0.8056383
-0.7718272	PROPN X VERB	-0.53175944
-0.87314034	NOUN X VERB	-0.72694975
-0.714291	PART X VERB	-0.40254974
-0.8155672	ADJ X VERB	-0.31380695
-0.44418743	DET X VERB	-0.47825336
-0.8683262	VERB X VERB	-0.5576777
-0.7144811	CCONJ X VERB	-0.38893998
-0.60470563	NUM X VERB	-0.3911615
-0.8477663	PUNCT X VERB	-0.4005308
-0.8401814	ADV X VERB	-0.6569818
-0.7035106	PRON X VERB	-0.5047899
-0.54593945	ADP X VERB	-0.44496498
-0.6956797	SCONJ X VERB	-0.3093526
-1.4202975	<s> INTJ VERB	-0.28933224
-0.5725562	PROPN INTJ VERB	-0.31157407
-0.7591223	VERB INTJ VERB	-0.31380695
-0.658446	ADV INTJ VERB	-0.31380695
-0.6075193	NOUN SPACE VERB	-0.31380695
-1.6630118	<s> PROPN CCONJ	-1.4678849
-1.2011606	PROPN PROPN CCONJ	-0.5764717
-1.1164187	NOUN PROPN CCONJ	-0.6208267
-1.1400442	PART PROPN CCONJ	-0.46288285
-1.4182198	ADJ PROPN CCONJ	-0.36428502
-1.1455536	DET PROPN CCONJ	-0.45074022
-1.1309433	VERB PROPN CCONJ	-0.6443683
-1.2323802	CCONJ PROPN CCONJ	-0.3306658
-1.0556909	NUM PROPN CCONJ	-0.5493906
-1.1073321	PUNCT PROPN CCONJ	-0.5931774
-1.0964673	ADV PROPN CCONJ	-0.45532367
-1.1298988	PRON PROPN CCONJ	-0.30935264
-1.1236683	ADP PROPN CCONJ	-0.6091483
-1.1418473	SCONJ PROPN CCONJ	-0.29411814
-1.001447	X PROPN CCONJ	-0.5001856
-1.6387379	<s> NOUN CCONJ	-1.528184
-1.1692426	PROPN NOUN CCONJ	-0.7340289
-1.1600977	NOUN NOUN CCONJ	-0.8259398
-1.2007633	PART NOUN CCONJ	-0.66836804
-1.1181042	ADJ NOUN CCONJ	-0.7245873
-1.0994697	DET NOUN CCONJ	-0.6416075
-1.1446204	VERB NOUN CCONJ	-0.76541686
-1.2806056	CCONJ NOUN CCONJ	-0.38250476
-1.1524937	NUM NOUN CCONJ	-0.60940605
-1.1429485	PUNCT NOUN CCONJ	-0.61065984
-1.1634743	ADV NOUN CCONJ	-0.48871857
-1.1894139	PRON NOUN CCONJ	-0.3720176
-1.1164193	ADP NOUN CCONJ	-0.6647639
-1.1802287	SCONJ NOUN CCONJ	-0.3564085
-1.0578343	X NOUN CCONJ	-0.5722283
-1.8623142	PROPN PART CCONJ	-0.31380695
-1.2504119	NOUN PART CCONJ	-0.5315285
-1.6959579	PART PART CCONJ	-0.31380695
-1.8876706	ADJ PART CCONJ	-0.31380695
-1.3160338	VERB PART CCONJ	-0.424762
-1.8586276	NUM PART CCONJ	-0.31380695
-1.7336416	PUNCT PART CCONJ	-0.31380695
-1.8157512	ADV PART CCONJ	-0.31380695
-1.7817446	PRON PART CCONJ	-0.31380695
-2.8818874	<s> ADJ CCONJ	-0.31380695
-1.5310546	PROPN ADJ CCONJ	-0.3093526
-1.6281576	NOUN ADJ CCONJ	-0.31380695
-1.3075105	PART ADJ CCONJ	-0.29590368
-1.4026738	DET ADJ CCONJ	-0.31380695
-1.1409456	VERB ADJ CCONJ	-0.5150475
-1.5030868	CCONJ ADJ CCONJ	-0.31380695
-1.4130083	NUM ADJ CCONJ	-0.29411814
-1.3198607	PUNCT ADJ CCONJ	-0.29590368
-1.427812	ADV ADJ CCONJ	-0.28147122
-1.5370524	PRON ADJ CCONJ	-0.31380695
-1.3370333	ADP ADJ CCONJ	-0.31157407
-1.859237	VERB DET CCONJ	-0.31380695
-1.9148561	CCONJ DET CCONJ	-0.31380695
-2.362565	<s> VERB CCONJ	-0.8084735
-1.2071632	PROPN VERB CCONJ	-0.54642886
-1.1770526	NOUN VERB CCONJ	-0.67403096
-1.1871061	PART VERB CCONJ	-0.44413158
-1.1523463	ADJ VERB CCONJ	-0.38624224
-1.2884697	DET VERB CCONJ	-0.4533185
-1.1718117	VERB VERB CCONJ	-0.6200723
-1.3182148	CCONJ VERB CCONJ	-0.40640995
-1.2629988	NUM VERB CCONJ	-0.39281368
-1.149625	PUNCT VERB CCONJ	-0.47978476
-1.1413287	ADV VERB CCONJ	-0.65580326
-1.3164968	PRON VERB CCONJ	-0.4266567
-1.224605	ADP VERB CCONJ	-0.48414737
-1.517613	SCONJ VERB CCONJ	-0.31380695
-1.165362	X VERB CCONJ	-0.4738909
-2.6005797	<s> CCONJ CCONJ	-0.31380695
-1.5805334	NOUN CCONJ CCONJ	-0.3564085
-1.9891876	PUNCT CCONJ CCONJ	-0.31380695
-2.3931448	<s> NUM CCONJ	-0.79926807
-1.2942305	PROPN NUM CCONJ	-0.38797328
-1.150631	NOUN NUM CCONJ	-0.5516673
-1.4249066	PART NUM CCONJ	-0.29411814
-1.4227916	DET NUM CCONJ	-0.29590368
-1.1473691	VERB NUM CCONJ	-0.5728717
-1.4600105	CCONJ NUM CCONJ	-0.28147122
-1.2385378	NUM NUM CCONJ	-0.4683294
-1.3480638	PUNCT NUM CCONJ	-0.43853799
-1.2340075	ADV NUM CCONJ	-0.59036225
-1.1893737	ADP NUM CCONJ	-0.5493906
-1.5207678	X NUM CCONJ	-0.31380695
-2.5932083	<s> PUNCT CCONJ	-0.42672855
-1.171165	PROPN PUNCT CCONJ	-0.5102862
-1.1940063	NOUN PUNCT CCONJ	-0.7571571
-1.5140986	PART PUNCT CCONJ	-0.32489488
-1.5762221	ADJ PUNCT CCONJ	-0.31380695
-1.6941724	DET PUNCT CCONJ	-0.31380695
-1.2891234	VERB PUNCT CCONJ	-0.5232017
-1.4045277	CCONJ PUNCT CCONJ	-0.31231707
-1.2400436	NUM PUNCT CCONJ	-0.38974637
-1.4104652	PUNCT PUNCT CCONJ	-0.39302364
-1.7074335	ADV PUNCT CCONJ	-0.31380698
-1.4789528	PRON PUNCT CCONJ	-0.3017898
-1.8008273	ADP PUNCT CCONJ	-0.31380695
-1.309857	INTJ PUNCT CCONJ	-0.31380695
-2.6532214	<s> ADV CCONJ	-0.6371793
-1.4516046	PROPN ADV CCONJ	-0.31201974
-1.2444279	NOUN ADV CCONJ	-0.4772432
-1.6946602	PART ADV CCONJ	-0.31380695
-1.4543631	ADJ ADV CCONJ	-0.31380695
-1.7430286	DET ADV CCONJ	-0.31380695
-1.5301708	VERB ADV CCONJ	-0.30210418
-1.7708566	NUM ADV CCONJ	-0.31380695
-1.3733257	PUNCT ADV CCONJ	-0.29151168
-1.3847227	ADV ADV CCONJ	-0.35254976
-1.42099	PRON ADV CCONJ	-0.31157407
-2.1250231	<s> PRON CCONJ	-0.94046724
-1.6875036	PROPN PRON CCONJ	-0.31380695
-1.2720873	NOUN PRON CCONJ	-0.33551082
-1.2237384	PART PRON CCONJ	-0.29965296
-1.2262621	VERB PRON CCONJ	-0.5583852
-1.5729938	CCONJ PRON CCONJ	-0.31380695
-1.4434589	NUM PRON CCONJ	-0.31380695
-1.155487	PUNCT PRON CCONJ	-0.40997335
-1.3870416	ADV PRON CCONJ	-0.3409437
-1.2705781	PRON PRON CCONJ	-0.28147122
-1.239993	ADP PRON CCONJ	-0.49115002
-1.3561339	SCONJ PRON CCONJ	-0.31380695
-1.6148612	X PRON CCONJ	-0.31380695
-3.3773587	<s> ADP CCONJ	-0.29411814
-1.7969886	PROPN ADP CCONJ	-0.31157407
-1.6074835	NOUN ADP CCONJ	-0.29411814
-1.8725587	PUNCT ADP CCONJ	-0.31380695
-2.1006155	ADV ADP CCONJ	-0.31380695
-1.6429439	NOUN SCONJ CCONJ	-0.31380695
-1.7740159	VERB SCONJ CCONJ	-0.31380695
-1.9422067	PROPN X CCONJ	-0.31380695
-1.4080178	PUNCT INTJ CCONJ	-0.31380695
-1.8314146	<s> PROPN NUM	-1.2710913
-1.1979998	PROPN PROPN NUM	-0.5547531
-1.1799785	NOUN PROPN NUM	-0.5888565
-1.1362559	PART PROPN NUM	-0.37818953
-1.4109395	ADJ PROPN NUM	-0.31023982
-1.2692337	DET PROPN NUM	-0.31125602
-1.1285086	VERB PROPN NUM	-0.6238178
-1.2258027	CCONJ PROPN NUM	-0.29791856
-1.2796379	NUM PROPN NUM	-0.32722872
-1.1763998	PUNCT PROPN NUM	-0.56180483
-1.202565	ADV PROPN NUM	-0.38714814
-1.4585853	PRON PROPN NUM	-0.31380695
-1.192978	ADP PROPN NUM	-0.5494533
-1.2391695	SCONJ PROPN NUM	-0.31380695
-1.1812266	X PROPN NUM	-0.28933224
-0.7690044	SPACE PROPN NUM	-0.31380695
-1.5978013	<s> NOUN NUM	-1.6007156
-1.1696191	PROPN NOUN NUM	-0.66656667
-1.1904328	NOUN NOUN NUM	-0.7026486
-1.2012912	PART NOUN NUM	-0.49996352
-1.215403	ADJ NOUN NUM	-0.627988
-1.276792	DET NOUN NUM	-0.4986372
-1.1750078	VERB NOUN NUM	-0.655212
-1.2814733	CCONJ NOUN NUM	-0.32409438
-1.1528993	NUM NOUN NUM	-0.5708543
-1.1782852	PUNCT NOUN NUM	-0.5566897
-1.1640022	ADV NOUN NUM	-0.47630143
-1.2416894	PRON NOUN NUM	-0.44913653
-1.1842104	ADP NOUN NUM	-0.56526226
-1.4277472	SCONJ NOUN NUM	-0.3093526
-1.2863286	X NOUN NUM	-0.38797328
-2.011772	<s> PART NUM	-0.31380695
-1.1022841	PROPN PART NUM	-0.59679526
-1.1711271	NOUN PART NUM	-0.70229167
-1.0634267	PART PART NUM	-0.40701896
-0.94652176	ADJ PART NUM	-0.5887786
-1.4703321	DET PART NUM	-0.31083232
-1.0975437	VERB PART NUM	-0.70962936
-1.2025926	NUM PART NUM	-0.42672855
-1.0520792	PUNCT PART NUM	-0.4393912
-1.2960018	ADV PART NUM	-0.44024613
-1.0178663	PRON PART NUM	-0.654991
-1.0003668	INTJ PART NUM	-0.31380695
-1.8876112	<s> ADJ NUM	-0.63654083
-1.2891355	PROPN ADJ NUM	-0.29590368
-0.9801465	NOUN ADJ NUM	-0.56127685
-0.99518013	PART ADJ NUM	-0.541862
-1.1974912	ADJ ADJ NUM	-0.31083232
-1.3900136	DET ADJ NUM	-0.31157407
-1.1362504	VERB ADJ NUM	-0.5389512
-1.2514249	CCONJ ADJ NUM	-0.28147122
-0.9947429	NUM ADJ NUM	-0.3401501
-1.0517515	PUNCT ADJ NUM	-0.508971
-0.8587973	ADV ADJ NUM	-0.5623335
-0.7822146	PRON ADJ NUM	-0.47199494
-1.013087	ADP ADJ NUM	-0.4829249
-0.61005425	<s> DET NUM	-1.831768
-0.83450496	PROPN DET NUM	-0.55914515
-0.8678215	NOUN DET NUM	-0.63782847
-0.8541022	PART DET NUM	-0.43512896
-0.8239706	ADJ DET NUM	-0.35764492
-0.9475679	DET DET NUM	-0.37818953
-0.98863506	VERB DET NUM	-0.6706675
-0.9156875	CCONJ DET NUM	-0.49878937
-0.65442336	NUM DET NUM	-0.32599127
-0.9389213	PUNCT DET NUM	-0.5114237
-0.92197675	ADV DET NUM	-0.48595417
-0.7501238	PRON DET NUM	-0.4844852
-0.93747836	ADP DET NUM	-0.6265981
-0.8518096	SCONJ DET NUM	-0.3503796
-0.76563597	X DET NUM	-0.6251244
-1.1795807	<s> VERB NUM	-1.6725869
-1.1428462	PROPN VERB NUM	-0.65627104
-1.1747353	NOUN VERB NUM	-0.8179162
-1.1838264	PART VERB NUM	-0.486517
-1.5612323	ADJ VERB NUM	-0.31380695
-1.0847249	DET VERB NUM	-0.54853565
-1.1395829	VERB VERB NUM	-0.7223992
-1.1639442	CCONJ VERB NUM	-0.42436454
-1.1619273	NUM VERB NUM	-0.514034
-1.1122192	PUNCT VERB NUM	-0.53665143
-1.1389214	ADV VERB NUM	-0.7136147
-1.1538454	PRON VERB NUM	-0.56526226
-1.2725267	ADP VERB NUM	-0.5232242
-1.1274333	SCONJ VERB NUM	-0.41905683
-1.074317	X VERB NUM	-0.7337689
-0.95844406	INTJ VERB NUM	-0.31380695
-0.9606396	<s> CCONJ NUM	-0.85687697
-1.026048	PROPN CCONJ NUM	-0.45656034
-1.0662085	NOUN CCONJ NUM	-0.61968297
-0.8837113	PART CCONJ NUM	-0.29841655
-0.7560882	DET CCONJ NUM	-0.31380695
-1.139328	VERB CCONJ NUM	-0.40701896
-0.593875	NUM CCONJ NUM	-0.5992373
-1.1053737	PUNCT CCONJ NUM	-0.36953303
-0.8326883	ADV CCONJ NUM	-0.39281368
-0.988158	PRON CCONJ NUM	-0.45781845
-1.09401	ADP CCONJ NUM	-0.31380695
-0.39031217	<s> NUM NUM	-1.8734925
-0.84864235	PROPN NUM NUM	-0.6647639
-0.96346897	NOUN NUM NUM	-0.8165844
-0.8462502	PART NUM NUM	-0.60861033
-0.6282316	ADJ NUM NUM	-0.60894287
-0.92528343	DET NUM NUM	-0.72959113
-1.0022978	VERB NUM NUM	-0.8314082
-0.94282275	CCONJ NUM NUM	-0.5882168
-1.1549971	NUM NUM NUM	-0.6669949
-0.8757809	PUNCT NUM NUM	-0.6399541
-0.948937	ADV NUM NUM	-0.72308517
-0.5934873	PRON NUM NUM	-0.57977825
-0.8676934	ADP NUM NUM	-0.73323214
-0.54645264	SCONJ NUM NUM	-0.3503796
-0.6701096	X NUM NUM	-0.431354
-1.6707191	<s> PUNCT NUM	-0.9874567
-1.2065233	PROPN PUNCT NUM	-0.57246614
-1.2267312	NOUN PUNCT NUM	-0.7028174
-1.1575059	PART PUNCT NUM	-0.4534558
-1.3289256	ADJ PUNCT NUM	-0.31083232
-1.0387585	DET PUNCT NUM	-0.28594577
-1.1843107	VERB PUNCT NUM	-0.60679185
-1.1691082	CCONJ PUNCT NUM	-0.29326314
-1.0471158	NUM PUNCT NUM	-0.66311026
-1.187577	PUNCT PUNCT NUM	-0.50598764
-1.2341361	ADV PUNCT NUM	-0.44788805
-1.3772658	PRON PUNCT NUM	-0.30031082
-1.2091839	ADP PUNCT NUM	-0.46068984
-1.3468515	X PUNCT NUM	-0.31380695
-1.5745822	<s> ADV NUM	-1.5648587
-1.0778607	PROPN ADV NUM	-0.5043683
-1.1251695	NOUN ADV NUM	-0.7043932
-0.9156914	PART ADV NUM	-0.42359692
-1.3949436	ADJ ADV NUM	-0.31380695
-1.2061911	DET ADV NUM	-0.35517558
-1.0852437	VERB ADV NUM	-0.731151
-0.8736106	CCONJ ADV NUM	-0.4215141
-1.0438738	NUM ADV NUM	-0.3749122
-1.0850439	PUNCT ADV NUM	-0.49793974
-1.0958757	ADV ADV NUM	-0.50197774
-1.134087	PRON ADV NUM	-0.46518007
-0.9507806	ADP ADV NUM	-0.5450395
-1.0919878	SCONJ ADV NUM	-0.28147122
-0.9544217	X ADV NUM	-0.38624224
-2.238633	<s> PRON NUM	-1.1394101
-1.5189495	NOUN PRON NUM	-0.31157407
-1.362051	PART PRON NUM	-0.31201974
-1.2727442	VERB PRON NUM	-0.46108803
-1.2105087	CCONJ PRON NUM	-0.40640995
-1.4458569	NUM PRON NUM	-0.31380695
-1.2661357	PUNCT PRON NUM	-0.44059995
-1.0785946	ADV PRON NUM	-0.44084775
-1.5310464	PRON PRON NUM	-0.31083232
-1.2406234	ADP PRON NUM	-0.43184257
-1.3580003	SCONJ PRON NUM	-0.3093526
-1.2524866	X PRON NUM	-0.28933224
-0.776242	INTJ PRON NUM	-0.31380695
-1.3779309	<s> ADP NUM	-1.4241987
-1.0397873	PROPN ADP NUM	-0.5216781
-1.0435944	NOUN ADP NUM	-0.67965853
-1.096169	PART ADP NUM	-0.3274545
-1.2629815	DET ADP NUM	-0.28933224
-1.0125959	VERB ADP NUM	-0.57208735
-1.1186125	CCONJ ADP NUM	-0.37329936
-1.2902167	NUM ADP NUM	-0.3475473
-1.0659775	PUNCT ADP NUM	-0.47727376
-1.0628711	ADV ADP NUM	-0.5460581
-1.1622312	PRON ADP NUM	-0.4237874
-1.053778	ADP ADP NUM	-0.46542352
-1.1274519	SCONJ ADP NUM	-0.31023982
-1.2578887	X ADP NUM	-0.31380695
-0.6564929	INTJ ADP NUM	-0.31380695
-1.5877773	<s> SCONJ NUM	-0.8451161
-1.1539521	NOUN SCONJ NUM	-0.29240993
-1.4627625	VERB SCONJ NUM	-0.31083232
-0.930509	NUM SCONJ NUM	-0.31380695
-1.3333879	PUNCT SCONJ NUM	-0.31023982
-1.1062931	ADV SCONJ NUM	-0.28933224
-1.4526714	<s> X NUM	-0.46542352
-1.1648304	PROPN X NUM	-0.2973382
-1.0160366	NOUN X NUM	-0.4682277
-1.1802044	PART X NUM	-0.31231707
-1.3483208	DET X NUM	-0.31380695
-1.4232734	VERB X NUM	-0.34393772
-1.1146437	CCONJ X NUM	-0.31380695
-1.2987177	NUM X NUM	-0.31380695
-1.1203287	PUNCT X NUM	-0.31281313
-1.0106859	ADV X NUM	-0.511181
-1.1430631	PRON X NUM	-0.36285046
-1.1915727	ADP X NUM	-0.28147122
-0.71460056	<s> PROPN PUNCT	-2.181155
-1.0639225	PROPN PROPN PUNCT	-0.7636944
-1.0838325	NOUN PROPN PUNCT	-0.79794717
-1.0902792	PART PROPN PUNCT	-0.5490502
-0.9543546	ADJ PROPN PUNCT	-0.5405401
-0.96282196	DET PROPN PUNCT	-0.4699054
-1.098326	VERB PROPN PUNCT	-0.8184142
-1.0208848	CCONJ PROPN PUNCT	-0.4301064
-1.010287	NUM PROPN PUNCT	-0.4161852
-1.0148724	PUNCT PROPN PUNCT	-0.7877507
-0.967105	ADV PROPN PUNCT	-0.46792355
-0.9705996	PRON PROPN PUNCT	-0.36134276
-1.0886549	ADP PROPN PUNCT	-0.7035186
-1.372561	SCONJ PROPN PUNCT	-0.31380695
-1.0507245	X PROPN PUNCT	-0.29478687
-0.8519296	INTJ PROPN PUNCT	-0.31380695
-1.0256066	<s> NOUN PUNCT	-1.9551195
-1.1063038	PROPN NOUN PUNCT	-0.864904
-1.1271403	NOUN NOUN PUNCT	-0.91198385
-1.0188938	PART NOUN PUNCT	-0.78078574
-1.1128311	ADJ NOUN PUNCT	-0.87867874
-1.0943946	DET NOUN PUNCT	-0.7805471
-1.1394461	VERB NOUN PUNCT	-0.8915574
-1.0079937	CCONJ NOUN PUNCT	-0.513845
-1.1147567	NUM NOUN PUNCT	-0.80723566
-1.0477091	PUNCT NOUN PUNCT	-0.8523874
-1.0113069	ADV NOUN PUNCT	-0.6218486
-1.0228096	PRON NOUN PUNCT	-0.4699966
-1.0813233	ADP NOUN PUNCT	-0.7038057
-1.1652737	SCONJ NOUN PUNCT	-0.3017898
-1.0509673	X NOUN PUNCT	-0.4380941
-1.1321647	INTJ NOUN PUNCT	-0.31380695
-0.5194644	SPACE NOUN PUNCT	-0.31380695
-1.0349735	<s> PART PUNCT	-0.63654083
-1.0277127	PROPN PART PUNCT	-0.6758966
-1.1064589	NOUN PART PUNCT	-0.8560367
-0.8686489	PART PART PUNCT	-0.3786677
-0.93969005	ADJ PART PUNCT	-0.46557873
-1.0746053	DET PART PUNCT	-0.29718366
-1.1181058	VERB PART PUNCT	-0.78207356
-0.7360954	CCONJ PART PUNCT	-0.28933224
-0.95758307	NUM PART PUNCT	-0.44743854
-0.8833301	PUNCT PART PUNCT	-0.44709104
-0.9769486	ADV PART PUNCT	-0.4103227
-1.0095693	PRON PART PUNCT	-0.5130864
-1.1638184	ADP PART PUNCT	-0.31157407
-0.9768978	INTJ PART PUNCT	-0.31380695
-2.2376974	<s> ADJ PUNCT	-0.3475473
-1.5310546	PROPN ADJ PUNCT	-0.31380695
-1.2131964	NOUN ADJ PUNCT	-0.44024613
-1.3075105	PART ADJ PUNCT	-0.3564085
-1.2636694	DET ADJ PUNCT	-0.31083232
-1.0946568	VERB ADJ PUNCT	-0.43981847
-1.2629915	CCONJ ADJ PUNCT	-0.31083232
-1.4130083	NUM ADJ PUNCT	-0.31201974
-0.86050385	PUNCT ADJ PUNCT	-0.47978476
-1.427812	ADV ADJ PUNCT	-0.28933224
-1.5370524	PRON ADJ PUNCT	-0.31380695
-1.3370333	ADP ADJ PUNCT	-0.29240993
-2.2898154	<s> DET PUNCT	-0.5745101
-1.3211287	PROPN DET PUNCT	-0.3125296
-1.1965194	NOUN DET PUNCT	-0.40701896
-1.2552073	PART DET PUNCT	-0.31083232
-1.3521732	ADJ DET PUNCT	-0.31380695
-1.1503842	DET DET PUNCT	-0.31380695
-1.1322163	VERB DET PUNCT	-0.5172686
-1.5489246	CCONJ DET PUNCT	-0.31380695
-1.268629	NUM DET PUNCT	-0.31380695
-1.1997348	PUNCT DET PUNCT	-0.30031082
-1.0190512	ADV DET PUNCT	-0.33879498
-1.3888993	PRON DET PUNCT	-0.31157407
-1.3488514	ADP DET PUNCT	-0.36842224
-1.2920704	SCONJ DET PUNCT	-0.31380695
-1.5201857	X DET PUNCT	-0.31380695
-1.2870401	<s> VERB PUNCT	-1.4629115
-1.1424778	PROPN VERB PUNCT	-0.7592704
-1.1465654	NOUN VERB PUNCT	-0.93266845
-1.104355	PART VERB PUNCT	-0.57933265
-0.87606806	ADJ VERB PUNCT	-0.5063932
-1.084299	DET VERB PUNCT	-0.43227768
-1.1392213	VERB VERB PUNCT	-0.8200391
-1.1047457	CCONJ VERB PUNCT	-0.40966347
-1.0822276	NUM VERB PUNCT	-0.5023723
-1.0220327	PUNCT VERB PUNCT	-0.79153615
-1.1385387	ADV VERB PUNCT	-0.8382761
-1.1214038	PRON VERB PUNCT	-0.7163014
-1.1746294	ADP VERB PUNCT	-0.5176357
-1.0158085	SCONJ VERB PUNCT	-0.39237696
-1.0011097	X VERB PUNCT	-0.54715663
-0.73188746	INTJ VERB PUNCT	-0.31083232
-1.7334967	<s> CCONJ PUNCT	-0.31023982
-1.1983006	PROPN CCONJ PUNCT	-0.45270163
-1.148478	NOUN CCONJ PUNCT	-0.49703637
-1.1693288	PART CCONJ PUNCT	-0.31380695
-1.367027	VERB CCONJ PUNCT	-0.29841655
-1.2604576	NUM CCONJ PUNCT	-0.31083232
-0.9182784	PUNCT CCONJ PUNCT	-0.47861516
-1.4320357	ADV CCONJ PUNCT	-0.31380695
-1.5223368	PRON CCONJ PUNCT	-0.31380695
-0.87900186	<s> NUM PUNCT	-1.4159806
-1.0520908	PROPN NUM PUNCT	-0.48428681
-1.0590906	NOUN NUM PUNCT	-0.5907665
-0.94449395	PART NUM PUNCT	-0.41287598
-1.1824539	ADJ NUM PUNCT	-0.31201974
-1.058644	DET NUM PUNCT	-0.4656394
-1.0635203	VERB NUM PUNCT	-0.6218486
-1.117831	CCONJ NUM PUNCT	-0.35798615
-1.1229538	NUM NUM PUNCT	-0.815291
-0.90765834	PUNCT NUM PUNCT	-0.5696003
-1.0619155	ADV NUM PUNCT	-0.43263468
-1.365286	PRON NUM PUNCT	-0.31380695
-1.0154998	ADP NUM PUNCT	-0.4918686
-1.2330619	SCONJ NUM PUNCT	-0.31380695
-1.0937389	X NUM PUNCT	-0.31083232
-1.272421	<s> PUNCT PUNCT	-1.1393381
-1.1359172	PROPN PUNCT PUNCT	-0.68240607
-1.1910725	NOUN PUNCT PUNCT	-0.8253679
-1.1067328	PART PUNCT PUNCT	-0.49813703
-1.422801	ADJ PUNCT PUNCT	-0.3093526
-1.1058011	DET PUNCT PUNCT	-0.29718366
-1.1809955	VERB PUNCT PUNCT	-0.7208039
-1.2942022	CCONJ PUNCT PUNCT	-0.31201974
-1.1107528	NUM PUNCT PUNCT	-0.5272182
-1.1417007	PUNCT PUNCT PUNCT	-0.56352705
-1.1693484	ADV PUNCT PUNCT	-0.39708287
-1.1070461	PRON PUNCT PUNCT	-0.4348062
-1.1442693	ADP PUNCT PUNCT	-0.3211158
-1.1927541	X PUNCT PUNCT	-0.29411814
-1.0126433	INTJ PUNCT PUNCT	-0.31083232
-1.2220994	<s> ADV PUNCT	-1.796658
-1.1595963	PROPN ADV PUNCT	-0.4070598
-1.1215885	NOUN ADV PUNCT	-0.610644
-1.1679835	PART ADV PUNCT	-0.33412603
-1.379033	ADJ ADV PUNCT	-0.31380695
-1.4318908	DET ADV PUNCT	-0.31083232
-1.0498443	VERB ADV PUNCT	-0.5739071
-1.5796452	CCONJ ADV PUNCT	-0.31380695
-1.0970114	NUM ADV PUNCT	-0.44997898
-1.0806783	PUNCT ADV PUNCT	-0.57933265
-1.1323031	ADV ADV PUNCT	-0.49215084
-1.1289676	PRON ADV PUNCT	-0.4253709
-1.2914324	ADP ADV PUNCT	-0.32687736
-1.4488631	SCONJ ADV PUNCT	-0.31380695
-1.3830829	X ADV PUNCT	-0.31380695
-0.76162076	INTJ ADV PUNCT	-0.31380695
-2.4510906	<s> PRON PUNCT	-0.6639042
-1.0134032	PROPN PRON PUNCT	-0.33879498
-0.9948917	NOUN PRON PUNCT	-0.5263979
-0.89630926	PART PRON PUNCT	-0.38057196
-0.6691056	ADJ PRON PUNCT	-0.31157407
-0.7961127	DET PRON PUNCT	-0.29841655
-1.0733691	VERB PRON PUNCT	-0.6774767
-0.93821424	CCONJ PRON PUNCT	-0.4218728
-1.0216787	NUM PRON PUNCT	-0.36428502
-1.145608	PUNCT PRON PUNCT	-0.4008433
-0.97108597	ADV PRON PUNCT	-0.44943798
-0.98937315	PRON PRON PUNCT	-0.38281256
-1.1786633	ADP PRON PUNCT	-0.42135367
-1.2279285	SCONJ PRON PUNCT	-0.31157407
-1.4583665	X PRON PUNCT	-0.31380695
-1.7204777	<s> ADP PUNCT	-1.0953854
-1.1174654	PROPN ADP PUNCT	-0.46636757
-1.1040472	NOUN ADP PUNCT	-0.56180483
-1.4290974	PART ADP PUNCT	-0.31023982
-1.3204482	ADJ ADP PUNCT	-0.31380695
-1.3955382	DET ADP PUNCT	-0.31157407
-1.1583802	VERB ADP PUNCT	-0.52052194
-1.2527567	CCONJ ADP PUNCT	-0.31083232
-1.1852753	NUM ADP PUNCT	-0.30031082
-1.1607593	PUNCT ADP PUNCT	-0.45539027
-1.1038214	ADV ADP PUNCT	-0.42955595
-1.1100445	PRON ADP PUNCT	-0.4169216
-1.0531579	ADP ADP PUNCT	-0.39722082
-1.1264431	SCONJ ADP PUNCT	-0.29240993
-0.98324907	X ADP PUNCT	-0.31380695
-2.3966777	<s> SCONJ PUNCT	-0.33679685
-1.5062526	PUNCT SCONJ PUNCT	-0.31231707
-1.4225457	ADV SCONJ PUNCT	-0.31380695
-1.368241	PRON SCONJ PUNCT	-0.31380695
-1.0288699	ADP SCONJ PUNCT	-0.31380695
-1.4135325	<s> X PUNCT	-0.3676418
-1.0755017	PROPN X PUNCT	-0.36006644
-1.2072426	NOUN X PUNCT	-0.4012809
-1.2565441	PART X PUNCT	-0.31157407
-1.326991	DET X PUNCT	-0.31380695
-1.062606	VERB X PUNCT	-0.34393772
-1.2455925	CCONJ X PUNCT	-0.31380695
-1.2793425	NUM X PUNCT	-0.31380695
-1.1099074	PUNCT X PUNCT	-0.3189077
-1.183951	ADV X PUNCT	-0.37645733
-1.5011997	PRON X PUNCT	-0.31380695
-1.426144	ADP X PUNCT	-0.31380695
-0.94421065	X X PUNCT	-0.31380695
-0.16341665	<s> INTJ PUNCT	-1.2090504
-0.67280185	PROPN INTJ PUNCT	-0.3093526
-0.41808823	PART INTJ PUNCT	-0.28147122
-0.48479876	VERB INTJ PUNCT	-0.31380695
-0.30615583	PUNCT INTJ PUNCT	-0.3613588
-0.22363028	INTJ INTJ PUNCT	-0.31083232
-1.1232122	<s> PROPN ADV	-1.8864235
-1.096529	PROPN PROPN ADV	-0.54810363
-1.1164187	NOUN PROPN ADV	-0.64574337
-1.014889	PART PROPN ADV	-0.5052651
-0.9998664	ADJ PROPN ADV	-0.42763495
-1.0463768	DET PROPN ADV	-0.49878937
-1.1309433	VERB PROPN ADV	-0.61705774
-1.1520125	CCONJ PROPN ADV	-0.35587746
-1.155232	NUM PROPN ADV	-0.52456707
-1.1419743	PUNCT PROPN ADV	-0.5792559
-1.0964673	ADV PROPN ADV	-0.4251488
-1.2345155	PRON PROPN ADV	-0.37159118
-1.1236683	ADP PROPN ADV	-0.59252816
-0.9933291	SCONJ PROPN ADV	-0.35972488
-1.3747275	X PROPN ADV	-0.38624224
-0.86690557	<s> NOUN ADV	-2.1729515
-1.1341039	PROPN NOUN ADV	-0.7622707
-1.1271403	NOUN NOUN ADV	-0.8324793
-1.1522648	PART NOUN ADV	-0.6419861
-1.1128311	ADJ NOUN ADV	-0.7284096
-1.0943946	DET NOUN ADV	-0.66581506
-1.1394461	VERB NOUN ADV	-0.73398876
-0.9705116	CCONJ NOUN ADV	-0.517036
-1.0850546	NUM NOUN ADV	-0.6893267
-1.1052114	PUNCT NOUN ADV	-0.64661914
-0.98160475	ADV NOUN ADV	-0.5575982
-0.9908475	PRON NOUN ADV	-0.5481752
-1.1110973	ADP NOUN ADV	-0.61699677
-0.7933342	SCONJ NOUN ADV	-0.393666
-1.0509673	X NOUN ADV	-0.6316958
-1.1321647	INTJ NOUN ADV	-0.31380695
-0.76711154	SPACE NOUN ADV	-0.31380695
-1.9920628	<s> PART ADV	-0.31380695
-1.1353784	PROPN PART ADV	-0.5196293
-1.1373749	NOUN PART ADV	-0.74635804
-1.379702	PART PART ADV	-0.30297667
-1.4390857	ADJ PART ADV	-0.37329936
-1.1924036	DET PART ADV	-0.40640995
-1.1215528	VERB PART ADV	-0.73249507
-1.0753201	CCONJ PART ADV	-0.31380695
-0.999182	NUM PART ADV	-0.45772627
-1.1952788	PUNCT PART ADV	-0.4208424
-0.98130256	ADV PART ADV	-0.511181
-1.0924739	PRON PART ADV	-0.4109466
-1.0276564	ADP PART ADV	-0.28933224
-2.4596803	<s> ADJ ADV	-0.58250123
-1.4200594	PROPN ADJ ADV	-0.3093526
-1.3876346	NOUN ADJ ADV	-0.38624224
-1.2955614	PART ADJ ADV	-0.29411814
-1.2533187	DET ADJ ADV	-0.31157407
-1.2448249	VERB ADJ ADV	-0.407561
-1.4807885	CCONJ ADJ ADV	-0.31380695
-1.6306953	NUM ADJ ADV	-0.31380695
-1.539469	PUNCT ADJ ADV	-0.31380695
-1.6322199	ADV ADJ ADV	-0.31380695
-1.5161703	PRON ADJ ADV	-0.31380695
-1.6710433	ADP ADJ ADV	-0.31380695
-1.4166808	X ADJ ADV	-0.31380695
-2.0771384	<s> DET ADV	-0.7526016
-1.3404844	PROPN DET ADV	-0.31157407
-1.097626	NOUN DET ADV	-0.3998265
-1.1731102	PART DET ADV	-0.3356144
-0.94976807	ADJ DET ADV	-0.28933224
-1.0166794	DET DET ADV	-0.42657828
-1.1412939	VERB DET ADV	-0.52887315
-1.0548123	CCONJ DET ADV	-0.32837978
-1.1455574	PUNCT DET ADV	-0.37591347
-1.0289454	ADV DET ADV	-0.34790564
-1.3205608	PRON DET ADV	-0.29411814
-1.0589303	ADP DET ADV	-0.4884311
-1.336073	X DET ADV	-0.28147122
-1.3316354	<s> VERB ADV	-1.492987
-1.1424778	PROPN VERB ADV	-0.66998786
-1.1743668	NOUN VERB ADV	-0.8343132
-1.1420387	PART VERB ADV	-0.4471486
-1.3315688	ADJ VERB ADV	-0.28933224
-1.2245364	DET VERB ADV	-0.37097967
-1.1392213	VERB VERB ADV	-0.72197986
-1.1047457	CCONJ VERB ADV	-0.36578375
-1.1200198	NUM VERB ADV	-0.4625477
-1.1839741	PUNCT VERB ADV	-0.54128957
-1.1681105	ADV VERB ADV	-0.74188876
-1.0915724	PRON VERB ADV	-0.6620395
-1.2205476	ADP VERB ADV	-0.46681973
-1.0677503	SCONJ VERB ADV	-0.4682277
-1.1613047	X VERB ADV	-0.49709857
-0.9573866	INTJ VERB ADV	-0.31380695
-1.2309834	<s> CCONJ ADV	-0.71225196
-1.0668105	PROPN CCONJ ADV	-0.42672855
-1.0610125	NOUN CCONJ ADV	-0.54753727
-1.1126052	PART CCONJ ADV	-0.31083232
-1.1189858	ADJ CCONJ ADV	-0.31380695
-0.8899678	VERB CCONJ ADV	-0.556504
-1.2104468	NUM CCONJ ADV	-0.2973382
-1.0395843	PUNCT CCONJ ADV	-0.4154057
-0.9562801	ADV CCONJ ADV	-0.3998265
-1.0502175	PRON CCONJ ADV	-0.29841655
-1.075014	ADP CCONJ ADV	-0.31380695
-0.64705855	SCONJ CCONJ ADV	-0.31380695
-1.9674932	<s> NUM ADV	-0.6881781
-1.0977386	PROPN NUM ADV	-0.46935442
-1.1373293	NOUN NUM ADV	-0.50819194
-1.1539404	PART NUM ADV	-0.30476305
-1.4361614	ADJ NUM ADV	-0.31380695
-1.099662	DET NUM ADV	-0.48753685
-1.1761582	VERB NUM ADV	-0.52141374
-1.196684	CCONJ NUM ADV	-0.43853799
-1.0934787	NUM NUM ADV	-0.75114024
-1.1768575	PUNCT NUM ADV	-0.3721598
-1.1581923	ADV NUM ADV	-0.48500517
-1.1114953	PRON NUM ADV	-0.28933224
-1.1733927	ADP NUM ADV	-0.43969992
-1.2330619	SCONJ NUM ADV	-0.31380695
-1.3339328	X NUM ADV	-0.3093526
-1.1760888	<s> PUNCT ADV	-1.2193233
-1.1330029	PROPN PUNCT ADV	-0.6635345
-1.1584717	NOUN PUNCT ADV	-0.8513465
-1.0617478	PART PUNCT ADV	-0.5475781
-0.9706343	ADJ PUNCT ADV	-0.46542352
-1.6576762	DET PUNCT ADV	-0.31380695
-1.1483948	VERB PUNCT ADV	-0.76977104
-1.1506107	CCONJ PUNCT ADV	-0.35764492
-1.1074187	NUM PUNCT ADV	-0.5733468
-1.1379981	PUNCT PUNCT ADV	-0.58469063
-1.0678078	ADV PUNCT ADV	-0.44345042
-1.0569128	PRON PUNCT ADV	-0.43945923
-1.0883375	ADP PUNCT ADV	-0.48336834
-1.1320069	SCONJ PUNCT ADV	-0.31380695
-1.1849923	X PUNCT ADV	-0.40640995
-1.2793833	INTJ PUNCT ADV	-0.31380695
-0.78440607	<s> ADV ADV	-2.2564764
-1.0019567	PROPN ADV ADV	-0.62960947
-1.0646801	NOUN ADV ADV	-0.803088
-0.9624985	PART ADV ADV	-0.3669018
-1.2129078	ADJ ADV ADV	-0.3093526
-0.84693164	DET ADV ADV	-0.55070055
-1.0498443	VERB ADV ADV	-0.5889591
-0.92208666	CCONJ ADV ADV	-0.4290107
-0.8618471	NUM ADV ADV	-0.59693366
-1.1212534	PUNCT ADV ADV	-0.5790868
-1.0543754	ADV ADV ADV	-0.58392495
-0.93946135	PRON ADV ADV	-0.58487356
-1.0345426	ADP ADV ADV	-0.4826236
-0.76084507	SCONJ ADV ADV	-0.44059995
-1.3830829	X ADV ADV	-0.31380695
-0.76162076	INTJ ADV ADV	-0.31380695
-0.48117092	<s> PRON ADV	-2.3040032
-0.95583165	PROPN PRON ADV	-0.5525737
-0.9363816	NOUN PRON ADV	-0.6417926
-0.80170214	PART PRON ADV	-0.48209563
-0.72381884	DET PRON ADV	-0.47199494
-1.1085902	VERB PRON ADV	-0.61675024
-1.0132546	CCONJ PRON ADV	-0.3998265
-1.0292033	NUM PRON ADV	-0.34048477
-1.0261914	PUNCT PRON ADV	-0.57803655
-0.97524637	ADV PRON ADV	-0.46792355
-0.74565274	PRON PRON ADV	-0.5745101
-1.0572765	ADP PRON ADV	-0.5099878
-0.8341657	SCONJ PRON ADV	-0.3680318
-1.1386577	X PRON ADV	-0.38624224
-1.4939339	<s> ADP ADV	-1.2402468
-1.1674153	PROPN ADP ADV	-0.39854196
-1.1077433	NOUN ADP ADV	-0.57117814
-1.1022661	PART ADP ADV	-0.29965296
-1.4078506	DET ADP ADV	-0.28147122
-1.0475376	VERB ADP ADV	-0.5495571
-1.126364	CCONJ ADP ADV	-0.30031082
-1.2977779	NUM ADP ADV	-0.2973382
-1.1153915	PUNCT ADP ADV	-0.45736778
-1.2057925	ADV ADP ADV	-0.41496393
-1.1664783	PRON ADP ADV	-0.44497666
-1.1281227	ADP ADP ADV	-0.3503796
-1.3780739	SCONJ ADP ADV	-0.31380695
-1.2722013	X ADP ADV	-0.31380695
-1.1308079	<s> SCONJ ADV	-1.0676323
-0.512457	PROPN SCONJ ADV	-0.47199494
-0.7496482	NOUN SCONJ ADV	-0.56777793
-0.9247691	PART SCONJ ADV	-0.31380695
-0.22142847	DET SCONJ ADV	-0.31380695
-1.0219343	VERB SCONJ ADV	-0.44024613
-0.9565961	PUNCT SCONJ ADV	-0.49709857
-1.0930624	ADV SCONJ ADV	-0.3125296
-0.6763005	PRON SCONJ ADV	-0.4208424
-0.9125763	ADP SCONJ ADV	-0.3093526
-0.632533	SCONJ SCONJ ADV	-0.31380695
-1.9619842	<s> X ADV	-0.31157407
-1.1737971	PROPN X ADV	-0.31201974
-0.981475	NOUN X ADV	-0.61555046
-1.05363	PART X ADV	-0.38624224
-1.3662989	DET X ADV	-0.31380695
-0.98541605	VERB X ADV	-0.54443526
-1.1278833	CCONJ X ADV	-0.3093526
-1.3149792	NUM X ADV	-0.31380695
-1.4606553	PUNCT X ADV	-0.31083232
-1.0151362	ADV X ADV	-0.5623335
-1.4081533	PRON X ADV	-0.3093526
-1.6241496	<s> INTJ ADV	-0.31380695
-1.3894781	PUNCT INTJ ADV	-0.31380695
-2.5262785	<s> PROPN PRON	-0.7544206
-1.3017905	PROPN PROPN PRON	-0.47825336
-1.2320523	NOUN PROPN PRON	-0.36608863
-1.5239886	PART PROPN PRON	-0.3012334
-1.731878	DET PROPN PRON	-0.31380695
-1.2892817	VERB PROPN PRON	-0.43098733
-1.4993695	CCONJ PROPN PRON	-0.31125602
-1.3928046	PUNCT PROPN PRON	-0.44639692
-1.4847008	ADV PROPN PRON	-0.30082312
-1.5158011	PRON PROPN PRON	-0.31380695
-1.2496982	ADP PROPN PRON	-0.49260667
-1.7948866	X PROPN PRON	-0.31380695
-1.8768793	<s> NOUN PRON	-1.2689769
-1.3159735	PROPN NOUN PRON	-0.49345225
-1.222204	NOUN NOUN PRON	-0.61972135
-1.2982016	PART NOUN PRON	-0.4534558
-1.3397726	ADJ NOUN PRON	-0.36636803
-1.2346796	DET NOUN PRON	-0.46286887
-1.2068553	VERB NOUN PRON	-0.5830461
-1.2806056	CCONJ NOUN PRON	-0.29590368
-1.266924	NUM NOUN PRON	-0.49115002
-1.303371	PUNCT NOUN PRON	-0.47697023
-1.3867329	ADV NOUN PRON	-0.32020137
-1.2996436	PRON NOUN PRON	-0.37645733
-1.2218324	ADP NOUN PRON	-0.5530649
-1.4259007	SCONJ NOUN PRON	-0.31157407
-1.6945314	X NOUN PRON	-0.31157407
-1.2849417	PROPN PART PRON	-0.4392477
-1.1743424	NOUN PART PRON	-0.63304436
-1.4075031	PART PART PRON	-0.31201974
-1.2666777	ADJ PART PRON	-0.2973382
-1.6392869	DET PART PRON	-0.31380695
-1.1285299	VERB PART PRON	-0.6702101
-1.2085595	NUM PART PRON	-0.3025761
-1.6787521	PUNCT PART PRON	-0.31380695
-1.4074061	ADV PART PRON	-0.31125602
-1.5129509	PRON PART PRON	-0.31231707
-1.4629472	ADP PART PRON	-0.31380695
-1.8319106	PROPN ADJ PRON	-0.31380695
-1.6672767	PART ADJ PRON	-0.31380695
-1.7396551	VERB ADJ PRON	-0.31023982
-1.9495009	PUNCT ADJ PRON	-0.31380695
-1.6508814	ADV ADJ PRON	-0.3093526
-1.873111	ADP ADJ PRON	-0.31380695
-2.7514546	<s> DET PRON	-0.34048477
-1.6186876	NOUN DET PRON	-0.31083232
-1.5402925	PART DET PRON	-0.31380695
-1.42916	DET DET PRON	-0.31083232
-1.1975265	VERB DET PRON	-0.43331483
-1.2619632	CCONJ DET PRON	-0.31201974
-1.3128217	PUNCT DET PRON	-0.29590368
-1.5064646	ADV DET PRON	-0.28933224
-1.5926491	PRON DET PRON	-0.31380695
-1.4882436	ADP DET PRON	-0.31157407
-1.6081612	X DET PRON	-0.31380695
-1.0964664	<s> VERB PRON	-1.6843104
-1.1750579	PROPN VERB PRON	-0.6033462
-1.1770526	NOUN VERB PRON	-0.8065651
-1.1871061	PART VERB PRON	-0.5582535
-1.5734453	ADJ VERB PRON	-0.31380695
-1.1764039	DET VERB PRON	-0.5183404
-1.1418567	VERB VERB PRON	-0.7291529
-1.2368629	CCONJ VERB PRON	-0.38563812
-1.2629988	NUM VERB PRON	-0.40743154
-1.149625	PUNCT VERB PRON	-0.6421306
-1.1710978	ADV VERB PRON	-0.73863316
-1.1564182	PRON VERB PRON	-0.60773075
-1.13642	ADP VERB PRON	-0.5721538
-1.1316835	SCONJ VERB PRON	-0.424762
-1.2761377	X VERB PRON	-0.2937168
-1.20796	<s> CCONJ PRON	-0.70829797
-1.0831573	PROPN CCONJ PRON	-0.46760294
-1.0751265	NOUN CCONJ PRON	-0.6120965
-1.2829516	VERB CCONJ PRON	-0.35146335
-0.7808297	CCONJ CCONJ PRON	-0.3093526
-1.4986918	NUM CCONJ PRON	-0.31380695
-1.2733685	PUNCT CCONJ PRON	-0.34166119
-1.4320357	ADV CCONJ PRON	-0.31380695
-0.9382586	PRON CCONJ PRON	-0.44641143
-2.8436556	<s> NUM PRON	-0.31083232
-1.6465247	PROPN NUM PRON	-0.31083232
-1.4781455	NOUN NUM PRON	-0.31125602
-1.704332	PART NUM PRON	-0.31380695
-1.6890703	DET NUM PRON	-0.31380698
-1.2462145	VERB NUM PRON	-0.47282335
-1.7262254	CCONJ NUM PRON	-0.31380695
-1.2473135	NUM NUM PRON	-0.556081
-1.6538604	ADV NUM PRON	-0.31083232
-1.6022828	PRON NUM PRON	-0.31380695
-0.97658575	<s> PUNCT PRON	-1.377995
-1.2366078	PROPN PUNCT PRON	-0.5672387
-1.2200238	NOUN PUNCT PRON	-0.68895656
-1.1479987	PART PUNCT PRON	-0.48504964
-1.5406137	ADJ PUNCT PRON	-0.31380695
-1.5316765	DET PUNCT PRON	-0.31380695
-1.1780813	VERB PUNCT PRON	-0.6726779
-1.2825245	CCONJ PUNCT PRON	-0.29411814
-1.2311205	NUM PUNCT PRON	-0.47585276
-1.1379981	PUNCT PUNCT PRON	-0.51954937
-1.1135234	ADV PUNCT PRON	-0.4380941
-0.9770901	PRON PUNCT PRON	-0.4534558
-1.1396387	ADP PUNCT PRON	-0.41212553
-1.1320069	SCONJ PUNCT PRON	-0.31380695
-1.5464069	X PUNCT PRON	-0.31380695
-1.0047537	INTJ PUNCT PRON	-0.31201974
-1.0895493	<s> ADV PRON	-1.9492366
-1.2845017	PROPN ADV PRON	-0.44990152
-1.1982515	NOUN ADV PRON	-0.50779456
-1.4307063	PART ADV PRON	-0.31182164
-1.69837	DET ADV PRON	-0.31380695
-1.2527527	VERB ADV PRON	-0.41428742
-1.5075656	CCONJ ADV PRON	-0.31380695
-1.5069027	NUM ADV PRON	-0.31231707
-1.180288	PUNCT ADV PRON	-0.53682995
-1.144914	ADV ADV PRON	-0.4171891
-1.3223534	PRON ADV PRON	-0.424762
-1.1601917	ADP ADV PRON	-0.33138248
-1.3643728	SCONJ ADV PRON	-0.31157407
-2.3461738	<s> PRON PRON	-0.81344634
-1.4297388	PROPN PRON PRON	-0.31083232
-1.2657002	NOUN PRON PRON	-0.30031082
-1.4407206	PART PRON PRON	-0.31157407
-1.4515244	DET PRON PRON	-0.31380695
-1.1806381	VERB PRON PRON	-0.6108929
-1.0132546	CCONJ PRON PRON	-0.42227694
-1.4241909	NUM PRON PRON	-0.31380695
-1.105006	PUNCT PRON PRON	-0.46203706
-1.2784052	ADV PRON PRON	-0.30315512
-1.5150478	PRON PRON PRON	-0.3093526
-1.2348346	ADP PRON PRON	-0.4623643
-1.3410561	SCONJ PRON PRON	-0.31157407
-1.2419724	X PRON PRON	-0.31380695
-0.9941876	<s> ADP PRON	-1.703979
-1.039342	PROPN ADP PRON	-0.54846513
-1.072562	NOUN ADP PRON	-0.676931
-1.0121545	PART ADP PRON	-0.39678043
-1.0350891	ADJ ADP PRON	-0.31083232
-0.9481316	DET ADP PRON	-0.3306658
-1.0122471	VERB ADP PRON	-0.68724036
-1.0145975	CCONJ ADP PRON	-0.37645733
-0.91783524	NUM ADP PRON	-0.46206522
-0.9873292	PUNCT ADP PRON	-0.6049607
-1.0246372	ADV ADP PRON	-0.58487356
-0.98420566	PRON ADP PRON	-0.5640329
-0.99367774	ADP ADP PRON	-0.39843988
-0.9372038	SCONJ ADP PRON	-0.29985854
-0.98324907	X ADP PRON	-0.31083232
-0.66472065	<s> SCONJ PRON	-1.4859631
-1.2013341	NOUN SCONJ PRON	-0.31023982
-0.9424385	PART SCONJ PRON	-0.31380695
-0.82983315	VERB SCONJ PRON	-0.48414737
-0.64133155	CCONJ SCONJ PRON	-0.31380695
-0.8285708	PUNCT SCONJ PRON	-0.5754916
-0.78466535	ADV SCONJ PRON	-0.33138248
-1.0650356	PRON SCONJ PRON	-0.31380695
-0.9299223	ADP SCONJ PRON	-0.31083232
-0.64133155	SCONJ SCONJ PRON	-0.31380695
-0.94567645	<s> X PRON	-0.6972403
-1.0232029	PROPN X PRON	-0.42672855
-0.94612527	NOUN X PRON	-0.5649362
-1.05363	PART X PRON	-0.36428502
-1.1990081	DET X PRON	-0.31380695
-0.9471564	VERB X PRON	-0.5579715
-0.84932464	CCONJ X PRON	-0.37329936
-0.91652435	PUNCT X PRON	-0.424762
-1.0151362	ADV X PRON	-0.5319473
-1.041349	PRON X PRON	-0.3791347
-1.0145531	SCONJ X PRON	-0.31380695
-1.6204537	<s> INTJ PRON	-0.31083232
-0.98711455	PROPN INTJ PRON	-0.31380695
-0.68288165	ADV INTJ PRON	-0.31380695
-1.3182445	<s> PROPN ADP	-1.7555394
-1.1286844	PROPN PROPN ADP	-0.6832105
-1.0866065	NOUN PROPN ADP	-0.64047813
-1.1913049	PART PROPN ADP	-0.4409755
-1.0471035	ADJ PROPN ADP	-0.4838701
-1.2742966	DET PROPN ADP	-0.4208424
-1.1309433	VERB PROPN ADP	-0.645522
-1.2323802	CCONJ PROPN ADP	-0.36470807
-1.1026157	NUM PROPN ADP	-0.45859888
-1.2208441	PUNCT PROPN ADP	-0.5784593
-1.1482979	ADV PROPN ADP	-0.43752974
-1.0456545	PRON PROPN ADP	-0.29662037
-1.1236683	ADP PROPN ADP	-0.60402924
-0.9933291	SCONJ PROPN ADP	-0.29431212
-1.1153243	X PROPN ADP	-0.407561
-1.2885563	<s> NOUN ADP	-1.8341026
-1.139179	PROPN NOUN ADP	-0.814764
-1.1600977	NOUN NOUN ADP	-0.8654895
-1.2007633	PART NOUN ADP	-0.63621396
-1.1181042	ADJ NOUN ADP	-0.7453584
-1.0994697	DET NOUN ADP	-0.70004445
-1.1446204	VERB NOUN ADP	-0.7481338
-1.1542403	CCONJ NOUN ADP	-0.39943683
-1.1201932	NUM NOUN ADP	-0.7293338
-1.1106479	PUNCT NOUN ADP	-0.61986786
-1.1634743	ADV NOUN ADP	-0.49403906
-1.0635278	PRON NOUN ADP	-0.53564197
-1.148795	ADP NOUN ADP	-0.646613
-1.1802287	SCONJ NOUN ADP	-0.34436935
-1.0578343	X NOUN ADP	-0.45772627
-1.1862055	PROPN PART ADP	-0.45722765
-1.1442183	NOUN PART ADP	-0.7385175
-1.6434786	PART PART ADP	-0.31380695
-1.602245	ADJ PART ADP	-0.28147122
-1.6392869	DET PART ADP	-0.31380695
-1.1908975	VERB PART ADP	-0.6451369
-1.5934476	NUM PART ADP	-0.31023982
-1.4561566	PUNCT PART ADP	-0.30297667
-1.0373033	ADV PART ADP	-0.37645733
-1.4116364	PRON PART ADP	-0.36285046
-1.3129556	ADP PART ADP	-0.3093526
-2.5587797	<s> ADJ ADP	-0.29411814
-1.4500567	PROPN ADJ ADP	-0.28933224
-1.4100392	NOUN ADJ ADP	-0.29411814
-1.5469155	PART ADJ ADP	-0.31380695
-1.2742727	DET ADJ ADP	-0.3093526
-1.3277779	VERB ADJ ADP	-0.39613706
-1.5265924	CCONJ ADJ ADP	-0.31380695
-1.676515	NUM ADJ ADP	-0.31380695
-1.3290018	PUNCT ADJ ADP	-0.2973382
-1.6799155	ADV ADJ ADP	-0.31380695
-1.7198501	ADP ADJ ADP	-0.31380695
-2.09789	<s> DET ADP	-0.7743762
-1.0770911	PROPN DET ADP	-0.34393772
-1.2698817	NOUN DET ADP	-0.30082312
-1.1650257	PART DET ADP	-0.33465585
-1.3692708	ADJ DET ADP	-0.31380695
-1.2571721	DET DET ADP	-0.28933224
-1.1367314	VERB DET ADP	-0.49215084
-1.04829	CCONJ DET ADP	-0.35146335
-1.2803347	NUM DET ADP	-0.31380695
-1.2067682	PUNCT DET ADP	-0.42227694
-1.3331317	ADV DET ADP	-0.29431212
-1.3077224	PRON DET ADP	-0.31157407
-1.1005996	ADP DET ADP	-0.43461472
-1.4199361	X DET ADP	-0.31157407
-1.2623825	<s> VERB ADP	-1.6262015
-1.1750579	PROPN VERB ADP	-0.6962889
-1.1490841	NOUN VERB ADP	-0.88890904
-1.1454934	PART VERB ADP	-0.524797
-1.0821857	ADJ VERB ADP	-0.45756248
-1.1764039	DET VERB ADP	-0.48434162
-1.1718117	VERB VERB ADP	-0.7432705
-1.1092262	CCONJ VERB ADP	-0.44471794
-1.0853283	NUM VERB ADP	-0.59386635
-1.149625	PUNCT VERB ADP	-0.58250123
-1.1413287	ADV VERB ADP	-0.7704917
-1.1241729	PRON VERB ADP	-0.6475049
-1.1782781	ADP VERB ADP	-0.52025086
-1.0720459	SCONJ VERB ADP	-0.41419512
-1.077177	X VERB ADP	-0.43194172
-1.0544684	<s> CCONJ ADP	-0.7991784
-1.2613503	PROPN CCONJ ADP	-0.28594577
-1.1428528	NOUN CCONJ ADP	-0.56084365
-1.1495862	PART CCONJ ADP	-0.31380695
-1.0039186	VERB CCONJ ADP	-0.50186193
-1.3431503	NUM CCONJ ADP	-0.31380695
-1.0534157	PUNCT CCONJ ADP	-0.3915269
-1.4109329	ADV CCONJ ADP	-0.31380695
-1.629394	PRON CCONJ ADP	-0.31380695
-0.23267095	X CCONJ ADP	-0.31380695
-2.3365471	<s> NUM ADP	-0.5398711
-1.3603874	PROPN NUM ADP	-0.29841655
-1.2960656	NOUN NUM ADP	-0.407561
-1.4929136	PART NUM ADP	-0.31083232
-1.1039612	DET NUM ADP	-0.4930471
-1.1805469	VERB NUM ADP	-0.5063932
-1.2049361	CCONJ NUM ADP	-0.29922706
-1.0966002	NUM NUM ADP	-0.69960093
-1.1826245	PUNCT NUM ADP	-0.29198456
-1.221739	ADV NUM ADP	-0.4159781
-1.378487	PRON NUM ADP	-0.31380695
-1.0660969	ADP NUM ADP	-0.4072065
-1.2472024	SCONJ NUM ADP	-0.31380695
-1.3482994	X NUM ADP	-0.3093526
-1.3585917	<s> PUNCT ADP	-1.1028697
-1.1359172	PROPN PUNCT ADP	-0.6832105
-1.2231606	NOUN PUNCT ADP	-0.80984676
-1.1524374	PART PUNCT ADP	-0.43937144
-1.558053	ADJ PUNCT ADP	-0.31380695
-1.4421881	DET PUNCT ADP	-0.31380695
-1.1511159	VERB PUNCT ADP	-0.74781716
-1.2942022	CCONJ PUNCT ADP	-0.31201974
-1.1898546	NUM PUNCT ADP	-0.51047623
-1.1417007	PUNCT PUNCT ADP	-0.5096115
-1.1177213	ADV PUNCT ADP	-0.4210519
-1.2185651	PRON PUNCT ADP	-0.37645733
-1.2031205	ADP PUNCT ADP	-0.36356717
-1.5644579	X PUNCT ADP	-0.31380695
-1.2943529	INTJ PUNCT ADP	-0.31380695
-1.0328308	<s> ADV ADP	-2.0766306
-0.973028	PROPN ADV ADP	-0.6942059
-1.1247575	NOUN ADV ADP	-0.84574264
-1.0943261	PART ADV ADP	-0.41048482
-1.2224469	ADJ ADV ADP	-0.31380695
-0.9922393	DET ADV ADP	-0.47271162
-1.0528286	VERB ADV ADP	-0.63970727
-0.92613965	CCONJ ADV ADP	-0.4310421
-0.9913582	NUM ADV ADP	-0.4341792
-1.0845413	PUNCT ADV ADP	-0.68136317
-1.023308	ADV ADV ADP	-0.66998786
-1.0090986	PRON ADV ADP	-0.6195417
-1.0386107	ADP ADV ADP	-0.511181
-0.8977301	SCONJ ADV ADP	-0.39854196
-1.397963	X ADV ADP	-0.31380695
-1.0784003	<s> PRON ADP	-1.8120412
-0.9016638	PROPN PRON ADP	-0.34393772
-0.99830365	NOUN PRON ADP	-0.52377015
-1.2139931	PART PRON ADP	-0.33475208
-1.4515244	DET PRON ADP	-0.31380695
-1.1085902	VERB PRON ADP	-0.6645031
-1.0966661	CCONJ PRON ADP	-0.32837978
-1.0292033	NUM PRON ADP	-0.31125602
-1.0261914	PUNCT PRON ADP	-0.57735294
-1.0726876	ADV PRON ADP	-0.3896834
-0.99356854	PRON PRON ADP	-0.36285046
-1.1370438	ADP PRON ADP	-0.5316623
-0.9911681	SCONJ PRON ADP	-0.33853987
-0.9251042	X PRON ADP	-0.43752974
-1.7568145	<s> ADP ADP	-1.076534
-1.1218767	PROPN ADP ADP	-0.5266307
-1.1419927	NOUN ADP ADP	-0.5352884
-1.444189	PART ADP ADP	-0.31083232
-1.4078506	DET ADP ADP	-0.29411814
-1.1206576	VERB ADP ADP	-0.49756333
-1.486954	CCONJ ADP ADP	-0.31380695
-1.663966	NUM ADP ADP	-0.31380695
-1.1662638	PUNCT ADP ADP	-0.43611324
-1.2645149	ADV ADP ADP	-0.44044805
-1.2257522	PRON ADP ADP	-0.38809517
-1.545597	ADP ADP ADP	-0.31380695
-1.5066136	SCONJ ADP ADP	-0.31380695
-1.2722013	X ADP ADP	-0.31380695
-1.3819904	<s> SCONJ ADP	-0.8556733
-1.0193758	PROPN SCONJ ADP	-0.31083232
-0.8430048	NOUN SCONJ ADP	-0.38339606
-0.74502283	PART SCONJ ADP	-0.3093526
-1.1313933	VERB SCONJ ADP	-0.31231707
-0.8648511	NUM SCONJ ADP	-0.31380695
-1.0876093	PUNCT SCONJ ADP	-0.36356717
-1.1158829	ADV SCONJ ADP	-0.31182164
-0.95143104	PRON SCONJ ADP	-0.3013972
-0.9299223	ADP SCONJ ADP	-0.31380695
-2.2434802	<s> X ADP	-0.31380695
-1.4423938	PROPN X ADP	-0.28933224
-1.5000496	NOUN X ADP	-0.31083232
-1.2261492	PART X ADP	-0.31083232
-1.3559122	VERB X ADP	-0.2973382
-1.6366798	PUNCT X ADP	-0.31380695
-1.557856	ADV X ADP	-0.29411814
-1.5994565	PRON X ADP	-0.31380695
-1.1898829	X X ADP	-0.31380695
-1.8948226	<s> INTJ ADP	-0.31380695
-0.68288165	NOUN INTJ ADP	-0.31380695
-1.384836	PUNCT INTJ ADP	-0.31380695
-2.8913908	<s> PROPN SCONJ	-0.69957197
-2.1419497	PROPN PROPN SCONJ	-0.31380695
-1.892013	NOUN PROPN SCONJ	-0.31083232
-1.8448753	PART PROPN SCONJ	-0.31083232
-2.1810076	VERB PROPN SCONJ	-0.31380695
-1.6836517	CCONJ PROPN SCONJ	-0.31380695
-1.5848237	PUNCT PROPN SCONJ	-0.3564085
-1.8709434	ADP PROPN SCONJ	-0.28147122
-2.5039248	<s> NOUN SCONJ	-0.917618
-1.3253257	PROPN NOUN SCONJ	-0.4965299
-1.2650135	NOUN NOUN SCONJ	-0.6339097
-1.4397749	PART NOUN SCONJ	-0.3874316
-1.3505678	ADJ NOUN SCONJ	-0.51775247
-1.4455233	DET NOUN SCONJ	-0.4370601
-1.4899498	VERB NOUN SCONJ	-0.3676418
-1.7157793	CCONJ NOUN SCONJ	-0.31380695
-1.4361832	NUM NOUN SCONJ	-0.42657828
-1.4266379	PUNCT NOUN SCONJ	-0.29884863
-1.7236795	ADV NOUN SCONJ	-0.2973382
-1.8025799	PRON NOUN SCONJ	-0.3093526
-2.043333	ADP NOUN SCONJ	-0.31380695
-1.5455866	NOUN PART SCONJ	-0.44024613
-1.7089467	VERB PART SCONJ	-0.31125602
-2.1704679	ADP DET SCONJ	-0.31380695
-3.0108693	<s> VERB SCONJ	-0.4160475
-1.5012405	PROPN VERB SCONJ	-0.30236155
-1.3708502	NOUN VERB SCONJ	-0.4682277
-1.8797052	PART VERB SCONJ	-0.31380695
-1.5697969	VERB VERB SCONJ	-0.28933224
-1.9938616	NUM VERB SCONJ	-0.31380695
-1.4812385	PUNCT VERB SCONJ	-0.29841655
-1.4963336	ADV VERB SCONJ	-0.36766794
-1.5228647	PRON VERB SCONJ	-0.3654543
-2.0120246	ADP VERB SCONJ	-0.31380695
-1.9527816	X VERB SCONJ	-0.31380695
-2.1008155	PROPN CCONJ SCONJ	-0.31380695
-2.107487	VERB CCONJ SCONJ	-0.31380695
-2.01077	PUNCT CCONJ SCONJ	-0.31380695
-2.159369	PROPN NUM SCONJ	-0.31380695
-1.8163326	NUM NUM SCONJ	-0.31380698
-1.9567709	<s> PUNCT SCONJ	-0.7517702
-1.4559168	PROPN PUNCT SCONJ	-0.41933414
-1.2339613	NOUN PUNCT SCONJ	-0.63801855
-1.435359	PART PUNCT SCONJ	-0.32540554
-1.2238845	VERB PUNCT SCONJ	-0.6394322
-1.4425946	CCONJ PUNCT SCONJ	-0.31380695
-1.3644301	NUM PUNCT SCONJ	-0.38069004
-1.297061	PUNCT PUNCT SCONJ	-0.45742878
-1.4027543	ADV PUNCT SCONJ	-0.30236155
-1.8793049	PRON PUNCT SCONJ	-0.31380695
-1.8544266	ADP PUNCT SCONJ	-0.31380695
-1.6318848	X PUNCT SCONJ	-0.31380695
-2.1377027	<s> ADV SCONJ	-1.0791792
-1.7566698	NOUN ADV SCONJ	-0.31380698
-2.1228085	VERB ADV SCONJ	-0.31380695
-1.4077644	PUNCT ADV SCONJ	-0.32599127
-2.0612905	ADV ADV SCONJ	-0.31380695
-1.8571649	PRON ADV SCONJ	-0.31380695
-1.942225	ADP ADV SCONJ	-0.31380695
-2.3374097	<s> PRON SCONJ	-1.1196204
-1.8703378	NOUN PRON SCONJ	-0.31380695
-1.7499174	PART PRON SCONJ	-0.31380695
-1.5935725	DET PRON SCONJ	-0.31380695
-1.4254081	VERB PRON SCONJ	-0.39830723
-1.7468369	PUNCT PRON SCONJ	-0.29922706
-1.62173	ADV PRON SCONJ	-0.29841655
-2.8776035	<s> ADP SCONJ	-0.32943964
-2.115661	PROPN ADP SCONJ	-0.31380695
-1.8991966	NOUN ADP SCONJ	-0.31380695
-2.1699615	VERB ADP SCONJ	-0.31380695
-1.7526513	PUNCT ADP SCONJ	-0.31157407
-2.768298	<s> SCONJ SCONJ	-0.29240993
-1.7946284	VERB SCONJ SCONJ	-0.31380695
-2.4977765	<s> PROPN X	-0.7709336
-1.2552558	PROPN PROPN X	-0.40331483
-1.3743399	NOUN PROPN X	-0.406824
-1.267433	PART PROPN X	-0.29509112
-1.2471875	VERB PROPN X	-0.3956409
-1.7248827	CCONJ PROPN X	-0.31380695
-1.6428977	NUM PROPN X	-0.31157407
-1.2808528	PUNCT PROPN X	-0.42983824
-1.4860201	ADV PROPN X	-0.2973382
-1.2502383	ADP PROPN X	-0.5184691
-1.4476243	SCONJ PROPN X	-0.31380695
-1.0990891	INTJ PROPN X	-0.31380695
-2.490807	<s> NOUN X	-0.8325585
-1.23688	PROPN NOUN X	-0.5599715
-1.1904328	NOUN NOUN X	-0.6599899
-1.2473423	PART NOUN X	-0.5009461
-1.2532022	ADJ NOUN X	-0.53728956
-1.2351592	DET NOUN X	-0.476743
-1.2421198	VERB NOUN X	-0.5415328
-1.5891496	CCONJ NOUN X	-0.31157407
-1.2258191	NUM NOUN X	-0.50562096
-1.3039578	PUNCT NOUN X	-0.43370685
-1.5659236	ADV NOUN X	-0.29509112
-1.4487764	PRON NOUN X	-0.4208424
-1.2640588	ADP NOUN X	-0.5048165
-1.4277472	SCONJ NOUN X	-0.31157407
-1.6031762	X NOUN X	-0.31380695
-1.5162363	PROPN PART X	-0.44024613
-1.2509713	NOUN PART X	-0.60131216
-1.6877445	DET PART X	-0.31380695
-1.2352569	VERB PART X	-0.45953026
-1.488028	NUM PART X	-0.29965296
-1.5981894	PUNCT PART X	-0.31380695
-1.1644413	ADV PART X	-0.30031082
-1.7846571	PRON PART X	-0.31380695
-1.5133471	ADP PART X	-0.31380695
-3.271493	<s> ADJ X	-0.31380695
-2.0177631	NOUN ADJ X	-0.31380695
-1.7301282	PART ADJ X	-0.31380695
-2.1145296	VERB ADJ X	-0.31380695
-2.7001486	<s> DET X	-0.51775247
-1.6996901	NOUN DET X	-0.3093526
-1.5237911	PART DET X	-0.31380695
-1.4078159	ADJ DET X	-0.31380695
-1.511549	DET DET X	-0.31380695
-1.4541287	VERB DET X	-0.34393772
-1.6180015	CCONJ DET X	-0.31380695
-1.407362	PUNCT DET X	-0.31023982
-1.7152591	ADV DET X	-0.31380695
-1.5715934	PRON DET X	-0.31380695
-1.2232866	ADP DET X	-0.38893998
-1.4547224	X DET X	-0.3093526
-2.2304692	<s> VERB X	-0.8478507
-1.2107126	PROPN VERB X	-0.46720585
-1.1801281	NOUN VERB X	-0.7129566
-1.4993867	PART VERB X	-0.2990344
-1.6883198	DET VERB X	-0.31380695
-1.2425127	VERB VERB X	-0.52415246
-1.5631883	CCONJ VERB X	-0.31125602
-1.5797136	NUM VERB X	-0.31380698
-1.5400959	PUNCT VERB X	-0.3411841
-1.2415518	ADV VERB X	-0.61989075
-1.2331661	PRON VERB X	-0.49237388
-1.2817274	ADP VERB X	-0.3998265
-1.5315336	SCONJ VERB X	-0.31023982
-1.7621391	X VERB X	-0.31380695
-1.9800675	<s> CCONJ X	-0.407561
-1.3766104	NOUN CCONJ X	-0.3233514
-1.2376447	VERB CCONJ X	-0.4533185
-1.4414513	NUM CCONJ X	-0.3093526
-1.3113108	PUNCT CCONJ X	-0.3125296
-1.7644434	PRON CCONJ X	-0.31380695
-3.3023958	<s> NUM X	-0.3093526
-1.4889761	NOUN NUM X	-0.38624224
-1.7346696	PART NUM X	-0.31380695
-1.7080554	DET NUM X	-0.28933224
