\data\
ngram 1=21
ngram 2=323
ngram 3=4288
ngram 4=34363

\1-grams:
-2.3709	<unk>	0
0	<s>	-3.6742053
-1.3084887	</s>	0
-1.2333156	PROPN	-1.0585947
-1.2569565	NOUN	-1.0449672
-1.2569565	PUNCT	-1.0613966
-1.2569565	VERB	-1.0500789
-1.2569565	SCONJ	-0.9415482
-1.2569565	AUX	-0.9785694
-1.2569565	ADJ	-1.0188854
-1.2569565	PART	-0.91544044
-1.2569565	ADP	-1.0142405
-1.2569565	DET	-0.98859197
-1.2569565	CCONJ	-0.9785694
-1.2569565	ADV	-1.0340191
-1.2569565	PRON	-0.98025596
-1.2569565	NUM	-0.98527676
-1.2569565	SYM	-0.76508874
-1.2569565	X	-0.8141489
-1.2819587	INTJ	-0.76971805
-2.2362013	SPACE	-0.30103

\2-grams:
-1.2388799	PROPN </s>	0
-1.2576591	NOUN </s>	0
-1.2416818	PUNCT </s>	0
-1.2554356	VERB </s>	0
-1.5386813	SCONJ </s>	0
-1.4175116	AUX </s>	0
-1.2508502	ADJ </s>	0
-1.5686464	PART </s>	0
-1.4110956	ADP </s>	0
-1.4275342	DET </s>	0
-1.7262547	CCONJ </s>	0
-1.2943292	ADV </s>	0
-1.5180236	PRON </s>	0
-1.2759122	NUM </s>	0
-1.1047843	X </s>	0
-1.5054576	INTJ </s>	0
-0.7649433	<s> PROPN	-2.8947778
-1.2328132	PROPN PROPN	-1.0276816
-1.2264532	NOUN PROPN	-0.912038
-1.2356151	PUNCT PROPN	-0.9627907
-1.2242974	VERB PROPN	-0.9634236
-1.1945745	SCONJ PROPN	-0.83676183
-1.2037069	AUX PROPN	-0.8186531
-1.1931038	ADJ PROPN	-0.9186179
-1.2505327	PART PROPN	-0.5224955
-1.1884589	ADP PROPN	-0.9940077
-1.1628106	DET PROPN	-0.94225544
-1.1527879	CCONJ PROPN	-0.7465666
-1.2329513	ADV PROPN	-0.7980092
-1.2053934	PRON PROPN	-0.67497486
-1.184209	NUM PROPN	-0.8624672
-0.918207	SYM PROPN	-0.8265166
-1.0392864	X PROPN	-0.56029433
-1.0701021	INTJ PROPN	-0.49771455
-0.2763652	SPACE PROPN	-0.34946308
-1.1100774	<s> NOUN	-2.5744712
-1.2596579	PROPN NOUN	-0.9751747
-1.2285001	NOUN NOUN	-1.0103391
-1.2624598	PUNCT NOUN	-0.95914114
-1.2263103	VERB NOUN	-1.0093675
-1.1689496	SCONJ NOUN	-0.8462962
-1.2059708	AUX NOUN	-0.8731659
-1.1951166	ADJ NOUN	-1.0103391
-1.1015297	PART NOUN	-0.6990927
-1.1904718	ADP NOUN	-1.0053447
-1.1648233	DET NOUN	-1.0005792
-1.2059708	CCONJ NOUN	-0.7944685
-1.2350823	ADV NOUN	-0.8849333
-1.2356966	PRON NOUN	-0.67069465
-1.1615081	NUM NOUN	-1.0007538
-0.9201242	SYM NOUN	-0.67679065
-1.1665416	X NOUN	-0.6216139
-1.1457196	INTJ NOUN	-0.42775595
-1.4359219	<s> PUNCT	-2.2238076
-1.2348261	PROPN PUNCT	-1.0546465
-1.2285001	NOUN PUNCT	-1.0531915
-1.237628	PUNCT PUNCT	-1.0167259
-1.2263103	VERB PUNCT	-0.9989311
-1.1969888	SCONJ PUNCT	-0.7807591
-1.23401	AUX PUNCT	-0.84560657
-1.1951166	ADJ PUNCT	-0.99059504
-1.1560965	PART PUNCT	-0.77891576
-1.2153037	ADP PUNCT	-0.8531332
-1.2440326	DET PUNCT	-0.88267034
-1.23401	CCONJ PUNCT	-0.63061005
-1.2350823	ADV PUNCT	-0.98380905
-1.1564872	PRON PUNCT	-0.8821714
-1.1863399	NUM PUNCT	-0.9518873
-1.0860583	SYM PUNCT	-0.47136182
-1.015212	X PUNCT	-0.7281944
-0.9558074	INTJ PUNCT	-0.67499644
-1.3512639	<s> VERB	-2.3633075
-1.2113376	PROPN VERB	-0.9872153
-1.2532927	NOUN VERB	-0.9939487
-1.2624598	PUNCT VERB	-0.9627907
-1.2263103	VERB VERB	-0.9501761
-1.1969888	SCONJ VERB	-0.83115774
-1.1796325	AUX VERB	-0.95372367
-1.274326	ADJ VERB	-0.9025735
-1.076619	PART VERB	-0.9609924
-1.1904718	ADP VERB	-0.9234906
-1.1896552	DET VERB	-0.9441275
-1.1796325	CCONJ VERB	-0.88267034
-1.2102504	ADV VERB	-0.9634236
-1.1564872	PRON VERB	-0.9939487
-1.2126781	NUM VERB	-0.86237955
-1.1284822	SYM VERB	-0.40458703
-1.1665416	X VERB	-0.4582075
-1.0727956	INTJ VERB	-0.5412306
-1.4328824	<s> SCONJ	-2.290737
-1.2348261	PROPN SCONJ	-0.8095694
-1.2532927	NOUN SCONJ	-0.88198936
-1.2624598	PUNCT SCONJ	-0.9263719
-1.251142	VERB SCONJ	-0.9314619
-1.2269641	SCONJ SCONJ	-0.7323744
-1.2639852	AUX SCONJ	-0.7850298
-1.2199485	ADJ SCONJ	-0.877926
-1.2914419	PART SCONJ	-0.5458553
-1.2696811	ADP SCONJ	-0.61731255
-1.3787923	DET SCONJ	-0.50763875
-1.2639852	CCONJ SCONJ	-0.67548734
-1.2350823	ADV SCONJ	-0.83925587
-1.2356966	PRON SCONJ	-0.59382266
-1.2407173	NUM SCONJ	-0.5500469
-1.8754355	SYM SCONJ	-0.34946308
-1.4677818	X SCONJ	-0.3310683
-1.4910651	INTJ SCONJ	-0.40538943
-2.059593	<s> AUX	-1.7212111
-1.2348261	PROPN AUX	-0.96253103
-1.2285001	NOUN AUX	-0.96155566
-1.2624598	PUNCT AUX	-0.9389281
-1.251142	VERB AUX	-0.88922155
-1.2591627	SCONJ AUX	-0.6327824
-1.2059708	AUX AUX	-0.7745382
-1.2199485	ADJ AUX	-0.8375758
-1.1279566	PART AUX	-0.8522253
-1.2996563	ADP AUX	-0.6294407
-1.1896552	DET AUX	-0.9019263
-1.23401	CCONJ AUX	-0.7937897
-1.2102504	ADV AUX	-0.88142955
-1.1564872	PRON AUX	-0.97115904
-1.2407173	NUM AUX	-0.7834521
-1.5438006	SYM AUX	-0.3456207
-1.4677818	X AUX	-0.33032742
-1.2334095	INTJ AUX	-0.42314985
-1.3276291	<s> ADJ	-2.3750412
-1.2596579	PROPN ADJ	-0.74729896
-1.2285001	NOUN ADJ	-0.8867358
-1.2624598	PUNCT ADJ	-0.9105256
-1.2263103	VERB ADJ	-0.90417445
-1.1969888	SCONJ ADJ	-0.7666761
-1.1796325	AUX ADJ	-0.90482897
-1.2199485	ADJ ADJ	-0.83381045
-1.1560965	PART ADJ	-0.76485395
-1.1904718	ADP ADJ	-0.9051293
-1.1648233	DET ADJ	-0.9155528
-1.2059708	CCONJ ADJ	-0.7604616
-1.2614205	ADV ADJ	-0.9441373
-1.2076573	PRON ADJ	-0.7437522
-1.2126781	NUM ADJ	-0.7645624
-1.0119259	SYM ADJ	-0.54810834
-1.2043493	X ADJ	-0.44497627
-1.2849336	INTJ ADJ	-0.43269822
-2.2388163	<s> PART	-1.611375
-1.2596579	PROPN PART	-0.86063224
-1.2285001	NOUN PART	-0.847694
-1.237628	PUNCT PART	-0.80098385
-1.251142	VERB PART	-0.84011763
-1.2269641	SCONJ PART	-0.6531586
-1.1796325	AUX PART	-0.82440543
-1.2199485	ADJ PART	-0.72354764
-1.2185179	PART PART	-0.75654286
-1.2996563	ADP PART	-0.5428511
-1.3409846	DET PART	-0.5620771
-1.2639852	CCONJ PART	-0.6855848
-1.2614205	ADV PART	-0.72766536
-1.2656717	PRON PART	-0.70003384
-1.2407173	NUM PART	-0.60055906
-1.7660235	SYM PART	-0.34946308
-1.4677818	X PART	-0.38407448
-1.7165133	INTJ PART	-0.3456207
-1.0384886	<s> ADP	-2.6561208
-1.2348261	PROPN ADP	-0.8838694
-1.2285001	NOUN ADP	-0.98551553
-1.237628	PUNCT ADP	-0.9174249
-1.2263103	VERB ADP	-0.9989311
-1.1689496	SCONJ ADP	-0.85285074
-1.1796325	AUX ADP	-0.8214371
-1.1951166	ADJ ADP	-0.89716166
-1.1861867	PART ADP	-0.6737292
-1.2696811	ADP ADP	-0.79761285
-1.2159934	DET ADP	-0.7654281
-1.1796325	CCONJ ADP	-0.7756597
-1.2350823	ADV ADP	-0.8728427
-1.1813191	PRON ADP	-0.78562784
-1.2126781	NUM ADP	-0.8603382
-1.1755034	SYM ADP	-0.4110225
-1.2457649	X ADP	-0.46140578
-1.1457196	INTJ ADP	-0.57303995
-0.70433444	<s> DET	-3.0065405
-1.2348261	PROPN DET	-0.819184
-1.2795868	NOUN DET	-0.86742073
-1.2624598	PUNCT DET	-0.8886055
-1.2263103	VERB DET	-0.970816
-1.1177796	SCONJ DET	-0.8764328
-1.1548008	AUX DET	-0.8683446
-1.3043011	ADJ DET	-0.70524347
-1.1279566	PART DET	-0.7254469
-1.1904718	ADP DET	-0.9345571
-1.1896552	DET DET	-0.83070177
-1.1796325	CCONJ DET	-0.8012276
-1.2350823	ADV DET	-0.85474944
-1.2356966	PRON DET	-0.76423997
-1.2407173	NUM DET	-0.64404565
-1.4410203	SYM DET	-0.38860145
-1.2457649	X DET	-0.45928484
-1.3434036	INTJ DET	-0.3521234
-1.4639643	<s> CCONJ	-2.2303672
-1.2348261	PROPN CCONJ	-0.91705644
-1.2285001	NOUN CCONJ	-0.9518873
-1.237628	PUNCT CCONJ	-0.94633126
-1.2263103	VERB CCONJ	-0.8756405
-1.2939409	SCONJ CCONJ	-0.5049742
-1.2961837	AUX CCONJ	-0.59800106
-1.1951166	ADJ CCONJ	-0.8867358
-1.430656	PART CCONJ	-0.38228363
-1.2416418	ADP CCONJ	-0.6907667
-1.3062063	DET CCONJ	-0.5659222
-1.5071584	CCONJ CCONJ	-0.38719594
-1.2894597	ADV CCONJ	-0.7610071
-1.2356966	PRON CCONJ	-0.68241465
-1.2126781	NUM CCONJ	-0.793429
-1.5438006	SYM CCONJ	-0.3463865
-1.400775	X CCONJ	-0.37411904
-1.2849336	INTJ CCONJ	-0.32754534
-1.0923688	<s> ADV	-2.6019573
-1.2596579	PROPN ADV	-0.8863211
-1.2285001	NOUN ADV	-0.92466384
-1.237628	PUNCT ADV	-0.9762789
-1.251142	VERB ADV	-0.9673989
-1.2269641	SCONJ ADV	-0.7909286
-1.1796325	AUX ADV	-0.89140016
-1.274326	ADJ ADV	-0.8476519
-1.1560965	PART ADV	-0.831038
-1.1904718	ADP ADV	-0.87317014
-1.1896552	DET ADV	-0.83085656
-1.1796325	CCONJ ADV	-0.84397817
-1.2102504	ADV ADV	-0.92850614
-1.1564872	PRON ADV	-0.7739949
-1.2126781	NUM ADV	-0.7136733
-1.2282407	SYM ADV	-0.33639032
-1.400775	X ADV	-0.34806195
-1.1457196	INTJ ADV	-0.39640942
-0.8570702	<s> PRON	-2.8642018
-1.2596579	PROPN PRON	-0.7236221
-1.2532927	NOUN PRON	-0.8132544
-1.237628	PUNCT PRON	-0.8893883
-1.2263103	VERB PRON	-0.9720195
-1.1426114	SCONJ PRON	-0.8008949
-1.2059708	AUX PRON	-0.8407845
-1.2462867	ADJ PRON	-0.6751612
-1.2185179	PART PRON	-0.5484092
-1.2416418	ADP PRON	-0.92373437
-1.2159934	DET PRON	-0.671022
-1.1796325	CCONJ PRON	-0.7430643
-1.2102504	ADV PRON	-0.7927455
-1.1813191	PRON PRON	-0.64920366
-1.2706926	NUM PRON	-0.6085641
-1.4410203	SYM PRON	-0.38048652
-1.2915504	X PRON	-0.40406054
-1.1077287	INTJ PRON	-0.602908
-1.843224	<s> NUM	-1.8801056
-1.2596579	PROPN NUM	-0.87839454
-1.2532927	NOUN NUM	-0.7944996
-1.2624598	PUNCT NUM	-0.8260275
-1.2774802	VERB NUM	-0.8522253
-1.1689496	SCONJ NUM	-0.6986229
-1.23401	AUX NUM	-0.71718377
-1.2462867	ADJ NUM	-0.6897422
-1.2534511	PART NUM	-0.5574571
-1.2153037	ADP NUM	-0.9256143
-1.2159934	DET NUM	-0.7775502
-1.2639852	CCONJ NUM	-0.6316761
-1.2350823	ADV NUM	-0.7850237
-1.508845	PRON NUM	-0.36614007
-1.2407173	NUM NUM	-0.8022908
-0.8933819	SYM NUM	-0.7938179
-1.400775	X NUM	-0.5814807
-1.4910651	INTJ NUM	-0.41749397
-3.031872	<s> SYM	-1.0939491
-1.2859961	PROPN SYM	-0.7418985
-1.307576	NOUN SYM	-0.66633785
-1.3468125	PUNCT SYM	-0.6783184
-1.3055195	VERB SYM	-0.7085139
-1.5281743	SCONJ SYM	-0.50325465
-1.3687696	AUX SYM	-0.52834255
-1.274326	ADJ SYM	-0.72417986
-1.489126	PART SYM	-0.4202243
-1.2996563	ADP SYM	-0.60930455
-1.2740078	DET SYM	-0.70848155
-1.23401	CCONJ SYM	-0.63953197
-1.3516334	ADV SYM	-0.6383865
-1.2978703	PRON SYM	-0.5293538
-1.2126781	NUM SYM	-0.6579156
-1.5438006	SYM SYM	-0.34507453
-1.6440834	X SYM	-0.32058394
-1.8971462	INTJ SYM	-0.34946308
-2.2692301	<s> X	-1.610243
-1.2596579	PROPN X	-0.6207121
-1.2795868	NOUN X	-0.5810752
-1.2624598	PUNCT X	-0.60724366
-1.4024715	VERB X	-0.4184575
-1.5281743	SCONJ X	-0.41237712
-1.6322023	AUX X	-0.3463865
-1.4090858	ADJ X	-0.4438938
-2.0428686	PART X	-0.34946308
-1.2996563	ADP X	-0.5622699
-1.3409846	DET X	-0.57276946
-1.3309621	CCONJ X	-0.45414272
-1.3194349	ADV X	-0.41551173
-1.5668819	PRON X	-0.33586514
-1.5719028	NUM X	-0.32620817
-1.3579689	SYM X	-0.40538943
-1.015212	X X	-0.6137443
-1.5893215	INTJ X	-0.3306095
-2.1514122	<s> INTJ	-1.5719808
-1.4521097	PROPN INTJ	-0.42071363
-1.4870565	NOUN INTJ	-0.46489143
-1.2646012	PUNCT INTJ	-0.7396181
-1.370496	VERB INTJ	-0.47461295
-1.6817771	SCONJ INTJ	-0.3468977
-1.6383013	AUX INTJ	-0.37312806
-1.6786172	ADJ INTJ	-0.38407448
-1.6439241	PART INTJ	-0.3463865
-1.5473946	ADP INTJ	-0.32919258
-1.6483239	DET INTJ	-0.33472905
-1.413833	CCONJ INTJ	-0.4182373
-1.3894491	ADV INTJ	-0.41034406
-1.4155196	PRON INTJ	-0.39773268
-1.9526575	NUM INTJ	-0.34434742
-1.5543778	X INTJ	-0.33272636
-1.1908867	INTJ INTJ	-0.4039286
-2.6649954	NOUN SPACE	-0.34946308

\3-grams:
-2.1694996	<s> PROPN </s>	0
-1.2168205	PROPN PROPN </s>	0
-1.2368745	NOUN PROPN </s>	0
-1.3402039	PUNCT PROPN </s>	0
-1.3674583	VERB PROPN </s>	0
-1.5234848	SCONJ PROPN </s>	0
-1.795244	AUX PROPN </s>	0
-1.3749974	ADJ PROPN </s>	0
-1.494202	PART PROPN </s>	0
-1.221917	ADP PROPN </s>	0
-1.385575	DET PROPN </s>	0
-1.6777288	CCONJ PROPN </s>	0
-1.5835661	ADV PROPN </s>	0
-1.7350688	PRON PROPN </s>	0
-1.648024	NUM PROPN </s>	0
-1.0263929	SYM PROPN </s>	0
-1.4073677	X PROPN </s>	0
-1.3346114	INTJ PROPN </s>	0
-2.2154756	<s> NOUN </s>	0
-1.2203406	PROPN NOUN </s>	0
-1.2274617	NOUN NOUN </s>	0
-1.4248288	PUNCT NOUN </s>	0
-1.2109271	VERB NOUN </s>	0
-1.4555762	SCONJ NOUN </s>	0
-1.4773606	AUX NOUN </s>	0
-1.176285	ADJ NOUN </s>	0
-1.3221923	PART NOUN </s>	0
-1.1981366	ADP NOUN </s>	0
-1.3079288	DET NOUN </s>	0
-1.5907612	CCONJ NOUN </s>	0
-1.9823412	ADV NOUN </s>	0
-1.6482762	PRON NOUN </s>	0
-1.259147	NUM NOUN </s>	0
-1.082406	SYM NOUN </s>	0
-1.6368501	X NOUN </s>	0
-1.7524786	<s> PUNCT </s>	0
-1.2192768	PROPN PUNCT </s>	0
-1.2178218	NOUN PUNCT </s>	0
-1.1813562	PUNCT PUNCT </s>	0
-1.1635613	VERB PUNCT </s>	0
-1.1852026	SCONJ PUNCT </s>	0
-1.1023726	AUX PUNCT </s>	0
-1.1552253	ADJ PUNCT </s>	0
-1.0447783	PART PUNCT </s>	0
-1.1265879	ADP PUNCT </s>	0
-1.1179471	DET PUNCT </s>	0
-1.1177149	CCONJ PUNCT </s>	0
-1.1994517	ADV PUNCT </s>	0
-1.0715593	PRON PUNCT </s>	0
-1.1675301	NUM PUNCT </s>	0
-0.54829425	SYM PUNCT </s>	0
-1.0337231	X PUNCT </s>	0
-0.9773754	INTJ PUNCT </s>	0
-3.3528948	<s> VERB </s>	0
-1.5051799	PROPN VERB </s>	0
-1.3358121	NOUN VERB </s>	0
-1.9067738	PUNCT VERB </s>	0
-1.6601228	VERB VERB </s>	0
-1.9296468	SCONJ VERB </s>	0
-1.4205323	AUX VERB </s>	0
-1.9921398	ADJ VERB </s>	0
-1.4278011	PART VERB </s>	0
-1.8492677	ADP VERB </s>	0
-1.8742414	DET VERB </s>	0
-1.4513166	CCONJ VERB </s>	0
-1.5933542	ADV VERB </s>	0
-1.4607574	PRON VERB </s>	0
-1.8353842	NUM VERB </s>	0
-1.182158	SYM VERB </s>	0
-1.4922718	X VERB </s>	0
-3.5646887	<s> SCONJ </s>	0
-2.1653764	NOUN SCONJ </s>	0
-2.204295	PUNCT SCONJ </s>	0
-2.0629218	VERB SCONJ </s>	0
-2.156617	ADJ SCONJ </s>	0
-1.8517325	ADP SCONJ </s>	0
-1.8452708	PRON SCONJ </s>	0
-2.0333884	PROPN AUX </s>	0
-1.711841	NOUN AUX </s>	0
-2.1314142	PUNCT AUX </s>	0
-1.9494962	VERB AUX </s>	0
-1.9715031	AUX AUX </s>	0
-1.8349844	PART AUX </s>	0
-1.7346377	DET AUX </s>	0
-1.9744781	CCONJ AUX </s>	0
-1.9657724	ADV AUX </s>	0
-1.7138894	PRON AUX </s>	0
-2.8049216	<s> ADJ </s>	0
-1.3166162	NOUN ADJ </s>	0
-1.6063999	PUNCT ADJ </s>	0
-1.4718736	VERB ADJ </s>	0
-1.5382341	SCONJ ADJ </s>	0
-1.4016043	AUX ADJ </s>	0
-1.9316154	ADJ ADJ </s>	0
-1.7344229	PART ADJ </s>	0
-1.8372668	ADP ADJ </s>	0
-1.470846	DET ADJ </s>	0
-1.6754006	CCONJ ADJ </s>	0
-1.5531611	ADV ADJ </s>	0
-1.6983019	PRON ADJ </s>	0
-1.7238718	NUM ADJ </s>	0
-1.5502036	SYM ADJ </s>	0
-1.3441807	X ADJ </s>	0
-1.8870516	PROPN PART </s>	0
-2.133426	NOUN PART </s>	0
-1.8956436	PUNCT PART </s>	0
-2.1127372	VERB PART </s>	0
-2.1145325	AUX PART </s>	0
-1.800014	CCONJ PART </s>	0
-3.8670619	<s> ADP </s>	0
-1.7413912	PROPN ADP </s>	0
-1.4741468	NOUN ADP </s>	0
-1.9996275	PUNCT ADP </s>	0
-1.4875624	VERB ADP </s>	0
-2.1081026	ADJ ADP </s>	0
-1.9620932	DET ADP </s>	0
-1.9614962	CCONJ ADP </s>	0
-1.9550453	ADV ADP </s>	0
-1.9553884	PRON ADP </s>	0
-2.0403426	NUM ADP </s>	0
-1.9991956	PROPN DET </s>	0
-2.0703895	NOUN DET </s>	0
-1.9081588	PUNCT DET </s>	0
-1.563013	VERB DET </s>	0
-1.9564955	SCONJ DET </s>	0
-1.952843	AUX DET </s>	0
-1.9484653	ADP DET </s>	0
-2.011268	CCONJ DET </s>	0
-2.0649092	ADV DET </s>	0
-1.9444072	PRON DET </s>	0
-3.3173804	<s> CCONJ </s>	0
-2.2989905	PROPN CCONJ </s>	0
-1.8914012	NOUN CCONJ </s>	0
-1.7619996	PUNCT CCONJ </s>	0
-2.1474051	ADV CCONJ </s>	0
-3.3097253	<s> ADV </s>	0
-1.5033464	PROPN ADV </s>	0
-1.3897188	NOUN ADV </s>	0
-1.9295987	PUNCT ADV </s>	0
-1.3285369	VERB ADV </s>	0
-1.9096681	SCONJ ADV </s>	0
-1.7182006	AUX ADV </s>	0
-1.7760541	ADJ ADV </s>	0
-1.8921145	ADP ADV </s>	0
-1.949596	DET ADV </s>	0
-1.7819538	CCONJ ADV </s>	0
-1.3868537	ADV ADV </s>	0
-1.9013624	PRON ADV </s>	0
-1.8324127	NUM ADV </s>	0
-1.4241594	INTJ ADV </s>	0
-3.9723368	<s> PRON </s>	0
-2.0014267	PUNCT PRON </s>	0
-1.5194048	VERB PRON </s>	0
-1.9410931	AUX PRON </s>	0
-1.7534207	PART PRON </s>	0
-1.4554883	ADP PRON </s>	0
-1.7406453	CCONJ PRON </s>	0
-1.8873798	ADV PRON </s>	0
-2.7995105	<s> NUM </s>	0
-1.2724829	PROPN NUM </s>	0
-1.3858277	NOUN NUM </s>	0
-1.5167602	PUNCT NUM </s>	0
-1.4588456	VERB NUM </s>	0
-1.8085692	SCONJ NUM </s>	0
-1.8236469	AUX NUM </s>	0
-1.6102868	ADJ NUM </s>	0
-1.6298422	PART NUM </s>	0
-1.4777013	ADP NUM </s>	0
-1.8840133	DET NUM </s>	0
-1.8943083	ADV NUM </s>	0
-1.4689025	NUM NUM </s>	0
-1.462037	SYM NUM </s>	0
-2.0493283	<s> X </s>	0
-1.1304524	PROPN X </s>	0
-0.94823307	NOUN X </s>	0
-1.1062734	PUNCT X </s>	0
-1.159008	VERB X </s>	0
-1.2628723	ADJ X </s>	0
-0.9194833	ADP X </s>	0
-1.17701	CCONJ X </s>	0
-1.0985004	ADV X </s>	0
-1.0845094	PRON X </s>	0
-0.71988267	NUM X </s>	0
-0.6158893	SYM X </s>	0
-1.3833163	X X </s>	0
-0.9368123	INTJ X </s>	0
-2.5779183	<s> INTJ </s>	0
-1.5003874	PROPN INTJ </s>	0
-1.2788869	NOUN INTJ </s>	0
-1.444861	PUNCT INTJ </s>	0
-1.5058419	ADV INTJ </s>	0
-0.41976827	<s> PROPN PROPN	-2.4623182
-1.1915622	PROPN PROPN PROPN	-2.968349
-1.0602586	NOUN PROPN PROPN	-2.2053266
-1.1266713	PUNCT PROPN PROPN	-2.552392
-1.1627419	VERB PROPN PROPN	-1.9913456
-1.0407107	SCONJ PROPN PROPN	-1.6927191
-1.0038487	AUX PROPN PROPN	-1.3076552
-1.0988089	ADJ PROPN PROPN	-1.9466348
-1.0344788	PART PROPN PROPN	-1.715663
-1.1422284	ADP PROPN PROPN	-2.6976824
-1.1082108	DET PROPN PROPN	-2.6638618
-1.0108312	CCONJ PROPN PROPN	-2.002495
-0.94736964	ADV PROPN PROPN	-1.2961347
-0.8147088	PRON PROPN PROPN	-0.8523929
-1.0382648	NUM PROPN PROPN	-1.4445962
-1.0538306	SYM PROPN PROPN	-0.9537261
-0.6860673	X PROPN PROPN	-1.0184195
-0.67405194	INTJ PROPN PROPN	-0.8010676
-1.5850418	<s> NOUN PROPN	-1.1997973
-1.1631907	PROPN NOUN PROPN	-1.7151492
-1.2245246	NOUN NOUN PROPN	-1.7341717
-1.1995897	PUNCT NOUN PROPN	-1.4230115
-1.208093	VERB NOUN PROPN	-1.0672253
-1.322474	SCONJ NOUN PROPN	-0.6023471
-1.4702337	AUX NOUN PROPN	-0.4833063
-1.1983551	ADJ NOUN PROPN	-1.9313072
-1.3938285	PART NOUN PROPN	-0.94717336
-1.1953589	ADP NOUN PROPN	-1.3361745
-1.2147647	DET NOUN PROPN	-1.708898
-1.277286	CCONJ NOUN PROPN	-1.2728597
-1.1994517	ADV NOUN PROPN	-0.624875
-1.3248461	PRON NOUN PROPN	-0.4652755
-1.1980604	NUM NOUN PROPN	-0.9296251
-1.2574216	SYM NOUN PROPN	-0.50630295
-0.94679546	X NOUN PROPN	-0.3729161
-1.1539782	INTJ NOUN PROPN	-0.29359704
-0.89196384	<s> PUNCT PROPN	-1.4001961
-1.2187655	PROPN PUNCT PROPN	-2.7259393
-1.2420382	NOUN PUNCT PROPN	-2.4005961
-1.2055725	PUNCT PUNCT PROPN	-1.8478214
-1.2139988	VERB PUNCT PROPN	-1.5958254
-1.0704583	SCONJ PUNCT PROPN	-1.021579
-1.1686699	AUX PUNCT PROPN	-0.87688863
-1.2056627	ADJ PUNCT PROPN	-1.3865632
-1.2567077	PART PUNCT PROPN	-0.8734242
-1.125931	ADP PUNCT PROPN	-1.3782904
-1.1472354	DET PUNCT PROPN	-1.5004891
-1.1166413	CCONJ PUNCT PROPN	-0.9638607
-1.2267833	ADV PUNCT PROPN	-1.6038332
-1.2591339	PRON PUNCT PROPN	-0.9490111
-1.1948617	NUM PUNCT PROPN	-1.5740038
-0.8527484	SYM PUNCT PROPN	-0.28976008
-1.0675902	X PUNCT PROPN	-0.93421453
-1.1541594	INTJ PUNCT PROPN	-0.8760539
-1.2747633	<s> VERB PROPN	-1.1774445
-1.1750336	PROPN VERB PROPN	-1.6475244
-1.2079241	NOUN VERB PROPN	-1.6957533
-1.150609	PUNCT VERB PROPN	-1.7695587
-1.206507	VERB VERB PROPN	-1.2707417
-1.1529257	SCONJ VERB PROPN	-0.49218503
-1.1955333	AUX VERB PROPN	-1.3972938
-1.0927365	ADJ VERB PROPN	-0.60065466
-1.1749678	PART VERB PROPN	-1.7357546
-1.1058667	ADP VERB PROPN	-1.3798708
-1.1918788	DET VERB PROPN	-1.3858612
-1.2501143	CCONJ VERB PROPN	-1.1253885
-1.1898893	ADV VERB PROPN	-1.4020456
-1.2079241	PRON VERB PROPN	-1.539535
-1.2479987	NUM VERB PROPN	-0.5492953
-1.2625301	SYM VERB PROPN	-0.28803477
-1.4733018	X VERB PROPN	-0.28803477
-1.0327032	INTJ VERB PROPN	-0.39430022
-0.9889172	<s> SCONJ PROPN	-1.3932698
-1.1158451	PROPN SCONJ PROPN	-0.99753463
-1.082214	NOUN SCONJ PROPN	-1.6778743
-1.0613256	PUNCT SCONJ PROPN	-1.412289
-1.1374576	VERB SCONJ PROPN	-1.7922889
-0.9156639	SCONJ SCONJ PROPN	-0.79864895
-1.103677	AUX SCONJ PROPN	-0.91012543
-1.0687071	ADJ SCONJ PROPN	-1.404883
-1.2617468	PART SCONJ PROPN	-0.28803477
-1.0635554	ADP SCONJ PROPN	-0.7624265
-0.977066	DET SCONJ PROPN	-0.29173502
-1.0808588	CCONJ SCONJ PROPN	-0.8371769
-1.0349596	ADV SCONJ PROPN	-1.0979168
-0.95675886	PRON SCONJ PROPN	-0.6756052
-1.2096003	NUM SCONJ PROPN	-0.2919638
-1.3241043	<s> AUX PROPN	-0.48483843
-1.1544762	PROPN AUX PROPN	-0.94941974
-1.2475209	NOUN AUX PROPN	-1.1949676
-1.1576813	PUNCT AUX PROPN	-0.7098428
-1.2410079	VERB AUX PROPN	-0.5289232
-1.1246943	SCONJ AUX PROPN	-0.356131
-1.2749642	AUX AUX PROPN	-0.40816587
-1.4427317	ADJ AUX PROPN	-0.44323146
-1.3173063	PART AUX PROPN	-0.65635765
-1.3515308	ADP AUX PROPN	-0.41412294
-1.3155746	DET AUX PROPN	-0.8023376
-1.4137707	CCONJ AUX PROPN	-0.29173502
-1.1920687	ADV AUX PROPN	-0.8267028
-1.2486703	PRON AUX PROPN	-1.137586
-1.2333416	NUM AUX PROPN	-0.45571935
-1.1441206	X AUX PROPN	-0.28803477
-0.974924	<s> ADJ PROPN	-1.4255309
-0.885384	PROPN ADJ PROPN	-0.9313852
-1.058902	NOUN ADJ PROPN	-0.9993937
-1.089975	PUNCT ADJ PROPN	-2.3594618
-1.1639916	VERB ADJ PROPN	-1.1939224
-1.0769696	SCONJ ADJ PROPN	-0.8710255
-1.2171147	AUX ADJ PROPN	-0.7371256
-0.9964706	ADJ ADJ PROPN	-1.3818815
-1.4031078	PART ADJ PROPN	-1.0489821
-1.0731219	ADP ADJ PROPN	-1.6730783
-1.1318712	DET ADJ PROPN	-1.9962705
-1.2829075	CCONJ ADJ PROPN	-1.1083932
-1.1442127	ADV ADJ PROPN	-1.0403993
-1.1488844	PRON ADJ PROPN	-0.38108572
-0.90056217	NUM ADJ PROPN	-0.7823581
-1.0145365	SYM ADJ PROPN	-0.35891056
-1.0324707	X ADJ PROPN	-0.29219976
-0.783783	INTJ ADJ PROPN	-0.28941447
-2.6636047	<s> PART PROPN	-0.28803477
-0.99427164	PROPN PART PROPN	-1.9447051
-1.0891145	NOUN PART PROPN	-1.2288711
-1.3561654	PUNCT PART PROPN	-0.47569978
-1.591745	VERB PART PROPN	-0.292798
-1.3484166	AUX PART PROPN	-0.55250525
-1.6329218	ADJ PART PROPN	-0.28803477
-1.5662701	ADP PART PROPN	-0.28803477
-1.2646377	CCONJ PART PROPN	-0.51810646
-1.6820548	ADV PART PROPN	-0.2903367
-1.5533216	PRON PART PROPN	-0.28803477
-1.2845814	NUM PART PROPN	-0.29219976
-0.7235478	<s> ADP PROPN	-1.9467925
-1.0282636	PROPN ADP PROPN	-2.582419
-1.1454297	NOUN ADP PROPN	-2.9925075
-1.1038033	PUNCT ADP PROPN	-1.8425485
-1.1588454	VERB ADP PROPN	-2.5482504
-0.9699088	SCONJ ADP PROPN	-1.1328851
-1.0246941	AUX ADP PROPN	-1.3625299
-1.0761588	ADJ ADP PROPN	-1.6692075
-0.89435935	PART ADP PROPN	-0.71915925
-1.0005925	ADP ADP PROPN	-1.3492776
-1.000638	DET ADP PROPN	-1.0789682
-1.0597645	CCONJ ADP PROPN	-1.0951798
-1.0592211	ADV ADP PROPN	-1.7640026
-0.92902416	PRON ADP PROPN	-1.1737382
-0.99561834	NUM ADP PROPN	-1.3946352
-1.2529148	SYM ADP PROPN	-0.28803477
-0.67107797	X ADP PROPN	-0.3703564
-0.8289914	INTJ ADP PROPN	-0.48627746
-0.95825297	<s> DET PROPN	-2.055106
-0.9035266	PROPN DET PROPN	-1.0245553
-1.0595508	NOUN DET PROPN	-1.4075968
-1.0703927	PUNCT DET PROPN	-2.0965784
-1.1128296	VERB DET PROPN	-2.1063278
-1.0718492	SCONJ DET PROPN	-1.846584
-1.0433011	AUX DET PROPN	-1.4286394
-0.98608464	ADJ DET PROPN	-0.38511926
-0.87728137	PART DET PROPN	-0.6658753
-1.1339145	ADP DET PROPN	-2.7594075
-1.0195553	DET DET PROPN	-1.0686648
-0.97939694	CCONJ DET PROPN	-1.7275988
-1.005343	ADV DET PROPN	-1.3299943
-1.0133826	PRON DET PROPN	-0.8844273
-1.1187797	NUM DET PROPN	-0.4893324
-1.0123881	SYM DET PROPN	-0.28803477
-0.8102025	X DET PROPN	-0.2904099
-0.91769964	INTJ DET PROPN	-0.29219976
-1.1222911	<s> CCONJ PROPN	-1.2287304
-1.042012	PROPN CCONJ PROPN	-2.4614794
-1.1583376	NOUN CCONJ PROPN	-1.6990832
-1.1801221	PUNCT CCONJ PROPN	-1.7835305
-1.1484212	VERB CCONJ PROPN	-1.0438715
-0.95713776	SCONJ CCONJ PROPN	-0.5907901
-1.4802059	AUX CCONJ PROPN	-0.29359704
-1.112064	ADJ CCONJ PROPN	-1.0140588
-1.2319622	PART CCONJ PROPN	-0.89216596
-0.97819555	ADP CCONJ PROPN	-1.0342982
-1.0809816	DET CCONJ PROPN	-0.29080313
-1.032397	CCONJ CCONJ PROPN	-0.2903367
-1.1878223	ADV CCONJ PROPN	-0.74543804
-1.0566386	PRON CCONJ PROPN	-0.5653395
-1.0808579	NUM CCONJ PROPN	-1.0345576
-0.8469913	SYM CCONJ PROPN	-0.28803477
-1.2413816	X CCONJ PROPN	-0.28803477
-0.9267161	INTJ CCONJ PROPN	-0.28803477
-1.6211008	<s> ADV PROPN	-1.1397697
-1.1509932	PROPN ADV PROPN	-0.7229566
-1.2556591	NOUN ADV PROPN	-1.0686482
-1.2335333	PUNCT ADV PROPN	-1.1569881
-1.2482752	VERB ADV PROPN	-1.0455996
-1.2969915	SCONJ ADV PROPN	-0.54803807
-1.3012536	AUX ADV PROPN	-0.752504
-1.3697067	ADJ ADV PROPN	-0.28941447
-1.1204458	PART ADV PROPN	-0.5416157
-1.2181495	ADP ADV PROPN	-0.85173565
-1.4058568	DET ADV PROPN	-0.44610035
-1.1816543	CCONJ ADV PROPN	-0.89596546
-1.2526156	ADV ADV PROPN	-0.6962681
-1.549551	PRON ADV PROPN	-0.35891056
-1.1602572	NUM ADV PROPN	-0.49993625
-1.1163803	X ADV PROPN	-0.28803477
-1.2401226	INTJ ADV PROPN	-0.29640508
-2.7328603	<s> PRON PROPN	-0.60514575
-1.1801721	PROPN PRON PROPN	-0.71092254
-1.1761006	NOUN PRON PROPN	-0.48630175
-1.3531411	PUNCT PRON PROPN	-0.5398297
-1.2650971	VERB PRON PROPN	-0.89898217
-1.3991221	SCONJ PRON PROPN	-0.4163595
-1.347418	AUX PRON PROPN	-0.6235194
-1.5416359	ADJ PRON PROPN	-0.28803477
-1.4498873	PART PRON PROPN	-0.28803477
-1.2359852	ADP PRON PROPN	-0.7626141
-1.5007383	DET PRON PROPN	-0.28803477
-1.3927878	CCONJ PRON PROPN	-0.33640766
-1.233197	ADV PRON PROPN	-0.46724075
-1.4761147	PRON PRON PROPN	-0.29640508
-1.1934056	X PRON PROPN	-0.29640508
-1.4523431	INTJ PRON PROPN	-0.28803477
-1.268942	<s> NUM PROPN	-0.8794212
-1.031104	PROPN NUM PROPN	-1.155444
-1.1018144	NOUN NUM PROPN	-0.65089434
-0.9899185	PUNCT NUM PROPN	-1.1619322
-1.176286	VERB NUM PROPN	-0.82293767
-1.2709119	SCONJ NUM PROPN	-0.5920138
-1.3609097	AUX NUM PROPN	-0.5907901
-1.0478113	ADJ NUM PROPN	-0.65506274
-1.2338102	PART NUM PROPN	-0.5644744
-1.1616964	ADP NUM PROPN	-1.262308
-1.0393271	DET NUM PROPN	-1.3118784
-1.2831154	CCONJ NUM PROPN	-0.65488344
-1.1337504	ADV NUM PROPN	-0.70457053
-1.1096358	PRON NUM PROPN	-0.28803477
-0.99502915	NUM NUM PROPN	-0.9442309
-1.1809466	SYM NUM PROPN	-0.5921795
-1.1047431	X NUM PROPN	-0.28803477
-0.22558491	<s> SYM PROPN	-0.6122483
-0.55062807	PROPN SYM PROPN	-1.3093183
-0.6954729	NOUN SYM PROPN	-0.812802
-0.6493549	PUNCT SYM PROPN	-1.0652355
-0.6721855	VERB SYM PROPN	-0.6458541
-0.441483	SCONJ SYM PROPN	-0.37026218
-0.48532566	AUX SYM PROPN	-0.35891056
-0.6812422	ADJ SYM PROPN	-0.5649321
-0.8388372	PART SYM PROPN	-0.29080698
-0.62085015	ADP SYM PROPN	-1.1688197
-0.6009282	DET SYM PROPN	-0.67919576
-0.84854555	CCONJ SYM PROPN	-0.51435626
-0.5059816	ADV SYM PROPN	-0.32136357
-0.8498019	PRON SYM PROPN	-0.28928888
-0.80892307	NUM SYM PROPN	-0.2919638
-0.35504323	X SYM PROPN	-0.3785709
-1.6077931	<s> X PROPN	-0.49617815
-0.6943981	PROPN X PROPN	-1.1364102
-1.0562797	NOUN X PROPN	-0.46793714
-0.9883051	PUNCT X PROPN	-0.7521581
-1.1294752	VERB X PROPN	-0.29219976
-0.899119	SCONJ X PROPN	-0.29640508
-1.0158223	AUX X PROPN	-0.28803477
-1.071816	ADJ X PROPN	-0.28803477
-1.3517699	ADP X PROPN	-0.28803477
-0.58517885	DET X PROPN	-0.4163595
-1.148618	CCONJ X PROPN	-0.29640508
-1.0725263	ADV X PROPN	-0.28803477
-0.8762874	PRON X PROPN	-0.28803477
-1.0070968	NUM X PROPN	-0.28803477
-0.79473037	X X PROPN	-0.869198
-0.5817069	INTJ X PROPN	-0.29359704
-1.3331165	<s> INTJ PROPN	-0.6767047
-1.1474346	PROPN INTJ PROPN	-0.4652755
-0.78212845	NOUN INTJ PROPN	-0.29136357
-1.0533055	PUNCT INTJ PROPN	-0.67774636
-1.1681606	VERB INTJ PROPN	-0.28803477
-0.8846898	SCONJ INTJ PROPN	-0.28803477
-0.80141294	ADP INTJ PROPN	-0.29275388
-0.99658895	DET INTJ PROPN	-0.28803477
-1.0944141	CCONJ INTJ PROPN	-0.29275388
-1.2828295	ADV INTJ PROPN	-0.28803477
-1.2097714	PRON INTJ PROPN	-0.28803477
-0.9262137	X INTJ PROPN	-0.28803477
-1.1025233	INTJ INTJ PROPN	-0.29359704
-0.102675736	NOUN SPACE PROPN	-0.28803477
-1.426509	<s> PROPN NOUN	-1.5170423
-1.193789	PROPN PROPN NOUN	-2.181885
-1.1419301	NOUN PROPN NOUN	-1.2384007
-1.1800951	PUNCT PROPN NOUN	-1.7523178
-1.1933157	VERB PROPN NOUN	-1.4722178
-1.1794634	SCONJ PROPN NOUN	-1.0785356
-1.0692955	AUX PROPN NOUN	-0.62506634
-1.1275225	ADJ PROPN NOUN	-1.701998
-1.1090122	PART PROPN NOUN	-1.2395319
-1.1693003	ADP PROPN NOUN	-2.0110924
-1.1369302	DET PROPN NOUN	-2.2891123
-1.16033	CCONJ PROPN NOUN	-1.3828192
-1.102418	ADV PROPN NOUN	-0.6976836
-1.2035464	PRON PROPN NOUN	-0.37473035
-1.0405537	NUM PROPN NOUN	-1.2240374
-1.0564088	SYM PROPN NOUN	-1.1710638
-1.1630291	X PROPN NOUN	-0.45571935
-0.9210641	<s> NOUN NOUN	-1.668101
-1.1895587	PROPN NOUN NOUN	-1.869904
-1.1738499	NOUN NOUN NOUN	-2.246847
-1.145737	PUNCT NOUN NOUN	-2.2191212
-1.2082846	VERB NOUN NOUN	-2.1133173
-1.0483346	SCONJ NOUN NOUN	-1.4424628
-1.1317742	AUX NOUN NOUN	-1.1100667
-1.2247231	ADJ NOUN NOUN	-2.6422195
-1.0142311	PART NOUN NOUN	-1.6480646
-1.1955467	ADP NOUN NOUN	-2.3538833
-1.1640902	DET NOUN NOUN	-2.6948628
-1.0338582	CCONJ NOUN NOUN	-2.030265
-1.063512	ADV NOUN NOUN	-1.1309861
-1.1747028	PRON NOUN NOUN	-0.51965517
-1.1719664	NUM NOUN NOUN	-1.7041188
-0.98973244	SYM NOUN NOUN	-0.8567083
-0.7342517	X NOUN NOUN	-0.6389931
-0.8776373	INTJ NOUN NOUN	-0.28901985
-1.1211171	<s> PUNCT NOUN	-1.2831099
-1.2209791	PROPN PUNCT NOUN	-2.1157124
-1.2195241	NOUN PUNCT NOUN	-2.568562
-1.2342837	PUNCT PUNCT NOUN	-1.3958174
-1.1901214	VERB PUNCT NOUN	-1.6064689
-1.1464545	SCONJ PUNCT NOUN	-1.0447484
-1.074339	AUX PUNCT NOUN	-0.77318776
-1.2081528	ADJ PUNCT NOUN	-1.9952573
-1.1204935	PART PUNCT NOUN	-0.8538369
-1.0987632	ADP PUNCT NOUN	-1.5574641
-1.1199509	DET PUNCT NOUN	-1.6251477
-1.1803529	CCONJ PUNCT NOUN	-1.1084608
-1.2013668	ADV PUNCT NOUN	-1.4627359
-1.1900566	PRON PUNCT NOUN	-0.9123272
-1.169445	NUM PUNCT NOUN	-1.4938552
-1.1502645	X PUNCT NOUN	-0.65873253
-1.4687107	INTJ PUNCT NOUN	-0.6925276
-1.134086	<s> VERB NOUN	-1.2330537
-1.1505371	PROPN VERB NOUN	-1.663802
-1.2081202	NOUN VERB NOUN	-2.0820897
-1.1507937	PUNCT VERB NOUN	-2.1514215
-1.1488882	VERB VERB NOUN	-1.871135
-1.0799718	SCONJ VERB NOUN	-1.1664035
-1.1678952	AUX VERB NOUN	-1.9114939
-1.0625528	ADJ VERB NOUN	-1.3737967
-1.1489953	PART VERB NOUN	-2.2750463
-1.1060491	ADP VERB NOUN	-1.997222
-1.1621435	DET VERB NOUN	-2.1600282
-1.1462312	CCONJ VERB NOUN	-1.8678282
-1.1621357	ADV VERB NOUN	-1.946467
-1.2081202	PRON VERB NOUN	-1.814395
-1.0226536	NUM VERB NOUN	-0.9088145
-1.0184953	SYM VERB NOUN	-0.2925075
-1.0988854	X VERB NOUN	-0.29359704
-1.1191845	INTJ VERB NOUN	-0.43042484
-1.1399112	<s> SCONJ NOUN	-1.1859406
-0.96481454	PROPN SCONJ NOUN	-0.9320195
-1.1091964	NOUN SCONJ NOUN	-1.5799813
-1.0590307	PUNCT SCONJ NOUN	-1.3676469
-1.1070458	VERB SCONJ NOUN	-1.7631375
-0.91309965	SCONJ SCONJ NOUN	-0.9171778
-1.1001787	AUX SCONJ NOUN	-0.7789079
-1.0660983	ADJ SCONJ NOUN	-1.4337714
-1.0988256	PART SCONJ NOUN	-0.29065013
-1.209838	ADP SCONJ NOUN	-0.6558223
-1.3008091	DET SCONJ NOUN	-0.2919638
-1.0247055	CCONJ SCONJ NOUN	-0.9812329
-1.0644652	ADV SCONJ NOUN	-1.2434741
-1.0045468	PRON SCONJ NOUN	-0.8808708
-1.2019674	NUM SCONJ NOUN	-0.36183953
-0.9252747	INTJ SCONJ NOUN	-0.28803477
-1.5473089	<s> AUX NOUN	-0.44742998
-1.1266439	PROPN AUX NOUN	-1.1477524
-1.1861442	NOUN AUX NOUN	-1.6719816
-1.19307	PUNCT AUX NOUN	-0.9067222
-1.1266232	VERB AUX NOUN	-1.0922397
-1.2101858	SCONJ AUX NOUN	-0.38788825
-1.1185293	AUX AUX NOUN	-0.7864373
-1.1767396	ADJ AUX NOUN	-0.5687908
-1.0743803	PART AUX NOUN	-1.2727939
-1.0983839	ADP AUX NOUN	-0.61862564
-1.0938238	DET AUX NOUN	-0.9309394
-1.202667	CCONJ AUX NOUN	-0.73573756
-1.125784	ADV AUX NOUN	-1.0876368
-1.159249	PRON AUX NOUN	-1.7276331
-1.0733159	NUM AUX NOUN	-0.528164
-1.1450416	X AUX NOUN	-0.28803477
-0.23816936	<s> ADJ NOUN	-2.1062205
-0.88556105	PROPN ADJ NOUN	-1.5569357
-1.0328587	NOUN ADJ NOUN	-1.72331
-1.0639801	PUNCT ADJ NOUN	-2.3403902
-1.0563232	VERB ADJ NOUN	-2.535847
-0.9421726	SCONJ ADJ NOUN	-1.9451772
-1.0935533	AUX ADJ NOUN	-1.9128824
-0.99665785	ADJ ADJ NOUN	-2.6376395
-0.9505627	PART ADJ NOUN	-1.9771914
-1.0994079	ADP ADJ NOUN	-2.8322728
-1.0534964	DET ADJ NOUN	-3.2370071
-0.95335513	CCONJ ADJ NOUN	-2.3781464
-1.1164949	ADV ADJ NOUN	-2.2421563
-0.96945363	PRON ADJ NOUN	-1.0021644
-0.8723987	NUM ADJ NOUN	-1.8988588
-0.56161255	SYM ADJ NOUN	-0.7375127
-0.49490115	X ADJ NOUN	-0.46749163
-0.7840721	INTJ ADJ NOUN	-0.29136357
-2.563489	<s> PART NOUN	-0.28803477
-1.0066859	PROPN PART NOUN	-2.3173802
-1.0405633	NOUN PART NOUN	-2.2186108
-1.492549	PUNCT PART NOUN	-0.7473323
-1.1123902	VERB PART NOUN	-0.5623004
-1.403133	SCONJ PART NOUN	-0.38667008
-1.1674101	AUX PART NOUN	-0.8431969
-0.9423064	ADJ PART NOUN	-0.6584702
-1.3519197	ADP PART NOUN	-0.28803477
-1.2754859	DET PART NOUN	-0.28803477
-1.3952986	CCONJ PART NOUN	-0.44404733
-1.3172207	ADV PART NOUN	-0.42638943
-0.9342901	PRON PART NOUN	-0.8214465
-1.057755	NUM PART NOUN	-0.39272556
-0.50614864	SYM PART NOUN	-0.28803477
-0.8131607	X PART NOUN	-0.29640508
-0.75968575	INTJ PART NOUN	-0.28803477
-0.85782325	<s> ADP NOUN	-1.8215317
-1.0530297	PROPN ADP NOUN	-1.6786813
-1.1456178	NOUN ADP NOUN	-3.001623
-1.077887	PUNCT ADP NOUN	-1.9142823
-1.1590334	VERB ADP NOUN	-2.545704
-0.9700792	SCONJ ADP NOUN	-1.3635323
-0.96681386	AUX ADP NOUN	-1.6361626
-1.0763553	ADJ ADP NOUN	-1.7661692
-0.8120805	PART ADP NOUN	-0.8510609
-0.97078353	ADP ADP NOUN	-1.4486992
-0.9385988	DET ADP NOUN	-1.0333463
-0.98676926	CCONJ ADP NOUN	-1.292235
-1.0594211	ADV ADP NOUN	-1.7500641
-0.99735475	PRON ADP NOUN	-1.4031506
-0.9957961	NUM ADP NOUN	-1.2094828
-0.65474886	SYM ADP NOUN	-0.41412294
-1.1235996	X ADP NOUN	-0.29219976
-0.73233163	INTJ ADP NOUN	-0.43907103
-0.25986674	<s> DET NOUN	-2.699308
-0.8771284	PROPN DET NOUN	-1.3971179
-1.0018901	NOUN DET NOUN	-1.9612008
-1.0706025	PUNCT DET NOUN	-2.6212676
-1.113021	VERB DET NOUN	-3.1043375
-1.018258	SCONJ DET NOUN	-2.5481653
-1.0174844	AUX DET NOUN	-2.5225074
-0.8572739	ADJ DET NOUN	-1.2645047
-0.7781046	PART DET NOUN	-1.3980062
-1.083873	ADP DET NOUN	-3.3633895
-0.9571688	DET DET NOUN	-1.8716049
-0.9255602	CCONJ DET NOUN	-2.3718278
-1.0055382	ADV DET NOUN	-2.180334
-0.90764236	PRON DET NOUN	-1.6501058
-0.7383429	NUM DET NOUN	-0.95935977
-0.46234018	SYM DET NOUN	-0.46679443
-0.6405949	X DET NOUN	-0.34213075
-0.74582136	INTJ DET NOUN	-0.4155105
-1.3495004	<s> CCONJ NOUN	-0.9780421
-1.071486	PROPN CCONJ NOUN	-1.5938307
-1.1134118	NOUN CCONJ NOUN	-2.722004
-1.1584826	PUNCT CCONJ NOUN	-1.7747415
-1.0392286	VERB CCONJ NOUN	-1.2293702
-1.2889277	AUX CCONJ NOUN	-0.3981643
-1.0601118	ADJ CCONJ NOUN	-1.2937483
-1.1719736	PART CCONJ NOUN	-0.32066637
-1.1844141	ADP CCONJ NOUN	-0.6476657
-1.278875	DET CCONJ NOUN	-0.2947181
-1.1492407	CCONJ CCONJ NOUN	-0.28803477
-1.1519505	ADV CCONJ NOUN	-0.6712922
-1.0186465	PRON CCONJ NOUN	-0.5073476
-1.0143701	NUM CCONJ NOUN	-0.60143614
-0.8582868	SYM CCONJ NOUN	-0.28803477
-1.0927029	X CCONJ NOUN	-0.29640508
-1.6401688	<s> ADV NOUN	-1.0709045
-1.1862111	PROPN ADV NOUN	-0.7747616
-1.1891718	NOUN ADV NOUN	-1.3880466
-1.2038165	PUNCT ADV NOUN	-1.2943043
-1.2485126	VERB ADV NOUN	-1.153756
-1.2378603	SCONJ ADV NOUN	-0.54586565
-1.1880038	AUX ADV NOUN	-1.107762
-1.1325207	ADJ ADV NOUN	-0.6287358
-1.1206881	PART ADV NOUN	-0.72279924
-1.2184247	ADP ADV NOUN	-0.9104341
-1.2777883	DET ADV NOUN	-0.704127
-1.1438681	CCONJ ADV NOUN	-1.1303118
-1.252878	ADV ADV NOUN	-0.8173061
-1.6794708	PRON ADV NOUN	-0.34013033
-1.220135	NUM ADV NOUN	-0.33345085
-0.7046268	SYM ADV NOUN	-0.29359704
-1.240991	INTJ ADV NOUN	-0.29640508
-2.9480193	<s> PRON NOUN	-0.4893324
-1.3406383	PROPN PRON NOUN	-0.64402837
-1.2935548	NOUN PRON NOUN	-0.5418191
-1.2184507	PUNCT PRON NOUN	-0.63781875
-1.2365932	VERB PRON NOUN	-1.146432
-1.3386654	SCONJ PRON NOUN	-0.48145357
-1.1951163	AUX PRON NOUN	-0.61853546
-1.6951855	ADJ PRON NOUN	-0.28803477
-1.2365584	PART PRON NOUN	-0.29359704
-1.1726748	ADP PRON NOUN	-0.8888564
-1.5132403	DET PRON NOUN	-0.29219976
-1.2498976	CCONJ PRON NOUN	-0.34599558
-1.1391206	ADV PRON NOUN	-0.37081915
-1.4885352	PRON PRON NOUN	-0.28803477
-1.4654348	INTJ PRON NOUN	-0.28803477
-0.37060374	<s> NUM NOUN	-1.5236924
-1.1121087	PROPN NUM NOUN	-1.2339101
-0.91069305	NOUN NUM NOUN	-1.1908407
-0.9616102	PUNCT NUM NOUN	-1.6964563
-1.0121073	VERB NUM NOUN	-1.8013961
-0.93258196	SCONJ NUM NOUN	-1.704382
-0.90945625	AUX NUM NOUN	-1.4201654
-0.93152314	ADJ NUM NOUN	-1.592812
-0.7683932	PART NUM NOUN	-1.1435667
-1.1295485	ADP NUM NOUN	-2.1513007
-0.93994737	DET NUM NOUN	-1.9169008
-0.90017366	CCONJ NUM NOUN	-1.4075215
-0.9274293	ADV NUM NOUN	-1.7629794
-0.7204077	PRON NUM NOUN	-0.67163914
-0.96276844	NUM NUM NOUN	-1.4720058
-0.956215	SYM NUM NOUN	-1.1057476
-0.1985248	X NUM NOUN	-0.28901985
-0.27293	INTJ NUM NOUN	-0.29080698
-0.7565284	<s> SYM NOUN	-0.4161139
-0.7165881	PROPN SYM NOUN	-0.42581692
-0.6292359	NOUN SYM NOUN	-1.0922011
-0.6843403	PUNCT SYM NOUN	-0.8436688
-0.7866452	VERB SYM NOUN	-0.34360996
-0.8315386	SCONJ SYM NOUN	-0.34213075
-1.189098	AUX SYM NOUN	-0.28803477
-0.63832575	ADJ SYM NOUN	-0.52940685
-0.83944315	PART SYM NOUN	-0.29640508
-0.7784392	ADP SYM NOUN	-0.49352545
-0.6011085	DET SYM NOUN	-0.6357376
-0.8489194	CCONJ SYM NOUN	-0.5753262
-0.8605402	ADV SYM NOUN	-0.29219976
-1.2324297	PRON SYM NOUN	-0.28803477
-0.69537824	NUM SYM NOUN	-0.45201614
-0.4813069	INTJ SYM NOUN	-0.28803477
-1.8761337	<s> X NOUN	-0.34213075
-0.8727012	PROPN X NOUN	-0.38108572
-1.1695818	NOUN X NOUN	-0.28951317
-0.96804243	PUNCT X NOUN	-0.661661
-1.0409154	VERB X NOUN	-0.29640508
-0.71473634	ADJ X NOUN	-0.29359704
-0.7667811	ADP X NOUN	-0.591136
-1.0112019	DET X NOUN	-0.29080698
-1.0178896	ADV X NOUN	-0.29359704
-1.1106329	PRON X NOUN	-0.28803477
-1.1375133	SYM X NOUN	-0.28803477
-0.8102921	X X NOUN	-0.54184127
-1.8100466	<s> INTJ NOUN	-0.3633538
-1.1801097	PROPN INTJ NOUN	-0.28803477
-1.3393933	NOUN INTJ NOUN	-0.28803477
-1.2194545	PUNCT INTJ NOUN	-0.34488243
-1.0507205	VERB INTJ NOUN	-0.28976008
-0.8454069	PART INTJ NOUN	-0.28803477
-0.69108033	DET INTJ NOUN	-0.29359704
-1.3509929	CCONJ INTJ NOUN	-0.28803477
-1.1846447	ADV INTJ NOUN	-0.28803477
-0.9772567	PRON INTJ NOUN	-0.28803477
-1.0353774	INTJ INTJ NOUN	-0.28803477
-0.62524575	<s> PROPN PUNCT	-2.2484934
-1.1917336	PROPN PROPN PUNCT	-2.9267318
-1.1115422	NOUN PROPN PUNCT	-1.7087641
-1.1268426	PUNCT PROPN PUNCT	-2.4712799
-1.136617	VERB PROPN PUNCT	-1.8150392
-1.0408987	SCONJ PROPN PUNCT	-1.4868852
-1.0342811	AUX PROPN PUNCT	-1.0849086
-1.0742176	ADJ PROPN PUNCT	-1.7667459
-0.97551346	PART PROPN PUNCT	-1.2180237
-1.167201	ADP PROPN PUNCT	-2.775111
-1.1347353	DET PROPN PUNCT	-2.127668
-0.9532035	CCONJ PROPN PUNCT	-2.3328981
-1.032263	ADV PROPN PUNCT	-0.9302492
-1.0133425	PRON PROPN PUNCT	-0.66421276
-1.0384408	NUM PROPN PUNCT	-1.2609247
-1.054029	SYM PROPN PUNCT	-1.1588292
-0.75534296	X PROPN PUNCT	-0.8293186
-0.6742283	INTJ PROPN PUNCT	-0.42298055
-0.8403363	<s> NOUN PUNCT	-1.6882768
-1.1633776	PROPN NOUN PUNCT	-2.3079882
-1.1738499	NOUN NOUN PUNCT	-2.777737
-1.145737	PUNCT NOUN PUNCT	-2.353962
-1.1572315	VERB NOUN PUNCT	-2.3447654
-1.0483346	SCONJ NOUN PUNCT	-1.479109
-1.0692681	AUX NOUN PUNCT	-1.4330771
-1.1738499	ADJ NOUN PUNCT	-3.0834153
-0.9794697	PART NOUN PUNCT	-2.0336003
-1.144395	ADP NOUN PUNCT	-2.7219982
-1.1887822	DET NOUN PUNCT	-3.0931737
-1.0038276	CCONJ NOUN PUNCT	-2.2928736
-1.0937678	ADV NOUN PUNCT	-1.288102
-0.9359175	PRON NOUN PUNCT	-0.97357816
-1.147182	NUM NOUN PUNCT	-2.187862
-0.8837435	SYM NOUN PUNCT	-0.9046792
-0.82774633	X NOUN PUNCT	-0.5670087
-0.7098656	INTJ NOUN PUNCT	-0.29196382
-1.2591175	<s> PUNCT PUNCT	-0.9856998
-1.2189358	PROPN PUNCT PUNCT	-2.221267
-1.2174809	NOUN PUNCT PUNCT	-2.4125526
-1.1810151	PUNCT PUNCT PUNCT	-1.8332543
-1.187958	VERB PUNCT PUNCT	-1.7878807
-1.2815003	SCONJ PUNCT PUNCT	-0.49082908
-1.2067153	AUX PUNCT PUNCT	-0.7687934
-1.179622	ADJ PUNCT PUNCT	-1.5464809
-1.2570586	PART PUNCT PUNCT	-0.59214836
-1.1927842	ADP PUNCT PUNCT	-0.89512426
-1.1474501	DET PUNCT PUNCT	-0.8217168
-1.3229625	CCONJ PUNCT PUNCT	-0.32947943
-1.1990683	ADV PUNCT PUNCT	-1.5091202
-1.0974307	PRON PUNCT PUNCT	-1.4043967
-1.1950659	NUM PUNCT PUNCT	-1.3607965
-0.85302943	SYM PUNCT PUNCT	-0.29359704
-0.97137296	X PUNCT PUNCT	-0.75602335
-1.0149705	INTJ PUNCT PUNCT	-0.6395444
-1.4532217	<s> VERB PUNCT	-0.9987978
-1.1505371	PROPN VERB PUNCT	-1.9224167
-1.1819516	NOUN VERB PUNCT	-2.006725
-1.1507937	PUNCT VERB PUNCT	-1.7957528
-1.1488882	VERB VERB PUNCT	-1.582332
-1.0475302	SCONJ VERB PUNCT	-0.9340943
-1.1678952	AUX VERB PUNCT	-2.1768274
-1.1255761	ADJ VERB PUNCT	-0.7468919
-1.2030112	PART VERB PUNCT	-1.994261
-1.1963501	ADP VERB PUNCT	-1.2310725
-1.1621435	DET VERB PUNCT	-1.2867298
-1.1462312	CCONJ VERB PUNCT	-1.4826192
-1.1358714	ADV VERB PUNCT	-1.7985218
-1.1819516	PRON VERB PUNCT	-2.008346
-1.0530211	NUM VERB PUNCT	-0.6602291
-0.9051721	SYM VERB PUNCT	-0.29136357
-0.9876152	X VERB PUNCT	-0.4652755
-1.0330749	INTJ VERB PUNCT	-0.2916909
-2.035287	<s> SCONJ PUNCT	-0.489362
-1.1629196	PROPN SCONJ PUNCT	-0.54927343
-1.1443722	NOUN SCONJ PUNCT	-1.1088276
-1.21269	PUNCT SCONJ PUNCT	-0.66616064
-1.1377048	VERB SCONJ PUNCT	-1.2990384
-1.3881975	SCONJ SCONJ PUNCT	-0.28803477
-1.1505498	AUX SCONJ PUNCT	-0.46247894
-1.2447995	ADJ SCONJ PUNCT	-0.6884627
-1.5052991	PART SCONJ PUNCT	-0.29640508
-1.4556999	ADP SCONJ PUNCT	-0.44537297
-1.3123921	DET SCONJ PUNCT	-0.28941447
-1.2922393	CCONJ SCONJ PUNCT	-0.3166977
-1.2800114	ADV SCONJ PUNCT	-0.41265786
-1.3198556	PRON SCONJ PUNCT	-0.5758381
-1.3528609	NUM SCONJ PUNCT	-0.29136357
-2.5899334	<s> AUX PUNCT	-0.28803477
-1.1875136	PROPN AUX PUNCT	-0.85932016
-1.1346781	NOUN AUX PUNCT	-1.3471189
-1.276939	PUNCT AUX PUNCT	-0.560841
-1.0666738	VERB AUX PUNCT	-1.0023673
-1.3242815	SCONJ AUX PUNCT	-0.28901985
-1.2212951	AUX AUX PUNCT	-0.41635948
-1.2946969	ADJ AUX PUNCT	-0.29140034
-1.2246337	PART AUX PUNCT	-0.9568966
-1.1735952	ADP AUX PUNCT	-0.43427747
-1.1941336	DET AUX PUNCT	-0.49282312
-1.4214715	CCONJ AUX PUNCT	-0.36576423
-1.2336953	ADV AUX PUNCT	-0.7013025
-1.1899244	PRON AUX PUNCT	-1.3397958
-1.238532	NUM AUX PUNCT	-0.28931203
-1.2588862	<s> ADJ PUNCT	-1.1218952
-0.9484439	PROPN ADJ PUNCT	-0.8133095
-1.0870154	NOUN ADJ PUNCT	-1.3962919
-1.0639801	PUNCT ADJ PUNCT	-1.7962246
-1.1069319	VERB ADJ PUNCT	-1.6600877
-1.0393312	SCONJ ADJ PUNCT	-1.1565017
-1.0935533	AUX ADJ PUNCT	-1.9886628
-1.0246453	ADJ ADJ PUNCT	-1.409834
-0.9829999	PART ADJ PUNCT	-1.3514198
-1.0994079	ADP ADJ PUNCT	-1.6749489
-1.132083	DET ADJ PUNCT	-1.95273
-1.0500436	CCONJ ADJ PUNCT	-1.5286883
-1.1444168	ADV ADJ PUNCT	-1.9821881
-0.96945363	PRON ADJ PUNCT	-1.0650804
-0.90073824	NUM ADJ PUNCT	-0.85863245
-0.92501336	SYM ADJ PUNCT	-0.3143595
-1.3184929	X ADJ PUNCT	-0.28803477
-0.6576456	INTJ ADJ PUNCT	-0.28901985
-2.0144565	<s> PART PUNCT	-0.2904099
-1.0698872	PROPN PART PUNCT	-1.1261082
-1.1134143	NOUN PART PUNCT	-0.96493375
-1.3353955	PUNCT PART PUNCT	-0.6038502
-1.047492	VERB PART PUNCT	-0.9502213
-0.96306777	SCONJ PART PUNCT	-0.39182132
-1.1764449	AUX PART PUNCT	-0.910041
-1.1103779	ADJ PART PUNCT	-0.4652755
-0.95691055	PART PART PUNCT	-0.29136357
-1.3788899	ADP PART PUNCT	-0.29219976
-1.039607	DET PART PUNCT	-0.4155889
-1.0226417	CCONJ PART PUNCT	-0.8578845
-1.0287684	ADV PART PUNCT	-0.7267558
-1.1654748	PRON PART PUNCT	-0.46805504
-0.99944186	NUM PART PUNCT	-0.36905658
-2.2568078	<s> ADP PUNCT	-0.6137817
-1.1392231	PROPN ADP PUNCT	-0.8740073
-1.1724991	NOUN ADP PUNCT	-1.6662692
-1.164218	PUNCT ADP PUNCT	-1.3239464
-1.21202	VERB ADP PUNCT	-1.8217878
-1.1996186	SCONJ ADP PUNCT	-0.38312495
-1.1330253	AUX ADP PUNCT	-0.79107046
-1.1067109	ADJ ADP PUNCT	-0.8997382
-1.3305432	PART ADP PUNCT	-0.2947181
-1.0707905	ADP ADP PUNCT	-0.7522777
-1.11856	DET ADP PUNCT	-0.86099416
-1.0630213	CCONJ ADP PUNCT	-0.632829
-1.223988	ADV ADP PUNCT	-0.68570566
-1.1285278	PRON ADP PUNCT	-0.9773408
-1.1774089	NUM ADP PUNCT	-0.3437871
-1.0748094	SYM ADP PUNCT	-0.28803477
-1.3967183	X ADP PUNCT	-0.28803477
-2.0322733	<s> DET PUNCT	-1.0222392
-1.2820773	PROPN DET PUNCT	-0.45812958
-1.174172	NOUN DET PUNCT	-0.74856246
-1.1623125	PUNCT DET PUNCT	-1.2245344
-1.1992251	VERB DET PUNCT	-1.5697486
-1.0799091	SCONJ DET PUNCT	-1.323158
-1.0791662	AUX DET PUNCT	-1.169594
-1.3827804	ADJ DET PUNCT	-0.4033578
-1.2057531	PART DET PUNCT	-0.48960957
-1.1420485	ADP DET PUNCT	-1.7416062
-1.1020933	DET DET PUNCT	-0.7507291
-1.264447	CCONJ DET PUNCT	-0.77924085
-1.0409387	ADV DET PUNCT	-0.8135404
-1.1664569	PRON DET PUNCT	-0.81012285
-1.134244	NUM DET PUNCT	-0.6040671
-1.2705241	<s> CCONJ PUNCT	-1.0132755
-1.2635928	PROPN CCONJ PUNCT	-0.53138524
-1.2245101	NOUN CCONJ PUNCT	-0.9276588
-1.189142	PUNCT CCONJ PUNCT	-1.3199592
-1.3181766	VERB CCONJ PUNCT	-0.39182132
-1.4940538	SCONJ CCONJ PUNCT	-0.28803477
-1.64766	AUX CCONJ PUNCT	-0.28803477
-1.3140308	ADJ CCONJ PUNCT	-0.41481405
-1.4074514	PART CCONJ PUNCT	-0.28803477
-1.5765423	ADP CCONJ PUNCT	-0.29219976
-1.4262562	DET CCONJ PUNCT	-0.28803477
-1.4579506	ADV CCONJ PUNCT	-0.29108092
-1.5681902	PRON CCONJ PUNCT	-0.28803477
-1.6792046	NUM CCONJ PUNCT	-0.29136357
-1.2815709	X CCONJ PUNCT	-0.28803477
-0.4468073	<s> ADV PUNCT	-2.1245368
-1.0887111	PROPN ADV PUNCT	-1.2146035
-1.1313246	NOUN ADV PUNCT	-2.0470574
-1.1494945	PUNCT ADV PUNCT	-1.7943971
-1.1581994	VERB ADV PUNCT	-1.9116669
-1.0582013	SCONJ ADV PUNCT	-0.9515981
-1.1260222	AUX ADV PUNCT	-1.3160787
-1.0346311	ADJ ADV PUNCT	-1.1731184
-1.1630722	PART ADV PUNCT	-0.7941693
-1.0831548	ADP ADV PUNCT	-1.3498298
-0.9998003	DET ADV PUNCT	-1.4794512
-1.108879	CCONJ ADV PUNCT	-1.4390421
-1.1017218	ADV ADV PUNCT	-1.940702
-1.0648161	PRON ADV PUNCT	-1.3391231
-0.9456376	NUM ADV PUNCT	-0.6300682
-1.1171103	X ADV PUNCT	-0.28803477
-0.98889637	INTJ ADV PUNCT	-0.32947943
-2.264011	<s> PRON PUNCT	-0.659492
-0.89869875	PROPN PRON PUNCT	-0.6540146
-1.0431865	NOUN PRON PUNCT	-0.97693783
-1.074721	PUNCT PRON PUNCT	-0.8923343
-1.1706846	VERB PRON PUNCT	-1.9267875
-1.0266587	SCONJ PRON PUNCT	-0.90232724
-1.0387641	AUX PRON PUNCT	-1.0341138
-0.821157	ADJ PRON PUNCT	-0.6637541
-0.84388036	PART PRON PUNCT	-0.7871818
-1.1343815	ADP PRON PUNCT	-1.951869
-1.0927367	DET PRON PUNCT	-0.2918265
-1.1256495	CCONJ PRON PUNCT	-0.6726642
-1.0492498	ADV PRON PUNCT	-0.64045435
-1.2190127	PRON PRON PUNCT	-0.35705557
-1.231574	NUM PRON PUNCT	-0.28803477
-1.0740778	SYM PRON PUNCT	-0.28803477
-0.9774138	X PRON PUNCT	-0.29359704
-1.249356	INTJ PRON PUNCT	-0.28941447
-0.9236382	<s> NUM PUNCT	-1.0726571
-1.085252	PROPN NUM PUNCT	-2.1701071
-0.9672715	NOUN NUM PUNCT	-1.1798042
-0.9901214	PUNCT NUM PUNCT	-1.7318686
-1.0723009	VERB NUM PUNCT	-0.88967615
-0.93544304	SCONJ NUM PUNCT	-1.0717878
-0.9792149	AUX NUM PUNCT	-0.7206136
-0.90231156	ADJ NUM PUNCT	-0.92499804
-0.86123526	PART NUM PUNCT	-0.5920138
-1.1044036	ADP NUM PUNCT	-1.9189434
-0.97242117	DET NUM PUNCT	-1.3548596
-1.0794549	CCONJ NUM PUNCT	-0.8226555
-0.98778373	ADV NUM PUNCT	-0.6245019
-1.0096204	PRON NUM PUNCT	-0.28803477
-0.995246	NUM NUM PUNCT	-1.0146947
-0.9586402	SYM NUM PUNCT	-1.6023316
-1.1052073	X NUM PUNCT	-0.28803477
-1.7868633	<s> SYM PUNCT	-0.29640508
-1.4644716	PROPN SYM PUNCT	-0.28803477
-1.222285	NOUN SYM PUNCT	-0.29219976
-1.2152712	PUNCT SYM PUNCT	-0.3493923
-1.3849245	VERB SYM PUNCT	-0.29359704
-1.2725203	AUX SYM PUNCT	-0.28803477
-1.3110864	ADJ SYM PUNCT	-0.2903367
-1.1787292	ADP SYM PUNCT	-0.29219976
-1.267926	CCONJ SYM PUNCT	-0.28803477
-1.5102351	NUM SYM PUNCT	-0.28803477
-0.9354559	SYM SYM PUNCT	-0.28803477
-0.050346278	<s> X PUNCT	-1.3354648
-0.8512013	PROPN X PUNCT	-0.5241594
-0.7968736	NOUN X PUNCT	-0.7168964
-0.7484012	PUNCT X PUNCT	-1.1552613
-0.63817126	VERB X PUNCT	-0.42472422
-0.47890416	SCONJ X PUNCT	-0.2930699
-0.8168606	AUX X PUNCT	-0.28803477
-0.60082614	ADJ X PUNCT	-0.28803477
-0.7061325	ADP X PUNCT	-0.7673336
-1.131935	DET X PUNCT	-0.28803477
-0.5184825	CCONJ X PUNCT	-0.7816295
-0.5395597	ADV X PUNCT	-0.292798
-1.0427694	PRON X PUNCT	-0.28803477
-0.99638456	NUM X PUNCT	-0.28803477
-0.6033817	SYM X PUNCT	-0.29097822
-0.8320966	X X PUNCT	-0.55384886
-0.9063456	INTJ X PUNCT	-0.28803477
-0.21925363	<s> INTJ PUNCT	-1.3183655
-0.6203119	PROPN INTJ PUNCT	-0.289696
-0.6005798	NOUN INTJ PUNCT	-0.62497634
-0.8154672	PUNCT INTJ PUNCT	-1.2859921
-0.6889053	VERB INTJ PUNCT	-0.53051996
-0.6356132	SCONJ INTJ PUNCT	-0.28803477
-0.6163453	AUX INTJ PUNCT	-0.29277962
-0.48489484	ADJ INTJ PUNCT	-0.28941447
-0.7947443	PART INTJ PUNCT	-0.28803477
-0.76960444	ADP INTJ PUNCT	-0.28803477
-0.94830334	DET INTJ PUNCT	-0.28803477
-0.7352051	CCONJ INTJ PUNCT	-0.5164467
-0.70021623	ADV INTJ PUNCT	-0.29097822
-1.0052992	PRON INTJ PUNCT	-0.29359704
-0.38372323	NUM INTJ PUNCT	-0.28803477
-0.56737304	X INTJ PUNCT	-0.28803477
-0.6332998	INTJ INTJ PUNCT	-0.5920653
-0.899802	<s> PROPN VERB	-2.016068
-1.214292	PROPN PROPN VERB	-2.4848428
-1.1093229	NOUN PROPN VERB	-1.4683895
-1.1494012	PUNCT PROPN VERB	-1.9659557
-1.1607085	VERB PROPN VERB	-1.3017662
-1.0386556	SCONJ PROPN VERB	-1.5189459
-1.224987	AUX PROPN VERB	-0.73028344
-1.1229987	ADJ PROPN VERB	-1.3581688
-1.178936	PART PROPN VERB	-0.81033427
-1.1651119	ADP PROPN VERB	-1.999791
-1.1325516	DET PROPN VERB	-1.7503996
-1.1531024	CCONJ PROPN VERB	-1.4065509
-1.062036	ADV PROPN VERB	-1.1430639
-0.8458734	PRON PROPN VERB	-0.6905555
-1.1264939	NUM PROPN VERB	-0.73294574
-1.0516622	SYM PROPN VERB	-0.75260043
-1.257022	X PROPN VERB	-0.323845
-1.22983	INTJ PROPN VERB	-0.29017347
-0.23638082	SPACE PROPN VERB	-0.28803477
-0.78176486	<s> NOUN VERB	-1.798227
-1.1655794	PROPN NOUN VERB	-1.8930138
-1.1759298	NOUN NOUN VERB	-2.2924845
-1.1479307	PUNCT NOUN VERB	-1.840597
-1.2105416	VERB NOUN VERB	-1.7793572
-1.0506079	SCONJ NOUN VERB	-1.5470747
-1.0715104	AUX NOUN VERB	-1.0869118
-1.2007439	ADJ NOUN VERB	-2.5480182
-1.1431069	PART NOUN VERB	-1.5959951
-1.1977588	ADP NOUN VERB	-2.04741
-1.190984	DET NOUN VERB	-2.7530057
-1.1420275	CCONJ NOUN VERB	-1.7519486
-1.0656655	ADV NOUN VERB	-1.3638383
-0.9030767	PRON NOUN VERB	-0.74177194
-1.1740836	NUM NOUN VERB	-1.7052598
-1.0817895	SYM NOUN VERB	-0.39444968
-1.116519	X NOUN VERB	-0.29080698
-1.2249163	<s> PUNCT VERB	-1.1192279
-1.2209791	PROPN PUNCT VERB	-2.3139405
-1.2195241	NOUN PUNCT VERB	-2.534379
-1.1830585	PUNCT PUNCT VERB	-1.7499458
-1.2445611	VERB PUNCT VERB	-1.7190204
-1.108402	SCONJ PUNCT VERB	-0.76298445
-1.2099346	AUX PUNCT VERB	-0.9700458
-1.2081528	ADJ PUNCT VERB	-1.3948019
-1.0469286	PART PUNCT VERB	-1.1270019
-1.0987632	ADP PUNCT VERB	-1.1101054
-1.1500269	DET PUNCT VERB	-0.94481975
-1.0229086	CCONJ PUNCT VERB	-0.8048903
-1.2013668	ADV PUNCT VERB	-1.8468558
-1.1278014	PRON PUNCT VERB	-1.1778644
-1.2275304	NUM PUNCT VERB	-1.395942
-1.1087767	X PUNCT VERB	-0.7435253
-1.1587445	INTJ PUNCT VERB	-0.65903586
-1.6729069	<s> VERB VERB	-0.7356351
-1.229234	PROPN VERB VERB	-1.7284274
-1.2081202	NOUN VERB VERB	-2.2090876
-1.1507937	PUNCT VERB VERB	-1.4357255
-1.2067232	VERB VERB VERB	-1.3959634
-1.2412748	SCONJ VERB VERB	-0.5114168
-1.2254982	AUX VERB VERB	-1.3308201
-1.0929222	ADJ VERB VERB	-0.6914918
-1.2030112	PART VERB VERB	-1.5012918
-1.2311676	ADP VERB VERB	-0.94097036
-1.1920907	DET VERB VERB	-1.6502508
-1.1782541	CCONJ VERB VERB	-1.3237027
-1.1900911	ADV VERB VERB	-1.2851355
-1.1572706	PRON VERB VERB	-2.3228097
-1.2015824	NUM VERB VERB	-0.59335274
-1.2633948	SYM VERB VERB	-0.28803477
-1.2488662	X VERB VERB	-0.29359704
-1.3699079	INTJ VERB VERB	-0.29429734
-1.3830982	<s> SCONJ VERB	-1.0643474
-1.0739429	PROPN SCONJ VERB	-0.7506219
-1.1443722	NOUN SCONJ VERB	-1.2824489
-1.0878475	PUNCT SCONJ VERB	-1.2171357
-1.1995193	VERB SCONJ VERB	-1.1867982
-1.1226851	SCONJ SCONJ VERB	-0.34553283
-0.98840827	AUX SCONJ VERB	-0.80343986
-1.165737	ADJ SCONJ VERB	-0.8794276
-1.3563322	PART SCONJ VERB	-0.29640508
-1.5330563	ADP SCONJ VERB	-0.3712394
-1.3123921	DET SCONJ VERB	-0.292798
-1.3937898	CCONJ SCONJ VERB	-0.42273962
-1.14058	ADV SCONJ VERB	-1.0125015
-1.3198556	PRON SCONJ VERB	-0.44938692
-1.3528609	NUM SCONJ VERB	-0.29097822
-1.4430707	<s> AUX VERB	-0.5489646
-1.0979799	PROPN AUX VERB	-2.2548375
-1.129672	NOUN AUX VERB	-2.657701
-1.0645931	PUNCT AUX VERB	-1.8806076
-1.0616177	VERB AUX VERB	-2.1342552
-0.989109	SCONJ AUX VERB	-0.76363415
-0.91036737	AUX AUX VERB	-2.2064805
-0.9775686	ADJ AUX VERB	-1.068488
-1.0138794	PART AUX VERB	-1.9597651
-0.82036054	ADP AUX VERB	-1.1801903
-1.091203	DET AUX VERB	-1.8779678
-0.98439884	CCONJ AUX VERB	-1.570174
-1.0932095	ADV AUX VERB	-1.6781876
-1.10602	PRON AUX VERB	-2.4383874
-0.8908085	NUM AUX VERB	-0.9974095
-0.82679945	X AUX VERB	-0.28803477
-0.86906064	INTJ AUX VERB	-0.3317806
-1.6534249	<s> ADJ VERB	-0.8224431
-1.0737337	PROPN ADJ VERB	-0.36543533
-1.1927464	NOUN ADJ VERB	-0.5550898
-1.1884748	PUNCT ADJ VERB	-0.7784533
-1.1727165	VERB ADJ VERB	-0.76813966
-1.0867822	SCONJ ADJ VERB	-0.47523856
-1.2652302	AUX ADJ VERB	-0.8752232
-1.0034325	ADJ ADJ VERB	-0.85056007
-1.1554868	PART ADJ VERB	-0.61403465
-1.1066953	ADP ADJ VERB	-0.93358684
-1.2376966	DET ADJ VERB	-1.2561512
-1.2392777	CCONJ ADJ VERB	-0.71149266
-1.1821781	ADV ADJ VERB	-0.8314443
-0.97729284	PRON ADJ VERB	-0.5059548
-1.2514035	NUM ADJ VERB	-0.5639795
-0.28814927	<s> PART VERB	-1.2529776
-0.97822994	PROPN PART VERB	-1.8511368
-0.93098295	NOUN PART VERB	-2.605221
-0.84943986	PUNCT PART VERB	-1.6192416
-0.9235298	VERB PART VERB	-2.6426706
-0.81009215	SCONJ PART VERB	-0.9345236
-0.965827	AUX PART VERB	-2.3824737
-0.706669	ADJ PART VERB	-2.0971437
-0.47481462	PART PART VERB	-1.347586
-0.6681207	ADP PART VERB	-1.2503119
-0.62345326	DET PART VERB	-0.68139035
-0.89923835	CCONJ PART VERB	-1.3750736
-0.8158235	ADV PART VERB	-1.7733737
-0.7117726	PRON PART VERB	-1.6403702
-0.6816799	NUM PART VERB	-0.88623893
-0.50324726	SYM PART VERB	-0.28803477
-0.4998774	X PART VERB	-0.29173502
-0.508315	INTJ PART VERB	-0.29640508
-1.5621033	<s> ADP VERB	-1.1682259
-1.106814	PROPN ADP VERB	-1.3547541
-1.1701114	NOUN ADP VERB	-2.2931325
-1.1040032	PUNCT ADP VERB	-1.3062358
-1.2094848	VERB ADP VERB	-1.9151065
-1.1961733	SCONJ ADP VERB	-0.6696199
-1.129847	AUX ADP VERB	-0.82367444
-1.1339451	ADJ ADP VERB	-1.4605407
-1.1299388	PART ADP VERB	-0.46798766
-1.1472486	ADP ADP VERB	-0.70317686
-1.1609461	DET ADP VERB	-0.5237221
-1.1481708	CCONJ ADP VERB	-0.8555821
-1.1168967	ADV ADP VERB	-1.3857309
-1.1251129	PRON ADP VERB	-1.105322
-1.1321684	NUM ADP VERB	-0.59107834
-1.2538198	SYM ADP VERB	-0.28803477
-1.1235996	X ADP VERB	-0.28803477
-1.1301783	INTJ ADP VERB	-0.28803477
-1.4284648	<s> DET VERB	-1.615011
-0.9645639	PROPN DET VERB	-1.2045892
-1.0041466	NOUN DET VERB	-2.183179
-1.0731207	PUNCT DET VERB	-1.9677202
-1.1659538	VERB DET VERB	-1.5763606
-1.0467666	SCONJ DET VERB	-1.2902241
-1.1035874	AUX DET VERB	-1.2531551
-0.94176924	ADJ DET VERB	-0.5220918
-1.1245914	PART DET VERB	-0.42761037
-1.1367555	ADP DET VERB	-1.8846076
-1.0575888	DET DET VERB	-0.8170903
-1.0442241	CCONJ DET VERB	-1.2967291
-1.098015	ADV DET VERB	-0.97458345
-0.87952214	PRON DET VERB	-1.2076399
-0.8092872	NUM DET VERB	-0.5021768
-1.2020502	X DET VERB	-0.29219976
-1.2129792	INTJ DET VERB	-0.29640508
-1.3242129	<s> CCONJ VERB	-1.026098
-1.0951821	PROPN CCONJ VERB	-1.6173441
-1.1354017	NOUN CCONJ VERB	-2.3080893
-1.155737	PUNCT CCONJ VERB	-1.9843596
-1.0628144	VERB CCONJ VERB	-2.0238674
-1.3195443	SCONJ CCONJ VERB	-0.28803477
-0.8635906	AUX CCONJ VERB	-0.4822402
-1.0576001	ADJ CCONJ VERB	-1.3950037
-0.8239192	PART CCONJ VERB	-0.41581714
-1.0693469	ADP CCONJ VERB	-1.1340439
-0.9062402	DET CCONJ VERB	-0.4371525
-0.7584129	CCONJ CCONJ VERB	-0.29097822
-1.0698767	ADV CCONJ VERB	-1.2297982
-1.0609949	PRON CCONJ VERB	-1.1983995
-1.0115685	NUM CCONJ VERB	-0.7483567
-0.60605675	SYM CCONJ VERB	-0.28803477
-0.6888698	X CCONJ VERB	-0.292798
-1.2440598	<s> ADV VERB	-1.3916726
-1.0319912	PROPN ADV VERB	-1.7981926
-1.1289376	NOUN ADV VERB	-2.0362568
-1.1225977	PUNCT ADV VERB	-1.7912862
-1.1558976	VERB ADV VERB	-1.8979948
-1.0554578	SCONJ ADV VERB	-0.89339346
-1.0695444	AUX ADV VERB	-2.3348932
-1.0947464	ADJ ADV VERB	-0.86089396
-0.9812495	PART ADV VERB	-1.7511586
-1.052773	ADP ADV VERB	-1.2538149
-0.96936667	DET ADV VERB	-1.6313471
-1.0159764	CCONJ ADV VERB	-1.7834997
-1.1256857	ADV ADV VERB	-1.6299301
-0.91029274	PRON ADV VERB	-2.0634258
-0.94310766	NUM ADV VERB	-0.56782
-1.0466228	SYM ADV VERB	-0.28803477
-1.1084582	X ADV VERB	-0.28803477
-0.98311543	INTJ ADV VERB	-0.2919638
-0.3224847	<s> PRON VERB	-2.4754748
-0.78123873	PROPN PRON VERB	-1.4290153
-0.8913905	NOUN PRON VERB	-2.2094746
-0.9962799	PUNCT PRON VERB	-2.468716
-1.1448805	VERB PRON VERB	-2.0209286
-0.94342375	SCONJ PRON VERB	-2.244078
-1.0707473	AUX PRON VERB	-1.5955112
-0.74587536	ADJ PRON VERB	-1.0576515
-0.84388036	PART PRON VERB	-0.8712917
-1.1068233	ADP PRON VERB	-1.6641355
-0.72603786	DET PRON VERB	-1.7197754
-0.87703544	CCONJ PRON VERB	-1.9937898
-0.89854085	ADV PRON VERB	-2.0951262
-0.69976634	PRON PRON VERB	-1.7011888
-0.56084496	NUM PRON VERB	-0.5915133
-0.5488727	SYM PRON VERB	-0.35836756
-1.1739855	X PRON VERB	-0.28803477
-0.4461798	INTJ PRON VERB	-0.46231422
-1.776182	<s> NUM VERB	-0.4095783
-1.2223523	PROPN NUM VERB	-0.8248137
-1.1472697	NOUN NUM VERB	-0.5186479
-1.294364	PUNCT NUM VERB	-0.6219229
-1.1801052	VERB NUM VERB	-0.46089593
-1.1510928	SCONJ NUM VERB	-0.50473
-1.160649	AUX NUM VERB	-0.57565695
-1.2756182	ADJ NUM VERB	-0.3466357
-1.2424535	PART NUM VERB	-0.29519936
-1.196935	ADP NUM VERB	-0.89839476
-1.0808382	DET NUM VERB	-0.72993505
-1.032439	CCONJ NUM VERB	-0.54191756
-1.2357742	ADV NUM VERB	-0.55859965
-1.2881929	PRON NUM VERB	-0.29640508
-1.0303501	NUM NUM VERB	-0.60921293
-1.1853658	SYM NUM VERB	-0.42191738
-1.9614853	<s> SYM VERB	-0.28803477
-1.2309861	PROPN SYM VERB	-0.29080698
-1.2343769	NOUN SYM VERB	-0.29429734
-1.3759947	PUNCT SYM VERB	-0.28803477
-0.76733184	VERB SYM VERB	-0.38448507
-1.4233516	ADJ SYM VERB	-0.28803477
-1.1050245	PART SYM VERB	-0.28803477
-1.3353175	ADP SYM VERB	-0.29136357
-1.3857512	ADV SYM VERB	-0.28803477
-1.534496	NUM SYM VERB	-0.28803477
-1.785504	<s> X VERB	-0.29321358
-1.3945887	PROPN X VERB	-0.2947181
-1.018442	NOUN X VERB	-0.3493923
-1.2640458	PUNCT X VERB	-0.32707742
-1.0409154	VERB X VERB	-0.29136357
-1.1400701	SCONJ X VERB	-0.28803477
-1.418738	ADP X VERB	-0.29219976
-1.4497745	DET X VERB	-0.28803477
-1.3595968	CCONJ X VERB	-0.28803477
-1.2898467	ADV X VERB	-0.28803477
-0.7975424	PRON X VERB	-0.29359704
-1.4897676	X X VERB	-0.28803477
-0.8862091	<s> INTJ VERB	-0.79997903
-0.9113503	PROPN INTJ VERB	-0.2891842
-0.89789087	NOUN INTJ VERB	-0.3685957
-0.8824352	PUNCT INTJ VERB	-0.8745634
-1.1692902	VERB INTJ VERB	-0.28803477
-1.1060374	AUX INTJ VERB	-0.28803477
-1.0161812	ADJ INTJ VERB	-0.28803477
-0.5917319	PART INTJ VERB	-0.28803477
-1.0954994	CCONJ INTJ VERB	-0.29219976
-0.8102821	ADV INTJ VERB	-0.33640766
-0.58401287	PRON INTJ VERB	-0.35891056
-0.92711073	X INTJ VERB	-0.28803477
-1.1036664	INTJ INTJ VERB	-0.28803477
-3.0835536	<s> PROPN SCONJ	-0.44241714
-1.3324106	PROPN PROPN SCONJ	-1.3762491
-1.4122643	NOUN PROPN SCONJ	-0.5503008
-1.6005832	PUNCT PROPN SCONJ	-0.534119
-1.190936	VERB PROPN SCONJ	-1.1505305
-1.5223441	SCONJ PROPN SCONJ	-0.37671822
-1.5893354	AUX PROPN SCONJ	-0.29359704
-1.3287525	ADJ PROPN SCONJ	-0.6898566
-1.4920061	PART PROPN SCONJ	-0.29359704
-1.2514598	ADP PROPN SCONJ	-1.4856778
-1.3849233	DET PROPN SCONJ	-0.8714023
-1.4560763	CCONJ PROPN SCONJ	-0.6110123
-1.5821342	ADV PROPN SCONJ	-0.28803477
-1.7323787	PRON PROPN SCONJ	-0.28803477
-1.4677832	NUM PROPN SCONJ	-0.28956807
-1.3267429	SYM PROPN SCONJ	-0.45205092
-1.6125529	X PROPN SCONJ	-0.28803477
-1.4856423	INTJ PROPN SCONJ	-0.28803477
-2.1018813	<s> NOUN SCONJ	-0.81748384
-1.1918977	PROPN NOUN SCONJ	-1.0816245
-1.2270621	NOUN NOUN SCONJ	-1.6085429
-1.2991908	PUNCT NOUN SCONJ	-0.9064064
-1.2105416	VERB NOUN SCONJ	-1.5249481
-1.1867638	SCONJ NOUN SCONJ	-0.6266705
-1.2499017	AUX NOUN SCONJ	-0.85611975
-1.2007439	ADJ NOUN SCONJ	-2.0288613
-1.3211755	PART NOUN SCONJ	-1.0731481
-1.2259349	ADP NOUN SCONJ	-1.6127726
-1.2173023	DET NOUN SCONJ	-2.1231816
-1.2301713	CCONJ NOUN SCONJ	-1.0826098
-1.1287795	ADV NOUN SCONJ	-0.56192344
-1.5692058	PRON NOUN SCONJ	-0.40293843
-1.200501	NUM NOUN SCONJ	-1.0958627
-1.5811923	SYM NOUN SCONJ	-0.38667008
-1.6343461	X NOUN SCONJ	-0.28803477
-1.5243375	<s> PUNCT SCONJ	-0.9961346
-1.2722043	PROPN PUNCT SCONJ	-1.517784
-1.2195241	NOUN PUNCT SCONJ	-2.0424209
-1.2623559	PUNCT PUNCT SCONJ	-1.0945034
-1.2445611	VERB PUNCT SCONJ	-1.2936646
-1.1464545	SCONJ PUNCT SCONJ	-0.6890895
-1.251664	AUX PUNCT SCONJ	-0.49703363
-1.2662381	ADJ PUNCT SCONJ	-1.2482754
-1.2612783	PART PUNCT SCONJ	-0.35833183
-1.2337154	ADP PUNCT SCONJ	-0.66089046
-1.2968323	DET PUNCT SCONJ	-0.6193293
-1.1803529	CCONJ PUNCT SCONJ	-0.7805143
-1.2916943	ADV PUNCT SCONJ	-1.371266
-1.2248857	PRON PUNCT SCONJ	-0.9482094
-1.2597725	NUM PUNCT SCONJ	-0.8211262
-1.3056152	X PUNCT SCONJ	-0.46647918
-1.368204	INTJ PUNCT SCONJ	-0.6195835
-1.7215765	<s> VERB SCONJ	-0.8221406
-1.2037402	PROPN VERB SCONJ	-1.9009362
-1.2104737	NOUN VERB SCONJ	-1.9160825
-1.1793157	PUNCT VERB SCONJ	-1.6651065
-1.2093185	VERB VERB SCONJ	-1.428035
-1.2449757	SCONJ VERB SCONJ	-0.61330026
-1.1702486	AUX VERB SCONJ	-1.9267131
-1.127978	ADJ VERB SCONJ	-0.8281156
-1.1775173	PART VERB SCONJ	-1.7507833
-1.1990451	ADP VERB SCONJ	-0.9590547
-1.2269977	DET VERB SCONJ	-1.2501515
-1.2159041	CCONJ VERB SCONJ	-1.4126548
-1.1925135	ADV VERB SCONJ	-1.7786607
-1.2104737	PRON VERB SCONJ	-1.999761
-1.1622638	NUM VERB SCONJ	-0.59175825
-1.2578088	X VERB SCONJ	-0.28803477
-1.5961511	INTJ VERB SCONJ	-0.28976008
-2.1308768	<s> SCONJ SCONJ	-0.57870346
-1.2803569	PROPN SCONJ SCONJ	-0.6069731
-1.3081772	NOUN SCONJ SCONJ	-1.180912
-1.1812544	PUNCT SCONJ SCONJ	-1.1310463
-1.1706938	VERB SCONJ SCONJ	-1.2715098
-1.2075388	AUX SCONJ SCONJ	-0.57966334
-1.2952621	ADJ SCONJ SCONJ	-0.5240903
-1.3683927	PART SCONJ SCONJ	-0.29219976
-1.5484841	ADP SCONJ SCONJ	-0.59245074
-1.4091178	DET SCONJ SCONJ	-0.29359704
-1.6177992	CCONJ SCONJ SCONJ	-0.29359704
-1.2329305	ADV SCONJ SCONJ	-0.59175825
-1.3297604	PRON SCONJ SCONJ	-0.7256458
-1.4498059	NUM SCONJ SCONJ	-0.29640508
-2.3563879	<s> AUX SCONJ	-0.28941447
-1.3856567	PROPN AUX SCONJ	-0.654087
-1.1918501	NOUN AUX SCONJ	-1.4392241
-1.3279144	PUNCT AUX SCONJ	-0.7514764
-1.2489959	VERB AUX SCONJ	-0.90728724
-1.2862549	AUX AUX SCONJ	-0.42249134
-1.1362629	ADJ AUX SCONJ	-0.7159758
-1.3277038	PART AUX SCONJ	-0.68935186
-1.2646176	ADP AUX SCONJ	-0.34004912
-1.2359004	DET AUX SCONJ	-0.6651239
-1.3436211	CCONJ AUX SCONJ	-0.29205814
-1.2375149	ADV AUX SCONJ	-0.59175825
-1.2553928	PRON AUX SCONJ	-0.97960925
-1.5084808	NUM AUX SCONJ	-0.34422243
-1.5685041	<s> ADJ SCONJ	-1.0777758
-1.067251	PROPN ADJ SCONJ	-0.60415405
-1.0894647	NOUN ADJ SCONJ	-1.6137748
-1.1205311	PUNCT ADJ SCONJ	-1.4431583
-1.1670376	VERB ADJ SCONJ	-1.4809391
-1.2204001	SCONJ ADJ SCONJ	-0.8026851
-1.0959381	AUX ADJ SCONJ	-1.6883932
-1.2040036	ADJ ADJ SCONJ	-0.5119901
-1.0592166	PART ADJ SCONJ	-0.8629743
-1.129749	ADP ADJ SCONJ	-1.5011396
-1.2689483	DET ADJ SCONJ	-0.9728677
-1.1326165	CCONJ ADJ SCONJ	-0.9858389
-1.1468661	ADV ADJ SCONJ	-1.6379919
-1.0532272	PRON ADJ SCONJ	-0.8564773
-1.49691	NUM ADJ SCONJ	-0.292798
-1.5325068	SYM ADJ SCONJ	-0.28803477
-1.1477667	X ADJ SCONJ	-0.28803477
-1.7147315	<s> PART SCONJ	-0.48222223
-1.651334	PROPN PART SCONJ	-0.37193513
-1.5261257	NOUN PART SCONJ	-0.33717826
-1.2310351	PUNCT PART SCONJ	-0.71092254
-1.4980125	VERB PART SCONJ	-0.32452217
-1.3558074	AUX PART SCONJ	-0.67034507
-1.6510947	ADJ PART SCONJ	-0.28803477
-1.4384432	ADP PART SCONJ	-0.29640508
-1.4407072	DET PART SCONJ	-0.29640508
-1.4626716	CCONJ PART SCONJ	-0.3301113
-1.4751186	ADV PART SCONJ	-0.29640508
-3.04914	<s> ADP SCONJ	-0.29373488
-1.5978254	PROPN ADP SCONJ	-0.33345085
-1.3670387	NOUN ADP SCONJ	-0.80181885
-1.5432838	PUNCT ADP SCONJ	-0.33247364
-1.2452506	VERB ADP SCONJ	-1.3666991
-1.3935531	SCONJ ADP SCONJ	-0.39616907
-1.8105162	AUX ADP SCONJ	-0.28803477
-1.5982012	ADJ ADP SCONJ	-0.4043313
-1.5863628	PART ADP SCONJ	-0.28803477
-1.7865446	ADP ADP SCONJ	-0.28803477
-1.6770924	DET ADP SCONJ	-0.28803477
-1.671805	CCONJ ADP SCONJ	-0.29359704
-1.3193593	ADV ADP SCONJ	-0.55717695
-1.8687439	PRON ADP SCONJ	-0.43554246
-1.9518274	NUM ADP SCONJ	-0.28803477
-3.7217588	<s> DET SCONJ	-0.2947181
-1.6691847	NOUN DET SCONJ	-0.292798
-1.4876311	PUNCT DET SCONJ	-0.3993529
-1.310482	VERB DET SCONJ	-0.63988566
-1.9339172	SCONJ DET SCONJ	-0.29080698
-1.5949813	AUX DET SCONJ	-0.29000708
-1.4647262	ADP DET SCONJ	-0.68458754
-1.6028763	DET DET SCONJ	-0.29136357
-1.9810803	CCONJ DET SCONJ	-0.28803477
-1.8164581	ADV DET SCONJ	-0.2947181
-1.9161626	PRON DET SCONJ	-0.28803477
-1.1954154	<s> CCONJ SCONJ	-1.2345886
-1.4668655	PROPN CCONJ SCONJ	-0.6310096
-1.2276874	NOUN CCONJ SCONJ	-1.2082808
-1.2221313	PUNCT CCONJ SCONJ	-1.4580998
-1.2765948	VERB CCONJ SCONJ	-0.68902093
-1.6670314	AUX CCONJ SCONJ	-0.2903367
-1.4300318	ADJ CCONJ SCONJ	-0.68263525
-1.1346655	ADP CCONJ SCONJ	-0.60908073
-1.5208404	DET CCONJ SCONJ	-0.28803477
-1.3433439	CCONJ CCONJ SCONJ	-0.28803477
-1.3174119	ADV CCONJ SCONJ	-0.52478635
-1.4445666	PRON CCONJ SCONJ	-0.5394455
-1.6923934	NUM CCONJ SCONJ	-0.29219976
-1.249317	INTJ CCONJ SCONJ	-0.28803477
-1.5070065	<s> ADV SCONJ	-1.2667897
-1.4902022	PROPN ADV SCONJ	-0.61037445
-1.2559257	NOUN ADV SCONJ	-1.2517627
-1.1758068	PUNCT ADV SCONJ	-1.4165139
-1.1862675	VERB ADV SCONJ	-1.264804
-1.2973903	SCONJ ADV SCONJ	-0.5780434
-1.3015732	AUX ADV SCONJ	-0.8492863
-1.259097	ADJ ADV SCONJ	-0.7051998
-1.2627206	PART ADV SCONJ	-0.62412375
-1.5634279	ADP ADV SCONJ	-0.45147395
-1.3373183	DET ADV SCONJ	-0.5129982
-1.3800644	CCONJ ADV SCONJ	-0.9528793
-1.1560438	ADV ADV SCONJ	-1.8048267
-1.1911364	PRON ADV SCONJ	-0.78081596
-1.3712218	NUM ADV SCONJ	-0.29136357
-1.0543225	SYM ADV SCONJ	-0.28803477
-1.3910913	INTJ ADV SCONJ	-0.28803477
-2.864505	<s> PRON SCONJ	-0.5386936
-1.7647536	NOUN PRON SCONJ	-0.29219976
-1.35848	PUNCT PRON SCONJ	-0.487695
-1.2067028	VERB PRON SCONJ	-1.540476
-1.406415	SCONJ PRON SCONJ	-0.3796577
-1.1530277	AUX PRON SCONJ	-0.7298297
-1.6951855	ADJ PRON SCONJ	-0.28803477
-1.5934358	PART PRON SCONJ	-0.28803477
-1.2049164	ADP PRON SCONJ	-1.126348
-1.7217835	DET PRON SCONJ	-0.28803477
-1.6347079	CCONJ PRON SCONJ	-0.5657745
-1.758518	ADV PRON SCONJ	-0.28803477
-1.5714207	PRON PRON SCONJ	-0.28803477
-1.5338318	NUM PRON SCONJ	-0.28803477
-1.0997615	SYM PRON SCONJ	-0.28803477
-2.3430266	<s> NUM SCONJ	-0.49353442
-1.4238385	PROPN NUM SCONJ	-0.6567899
-1.7680166	NOUN NUM SCONJ	-0.28803477
-1.4264021	PUNCT NUM SCONJ	-0.7414819
-1.3238313	VERB NUM SCONJ	-0.4655057
-1.2840582	SCONJ NUM SCONJ	-0.6877001
-1.6110939	AUX NUM SCONJ	-0.29219976
-1.5944064	ADJ NUM SCONJ	-0.38667008
-1.6074837	PART NUM SCONJ	-0.28803477
-1.3146728	ADP NUM SCONJ	-0.65270585
-1.7470043	DET NUM SCONJ	-0.28803477
-1.5315334	CCONJ NUM SCONJ	-0.28803477
-1.2999442	ADV NUM SCONJ	-0.7043878
-1.8839673	NUM NUM SCONJ	-0.29640508
-1.7632719	SYM NUM SCONJ	-0.29219976
-1.917753	NOUN SYM SCONJ	-0.28803477
-1.7748593	PROPN X SCONJ	-0.28803477
-1.6146995	NOUN X SCONJ	-0.28803477
-1.6064895	PUNCT X SCONJ	-0.29359704
-1.5659429	VERB X SCONJ	-0.28803477
-1.7166487	ADP X SCONJ	-0.28803477
-1.7878249	X X SCONJ	-0.28803477
-2.1321213	<s> INTJ SCONJ	-0.6583135
-1.4949319	PROPN INTJ SCONJ	-0.28803477
-1.8183777	PUNCT INTJ SCONJ	-0.28803477
-1.2503294	AUX INTJ SCONJ	-0.28803477
-1.5001853	ADV INTJ SCONJ	-0.28803477
-1.0894421	<s> PROPN AUX	-1.8831567
-1.2164574	PROPN PROPN AUX	-2.2459557
-1.2363783	NOUN PROPN AUX	-1.2864197
-1.1515664	PUNCT PROPN AUX	-1.8091218
-1.1629279	VERB PROPN AUX	-1.1622181
-1.0710156	SCONJ PROPN AUX	-1.6004411
-1.1821483	AUX PROPN AUX	-0.3970581
-1.1532143	ADJ PROPN AUX	-1.2256113
-1.2861218	PART PROPN AUX	-0.7232804
-1.2215201	ADP PROPN AUX	-1.9083472
-1.1347353	DET PROPN AUX	-1.6459881
-1.1154593	CCONJ PROPN AUX	-1.4279648
-1.064625	ADV PROPN AUX	-1.0815827
-0.92282695	PRON PROPN AUX	-0.6505692
-1.0967209	NUM PROPN AUX	-0.80262625
-1.1886082	SYM PROPN AUX	-0.6970113
-1.2640702	X PROPN AUX	-0.29136357
-1.3330004	INTJ PROPN AUX	-0.29136357
-0.9360411	<s> NOUN AUX	-1.7228475
-1.1633776	PROPN NOUN AUX	-1.7851291
-1.1985421	NOUN NOUN AUX	-2.232578
-1.145737	PUNCT NOUN AUX	-1.7351063
-1.2362537	VERB NOUN AUX	-1.5031517
-1.0784202	SCONJ NOUN AUX	-1.5156022
-1.3443106	AUX NOUN AUX	-0.5022652
-1.1738499	ADJ NOUN AUX	-2.4582875
-1.1903176	PART NOUN AUX	-1.6344706
-1.1955467	ADP NOUN AUX	-1.8062603
-1.1640902	DET NOUN AUX	-2.641768
-1.1388692	CCONJ NOUN AUX	-1.7119671
-1.1262902	ADV NOUN AUX	-1.3570272
-0.9359175	PRON NOUN AUX	-0.6066031
-1.1982514	NUM NOUN AUX	-1.6863022
-1.1302376	SYM NOUN AUX	-0.31835175
-1.2262526	X NOUN AUX	-0.28803477
-1.2508981	INTJ NOUN AUX	-0.28803477
-1.7816526	<s> PUNCT AUX	-0.8520529
-1.2209791	PROPN PUNCT AUX	-1.9127898
-1.2195241	NOUN PUNCT AUX	-1.9534798
-1.2342837	PUNCT PUNCT AUX	-1.192609
-1.2445611	VERB PUNCT AUX	-1.0533805
-1.5913653	SCONJ PUNCT AUX	-0.2930699
-1.251664	AUX PUNCT AUX	-0.4532808
-1.2662381	ADJ PUNCT AUX	-0.96215445
-1.1625466	PART PUNCT AUX	-0.5162392
-1.4977502	ADP PUNCT AUX	-0.49707767
-1.2968323	DET PUNCT AUX	-0.53886837
-1.4298129	CCONJ PUNCT AUX	-0.32754177
-1.2916943	ADV PUNCT AUX	-1.1725188
-1.1900566	PRON PUNCT AUX	-0.7483567
-1.2597725	NUM PUNCT AUX	-1.0894285
-1.3728114	X PUNCT AUX	-0.46040815
-1.2866415	INTJ PUNCT AUX	-0.38240883
-2.077837	<s> VERB AUX	-0.5847748
-1.2037402	PROPN VERB AUX	-1.5304143
-1.2104737	NOUN VERB AUX	-2.1075256
-1.207319	PUNCT VERB AUX	-1.2140411
-1.2416064	VERB VERB AUX	-0.8757735
-1.2972519	SCONJ VERB AUX	-0.59243035
-1.4198309	AUX VERB AUX	-0.9299709
-1.2021713	ADJ VERB AUX	-0.75915956
-1.340072	PART VERB AUX	-0.8780545
-1.314001	ADP VERB AUX	-0.48237893
-1.1645178	DET VERB AUX	-1.4523638
-1.2159041	CCONJ VERB AUX	-1.0245242
-1.1925135	ADV VERB AUX	-0.88938946
-1.184167	PRON VERB AUX	-2.0511432
-1.1235877	NUM VERB AUX	-0.76728046
-1.4896877	X VERB AUX	-0.28803477
-1.5961511	INTJ VERB AUX	-0.28803477
-2.2364483	<s> SCONJ AUX	-0.50122213
-1.3568612	PROPN SCONJ AUX	-0.29136357
-1.3651868	NOUN SCONJ AUX	-0.6335331
-1.3004167	PUNCT SCONJ AUX	-0.7242586
-1.5473417	VERB SCONJ AUX	-0.43982756
-1.5329131	AUX SCONJ AUX	-0.78582823
-1.4806739	ADJ SCONJ AUX	-0.29080313
-1.6908659	ADP SCONJ AUX	-0.28803477
-1.4240386	DET SCONJ AUX	-0.28803477
-1.553514	CCONJ SCONJ AUX	-0.29640508
-1.4201332	ADV SCONJ AUX	-0.32947943
-1.4786041	PRON SCONJ AUX	-0.29140034
-1.4646666	NUM SCONJ AUX	-0.28803477
-2.1303792	<s> AUX AUX	-0.34701177
-1.1266439	PROPN AUX AUX	-1.6912369
-1.158318	NOUN AUX AUX	-2.0189226
-1.125394	PUNCT AUX AUX	-1.494921
-1.1266232	VERB AUX AUX	-1.2414085
-1.3160547	SCONJ AUX AUX	-0.544687
-1.4241941	AUX AUX AUX	-0.33640766
-0.9799075	ADJ AUX AUX	-0.8628249
-1.3758107	PART AUX AUX	-0.88438326
-1.485849	ADP AUX AUX	-0.29219976
-1.1560336	DET AUX AUX	-1.3692855
-1.1032617	CCONJ AUX AUX	-1.0133295
-1.271017	ADV AUX AUX	-0.80400175
-1.159249	PRON AUX AUX	-1.7684495
-1.0307608	NUM AUX AUX	-0.7949981
-0.77918166	SYM AUX AUX	-0.28803477
-1.7664655	<s> ADJ AUX	-0.81488734
-1.4811875	PROPN ADJ AUX	-0.29136357
-1.224432	NOUN ADJ AUX	-0.41620448
-1.3934948	PUNCT ADJ AUX	-0.6839799
-1.2710111	VERB ADJ AUX	-0.4914182
-1.2792878	SCONJ ADJ AUX	-0.51763827
-1.4537137	AUX ADJ AUX	-0.6490291
-1.4275986	ADJ ADJ AUX	-0.3785709
-1.3285398	PART ADJ AUX	-0.34213075
-1.3504972	ADP ADJ AUX	-0.5917048
-1.3101999	DET ADJ AUX	-0.9556518
-1.3559936	CCONJ ADJ AUX	-0.6879471
-1.2439609	ADV ADJ AUX	-0.9216328
-1.1531469	PRON ADJ AUX	-0.6142775
-1.631267	NUM ADJ AUX	-0.2919638
-1.5325068	SYM ADJ AUX	-0.28803477
-1.2760496	INTJ ADJ AUX	-0.28803477
-1.0171958	<s> PART AUX	-0.77356935
-1.098237	PROPN PART AUX	-1.0411409
-1.043739	NOUN PART AUX	-1.7188187
-0.90499	PUNCT PART AUX	-0.8275854
-0.95465285	VERB PART AUX	-2.1477833
-1.1735531	SCONJ PART AUX	-0.45353043
-0.99910074	AUX PART AUX	-1.7369329
-0.829129	ADJ PART AUX	-1.3284267
-0.6018203	PART PART AUX	-0.70018154
-0.87927586	ADP PART AUX	-0.8587166
-0.8749065	DET PART AUX	-0.35509622
-1.018254	CCONJ PART AUX	-0.7064013
-0.84882915	ADV PART AUX	-1.1202545
-0.75217146	PRON PART AUX	-1.2026273
-1.145997	NUM PART AUX	-0.44926888
-1.0353776	X PART AUX	-0.28803477
-2.6664937	<s> ADP AUX	-0.5921795
-1.5238745	PROPN ADP AUX	-0.54624534
-1.3325396	NOUN ADP AUX	-1.2061819
-1.4208376	PUNCT ADP AUX	-0.62004554
-1.3107923	VERB ADP AUX	-0.9829687
-1.956864	SCONJ ADP AUX	-0.28803477
-1.8259674	AUX ADP AUX	-0.29359704
-1.2940457	ADJ ADP AUX	-0.62439394
-1.7221677	ADP ADP AUX	-0.29097822
-1.8907491	DET ADP AUX	-0.28803477
-1.6842365	CCONJ ADP AUX	-0.34422243
-1.2345988	ADV ADP AUX	-0.6888184
-1.756215	PRON ADP AUX	-0.5327981
-1.422845	NUM ADP AUX	-0.5907901
-1.2393595	<s> DET AUX	-1.8039601
-0.9645639	PROPN DET AUX	-1.0789361
-1.0041466	NOUN DET AUX	-1.94653
-1.0731207	PUNCT DET AUX	-1.9290785
-1.1936727	VERB DET AUX	-0.9724012
-1.1364907	SCONJ DET AUX	-1.2127454
-1.344287	AUX DET AUX	-0.53845954
-1.043164	ADJ DET AUX	-0.44616768
-1.1245914	PART DET AUX	-0.29410622
-1.3376218	ADP DET AUX	-0.9874411
-1.0959673	DET DET AUX	-0.80051255
-1.0789701	CCONJ DET AUX	-1.292808
-1.132758	ADV DET AUX	-0.8667867
-0.9780459	PRON DET AUX	-0.7975683
-1.0532068	NUM DET AUX	-0.45201614
-0.9342654	X DET AUX	-0.29219976
-0.9243307	INTJ DET AUX	-0.29140034
-1.6725265	<s> CCONJ AUX	-0.8047968
-1.1284164	PROPN CCONJ AUX	-1.1118379
-1.2565203	NOUN CCONJ AUX	-1.6636423
-1.218954	PUNCT CCONJ AUX	-1.575273
-1.2309214	VERB CCONJ AUX	-1.071219
-1.4940538	SCONJ CCONJ AUX	-0.28803477
-1.0329926	AUX CCONJ AUX	-0.46666306
-1.2262503	ADJ CCONJ AUX	-0.7829636
-1.1825126	PART CCONJ AUX	-0.29359704
-1.5765423	ADP CCONJ AUX	-0.43720898
-1.2876897	DET CCONJ AUX	-0.2888966
-1.1591222	CCONJ CCONJ AUX	-0.28803477
-1.1146629	ADV CCONJ AUX	-0.78779566
-1.1813605	PRON CCONJ AUX	-0.59150106
-1.2326567	NUM CCONJ AUX	-0.7008776
-1.051849	<s> ADV AUX	-1.6591133
-1.1163098	PROPN ADV AUX	-1.0157831
-1.1567404	NOUN ADV AUX	-1.3501827
-1.1472839	PUNCT ADV AUX	-1.3838913
-1.1838126	VERB ADV AUX	-1.5963491
-1.1818411	SCONJ ADV AUX	-0.43316093
-1.1850692	AUX ADV AUX	-1.5512359
-1.2552781	ADJ ADV AUX	-0.31713066
-1.1178	PART ADV AUX	-1.0096592
-1.2564223	ADP ADV AUX	-0.35343248
-1.1335678	DET ADV AUX	-0.6574008
-1.1409113	CCONJ ADV AUX	-1.1269063
-1.1833028	ADV ADV AUX	-1.086159
-0.99479866	PRON ADV AUX	-1.4131746
-1.3645138	NUM ADV AUX	-0.29080698
-1.0466228	SYM ADV AUX	-0.28803477
-1.1084582	X ADV AUX	-0.28803477
-1.3766423	INTJ ADV AUX	-0.29640508
-0.37640545	<s> PRON AUX	-2.4940434
-0.8360098	PROPN PRON AUX	-1.4088947
-0.8913905	NOUN PRON AUX	-2.0419598
-0.9962799	PUNCT PRON AUX	-2.4528334
-1.1448805	VERB PRON AUX	-1.8923702
-0.94342375	SCONJ PRON AUX	-2.3131044
-1.1052743	AUX PRON AUX	-1.0779686
-0.68173563	ADJ PRON AUX	-1.1012956
-0.84388036	PART PRON AUX	-0.7285965
-1.1068233	ADP PRON AUX	-1.5887806
-0.75446135	DET PRON AUX	-1.4787087
-0.9347951	CCONJ PRON AUX	-1.9667814
-0.89854085	ADV PRON AUX	-1.9010917
-0.69976634	PRON PRON AUX	-1.4773678
-0.56084496	NUM PRON AUX	-0.5916642
-0.8601053	SYM PRON AUX	-0.2925075
-0.5527983	X PRON AUX	-0.29429734
-0.6006631	INTJ PRON AUX	-0.55931634
-1.7210926	<s> NUM AUX	-0.50988984
-1.1530874	PROPN NUM AUX	-0.87839615
-1.2499734	NOUN NUM AUX	-0.613159
-1.1210237	PUNCT NUM AUX	-0.780761
-1.8345345	VERB NUM AUX	-0.28803477
-1.2152315	SCONJ NUM AUX	-0.5210421
-1.463782	ADJ NUM AUX	-0.34599558
-1.2505856	PART NUM AUX	-0.29080698
-1.2000542	ADP NUM AUX	-0.653654
-1.2853166	DET NUM AUX	-0.6238664
-1.1482847	CCONJ NUM AUX	-0.43961382
-1.1415591	ADV NUM AUX	-0.4822698
-1.1292802	PRON NUM AUX	-0.29359704
-1.1070518	NUM NUM AUX	-0.4456051
-1.3015841	SYM NUM AUX	-0.29070318
-1.8340075	VERB SYM AUX	-0.28803477
-1.4252477	AUX SYM AUX	-0.28803477
-1.7675307	ADP SYM AUX	-0.28803477
-1.7180657	NUM SYM AUX	-0.28803477
-1.5148498	NOUN X AUX	-0.28803477
-1.6064895	PUNCT X AUX	-0.28901985
-1.7166487	ADP X AUX	-0.28803477
-1.3649238	DET X AUX	-0.29359704
-1.2934116	CCONJ X AUX	-0.29640508
-1.6183399	X X AUX	-0.29640508
-1.5516424	<s> INTJ AUX	-0.5240903
-1.3776073	PROPN INTJ AUX	-0.28803477
-1.3841448	NOUN INTJ AUX	-0.28803477
-1.1246786	PUNCT INTJ AUX	-0.50379705
-1.2294883	VERB INTJ AUX	-0.28803477
-1.1722182	AUX INTJ AUX	-0.28803477
-1.2490798	CCONJ INTJ AUX	-0.28803477
-1.2197909	ADV INTJ AUX	-0.2903367
-0.97419393	X INTJ AUX	-0.28803477
-2.4833875	<s> PROPN ADJ	-0.84499717
-1.2449859	PROPN PROPN ADJ	-1.2483896
-1.277377	NOUN PROPN ADJ	-0.52478635
-1.3051671	PUNCT PROPN ADJ	-0.9610894
-1.25578	VERB PROPN ADJ	-0.8927348
-1.4477793	SCONJ PROPN ADJ	-0.43554246
-1.1854063	AUX PROPN ADJ	-0.44385207
-1.2908095	ADJ PROPN ADJ	-0.8862643
-1.4287463	PART PROPN ADJ	-0.56024563
-1.3593466	ADP PROPN ADJ	-1.2862364
-1.3426139	DET PROPN ADJ	-1.3071376
-1.4633366	CCONJ PROPN ADJ	-0.6879471
-1.7214339	ADV PROPN ADJ	-0.28803477
-1.6221958	PRON PROPN ADJ	-0.28803477
-1.2051687	NUM PROPN ADJ	-0.74229175
-1.4574436	SYM PROPN ADJ	-0.4463023
-1.6287014	X PROPN ADJ	-0.28803477
-2.222433	<s> NOUN ADJ	-0.62449926
-1.2791557	PROPN NOUN ADJ	-0.8705593
-1.3143202	NOUN NOUN ADJ	-1.2640009
-1.2960864	PUNCT NOUN ADJ	-1.2768778
-1.2362537	VERB NOUN ADJ	-1.2447257
-1.3812896	SCONJ NOUN ADJ	-0.54803807
-1.0993975	AUX NOUN ADJ	-0.66499597
-1.2525843	ADJ NOUN ADJ	-1.6607057
-1.3944292	PART NOUN ADJ	-0.72520316
-1.223575	ADP NOUN ADJ	-1.3732053
-1.2149633	DET NOUN ADJ	-1.7085494
-1.1803906	CCONJ NOUN ADJ	-0.86708647
-1.2880987	ADV NOUN ADJ	-0.34664762
-1.3253932	PRON NOUN ADJ	-0.2891842
-1.2262301	NUM NOUN ADJ	-1.3525229
-1.4394403	SYM NOUN ADJ	-0.29640508
-1.6199254	X NOUN ADJ	-0.28803477
-1.4051557	INTJ NOUN ADJ	-0.28803477
-1.3730465	<s> PUNCT ADJ	-1.0999572
-1.2209791	PROPN PUNCT ADJ	-2.3371766
-1.2988216	NOUN PUNCT ADJ	-2.2639177
-1.2623559	PUNCT PUNCT ADJ	-1.2043979
-1.1901214	VERB PUNCT ADJ	-1.440496
-1.0410409	SCONJ PUNCT ADJ	-1.1428158
-1.1718656	AUX PUNCT ADJ	-1.1238004
-1.1817853	ADJ PUNCT ADJ	-1.967485
-1.320576	PART PUNCT ADJ	-0.8995951
-1.1287762	ADP PUNCT ADJ	-1.3927566
-1.1500269	DET PUNCT ADJ	-1.7308456
-1.2487186	CCONJ PUNCT ADJ	-1.0844389
-1.2294391	ADV PUNCT ADJ	-1.6071743
-1.2627536	PRON PUNCT ADJ	-0.67123574
-1.1975174	NUM PUNCT ADJ	-1.2931625
-1.4523423	X PUNCT ADJ	-0.83768487
-1.368204	INTJ PUNCT ADJ	-0.604893
-1.4116024	<s> VERB ADJ	-1.0777137
-1.1752182	PROPN VERB ADJ	-1.5512595
-1.2081202	NOUN VERB ADJ	-1.8877335
-1.1507937	PUNCT VERB ADJ	-1.7792408
-1.1768438	VERB VERB ADJ	-1.7145792
-1.0799718	SCONJ VERB ADJ	-1.057749
-1.1678952	AUX VERB ADJ	-1.9171126
-1.1255761	ADJ VERB ADJ	-1.0228359
-1.175164	PART VERB ADJ	-2.0300975
-1.1060491	ADP VERB ADJ	-1.6876482
-1.1621435	DET VERB ADJ	-1.6890982
-1.2503936	CCONJ VERB ADJ	-1.655664
-1.1900911	ADV VERB ADJ	-1.7863435
-1.2081202	PRON VERB ADJ	-1.7944851
-1.1209801	NUM VERB ADJ	-0.8338281
-1.2633948	SYM VERB ADJ	-0.28803477
-0.9876152	X VERB ADJ	-0.5913667
-1.2266988	INTJ VERB ADJ	-0.33100215
-1.1151413	<s> SCONJ ADJ	-1.3319694
-1.2153323	PROPN SCONJ ADJ	-0.7553504
-1.1443722	NOUN SCONJ ADJ	-1.4765149
-1.0878475	PUNCT SCONJ ADJ	-1.3442284
-1.0836024	VERB SCONJ ADJ	-1.6136438
-1.1226851	SCONJ SCONJ ADJ	-0.8030328
-1.1039975	AUX SCONJ ADJ	-0.85857785
-1.0988752	ADJ SCONJ ADJ	-1.2860389
-1.10545	PART SCONJ ADJ	-0.28941447
-1.1338295	ADP SCONJ ADJ	-0.736833
-1.1702025	DET SCONJ ADJ	-0.49353442
-1.0288374	CCONJ SCONJ ADJ	-0.78057694
-1.0050806	ADV SCONJ ADJ	-1.2394549
-1.137398	PRON SCONJ ADJ	-0.7765419
-1.2103033	NUM SCONJ ADJ	-0.49353442
-1.3412657	<s> AUX ADJ	-0.61122364
-1.0979799	PROPN AUX ADJ	-1.6344912
-1.1556678	NOUN AUX ADJ	-2.1088965
-1.0927248	PUNCT AUX ADJ	-1.3716933
-1.0915569	VERB AUX ADJ	-1.6849828
-0.88871694	SCONJ AUX ADJ	-0.50379705
-1.0354875	AUX AUX ADJ	-1.3846605
-1.0102515	ADJ AUX ADJ	-0.8319219
-1.0417678	PART AUX ADJ	-1.7171967
-0.9822503	ADP AUX ADJ	-0.8789476
-1.0371058	DET AUX ADJ	-1.5396379
-1.0195736	CCONJ AUX ADJ	-1.1557322
-1.1546149	ADV AUX ADJ	-1.3234309
-1.10602	PRON AUX ADJ	-2.1832798
-1.0700343	NUM AUX ADJ	-0.6213299
-1.1341496	X AUX ADJ	-0.28803477
-0.7479565	INTJ AUX ADJ	-0.29303762
-1.0550449	<s> ADJ ADJ	-1.6663523
-0.9508981	PROPN ADJ ADJ	-1.0745928
-1.1194806	NOUN ADJ ADJ	-1.0729971
-1.0661784	PUNCT ADJ ADJ	-1.7971017
-1.1093953	VERB ADJ ADJ	-1.8035474
-1.0803926	SCONJ ADJ ADJ	-1.3880732
-1.1239022	AUX ADJ ADJ	-1.2976016
-0.99890435	ADJ ADJ ADJ	-2.0596023
-1.1013347	PART ADJ ADJ	-1.5283662
-1.1018234	ADP ADJ ADJ	-2.1320257
-1.0803902	DET ADJ ADJ	-2.3858476
-0.985835	CCONJ ADJ ADJ	-1.7595735
-1.1468661	ADV ADJ ADJ	-1.6361334
-1.1531469	PRON ADJ ADJ	-0.63448083
-0.93332255	NUM ADJ ADJ	-1.3859522
-1.0194488	SYM ADJ ADJ	-0.649029
-1.1477667	X ADJ ADJ	-0.28803477
-1.5470238	<s> PART ADJ	-0.338265
-1.0124048	PROPN PART ADJ	-2.0326378
-1.046938	NOUN PART ADJ	-1.7435623
-0.99800867	PUNCT PART ADJ	-0.7037369
-1.1614556	VERB PART ADJ	-0.69926023
-0.9095242	SCONJ PART ADJ	-0.62798387
-1.1355402	AUX PART ADJ	-1.6904187
-0.94907564	ADJ PART ADJ	-0.76745796
-1.1505388	ADP PART ADJ	-0.28941447
-1.039607	DET PART ADJ	-0.2947181
-1.1188881	CCONJ PART ADJ	-0.81079596
-1.0749123	ADV PART ADJ	-0.688474
-1.1654748	PRON PART ADJ	-0.6160889
-1.4713984	NUM PART ADJ	-0.28803477
-1.0445664	X PART ADJ	-0.28803477
-1.1374884	<s> ADP ADJ	-1.6151472
-1.0530297	PROPN ADP ADJ	-1.6169122
-1.1701114	NOUN ADP ADJ	-2.7306285
-1.077887	PUNCT ADP ADJ	-1.6487161
-1.2094848	VERB ADP ADJ	-2.3531554
-1.0685763	SCONJ ADP ADJ	-1.1065719
-0.9948875	AUX ADP ADJ	-1.2897173
-1.1041963	ADJ ADP ADJ	-1.6557146
-0.9965044	PART ADP ADJ	-0.8104342
-1.0008001	ADP ADP ADJ	-1.3623633
-1.0356958	DET ADP ADJ	-0.96457624
-1.1018599	CCONJ ADP ADJ	-1.1720015
-1.1168967	ADV ADP ADJ	-1.5317451
-0.9619446	PRON ADP ADJ	-1.2598375
-0.9957961	NUM ADP ADJ	-0.9210755
-1.2538198	SYM ADP ADJ	-0.28803477
-1.1235996	X ADP ADJ	-0.29359704
-1.2396173	INTJ ADP ADJ	-0.29136357
-0.7335389	<s> DET ADJ	-2.2610006
-0.9036943	PROPN DET ADJ	-1.2093735
-1.0018901	NOUN DET ADJ	-1.5847895
-1.0706025	PUNCT DET ADJ	-2.3254044
-1.113021	VERB DET ADJ	-2.7054598
-1.0443292	SCONJ DET ADJ	-2.185671
-1.0174844	AUX DET ADJ	-2.422171
-0.8961864	ADJ DET ADJ	-1.0707468
-0.8774772	PART DET ADJ	-1.4286245
-1.083873	ADP DET ADJ	-3.0095644
-0.9571688	DET DET ADJ	-1.6026325
-1.0093784	CCONJ DET ADJ	-2.0139868
-1.0333989	ADV DET ADJ	-1.9284416
-1.0136276	PRON DET ADJ	-1.296456
-0.98857445	NUM DET ADJ	-0.7536745
-0.7847163	SYM DET ADJ	-0.4658513
-1.1930122	X DET ADJ	-0.71630543
-1.0245293	INTJ DET ADJ	-0.29359704
-1.5026788	<s> CCONJ ADJ	-0.92748374
-1.0977362	PROPN CCONJ ADJ	-1.5709816
-1.1640387	NOUN CCONJ ADJ	-2.1874971
-1.2475697	PUNCT CCONJ ADJ	-1.6827565
-1.123087	VERB CCONJ ADJ	-1.0602155
-1.081769	SCONJ CCONJ ADJ	-0.2947181
-1.0991855	AUX CCONJ ADJ	-0.6261288
-1.0881015	ADJ CCONJ ADJ	-2.1683586
-1.1719736	PART CCONJ ADJ	-0.5902142
-1.0269986	ADP CCONJ ADJ	-0.9814308
-0.9627533	DET CCONJ ADJ	-0.5759389
-1.1492407	CCONJ CCONJ ADJ	-0.29219976
-1.1973333	ADV CCONJ ADJ	-0.7498124
-1.1170211	PRON CCONJ ADJ	-0.51326954
-1.1296608	NUM CCONJ ADJ	-0.77849275
-1.2219702	INTJ CCONJ ADJ	-0.28803477
-1.3725685	<s> ADV ADJ	-1.2832695
-1.1539677	PROPN ADV ADJ	-0.7392586
-1.1919152	NOUN ADV ADJ	-1.3915104
-1.1517165	PUNCT ADV ADJ	-1.5071979
-1.1605133	VERB ADV ADJ	-1.7830766
-1.0609622	SCONJ ADV ADJ	-0.83671576
-1.0740508	AUX ADV ADJ	-2.2147236
-1.1000328	ADJ ADV ADJ	-0.92502564
-1.0161073	PART ADV ADJ	-1.4163598
-1.1158229	ADP ADV ADJ	-1.4125415
-1.0325284	DET ADV ADJ	-1.998793
-1.1851757	CCONJ ADV ADJ	-1.4612737
-1.1585625	ADV ADV ADJ	-1.6392902
-1.1483332	PRON ADV ADJ	-1.0828807
-1.0223984	NUM ADV ADJ	-0.8780318
-1.125938	X ADV ADJ	-0.28803477
-2.680184	<s> PRON ADJ	-0.60327756
-1.5724123	PROPN PRON ADJ	-0.29640508
-1.3576528	NOUN PRON ADJ	-0.29277962
-1.1421705	PUNCT PRON ADJ	-0.5914842
-1.2038227	VERB PRON ADJ	-1.4401588
-1.2239705	SCONJ PRON ADJ	-0.34784007
-1.1495867	AUX PRON ADJ	-1.1997272
-1.5426718	ADJ PRON ADJ	-0.28803477
-1.4510102	PART PRON ADJ	-0.42382398
-1.201712	ADP PRON ADJ	-0.90883875
-1.1725386	DET PRON ADJ	-0.356131
-1.1338506	CCONJ PRON ADJ	-0.43137258
-1.2335851	ADV PRON ADJ	-0.29020846
-1.557571	PRON PRON ADJ	-0.29275388
-1.5198861	NUM PRON ADJ	-0.28803477
-1.1942728	X PRON ADJ	-0.28803477
-1.0202417	<s> NUM ADJ	-1.3041657
-1.2223523	PROPN NUM ADJ	-0.9044526
-1.2452501	NOUN NUM ADJ	-0.7121992
-1.1556369	PUNCT NUM ADJ	-1.2500207
-1.1422007	VERB NUM ADJ	-1.3154434
-1.0993857	SCONJ NUM ADJ	-1.1274651
-1.1087317	AUX NUM ADJ	-1.2344803
-1.0103021	ADJ NUM ADJ	-0.8547962
-0.9794777	PART NUM ADJ	-0.84462386
-1.1648128	ADP NUM ADJ	-1.6275076
-0.97503525	DET NUM ADJ	-1.4714736
-0.9862385	CCONJ NUM ADJ	-0.95729584
-1.0228649	ADV NUM ADJ	-1.2023064
-1.0170047	PRON NUM ADJ	-0.38667008
-0.96761096	NUM NUM ADJ	-1.0459808
-1.237283	SYM NUM ADJ	-0.5918331
-1.5160841	<s> SYM ADJ	-0.28976008
-0.8176264	PROPN SYM ADJ	-0.57081175
-0.8863971	NOUN SYM ADJ	-0.70888937
-1.0061208	PUNCT SYM ADJ	-0.35751858
-1.1135608	VERB SYM ADJ	-0.44490907
-0.570041	ADJ SYM ADJ	-0.75949675
-1.0593776	PART SYM ADJ	-0.28803477
-1.2853787	ADP SYM ADJ	-0.3685957
-1.2549938	DET SYM ADJ	-0.3685957
-1.2406228	CCONJ SYM ADJ	-0.29219976
-1.2857769	PRON SYM ADJ	-0.28803477
-1.4654359	NUM SYM ADJ	-0.28803477
-0.49499378	INTJ SYM ADJ	-0.28803477
-2.2640016	<s> X ADJ	-0.28976008
-1.6271399	PROPN X ADJ	-0.28803477
-1.4984373	NOUN X ADJ	-0.29136357
-1.1289089	PUNCT X ADJ	-0.3729161
-1.4201338	VERB X ADJ	-0.28803477
-1.3513374	ADP X ADJ	-0.38667008
-1.468774	DET X ADJ	-0.28803477
-1.3799131	CCONJ X ADJ	-0.28803477
-0.9221651	PRON X ADJ	-0.28803477
-1.0718571	NUM X ADJ	-0.28803477
-1.284452	X X ADJ	-0.38667008
-2.1722522	<s> INTJ ADJ	-0.2919638
-1.2320267	PROPN INTJ ADJ	-0.28803477
-1.5069675	PUNCT INTJ ADJ	-0.2904099
-1.0684141	DET INTJ ADJ	-0.28803477
-1.4308445	CCONJ INTJ ADJ	-0.28803477
-1.2384915	ADV INTJ ADJ	-0.28803477
-1.3151252	PRON INTJ ADJ	-0.28803477
-1.3614831	INTJ INTJ ADJ	-0.28803477
-1.3179858	<s> PROPN PART	-1.7839966
-1.193789	PROPN PROPN PART	-2.1270165
-1.277377	NOUN PROPN PART	-1.1215328
-1.1537426	PUNCT PROPN PART	-1.7549978
-1.1651585	VERB PROPN PART	-1.7762764
-1.0734327	SCONJ PROPN PART	-1.4768634
-1.0365964	AUX PROPN PART	-1.1095953
-1.1856903	ADJ PROPN PART	-1.0849727
-1.1090122	PART PROPN PART	-0.70932174
-1.2238998	ADP PROPN PART	-2.2338312
-1.2277076	DET PROPN PART	-1.7377901
-1.0459319	CCONJ PROPN PART	-1.4304723
-1.1407107	ADV PROPN PART	-0.957792
-1.0703026	PRON PROPN PART	-0.55196005
-1.2936664	NUM PROPN PART	-0.4980039
-1.118873	SYM PROPN PART	-0.6200352
-1.4996699	X PROPN PART	-0.29359704
-1.8533791	<s> NOUN PART	-1.1068345
-1.2174199	PROPN NOUN PART	-1.4724243
-1.2247231	NOUN NOUN PART	-1.8385469
-1.2295854	PUNCT NOUN PART	-1.242722
-1.1820083	VERB NOUN PART	-1.9797919
-1.1836565	SCONJ NOUN PART	-0.94505835
-1.1317742	AUX NOUN PART	-1.2854989
-1.1985421	ADJ NOUN PART	-2.237417
-1.1391667	PART NOUN PART	-1.5146947
-1.1955467	ADP NOUN PART	-1.984963
-1.2149633	DET NOUN PART	-2.5798678
-1.2263054	CCONJ NOUN PART	-1.4415275
-1.2416551	ADV NOUN PART	-0.70484865
-1.5580777	PRON NOUN PART	-0.4658513
-1.1982514	NUM NOUN PART	-1.429985
-1.6436616	SYM NOUN PART	-0.5907901
-1.6199254	X NOUN PART	-0.28803477
-1.2508981	INTJ NOUN PART	-0.29640508
-2.2458386	<s> PUNCT PART	-0.6129375
-1.2978251	PROPN PUNCT PART	-1.2475536
-1.2963701	NOUN PUNCT PART	-1.6108135
-1.4351209	PUNCT PUNCT PART	-0.7242595
-1.338582	VERB PUNCT PART	-1.0004368
-1.4855596	SCONJ PUNCT PART	-0.2904099
-1.3450687	AUX PUNCT PART	-0.4947132
-1.3678358	ADJ PUNCT PART	-0.81429946
-1.2570586	PART PUNCT PART	-0.5240903
-1.4916326	ADP PUNCT PART	-0.5935375
-1.6893055	DET PUNCT PART	-0.41744623
-1.3229625	CCONJ PUNCT PART	-0.34091258
-1.2568258	ADV PUNCT PART	-0.9182596
-1.3968215	PRON PUNCT PART	-0.55466217
-1.3291281	NUM PUNCT PART	-0.72057265
-1.3385097	SYM PUNCT PART	-0.28803477
-1.4450057	X PUNCT PART	-0.6729651
-1.460112	INTJ PUNCT PART	-0.43014854
-1.725862	<s> VERB PART	-0.9518159
-1.2037402	PROPN VERB PART	-1.981376
-1.184167	NOUN VERB PART	-2.242253
-1.207319	PUNCT VERB PART	-1.655878
-1.179266	VERB VERB PART	-1.8604388
-1.1561962	SCONJ VERB PART	-0.91266376
-1.1702486	AUX VERB PART	-2.2965963
-1.1634922	ADJ VERB PART	-1.1270328
-1.2676064	PART VERB PART	-1.8369931
-1.2340882	ADP VERB PART	-1.4681615
-1.1645178	DET VERB PART	-1.5721221
-1.1810943	CCONJ VERB PART	-1.730369
-1.1925135	ADV VERB PART	-1.874346
-1.184167	PRON VERB PART	-2.2903638
-1.2517893	NUM VERB PART	-0.80164343
-1.1051974	X VERB PART	-0.38667008
-1.4648294	INTJ VERB PART	-0.3685957
-2.2025046	<s> SCONJ PART	-0.5073476
-1.7518812	PROPN SCONJ PART	-0.28803477
-1.3081772	NOUN SCONJ PART	-0.73701304
-1.2162625	PUNCT SCONJ PART	-0.8764005
-1.3171629	VERB SCONJ PART	-0.80743074
-1.1998932	SCONJ SCONJ PART	-0.93355864
-1.6573817	AUX SCONJ PART	-0.29136357
-1.2952621	ADJ SCONJ PART	-0.43503222
-1.5223927	PART SCONJ PART	-0.28803477
-1.3296014	ADP SCONJ PART	-0.59378386
-1.2163384	CCONJ SCONJ PART	-0.2904099
-1.4131787	ADV SCONJ PART	-0.68978584
-1.3297604	PRON SCONJ PART	-0.34422243
-1.5810214	NUM SCONJ PART	-0.28803477
-0.7292555	<s> AUX PART	-1.2613025
-1.0979799	PROPN AUX PART	-1.7091268
-1.105145	NOUN AUX PART	-2.1544352
-1.0381733	PUNCT AUX PART	-1.4310205
-1.1961938	VERB AUX PART	-1.3815515
-1.5238833	SCONJ AUX PART	-0.29219976
-1.2700897	AUX AUX PART	-0.7118085
-1.0102515	ADJ AUX PART	-0.6971334
-1.1381174	PART AUX PART	-1.2213827
-1.243266	ADP AUX PART	-0.46793714
-1.1210082	DET AUX PART	-1.5769142
-1.0195736	CCONJ AUX PART	-1.3005444
-1.1228279	ADV AUX PART	-1.444581
-1.10602	PRON AUX PART	-2.2460806
-1.1168417	NUM AUX PART	-0.57643414
-1.1341496	X AUX PART	-0.28803477
-0.7479565	INTJ AUX PART	-0.8104238
-2.1406093	<s> ADJ PART	-1.0576929
-1.4811875	PROPN ADJ PART	-0.59378386
-1.1865594	NOUN ADJ PART	-1.3212925
-1.1504912	PUNCT ADJ PART	-1.0654957
-1.1990073	VERB ADJ PART	-1.4375398
-1.4282947	SCONJ ADJ PART	-0.918149
-1.1239022	AUX ADJ PART	-2.1650786
-1.5076556	ADJ ADJ PART	-0.54900736
-1.2002455	PART ADJ PART	-1.4227664
-1.3504972	ADP ADJ PART	-0.66431
-1.2689483	DET ADJ PART	-1.2850509
-1.1786283	CCONJ ADJ PART	-1.3199704
-1.1468661	ADV ADJ PART	-1.7786062
-1.1531469	PRON ADJ PART	-1.4127252
-1.8225349	NUM ADJ PART	-0.28803477
-1.5325068	SYM ADJ PART	-0.28803477
-1.1477667	X ADJ PART	-0.29640508
-1.5082651	<s> PART PART	-0.9362065
-1.3800822	PROPN PART PART	-0.79772353
-1.1591398	NOUN PART PART	-1.3695179
-1.2202445	PUNCT PART PART	-1.0942403
-1.0540848	VERB PART PART	-1.3866701
-1.1942153	SCONJ PART PART	-0.79790384
-1.2318565	AUX PART PART	-0.9528638
-1.2795507	ADJ PART PART	-1.0701151
-1.5551118	DET PART PART	-0.28803477
-1.1891589	CCONJ PART PART	-0.9889771
-1.5883285	ADV PART PART	-0.5913667
-1.0870531	PRON PART PART	-0.976388
-1.5026425	NUM PART PART	-0.51218545
-2.9720144	<s> ADP PART	-0.5913667
-1.7072564	PROPN ADP PART	-0.51381254
-1.4127644	NOUN ADP PART	-1.0292795
-1.4805969	PUNCT ADP PART	-0.70888937
-1.2480041	VERB ADP PART	-1.5173112
-1.956864	SCONJ ADP PART	-0.28803477
-1.6073554	AUX ADP PART	-0.44490907
-1.453635	ADJ ADP PART	-0.62497634
-1.3230215	ADP ADP PART	-0.8140282
-1.7698058	DET ADP PART	-0.28803477
-1.2782707	CCONJ ADP PART	-0.6882767
-1.8233042	ADV ADP PART	-0.41527542
-1.8880146	PRON ADP PART	-0.6882767
-1.8437282	NUM ADP PART	-0.28803477
-3.3939576	<s> DET PART	-0.2947181
-1.9481496	PROPN DET PART	-0.28803477
-1.6588472	NOUN DET PART	-0.29219976
-1.3682349	PUNCT DET PART	-0.3964262
-1.3883681	VERB DET PART	-0.54514784
-1.5030932	SCONJ DET PART	-0.33149865
-1.4306393	AUX DET PART	-0.89107984
-1.406216	ADP DET PART	-0.8140282
-1.9654046	DET DET PART	-0.28803477
-1.605308	CCONJ DET PART	-0.2919638
-1.6590451	ADV DET PART	-0.38667008
-1.7550519	PRON DET PART	-0.51218545
-1.8544048	<s> CCONJ PART	-0.7759163
-1.3093147	PROPN CCONJ PART	-0.68200713
-1.1695824	NOUN CCONJ PART	-1.2722285
-1.2543856	PUNCT CCONJ PART	-1.1567312
-1.1615499	VERB CCONJ PART	-0.8004818
-0.7437505	SCONJ CCONJ PART	-0.8720116
-1.1969962	AUX CCONJ PART	-0.43137258
-1.1916221	ADJ CCONJ PART	-0.9167351
-1.4257379	PART CCONJ PART	-0.28803477
-1.2652696	ADP CCONJ PART	-0.3981643
-1.2966869	DET CCONJ PART	-0.28976008
-1.0803251	ADV CCONJ PART	-0.5453625
-1.4445666	PRON CCONJ PART	-0.7322874
-1.555581	NUM CCONJ PART	-0.292798
-2.163157	<s> ADV PART	-0.8385631
-1.3161175	PROPN ADV PART	-0.59031886
-1.2591264	NOUN ADV PART	-1.40174
-1.2063353	PUNCT ADV PART	-1.0347657
-1.1605133	VERB ADV PART	-1.6078361
-1.3720286	SCONJ ADV PART	-0.323845
-1.1586515	AUX ADV PART	-1.3658886
-1.1000328	ADJ ADV PART	-1.3360941
-1.1662788	PART ADV PART	-0.8812463
-1.2636718	ADP ADV PART	-1.3994889
-1.5983217	DET ADV PART	-0.50061345
-1.1116248	CCONJ ADV PART	-0.98538405
-1.2560282	ADV ADV PART	-1.1599882
-1.3069093	PRON ADV PART	-0.9959086
-1.4811383	NUM ADV PART	-0.29219976
-1.4060378	INTJ ADV PART	-0.28803477
-3.0256703	<s> PRON PART	-0.649029
-1.2619079	PROPN PRON PART	-0.34213075
-1.369608	NOUN PRON PART	-0.4833063
-1.311045	PUNCT PRON PART	-0.6470256
-1.1814557	VERB PRON PART	-1.8635968
-1.2851759	SCONJ PRON PART	-0.6696132
-1.0823342	AUX PRON PART	-1.2625664
-1.3216825	ADJ PRON PART	-0.29219976
-1.3924166	PART PRON PART	-0.29359704
-1.1454579	ADP PRON PART	-1.5121855
-1.7411282	DET PRON PART	-0.29359704
-1.4087337	CCONJ PRON PART	-0.3493923
-1.5603303	ADV PRON PART	-0.39915156
-1.5857266	PRON PRON PART	-0.29359704
-2.6528022	<s> NUM PART	-0.28976008
-1.3653295	PROPN NUM PART	-1.0074234
-1.6932245	NOUN NUM PART	-0.2947181
-1.507335	PUNCT NUM PART	-0.52013963
-1.2719165	VERB NUM PART	-0.60933053
-1.5984801	SCONJ NUM PART	-0.28803477
-1.4781134	AUX NUM PART	-0.5480264
-1.3634958	ADJ NUM PART	-0.4658513
-1.3948529	PART NUM PART	-0.28941447
-1.2350037	ADP NUM PART	-1.1548676
-1.354493	DET NUM PART	-0.4875604
-1.2989382	CCONJ NUM PART	-0.29184586
-1.3688382	ADV NUM PART	-0.79790384
-1.6950264	NUM NUM PART	-0.5940999
-1.4530829	SYM NUM PART	-0.83440477
-1.8167009	ADJ SYM PART	-0.28803477
-1.0619352	SYM SYM PART	-0.28803477
-1.7748593	PROPN X PART	-0.28803477
-1.6146995	NOUN X PART	-0.28803477
-1.6064895	PUNCT X PART	-0.2903367
-1.1510931	AUX X PART	-0.28803477
-1.2627721	ADP X PART	-0.3685957
-1.4178388	ADV X PART	-0.28803477
-2.7455583	<s> INTJ PART	-0.28803477
-2.0849767	PUNCT INTJ PART	-0.28803477
-1.5141383	INTJ INTJ PART	-0.28803477
-1.502842	<s> PROPN ADP	-1.4907603
-1.1917336	PROPN PROPN ADP	-2.4581313
-1.1395504	NOUN PROPN ADP	-1.3345667
-1.1515664	PUNCT PROPN ADP	-1.750709
-1.190936	VERB PROPN ADP	-1.6232941
-1.1033777	SCONJ PROPN ADP	-1.0432799
-1.0040287	AUX PROPN ADP	-0.71458584
-1.1532143	ADJ PROPN ADP	-1.5176909
-1.0348608	PART PROPN ADP	-1.3934133
-1.167201	ADP PROPN ADP	-2.244129
-1.1347353	DET PROPN ADP	-2.0901985
-1.2022746	CCONJ PROPN ADP	-1.4665883
-1.1793144	ADV PROPN ADP	-0.7149596
-1.3893961	PRON PROPN ADP	-0.43720898
-1.066604	NUM PROPN ADP	-1.0441287
-1.2756587	SYM PROPN ADP	-0.74776906
-1.0004518	X PROPN ADP	-0.59211093
-1.4856423	INTJ PROPN ADP	-0.28976008
-0.515674	<s> NOUN ADP	-2.154519
-1.1895587	PROPN NOUN ADP	-2.0662851
-1.1738499	NOUN NOUN ADP	-2.6268773
-1.145737	PUNCT NOUN ADP	-2.1891532
-1.1572315	VERB NOUN ADP	-2.6198616
-1.0483346	SCONJ NOUN ADP	-1.7734599
-1.0692681	AUX NOUN ADP	-1.9541565
-1.1985421	ADJ NOUN ADP	-3.0500762
-1.0142311	PART NOUN ADP	-1.9214568
-1.144395	ADP NOUN ADP	-2.6413834
-1.1640902	DET NOUN ADP	-3.264981
-1.0038276	CCONJ NOUN ADP	-2.2380803
-1.063512	ADV NOUN ADP	-1.4610347
-1.0630442	PRON NOUN ADP	-0.98298955
-1.147182	NUM NOUN ADP	-2.2681632
-1.0317113	SYM NOUN ADP	-0.6955728
-0.883315	X NOUN ADP	-0.5134866
-0.9944129	INTJ NOUN ADP	-0.29140034
-1.25379	<s> PUNCT ADP	-1.2349755
-1.2436734	PROPN PUNCT ADP	-2.0277135
-1.2422186	NOUN PUNCT ADP	-2.2713082
-1.2599044	PUNCT PUNCT ADP	-1.3832015
-1.2421097	VERB PUNCT ADP	-1.5588249
-1.1054428	SCONJ PUNCT ADP	-0.8370576
-1.1689156	AUX PUNCT ADP	-1.0139047
-1.2337736	ADJ PUNCT ADP	-1.3349277
-1.2570586	PART PUNCT ADP	-0.43730322
-1.230374	ADP PUNCT ADP	-0.8231218
-1.214249	DET PUNCT ADP	-0.75081116
-1.019476	CCONJ PUNCT ADP	-0.900573
-1.1990683	ADV PUNCT ADP	-1.6044877
-1.2218224	PRON PUNCT ADP	-1.0607756
-1.1950659	NUM PUNCT ADP	-1.3596355
-1.3385097	SYM PUNCT ADP	-0.28803477
-1.3003693	X PUNCT ADP	-0.5210421
-1.2809683	INTJ PUNCT ADP	-0.7299259
-0.39970145	<s> VERB ADP	-1.9393063
-1.1752182	PROPN VERB ADP	-2.1705906
-1.1819516	NOUN VERB ADP	-2.6467376
-1.1507937	PUNCT VERB ADP	-2.25625
-1.1226239	VERB VERB ADP	-2.1008003
-1.0475302	SCONJ VERB ADP	-1.4590123
-1.1417266	AUX VERB ADP	-2.7378678
-1.0625528	ADJ VERB ADP	-1.09714
-1.1489953	PART VERB ADP	-2.4025812
-1.0796883	ADP VERB ADP	-1.7380558
-1.1341286	DET VERB ADP	-1.7932861
-1.1164081	CCONJ VERB ADP	-2.0376308
-1.1621357	ADV VERB ADP	-2.3077793
-1.1819516	PRON VERB ADP	-2.3146746
-0.99427146	NUM VERB ADP	-0.99269426
-0.9051721	SYM VERB ADP	-0.29429734
-1.0988854	X VERB ADP	-0.41412294
-0.8996283	INTJ VERB ADP	-0.5820444
-1.1853575	<s> SCONJ ADP	-1.3211145
-0.9972877	PROPN SCONJ ADP	-0.98422533
-1.0795481	NOUN SCONJ ADP	-1.4804907
-1.0851866	PUNCT SCONJ ADP	-1.3242917
-1.1070458	VERB SCONJ ADP	-1.6646435
-1.3799454	SCONJ SCONJ ADP	-0.438418
-1.020451	AUX SCONJ ADP	-1.0254865
-1.1621815	ADJ SCONJ ADP	-1.0240482
-0.82080317	PART SCONJ ADP	-0.7271623
-1.1278262	ADP SCONJ ADP	-0.7066113
-1.1618227	DET SCONJ ADP	-0.28901985
-1.0247055	CCONJ SCONJ ADP	-0.9130094
-1.0644652	ADV SCONJ ADP	-1.2452669
-1.2114178	PRON SCONJ ADP	-0.9383109
-0.7792153	NUM SCONJ ADP	-1.0248816
-0.7751428	X SCONJ ADP	-0.28803477
-1.9855757	<s> AUX ADP	-0.29321358
-1.1520736	PROPN AUX ADP	-1.3827376
-1.1556678	NOUN AUX ADP	-1.7270828
-1.0645931	PUNCT AUX ADP	-1.0671057
-1.1584436	VERB AUX ADP	-1.2123948
-1.0496054	SCONJ AUX ADP	-0.4463023
-1.114814	AUX AUX ADP	-1.1714747
-1.2254888	ADJ AUX ADP	-0.5759389
-1.0715709	PART AUX ADP	-1.4272566
-1.243266	ADP AUX ADP	-0.52968365
-1.1210082	DET AUX ADP	-1.1176022
-1.1463045	CCONJ AUX ADP	-0.6888797
-1.1889137	ADV AUX ADP	-0.94926494
-1.130598	PRON AUX ADP	-1.7166425
-1.0700343	NUM AUX ADP	-0.6386138
-1.1341496	X AUX ADP	-0.28803477
-1.1406596	INTJ AUX ADP	-0.29640508
-1.1744162	<s> ADJ ADP	-1.3781688
-1.0640455	PROPN ADJ ADP	-0.852101
-1.0870154	NOUN ADJ ADP	-1.5802248
-1.0901697	PUNCT ADJ ADP	-1.4304583
-1.1642257	VERB ADJ ADP	-1.7495986
-0.97220683	SCONJ ADJ ADP	-1.2600439
-1.0935533	AUX ADJ ADP	-2.077206
-1.1591039	ADJ ADJ ADP	-0.8482191
-1.056194	PART ADJ ADP	-1.2792145
-1.1271734	ADP ADJ ADP	-1.360045
-1.1617918	DET ADJ ADP	-1.47261
-1.1290034	CCONJ ADJ ADP	-1.3900725
-1.1444168	ADV ADJ ADP	-1.9313619
-0.96945363	PRON ADJ ADP	-1.2696075
-1.03725	NUM ADJ ADP	-0.47839049
-1.3739022	SYM ADJ ADP	-0.28803477
-1.3184929	X ADJ ADP	-0.28803477
-1.0752271	INTJ ADJ ADP	-0.28803477
-1.676355	<s> PART ADP	-0.4246158
-1.26463	PROPN PART ADP	-0.5916685
-1.2422625	NOUN PART ADP	-0.5918317
-1.0746014	PUNCT PART ADP	-0.77489305
-1.2119745	VERB PART ADP	-0.593226
-1.2950382	SCONJ PART ADP	-0.55357814
-1.2267013	AUX PART ADP	-1.1652205
-1.3789244	ADJ PART ADP	-0.41412294
-1.5269885	ADP PART ADP	-0.28803477
-1.3081546	DET PART ADP	-0.28803477
-1.1244272	CCONJ PART ADP	-0.8461778
-1.1910214	ADV PART ADP	-0.47928149
-1.5263871	PRON PART ADP	-0.28803477
-1.2661594	NUM PART ADP	-0.2891842
-1.9936522	<s> ADP ADP	-0.94124556
-1.2123452	PROPN ADP ADP	-1.1240743
-1.2037195	NOUN ADP ADP	-1.6090468
-1.1395093	PUNCT ADP ADP	-1.2215494
-1.2171351	VERB ADP ADP	-2.0832562
-1.2065922	SCONJ ADP ADP	-0.64672077
-1.1819175	AUX ADP ADP	-0.7884165
-1.3367095	ADJ ADP ADP	-0.6980881
-1.3449041	PART ADP ADP	-0.28901985
-1.5739154	ADP ADP ADP	-0.6596147
-1.5417306	DET ADP ADP	-0.2888966
-1.1593236	CCONJ ADP ADP	-0.6371301
-1.1576698	ADV ADP ADP	-0.80497956
-1.189355	PRON ADP ADP	-0.8612033
-1.3461337	NUM ADP ADP	-0.38055274
-1.9768074	<s> DET ADP	-1.3095107
-1.431108	PROPN DET ADP	-0.40502432
-1.1708385	NOUN DET ADP	-0.84587926
-1.1295431	PUNCT DET ADP	-1.3184594
-1.1685495	VERB DET ADP	-1.4556525
-1.1395065	SCONJ DET ADP	-1.2368582
-1.1385975	AUX DET ADP	-1.2018964
-1.1805878	ADJ DET ADP	-0.47985938
-1.2007912	PART DET ADP	-0.6140791
-1.1672341	ADP DET ADP	-1.5542016
-1.1884415	DET DET ADP	-0.7118085
-1.1201675	CCONJ DET ADP	-1.1226149
-1.1009159	ADV DET ADP	-0.95980775
-1.2927765	PRON DET ADP	-0.61538947
-1.3223343	NUM DET ADP	-0.5240903
-1.3809685	X DET ADP	-0.28803477
-1.1047132	<s> CCONJ ADP	-1.3110983
-1.3420547	PROPN CCONJ ADP	-1.2101326
-1.1888264	NOUN CCONJ ADP	-1.5673149
-1.1832705	PUNCT CCONJ ADP	-1.6434255
-1.1861297	VERB CCONJ ADP	-0.83021605
-1.2287453	SCONJ CCONJ ADP	-0.29359704
-0.9636392	AUX CCONJ ADP	-0.4658513
-1.1815112	ADJ CCONJ ADP	-0.8587949
-1.245113	PART CCONJ ADP	-0.28803477
-0.8465366	ADP CCONJ ADP	-1.0116403
-1.4773909	DET CCONJ ADP	-0.29359704
-1.1395789	CCONJ CCONJ ADP	-0.29640508
-1.1478131	ADV CCONJ ADP	-0.82457584
-1.1708276	PRON CCONJ ADP	-0.67835647
-1.2234628	NUM CCONJ ADP	-0.48384935
-1.2550845	X CCONJ ADP	-0.28803477
-1.2089164	INTJ CCONJ ADP	-0.28803477
-1.1802019	<s> ADV ADP	-1.507733
-1.0887111	PROPN ADV ADP	-1.139659
-1.1891718	NOUN ADV ADP	-1.8381284
-1.1494945	PUNCT ADV ADP	-1.6921102
-1.1318356	VERB ADV ADP	-2.0715497
-1.1855153	SCONJ ADV ADP	-0.7212236
-1.1559082	AUX ADV ADP	-1.620182
-1.0973816	ADJ ADV ADP	-0.9897129
-1.0466164	PART ADV ADP	-1.1607254
-1.1132301	ADP ADV ADP	-1.2266644
-1.0981293	DET ADV ADP	-0.6467791
-1.22364	CCONJ ADV ADP	-1.4614351
-1.1859852	ADV ADV ADP	-1.5083431
-1.0648161	PRON ADV ADP	-1.1499989
-1.0615509	NUM ADV ADP	-0.4456051
-1.1171103	X ADV ADP	-0.28803477
-1.1466689	INTJ ADV ADP	-0.29219976
-2.314965	<s> PRON ADP	-0.8770667
-1.2448081	PROPN PRON ADP	-0.3712394
-1.1261739	NOUN PRON ADP	-0.59175825
-1.1737509	PUNCT PRON ADP	-0.7972339
-1.1229001	VERB PRON ADP	-2.045789
-1.174294	SCONJ PRON ADP	-0.6023471
-1.0736151	AUX PRON ADP	-1.1142454
-1.5304384	ADJ PRON ADP	-0.29136357
-1.1158389	PART PRON ADP	-0.29142073
-1.1667433	ADP PRON ADP	-1.5115503
-1.568295	DET PRON ADP	-0.28803477
