\data\
ngram 1=19
ngram 2=247
ngram 3=2634
ngram 4=17938
ngram 5=76851

\1-grams:
-2.2414293	<unk>	0
0	<s>	-3.635809
-1.3165421	</s>	0
-1.1643821	PROPN	-0.8792172
-1.1908449	ADP	-0.81751454
-1.1908449	PUNCT	-0.8962506
-1.1643821	VERB	-0.8739262
-1.1643821	NOUN	-0.8795061
-1.2190251	PART	-0.78073823
-1.2190251	NUM	-0.8471386
-1.1908449	CCONJ	-0.70659894
-1.1908449	ADV	-0.8366649
-1.1908449	PRON	-0.8230568
-1.1908449	DET	-0.8104505
-1.2190251	ADJ	-0.78476584
-1.2190251	X	-0.78151786
-1.3165421	INTJ	-0.4291977
-1.2815465	SCONJ	-0.61857706
-1.9278102	SPACE	-0.29691344

\2-grams:
-1.2193966	PROPN </s>	0
-1.7200189	ADP </s>	0
-1.1767476	PUNCT </s>	0
-1.2637697	VERB </s>	0
-1.2362802	NOUN </s>	0
-1.3715742	PART </s>	0
-1.1877846	NUM </s>	0
-1.5632731	ADV </s>	0
-1.3558578	PRON </s>	0
-1.9406406	DET </s>	0
-1.5344036	X </s>	0
-1.4706838	INTJ </s>	0
-0.78535324	<s> PROPN	-2.9735699
-1.1432592	PROPN PROPN	-0.94777274
-1.0848929	ADP PROPN	-0.9492455
-1.1602925	PUNCT PROPN	-0.92493063
-1.1817348	VERB PROPN	-0.9886074
-1.1597608	NOUN PROPN	-0.9571153
-1.0992765	PART PROPN	-0.8024437
-1.1068455	NUM PROPN	-0.841259
-1.0498681	CCONJ PROPN	-0.63613427
-1.1897825	ADV PROPN	-0.7603763
-1.1692134	PRON PROPN	-0.63289994
-1.0670259	DET PROPN	-0.79279387
-1.0175711	ADJ PROPN	-0.80743885
-1.029779	X PROPN	-0.77667385
-0.9061148	INTJ PROPN	-0.30435848
-1.1613945	SCONJ PROPN	-0.4396862
-0.5798101	SPACE PROPN	-0.2536918
-1.0899656	<s> ADP	-2.7171426
-1.1465007	PROPN ADP	-0.8628475
-1.1182516	ADP ADP	-0.7535355
-1.1914588	PUNCT ADP	-0.80415946
-1.1853215	VERB ADP	-0.9253227
-1.1631262	NOUN ADP	-0.9417359
-1.248547	PART ADP	-0.5993851
-1.1402218	NUM ADP	-0.7674659
-1.1341196	CCONJ ADP	-0.58029205
-1.1318731	ADV ADP	-0.89206344
-1.1409998	PRON ADP	-0.8785205
-1.1004094	DET ADP	-0.711571
-1.1998866	ADJ ADP	-0.5187787
-1.182591	X ADP	-0.4384638
-1.3909112	INTJ ADP	-0.3773361
-1.0061268	SCONJ ADP	-0.58872527
-1.4132984	<s> PUNCT	-2.3456316
-1.1465007	PROPN PUNCT	-0.96147996
-1.0881594	ADP PUNCT	-0.7599797
-1.1914588	PUNCT PUNCT	-0.8656994
-1.1575463	VERB PUNCT	-1.0024612
-1.1631262	NOUN PUNCT	-1.0126325
-1.1029532	PART PUNCT	-0.7853887
-1.1100547	NUM PUNCT	-0.8569081
-1.1806636	CCONJ PUNCT	-0.52763414
-1.1039484	ADV PUNCT	-0.786949
-1.1110814	PRON PUNCT	-0.77655476
-1.070212	DET PUNCT	-0.6593956
-1.1190982	ADJ PUNCT	-0.57298344
-1.1013303	X PUNCT	-0.5694727
-0.83435524	INTJ PUNCT	-0.3613378
-1.238201	SCONJ PUNCT	-0.30809098
-0.9652997	<s> VERB	-2.8216515
-1.1172113	PROPN VERB	-1.0082159
-1.0848929	ADP VERB	-0.90533686
-1.1602925	PUNCT VERB	-0.93920356
-1.154181	VERB VERB	-1.0171902
-1.1597608	NOUN VERB	-1.0329994
-1.0696459	PART VERB	-0.9082035
-1.1068455	NUM VERB	-0.8792837
-1.0149561	CCONJ VERB	-0.7477872
-1.1284171	ADV VERB	-0.98764557
-1.0799038	PRON VERB	-0.9710253
-1.0670259	DET VERB	-0.89868915
-1.0477732	ADJ VERB	-0.7375345
-1.029779	X VERB	-0.8229653
-1.1162628	INTJ VERB	-0.37733614
-0.8854364	SCONJ VERB	-0.7209946
-0.77493966	SPACE VERB	-0.3773361
-0.7212316	<s> NOUN	-3.0657203
-1.1432592	PROPN NOUN	-1.0158377
-1.0569557	ADP NOUN	-0.9638861
-1.1602925	PUNCT NOUN	-0.9638861
-1.1282716	VERB NOUN	-1.0130142
-1.1597608	NOUN NOUN	-1.0304923
-1.0696459	PART NOUN	-0.9103275
-1.1068455	NUM NOUN	-0.9638861
-0.982643	CCONJ NOUN	-0.76971984
-1.1284171	ADV NOUN	-0.87056035
-1.107682	PRON NOUN	-0.85849583
-1.0389923	DET NOUN	-0.9826693
-1.0175711	ADJ NOUN	-0.97810423
-0.9994371	X NOUN	-0.7953028
-0.7650996	INTJ NOUN	-0.4715003
-1.001856	SCONJ NOUN	-0.58707565
-0.77493966	SPACE NOUN	-0.3773361
-3.005837	<s> PART	-1.1337919
-1.1497666	PROPN PART	-0.8936986
-1.2701102	ADP PART	-0.50088894
-1.2573707	PUNCT PART	-0.6537806
-1.1609379	VERB PART	-1.00454
-1.1665179	NOUN PART	-1.0137035
-1.0765398	PART PART	-0.65937394
-1.1132878	NUM PART	-0.8074942
-1.2387476	CCONJ PART	-0.3502918
-1.1353568	ADV PART	-0.7490441
-1.0863036	PRON PART	-0.83907044
-1.1038511	DET PART	-0.69154614
-1.0236238	ADJ PART	-0.8492245
-1.3493376	X PART	-0.50213283
-1.0118473	INTJ PART	-0.2814614
-1.4861513	<s> NUM	-2.330784
-1.1497666	PROPN NUM	-0.81435966
-1.0914508	ADP NUM	-0.8412948
-1.2250359	PUNCT NUM	-0.8045301
-1.1609379	VERB NUM	-0.90935695
-1.1945179	NOUN NUM	-0.88538975
-1.1740043	PART NUM	-0.6385298
-1.1132878	NUM NUM	-0.9895087
-1.096377	CCONJ NUM	-0.64123577
-1.1353568	ADV NUM	-0.833346
-1.2121198	PRON NUM	-0.6041153
-1.0734216	DET NUM	-0.8395575
-1.0872335	ADJ NUM	-0.66624033
-1.0691677	X NUM	-0.6022655
-1.2455869	SCONJ NUM	-0.45431936
-2.171758	<s> CCONJ	-1.6806254
-1.1744255	PROPN CCONJ	-0.82858676
-1.488813	ADP CCONJ	-0.38046426
-1.2213033	PUNCT CCONJ	-0.75882506
-1.1853215	VERB CCONJ	-0.857661
-1.1909014	NOUN CCONJ	-0.961919
-1.2940968	PART CCONJ	-0.3463102
-1.2076788	NUM CCONJ	-0.54273343
-1.542799	CCONJ CCONJ	-0.42755905
-1.2283677	ADV CCONJ	-0.6249984
-1.1731327	PRON CCONJ	-0.7111475
-1.8607589	DET CCONJ	-0.3773361
-1.1190982	ADJ CCONJ	-0.68318945
-1.8192561	X CCONJ	-0.3773361
-1.3994737	INTJ CCONJ	-0.3773361
-1.5659007	SCONJ CCONJ	-0.3773361
-0.72368896	<s> ADV	-3.0632653
-1.1744255	PROPN ADV	-0.8600223
-1.1505849	ADP ADV	-0.74434894
-1.163534	PUNCT ADV	-0.86308044
-1.1575463	VERB ADV	-0.9304799
-1.1370212	NOUN ADV	-0.9688855
-1.1350352	PART ADV	-0.6554261
-1.1100547	NUM ADV	-0.72619134
-1.0537612	CCONJ ADV	-0.6634433
-1.1039484	ADV ADV	-0.859529
-1.1409998	PRON ADV	-0.8156684
-1.1004094	DET ADV	-0.7369426
-1.1576165	ADJ ADV	-0.505403
-1.1013303	X ADV	-0.5155299
-1.3994737	INTJ ADV	-0.37733614
-1.0061268	SCONJ ADV	-0.5303904
-0.9517993	<s> PRON	-2.8351557
-1.2363176	PROPN PRON	-0.6953508
-1.0881594	ADP PRON	-0.89133793
-1.1914588	PUNCT PRON	-0.81282574
-1.1853215	VERB PRON	-0.93665636
-1.1909014	NOUN PRON	-0.8029432
-1.2073241	PART PRON	-0.58305746
-1.2875754	NUM PRON	-0.498034
-1.1806636	CCONJ PRON	-0.59343886
-1.2283677	ADV PRON	-0.6977916
-1.1409998	PRON PRON	-0.7351493
-1.206104	DET PRON	-0.5850473
-1.4282241	ADJ PRON	-0.33376595
-1.1400628	X PRON	-0.624591
-1.2907566	INTJ PRON	-0.27200612
-1.0061268	SCONJ PRON	-0.52884066
-1.3981549	<s> DET	-2.4742892
-1.1744255	PROPN DET	-0.7478386
-1.1182516	ADP DET	-0.86723983
-1.1914588	PUNCT DET	-0.7669053
-1.1853215	VERB DET	-0.8998085
-1.1909014	NOUN DET	-0.82922626
-1.1696773	PART DET	-0.67351127
-1.2457924	NUM DET	-0.5601367
-1.1341196	CCONJ DET	-0.67491233
-1.1617177	ADV DET	-0.74753565
-1.2455515	PRON DET	-0.61722064
-1.1679422	DET DET	-0.63331145
-1.1576165	ADJ DET	-0.5682523
-1.0657711	X DET	-0.5878175
-1.3994737	INTJ DET	-0.3773361
-1.1675745	SCONJ DET	-0.46851265
-1.8529037	<s> ADJ	-2.0563443
-1.1779091	PROPN ADJ	-0.72244775
-1.12178	ADP ADJ	-0.789407
-1.1949425	PUNCT ADJ	-0.8107288
-1.188938	VERB ADJ	-0.8780527
-1.1945179	NOUN ADJ	-0.8234172
-1.1066613	PART ADJ	-0.6594766
-1.1132878	NUM ADJ	-0.78172654
-1.0576897	CCONJ ADJ	-0.5742899
-1.1353568	ADV ADJ	-0.74384964
-1.1446714	PRON ADJ	-0.68925714
-1.0734216	DET ADJ	-0.7168726
-1.0236238	ADJ ADJ	-0.64269733
-1.0052844	X ADJ	-0.64717036
-1.1738439	SCONJ ADJ	-0.53726995
-2.5624616	<s> X	-1.416748
-1.2752748	PROPN X	-0.61572194
-1.189643	ADP X	-0.5416341
-1.2573707	PUNCT X	-0.6277981
-1.188938	VERB X	-0.8128822
-1.1945179	NOUN X	-0.8404451
-1.2998688	PART X	-0.5042831
-1.2924502	NUM X	-0.48316768
-1.3687105	CCONJ X	-0.34996682
-1.197785	ADV X	-0.7842679
-1.2502279	PRON X	-0.653369
-1.2104988	DET X	-0.49441314
-1.6245563	ADJ X	-0.31112856
-1.4204476	X X	-0.3502918
-1.1738439	SCONJ X	-0.3878313
-3.0962775	<s> INTJ	-0.89382577
-1.6916547	PROPN INTJ	-0.24607323
-1.3056408	PUNCT INTJ	-0.58519614
-2.0237956	VERB INTJ	-0.37733614
-1.949602	NOUN INTJ	-0.37733614
-1.6982821	PART INTJ	-0.36383018
-1.839945	CCONJ INTJ	-0.3773361
-1.6491023	ADV INTJ	-0.3773361
-1.9641981	PRON INTJ	-0.3773361
-1.8540201	DET INTJ	-0.29604164
-1.9053359	ADJ INTJ	-0.22759172
-1.3451598	INTJ INTJ	-0.35941997
-1.7157071	<s> SCONJ	-2.1602356
-1.4658756	PROPN SCONJ	-0.48024505
-1.5997288	ADP SCONJ	-0.29505044
-1.2655236	PUNCT SCONJ	-0.7035188
-1.333485	VERB SCONJ	-0.6435739
-1.2650564	NOUN SCONJ	-0.65650165
-1.8997494	PART SCONJ	-0.2604695
-1.9554048	NUM SCONJ	-0.3773361
-1.725715	CCONJ SCONJ	-0.37733614
-1.4837667	ADV SCONJ	-0.3666291
-1.6187074	PRON SCONJ	-0.38079485
-1.9175372	DET SCONJ	-0.3773361
-1.7049053	SCONJ SCONJ	-0.3773361
-1.9659725	VERB SPACE	-0.22759172
-2.3432176	NOUN SPACE	-0.3773361
-2.2439964	PART SPACE	-0.3773361

\3-grams:
-2.2273736	<s> PROPN </s>	0
-1.2989155	PROPN PROPN </s>	0
-1.4739892	ADP PROPN </s>	0
-1.2322137	PUNCT PROPN </s>	0
-1.3250433	VERB PROPN </s>	0
-1.2226106	NOUN PROPN </s>	0
-1.1456016	PART PROPN </s>	0
-1.3896362	NUM PROPN </s>	0
-1.46788	CCONJ PROPN </s>	0
-1.7388337	ADV PROPN </s>	0
-1.3976045	PRON PROPN </s>	0
-1.4518577	DET PROPN </s>	0
-1.5830165	ADJ PROPN </s>	0
-1.0248126	INTJ PROPN </s>	0
-4.018418	<s> ADP </s>	0
-2.0649347	PROPN ADP </s>	0
-2.101764	PUNCT ADP </s>	0
-1.9209281	NOUN ADP </s>	0
-0.96237195	<s> PUNCT </s>	0
-1.104747	PROPN PUNCT </s>	0
-1.1954632	ADP PUNCT </s>	0
-1.0387543	PUNCT PUNCT </s>	0
-1.117853	VERB PUNCT </s>	0
-1.1558995	NOUN PUNCT </s>	0
-0.95844364	PART PUNCT </s>	0
-0.9977806	NUM PUNCT </s>	0
-1.2970871	CCONJ PUNCT </s>	0
-0.91306347	ADV PUNCT </s>	0
-0.94436306	PRON PUNCT </s>	0
-0.82638067	DET PUNCT </s>	0
-1.5280912	ADJ PUNCT </s>	0
-0.84121495	X PUNCT </s>	0
-0.76740813	INTJ PUNCT </s>	0
-1.0408866	SCONJ PUNCT </s>	0
-2.7982109	<s> VERB </s>	0
-1.2480443	PROPN VERB </s>	0
-1.745737	ADP VERB </s>	0
-1.4030316	PUNCT VERB </s>	0
-1.2874016	VERB VERB </s>	0
-1.1811938	NOUN VERB </s>	0
-1.425079	PART VERB </s>	0
-1.4103404	NUM VERB </s>	0
-1.7511667	CCONJ VERB </s>	0
-1.209006	ADV VERB </s>	0
-1.3223	PRON VERB </s>	0
-1.5252434	ADJ VERB </s>	0
-1.3540221	X VERB </s>	0
-2.382566	<s> NOUN </s>	0
-1.2366345	PROPN NOUN </s>	0
-1.5737046	ADP NOUN </s>	0
-1.2651119	PUNCT NOUN </s>	0
-1.2420819	VERB NOUN </s>	0
-1.2325411	NOUN NOUN </s>	0
-1.1694796	PART NOUN </s>	0
-1.2230382	NUM NOUN </s>	0
-1.4783022	CCONJ NOUN </s>	0
-1.3986621	ADV NOUN </s>	0
-1.4683144	PRON NOUN </s>	0
-1.4420221	DET NOUN </s>	0
-1.2152553	ADJ NOUN </s>	0
-1.7820494	X NOUN </s>	0
-1.5272893	PROPN PART </s>	0
-1.7677175	PUNCT PART </s>	0
-1.2451942	VERB PART </s>	0
-1.2852852	NOUN PART </s>	0
-1.6818986	PART PART </s>	0
-1.860847	NUM PART </s>	0
-1.8595666	ADV PART </s>	0
-1.9694736	PRON PART </s>	0
-1.8101383	<s> NUM </s>	0
-1.2792181	PROPN NUM </s>	0
-1.82423	ADP NUM </s>	0
-1.3373255	PUNCT NUM </s>	0
-1.22477	VERB NUM </s>	0
-1.3798368	NOUN NUM </s>	0
-1.4122701	PART NUM </s>	0
-1.243286	NUM NUM </s>	0
-1.5824529	CCONJ NUM </s>	0
-1.3104607	ADV NUM </s>	0
-1.7995831	DET NUM </s>	0
-1.5916517	ADJ NUM </s>	0
-1.5400465	X NUM </s>	0
-3.4418492	<s> ADV </s>	0
-1.7833021	PROPN ADV </s>	0
-1.698699	VERB ADV </s>	0
-1.6446968	NOUN ADV </s>	0
-2.013731	ADV ADV </s>	0
-0.6882729	INTJ ADV </s>	0
-3.7214668	<s> PRON </s>	0
-1.764938	PROPN PRON </s>	0
-2.0031073	ADP PRON </s>	0
-1.8792717	PUNCT PRON </s>	0
-1.4138408	VERB PRON </s>	0
-1.8725145	NOUN PRON </s>	0
-1.6078708	PART PRON </s>	0
-1.6726794	CCONJ PRON </s>	0
-1.7542509	ADV PRON </s>	0
-1.9120076	PROPN DET </s>	0
-2.159324	NOUN DET </s>	0
-1.7274348	PROPN X </s>	0
-1.3048587	PUNCT X </s>	0
-1.9989573	VERB X </s>	0
-2.0246253	NOUN X </s>	0
-1.2635255	X X </s>	0
-1.4943259	<s> INTJ </s>	0
-0.9613	<s> PROPN PROPN	-1.9823656
-1.0683067	PROPN PROPN PROPN	-0.73073095
-1.0639756	ADP PROPN PROPN	-0.6903005
-1.1095183	PUNCT PROPN PROPN	-0.6984555
-1.0937569	VERB PROPN PROPN	-0.71709734
-1.141703	NOUN PROPN PROPN	-0.7463225
-1.0893652	PART PROPN PROPN	-0.5314133
-0.9858654	NUM PROPN PROPN	-0.47243473
-0.9659685	CCONJ PROPN PROPN	-0.43473285
-0.9798142	ADV PROPN PROPN	-0.5038161
-0.9221003	PRON PROPN PROPN	-0.4157234
-1.025323	DET PROPN PROPN	-0.5241526
-0.97008926	ADJ PROPN PROPN	-0.4273515
-0.955618	X PROPN PROPN	-0.41846696
-0.99920243	INTJ PROPN PROPN	-0.31762356
-1.1440842	SCONJ PROPN PROPN	-0.2988066
-0.7200496	<s> ADP PROPN	-1.9315956
-0.9234182	PROPN ADP PROPN	-0.7589039
-0.8092549	ADP ADP PROPN	-0.54852897
-0.95090824	PUNCT ADP PROPN	-0.65391016
-0.98495156	VERB ADP PROPN	-0.80413634
-1.0506551	NOUN ADP PROPN	-0.8377697
-0.9934147	PART ADP PROPN	-0.39686584
-0.83870006	NUM ADP PROPN	-0.52729726
-0.763521	CCONJ ADP PROPN	-0.4141175
-0.9858475	ADV ADP PROPN	-0.70168823
-0.95886105	PRON ADP PROPN	-0.65635204
-0.80577856	DET ADP PROPN	-0.5005402
-0.65704465	ADJ ADP PROPN	-0.44266367
-0.7657924	X ADP PROPN	-0.368587
-0.88405555	SCONJ ADP PROPN	-0.40536627
-0.5764409	<s> PUNCT PROPN	-1.7300756
-1.1031971	PROPN PUNCT PROPN	-0.779719
-0.8913497	ADP PUNCT PROPN	-0.57850367
-1.0370947	PUNCT PUNCT PROPN	-0.6168362
-1.1738564	VERB PUNCT PROPN	-0.7466985
-1.1543497	NOUN PUNCT PROPN	-0.82247096
-1.1012046	PART PUNCT PROPN	-0.55332655
-1.1295784	NUM PUNCT PROPN	-0.570763
-0.79504025	CCONJ PUNCT PROPN	-0.41269144
-1.1319351	ADV PUNCT PROPN	-0.4774537
-1.0152307	PRON PUNCT PROPN	-0.47656953
-0.9663948	DET PUNCT PROPN	-0.40756744
-0.8710295	ADJ PUNCT PROPN	-0.44269487
-0.7859492	X PUNCT PROPN	-0.40728685
-1.2113941	INTJ PUNCT PROPN	-0.31762356
-1.0348941	SCONJ PUNCT PROPN	-0.31762353
-0.97149825	<s> VERB PROPN	-1.8145486
-1.1429483	PROPN VERB PROPN	-0.7565229
-1.1025411	ADP VERB PROPN	-0.6604499
-1.154428	PUNCT VERB PROPN	-0.6449553
-1.1437461	VERB VERB PROPN	-0.8215605
-1.1743287	NOUN VERB PROPN	-0.8524342
-1.1054077	PART VERB PROPN	-0.5250981
-1.0919968	NUM VERB PROPN	-0.5866058
-1.1116103	CCONJ VERB PROPN	-0.45692042
-1.1391737	ADV VERB PROPN	-0.7840441
-1.1514404	PRON VERB PROPN	-0.6531275
-1.0227681	DET VERB PROPN	-0.5825781
-1.1726042	ADJ VERB PROPN	-0.296969
-1.160923	X VERB PROPN	-0.42296395
-1.1167452	SCONJ VERB PROPN	-0.38828444
-1.2767096	<s> NOUN PROPN	-1.7335238
-1.1320865	PROPN NOUN PROPN	-0.80632055
-1.1099946	ADP NOUN PROPN	-0.66082525
-1.1420598	PUNCT NOUN PROPN	-0.61923385
-1.1375897	VERB NOUN PROPN	-0.7425225
-1.1632067	NOUN NOUN PROPN	-0.8034654
-1.2019433	PART NOUN PROPN	-0.5725935
-1.1766826	NUM NOUN PROPN	-0.54457694
-1.1044598	CCONJ NOUN PROPN	-0.4226772
-1.2076925	ADV NOUN PROPN	-0.40504682
-1.1501117	PRON NOUN PROPN	-0.34818417
-1.1608431	DET NOUN PROPN	-0.52827287
-1.1405594	ADJ NOUN PROPN	-0.7433964
-1.1016493	X NOUN PROPN	-0.40756744
-1.4951528	SCONJ NOUN PROPN	-0.30148655
-0.49577847	SPACE NOUN PROPN	-0.31762356
-1.969575	<s> PART PROPN	-0.31762356
-1.0285321	PROPN PART PROPN	-0.6961569
-1.1262319	ADP PART PROPN	-0.31762356
-1.1004448	PUNCT PART PROPN	-0.33559677
-1.1231714	VERB PART PROPN	-0.7810722
-1.1241206	NOUN PART PROPN	-0.7500976
-0.9005829	PART PART PROPN	-0.4075216
-1.0115163	NUM PART PROPN	-0.4476701
-1.1135905	CCONJ PART PROPN	-0.31762356
-1.2688662	ADV PART PROPN	-0.34397084
-0.98479813	PRON PART PROPN	-0.478432
-0.7924807	DET PART PROPN	-0.43414956
-0.90780467	ADJ PART PROPN	-0.5099481
-0.9094155	INTJ PART PROPN	-0.30148655
-1.3956153	<s> NUM PROPN	-1.0426337
-1.0867871	PROPN NUM PROPN	-0.42832854
-1.0659263	ADP NUM PROPN	-0.4334844
-1.0149324	PUNCT NUM PROPN	-0.42327893
-1.0895354	VERB NUM PROPN	-0.49235526
-1.143861	NOUN NUM PROPN	-0.42646742
-1.0756626	PART NUM PROPN	-0.41091233
-1.1006963	NUM NUM PROPN	-0.71455336
-1.0810139	CCONJ NUM PROPN	-0.41967228
-1.1186872	ADV NUM PROPN	-0.43025804
-1.4202684	PRON NUM PROPN	-0.30679923
-1.0954388	DET NUM PROPN	-0.44248253
-1.1509724	ADJ NUM PROPN	-0.3110966
-1.1079696	X NUM PROPN	-0.31762356
-1.2238644	SCONJ NUM PROPN	-0.31762353
-1.0214196	<s> CCONJ PROPN	-0.697655
-0.8314067	PROPN CCONJ PROPN	-0.7646818
-1.0204791	ADP CCONJ PROPN	-0.3094801
-0.9958297	PUNCT CCONJ PROPN	-0.4318519
-1.1452997	VERB CCONJ PROPN	-0.44471708
-1.0209681	NOUN CCONJ PROPN	-0.7300545
-0.9783449	PART CCONJ PROPN	-0.30679923
-1.2217492	NUM CCONJ PROPN	-0.29282323
-0.97518367	CCONJ CCONJ PROPN	-0.31762356
-1.029333	ADV CCONJ PROPN	-0.28840917
-0.86765975	PRON CCONJ PROPN	-0.41144833
-1.3486716	ADJ CCONJ PROPN	-0.31762356
-1.3371279	<s> ADV PROPN	-1.7030568
-1.2276232	PROPN ADV PROPN	-0.35519207
-1.2034125	ADP ADV PROPN	-0.30167857
-1.1872479	PUNCT ADV PROPN	-0.5560747
-1.166626	VERB ADV PROPN	-0.5502449
-1.1931528	NOUN ADV PROPN	-0.52729726
-1.4478424	PART ADV PROPN	-0.30786958
-1.3625243	NUM ADV PROPN	-0.30466637
-1.3701531	CCONJ ADV PROPN	-0.30466637
-1.189486	ADV ADV PROPN	-0.46634704
-1.189091	PRON ADV PROPN	-0.34430787
-1.3464811	DET ADV PROPN	-0.3094801
-1.4874682	SCONJ ADV PROPN	-0.31762356
-2.3963861	<s> PRON PROPN	-0.6279973
-1.0226116	PROPN PRON PROPN	-0.3639895
-1.1391466	ADP PRON PROPN	-0.3742681
-1.2579416	PUNCT PRON PROPN	-0.40278345
-1.1882306	VERB PRON PROPN	-0.5127532
-1.0989774	NOUN PRON PROPN	-0.32085112
-1.5107795	PART PRON PROPN	-0.31762356
-1.4476275	NUM PRON PROPN	-0.31762356
-1.5641245	CCONJ PRON PROPN	-0.31762356
-1.7027732	ADV PRON PROPN	-0.31762356
-1.6516266	PRON PRON PROPN	-0.31762356
-1.0181185	ADJ PRON PROPN	-0.31762356
-1.3761649	X PRON PROPN	-0.30679923
-1.4199716	<s> DET PROPN	-1.0884202
-0.86510783	PROPN DET PROPN	-0.4366429
-0.9937258	ADP DET PROPN	-0.5445594
-1.007753	PUNCT DET PROPN	-0.43212014
-1.0624822	VERB DET PROPN	-0.5261365
-1.0000696	NOUN DET PROPN	-0.41125467
-1.0172678	PART DET PROPN	-0.42315206
-1.3959519	NUM DET PROPN	-0.31762356
-1.1307366	CCONJ DET PROPN	-0.35081518
-1.1437744	ADV DET PROPN	-0.3354927
-1.2890931	PRON DET PROPN	-0.30466637
-1.0410632	DET DET PROPN	-0.37929702
-1.3714956	ADJ DET PROPN	-0.31762356
-0.79066324	X DET PROPN	-0.41131938
-1.0021738	SCONJ DET PROPN	-0.28940573
-1.3187897	<s> ADJ PROPN	-0.8834108
-0.92793584	PROPN ADJ PROPN	-0.47513995
-0.87834936	ADP ADJ PROPN	-0.5753335
-0.9363924	PUNCT ADJ PROPN	-0.43096492
-0.9328454	VERB ADJ PROPN	-0.5463659
-0.9458243	NOUN ADJ PROPN	-0.5087066
-0.97147727	PART ADJ PROPN	-0.41144833
-0.9310036	NUM ADJ PROPN	-0.42665994
-1.2054774	CCONJ ADJ PROPN	-0.30167857
-0.9526148	ADV ADJ PROPN	-0.38536352
-1.0928669	PRON ADJ PROPN	-0.3094801
-0.9271522	DET ADJ PROPN	-0.440547
-1.1455008	ADJ ADJ PROPN	-0.28262872
-1.0747674	X ADJ PROPN	-0.30679923
-0.85247344	SCONJ ADJ PROPN	-0.30679923
-1.0432935	<s> X PROPN	-0.48866084
-0.9274809	PROPN X PROPN	-0.37493145
-0.8787047	ADP X PROPN	-0.30679923
-1.0939299	PUNCT X PROPN	-0.3531208
-1.0127108	VERB X PROPN	-0.4941211
-0.99667615	NOUN X PROPN	-0.49343336
-1.1583618	PART X PROPN	-0.3094801
-0.9824832	NUM X PROPN	-0.3110966
-1.1124989	CCONJ X PROPN	-0.31762356
-0.9841358	ADV X PROPN	-0.507885
-0.94816315	PRON X PROPN	-0.302929
-0.99882025	DET X PROPN	-0.3110966
-0.7896768	X X PROPN	-0.31217766
-1.0906384	SCONJ X PROPN	-0.31762356
-1.4780725	<s> INTJ PROPN	-0.30679923
-0.728213	PROPN INTJ PROPN	-0.30679923
-1.1238008	PUNCT INTJ PROPN	-0.31762356
-0.60979414	NOUN INTJ PROPN	-0.31762356
-0.4655319	PRON INTJ PROPN	-0.31762356
-0.68209404	DET INTJ PROPN	-0.31762356
-0.98709	<s> SCONJ PROPN	-1.1345352
-1.0812109	ADP SCONJ PROPN	-0.31762356
-0.9349263	PUNCT SCONJ PROPN	-0.39125854
-0.95044345	VERB SCONJ PROPN	-0.37576324
-1.3852172	NOUN SCONJ PROPN	-0.30466637
-0.8385185	NUM SCONJ PROPN	-0.31762356
-1.0658209	ADV SCONJ PROPN	-0.31295148
-0.4439968	VERB SPACE PROPN	-0.31762353
-0.39723098	NOUN SPACE PROPN	-0.31762356
-0.1605619	PART SPACE PROPN	-0.31762356
-1.3244932	<s> PROPN ADP	-1.7399651
-1.1647099	PROPN PROPN ADP	-0.65564424
-1.1605234	ADP PROPN ADP	-0.58869743
-1.1816884	PUNCT PROPN ADP	-0.5980962
-1.1559402	VERB PROPN ADP	-0.6251909
-1.1101631	NOUN PROPN ADP	-0.64750946
-1.1858281	PART PROPN ADP	-0.47144625
-1.0663114	NUM PROPN ADP	-0.42323616
-1.2189012	CCONJ PROPN ADP	-0.31818506
-1.067439	ADV PROPN ADP	-0.46335822
-1.0518186	PRON PROPN ADP	-0.29097292
-1.2506154	DET PROPN ADP	-0.47487953
-1.1115754	ADJ PROPN ADP	-0.49348208
-1.1158879	X PROPN ADP	-0.46491536
-0.89945143	INTJ PROPN ADP	-0.31762356
-1.3189551	SCONJ PROPN ADP	-0.30466637
-1.7304277	<s> ADP ADP	-1.089695
-1.1288222	PROPN ADP ADP	-0.47171244
-1.6167598	ADP ADP ADP	-0.31762356
-1.1128635	PUNCT ADP ADP	-0.454307
-1.0848343	VERB ADP ADP	-0.47743508
-1.1496387	NOUN ADP ADP	-0.5201889
-1.3162855	PART ADP ADP	-0.28262872
-1.6807765	NUM ADP ADP	-0.31762356
-1.5030248	CCONJ ADP ADP	-0.31762356
-1.2603191	ADV ADP ADP	-0.43958026
-1.1754932	PRON ADP ADP	-0.40196767
-1.5747952	DET ADP ADP	-0.31762353
-1.2342757	X ADP ADP	-0.31762356
-1.511458	SCONJ ADP ADP	-0.31762356
-1.4049098	<s> PUNCT ADP	-1.0440649
-1.1359714	PROPN PUNCT ADP	-0.6667806
-1.1980957	ADP PUNCT ADP	-0.368587
-1.1858393	PUNCT PUNCT ADP	-0.45842063
-1.1769527	VERB PUNCT ADP	-0.7384085
-1.2192165	NOUN PUNCT ADP	-0.803204
-1.1510996	PART PUNCT ADP	-0.43373266
-1.2203739	NUM PUNCT ADP	-0.5019568
-1.1676192	CCONJ PUNCT ADP	-0.31217766
-1.136561	ADV PUNCT ADP	-0.46218297
-1.2170602	PRON PUNCT ADP	-0.39441752
-1.2886931	DET PUNCT ADP	-0.3110966
-1.470449	ADJ PUNCT ADP	-0.31762356
-1.5482926	X PUNCT ADP	-0.31762356
-1.2981526	INTJ PUNCT ADP	-0.31762356
-1.2533292	<s> VERB ADP	-1.630356
-1.173176	PROPN VERB ADP	-0.680933
-1.1827185	ADP VERB ADP	-0.5047171
-1.154814	PUNCT VERB ADP	-0.5937828
-1.1440609	VERB VERB ADP	-0.7377511
-1.1467153	NOUN VERB ADP	-0.89939004
-1.1057781	PART VERB ADP	-0.51988447
-1.0923805	NUM VERB ADP	-0.6068941
-1.060258	CCONJ VERB ADP	-0.4692466
-1.139507	ADV VERB ADP	-0.7721659
-1.119546	PRON VERB ADP	-0.64823186
-1.1857889	DET VERB ADP	-0.39441752
-1.1030896	ADJ VERB ADP	-0.44765475
-1.0739691	X VERB ADP	-0.4350412
-1.057687	SCONJ VERB ADP	-0.33844492
-1.2999345	<s> NOUN ADP	-1.812613
-1.1323899	PROPN NOUN ADP	-0.7855211
-1.1103196	ADP NOUN ADP	-0.6612481
-1.1103196	PUNCT NOUN ADP	-0.61101276
-1.1378989	VERB NOUN ADP	-0.71988976
-1.1635218	NOUN NOUN ADP	-0.86003226
-1.2479643	PART NOUN ADP	-0.6204119
-1.1103196	NUM NOUN ADP	-0.73386085
-1.1559278	CCONJ NOUN ADP	-0.4076664
-1.1213942	ADV NOUN ADP	-0.49096143
-1.0370195	PRON NOUN ADP	-0.5818927
-1.0992216	DET NOUN ADP	-0.6804166
-1.1111337	ADJ NOUN ADP	-0.73585635
-1.0560324	X NOUN ADP	-0.4546791
-1.2083215	INTJ NOUN ADP	-0.31762356
-1.1929288	SCONJ NOUN ADP	-0.3394671
-1.1913198	PROPN PART ADP	-0.47319606
-1.4574064	ADP PART ADP	-0.31762356
-1.4591485	PUNCT PART ADP	-0.29821333
-1.1995345	VERB PART ADP	-0.6445977
-1.167664	NOUN PART ADP	-0.71527994
-1.6874269	PART PART ADP	-0.31762356
-1.6270406	NUM PART ADP	-0.30679923
-0.98513293	ADV PART ADP	-0.39441752
-1.4292479	PRON PART ADP	-0.368587
-1.4706074	ADJ PART ADP	-0.39650226
-2.162961	<s> NUM ADP	-0.66955394
-1.4492191	PROPN NUM ADP	-0.36092997
-1.1227804	ADP NUM ADP	-0.40793276
-1.1766124	PUNCT NUM ADP	-0.32408684
-1.1724072	VERB NUM ADP	-0.49343976
-1.3697702	NOUN NUM ADP	-0.41892192
-1.5507797	PART NUM ADP	-0.31037745
-1.1039534	NUM NUM ADP	-0.6900989
-1.1689482	CCONJ NUM ADP	-0.29195532
-1.2333511	ADV NUM ADP	-0.38620704
-1.4370381	PRON NUM ADP	-0.31762356
-1.0586324	DET NUM ADP	-0.50842303
-1.4457885	X NUM ADP	-0.31762356
-1.2388977	SCONJ NUM ADP	-0.31762356
-1.1033083	<s> CCONJ ADP	-0.74197304
-1.24516	PROPN CCONJ ADP	-0.2778519
-1.0599103	PUNCT CCONJ ADP	-0.36715683
-1.0180374	VERB CCONJ ADP	-0.44609845
-1.163863	NOUN CCONJ ADP	-0.51616514
-1.008639	PART CCONJ ADP	-0.31762353
-1.4237375	NUM CCONJ ADP	-0.31762353
-1.2964923	ADV CCONJ ADP	-0.31762356
-1.6342887	PRON CCONJ ADP	-0.31762356
-0.2136992	X CCONJ ADP	-0.31762356
-1.0333642	<s> ADV ADP	-2.076714
-0.97636837	PROPN ADV ADP	-0.69206935
-1.013808	ADP ADV ADP	-0.49115753
-1.092388	PUNCT ADV ADP	-0.65564424
-1.0876877	VERB ADV ADP	-0.636689
-1.1204257	NOUN ADV ADP	-0.866727
-1.1210766	PART ADV ADP	-0.40393582
-0.9860299	NUM ADV ADP	-0.39113936
-0.88810396	CCONJ ADV ADP	-0.4781446
-1.0227306	ADV ADV ADP	-0.68089104
-1.0048203	PRON ADV ADP	-0.6174212
-1.076977	DET ADV ADP	-0.43230206
-1.2824357	ADJ ADV ADP	-0.31762356
-1.318631	X ADV ADP	-0.31762356
-0.81231207	SCONJ ADV ADP	-0.3843182
-1.0610927	<s> PRON ADP	-1.8360391
-0.90512735	PROPN PRON ADP	-0.43230206
-1.0940806	ADP PRON ADP	-0.550161
-1.0209764	PUNCT PRON ADP	-0.5811379
-1.1128346	VERB PRON ADP	-0.67670953
-1.0541759	NOUN PRON ADP	-0.5482863
-1.1058356	PART PRON ADP	-0.32754838
-0.8622716	NUM PRON ADP	-0.3818837
-1.1885023	CCONJ PRON ADP	-0.29504722
-1.0634048	ADV PRON ADP	-0.40223724
-1.0325947	PRON PRON ADP	-0.3298713
-1.3613985	DET PRON ADP	-0.31762356
-0.92060584	X PRON ADP	-0.43695036
-0.953287	SCONJ PRON ADP	-0.30239
-2.1388917	<s> DET ADP	-0.6582736
-1.0097	PROPN DET ADP	-0.4327539
-1.07682	ADP DET ADP	-0.4590853
-1.1225883	PUNCT DET ADP	-0.44525087
-1.0665057	VERB DET ADP	-0.548816
-1.3468802	NOUN DET ADP	-0.30832914
-1.1715981	PART DET ADP	-0.32408684
-1.3452685	NUM DET ADP	-0.31762356
-1.1386745	CCONJ DET ADP	-0.3552746
-1.3317411	ADV DET ADP	-0.28638062
-1.0643607	PRON DET ADP	-0.3110966
-1.0481626	DET DET ADP	-0.3795387
-1.3893633	ADJ DET ADP	-0.31762356
-1.4518198	X DET ADP	-0.31762353
-2.6685162	<s> ADJ ADP	-0.3094801
-1.2228385	PROPN ADJ ADP	-0.4355338
-1.763353	ADP ADJ ADP	-0.31762356
-1.3171105	PUNCT ADJ ADP	-0.28262872
-1.4134976	VERB ADJ ADP	-0.34310782
-1.326819	NOUN ADJ ADP	-0.368587
-1.6147046	PART ADJ ADP	-0.31762356
-1.5310489	CCONJ ADJ ADP	-0.31762356
-1.7086275	ADV ADJ ADP	-0.31762356
-1.2819754	DET ADJ ADP	-0.30148655
-2.3690636	<s> X ADP	-0.31762356
-1.5596516	PROPN X ADP	-0.30148655
-1.450289	ADP X ADP	-0.31762356
-1.6074854	PUNCT X ADP	-0.31762356
-1.3445227	VERB X ADP	-0.29282323
-1.4722935	NOUN X ADP	-0.30679923
-1.3980722	PART X ADP	-0.30148655
-1.5199449	ADV X ADP	-0.2888241
-1.5854757	PRON X ADP	-0.31762356
-1.1500537	X X ADP	-0.31762356
-1.9516997	<s> INTJ ADP	-0.31762356
-0.67659724	NOUN INTJ ADP	-0.31762356
-1.395376	<s> SCONJ ADP	-0.8284479
-1.108178	PROPN SCONJ ADP	-0.30679923
-0.8258864	ADP SCONJ ADP	-0.31762356
-1.0860251	PUNCT SCONJ ADP	-0.35550612
-1.167658	VERB SCONJ ADP	-0.30679923
-0.8537685	NOUN SCONJ ADP	-0.38886535
-0.8066076	PART SCONJ ADP	-0.30148655
-0.8028049	NUM SCONJ ADP	-0.31762356
-1.157514	ADV SCONJ ADP	-0.31353274
-1.0759133	PRON SCONJ ADP	-0.31037745
-0.71353406	<s> PROPN PUNCT	-2.1721582
-1.0686133	PROPN PROPN PUNCT	-0.7444648
-1.0940512	ADP PROPN PUNCT	-0.6767529
-1.0204571	PUNCT PROPN PUNCT	-0.7834469
-1.0940529	VERB PROPN PUNCT	-0.7944486
-1.0804509	NOUN PROPN PUNCT	-0.7944486
-1.089815	PART PROPN PUNCT	-0.5332784
-1.0663114	NUM PROPN PUNCT	-0.40927795
-0.96646506	CCONJ PROPN PUNCT	-0.41539675
-0.9423771	ADV PROPN PUNCT	-0.48080307
-0.98239374	PRON PROPN PUNCT	-0.39251697
-0.9839133	DET PROPN PUNCT	-0.46727198
-0.9704271	ADJ PROPN PUNCT	-0.50279176
-1.0557984	X PROPN PUNCT	-0.31551647
-0.89945143	INTJ PROPN PUNCT	-0.31762356
-1.3189551	SCONJ PROPN PUNCT	-0.30148655
-1.720753	<s> ADP PUNCT	-1.0806773
-1.1244658	PROPN ADP PUNCT	-0.469357
-1.0493945	ADP ADP PUNCT	-0.3927569
-1.1080592	PUNCT ADP PUNCT	-0.45870155
-1.0814213	VERB ADP PUNCT	-0.52527493
-1.1118634	NOUN ADP PUNCT	-0.5426296
-1.4609485	PART ADP PUNCT	-0.30679923
-1.2986271	NUM ADP PUNCT	-0.30546492
-1.2630635	CCONJ ADP PUNCT	-0.30679923
-1.100049	ADV ADP PUNCT	-0.42513713
-1.1194384	PRON ADP PUNCT	-0.31573778
-1.3943425	DET ADP PUNCT	-0.3110966
-1.3105935	ADJ ADP PUNCT	-0.31762356
-0.9258365	X ADP PUNCT	-0.31762353
-1.1381719	SCONJ ADP PUNCT	-0.28328648
-1.2764493	<s> PUNCT PUNCT	-1.1090256
-1.1359714	PROPN PUNCT PUNCT	-0.65974367
-1.1393785	ADP PUNCT PUNCT	-0.28726694
-1.1445992	PUNCT PUNCT PUNCT	-0.5747306
-1.1769527	VERB PUNCT PUNCT	-0.70759356
-1.187124	NOUN PUNCT PUNCT	-0.8048178
-1.1510996	PART PUNCT PUNCT	-0.47968045
-1.1747637	NUM PUNCT PUNCT	-0.48324734
-1.1676192	CCONJ PUNCT PUNCT	-0.3110966
-1.187826	ADV PUNCT PUNCT	-0.39332575
-1.0605756	PRON PUNCT PUNCT	-0.37845665
-1.2886931	DET PUNCT PUNCT	-0.28328648
-1.470449	ADJ PUNCT PUNCT	-0.30679923
-1.4850202	X PUNCT PUNCT	-0.30679923
-1.0317365	INTJ PUNCT PUNCT	-0.31217766
-1.2727991	<s> VERB PUNCT	-1.4632224
-1.1407217	PROPN VERB PUNCT	-0.7496358
-1.1791874	ADP VERB PUNCT	-0.4686532
-1.0273261	PUNCT VERB PUNCT	-0.79079515
-1.141561	VERB VERB PUNCT	-0.8258507
-1.1442897	NOUN VERB PUNCT	-0.91665816
-1.1028377	PART VERB PUNCT	-0.5702122
-1.0893335	NUM VERB PUNCT	-0.5112334
-1.0564312	CCONJ VERB PUNCT	-0.41385627
-1.1368595	ADV VERB PUNCT	-0.8407423
-1.1169188	PRON VERB PUNCT	-0.706973
-0.9881089	DET VERB PUNCT	-0.43096492
-0.8586064	ADJ VERB PUNCT	-0.47198382
-0.9983872	X VERB PUNCT	-0.5159179
-0.8998255	INTJ VERB PUNCT	-0.31762356
-1.0016673	SCONJ VERB PUNCT	-0.38944936
-1.0170825	<s> NOUN PUNCT	-1.9431205
-1.1323899	PROPN NOUN PUNCT	-0.850306
-1.0804384	ADP NOUN PUNCT	-0.6825056
-1.0524814	PUNCT NOUN PUNCT	-0.8510621
-1.1378989	VERB NOUN PUNCT	-0.8794514
-1.1356682	NOUN NOUN PUNCT	-0.9172528
-1.0268798	PART NOUN PUNCT	-0.7741096
-1.1103196	NUM NOUN PUNCT	-0.79444224
-0.9457198	CCONJ NOUN PUNCT	-0.510025
-1.0169939	ADV NOUN PUNCT	-0.6351272
-1.0370195	PRON NOUN PUNCT	-0.47929922
-1.0992216	DET NOUN PUNCT	-0.7767135
-1.1111337	ADJ NOUN PUNCT	-0.86138904
-1.0560324	X NOUN PUNCT	-0.4048434
-1.2083215	INTJ NOUN PUNCT	-0.31762356
-1.0895205	SCONJ NOUN PUNCT	-0.34397084
-1.1034077	<s> PART PUNCT	-0.59043574
-1.0289297	PROPN PART PUNCT	-0.6554371
-1.127463	ADP PART PUNCT	-0.30679923
-0.9256359	PUNCT PART PUNCT	-0.42836496
-1.1235545	VERB PART PUNCT	-0.77967477
-1.1539704	NOUN PART PUNCT	-0.8333603
-0.90109086	PART PART PUNCT	-0.3800085
-0.93997306	NUM PART PUNCT	-0.45172486
-0.80732435	CCONJ PART PUNCT	-0.28262872
-0.9686422	ADV PART PUNCT	-0.44960788
-1.0195822	PRON PART PUNCT	-0.4668173
-1.1753459	DET PART PUNCT	-0.28328648
-0.9433236	ADJ PART PUNCT	-0.50056124
-1.002955	INTJ PART PUNCT	-0.31762356
-0.87935114	<s> NUM PUNCT	-1.4332579
-1.0414875	PROPN NUM PUNCT	-0.45397937
-1.019807	ADP NUM PUNCT	-0.49869826
-0.9008166	PUNCT NUM PUNCT	-0.5764979
-1.0554653	VERB NUM PUNCT	-0.6176086
-1.0314982	NOUN NUM PUNCT	-0.63037515
-0.8991732	PART NUM PUNCT	-0.41946384
-1.1305437	NUM NUM PUNCT	-0.79727745
-1.1613901	CCONJ NUM PUNCT	-0.32706803
-1.1191697	ADV NUM PUNCT	-0.44047776
-1.4219087	PRON NUM PUNCT	-0.31762356
-1.0549026	DET NUM PUNCT	-0.4818611
-1.0432934	ADJ NUM PUNCT	-0.3110966
-1.0018116	X NUM PUNCT	-0.30832914
-1.2253375	SCONJ NUM PUNCT	-0.31762356
-1.658482	<s> CCONJ PUNCT	-0.28299406
-1.1833555	PROPN CCONJ PUNCT	-0.42544878
-0.92391574	PUNCT CCONJ PUNCT	-0.45918974
-1.4821553	VERB CCONJ PUNCT	-0.30832914
-1.1307342	NOUN CCONJ PUNCT	-0.48390642
-1.2140015	PART CCONJ PUNCT	-0.31762356
-1.2727072	NUM CCONJ PUNCT	-0.30679923
-1.499777	ADV CCONJ PUNCT	-0.31762353
-1.4110684	PRON CCONJ PUNCT	-0.3094801
-1.2272915	<s> ADV PUNCT	-1.7828661
-1.1632028	PROPN ADV PUNCT	-0.4121516
-1.2653965	ADP ADV PUNCT	-0.32278642
-1.0887933	PUNCT ADV PUNCT	-0.5592235
-1.0528494	VERB ADV PUNCT	-0.58343005
-1.1174183	NOUN ADV PUNCT	-0.5822121
-1.1149006	PART ADV PUNCT	-0.35400647
-1.2389882	NUM ADV PUNCT	-0.34467816
-1.5698469	CCONJ ADV PUNCT	-0.31762356
-1.1317145	ADV ADV PUNCT	-0.5171807
-1.1748421	PRON ADV PUNCT	-0.4334844
-1.1408017	DET ADV PUNCT	-0.3469994
-1.07112	ADJ ADV PUNCT	-0.30679923
-1.3053089	X ADV PUNCT	-0.31762356
-0.6448604	INTJ ADV PUNCT	-0.31762356
-1.4352063	SCONJ ADV PUNCT	-0.31762356
-2.454898	<s> PRON PUNCT	-0.5689475
-1.0830337	PROPN PRON PUNCT	-0.29921782
-1.1773154	ADP PRON PUNCT	-0.43536922
-1.1399261	PUNCT PRON PUNCT	-0.40520507
-1.0778016	VERB PRON PUNCT	-0.667569
-0.9789899	NOUN PRON PUNCT	-0.48990992
-0.8924304	PART PRON PUNCT	-0.393879
-1.0449127	NUM PRON PUNCT	-0.368587
-0.92875475	CCONJ PRON PUNCT	-0.43246335
-1.0078769	ADV PRON PUNCT	-0.4094796
-1.0281768	PRON PRON PUNCT	-0.34465447
-0.8797219	DET PRON PUNCT	-0.28940573
-0.6506479	ADJ PRON PUNCT	-0.3094801
-1.5096277	X PRON PUNCT	-0.31762356
-1.3684602	SCONJ PRON PUNCT	-0.3094801
-2.3801994	<s> DET PUNCT	-0.5019568
-1.439944	PROPN DET PUNCT	-0.3110966
-1.226555	ADP DET PUNCT	-0.38353488
-1.1836605	PUNCT DET PUNCT	-0.29821333
-1.1406413	VERB DET PUNCT	-0.5011133
-1.1374862	NOUN DET PUNCT	-0.41789863
-1.1638542	PART DET PUNCT	-0.30874732
-1.3978199	NUM DET PUNCT	-0.31762356
-1.5721892	CCONJ DET PUNCT	-0.31762356
-1.0186296	ADV DET PUNCT	-0.32554293
-1.4513587	PRON DET PUNCT	-0.3094801
-1.3431566	DET DET PUNCT	-0.31762356
-1.3732284	ADJ DET PUNCT	-0.31762356
-1.4340439	X DET PUNCT	-0.31762356
-1.2747798	SCONJ DET PUNCT	-0.31762356
-2.2825632	<s> ADJ PUNCT	-0.3469994
-1.6021056	PROPN ADJ PUNCT	-0.31762353
-1.2457488	ADP ADJ PUNCT	-0.3385103
-0.84185576	PUNCT ADJ PUNCT	-0.46995506
-1.0899912	VERB ADJ PUNCT	-0.4460815
-1.09872	NOUN ADJ PUNCT	-0.55206555
-1.2914009	PART ADJ PUNCT	-0.35081518
-1.4184853	NUM ADJ PUNCT	-0.3110966
-1.4202996	CCONJ ADJ PUNCT	-0.31762356
-1.4260266	ADV ADJ PUNCT	-0.28262872
-1.5414889	PRON ADJ PUNCT	-0.31762356
-1.4001863	DET ADJ PUNCT	-0.3110966
-1.4150624	<s> X PUNCT	-0.41091233
-1.0646648	PROPN X PUNCT	-0.32454506
-1.4051609	ADP X PUNCT	-0.31762356
-1.0311337	PUNCT X PUNCT	-0.36190057
-1.1198391	VERB X PUNCT	-0.31464154
-1.1445216	NOUN X PUNCT	-0.40533173
-1.3543887	PART X PUNCT	-0.30466637
-1.2111273	NUM X PUNCT	-0.31762356
-1.1496999	CCONJ X PUNCT	-0.31762353
-1.2563914	ADV X PUNCT	-0.35513705
-1.5379758	PRON X PUNCT	-0.31762356
-1.028641	X X PUNCT	-0.31762353
-0.16393366	<s> INTJ PUNCT	-1.1058793
-0.6997697	PROPN INTJ PUNCT	-0.31762356
-0.22139911	PUNCT INTJ PUNCT	-0.38975683
-0.593559	VERB INTJ PUNCT	-0.31762356
-0.313779	PART INTJ PUNCT	-0.28262872
-0.7507209	ADV INTJ PUNCT	-0.31762356
-0.2027966	INTJ INTJ PUNCT	-0.28262872
-2.3821712	<s> SCONJ PUNCT	-0.2938449
-1.1119437	ADP SCONJ PUNCT	-0.31762356
-1.3252718	PUNCT SCONJ PUNCT	-0.30679923
-1.6640302	NOUN SCONJ PUNCT	-0.31762356
-1.3546442	ADV SCONJ PUNCT	-0.31762356
-1.2628077	PRON SCONJ PUNCT	-0.31762356
-0.86526924	<s> PROPN VERB	-2.0484262
-1.0381174	PROPN PROPN VERB	-0.77583313
-1.061469	ADP PROPN VERB	-0.8094116
-1.0749133	PUNCT PROPN VERB	-0.6998104
-1.1209524	VERB PROPN VERB	-0.7477179
-1.0775877	NOUN PROPN VERB	-0.81229883
-1.1305461	PART PROPN VERB	-0.50153315
-0.9831809	NUM PROPN VERB	-0.49389306
-1.0120044	CCONJ PROPN VERB	-0.4501589
-1.0177037	ADV PROPN VERB	-0.510224
-1.0461818	PRON PROPN VERB	-0.37802944
-1.0220383	DET PROPN VERB	-0.45099375
-0.8940665	ADJ PROPN VERB	-0.49606708
-0.80421776	X PROPN VERB	-0.57772124
-0.9897464	INTJ PROPN VERB	-0.31762356
-0.81117994	SCONJ PROPN VERB	-0.3466164
-0.686719	SPACE PROPN VERB	-0.31762356
-0.9162467	<s> ADP VERB	-1.7549497
-1.0122218	PROPN ADP VERB	-0.58808863
-0.9367645	ADP ADP VERB	-0.39875162
-0.9850896	PUNCT ADP VERB	-0.6288238
-1.0465925	VERB ADP VERB	-0.6874315
-1.0231701	NOUN ADP VERB	-0.7937236
-0.9934147	PART ADP VERB	-0.3109774
-0.9811467	NUM ADP VERB	-0.36790213
-1.0271242	CCONJ ADP VERB	-0.35081518
-1.0205613	ADV ADP VERB	-0.62988895
-1.0315796	PRON ADP VERB	-0.4656477
-0.89479995	DET ADP VERB	-0.33967432
-1.3089393	ADJ ADP VERB	-0.31762353
-1.2180789	X ADP VERB	-0.31762356
-1.1372244	SCONJ ADP VERB	-0.2778519
-1.1357962	<s> PUNCT VERB	-1.2282594
-1.1328752	PROPN PUNCT VERB	-0.73646367
-0.92353827	ADP PUNCT VERB	-0.51961046
-1.1815153	PUNCT PUNCT VERB	-0.56655073
-1.1441784	VERB PUNCT VERB	-0.8225518
-1.1265707	NOUN PUNCT VERB	-0.86632425
-1.1463	PART PUNCT VERB	-0.5244645
-1.0922142	NUM PUNCT VERB	-0.5750979
-1.0575831	CCONJ PUNCT VERB	-0.3182475
-1.0079253	ADV PUNCT VERB	-0.5616598
-0.9427233	PRON PUNCT VERB	-0.41809672
-0.9663948	DET PUNCT VERB	-0.4400918
-0.9424528	ADJ PUNCT VERB	-0.3173485
-0.8997503	X PUNCT VERB	-0.36092997
-1.2113941	INTJ PUNCT VERB	-0.3094801
-1.0348941	SCONJ PUNCT VERB	-0.31762353
-0.76654214	<s> VERB VERB	-1.9880013
-1.1126015	PROPN VERB VERB	-0.818576
-1.0648559	ADP VERB VERB	-0.65917647
-1.1167918	PUNCT VERB VERB	-0.71709734
-1.1412481	VERB VERB VERB	-0.86442184
-1.1439861	NOUN VERB VERB	-0.9481652
-1.0677226	PART VERB VERB	-0.6426945
-1.0223091	NUM VERB VERB	-0.5937956
-0.9685123	CCONJ VERB VERB	-0.49342787
-1.1661053	ADV VERB VERB	-0.86386365
-1.11659	PRON VERB VERB	-0.7877897
-0.9878202	DET VERB VERB	-0.5894754
-0.8968245	ADJ VERB VERB	-0.42296395
-0.9980353	X VERB VERB	-0.67192775
-0.89904344	INTJ VERB VERB	-0.31762356
-1.0012189	SCONJ VERB VERB	-0.5616598
-0.68473905	<s> NOUN VERB	-2.2931204
-1.1041484	PROPN NOUN VERB	-0.9109542
-1.080135	ADP NOUN VERB	-0.8432325
-1.0521969	PUNCT NOUN VERB	-0.75067574
-1.1375897	VERB NOUN VERB	-0.8901261
-1.1632067	NOUN NOUN VERB	-0.92370236
-1.0564361	PART NOUN VERB	-0.7613658
-1.080135	NUM NOUN VERB	-0.88131034
-1.0176717	CCONJ NOUN VERB	-0.59717613
-0.9868092	ADV NOUN VERB	-0.72386116
-1.0366696	PRON NOUN VERB	-0.6455326
-1.0709801	DET NOUN VERB	-0.8598761
-1.1108186	ADJ NOUN VERB	-0.8831688
-0.878673	X NOUN VERB	-0.6999813
-0.56978333	INTJ NOUN VERB	-0.3110966
-0.8753808	SCONJ NOUN VERB	-0.41016158
-0.14903153	<s> PART VERB	-0.7772055
-0.9685234	PROPN PART VERB	-0.70988274
-0.6505112	ADP PART VERB	-0.38324532
-0.87539834	PUNCT PART VERB	-0.43257824
-1.119977	VERB PART VERB	-0.844271
-1.093601	NOUN PART VERB	-0.8962875
-1.0053067	PART PART VERB	-0.3904314
-1.0076308	NUM PART VERB	-0.4249576
-0.6381314	CCONJ PART VERB	-0.29195532
-0.8856773	ADV PART VERB	-0.5671421
-0.94981307	PRON PART VERB	-0.57259506
-0.9042576	DET PART VERB	-0.3094801
-0.97792417	ADJ PART VERB	-0.3851943
-0.5666578	X PART VERB	-0.2715635
-0.8991781	INTJ PART VERB	-0.31762356
-1.4450122	<s> NUM VERB	-0.8681373
-1.0410658	PROPN NUM VERB	-0.41762614
-1.1180041	ADP NUM VERB	-0.4190082
-1.1707355	PUNCT NUM VERB	-0.36762664
-1.0895354	VERB NUM VERB	-0.57688624
-0.99925715	NOUN NUM VERB	-0.6174212
-1.0083498	PART NUM VERB	-0.34411848
-1.1006963	NUM NUM VERB	-0.8270369
-1.0138049	CCONJ NUM VERB	-0.39301428
-1.0320116	ADV NUM VERB	-0.48069206
-0.98594385	PRON NUM VERB	-0.30546492
-0.98262864	DET NUM VERB	-0.5981751
-0.8839363	ADJ NUM VERB	-0.31398538
-1.4286126	X NUM VERB	-0.31762353
-1.2238644	SCONJ NUM VERB	-0.31762356
-0.6933214	<s> CCONJ VERB	-0.9562157
-1.0020882	PROPN CCONJ VERB	-0.5129405
-0.6339828	ADP CCONJ VERB	-0.31762356
-0.9048743	PUNCT CCONJ VERB	-0.45634863
-0.8711242	VERB CCONJ VERB	-0.7800202
-1.0172708	NOUN CCONJ VERB	-0.7549921
-0.83287144	PART CCONJ VERB	-0.2988066
-0.9872942	NUM CCONJ VERB	-0.29398316
-0.42924002	CCONJ CCONJ VERB	-0.28940573
-0.8714254	ADV CCONJ VERB	-0.42421073
-1.0413283	PRON CCONJ VERB	-0.3202257
-0.69134057	ADJ CCONJ VERB	-0.3795387
-0.73126996	SCONJ CCONJ VERB	-0.31762356
-0.44381884	<s> ADV VERB	-2.5229876
-0.94618297	PROPN ADV VERB	-0.8598761
-0.8524625	ADP ADV VERB	-0.6608338
-0.95815253	PUNCT ADV VERB	-0.75415206
-0.9976776	VERB ADV VERB	-0.86309797
-1.0627732	NOUN ADV VERB	-0.9215106
-0.7840773	PART ADV VERB	-0.66363084
-0.79177547	NUM ADV VERB	-0.6874315
-0.7048438	CCONJ ADV VERB	-0.53385204
-0.9328498	ADV ADV VERB	-0.83625305
-0.93787026	PRON ADV VERB	-0.8111538
-0.76882315	DET ADV VERB	-0.63716865
-0.47684193	ADJ ADV VERB	-0.44769186
-0.48748454	X ADV VERB	-0.4730763
-0.7508286	SCONJ ADV VERB	-0.51222384
-0.36542106	<s> PRON VERB	-2.3818538
-0.8975086	PROPN PRON VERB	-0.45564258
-0.983034	ADP PRON VERB	-0.7228489
-1.0133859	PUNCT PRON VERB	-0.7394831
-1.0743513	VERB PRON VERB	-0.7532788
-0.9438561	NOUN PRON VERB	-0.7523419
-0.79083544	PART PRON VERB	-0.45105246
-0.7820512	NUM PRON VERB	-0.37080085
-0.9233713	CCONJ PRON VERB	-0.42274693
-0.91770387	ADV PRON VERB	-0.53774536
-0.6707596	PRON PRON VERB	-0.51488286
-0.59410644	DET PRON VERB	-0.43834472
-0.8886784	ADJ PRON VERB	-0.30679923
-0.7726169	X PRON VERB	-0.57092184
-0.49977225	INTJ PRON VERB	-0.31762353
-0.67336214	SCONJ PRON VERB	-0.4062534
-1.4622968	<s> DET VERB	-0.9381986
-1.131212	PROPN DET VERB	-0.3410904
-1.0312752	ADP DET VERB	-0.46627855
-1.007753	PUNCT DET VERB	-0.43991056
-1.0282966	VERB DET VERB	-0.70190465
-0.9626014	NOUN DET VERB	-0.48839647
-1.0840553	PART DET VERB	-0.31126317
-1.3287948	NUM DET VERB	-0.31762356
-0.92277765	CCONJ DET VERB	-0.3568603
-0.9667319	ADV DET VERB	-0.43663007
-1.0567183	PRON DET VERB	-0.32898492
-0.8650818	DET DET VERB	-0.4691267
-0.83530265	ADJ DET VERB	-0.31353274
-0.9011145	X DET VERB	-0.32358623
-0.737943	SCONJ DET VERB	-0.29821333
-1.9721693	<s> ADJ VERB	-0.46491536
-0.9324565	PROPN ADJ VERB	-0.39001873
-0.92360824	ADP ADJ VERB	-0.38904497
-0.94015074	PUNCT ADJ VERB	-0.43080285
-0.9678993	VERB ADJ VERB	-0.5400058
-0.99091923	NOUN ADJ VERB	-0.46539778
-0.9772628	PART ADJ VERB	-0.40172833
-0.9956761	NUM ADJ VERB	-0.28626737
-0.9827002	CCONJ ADJ VERB	-0.28299406
-1.016463	ADV ADJ VERB	-0.37353083
-1.1000223	PRON ADJ VERB	-0.2888241
-1.141172	DET ADJ VERB	-0.28840917
-1.1545115	ADJ ADJ VERB	-0.31762353
-1.3799815	X ADJ VERB	-0.31762356
-0.75606805	<s> X VERB	-0.7435125
-0.75617826	PROPN X VERB	-0.5353023
-0.51762956	ADP X VERB	-0.4790799
-0.892214	PUNCT X VERB	-0.43137577
-0.83942735	VERB X VERB	-0.56786734
-0.8639002	NOUN X VERB	-0.69359404
-0.6730465	PART X VERB	-0.43533435
-0.55591005	NUM X VERB	-0.40072802
-0.79966545	CCONJ X VERB	-0.34310782
-0.82478565	ADV X VERB	-0.634736
-0.7187193	PRON X VERB	-0.49348205
-0.45559457	DET X VERB	-0.450033
-0.79121864	ADJ X VERB	-0.31762356
-0.6338182	SCONJ X VERB	-0.30546492
-1.5657556	<s> INTJ VERB	-0.30679923
-0.79600185	PROPN INTJ VERB	-0.31762356
-0.6466335	VERB INTJ VERB	-0.31762356
-0.8291358	ADV INTJ VERB	-0.31762356
-0.7025678	<s> SCONJ VERB	-1.3551171
-0.60552704	PROPN SCONJ VERB	-0.31523627
-0.7816463	ADP SCONJ VERB	-0.3110966
-0.84889	PUNCT SCONJ VERB	-0.4703924
-0.8448242	VERB SCONJ VERB	-0.4193677
-0.68081456	NOUN SCONJ VERB	-0.65286237
-0.76086175	PART SCONJ VERB	-0.31217766
-0.7677219	NUM SCONJ VERB	-0.31762356
-0.6053272	CCONJ SCONJ VERB	-0.31762356
-0.83686626	ADV SCONJ VERB	-0.3007245
-0.6049997	PRON SCONJ VERB	-0.33029598
-0.46232286	DET SCONJ VERB	-0.31762356
-0.46232286	SCONJ SCONJ VERB	-0.31762356
-0.44284487	NOUN SPACE VERB	-0.31762356
-0.51534784	<s> PROPN NOUN	-2.39838
-1.0683067	PROPN PROPN NOUN	-0.77583313
-1.0639756	ADP PROPN NOUN	-0.80667675
-1.0479578	PUNCT PROPN NOUN	-0.7550716
-1.0937569	VERB PROPN NOUN	-0.8410675
-1.0523527	NOUN PROPN NOUN	-0.8180895
-1.0108575	PART PROPN NOUN	-0.6695035
-0.91829467	NUM PROPN NOUN	-0.6763573
-0.87955517	CCONJ PROPN NOUN	-0.5071527
-0.9420241	ADV PROPN NOUN	-0.6077798
-0.7804148	PRON PROPN NOUN	-0.4934627
-0.87800986	DET PROPN NOUN	-0.6677321
-0.83346957	ADJ PROPN NOUN	-0.7523873
-0.8390795	X PROPN NOUN	-0.51877123
-0.74503255	SCONJ PROPN NOUN	-0.3287515
-0.69198227	SPACE PROPN NOUN	-0.31762356
-0.44198367	<s> ADP NOUN	-2.1994963
-0.9206984	PROPN ADP NOUN	-0.7732674
-0.84480494	ADP ADP NOUN	-0.5215426
-0.91613984	PUNCT ADP NOUN	-0.65141857
-0.9822376	VERB ADP NOUN	-0.79747504
-1.0476161	NOUN ADP NOUN	-0.87742335
-0.7648051	PART ADP NOUN	-0.47361404
-0.72943467	NUM ADP NOUN	-0.5930516
-0.81190056	CCONJ ADP NOUN	-0.4190657
-0.9212313	ADV ADP NOUN	-0.7533828
-0.956015	PRON ADP NOUN	-0.64898187
-0.7294571	DET ADP NOUN	-0.5525526
-0.5153326	ADJ ADP NOUN	-0.36163902
-0.76077884	X ADP NOUN	-0.30172122
-0.4853579	INTJ ADP NOUN	-0.31762356
-0.7683504	SCONJ ADP NOUN	-0.44703692
-0.71750736	<s> PUNCT NOUN	-1.6230273
-1.1031971	PROPN PUNCT NOUN	-0.7563839
-0.95830494	ADP PUNCT NOUN	-0.6048672
-1.1406652	PUNCT PUNCT NOUN	-0.5974289
-1.1441784	VERB PUNCT NOUN	-0.8086827
-1.1543497	NOUN PUNCT NOUN	-0.8736235
-1.1012046	PART PUNCT NOUN	-0.5990841
-1.0578115	NUM PUNCT NOUN	-0.6517875
-0.90676737	CCONJ PUNCT NOUN	-0.39691967
-1.0079253	ADV PUNCT NOUN	-0.54321027
-1.0565951	PRON PUNCT NOUN	-0.39559466
-0.824744	DET PUNCT NOUN	-0.6094517
-0.66512513	ADJ PUNCT NOUN	-0.5376483
-0.7385737	X PUNCT NOUN	-0.44956318
-1.0221097	INTJ PUNCT NOUN	-0.31762356
-0.6457744	SCONJ PUNCT NOUN	-0.2888241
-0.6131327	<s> VERB NOUN	-2.1506047
-1.1378723	PROPN VERB NOUN	-0.7821274
-1.0003955	ADP VERB NOUN	-0.69761896
-1.052508	PUNCT VERB NOUN	-0.7497023
-1.1387644	VERB VERB NOUN	-0.85214365
-1.1415758	NOUN VERB NOUN	-0.8907901
-1.033048	PART VERB NOUN	-0.6684963
-1.0197147	NUM VERB NOUN	-0.61856574
-0.92777234	CCONJ VERB NOUN	-0.579029
-1.1338989	ADV VERB NOUN	-0.8487999
-1.0565745	PRON VERB NOUN	-0.715261
-0.9855279	DET VERB NOUN	-0.6412814
-0.8558308	ADJ VERB NOUN	-0.5583614
-0.99524295	X VERB NOUN	-0.61334
-0.8928645	INTJ VERB NOUN	-0.31762356
-0.9976647	SCONJ VERB NOUN	-0.49697113
-0.2134027	SPACE VERB NOUN	-0.31762356
-0.5346033	<s> NOUN NOUN	-2.4432573
-1.1041484	PROPN NOUN NOUN	-0.86017674
-1.080135	ADP NOUN NOUN	-0.8301578
-1.080135	PUNCT NOUN NOUN	-0.779719
-1.0835007	VERB NOUN NOUN	-0.87602955
-1.1353726	NOUN NOUN NOUN	-0.91060704
-1.0885013	PART NOUN NOUN	-0.7117727
-1.080135	NUM NOUN NOUN	-0.7842773
-0.98001903	CCONJ NOUN NOUN	-0.5818837
-1.0166689	ADV NOUN NOUN	-0.6550598
-1.0046043	PRON NOUN NOUN	-0.6165796
-1.0989182	DET NOUN NOUN	-0.74545574
-1.1108186	ADJ NOUN NOUN	-0.8165826
-0.9087569	X NOUN NOUN	-0.6183699
-0.56978333	INTJ NOUN NOUN	-0.3110966
-0.8753808	SCONJ NOUN NOUN	-0.39171344
-0.91617167	<s> PART NOUN	-0.3205738
-0.99594563	PROPN PART NOUN	-0.8513001
-0.7830817	ADP PART NOUN	-0.30832914
-0.76269865	PUNCT PART NOUN	-0.59397936
-1.119977	VERB PART NOUN	-0.87602955
-1.093601	NOUN PART NOUN	-0.8948128
-0.77157897	PART PART NOUN	-0.58627266
-0.87501997	NUM PART NOUN	-0.7373867
-1.0164042	CCONJ PART NOUN	-0.30679923
-0.8856773	ADV PART NOUN	-0.57844204
-0.8927962	PRON PART NOUN	-0.7675701
-0.59050673	DET PART NOUN	-0.68685263
-0.8426155	ADJ PART NOUN	-0.7869213
-0.44112122	X PART NOUN	-0.2938449
-0.8991781	INTJ PART NOUN	-0.31762353
-0.52305394	<s> NUM NOUN	-1.7222522
-0.89503115	PROPN NUM NOUN	-0.6787453
-0.90395635	ADP NUM NOUN	-0.6559661
-0.90050465	PUNCT NUM NOUN	-0.6503576
-1.0232242	VERB NUM NOUN	-0.79125047
-0.96954846	NOUN NUM NOUN	-0.73740375
-0.773353	PART NUM NOUN	-0.53436846
-1.1006963	NUM NUM NOUN	-0.8598761
-0.8169386	CCONJ NUM NOUN	-0.56541646
-0.8978834	ADV NUM NOUN	-0.6917103
-0.8275604	PRON NUM NOUN	-0.4047985
-0.9209853	DET NUM NOUN	-0.756532
-0.63707244	ADJ NUM NOUN	-0.5669901
-0.7288926	X NUM NOUN	-0.4781446
-0.6337706	SCONJ NUM NOUN	-0.2988066
-0.6624	<s> CCONJ NOUN	-1.0894892
-0.824931	PROPN CCONJ NOUN	-0.64428675
-0.62821096	ADP CCONJ NOUN	-0.31037745
-0.98478436	PUNCT CCONJ NOUN	-0.45099375
-0.867794	VERB CCONJ NOUN	-0.6587033
-1.0136048	NOUN CCONJ NOUN	-0.8513471
-0.9514165	PART CCONJ NOUN	-0.30679923
-0.6837183	NUM CCONJ NOUN	-0.39113936
-0.9528921	CCONJ CCONJ NOUN	-0.31762353
-0.75587225	ADV CCONJ NOUN	-0.45871997
-0.73357654	PRON CCONJ NOUN	-0.52632403
-0.476336	DET CCONJ NOUN	-0.31762356
-0.62461007	ADJ CCONJ NOUN	-0.34940362
-0.7240092	SCONJ CCONJ NOUN	-0.31762356
-0.9822815	<s> ADV NOUN	-2.013861
-1.1214876	PROPN ADV NOUN	-0.5981751
-0.9671943	ADP ADV NOUN	-0.5115635
-1.091954	PUNCT ADV NOUN	-0.6076481
-1.0553389	VERB ADV NOUN	-0.62710893
-1.090474	NOUN ADV NOUN	-0.7199251
-1.120329	PART ADV NOUN	-0.3282151
-0.98556435	NUM ADV NOUN	-0.35547826
-0.9485872	CCONJ ADV NOUN	-0.33475065
-1.0942612	ADV ADV NOUN	-0.54539293
-1.1791455	PRON ADV NOUN	-0.47670224
-0.964343	DET ADV NOUN	-0.39883617
-0.7196706	ADJ ADV NOUN	-0.29282323
-0.9717405	X ADV NOUN	-0.29398316
-1.3881809	SCONJ ADV NOUN	-0.30466637
-1.3860475	<s> PRON NOUN	-1.4368112
-0.7735692	PROPN PRON NOUN	-0.45190603
-0.9858077	ADP PRON NOUN	-0.63716865
-1.0946167	PUNCT PRON NOUN	-0.5506502
-1.0774361	VERB PRON NOUN	-0.6536305
-0.9785937	NOUN PRON NOUN	-0.4756852
-1.0176976	PART PRON NOUN	-0.3242056
-1.0439827	NUM PRON NOUN	-0.31295148
-0.9967942	CCONJ PRON NOUN	-0.35234028
-1.0576348	ADV PRON NOUN	-0.390449
-0.9555419	PRON PRON NOUN	-0.34860253
-0.8792013	DET PRON NOUN	-0.30832914
-0.9969953	ADJ PRON NOUN	-0.31762356
-0.8638777	X PRON NOUN	-0.3384195
-1.0522187	SCONJ PRON NOUN	-0.29061055
-0.2234805	<s> DET NOUN	-2.0774417
-0.7892919	PROPN DET NOUN	-0.62080836
-0.9243157	ADP DET NOUN	-0.72338194
-0.8456178	PUNCT DET NOUN	-0.6395403
-0.96418506	VERB DET NOUN	-0.7675701
-0.8637021	NOUN DET NOUN	-0.7111195
-0.817847	PART DET NOUN	-0.5182426
-0.5200084	NUM DET NOUN	-0.50567186
-0.86703813	CCONJ DET NOUN	-0.5150067
-0.8382493	ADV DET NOUN	-0.56752324
-0.7446174	PRON DET NOUN	-0.52791464
-0.73703533	DET DET NOUN	-0.601543
-0.5026187	ADJ DET NOUN	-0.4593562
-0.7867221	X DET NOUN	-0.5100887
-0.20837429	INTJ DET NOUN	-0.31762356
-0.6450399	SCONJ DET NOUN	-0.33844492
-0.13582808	<s> ADJ NOUN	-1.742757
-0.70780694	PROPN ADJ NOUN	-0.7808695
-0.77347165	ADP ADJ NOUN	-0.7291966
-0.8326145	PUNCT ADJ NOUN	-0.6449553
-0.9033707	VERB ADJ NOUN	-0.7944547
-0.81219125	NOUN ADJ NOUN	-0.8000716
-0.7672817	PART ADJ NOUN	-0.6705975
-0.6511518	NUM ADJ NOUN	-0.71379745
-0.5884524	CCONJ ADJ NOUN	-0.5356297
-0.70766556	ADV ADJ NOUN	-0.6872201
-0.54470783	PRON ADJ NOUN	-0.6260702
-0.65220124	DET ADJ NOUN	-0.72752786
-0.37214994	ADJ ADJ NOUN	-0.7166277
-0.30839518	X ADJ NOUN	-0.55028886
-0.39027944	SCONJ ADJ NOUN	-0.35177982
-0.39481124	<s> X NOUN	-0.92511606
-0.9215065	PROPN X NOUN	-0.4102554
-0.7182768	ADP X NOUN	-0.36551657
-0.7510931	PUNCT X NOUN	-0.48237103
-0.89713204	VERB X NOUN	-0.55767953
-0.89018214	NOUN X NOUN	-0.64293796
-0.8446979	PART X NOUN	-0.3793681
-0.62567014	NUM X NOUN	-0.37353083
-0.68801725	CCONJ X NOUN	-0.33378124
-0.8215762	ADV X NOUN	-0.5901289
-0.7619491	PRON X NOUN	-0.4515046
-0.8413269	DET X NOUN	-0.368587
-0.67352706	ADJ X NOUN	-0.31762356
-0.62571657	X X NOUN	-0.28940573
-0.6286785	SCONJ X NOUN	-0.27958286
-1.2221407	<s> INTJ NOUN	-0.3110966
-1.0576303	PUNCT INTJ NOUN	-0.31762356
-0.5758368	VERB INTJ NOUN	-0.31762353
-0.5758368	NOUN INTJ NOUN	-0.31762356
-0.18535012	CCONJ INTJ NOUN	-0.31762356
-0.72549206	ADV INTJ NOUN	-0.31762356
-0.6344947	DET INTJ NOUN	-0.31762356
-0.2927884	ADJ INTJ NOUN	-0.31762356
-0.6128462	<s> SCONJ NOUN	-1.4325473
-0.8969832	PROPN SCONJ NOUN	-0.3110966
-1.0067264	ADP SCONJ NOUN	-0.3094801
-0.9128462	PUNCT SCONJ NOUN	-0.48918402
-0.815476	VERB SCONJ NOUN	-0.48375323
-0.8078987	NOUN SCONJ NOUN	-0.2828816
-0.80512196	PART SCONJ NOUN	-0.30679923
-0.8016792	NUM SCONJ NOUN	-0.31762356
-0.7805104	ADV SCONJ NOUN	-0.29771867
-1.0738212	PRON SCONJ NOUN	-0.31762353
-0.51804197	VERB SPACE NOUN	-0.31762356
-1.2121843	<s> PROPN PART	-1.8392814
-1.06892	PROPN PROPN PART	-0.70515966
-1.0943755	ADP PROPN PART	-0.71939194
-1.1102293	PUNCT PROPN PART	-0.62821734
-1.094349	VERB PROPN PART	-0.771169
-1.142414	NOUN PROPN PART	-0.6940766
-1.0902653	PART PROPN PART	-0.47830987
-0.9188496	NUM PROPN PART	-0.58176684
-0.96696216	CCONJ PROPN PART	-0.42437384
-1.0220561	ADV PROPN PART	-0.4664397
-1.0524282	PRON PROPN PART	-0.31464154
-0.94611055	DET PROPN PART	-0.54163647
-1.0596762	ADJ PROPN PART	-0.41376287
-0.91383755	X PROPN PART	-0.43258438
-1.0015086	INTJ PROPN PART	-0.31762356
-1.1464419	SCONJ PROPN PART	-0.29584688
-3.2351468	<s> ADP PART	-0.29398316
-1.5665077	PROPN ADP PART	-0.31762356
-1.8141359	PUNCT ADP PART	-0.3094801
-1.4997449	VERB ADP PART	-0.39668375
-1.4065627	NOUN ADP PART	-0.48911783
-1.55956	PART ADP PART	-0.31762356
-1.3556038	ADV ADP PART	-0.2988066
-1.8534048	PRON ADP PART	-0.30679923
-1.7248079	DET ADP PART	-0.31762356
-1.3000005	X ADP PART	-0.31762356
-2.3085918	<s> PUNCT PART	-0.809453
-1.1744426	PROPN PUNCT PART	-0.594188
-1.6003082	ADP PUNCT PART	-0.30679923
-1.2927239	PUNCT PUNCT PART	-0.38114953
-1.2154238	VERB PUNCT PART	-0.5172264
-1.2255951	NOUN PUNCT PART	-0.68132
-1.4215863	PART PUNCT PART	-0.3287515
-1.2295576	NUM PUNCT PART	-0.45164812
-1.5101931	ADV PUNCT PART	-0.29584688
-1.3808482	PRON PUNCT PART	-0.41892192
-1.6299951	DET PUNCT PART	-0.31762353
-1.5026933	ADJ PUNCT PART	-0.30148655
-1.3335829	INTJ PUNCT PART	-0.31762356
-1.0581408	<s> VERB PART	-1.7296904
-1.1410408	PROPN VERB PART	-0.8069618
-1.0655352	ADP VERB PART	-0.6674805
-1.0555588	PUNCT VERB PART	-0.692001
-1.1418741	VERB VERB PART	-0.8215605
-1.172392	NOUN VERB PART	-0.89679116
-1.0361813	PART VERB PART	-0.6940766
-1.0550578	NUM VERB PART	-0.6111291
-0.9692945	CCONJ VERB PART	-0.48041314
-1.1371912	ADV VERB PART	-0.8314989
-1.0873805	PRON VERB PART	-0.7963269
-1.0209067	DET VERB PART	-0.5504549
-0.79071975	ADJ VERB PART	-0.49890962
-0.99873936	X VERB PART	-0.67306095
-0.900609	INTJ VERB PART	-0.31762356
-1.181734	SCONJ VERB PART	-0.3755393
-1.113993	<s> NOUN PART	-1.9260116
-1.1326935	PROPN NOUN PART	-0.8126671
-1.052766	ADP NOUN PART	-0.77583313
-1.0807419	PUNCT NOUN PART	-0.6626841
-1.1382084	VERB NOUN PART	-0.8524342
-1.1359639	NOUN NOUN PART	-0.8649556
-1.0570862	PART NOUN PART	-0.6419645
-1.0807419	NUM NOUN PART	-0.7605026
-1.0184939	CCONJ NOUN PART	-0.5777656
-1.0173191	ADV NOUN PART	-0.6847265
-0.9753517	PRON NOUN PART	-0.625369
-1.0995252	DET NOUN PART	-0.7778074
-1.111449	ADJ NOUN PART	-0.8007958
-1.0147548	X NOUN PART	-0.4863307
-1.1112719	INTJ NOUN PART	-0.31762356
-1.0066698	SCONJ NOUN PART	-0.3531208
-1.957033	<s> PART PART	-0.31762356
-1.0574529	PROPN PART PART	-0.6126225
-0.9765897	ADP PART PART	-0.28262872
-1.1730012	PUNCT PART PART	-0.35998842
-1.1207377	VERB PART PART	-0.7010303
-1.1510128	NOUN PART PART	-0.81843257
-1.2499695	PART PART PART	-0.30832914
-1.0085555	NUM PART PART	-0.40345415
-1.102953	CCONJ PART PART	-0.31762356
-1.118552	ADV PART PART	-0.296969
-1.0938818	PRON PART PART	-0.42474106
-1.5526633	DET PART PART	-0.31762356
-1.7053572	ADJ PART PART	-0.30148655
-1.1014838	X PART PART	-0.31762356
-0.99178517	INTJ PART PART	-0.31762356
-1.5411394	<s> NUM PART	-1.1922234
-1.0004697	PROPN NUM PART	-0.49796486
-1.0201843	ADP NUM PART	-0.42544878
-1.0618266	PUNCT NUM PART	-0.4190082
-1.1277457	VERB NUM PART	-0.5569181
-1.0318483	NOUN NUM PART	-0.48782775
-1.3820245	PART NUM PART	-0.30786958
-1.1013427	NUM NUM PART	-0.7834807
-1.0823926	CCONJ NUM PART	-0.3771441
-0.9604594	ADV NUM PART	-0.49096143
-0.82839763	PRON NUM PART	-0.51583195
-1.0178288	DET NUM PART	-0.46427324
-1.2976732	ADJ NUM PART	-0.28262872
-1.1095747	X NUM PART	-0.28940573
-1.1403558	SCONJ NUM PART	-0.30148655
-2.1558096	<s> CCONJ PART	-0.368587
-1.8460144	PROPN CCONJ PART	-0.31762356
-1.7823378	PUNCT CCONJ PART	-0.31762356
-1.8811736	VERB CCONJ PART	-0.31762356
-1.2647662	NOUN CCONJ PART	-0.34705487
-1.3158048	PART CCONJ PART	-0.31762356
-1.0262585	CCONJ CCONJ PART	-0.31762356
-1.6956242	PRON CCONJ PART	-0.31762356
-2.2738097	<s> ADV PART	-0.88505226
-1.2189777	PROPN ADV PART	-0.44769186
-1.3724649	ADP ADV PART	-0.28638062
-1.1794178	PUNCT ADV PART	-0.42875674
-1.1226416	VERB ADV PART	-0.5328715
-1.1525971	NOUN ADV PART	-0.5993702
-1.4252181	PART ADV PART	-0.30679923
-1.346607	NUM ADV PART	-0.30786958
-1.5895116	CCONJ ADV PART	-0.31762356
-1.2321965	ADV ADV PART	-0.3864222
-1.2379036	PRON ADV PART	-0.3730582
-1.4651293	DET ADV PART	-0.30679923
-1.3604825	ADJ ADV PART	-0.31762356
-0.97320735	X ADV PART	-0.3094801
-1.4547976	SCONJ ADV PART	-0.31762356
-1.1774645	<s> PRON PART	-1.6957148
-0.95044994	PROPN PRON PART	-0.43735957
-0.9836872	ADP PRON PART	-0.626778
-0.98025435	PUNCT PRON PART	-0.5581043
-1.0750775	VERB PRON PART	-0.6907618
-1.0099462	NOUN PRON PART	-0.48990992
-1.0130701	PART PRON PART	-0.3704805
-0.8526333	NUM PRON PART	-0.3261581
-0.8657342	CCONJ PRON PART	-0.38620704
-0.9591326	ADV PRON PART	-0.46809855
-0.83742946	PRON PRON PART	-0.5330072
-1.1397457	DET PRON PART	-0.28940573
-0.98919076	ADJ PRON PART	-0.31762356
-0.81493783	X PRON PART	-0.5029682
-0.6246222	INTJ PRON PART	-0.31762356
-0.94223356	SCONJ PRON PART	-0.39668375
-2.0495257	<s> DET PART	-0.88116413
-1.2205528	PROPN DET PART	-0.45871997
-1.2328995	ADP DET PART	-0.48911783
-1.2711533	PUNCT DET PART	-0.4355338
-1.1044102	VERB DET PART	-0.5458701
-1.2012417	NOUN DET PART	-0.39755362
-1.2714149	PART DET PART	-0.28262872
-1.1553595	NUM DET PART	-0.28262872
-1.2412311	CCONJ DET PART	-0.3469994
-1.0238008	ADV DET PART	-0.44309703
-0.85195166	PRON DET PART	-0.48911783
-1.2287492	DET DET PART	-0.3094801
-1.4538133	X DET PART	-0.3094801
-1.0126383	SCONJ DET PART	-0.2715635
-0.78058213	<s> ADJ PART	-1.4220839
-0.7702012	PROPN ADJ PART	-0.5767441
-0.80629617	ADP ADJ PART	-0.62569636
-0.8996838	PUNCT ADJ PART	-0.57827115
-0.9335007	VERB ADJ PART	-0.6556985
-0.8745369	NOUN ADJ PART	-0.5462355
-0.8789724	PART ADJ PART	-0.43695036
-0.71499115	NUM ADJ PART	-0.55986816
-0.76790285	CCONJ ADJ PART	-0.3836965
-0.67802864	ADV ADJ PART	-0.5981751
-0.6638605	PRON ADJ PART	-0.4837257
-0.6526989	DET ADJ PART	-0.63687384
-0.88588053	ADJ ADJ PART	-0.33584386
-0.8014552	X ADJ PART	-0.41892192
-0.68459123	SCONJ ADJ PART	-0.39650226
-2.4593065	<s> X PART	-0.31762356
-1.4564024	PROPN X PART	-0.2715635
-1.2878779	VERB X PART	-0.2715635
-1.6640748	NOUN X PART	-0.29282323
-1.7765453	ADV X PART	-0.30148655
-0.8602239	ADJ X PART	-0.31762356
-1.1065794	X X PART	-0.30148655
-1.1482997	<s> INTJ PART	-0.31295148
-1.2530037	PUNCT INTJ PART	-0.31762356
-0.80429995	ADV INTJ PART	-0.31762356
-0.480044	PRON INTJ PART	-0.31762356
-0.5966092	DET INTJ PART	-0.30148655
-1.8357351	<s> PROPN NUM	-1.2410064
-1.1650927	PROPN PROPN NUM	-0.6026268
-1.1984221	ADP PROPN NUM	-0.55328876
-1.182108	PUNCT PROPN NUM	-0.52998555
-1.1242123	VERB PROPN NUM	-0.6232341
-1.142414	NOUN PROPN NUM	-0.61210644
-1.1863898	PART PROPN NUM	-0.41410094
-1.3738191	NUM PROPN NUM	-0.28299406
-1.3153318	CCONJ PROPN NUM	-0.28522277
-1.1191832	ADV PROPN NUM	-0.42556965
-1.5947208	PRON PROPN NUM	-0.31762356
-1.3321313	DET PROPN NUM	-0.30832914
-1.4241614	ADJ PROPN NUM	-0.30466637
-1.186243	X PROPN NUM	-0.33378124
-1.3207171	SCONJ PROPN NUM	-0.3094801
-0.8079678	SPACE PROPN NUM	-0.31762356
-1.3820322	<s> ADP NUM	-1.406366
-1.0471926	PROPN ADP NUM	-0.5368206
-1.0499238	ADP ADP NUM	-0.45871997
-1.1586338	PUNCT ADP NUM	-0.4138783
-1.0153375	VERB ADP NUM	-0.5870361
-1.0513436	NOUN ADP NUM	-0.6286433
-1.175646	PART ADP NUM	-0.29584688
-1.1959585	NUM ADP NUM	-0.33213812
-1.1306882	CCONJ ADP NUM	-0.35577092
-1.0590786	ADV ADP NUM	-0.5281933
-1.1199048	PRON ADP NUM	-0.42556965
-1.1599034	DET ADP NUM	-0.28940573
-1.2213136	X ADP NUM	-0.31762356
-0.48910388	INTJ ADP NUM	-0.31762356
-1.1391214	SCONJ ADP NUM	-0.2888241
-1.6506772	<s> PUNCT NUM	-1.0230291
-1.2443497	PROPN PUNCT NUM	-0.5637899
-1.2038354	ADP PUNCT NUM	-0.48007578
-1.1902066	PUNCT PUNCT NUM	-0.50319135
-1.1800712	VERB PUNCT NUM	-0.60501456
-1.2225751	NOUN PUNCT NUM	-0.71592265
-1.2074801	PART PUNCT NUM	-0.42099684
-1.0644667	NUM PUNCT NUM	-0.64996713
-1.1767913	CCONJ PUNCT NUM	-0.28633532
-1.2519871	ADV PUNCT NUM	-0.46748725
-1.3734494	PRON PUNCT NUM	-0.29584688
-1.0359361	DET PUNCT NUM	-0.2778519
-1.2977014	ADJ PUNCT NUM	-0.30679923
-1.5024846	X PUNCT NUM	-0.31762356
-1.1626291	<s> VERB NUM	-1.6487865
-1.1410408	PROPN VERB NUM	-0.6241673
-1.2254592	ADP VERB NUM	-0.5249133
-1.152133	PUNCT VERB NUM	-0.5445972
-1.1418741	VERB VERB NUM	-0.69590336
-1.172392	NOUN VERB NUM	-0.79804635
-1.1824958	PART VERB NUM	-0.45166072
-1.1686236	NUM VERB NUM	-0.48373687
-1.2342829	CCONJ VERB NUM	-0.38353488
-1.1371912	ADV VERB NUM	-0.71592045
-1.1493218	PRON VERB NUM	-0.5639213
-1.136214	DET VERB NUM	-0.55562997
-1.7107724	ADJ VERB NUM	-0.31762356
-1.1123053	X VERB NUM	-0.6099877
-0.900609	INTJ VERB NUM	-0.31762356
-1.1132722	SCONJ VERB NUM	-0.4265951
-1.5923976	<s> NOUN NUM	-1.5967795
-1.1651952	PROPN NOUN NUM	-0.6365475
-1.1804732	ADP NOUN NUM	-0.579029
-1.1804732	PUNCT NOUN NUM	-0.53435487
-1.1707016	VERB NOUN NUM	-0.6241673
-1.1963217	NOUN NOUN NUM	-0.71030796
-1.2064922	PART NOUN NUM	-0.48218894
-1.1804732	NUM NOUN NUM	-0.53719383
-1.2195005	CCONJ NOUN NUM	-0.3450295
-1.166725	ADV NOUN NUM	-0.5057042
-1.2521657	PRON NOUN NUM	-0.4907328
-1.278834	DET NOUN NUM	-0.45764118
-1.2108849	ADJ NOUN NUM	-0.5976132
-1.2176732	X NOUN NUM	-0.3795387
-1.340553	SCONJ NOUN NUM	-0.30466637
-1.9289335	<s> PART NUM	-0.31762356
-1.1408738	PROPN PART NUM	-0.5576796
-1.0471201	PUNCT PART NUM	-0.43246335
-1.102443	VERB PART NUM	-0.70429945
-1.1611722	NOUN PART NUM	-0.71668416
-1.023196	PART PART NUM	-0.42421073
-1.1085742	NUM PART NUM	-0.43350515
-1.1360387	ADV PART NUM	-0.46491536
-0.9925063	PRON PART NUM	-0.6480632
-1.342076	DET PART NUM	-0.30679923
-0.9141012	ADJ PART NUM	-0.6720409
-1.0310775	INTJ PART NUM	-0.31762356
-0.39318827	<s> NUM NUM	-1.8640811
-0.8375956	PROPN NUM NUM	-0.68645966
-0.87194437	ADP NUM NUM	-0.7276884
-0.90112877	PUNCT NUM NUM	-0.677471
-1.0238746	VERB NUM NUM	-0.82150054
-0.97015584	NOUN NUM NUM	-0.80365026
-0.8536095	PART NUM NUM	-0.5906987
-1.1308899	NUM NUM NUM	-0.6933973
-0.90522826	CCONJ NUM NUM	-0.5494524
-0.9604594	ADV NUM NUM	-0.71327096
-0.58154297	PRON NUM NUM	-0.5586645
-0.9215888	DET NUM NUM	-0.73612696
-0.6375402	ADJ NUM NUM	-0.5805625
-0.5992655	X NUM NUM	-0.4554583
-0.6345271	SCONJ NUM NUM	-0.32278642
-1.0166816	<s> CCONJ NUM	-0.8561912
-1.0591576	PROPN CCONJ NUM	-0.5262385
-1.0379922	ADP CCONJ NUM	-0.31762356
-1.0541569	PUNCT CCONJ NUM	-0.40962276
-1.1015054	VERB CCONJ NUM	-0.39938715
-1.0552793	NOUN CCONJ NUM	-0.61738384
-0.8554399	PART CCONJ NUM	-0.2888241
-0.61781645	NUM CCONJ NUM	-0.57033336
-0.8842646	ADV CCONJ NUM	-0.35074854
-0.98676157	PRON CCONJ NUM	-0.4355338
-0.48961744	DET CCONJ NUM	-0.31762356
-1.5652766	<s> ADV NUM	-1.5649868
-1.0088096	PROPN ADV NUM	-0.48568514
-0.96805084	ADP ADV NUM	-0.5000409
-1.0928224	PUNCT ADV NUM	-0.4999523
-1.0880557	VERB ADV NUM	-0.7301686
-1.1207888	NOUN ADV NUM	-0.65463084
-0.9449497	PART ADV NUM	-0.39691967
-1.038435	NUM ADV NUM	-0.38573414
-0.8885337	CCONJ ADV NUM	-0.40801445
-1.0951414	ADV ADV NUM	-0.5091242
-1.1295031	PRON ADV NUM	-0.46804655
-1.2294577	DET ADV NUM	-0.3464011
-1.3604825	ADJ ADV NUM	-0.31762356
-0.97320735	X ADV NUM	-0.39650226
-1.0751112	SCONJ ADV NUM	-0.28262872
-2.272246	<s> PRON NUM	-1.0343621
-1.6846943	PROPN PRON NUM	-0.31762356
-1.3035651	ADP PRON NUM	-0.43958026
-1.3338499	PUNCT PRON NUM	-0.38573414
-1.2350066	VERB PRON NUM	-0.44703358
-1.4096651	NOUN PRON NUM	-0.28940573
-1.363883	PART PRON NUM	-0.3110966
-1.2075782	CCONJ PRON NUM	-0.39650226
-1.2025845	ADV PRON NUM	-0.33378124
-1.6750789	PRON PRON NUM	-0.31762356
-1.2523634	X PRON NUM	-0.28262872
-1.4196055	SCONJ PRON NUM	-0.30148655
-0.6121694	<s> DET NUM	-1.791346
-0.79263353	PROPN DET NUM	-0.5189447
-0.95983905	ADP DET NUM	-0.59023166
-0.9630282	PUNCT DET NUM	-0.5088346
-0.9972872	VERB DET NUM	-0.6625732
-0.86699027	NOUN DET NUM	-0.6635205
-0.8634946	PART DET NUM	-0.43324864
-0.66886276	NUM DET NUM	-0.41091233
-0.8717732	CCONJ DET NUM	-0.51935625
-0.92159593	ADV DET NUM	-0.5111458
-0.74869376	PRON DET NUM	-0.51324475
-1.0424567	DET DET NUM	-0.3869964
-0.83631015	ADJ DET NUM	-0.3552746
-0.7915321	X DET NUM	-0.5811381
-0.8515781	SCONJ DET NUM	-0.34310782
-1.887384	<s> ADJ NUM	-0.6318284
-1.2974166	PROPN ADJ NUM	-0.36246777
-1.0274652	ADP ADJ NUM	-0.49348208
-1.0844817	PUNCT ADJ NUM	-0.4935257
-1.0859162	VERB ADJ NUM	-0.5692194
-1.0421993	NOUN ADJ NUM	-0.50484276
-0.98434436	PART ADJ NUM	-0.55562997
-1.0012419	NUM ADJ NUM	-0.33523756
-0.9914416	CCONJ ADJ NUM	-0.3795387
-0.86286646	ADV ADJ NUM	-0.5788819
-0.7727653	PRON ADJ NUM	-0.46491536
-1.5547793	DET ADJ NUM	-0.31762356
-1.3704182	ADJ ADJ NUM	-0.31762356
-1.4864333	<s> X NUM	-0.47414654
-1.1345714	PROPN X NUM	-0.35081518
-1.3204871	ADP X NUM	-0.31762356
-1.104338	PUNCT X NUM	-0.31353274
-1.3164937	VERB X NUM	-0.3795387
-1.0429184	NOUN X NUM	-0.4102554
-0.9410861	PART X NUM	-0.29398316
-1.2734792	NUM X NUM	-0.31762356
-1.1333419	CCONJ X NUM	-0.31762353
-0.98974264	ADV X NUM	-0.5256667
-1.2835338	PRON X NUM	-0.2888241
-1.2881391	DET X NUM	-0.31762356
-1.1839563	SCONJ X NUM	-0.31762356
-1.6046968	<s> SCONJ NUM	-0.7190606
-1.2010115	ADP SCONJ NUM	-0.31762356
-1.471606	PUNCT SCONJ NUM	-0.30148655
-1.2330028	VERB SCONJ NUM	-0.28262872
-1.1594039	NOUN SCONJ NUM	-0.28328648
-1.0930606	ADV SCONJ NUM	-0.28262872
-1.6699833	<s> PROPN CCONJ	-1.4512815
-1.1010826	PROPN PROPN CCONJ	-0.6009577
-1.0967537	ADP PROPN CCONJ	-0.63361526
-1.1475089	PUNCT PROPN CCONJ	-0.56825244
-1.1265388	VERB PROPN CCONJ	-0.6556985
-1.1796936	NOUN PROPN CCONJ	-0.6241727
-1.1393464	PART PROPN CCONJ	-0.4476799
-1.1163182	NUM PROPN CCONJ	-0.47826618
-1.22635	CCONJ PROPN CCONJ	-0.36163902
-1.1230798	ADV PROPN CCONJ	-0.44769186
-1.1406628	PRON PROPN CCONJ	-0.30148655
-1.1279256	DET PROPN CCONJ	-0.47414654
-1.2452754	ADJ PROPN CCONJ	-0.35081518
-1.0062841	X PROPN CCONJ	-0.54669726
-1.1551726	SCONJ PROPN CCONJ	-0.28328648
-3.266671	<s> ADP CCONJ	-0.29398316
-1.615832	PROPN ADP CCONJ	-0.30466637
-1.9205697	PUNCT ADP CCONJ	-0.31762356
-2.024982	VERB ADP CCONJ	-0.30148655
-1.5993481	NOUN ADP CCONJ	-0.368587
-2.0571017	ADV ADP CCONJ	-0.31762356
-2.6280732	<s> PUNCT CCONJ	-0.43414956
-1.1710607	PROPN PUNCT CCONJ	-0.55283195
-1.8022596	ADP PUNCT CCONJ	-0.31762356
-1.4130672	PUNCT PUNCT CCONJ	-0.34479737
-1.2849028	VERB PUNCT CCONJ	-0.5163427
-1.1899066	NOUN PUNCT CCONJ	-0.72323954
-1.5107086	PART PUNCT CCONJ	-0.2995197
-1.1786394	NUM PUNCT CCONJ	-0.3602958
-1.4860047	CCONJ PUNCT CCONJ	-0.3110966
-1.628174	ADV PUNCT CCONJ	-0.31762356
-1.4732144	PRON PUNCT CCONJ	-0.29821333
-1.6109859	DET PUNCT CCONJ	-0.31762356
-1.5542855	ADJ PUNCT CCONJ	-0.31762356
-1.3145032	INTJ PUNCT CCONJ	-0.31762356
-2.344795	<s> VERB CCONJ	-0.83121276
-1.205296	PROPN VERB CCONJ	-0.5400697
-1.2288938	ADP VERB CCONJ	-0.44236058
-1.154814	PUNCT VERB CCONJ	-0.48892823
-1.1740245	VERB VERB CCONJ	-0.56998634
-1.1746542	NOUN VERB CCONJ	-0.6579131
-1.2317604	PART VERB CCONJ	-0.3991618
-1.3273947	NUM VERB CCONJ	-0.32408684
-1.2393299	CCONJ VERB CCONJ	-0.3869964
-1.201277	ADV VERB CCONJ	-0.6063821
-1.311908	PRON VERB CCONJ	-0.43219945
-1.3668113	DET VERB CCONJ	-0.44772518
-1.1030896	ADJ VERB CCONJ	-0.42093143
-1.1614351	X VERB CCONJ	-0.41523552
-1.3704108	SCONJ VERB CCONJ	-0.3094801
-1.6494328	<s> NOUN CCONJ	-1.5089519
-1.164868	PROPN NOUN CCONJ	-0.72926515
-1.1129165	ADP NOUN CCONJ	-0.67924094
-1.1452065	PUNCT NOUN CCONJ	-0.5952283
-1.1403698	VERB NOUN CCONJ	-0.77532285
-1.1660395	NOUN NOUN CCONJ	-0.83821
-1.1644665	PART NOUN CCONJ	-0.6656511
-1.1129165	NUM NOUN CCONJ	-0.61098707
-1.1604482	CCONJ NOUN CCONJ	-0.3516308
-1.1246994	ADV NOUN CCONJ	-0.47986114
-1.0747011	PRON NOUN CCONJ	-0.41481426
-1.1016454	DET NOUN CCONJ	-0.6045816
-1.1136514	ADJ NOUN CCONJ	-0.7159051
-1.0174416	X NOUN CCONJ	-0.54461104
-1.0109372	SCONJ NOUN CCONJ	-0.33836168
-1.926052	PROPN PART CCONJ	-0.31762356
-1.7232125	PUNCT PART CCONJ	-0.31762356
-1.2777345	VERB PART CCONJ	-0.40533173
-1.2041028	NOUN PART CCONJ	-0.49343976
-1.714266	PART PART CCONJ	-0.31762356
-1.8858256	NUM PART CCONJ	-0.31762356
-1.8153929	ADV PART CCONJ	-0.31762356
-1.8606696	PRON PART CCONJ	-0.31762353
-1.893757	ADJ PART CCONJ	-0.31762356
-2.5601163	<s> NUM CCONJ	-0.6257092
-1.2829142	PROPN NUM CCONJ	-0.3001158
-1.1927104	ADP NUM CCONJ	-0.5446783
-1.2577134	PUNCT NUM CCONJ	-0.4874065
-1.1386892	VERB NUM CCONJ	-0.5515339
-1.1568103	NOUN NUM CCONJ	-0.5480908
-1.4198306	PART NUM CCONJ	-0.28940573
-1.2455556	NUM NUM CCONJ	-0.4547652
-1.4246398	CCONJ NUM CCONJ	-0.30679923
-1.244866	ADV NUM CCONJ	-0.5836587
-1.5184382	DET NUM CCONJ	-0.30148655
-1.5511214	X NUM CCONJ	-0.31762356
-2.7948766	<s> CCONJ CCONJ	-0.31762356
-1.941426	PUNCT CCONJ CCONJ	-0.31762356
-2.040262	VERB CCONJ CCONJ	-0.31762356
-1.4124855	NOUN CCONJ CCONJ	-0.40196767
-2.6340022	<s> ADV CCONJ	-0.60667527
-1.4449891	PROPN ADV CCONJ	-0.3110966
-1.7706031	ADP ADV CCONJ	-0.31762356
-1.3733994	PUNCT ADV CCONJ	-0.28299406
-1.4407988	VERB ADV CCONJ	-0.30679923
-1.2353692	NOUN ADV CCONJ	-0.43061605
-1.4628878	PART ADV CCONJ	-0.3094801
-1.7482698	NUM ADV CCONJ	-0.31762356
-1.3752656	ADV ADV CCONJ	-0.29584688
-1.4059279	PRON ADV CCONJ	-0.3094801
-1.7447515	DET ADV CCONJ	-0.31762356
-1.4067761	ADJ ADV CCONJ	-0.31762356
-2.1944046	<s> PRON CCONJ	-0.87029153
-1.6609341	PROPN PRON CCONJ	-0.31762356
-1.2971463	ADP PRON CCONJ	-0.4673465
-1.1495402	PUNCT PRON CCONJ	-0.46283534
-1.1887025	VERB PRON CCONJ	-0.49623168
-1.2540298	NOUN PRON CCONJ	-0.29473355
-1.3490298	PART PRON CCONJ	-0.30832914
-1.3849031	NUM PRON CCONJ	-0.31762356
-1.5666016	CCONJ PRON CCONJ	-0.31762356
-1.3729237	ADV PRON CCONJ	-0.3298713
-1.2371514	PRON PRON CCONJ	-0.2715635
-1.6044289	X PRON CCONJ	-0.31762356
-1.4005661	SCONJ PRON CCONJ	-0.31762356
-2.1237192	VERB DET CCONJ	-0.31762356
-2.7780917	<s> ADJ CCONJ	-0.31762353
-1.6021056	PROPN ADJ CCONJ	-0.30148655
-1.3493127	ADP ADJ CCONJ	-0.30466637
-1.400543	PUNCT ADJ CCONJ	-0.3110966
-1.1878139	VERB ADJ CCONJ	-0.5064047
-1.7046671	NOUN ADJ CCONJ	-0.31762356
-1.4167961	PART ADJ CCONJ	-0.28262872
-1.4184853	NUM ADJ CCONJ	-0.3110966
-1.4202996	CCONJ ADJ CCONJ	-0.31762356
-1.5985978	ADV ADJ CCONJ	-0.30148655
-1.5414889	PRON ADJ CCONJ	-0.31762356
-1.5724375	DET ADJ CCONJ	-0.31762353
-1.9220217	PROPN X CCONJ	-0.31762356
-1.3881133	PUNCT INTJ CCONJ	-0.31762356
-3.3581963	<s> SCONJ CCONJ	-0.31762356
-1.8821199	PUNCT SCONJ CCONJ	-0.31762356
-1.73183	NOUN SCONJ CCONJ	-0.31762356
-1.1330978	<s> PROPN ADV	-1.8668101
-1.1010826	PROPN PROPN ADV	-0.55908793
-1.1289264	ADP PROPN ADV	-0.5832895
-1.1475089	PUNCT PROPN ADV	-0.57717085
-1.1265388	VERB PROPN ADV	-0.6194386
-1.1129175	NOUN PROPN ADV	-0.6473649
-1.0143658	PART PROPN ADV	-0.50725913
-1.0695643	NUM PROPN ADV	-0.4815677
-1.22635	CCONJ PROPN ADV	-0.30905712
-1.0713711	ADV PROPN ADV	-0.42238966
-1.0569127	PRON PROPN ADV	-0.41376287
-0.98692095	DET PROPN ADV	-0.5318622
-1.0156834	ADJ PROPN ADV	-0.4897066
-1.3793929	X PROPN ADV	-0.3795387
-0.90654176	SCONJ PROPN ADV	-0.35884893
-1.5165428	<s> ADP ADV	-1.2042161
-1.1789452	PROPN ADP ADV	-0.3950579
-1.214628	ADP ADP ADV	-0.35081518
-1.1177216	PUNCT ADP ADV	-0.45814857
-1.0882742	VERB ADP ADV	-0.5290278
-1.0869467	NOUN ADP ADV	-0.5985509
-1.0894698	PART ADP ADV	-0.29728264
-1.2081406	NUM ADP ADV	-0.36092997
-1.2865505	CCONJ ADP ADV	-0.30466637
-1.154368	ADV ADP ADV	-0.40576047
-1.0810012	PRON ADP ADV	-0.47487953
-1.4178294	DET ADP ADV	-0.2715635
-1.1553257	SCONJ ADP ADV	-0.28940573
-1.1567358	<s> PUNCT ADV	-1.2396959
-1.1332066	PROPN PUNCT ADV	-0.6710281
-1.0837339	ADP PUNCT ADV	-0.4781446
-1.1410859	PUNCT PUNCT ADV	-0.5570882
-1.144488	VERB PUNCT ADV	-0.7589039
-1.1546592	NOUN PUNCT ADV	-0.83300567
-1.0607752	PART PUNCT ADV	-0.5314133
-1.0925982	NUM PUNCT ADV	-0.5516388
-1.1595925	CCONJ PUNCT ADV	-0.29977375
-1.0082967	ADV PUNCT ADV	-0.4582171
-1.0156176	PRON PUNCT ADV	-0.42329714
-1.414674	DET PUNCT ADV	-0.30679923
-1.0286168	ADJ PUNCT ADV	-0.3795387
-1.1597519	X PUNCT ADV	-0.39650226
-1.2129778	INTJ PUNCT ADV	-0.31762356
-1.1236272	SCONJ PUNCT ADV	-0.31762356
-1.3258231	<s> VERB ADV	-1.4836668
-1.1407217	PROPN VERB ADV	-0.6551857
-1.1791874	ADP VERB ADV	-0.47060618
-1.1517494	PUNCT VERB ADV	-0.56031716
-1.141561	VERB VERB ADV	-0.7152754
-1.1720681	NOUN VERB ADV	-0.8301578
-1.1406422	PART VERB ADV	-0.4699378
-1.1269636	NUM VERB ADV	-0.41841078
-1.1661699	CCONJ VERB ADV	-0.3718342
-1.1982262	ADV VERB ADV	-0.74059063
-1.0870734	PRON VERB ADV	-0.6377871
-1.1821781	DET VERB ADV	-0.38482785
-1.2508115	ADJ VERB ADV	-0.28328648
-1.1118479	X VERB ADV	-0.4467244
-0.8998255	INTJ VERB ADV	-0.31762356
-1.0536417	SCONJ VERB ADV	-0.45164812
-0.8621515	<s> NOUN ADV	-2.1906488
-1.1299796	PROPN NOUN ADV	-0.743808
-1.0780281	ADP NOUN ADV	-0.6251909
-1.1077383	PUNCT NOUN ADV	-0.6241673
-1.1354421	VERB NOUN ADV	-0.72537786
-1.13332	NOUN NOUN ADV	-0.8215605
-1.1204942	PART NOUN ADV	-0.64215153
-1.0780281	NUM NOUN ADV	-0.6710281
-1.1009808	CCONJ NOUN ADV	-0.40414214
-0.98470235	ADV NOUN ADV	-0.5298814
-1.002348	PRON NOUN ADV	-0.57781166
-1.0968113	DET NOUN ADV	-0.65023655
-1.1086305	ADJ NOUN ADV	-0.68699557
-1.0983897	X NOUN ADV	-0.54669726
-1.198355	INTJ NOUN ADV	-0.31762356
-0.8197607	SCONJ NOUN ADV	-0.37638137
-0.49366096	SPACE NOUN ADV	-0.31762356
-1.9887025	<s> PART ADV	-0.31762356
-1.1360751	PROPN PART ADV	-0.47986114
-0.9905314	ADP PART ADV	-0.28262872
-1.2870134	PUNCT PART ADV	-0.35081518
-1.1267755	VERB PART ADV	-0.72053665
-1.1276568	NOUN PART ADV	-0.741971
-1.2682233	PART PART ADV	-0.33659515
-1.0573395	NUM PART ADV	-0.4536878
-1.1297225	CCONJ PART ADV	-0.31762356
-0.9727065	ADV PART ADV	-0.48375323
-1.1477925	PRON PART ADV	-0.43258438
-1.1828433	DET PART ADV	-0.39650226
-1.2560768	ADJ PART ADV	-0.41376287
-1.9599996	<s> NUM ADV	-0.66288
-1.0872555	PROPN NUM ADV	-0.44231015
-1.1184771	ADP NUM ADV	-0.475865
-1.1713169	PUNCT NUM ADV	-0.33967432
-1.1682818	VERB NUM ADV	-0.5373293
-1.1443145	NOUN NUM ADV	-0.49096835
-1.1561794	PART NUM ADV	-0.30034393
-1.1010194	NUM NUM ADV	-0.78461164
-1.1613901	CCONJ NUM ADV	-0.45871997
-1.1700561	ADV NUM ADV	-0.52644926
-0.9865465	PRON NUM ADV	-0.36246777
-1.0958897	DET NUM ADV	-0.481087
-1.4807848	ADJ NUM ADV	-0.31762356
-1.494639	X NUM ADV	-0.31762356
-1.2253375	SCONJ NUM ADV	-0.31762356
-1.2084584	<s> CCONJ ADV	-0.6775457
-1.104097	PROPN CCONJ ADV	-0.4064271
-1.1064448	ADP CCONJ ADV	-0.31762356
-1.0471344	PUNCT CCONJ ADV	-0.38781446
-0.87483954	VERB CCONJ ADV	-0.59000504
-1.0824957	NOUN CCONJ ADV	-0.6025534
-1.1476438	PART CCONJ ADV	-0.30679923
-1.2234024	NUM CCONJ ADV	-0.29398316
-0.947352	ADV CCONJ ADV	-0.3938237
-1.049068	PRON CCONJ ADV	-0.29282323
-1.1378716	ADJ CCONJ ADV	-0.31762353
-0.7394488	SCONJ CCONJ ADV	-0.31762356
-0.7873051	<s> ADV ADV	-2.2403224
-0.97359437	PROPN ADV ADV	-0.6039313
-0.96407706	ADP ADV ADV	-0.46402222
-1.0887933	PUNCT ADV ADV	-0.5853991
-1.0528494	VERB ADV ADV	-0.58627266
-1.0604546	NOUN ADV ADV	-0.79721
-0.9911011	PART ADV ADV	-0.40300772
-0.85675544	NUM ADV ADV	-0.5514598
-0.94499105	CCONJ ADV ADV	-0.38573414
-1.0538834	ADV ADV ADV	-0.59093153
-0.93539596	PRON ADV ADV	-0.58141345
-0.91473544	DET ADV ADV	-0.4904553
-1.2698785	ADJ ADV ADV	-0.30148655
-1.375101	X ADV ADV	-0.31762356
-0.6448604	INTJ ADV ADV	-0.31762356
-0.74772847	SCONJ ADV ADV	-0.4265519
-0.4800898	<s> PRON ADV	-2.2879603
-0.90512735	PROPN PRON ADV	-0.50447744
-1.0561305	ADP PRON ADV	-0.49235526
-0.9545486	PUNCT PRON ADV	-0.5953956
-1.1128346	VERB PRON ADV	-0.6136091
-0.92075264	NOUN PRON ADV	-0.61038375
-0.79855424	PART PRON ADV	-0.46556494
-0.94719815	NUM PRON ADV	-0.33378124
-1.0031766	CCONJ PRON ADV	-0.37701806
-0.9256434	ADV PRON ADV	-0.469937
-0.7943461	PRON PRON ADV	-0.51136094
-0.7185665	DET PRON ADV	-0.47414654
-1.049199	X PRON ADV	-0.45871997
-0.73394114	SCONJ PRON ADV	-0.39008093
-2.0596497	<s> DET ADV	-0.66953593
-1.4523329	PROPN DET ADV	-0.3110966
-1.07682	ADP DET ADV	-0.4815677
-1.1901882	PUNCT DET ADV	-0.34648198
-1.1902734	VERB DET ADV	-0.52667624
-1.0913733	NOUN DET ADV	-0.37953869
-1.0912008	PART DET ADV	-0.3304702
-1.3452685	NUM DET ADV	-0.30148655
-1.1386745	CCONJ DET ADV	-0.32278642
-0.9713176	ADV DET ADV	-0.34171405
-1.3022255	PRON DET ADV	-0.28940573
-0.98024213	DET DET ADV	-0.40793276
-1.3130267	ADJ DET ADV	-0.30148655
-1.2906911	X DET ADV	-0.2715635
-2.5538263	<s> ADJ ADV	-0.49341226
-1.4545467	PROPN ADJ ADV	-0.30148655
-1.7377361	ADP ADJ ADV	-0.31762356
-1.5474968	PUNCT ADJ ADV	-0.31762356
-1.1935694	VERB ADJ ADV	-0.44772518
-1.3179795	NOUN ADJ ADV	-0.368587
-1.3035754	PART ADJ ADV	-0.28940573
-1.5063983	CCONJ ADJ ADV	-0.31762356
-1.6835304	ADV ADJ ADV	-0.31762356
-1.1649047	DET ADJ ADV	-0.31762356
-1.4297183	X ADJ ADV	-0.31762356
-1.8473684	<s> X ADV	-0.3795387
-1.0646648	PROPN X ADV	-0.29398316
-1.4051609	ADP X ADV	-0.31762356
-1.3423412	PUNCT X ADV	-0.28262872
-1.0225806	VERB X ADV	-0.5042358
-0.9676661	NOUN X ADV	-0.5840241
-1.0515234	PART X ADV	-0.368587
-1.2901057	NUM X ADV	-0.31762356
-1.1496999	CCONJ X ADV	-0.30148655
-0.9940065	ADV X ADV	-0.53888494
-1.1529764	PRON X ADV	-0.39650226
-1.3048993	DET X ADV	-0.31762356
-1.6478348	<s> INTJ ADV	-0.31762353
-1.1263925	<s> SCONJ ADV	-1.0393106
-0.532963	PROPN SCONJ ADV	-0.44772518
-1.0089105	ADP SCONJ ADV	-0.30148655
-0.96378213	PUNCT SCONJ ADV	-0.46402222
-0.9251056	VERB SCONJ ADV	-0.47007447
-0.7675056	NOUN SCONJ ADV	-0.6073556
-0.8972356	PART SCONJ ADV	-0.31762356
-1.157514	ADV SCONJ ADV	-0.31295148
-0.7386456	PRON SCONJ ADV	-0.35081518
-0.4793347	DET SCONJ ADV	-0.31762356
-2.496697	<s> PROPN PRON	-0.8213092
-1.4124624	PROPN PROPN PRON	-0.3947958
-1.2504756	ADP PROPN PRON	-0.5105087
-1.3919083	PUNCT PROPN PRON	-0.43735957
-1.3272216	VERB PROPN PRON	-0.43533435
-1.1861867	NOUN PROPN PRON	-0.39305612
-1.5110372	PART PROPN PRON	-0.2862983
-1.8724878	NUM PROPN PRON	-0.31762356
-1.4747312	CCONJ PROPN PRON	-0.3094801
-1.4475374	ADV PROPN PRON	-0.29584688
-1.403469	PRON PROPN PRON	-0.30679923
-1.7664751	DET PROPN PRON	-0.31762356
-1.7877424	X PROPN PRON	-0.31762356
-0.9867962	<s> ADP PRON	-1.6843901
-1.0467836	PROPN ADP PRON	-0.5422744
-0.9896689	ADP ADP PRON	-0.41376287
-1.0226352	PUNCT ADP PRON	-0.56463736
-1.0150082	VERB ADP PRON	-0.6957706
-1.0509993	NOUN ADP PRON	-0.68226814
-0.9258632	PART ADP PRON	-0.38076547
-0.92868894	NUM ADP PRON	-0.41729885
-0.8761511	CCONJ ADP PRON	-0.36959395
-1.0209213	ADV ADP PRON	-0.575423
-0.9591833	PRON ADP PRON	-0.57325315
-0.94770443	DET ADP PRON	-0.31487018
-1.0218955	ADJ ADP PRON	-0.30679923
-0.76636153	X ADP PRON	-0.3094801
-0.9538533	SCONJ ADP PRON	-0.29195532
-0.9615561	<s> PUNCT PRON	-1.3934724
-1.2403797	PROPN PUNCT PRON	-0.58559406
-1.0876629	ADP PUNCT PRON	-0.440175
-1.1445992	PUNCT PUNCT PRON	-0.53435487
-1.1769527	VERB PUNCT PRON	-0.64428675
-1.2192165	NOUN PUNCT PRON	-0.6714294
-1.1510996	PART PUNCT PRON	-0.47146893
-1.2203739	NUM PUNCT PRON	-0.47144625
-1.3027871	CCONJ PUNCT PRON	-0.29398316
-1.0907136	ADV PUNCT PRON	-0.46491536
-0.98078036	PRON PUNCT PRON	-0.4318666
-1.6544101	DET PUNCT PRON	-0.31762356
-1.5368623	ADJ PUNCT PRON	-0.31762356
-1.4850202	X PUNCT PRON	-0.31762356
-1.0317365	INTJ PUNCT PRON	-0.30466637
-1.1030403	<s> VERB PRON	-1.6631538
-1.173176	PROPN VERB PRON	-0.5887814
-1.1029115	ADP VERB PRON	-0.5626767
-1.119975	PUNCT VERB PRON	-0.60481524
-1.1740245	VERB VERB PRON	-0.7049741
-1.1746542	NOUN VERB PRON	-0.79079515
-1.1855851	PART VERB PRON	-0.5323167
-1.2691232	NUM VERB PRON	-0.39883617
-1.2393299	CCONJ VERB PRON	-0.41778988
-1.1692947	ADV VERB PRON	-0.7182938
-1.1517967	PRON VERB PRON	-0.593215
-1.1857889	DET VERB PRON	-0.45918974
-1.7264426	ADJ VERB PRON	-0.31762356
-1.2710763	X VERB PRON	-0.28531668
-1.1864887	SCONJ VERB PRON	-0.38609755
-1.907794	<s> NOUN PRON	-1.2710854
-1.3575143	PROPN NOUN PRON	-0.4645071
-1.259592	ADP NOUN PRON	-0.5065327
-1.3055627	PUNCT NOUN PRON	-0.457807
-1.2025932	VERB NOUN PRON	-0.6071051
-1.1959819	NOUN NOUN PRON	-0.6197546
-1.3034232	PART NOUN PRON	-0.4366429
-1.259592	NUM NOUN PRON	-0.4607753
-1.3662813	CCONJ NOUN PRON	-0.29189655
-1.4692184	ADV NOUN PRON	-0.31401813
-1.3099265	PRON NOUN PRON	-0.36217278
-1.2783753	DET NOUN PRON	-0.5209441
-1.3353057	ADJ NOUN PRON	-0.4720087
-1.7559232	X NOUN PRON	-0.30679923
-1.5123209	SCONJ NOUN PRON	-0.3094801
-1.3434201	PROPN PART PRON	-0.40756744
-1.435875	ADP PART PRON	-0.31762356
-1.6107894	PUNCT PART PRON	-0.31762353
-1.1332899	VERB PART PRON	-0.6618236
-1.1642	NOUN PART PRON	-0.6916679
-1.4273942	PART PART PRON	-0.31295148
-1.2941917	NUM PART PRON	-0.2888241
-1.3982916	ADV PART PRON	-0.28638062
-1.4198542	PRON PART PRON	-0.30832914
-1.5526278	DET PART PRON	-0.31762356
-1.354112	ADJ PART PRON	-0.29728264
-2.7727404	<s> NUM PRON	-0.30375546
-1.8146276	PROPN NUM PRON	-0.31762356
-1.2903491	VERB NUM PRON	-0.46402222
-1.3982872	NOUN NUM PRON	-0.30582842
-1.69828	PART NUM PRON	-0.31762356
-1.2537907	NUM NUM PRON	-0.5416078
-1.7023578	CCONJ NUM PRON	-0.31762356
-1.5205134	ADV NUM PRON	-0.30148655
-1.5845739	PRON NUM PRON	-0.31762356
-1.5405908	DET NUM PRON	-0.3094801
-1.1546352	<s> CCONJ PRON	-0.6785268
-1.1228316	PROPN CCONJ PRON	-0.42096916
-1.2800008	PUNCT CCONJ PRON	-0.3345816
-1.3788368	VERB CCONJ PRON	-0.29195532
-1.1307342	NOUN CCONJ PRON	-0.60105973
-1.4491068	NUM CCONJ PRON	-0.3094801
-1.0122511	CCONJ CCONJ PRON	-0.31762356
-1.5681975	ADV CCONJ PRON	-0.31762356
-0.9365465	PRON CCONJ PRON	-0.40801445
-1.0880468	<s> ADV PRON	-1.9292382
-1.2930204	PROPN ADV PRON	-0.44231015
-1.2946242	ADP ADV PRON	-0.3261581
-1.1923083	PUNCT ADV PRON	-0.54770917
-1.2129571	VERB ADV PRON	-0.4062736
-1.1971686	NOUN ADV PRON	-0.5053619
-1.4628878	PART ADV PRON	-0.30679923
-1.3729724	NUM ADV PRON	-0.30679923
-1.644568	CCONJ ADV PRON	-0.31762356
-1.147951	ADV ADV PRON	-0.40938297
-1.4059279	PRON ADV PRON	-0.30706578
-1.4389102	SCONJ ADV PRON	-0.3094801
-2.403769	<s> PRON PRON	-0.74624455
-1.4122813	PROPN PRON PRON	-0.30679923
-1.1816617	ADP PRON PRON	-0.53030497
-1.0994321	PUNCT PRON PRON	-0.4327539
-1.1847211	VERB PRON PRON	-0.61696404
-1.3909054	NOUN PRON PRON	-0.30679923
-1.4943764	PART PRON PRON	-0.30679923
-1.3679844	NUM PRON PRON	-0.30148655
-1.1885023	CCONJ PRON PRON	-0.35577092
-1.2663362	ADV PRON PRON	-0.2988066
-1.6356353	PRON PRON PRON	-0.31762356
-1.4390892	DET PRON PRON	-0.31762356
-1.2326928	X PRON PRON	-0.30679923
-1.4491895	SCONJ PRON PRON	-0.31762356
-2.7433872	<s> DET PRON	-0.33378124
-1.4040235	ADP DET PRON	-0.29473355
-1.2946855	PUNCT DET PRON	-0.29584688
-1.2050544	VERB DET PRON	-0.40833965
-1.6120368	NOUN DET PRON	-0.30679923
-1.6131605	PART DET PRON	-0.31762356
-1.1608918	CCONJ DET PRON	-0.29282323
-1.5020708	ADV DET PRON	-0.28262872
-1.5921686	PRON DET PRON	-0.31762356
-1.5713158	DET DET PRON	-0.31762356
-1.5746605	X DET PRON	-0.31762356
-1.8353995	PROPN ADJ PRON	-0.31762356
-1.884279	ADP ADJ PRON	-0.31762356
-1.9275349	PUNCT ADJ PRON	-0.31762356
-1.7262632	VERB ADJ PRON	-0.30466637
-1.729788	PART ADJ PRON	-0.31762356
-1.7394931	ADV ADJ PRON	-0.30148655
-0.92077166	<s> X PRON	-0.68520695
-1.0729945	PROPN X PRON	-0.38536352
-0.96914476	PUNCT X PRON	-0.39441752
-0.94714636	VERB X PRON	-0.53790116
-0.9716172	NOUN X PRON	-0.56669974
-0.9566109	PART X PRON	-0.3795387
-0.97560054	CCONJ X PRON	-0.28262872
-1.0516604	ADV X PRON	-0.5115635
-1.0534595	PRON X PRON	-0.32315758
-1.0288888	DET X PRON	-0.30679923
-1.1391203	SCONJ X PRON	-0.31762353
-1.8254306	<s> INTJ PRON	-0.30148655
-0.9508224	PROPN INTJ PRON	-0.31762356
-0.861423	ADV INTJ PRON	-0.31762356
-0.6349216	<s> SCONJ PRON	-1.5278143
-1.0750285	ADP SCONJ PRON	-0.31762356
-0.82769763	PUNCT SCONJ PRON	-0.60258913
-0.86719465	VERB SCONJ PRON	-0.47535452
-1.1051587	NOUN SCONJ PRON	-0.30679923
-0.8972356	PART SCONJ PRON	-0.31762356
-0.6291581	CCONJ SCONJ PRON	-0.31762356
-0.87938815	ADV SCONJ PRON	-0.3268769
-1.0759133	PRON SCONJ PRON	-0.31762356
-0.4793347	SCONJ SCONJ PRON	-0.31762356
-2.2458134	<s> PROPN DET	-0.94786
-1.2925451	PROPN PROPN DET	-0.46136433
-1.2885524	ADP PROPN DET	-0.4662875
-1.323003	PUNCT PROPN DET	-0.49348208
-1.158787	VERB PROPN DET	-0.57419753
-1.2586359	NOUN PROPN DET	-0.39242643
-1.3155212	PART PROPN DET	-0.3287515
-1.832869	NUM PROPN DET	-0.31762356
-1.3235205	CCONJ PROPN DET	-0.34397084
-1.5574784	ADV PROPN DET	-0.30679923
-1.6105571	PRON PROPN DET	-0.31762356
-1.4390095	DET PROPN DET	-0.31217766
-1.4312441	ADJ PROPN DET	-0.3094801
-1.6890548	X PROPN DET	-0.30679923
-1.3978667	SCONJ PROPN DET	-0.31762356
-1.1351916	<s> ADP DET	-1.5968909
-1.0878562	PROPN ADP DET	-0.5928684
-0.99377584	ADP ADP DET	-0.49096835
-1.0265778	PUNCT ADP DET	-0.5146999
-1.0179356	VERB ADP DET	-0.5742489
-1.0836439	NOUN ADP DET	-0.6500929
-0.9309254	PART ADP DET	-0.3516308
-1.201643	NUM ADP DET	-0.37353083
-1.0345765	CCONJ ADP DET	-0.35577092
-0.9567585	ADV ADP DET	-0.6117479
-0.96205026	PRON ADP DET	-0.5422299
-1.0121456	DET ADP DET	-0.30167857
-1.2436985	ADJ ADP DET	-0.31762356
-1.0430096	SCONJ ADP DET	-0.4355338
-1.676055	<s> PUNCT DET	-0.9661519
-1.1680639	PROPN PUNCT DET	-0.5780909
-1.2660111	ADP PUNCT DET	-0.35081518
-1.2314104	PUNCT PUNCT DET	-0.43137577
-1.2090452	VERB PUNCT DET	-0.58425283
-1.187124	NOUN PUNCT DET	-0.64823186
-1.1510996	PART PUNCT DET	-0.40106374
-1.329098	NUM PUNCT DET	-0.44772518
-1.4694607	CCONJ PUNCT DET	-0.31762356
-1.3131022	ADV PUNCT DET	-0.38114953
-1.4640806	PRON PUNCT DET	-0.2888241
-1.5368623	ADJ PUNCT DET	-0.31762356
-1.5482926	X PUNCT DET	-0.31762356
-1.2981526	INTJ PUNCT DET	-0.31762356
-1.1359367	SCONJ PUNCT DET	-0.31762356
-1.389555	<s> VERB DET	-1.470289
-1.205296	PROPN VERB DET	-0.6361706
-1.1029115	ADP VERB DET	-0.5733498
-1.2341954	PUNCT VERB DET	-0.54675657
-1.1160318	VERB VERB DET	-0.76447904
-1.1746542	NOUN VERB DET	-0.78690475
-1.1438509	PART VERB DET	-0.48250565
-1.0923805	NUM VERB DET	-0.5626547
-1.2393299	CCONJ VERB DET	-0.35725018
-1.1692947	ADV VERB DET	-0.7298504
-1.1866357	PRON VERB DET	-0.55922955
-1.1390518	DET VERB DET	-0.39224294
-1.6667329	ADJ VERB DET	-0.30148655
-1.5157952	X VERB DET	-0.30832914
-1.1864887	SCONJ VERB DET	-0.4033244
-2.13952	<s> NOUN DET	-1.0828713
-1.2320429	PROPN NOUN DET	-0.52314615
-1.1800913	ADP NOUN DET	-0.52039915
-1.3569818	PUNCT NOUN DET	-0.4273515
-1.2025932	VERB NOUN DET	-0.59403443
-1.2628765	NOUN NOUN DET	-0.5639131
-1.2520041	PART NOUN DET	-0.42566153
-1.4153167	NUM NOUN DET	-0.45791417
-1.2863379	CCONJ NOUN DET	-0.4002787
-1.3893955	ADV NOUN DET	-0.4002787
-1.4571539	PRON NOUN DET	-0.38536352
-1.2368083	DET NOUN DET	-0.5318622
-1.2895968	ADJ NOUN DET	-0.48943666
-1.4670345	X NOUN DET	-0.2888241
-1.3392397	SCONJ NOUN DET	-0.31762356
-1.9271197	<s> PART DET	-0.31762356
-1.1403594	PROPN PART DET	-0.55665946
-1.4153609	ADP PART DET	-0.31762356
-1.2976277	PUNCT PART DET	-0.29335827
-1.159885	VERB PART DET	-0.69063574
-1.1607633	NOUN PART DET	-0.6482388
-1.2782514	PART PART DET	-0.3531208
-1.3675758	NUM PART DET	-0.29195532
-1.5197604	ADV PART DET	-0.31762353
-1.0650494	PRON PART DET	-0.45578316
-1.1314229	ADJ PART DET	-0.47306025
-1.0294439	INTJ PART DET	-0.31762356
-3.1582747	<s> NUM DET	-0.30679923
-1.8543544	PROPN NUM DET	-0.31762356
-1.2699902	ADP NUM DET	-0.4355338
-1.3495125	PUNCT NUM DET	-0.30466637
-1.3450997	VERB NUM DET	-0.4327539
-1.4742562	NOUN NUM DET	-0.45871997
-1.6100961	PART NUM DET	-0.3110966
-1.2918285	NUM NUM DET	-0.5650889
-1.2983108	CCONJ NUM DET	-0.28262872
-1.3211629	ADV NUM DET	-0.2888241
-1.5293733	DET NUM DET	-0.31762356
-0.9799538	<s> CCONJ DET	-0.79218215
-0.9367122	PROPN CCONJ DET	-0.6183785
-1.1191678	PUNCT CCONJ DET	-0.35547826
-1.1587461	VERB CCONJ DET	-0.4306521
-1.0288613	NOUN CCONJ DET	-0.6311985
-1.1907374	PART CCONJ DET	-0.31762356
-1.1196645	NUM CCONJ DET	-0.2888241
-1.1540776	ADV CCONJ DET	-0.33836168
-0.99225795	PRON CCONJ DET	-0.4033244
-0.75463295	SCONJ CCONJ DET	-0.31762356
-1.5270827	<s> ADV DET	-1.5981712
-1.4289163	PROPN ADV DET	-0.41376287
-1.380493	ADP ADV DET	-0.3469994
-1.1833153	PUNCT ADV DET	-0.45002308
-1.2507147	VERB ADV DET	-0.49575606
-1.1554654	NOUN ADV DET	-0.595459
-1.3074201	PART ADV DET	-0.29771867
-1.3544927	NUM ADV DET	-0.3094801
-1.5408591	CCONJ ADV DET	-0.30148655
-1.2946064	ADV ADV DET	-0.42875674
-1.133378	PRON ADV DET	-0.38482785
-1.3389258	DET ADV DET	-0.28940573
-1.4070634	X ADV DET	-0.31762356
-1.4057205	SCONJ ADV DET	-0.30679923
-2.3595252	<s> PRON DET	-0.7752464
-1.6361723	PROPN PRON DET	-0.30148655
-1.0660582	ADP PRON DET	-0.40980023
-1.4226559	PUNCT PRON DET	-0.33213812
-1.2389488	VERB PRON DET	-0.45901883
-1.3357776	NOUN PRON DET	-0.35577092
-1.6161398	PART PRON DET	-0.31762356
-1.2157753	CCONJ PRON DET	-0.30466637
-1.291945	ADV PRON DET	-0.4064271
-1.4037852	X PRON DET	-0.31762353
-1.509035	SCONJ PRON DET	-0.31762353
-1.7973136	<s> DET DET	-0.90845937
-1.150281	PROPN DET DET	-0.33584386
-1.0426824	ADP DET DET	-0.4536878
-1.2035456	PUNCT DET DET	-0.4265519
-1.1119903	VERB DET DET	-0.52157795
-1.0538328	NOUN DET DET	-0.5313658
-1.0346406	PART DET DET	-0.45462385
-0.99760854	CCONJ DET DET	-0.41633475
-1.1634299	ADV DET DET	-0.3001158
-1.5054027	PRON DET DET	-0.31762353
-1.5503163	DET DET DET	-0.31762356
-1.4897153	X DET DET	-0.30148655
-2.3401968	<s> ADJ DET	-0.35081518
-1.2140595	PROPN ADJ DET	-0.3795387
-1.1688489	ADP ADJ DET	-0.39755362
-1.411578	PUNCT ADJ DET	-0.39650226
-1.1412604	VERB ADJ DET	-0.36449793
-1.2344037	NOUN ADJ DET	-0.35081518
-1.2039232	PART ADJ DET	-0.40196767
-1.692603	NUM ADJ DET	-0.31762356
-1.4404129	CCONJ ADJ DET	-0.30148655
-1.6835304	ADV ADJ DET	-0.31762356
-1.5618992	PRON ADJ DET	-0.31762356
-1.0594969	<s> X DET	-0.59936845
-0.9910234	PROPN X DET	-0.3869964
-1.3187431	ADP X DET	-0.30148655
-1.2011555	PUNCT X DET	-0.29195532
-1.0632389	VERB X DET	-0.4683938
-1.0424552	NOUN X DET	-0.51451075
-1.1731533	PART X DET	-0.29728264
-1.2716887	NUM X DET	-0.31762356
-1.196298	CCONJ X DET	-0.31762356
-1.0409312	ADV X DET	-0.40393582
-0.8232046	PRON X DET	-0.42941454
-1.2109783	DET X DET	-0.31762356
-1.10722	SCONJ X DET	-0.31762356
-1.9556558	<s> INTJ DET	-0.31762356
-1.2689741	<s> SCONJ DET	-1.1188787
-1.1635767	ADP SCONJ DET	-0.31762356
-1.1193479	PUNCT SCONJ DET	-0.42315206
-1.1080856	VERB SCONJ DET	-0.35577092
-1.5599662	NOUN SCONJ DET	-0.31762356
-0.83974403	NUM SCONJ DET	-0.31762356
-1.2485673	ADV SCONJ DET	-0.3110966
-1.7475162	<s> PROPN ADJ	-1.5034074
-1.1682881	PROPN PROPN ADJ	-0.51324475
-1.1292777	ADP PROPN ADJ	-0.5482863
-1.1131967	PUNCT PROPN ADJ	-0.4607826
-1.0968183	VERB PROPN ADJ	-0.6126028
-1.1800814	NOUN PROPN ADJ	-0.537085
-1.1910876	PART PROPN ADJ	-0.40504682
-1.1692134	NUM PROPN ADJ	-0.53480494
-1.2272547	CCONJ PROPN ADJ	-0.3818837
-1.4302324	ADV PROPN ADJ	-0.35081518
-1.5526937	PRON PROPN ADJ	-0.30148655
-1.1284283	DET PROPN ADJ	-0.48911783
-1.1760896	ADJ PROPN ADJ	-0.5256668
-1.5186691	X PROPN ADJ	-0.28262872
-1.3356477	SCONJ PROPN ADJ	-0.30148655
-1.4453429	<s> ADP ADJ	-1.4452039
-1.1293163	PROPN ADP ADJ	-0.5092051
-1.1248288	ADP ADP ADJ	-0.42093143
-1.0680724	PUNCT ADP ADJ	-0.4691267
-1.050455	VERB ADP ADJ	-0.56789875
-1.0544089	NOUN ADP ADJ	-0.64931935
-1.0830101	PART ADP ADJ	-0.37576324
-0.84214056	NUM ADP ADJ	-0.62381643
-1.1391991	CCONJ ADP ADJ	-0.33836168
-1.0244889	ADV ADP ADJ	-0.5268577
-0.9623748	PRON ADP ADJ	-0.5338604
-1.0126808	DET ADP ADJ	-0.4874065
-1.0303892	ADJ ADP ADJ	-0.31762353
-0.9600186	SCONJ ADP ADJ	-0.4874065
-1.5881704	<s> PUNCT ADJ	-1.0629596
-1.2031076	PROPN PUNCT ADJ	-0.52912784
-1.1399138	ADP PUNCT ADJ	-0.475865
-1.231929	PUNCT PUNCT ADJ	-0.42556965
-1.1772865	VERB PUNCT ADJ	-0.64379156
-1.1874578	NOUN PUNCT ADJ	-0.626486
-1.1516181	PART PUNCT ADJ	-0.47060618
-1.2719226	NUM PUNCT ADJ	-0.4252827
-0.9821696	CCONJ PUNCT ADJ	-0.3469994
-1.2466055	ADV PUNCT ADJ	-0.38886535
-1.3661747	PRON PUNCT ADJ	-0.2888241
-0.9180319	DET PUNCT ADJ	-0.51678425
-0.8756272	ADJ PUNCT ADJ	-0.32358623
-1.3092322	X PUNCT ADJ	-0.30679923
-1.0473454	SCONJ PUNCT ADJ	-0.31762353
-1.4810053	<s> VERB ADJ	-1.5481298
-1.1155902	PROPN VERB ADJ	-0.64379156
-1.0358355	ADP VERB ADJ	-0.59936845
-1.193115	PUNCT VERB ADJ	-0.5068574
-1.1443758	VERB VERB ADJ	-0.626486
-1.1749802	NOUN VERB ADJ	-0.6927813
-1.1061486	PART VERB ADJ	-0.5029013
-1.2182661	NUM VERB ADJ	-0.4779967
-1.2400595	CCONJ VERB ADJ	-0.4265519
-1.2016616	ADV VERB ADJ	-0.67763853
-1.2249367	PRON VERB ADJ	-0.506293
-1.1394608	DET VERB ADJ	-0.51694375
-1.498778	ADJ VERB ADJ	-0.28262872
-1.2717364	X VERB ADJ	-0.45204705
-1.0581977	SCONJ VERB ADJ	-0.4659092
-2.0436568	<s> NOUN ADJ	-1.271603
-1.1651952	PROPN NOUN ADJ	-0.5937174
-1.2184418	ADP NOUN ADJ	-0.54048264
-1.2184418	PUNCT NOUN ADJ	-0.49180952
-1.140681	VERB NOUN ADJ	-0.5980616
-1.1963217	NOUN NOUN ADJ	-0.61715865
-1.3039973	PART NOUN ADJ	-0.42397806
-1.2600508	NUM NOUN ADJ	-0.47805956
-1.2195005	CCONJ NOUN ADJ	-0.47193816
-1.212747	ADV NOUN ADJ	-0.43230206
-1.3105831	PRON NOUN ADJ	-0.49341226
-1.1992564	DET NOUN ADJ	-0.5363851
-1.1761204	ADJ NOUN ADJ	-0.54669726
-1.2862567	X NOUN ADJ	-0.5256668
-1.5760199	SCONJ NOUN ADJ	-0.31762356
-1.8995069	<s> PART ADJ	-0.30148655
-0.9997874	PROPN PART ADJ	-0.55028886
-1.3126584	ADP PART ADJ	-0.31762356
-1.0352141	PUNCT PART ADJ	-0.43350515
-1.1239377	VERB PART ADJ	-0.60060495
-1.1248724	NOUN PART ADJ	-0.67759174
-1.0120623	PART PART ADJ	-0.40739942
-0.9749151	NUM PART ADJ	-0.5194523
-1.0306463	CCONJ PART ADJ	-0.30148655
-1.493507	ADV PART ADJ	-0.28262872
-1.0200238	PRON PART ADJ	-0.55206555
-0.79321635	DET PART ADJ	-0.6348112
-0.87590057	ADJ PART ADJ	-0.53222555
-1.1112925	X PART ADJ	-0.31762356
-1.7075422	<s> NUM ADJ	-1.1246809
-1.0419095	PROPN NUM ADJ	-0.5649566
-1.0667658	ADP NUM ADJ	-0.5328715
-1.171899	PUNCT NUM ADJ	-0.4327539
-1.0238746	VERB NUM ADJ	-0.6017523
-1.066326	NOUN NUM ADJ	-0.59043574
-1.009523	PART NUM ADJ	-0.42378694
-1.1013427	NUM NUM ADJ	-0.6916679
-1.0149856	CCONJ NUM ADJ	-0.42093143
-1.0740602	ADV NUM ADJ	-0.6085546
-1.4899436	PRON NUM ADJ	-0.31762356
-1.0553131	DET NUM ADJ	-0.5839116
-1.1525016	ADJ NUM ADJ	-0.28262872
-1.0024394	X NUM ADJ	-0.36246777
-1.2268156	SCONJ NUM ADJ	-0.31762356
-1.4749278	<s> CCONJ ADJ	-0.68592465
-1.1047491	PROPN CCONJ ADJ	-0.4686391
-1.1082872	ADP CCONJ ADJ	-0.31762356
-1.1716349	PUNCT CCONJ ADJ	-0.38536352
-0.9716633	VERB CCONJ ADJ	-0.5713707
-1.0217605	NOUN CCONJ ADJ	-0.6198348
-1.1498362	PART CCONJ ADJ	-0.30679923
-1.225062	NUM CCONJ ADJ	-0.30679923
-0.8784164	ADV CCONJ ADJ	-0.37014422
-1.1320777	PRON CCONJ ADJ	-0.49341226
-0.4805671	ADJ CCONJ ADJ	-0.6073556
-0.20950949	INTJ CCONJ ADJ	-0.31762356
-1.9676632	<s> ADV ADJ	-1.3729444
-1.1224239	PROPN ADV ADJ	-0.54461104
-1.0142846	ADP ADV ADJ	-0.61089176
-1.1339654	PUNCT ADV ADJ	-0.50798064
-1.0880557	VERB ADV ADJ	-0.60809577
-1.1207888	NOUN ADV ADJ	-0.66584545
-0.9962982	PART ADV ADJ	-0.49096835
-1.09744	NUM ADV ADJ	-0.47826618
-0.9495759	CCONJ ADV ADJ	-0.39650226
-1.136201	ADV ADV ADJ	-0.5283375
-1.2379036	PRON ADV ADJ	-0.49348208
-0.87604386	DET ADV ADJ	-0.68802637
-1.2839711	ADJ ADV ADJ	-0.30148655
-1.124282	X ADV ADJ	-0.30679923
-1.2156527	SCONJ ADV ADJ	-0.30679923
-2.4559422	<s> PRON ADJ	-0.7763996
-1.583236	PROPN PRON ADJ	-0.31762356
-1.1361312	ADP PRON ADJ	-0.6099877
-1.195894	PUNCT PRON ADJ	-0.4624266
-1.226197	VERB PRON ADJ	-0.5716234
-1.3143128	NOUN PRON ADJ	-0.36092997
-1.3376613	PART PRON ADJ	-0.30466637
-1.3699477	NUM PRON ADJ	-0.31762356
-1.1895437	CCONJ PRON ADJ	-0.28328648
-1.3636783	ADV PRON ADJ	-0.35081518
-1.6377418	PRON PRON ADJ	-0.31762356
-1.4409816	DET PRON ADJ	-0.31762356
-1.0099287	ADJ PRON ADJ	-0.31762356
-1.5292733	X PRON ADJ	-0.30148655
-1.4344932	<s> DET ADJ	-1.4861634
-0.9076284	PROPN DET ADJ	-0.5616685
-1.0320697	ADP DET ADJ	-0.5514598
-0.8839735	PUNCT DET ADJ	-0.5098725
-0.9972872	VERB DET ADJ	-0.60258186
-0.9633418	NOUN DET ADJ	-0.6509708
-0.96044755	PART DET ADJ	-0.45462385
-0.8906155	NUM DET ADJ	-0.45871997
-0.98278457	CCONJ DET ADJ	-0.55562997
-1.0775814	ADV DET ADJ	-0.5416078
-0.97618663	PRON DET ADJ	-0.39650226
-0.9753578	DET DET ADJ	-0.44269487
-0.94906384	ADJ DET ADJ	-0.2715635
-0.90223527	X DET ADJ	-0.47414654
-1.2027165	SCONJ DET ADJ	-0.30679923
-1.8643785	<s> ADJ ADJ	-1.0422965
-0.92886335	PROPN ADJ ADJ	-0.6318284
-1.017877	ADP ADJ ADJ	-0.6348112
-1.023493	PUNCT ADJ ADJ	-0.6805687
-0.99933577	VERB ADJ ADJ	-0.5293054
-0.8745369	NOUN ADJ ADJ	-0.6867641
-0.97266287	PART ADJ ADJ	-0.5067003
-0.87893164	NUM ADJ ADJ	-0.59043574
-0.9770399	CCONJ ADJ ADJ	-0.49341226
-1.0123154	ADV ADJ ADJ	-0.5836587
-1.4212506	PRON ADJ ADJ	-0.30148655
-0.92809004	DET ADJ ADJ	-0.538559
-0.797336	ADJ ADJ ADJ	-0.5725935
-1.0763152	X ADJ ADJ	-0.2715635
-1.1792073	SCONJ ADJ ADJ	-0.31762356
-1.5672994	<s> X ADJ	-0.6348112
-1.4487138	PROPN X ADJ	-0.30148655
-1.2865762	ADP X ADJ	-0.30148655
-1.0871017	PUNCT X ADJ	-0.4355338
-1.1029143	VERB X ADJ	-0.49348208
-1.0781443	NOUN X ADJ	-0.5224924
-1.2979428	PART X ADJ	-0.30148655
-1.1678559	NUM X ADJ	-0.30148655
-1.0990896	CCONJ X ADJ	-0.30148655
-1.0309736	ADV X ADJ	-0.5224924
-1.1268817	PRON X ADJ	-0.30466637
-1.2530931	DET X ADJ	-0.31762356
-0.7841692	ADJ X ADJ	-0.31762356
-1.0676913	X X ADJ	-0.31762356
-1.078929	SCONJ X ADJ	-0.30148655
-1.7656368	<s> SCONJ ADJ	-0.8780158
-1.264153	PROPN SCONJ ADJ	-0.31762356
-1.2044984	PUNCT SCONJ ADJ	-0.4355338
-1.5368183	VERB SCONJ ADJ	-0.31762356
-1.5633677	NOUN SCONJ ADJ	-0.31762356
-0.6543729	CCONJ SCONJ ADJ	-0.31762356
-1.2518038	ADV SCONJ ADJ	-0.30679923
-2.4838037	<s> PROPN X	-0.75341827
-1.3060757	PROPN PROPN X	-0.42145506
-1.2123467	ADP PROPN X	-0.49096835
-1.2856545	PUNCT PROPN X	-0.46427324
-1.2847477	VERB PROPN X	-0.36190057
-1.4304771	NOUN PROPN X	-0.40536627
-1.2656957	PART PROPN X	-0.28908837
-1.5082661	NUM PROPN X	-0.3110966
-1.6580848	CCONJ PROPN X	-0.3094801
-1.5969692	ADV PROPN X	-0.30679923
-1.0417602	INTJ PROPN X	-0.31762356
-1.45633	SCONJ PROPN X	-0.31762356
-2.6309078	<s> ADP X	-0.53066605
-1.3631382	PROPN ADP X	-0.34310782
-1.7204052	ADP ADP X	-0.31762356
-1.6116365	PUNCT ADP X	-0.28940573
-1.5835261	VERB ADP X	-0.3552746
-1.2372816	NOUN ADP X	-0.6073556
-1.580636	PART ADP X	-0.31762356
-1.7239175	NUM ADP X	-0.31762356
-1.4817448	CCONJ ADP X	-0.31762356
-1.5283574	ADV ADP X	-0.36092997
-1.5039972	PRON ADP X	-0.3110966
-1.490178	SCONJ ADP X	-0.31762356
-2.831846	<s> PUNCT X	-0.28840917
-1.4476942	PROPN PUNCT X	-0.39657205
-1.7671959	ADP PUNCT X	-0.30679923
-1.4204626	PUNCT PUNCT X	-0.36190057
-1.3309044	VERB PUNCT X	-0.42274693
-1.2607837	NOUN PUNCT X	-0.5503171
-1.652566	PART PUNCT X	-0.30679923
-1.7225195	NUM PUNCT X	-0.30679923
-1.6428443	ADV PUNCT X	-0.31762353
-1.843413	PRON PUNCT X	-0.31762356
-1.6299951	DET PUNCT X	-0.31762356
-1.5874882	X PUNCT X	-0.31762356
-1.3335829	INTJ PUNCT X	-0.31762356
-2.2406042	<s> VERB X	-0.7749581
-1.2403837	PROPN VERB X	-0.48711154
-1.281127	ADP VERB X	-0.37615025
-1.5373588	PUNCT VERB X	-0.34465447
-1.241366	VERB VERB X	-0.48666814
-1.1749802	NOUN VERB X	-0.7203425
-1.4912883	PART VERB X	-0.29504722
-1.3954853	NUM VERB X	-0.30832914
-1.5509175	CCONJ VERB X	-0.30679923
-1.2362194	ADV VERB X	-0.5725952
-1.2249367	PRON VERB X	-0.52039915
-1.5514613	DET VERB X	-0.31762356
-1.72874	ADJ VERB X	-0.31762356
-1.6435983	X VERB X	-0.3110966
-1.6681582	SCONJ VERB X	-0.31762353
-2.4567187	<s> NOUN X	-0.79993963
-1.1975105	PROPN NOUN X	-0.5410326
-1.2600508	ADP NOUN X	-0.44094306
-1.3060726	PUNCT NOUN X	-0.4476799
-1.3171738	VERB NOUN X	-0.51888037
-1.1663567	NOUN NOUN X	-0.63340026
-1.2064922	PART NOUN X	-0.5097973
-1.2184418	NUM NOUN X	-0.51542574
-1.5927336	CCONJ NOUN X	-0.30832914
-1.5682478	ADV NOUN X	-0.33836168
-1.6831254	PRON NOUN X	-0.30466637
-1.237225	DET NOUN X	-0.4683938
-1.2900724	ADJ NOUN X	-0.48250565
-1.5989197	X NOUN X	-0.31762353
-1.5760199	SCONJ NOUN X	-0.31762353
-1.4288684	PROPN PART X	-0.35081518
-1.4828469	ADP PART X	-0.31762356
-1.4769554	PUNCT PART X	-0.31762356
-1.2394648	VERB PART X	-0.44396487
-1.2402463	NOUN PART X	-0.5891011
-1.7175841	PART PART X	-0.31762356
-1.5031415	NUM PART X	-0.29728264
-1.0922856	ADV PART X	-0.33213812
-1.8637421	PRON PART X	-0.31762356
-3.1754966	<s> NUM X	-0.30679923
-1.8828092	PROPN NUM X	-0.31762356
-1.8653363	PUNCT NUM X	-0.31762356
-1.6138872	VERB NUM X	-0.36092997
-1.3991023	NOUN NUM X	-0.368587
-1.7011583	PART NUM X	-0.31762356
-1.2154199	NUM NUM X	-0.5705088
-1.7052451	CCONJ NUM X	-0.31762356
-1.9078441	ADV NUM X	-0.31762356
-1.5418485	DET NUM X	-0.3795387
-2.101986	<s> CCONJ X	-0.35577092
-1.8432496	PROPN CCONJ X	-0.31762356
-1.3147881	PUNCT CCONJ X	-0.2988066
-1.1862196	VERB CCONJ X	-0.48911783
-1.468841	NOUN CCONJ X	-0.296969
-1.5389504	NUM CCONJ X	-0.30148655
-2.0011542	<s> ADV X	-1.1845819
-1.0500253	PROPN ADV X	-0.56470215
-1.2880254	ADP ADV X	-0.4355338
-1.2402194	PUNCT ADV X	-0.47743508
-1.2093829	VERB ADV X	-0.45901883
-1.126872	NOUN ADV X	-0.69546705
-1.1344697	PART ADV X	-0.34465447
-1.2611802	NUM ADV X	-0.34049103
-1.5592269	CCONJ ADV X	-0.30679923
-1.1025287	ADV ADV X	-0.5684709
-0.97673106	PRON ADV X	-0.5144174
-1.0869671	DET ADV X	-0.44765475
-1.0902984	SCONJ ADV X	-0.28262872
-2.1169796	<s> PRON X	-0.9127341
-1.379926	ADP PRON X	-0.45871997
-1.3413446	PUNCT PRON X	-0.39441752
-1.1972578	VERB PRON X	-0.49159023
-1.5201862	NOUN PRON X	-0.28940573
-1.6190009	PART PRON X	-0.31762353
-1.423074	NUM PRON X	-0.31762353
-1.6136326	CCONJ PRON X	-0.31762356
-1.2098019	ADV PRON X	-0.3133454
-1.6522299	X PRON X	-0.31762356
-1.437372	SCONJ PRON X	-0.31762356
-2.7970276	<s> DET X	-0.4874065
-1.250532	ADP DET X	-0.43414956
-1.4005636	PUNCT DET X	-0.30466637
-1.3178334	VERB DET X	-0.3795387
-1.7831718	NOUN DET X	-0.30148655
-1.6155345	PART DET X	-0.31762353
-1.6612291	CCONJ DET X	-0.31762356
-1.7445035	ADV DET X	-0.31762356
-1.5736808	DET DET X	-0.31762356
-1.4437475	ADJ DET X	-0.31762356
-1.5122598	X DET X	-0.30148655
-3.25804	<s> ADJ X	-0.31762356
-2.102259	VERB ADJ X	-0.31762356
-2.0227857	NOUN ADJ X	-0.31762356
-1.8052616	PART ADJ X	-0.31762356
-1.6807966	PROPN X X	-0.31762356
-1.2279645	ADP X X	-0.28328648
-1.2871282	PUNCT X X	-0.2778519
-1.6590338	VERB X X	-0.3094801
-1.89166	NOUN X X	-0.3094801
-1.5898068	PART X X	-0.31762356
-2.1674807	<s> SCONJ X	-0.41376287
-1.264153	PROPN SCONJ X	-0.31762356
-1.4463731	PUNCT SCONJ X	-0.31217766
-1.2161171	VERB SCONJ X	-0.28262872
-1.5633677	NOUN SCONJ X	-0.30148655
-1.2518038	ADV SCONJ X	-0.31762356
-0.932693	PRON SCONJ X	-0.30679923
-3.9699893	<s> PROPN INTJ	-0.30679923
-2.1609793	PROPN PROPN INTJ	-0.31762356
-2.2326164	PUNCT PROPN INTJ	-0.31762356
-2.2846096	VERB PROPN INTJ	-0.31762356
-2.264801	NOUN PROPN INTJ	-0.31762356
-2.9095514	<s> PUNCT INTJ	-0.45871997
-1.7119812	PROPN PUNCT INTJ	-0.368587
-1.856238	ADP PUNCT INTJ	-0.31762356
-1.6162007	PUNCT PUNCT INTJ	-0.368587
-1.5663809	VERB PUNCT INTJ	-0.5256668
-1.5066541	NOUN PUNCT INTJ	-0.5256668
-1.6715786	PART PUNCT INTJ	-0.2715635
-1.9095215	NUM PUNCT INTJ	-0.30148655
